439 128
5135 -0.019063422 -0.16352594 0.022505732 -0.16928653 -0.10695464 0.10665178 -0.17948096 -0.20155528 0.0977015 0.024301928 0.029827125 1.8932536e-05 -0.21231927 -0.05866141 0.19978164 0.11874264 0.016764028 0.12794113 -0.04873294 -0.33310848 0.111222066 -0.11995687 -0.034061205 -0.14681582 -0.053468447 -0.009046344 -0.03190531 -0.055323 -0.0057772673 0.20126648 0.21454607 0.22299922 -0.061940417 -0.087280504 0.1401938 0.040776838 -0.016034054 0.0030896696 -0.22097003 0.07568288 -0.022999598 0.14453143 0.050631735 0.04645372 0.079495594 0.041528843 0.11324765 0.11943318 -0.10435957 0.19841938 -0.14928192 0.096795835 -0.024974855 0.14699177 -0.12911077 -0.0888765 0.28530124 -0.012985156 0.11040853 -0.06475015 0.117081985 0.10440275 0.19148737 0.14871584 -0.19130474 0.15944481 0.02221726 -0.05726886 0.11363618 0.059646048 -0.0523363 0.1602967 0.024996767 -0.137323 -0.1923572 0.04662566 0.21703938 -0.09550398 0.059407663 -0.0041937097 0.20681058 -0.10067298 0.22850877 0.17658964 0.13498041 -0.17973724 0.060707845 0.006378229 0.21543342 0.04171394 0.05005933 0.0703561 -0.08569627 -0.17731266 -0.09920582 -0.16100225 0.16647615 -0.10210454 0.055694934 0.24746062 0.1985428 0.19819799 0.042564884 0.30417415 0.14698254 0.011162082 -0.034755442 -0.020467909 0.31176838 -0.022071475 0.017695926 -0.07032417 -0.27755296 -0.06595458 0.061533142 0.03463335 -0.13803929 -0.17464036 0.086005956 0.1604446 -0.22585076 0.198177 -0.20083584 0.006811485 0.1512392 -0.09858182 0.031096188 0.2183717
4171 -0.26699197 0.10796991 0.20349352 -0.24300306 -0.083022445 -0.1154814 -0.087239295 -0.16068669 -0.19799657 0.09191037 0.01092886 -0.1833145 -0.10556394 -0.19188225 0.15344892 -0.1292138 -0.055367675 -0.06990943 0.14757136 -0.02325284 -0.06340671 0.15855055 0.07747403 0.09443735 0.028626828 -0.07730633 -0.15785247 -0.14579305 -0.01905684 0.2852346 -0.096931115 0.23815854 0.11923708 -0.22401026 0.035167072 -0.14620277 0.19929746 -0.04503709 -0.08702586 -0.028342173 -0.014998781 0.03248798 -0.10604041 -0.11309443 0.033075243 -0.07471717 0.12858169 -0.07841253 -0.012653448 0.008054044 -0.13373506 0.21265022 0.3154939 0.04310018 -0.1418368 -0.12080905 0.43354228 0.043815445 0.26716492 -0.17039213 0.107439466 0.08700237 0.14584301 -0.16684887 0.031228451 0.17783745 0.027082596 0.057363 -0.054964345 0.031192148 0.0308099 0.06882022 -0.14196129 -0.08888661 0.034635574 -0.04242451 0.08579779 0.27556518 -0.019775685 0.17282283 0.20056103 0.07350678 0.2840651 -0.29849392 -0.18007815 -0.2588978 0.18711951 -0.103387855 0.12599608 0.0672543 0.36004815 -0.20122331 -0.09527612 -0.18544458 -0.072060086 -0.22397928 -0.15700518 -0.036459155 0.030550292 0.16435434 -0.03456967 0.06333421 -0.04235791 -0.038153127 -0.11480481 0.066216856 -0.08088328 0.17046505 0.06294283 -0.06631558 0.1099044 0.031545144 -0.055578258 0.14143337 -0.038969137 0.12888402 -0.011315167 -0.15356694 0.18887497 0.14214323 -0.09989444 0.28431135 0.052414577 -0.06552831 -0.26835635 0.083096534 0.12555923 0.29327422
3623 -0.41418216 -0.083064325 -0.0772421 -0.1170928 0.045806237 -0.19631028 0.035317056 -0.05350399 -0.04255355 0.0558926 0.23060524 -0.2517416 0.009454937 0.29411575 -0.121619865 0.059528735 0.047830913 0.23992802 -0.02221088 -0.25588965 0.06827377 -0.17012016 -0.14945754 -0.21912694 -0.012477115 0.04555667 -0.029324163 -0.07782751 -0.032109857 0.14873198 -0.015260701 0.010850999 0.03437461 -0.11292372 0.16359821 0.18917894 0.012370174 -0.085481785 -0.0309858 0.03024656 0.12949747 -0.008583312 -0.06397814 -0.3151664 -0.16594735 -0.10892928 -0.12704979 0.08086431 -0.025907122 0.039930828 -0.09303941 0.04944929 -0.07877016 -0.036159813 -0.23703733 0.1442739 0.35478047 0.08171632 0.045716044 -0.2144619 0.025347177 -0.14325581 -0.013755275 0.19171095 -0.07245379 0.13069879 0.1751988 0.07109733 -0.04661684 -0.032395773 0.044032183 -0.06195097 -0.059492473 0.019852826 0.023537548 -0.041064877 0.042164303 0.2146635 0.31197003 0.10173062 0.070252545 0.04801937 0.13308857 0.16171809 -0.031932235 0.2251147 0.11724079 -0.111162834 0.075696595 -0.035574578 0.15918176 -0.18353432 0.17782134 -0.25468817 -0.10199893 -0.014679689 -0.09944647 -0.07627553 0.057801284 0.08791778 0.2458863 0.004611778 0.06909901 0.19667672 0.043473378 -0.001409507 -0.049014032 0.11797974 0.031586595 0.032318085 -0.09537381 0.013337383 -0.1554557 0.009006097 -0.020138964 -0.22745997 0.14097758 -0.08502661 0.076445416 -0.051001243 -0.123109594 -0.07407907 -0.009969977 0.051496763 0.01724282 0.0933572 0.07718511 0.032636765
4854 -0.13641855 -0.040266078 0.0497294 0.113148324 0.042857483 -0.051168118 0.015434181 -0.05233898 -0.13409846 0.18374993 0.09940587 -0.021789515 0.052670676 0.12310897 -0.03125528 0.05187079 -0.19330269 0.11115263 -0.13185649 -0.011487735 -0.0866619 -0.014769534 0.08824225 -0.0006492236 0.040213857 -0.1910262 0.13851625 0.013511484 0.08887132 0.17395599 -0.0989129 0.18218453 0.21086915 -0.082898155 -0.0027618993 0.08863831 0.10995037 0.25704286 -0.12672071 0.06123657 0.22994187 -0.13878083 0.12333484 -0.12607579 -0.24207953 1.26023115e-05 0.01054636 0.06227564 -0.22245407 0.07735407 -0.010860422 0.14509368 0.021032836 0.025906624 -0.28646427 0.3178281 0.083982274 -0.21766713 0.03603995 -0.10876675 -0.029227477 -0.21771215 0.0013863702 0.26186103 0.0053337663 0.23359007 0.058899995 0.03867603 -0.23286761 0.20154563 0.038718447 -0.3198508 0.033378374 -0.08110603 0.101088844 0.16332926 -0.15019727 0.31478387 0.066695645 0.22848311 0.10308225 0.04344108 0.04028904 0.063982226 0.2007256 0.13244048 -0.025839776 -0.045830004 -0.16995862 -0.10602828 0.077255346 0.041098602 0.089322716 -0.29591578 0.026756847 0.02836975 0.09376355 0.012855561 0.038956776 0.1609239 -0.041053317 0.1305781 0.15612161 -0.008702163 0.038406167 -0.025247341 -0.06068806 0.16617218 0.2891505 -0.10458202 0.17552245 0.24843906 0.012841145 -0.11806568 -0.022478618 -0.09106531 -0.09326699 -0.18624169 -0.039830867 0.104118474 -0.07569902 0.13457888 -0.19782911 0.063613266 -0.07570914 0.06659873 -0.017373117 0.098694704
1494 -0.009612294 -0.18136297 -0.10749308 0.09324402 -0.0041205687 0.06422881 -0.12534645 -0.15265827 0.009730628 0.081059754 0.08447889 0.020056276 0.11037193 0.11628398 0.22604308 -0.012257605 -0.17071824 0.15955122 0.12289887 -0.044108115 -0.016947117 -0.046133615 -0.066667244 0.33086947 0.15650769 -0.117572784 0.3342912 0.08953971 0.2518609 0.053276226 0.25763953 0.09324579 0.059944075 -0.16636829 -0.22403927 -0.071196064 -0.14098841 -0.09718565 -0.14012249 0.020366684 0.16162342 0.031813003 -0.18129256 -0.013874945 0.100917116 -0.32561356 0.05713145 0.08863352 0.022932597 0.23288047 -0.013948802 -0.12177529 -0.080169685 0.020545628 -0.11750758 0.32513064 -0.13267286 -0.00037812584 0.056781854 -0.1145284 0.009082741 0.12990063 -0.17684512 -0.02059312 -0.014300508 0.35102546 0.24369048 0.23141588 0.07008533 -0.05256852 0.12206329 -0.05445074 -0.1217844 0.07572025 -0.23759738 -0.30721194 -0.1787842 -0.032466307 -0.018932601 0.08300217 0.25810874 -0.21013683 0.04950723 -0.0106719285 0.103710674 -0.09264528 -0.049769986 -0.1695863 -0.17532454 0.051693972 0.22955994 -0.05856687 0.12184072 -0.3720372 0.16091272 -0.060400628 0.23135157 -0.2517446 -0.06330684 0.16429833 -0.18168505 0.036017127 0.05325604 0.18761602 -0.076803155 0.054755785 -0.023766672 0.08249051 0.17427927 -0.073303744 0.0320979 0.025922649 -0.11509814 0.26833764 -0.0727657 -0.09100029 0.03857252 0.08881466 0.032209665 0.1633514 -0.1327663 0.047288235 -0.021763666 0.06785079 0.013061774 -0.29312477 -0.17469062 0.095483884
5 -0.13080743 -0.069229305 -0.104959115 -0.11934734 0.0075337943 0.043821655 -0.12117579 -0.11615205 -0.18302386 0.16697001 0.10821889 -0.31775317 0.06938814 0.09873004 0.1277987 0.22387303 0.2399129 0.045872677 0.29158798 -0.30373144 -0.19085157 0.0827679 -0.06595724 -0.10332464 0.16940567 -0.048654437 0.15212369 0.037224 0.16589612 0.2518991 -0.25708923 -0.19455446 0.17166473 0.29193404 0.1263331 -0.005025075 0.21176626 -0.00830787 0.12805146 -0.12880406 0.14619389 -0.018039199 0.006077584 -0.23392887 0.12205879 0.04114333 -0.1055663 0.07110569 0.04897183 -0.106071204 -0.050324675 -0.015985405 -0.11749441 0.12713191 0.0050711064 0.13566329 0.16866387 -0.012799764 0.22169071 0.07997154 0.05426247 0.078839086 0.0594531 0.15897721 -0.00043210352 0.38461113 0.21956526 -0.08093393 -0.091685526 0.019096265 0.009699313 -0.14397882 0.27999222 -0.019890077 -0.05128359 0.0026968394 0.04017743 0.16092342 -0.0038484335 -0.14018272 0.32563704 0.09395583 -0.029377615 0.2672022 0.098410554 -0.031627085 -0.14481413 -0.042950314 -0.06852045 0.08525014 0.07683494 -0.029284704 0.12264194 -0.19501202 0.07193392 0.16639033 -0.20550066 -0.0018758454 0.044534374 -0.018930295 0.1478159 -0.06491145 0.29674968 -0.0073116035 0.015907792 0.12086861 0.20086329 -0.2102711 0.30575767 -0.2607292 -0.13271508 0.2085725 -0.33040634 -0.18086381 0.01804543 -0.00044364808 0.18307339 -0.027043251 -0.031106507 0.13885841 -0.21281016 -0.14429213 0.15029095 0.052658893 -0.25991946 0.16214028 0.017738482 0.32124752
1595 -0.33903775 -0.015328679 -0.18854518 -0.2174206 -0.11592652 0.19935262 -0.17908376 -0.08046093 0.14131095 -0.11300403 -0.09481912 -0.110966675 0.16656645 0.007948271 0.20448993 0.10433302 -0.050762337 0.06487116 -0.1354606 -0.24543598 0.020299451 -0.042161684 -0.06352187 0.09851844 -0.066317864 -0.21402326 0.10061645 0.11233141 -0.14941876 0.21381857 -0.024437517 -0.12658907 0.068181455 -0.20742328 0.05641183 0.12090244 -0.04869716 -0.13634478 -0.051143724 -0.0003838518 0.06925479 -0.23910393 -0.054288525 -0.06693837 0.23894525 -0.2772561 -0.07150587 0.07535483 -0.2886088 -0.11429876 -0.13940361 0.19325852 0.049847893 -0.09296557 -0.1612429 0.20996119 -0.09122486 0.083068036 0.12321762 -0.11287543 0.13036917 -0.0034240456 -0.0030522894 -0.060883455 -0.1441993 0.18369278 0.18299879 -0.0038360776 0.10325076 0.04940567 0.117024764 0.051597804 0.042151414 -0.13560407 0.0052013756 -0.0070602237 -0.001084948 0.08390411 0.15218253 0.16623819 0.120888904 0.18583912 -0.09020068 0.40782768 -0.09277732 -0.0051733027 -0.15012155 -0.14457354 0.04345531 -0.03442642 0.021624185 -0.102756426 -0.008227812 -0.029604547 -0.06639558 -0.000546089 0.04417821 0.0108098155 -0.04456869 0.33008155 -0.14006585 0.08359337 0.0037237068 -0.20686543 -0.15040429 0.23982078 0.0659461 0.28655243 0.21561933 -0.09041531 -0.017885182 0.028192708 -0.19941333 0.0043848283 -0.0006930782 -0.005086985 -0.013837445 -0.09450035 0.008955519 0.28222883 0.3291919 0.047665115 -0.12939766 0.02337763 -0.18860254 0.026203943 0.18354103 -0.101061106
3838 -0.14592203 -0.07758924 0.021761741 -0.10875756 0.021937838 -0.067673594 0.036882147 -0.12834845 0.12002722 0.023657389 0.20771472 -0.15532114 0.08759613 0.056476776 -0.08572181 0.008023523 -0.19907227 0.142496 0.14280283 -0.16527648 0.018587817 0.10454644 -0.16366267 -0.21998188 0.11969115 -0.2384928 -0.017536372 -0.008702188 0.10059345 0.0070399838 -0.2161421 0.054128475 0.28356743 -0.2979972 0.21154182 -0.048650376 0.040876403 -0.07251537 -0.03359813 -0.14237338 0.10354468 0.10618047 -0.1245915 -0.32551658 -0.10158432 -0.231756 -0.021506315 0.11975831 -0.057902556 -0.090844415 0.08611708 0.023146546 -0.18997622 0.02362711 0.11848017 0.17566188 0.52049834 -0.044582993 -0.024401756 -0.10527407 -0.039232522 0.079035625 -0.124280825 -0.027831238 0.17713235 0.13035673 -0.053146575 -0.13111784 -0.10905744 0.09002533 0.051933598 -0.18451339 -0.041015215 -0.16237774 -0.049183104 0.13301376 -0.12003911 -0.13706295 -0.009341903 0.24297868 0.090720855 0.050241727 0.02998838 0.04508134 -0.17896757 -0.014560154 -0.09078874 -0.08601773 0.11480184 -0.046139408 0.24443533 -0.054221753 -0.024721056 -0.36374995 -0.05935199 0.033423357 0.159125 0.010989039 -0.0108949505 0.045122296 -0.045414593 0.46758002 0.019644314 0.043154817 0.15298696 -0.048574053 0.08523524 -0.07267446 0.15528367 -0.17297353 0.0038683626 0.17458004 -0.18060185 0.088059396 -0.13482486 0.12483182 -0.36497143 0.014595067 -0.012527633 0.033699814 -0.3353297 -0.033150114 -0.2627628 0.08371142 -0.36236176 0.12411429 0.18243645 -0.048991617
339 -0.21646784 0.09472868 -0.12939322 -0.16917776 0.15715681 -0.22325484 0.08926541 0.027696209 -0.04385462 -0.12138524 0.07703759 -0.080627926 0.15033309 0.059049595 0.024887387 0.21242142 -0.07646842 0.36745822 0.14212324 -0.16817302 0.047470767 -0.20619945 0.11927858 -0.33745688 -0.22709763 -0.096637405 0.22406147 -0.050085235 0.014646222 0.01307095 -0.19980332 -0.017622475 -0.21834797 0.0033230677 0.0986228 0.1488205 -0.0027901311 -0.045506522 -0.17833297 -0.07503524 -0.03365223 -0.050587405 -0.11870384 -0.0842214 0.061120085 0.110793285 -0.11688804 0.11926609 0.00038534604 0.117709674 0.25676823 0.03603507 -0.2895906 0.23099105 -0.044097345 -0.00038528698 0.27135345 0.09116068 0.09465679 -0.21831472 0.32664222 -0.13957524 0.11013478 0.094488814 -0.09734159 0.465035 -0.014496647 0.200185 0.16832553 -0.052461598 -0.0099613415 -0.1453018 0.020622559 0.15070118 0.057800326 0.15310882 0.006490315 0.17512965 -0.026994659 0.18626559 0.1807472 -0.066521354 0.11366959 -0.066192664 0.07976955 0.014439267 -0.13078065 0.035833802 0.12452405 0.20514402 -0.13991816 0.02509725 0.06038629 -0.19200863 0.04823246 -0.19717337 -0.18390773 -0.015715823 0.0043738773 -0.12922287 -0.09702887 0.03279421 -0.0899241 0.16806969 -0.05121762 -0.007463722 -0.18750621 -0.11379426 0.18092206 -0.10103134 -0.166127 0.16371246 -0.06524207 0.12394003 -0.1494852 -0.19313413 -0.3354033 -0.13811553 -0.18450579 0.05359967 -0.031139221 0.1330398 0.19736858 0.0806628 -0.16809544 0.20730235 0.045811158 0.15415853
1049 -0.22791763 0.008925985 0.112131886 0.07863203 -0.014794307 0.12803736 -0.0921961 0.13459088 0.0030892296 0.25403854 -0.16500764 -0.123120435 -0.28346926 0.0035590879 0.011525272 -0.046102278 -0.09203095 0.20031203 -0.26457664 0.05023084 -0.27525684 -0.054879285 0.2153157 -0.04735131 0.045698985 -0.19824295 0.12366497 0.052918497 0.3149351 0.0004823397 0.09753098 0.13254566 -0.08917671 -0.14747103 0.23833463 -0.17222163 -0.17180954 0.10454851 -0.20752265 -0.13986006 0.15163516 0.23973967 0.20301273 -0.20985551 0.09644701 -0.37867013 0.07812702 0.054366175 -0.3874966 0.0034397936 0.13595936 -0.096889995 0.12097358 0.17196684 0.15276769 0.11938505 -0.05011529 0.019896625 0.077310055 -0.018679276 -0.23828006 0.163428 0.25841397 -0.046783503 -0.27893203 -0.0068076416 0.016076965 0.06527066 -0.20496769 0.1295824 -0.2215593 -0.1428239 0.22909677 -0.23447858 -0.06544462 0.16677569 0.051524937 -0.15903175 0.23698235 0.0734424 0.27629548 -0.11624336 -0.056562703 0.15872608 -0.14686611 -0.061426427 -0.11527406 -0.055612333 -0.17434251 0.16059329 0.12398347 -0.11342685 -0.06335698 -0.35967782 -0.013758847 -0.09177949 -0.021094795 -0.21741547 -0.042318366 0.23747626 -0.21668987 0.14475226 0.0909381 0.11294721 -0.13684878 -0.13004863 0.100037456 -0.10020923 -0.20033984 -0.16451639 0.054336388 0.075134754 0.12950423 -0.066699214 0.19035947 -0.09743132 -0.1953326 0.020910509 -0.08410064 -0.033751342 -0.00874179 0.0112133045 0.005773874 0.1559557 0.052147456 0.019453233 0.08788852 0.103636034
5020 -0.25137502 -0.105081506 -0.05138604 -0.24111684 -0.25647926 0.032211065 0.08531797 -0.20856118 -0.06678357 -0.0029664175 0.18956688 -0.43232325 0.15571263 0.1229489 -0.0639782 0.22462481 -0.093631834 0.075180724 0.006002198 -0.11241904 -0.19721358 -0.113436945 0.30006218 -0.18094964 0.13957652 -0.16757013 -0.05218335 0.09922 0.07775654 0.04898524 -0.04674372 0.17871131 -0.085884996 -0.095280185 0.20728335 -0.31042263 -0.113428086 0.08520797 0.14537245 0.09828698 0.073557444 0.20139939 0.014842104 0.059122887 0.18619525 -0.3369357 -0.19530249 0.12063235 -0.082158044 0.22034205 0.13889135 0.094406635 -0.12151415 0.15951154 -0.21191864 0.23894861 -0.10667533 -0.18007076 -0.059297703 -0.10877422 0.10855896 0.14190295 0.03393989 0.05652196 0.24571764 0.17147945 0.07299676 -0.033105846 0.12517987 -0.1900501 0.1230604 0.16723113 0.115150645 0.100301765 0.1116622 -0.09143493 -0.00914843 -0.076693706 -0.14747137 0.23090582 0.124455556 0.06392083 -0.13209185 0.12071946 0.34661412 -0.07826329 -0.05664305 0.23915288 -0.115930356 -0.031413004 -0.027694948 -0.08586942 -0.09298629 0.31184408 -0.13227907 -0.20396274 -0.39286274 -0.028254492 -0.03186147 0.09236918 -0.03793244 0.055082515 -0.003348597 -0.08532499 -0.25939873 -0.05143009 0.05025558 0.11813106 0.033572108 0.013472796 -0.045047477 -0.16875115 -0.013708424 0.072568856 0.09077205 -0.11199938 -0.17920974 -0.2217956 0.468457 0.29229206 -0.07248798 0.14390346 -0.1900811 0.18932728 -0.07481483 0.042108685 0.25332186 0.22241877
916 -0.09051792 0.08691834 0.16686137 0.03456241 -0.13351431 -0.07791026 -0.1416467 0.07827258 0.052920062 0.022354832 0.044243928 -0.28894693 0.017757544 -0.1494025 -0.1328263 -0.123196155 -0.17428133 0.26507187 0.03446177 -0.099561594 0.113949865 0.14642404 0.25684646 -0.3045685 -0.13299355 0.025253039 0.18768379 0.21769539 -0.044202555 0.014468502 -0.019152937 -0.10644177 0.30733106 -0.16130027 -0.005130546 -0.102574416 -0.3364369 0.16110253 0.011399583 0.16465864 0.012450385 0.082419336 0.010736945 -0.27379137 -0.2670294 -0.15063463 -0.23676544 -0.12365013 0.062185153 0.05237028 -0.0057285717 -0.12073603 0.09532687 0.010916798 -0.33335948 0.09080081 -0.10518147 -0.15170328 0.14597592 -0.17218396 0.13536118 -0.005970106 -0.014818313 -0.058333743 0.034560602 0.0600571 0.09486347 -0.10822956 -0.13239914 -0.113475375 -0.036662184 0.116307765 0.034851078 -0.16732104 -0.22144277 0.0072005587 -0.06383914 0.2511896 0.06306566 0.05787569 0.21503448 -0.10936199 -0.05591075 0.29331583 -0.049899407 -0.053922355 0.102104835 -0.0360705 0.26802203 0.23049763 0.35129756 0.044174127 -0.1649246 -0.27348062 -0.27709755 -0.23676202 -0.12332941 -0.09610103 -0.04727454 0.10807788 0.016963063 0.16911073 0.17555012 -0.05875186 -0.30569872 -0.011329735 0.31847882 -0.052500494 0.2379038 -0.009005553 0.006451836 -0.032299697 0.031002553 -0.03743046 -0.54306054 0.277706 -0.28819945 0.16247787 -0.08215728 0.16353291 -0.060894907 -0.05679333 0.2022403 0.115996115 -0.08052987 -0.17334029 0.037883725 0.2770738
3300 -0.050722644 -0.30895463 -0.16669732 0.14554648 -0.10634734 -0.09384485 -0.21295847 0.042660948 -0.015611876 0.09193012 -0.07496454 -0.47173706 0.043192312 0.19688089 0.054550685 0.092458166 -0.01836109 0.1573648 0.0037593537 -0.058029264 -0.1537679 0.112258956 0.11676521 -0.11934071 -0.04870219 -0.15402462 0.024839802 -0.24997413 0.0817188 -0.0070663206 0.14044036 -0.19881791 -0.20372336 -0.08083383 0.004311742 -0.18273228 0.053159043 -0.20243989 -0.015392797 -0.027297435 0.09294215 -0.17165694 -0.113667764 -0.15906008 0.04711041 0.07816491 -0.095717914 -0.091192365 -0.1946948 0.031568192 0.18167712 -0.011027294 -0.38785294 0.09076613 -0.05561297 0.15367891 0.13328627 -0.16324054 0.061249197 -0.15048395 0.10310035 0.13764867 -0.13338168 -0.016462171 -0.029820751 -0.024108034 0.2702124 -0.1571854 -0.3071254 -0.04554677 0.19209857 0.24663532 0.0011170416 -0.08654213 0.18594001 -0.21475628 -0.15571916 -0.053858224 0.090367764 0.41639763 -0.11055006 -0.15039238 0.0787005 -0.003656487 -0.20730145 0.17433146 0.060702898 -0.20086023 0.5029246 0.0035369566 0.29435745 0.079964094 -0.080331035 -0.19831823 0.1694892 0.15106814 0.038440775 -0.0009439626 0.016057713 0.36195394 -0.00457762 -0.013530067 -0.026307667 -0.08413471 0.07456482 -0.038940877 0.10169962 0.1990342 0.1838598 -0.0869617 -0.021149179 0.022351077 0.124295846 0.037771482 0.084742196 0.33984157 -0.053545196 -0.23556961 -0.00990724 -0.17686671 -0.08281833 0.13693905 0.04847007 -0.075037174 0.0945969 0.007884968 -0.0066525247 0.090701506
3818 -0.4260694 -0.03093363 -0.11442325 -0.084190495 0.054309748 -0.0406658 -0.32306102 -0.19930573 0.18034033 -0.24029402 0.17986165 -0.123711735 0.04574634 -0.06890843 0.0236719 -0.18081698 0.033445723 -0.07539264 -0.027869152 0.04672289 -0.010097323 0.02978983 0.27086708 -0.2604838 -0.21944185 -0.11273578 0.23803724 -0.23925355 0.08018631 -0.091559626 -0.21438776 -0.17477041 0.30976102 -0.07411737 0.19233552 -0.060841158 -0.3127438 -0.19723642 -0.123791195 0.0014127962 0.31612828 0.22640248 -0.13076405 -0.3226827 -0.08393861 -0.20366399 -0.065564655 0.14043616 0.1288363 -0.0075821057 -0.056648966 -0.10030159 -0.17332263 -0.19047596 -0.26229045 0.043826897 0.06840485 -0.045815423 -0.08069863 -0.015694391 0.25340846 0.021901203 0.09983491 -0.041595258 -0.1268575 0.00044115045 0.22148369 0.22723463 -0.013042064 -0.15174757 0.0014668766 0.080108196 -0.036234032 -0.070275046 -0.2685626 0.10700871 0.12266375 0.16156381 -0.34201247 0.12036751 0.30681887 0.048684716 0.011147569 -0.05712861 -0.11670638 -0.1739481 0.22028665 0.11886581 0.10125769 0.05141307 0.06438434 0.039378524 -0.22049345 0.0005797423 0.039574824 -0.094764024 0.015347779 0.22321637 -0.091861814 0.27679548 0.42227092 -0.14008188 0.12175396 -0.04047177 0.0970876 -0.075887986 0.09196625 0.09870287 0.07803096 0.06564954 -0.11049916 0.047427975 0.06890093 -0.13949497 -0.2256184 -0.23495655 -0.11697069 -0.26642656 -0.109093264 0.11739637 -0.22597402 0.17691194 0.19674625 -0.09431269 0.058416504 0.12990755 -0.0056260023 0.12611006
3994 -0.2566239 -0.114635766 0.003075516 -0.066942595 -0.09237176 -0.18623872 -0.18568256 -0.16026987 -0.21962954 -0.09144377 0.29183012 -0.13339119 0.028565645 -0.017447291 0.082169876 0.1225974 -0.07708831 0.19403414 -0.18300319 -0.013451441 -0.06263749 -0.018736083 -0.08367777 -0.02926548 0.008895449 0.19948855 0.26273236 -0.13979605 0.119811796 0.13743685 -0.08156587 -0.24489847 0.049366504 -0.09408132 0.26878124 -0.12338494 -0.15305811 -0.16378792 -0.2646546 -0.032359093 0.40652996 0.22413953 0.058468096 -0.23836932 -0.039490044 0.23595528 -0.16703036 0.115966484 -0.35843435 -0.107029475 -0.13700536 -0.010100353 0.10805681 0.060438838 0.09342161 0.04754365 0.12765273 -0.037237212 0.2460307 -0.20673098 0.020618968 0.22272179 -0.012771221 0.25067365 0.320394 0.3049383 0.1161404 0.10750565 -0.1342775 0.0720082 -0.059366055 -0.08175668 -0.18243529 0.04632476 0.19966929 0.18588676 -0.08629559 0.07356896 0.09554388 0.3740044 -0.10329815 -0.10001814 0.016193938 0.106983304 0.039449118 0.1522261 0.019124227 -0.046185005 -0.17662255 -0.29342186 0.0817696 -0.056714073 -0.10820801 -0.28830245 -0.16605578 0.13437311 -0.06524119 -0.27479988 -0.029210886 0.0927247 0.23594345 0.003733116 0.23876905 -0.036572464 0.094313174 -0.15449212 -0.2907719 -0.1662783 0.27455077 0.16508378 0.024636304 -0.012106106 -0.05313447 -0.03677923 -0.25572345 -0.10889654 0.32352555 -0.30389452 -0.06197061 -0.13644215 -0.008793554 -0.09916184 -0.16085985 0.20216188 0.102504104 -0.025716601 0.17255765 -0.08169292
1228 -0.2018867 0.032461166 0.06897514 0.055543732 0.002182034 -0.106705256 -0.13456073 -0.19798198 -0.104522415 0.091303915 -0.026877739 0.029946929 -0.0015689693 -0.17657517 0.07584539 -0.24571976 -0.27418774 0.096956 0.14334585 -0.08081146 -0.18634063 0.03250583 0.09366314 -0.49035895 -0.14698967 -0.0900708 0.08560595 -0.1580172 -0.02980621 0.15697944 0.0075100902 -0.08103623 0.0017006932 -0.31948805 0.0041393805 0.14841197 -0.51116645 -0.13424605 -0.04212785 0.3726823 0.18092434 0.10777599 -0.20969816 -0.2674061 0.026013002 -0.13830823 -0.07089762 -0.32140422 -0.056678735 0.10455966 0.0007772499 -0.14970769 0.20724596 0.014088198 -0.28916666 -0.050820805 0.37258932 -0.14652044 -0.017689036 -0.05088172 -0.04017933 -0.16110289 0.32398644 -0.044296786 -0.07037656 0.07365524 0.15254703 0.01312439 -0.05530143 -0.06404753 0.18642828 0.26308548 -0.027261678 0.19699265 -0.14472239 0.022672094 -0.085825056 0.0019914135 -0.10496569 0.13703705 0.31936213 0.11069147 -0.07666365 0.05746027 0.08351656 0.05549513 0.05659156 0.14878613 -0.12111358 -0.032899167 -0.06272265 0.079663076 0.06719394 -0.17808816 -0.20210291 0.04544242 0.011406035 -0.0391107 -0.23081346 0.14027643 0.032386746 0.0026963055 0.07825713 0.1776346 -0.057642173 0.0483083 0.09267643 -0.100394435 0.14743909 -0.009676703 -0.25862652 -0.023968562 -0.03984469 -0.09177331 -0.27601707 0.12371739 -0.18573716 -0.13873544 0.051199205 0.3292305 -0.1649212 0.07643318 -0.009462828 0.17014368 -0.16521944 -0.08324813 -0.13185649 0.16284457
4713 -0.23337139 -0.2583596 0.19070055 -0.35471377 0.10326998 -0.14609034 -0.03160284 0.065558985 -0.20445262 -0.22545919 0.15082797 -0.31581596 0.120680764 0.004528362 0.2790458 0.17060238 -0.06272864 -0.14560156 0.13329849 -0.17630792 -0.10934877 -0.04696988 -0.020154707 0.04455923 0.09466674 -0.24476354 -0.09269021 -0.14593546 0.01268766 0.26697564 -0.0004942326 -0.23754287 0.113212414 -0.30270764 -0.08619268 0.12159456 -0.17154568 0.065214515 0.04696846 0.101537265 -0.025458092 -0.06645231 -0.3033731 -0.50341207 0.20893544 -0.0976483 0.039399102 0.1805304 -0.1839627 0.28395146 0.24795471 0.05134755 0.19544157 0.31546107 -0.10874567 0.13299981 0.25958073 -0.20808855 0.10342093 0.097651534 0.12814516 0.24313393 -0.15838319 -0.11859506 -0.11195476 0.13440572 -0.09208602 0.057747524 -0.09663697 0.1457512 -0.08083567 0.10757281 -0.23709232 0.010082235 -0.051291093 0.13023226 0.10346972 -0.12321464 0.28806174 -0.15938646 0.22675638 -0.17177166 -0.32702234 -0.13352011 0.009175651 -0.20804712 0.20846385 -0.066629484 0.14996277 -0.06699827 0.09209072 -0.074118674 0.27740315 -0.19225511 0.12909743 0.075768135 -0.12684566 -0.078321904 -0.05005262 0.24138549 0.02887667 0.11995365 0.034818154 0.11298296 0.0063005043 -0.07596026 0.19893657 0.18055418 0.20635024 0.089500114 0.14635725 0.17129482 0.051957507 0.17818643 0.11362457 -0.1258589 -0.2790863 -0.15199551 -0.17126112 0.12531526 -0.11270199 0.0134679675 -0.1785843 -0.22378676 0.0722407 -0.036421064 0.10047315 -0.042722158
5463 -0.12566511 -0.24037507 -0.12132098 -0.030208414 -0.2673889 -0.14248885 -0.09079668 0.0813695 -0.09893234 0.13007843 -0.072171494 0.12904407 0.019052515 -0.07187499 0.13447766 0.0072884425 0.06341713 0.062613316 0.02193696 -0.05232138 -0.1877589 0.10128845 0.18289198 0.022353979 0.12776385 -0.2424762 0.035983935 0.20910636 0.102411956 0.02040784 0.13884246 0.05418332 0.1025673 -0.010163253 0.20995948 0.090849735 -0.04870283 0.047850538 -0.2491008 0.06702415 0.105986215 0.011667821 -0.075134575 0.027781086 -0.1009191 -0.033525396 0.04927552 0.12240633 0.010940913 -0.052591283 0.0032227775 0.035655126 0.11489293 -0.03952424 -0.17281759 0.22594297 0.25808382 -0.024551135 0.2340176 0.022669759 -0.098714076 0.06285998 -0.120080814 0.124965936 -0.100764565 0.059858873 0.035738192 0.15421519 -0.055064112 -0.13894959 0.1647347 -0.026945202 0.031083161 -0.19049403 -0.11089116 0.054702245 -0.35905254 0.099908166 0.12619302 0.014764562 0.0999871 -0.15072313 -0.20750518 0.007812654 -0.06068548 -0.11614426 -0.13276611 0.044023152 -0.05219124 -0.022401059 0.099022865 0.11299944 0.059978113 -0.19530895 0.03827169 -0.21163711 0.012577466 0.06425469 0.08144855 0.46519276 -0.043719172 0.10262135 0.3018328 0.0026320287 0.03096914 0.08861588 0.068977244 0.09185839 -0.17928441 -0.06032794 0.04306578 0.03647429 -0.19927278 0.028904913 -0.10613525 -0.2772808 -0.18155412 -0.13278423 -0.35489783 0.02869545 -0.22827397 0.10127768 -0.26118183 0.07309899 0.019082895 0.2287833 -0.11843815 0.121522516
5789 -0.3224466 -0.011501496 -0.031009058 -0.09105214 -0.08970718 -0.10322062 0.14866738 -0.13107134 0.13727885 -0.2839401 -0.03516351 -0.07396192 -0.08125034 -0.03842697 0.029324003 0.23123969 0.11102777 0.29309985 -0.011718392 0.092252865 0.23355025 0.13705574 -0.09242543 -0.21055721 0.08483776 -0.1520769 0.0739128 0.08344864 0.08216767 0.117832206 -0.18281044 0.08840774 -0.1520833 -0.31969425 0.39184344 -0.27038345 -0.23562899 0.11012527 -0.049559835 0.035051104 -0.09462335 -0.03918469 0.051381845 -0.06740227 0.052837558 0.19482028 0.13386402 0.07084408 -0.24171263 0.02317207 -0.051832903 0.09393263 0.21110879 -0.21229704 0.019109419 0.14122444 -0.07246899 -0.11529276 0.21178655 -0.25120252 0.09811925 0.11926617 -0.009409383 -0.094426386 -0.31766072 0.08718032 -0.0068756663 0.16273059 0.0865841 -0.27684844 0.25221488 0.41538775 0.31199372 0.042630948 -0.09053849 -0.032079227 0.108409174 0.0758903 -0.2551449 0.055172015 0.3473861 -0.028066594 -0.07842815 0.044867843 0.21310441 0.02125775 0.26994324 -0.004047745 -0.23817928 -0.10918636 0.3153853 0.03878036 0.3212495 -0.32474056 0.05139785 -0.08982505 -0.08582347 0.108946 0.18486737 -0.03555443 -0.09998386 0.13897564 -0.0055969376 0.14505161 -0.015432606 0.037002414 0.22267774 -0.037464898 0.12207045 -0.00821009 -0.31974974 0.08807898 -0.11541957 -0.033331204 0.15204658 0.085812464 -0.13363783 -0.08021119 0.17681156 0.34898704 -0.07388114 0.018005947 0.15086395 0.13160953 -0.29481217 0.16857167 0.04303162 0.24335164
4257 -0.24259987 0.12539925 -0.044414178 0.031716596 0.08675989 -0.3905154 -0.1059017 -0.07994512 -0.18025991 -0.041565143 -0.08067083 -0.17038548 0.038542382 0.00837496 -0.04166951 -0.019711299 0.0099099325 0.15065347 0.049647875 -0.1561612 -0.070382535 -0.06187344 -0.21543634 -0.19015794 -0.031154301 0.22596028 0.036015175 -0.20675015 0.12478326 0.30213365 -0.0018013443 -0.05709785 0.18581858 -0.30503556 0.06596756 0.28965235 0.05859273 -0.084792994 -0.1720932 0.19474171 0.19239232 0.099099204 -0.2665175 -0.3258623 -0.16959062 0.0559049 0.08262341 0.1261791 -0.19810992 0.31243268 0.24238116 0.16135421 -0.32223675 -0.0012381155 -0.12684113 0.28648376 0.26191434 -0.04913776 0.08191694 -0.100092515 0.04428445 0.1922684 0.024925556 -0.009496868 0.20035179 0.21655427 -0.04887182 0.36823478 0.060542673 -0.021196732 0.048668966 -0.076174535 -0.15458575 -0.023090094 -0.13128085 0.09269323 -0.07316235 -0.07147119 0.16723892 0.14600039 0.105981454 -0.018595237 -0.08026554 0.14473511 -0.05836623 -0.051949687 -0.14330857 0.063460514 -0.08611947 -0.17451711 0.07237785 -0.10141726 -0.121769406 -0.19788732 -0.22283491 0.10596962 -0.027458053 0.08871984 -0.24852365 0.066802025 0.069224134 0.026584793 -0.028564353 0.15134092 -0.012555348 -0.19285233 0.3241197 -0.0033435079 0.103265695 -0.002724996 0.017756777 0.14967747 -0.13795735 -0.057781775 0.13891298 -0.08834623 -0.039695475 0.08096292 0.11295154 0.28445992 -0.11603491 0.24286495 -0.047543574 -0.13587049 -0.41791746 0.069508106 0.0016951071 0.23260084
5345 -0.110868245 0.26926258 0.04105156 -0.16116923 -0.19027555 -0.3480363 0.12984842 -0.11101362 -0.13852318 -0.12208715 0.15201303 -0.005810795 -0.022331642 0.09604843 -0.06539515 0.023181854 -0.025462154 -0.1979221 0.04497127 0.08879901 0.039773244 0.008334904 0.40317792 -0.20801468 -0.086283796 -0.4486464 0.060304325 -0.006797471 0.14647971 0.049835175 0.035655476 0.31178567 -0.050865572 -0.27757767 0.30576044 -0.20090549 -0.14223324 0.024084264 0.13299686 0.31380647 0.08298698 -0.031948715 0.03249949 0.030667927 0.14782488 0.15042916 0.10036811 0.048703205 0.054007597 0.23408239 -0.097599104 0.14941551 -0.30435175 -0.001224958 -0.022213407 0.18912183 0.14216504 -0.11905932 -0.10332165 -0.07917195 0.17182553 0.32883003 0.14841524 -0.008548056 -0.09634255 0.27736652 0.20107554 -0.2959717 -0.22106585 -0.06373908 -0.02267618 0.12560415 0.32038444 0.03794704 -0.026792753 -0.021797856 0.0129415495 0.18067828 0.06597407 0.010080294 0.41461995 -0.13312891 -0.0076604057 0.038394306 0.26628765 -0.026575368 0.03533113 0.23028536 0.13811167 -0.025405588 -0.08990612 0.018810144 0.07484386 -0.17457458 -0.16620573 -0.023651965 -0.020020414 0.017937165 0.070361644 0.07957407 0.14762908 -0.018564068 -0.015943736 0.10158107 -0.13246456 0.012203755 -0.015601079 -0.019899247 0.17054337 -0.07801356 0.0778577 -0.1106005 -0.24099219 0.117055 -0.1575343 -0.21493958 -0.36901766 0.08788062 0.10032542 0.20197967 0.051873628 0.1212167 -0.043019578 0.025402028 0.20212182 0.11256259 0.13307473 0.21634263
1074 -0.18443583 -0.1579319 0.14437364 0.083241954 -0.08469189 0.14699253 -0.24260683 -0.26458278 0.094589785 -0.010312221 -0.048072837 -0.3444734 -0.23811074 -0.12571083 0.18728465 -0.028253391 0.12177006 -0.08850827 0.34299088 -0.046046063 -0.0013713379 0.025753807 -0.06556353 -0.18894769 0.06607848 0.001641054 0.14550035 -0.26668277 0.06294952 -0.10656151 -0.121990375 0.17816587 0.11145847 -0.18685305 0.07438023 0.10530074 0.18732119 -0.25323626 0.04042059 0.06596597 -0.12414003 0.2646524 -0.22749488 -0.37133718 -0.07982741 -0.21823552 -0.08574772 -0.101560265 -0.21766154 0.2466041 -0.018452331 0.08604569 0.010697251 0.20678224 -0.09236545 -0.041139852 0.07510739 0.108441226 0.18240157 -0.0040678796 0.3353678 0.039586965 0.07293914 -0.11344927 -0.31886593 0.017241126 0.15149583 0.12482446 0.01389799 0.1508972 -0.089214884 0.082994096 0.3339345 0.016661093 0.032511733 0.13837455 -0.10411054 0.1536361 0.018369284 0.19277517 -0.051924866 -0.23400317 -0.11834172 0.15685296 0.19599341 -0.057325803 0.24151503 0.019060811 0.12383957 0.02786183 0.04013421 0.032288164 -0.053411722 -0.46553895 -0.40437737 0.04836804 -0.05485158 -0.09082484 -0.09683999 0.16062061 0.32528934 0.18842903 0.103533484 -0.27441666 0.025947617 0.01796738 -0.23634094 0.018432979 0.12890469 -0.0990091 -0.050724823 -0.10684137 0.24715674 0.24435925 -0.18248492 0.14080477 -0.22124538 -0.21120271 0.18246719 0.097114176 -0.062287416 0.024894938 -0.27675256 -0.07238821 -0.13469411 0.09367471 -0.043448176 0.20927688
16 -0.16746503 -0.030154895 0.2767643 -0.006833612 0.15904102 -0.09843112 -0.011322415 -0.22798075 -0.073896386 -0.05629605 0.34319884 -0.43435094 0.17842834 -0.20433716 0.29072428 0.03290032 -0.07095963 -0.008786115 -0.116373114 0.11871965 -0.036132798 0.1108143 -0.3432064 -0.35003108 0.1556037 0.10006245 -0.13897724 -0.044048842 0.067633145 -0.023890678 0.16335925 -0.17176116 -0.074472174 0.044094693 0.08592518 0.082643256 0.061149318 -0.097924545 -0.041343194 0.14520049 0.1328842 0.11722313 -0.15526578 -0.2519144 0.1586634 -0.052885987 -0.07611502 0.12733199 -0.05804873 0.35518828 0.18462558 -0.091444105 0.054614965 0.1640962 0.056233536 0.21919397 0.1441899 -0.26357043 0.19357257 -0.24230146 0.057844155 0.2457006 -0.07459544 0.3438657 0.00910441 0.39313194 0.120008454 0.11931866 -0.2867064 0.2515165 -0.3586396 -0.07056759 0.103748776 -0.15321675 -0.13626207 0.08860956 0.1507816 0.19465816 0.143519 0.0934846 0.28124788 0.23011506 -0.3539444 -0.09840658 0.029785244 -0.1322477 -0.040919423 -0.23216482 0.046181444 -0.20853212 0.121194944 0.034049377 -0.1294289 -0.20760319 -0.1060517 0.15631352 -0.049160324 0.12761131 -0.07467825 0.25876594 -0.14002344 0.24698988 0.30706728 0.29380843 0.020942554 -0.015077714 0.07714176 0.14555827 0.27936232 -0.043240774 -0.0704568 0.2631551 0.04796627 0.28508905 -0.049302895 -0.028737457 -0.24279016 -0.072142355 -0.025762241 -0.062856376 -0.22116445 -0.09661172 -0.27584735 -0.005600625 -0.07257578 0.14954212 0.06836203 0.32484338
1198 -0.39284465 0.021916497 0.028971218 -0.076007925 0.21254574 -0.068115845 -0.019017365 -0.015116652 -0.32972807 -0.0066076647 -0.23361604 -0.21246065 -0.1587153 -0.31173757 -0.07095484 0.14461534 0.050712407 0.086328015 -0.06150063 0.002165256 -0.019519726 0.048724007 0.22801396 -0.014530476 0.07398312 -0.041495256 -0.03715729 -0.06499877 -0.20726246 -0.07477055 0.12276227 0.07511452 0.5270631 -0.22604099 -0.036925912 0.0075077876 -0.0022129575 0.12565972 0.035597812 0.15020007 0.056734525 -0.12989305 -0.089800805 -0.19330256 0.06442545 -0.058685277 -0.32640633 -0.18272789 -0.09257522 0.109086715 0.23445353 0.31753066 -0.2260278 0.0048766476 -0.065616295 0.32261688 0.20326415 0.04979683 -0.023709571 -0.074453376 -0.049364712 -0.095301256 0.04537635 -0.0014824303 0.037597287 0.011009406 0.24267755 0.15712646 0.018676855 -0.04222386 -0.042062048 -0.07722812 -0.0046956465 -0.11654775 -0.09252293 -0.24023958 -0.11826128 -0.06931092 0.030037478 0.1027036 0.26402587 0.061527077 -0.061091743 0.0010578858 0.11209264 0.019224983 -0.006950671 0.066932 -0.029754356 -0.29165128 0.23200355 -0.13611163 -0.13419597 -0.26907375 -0.072766714 0.078513905 3.321712e-05 -0.13308102 -0.030272383 0.25582206 0.16967367 0.039349582 0.053966343 0.05066232 0.14762862 0.004543003 0.20405082 0.1291017 0.37872434 0.0532811 -0.051450074 0.16621514 -0.22620484 -0.15727161 -0.23898195 -0.012597933 -0.3852801 -0.098501794 0.134067 -0.20369561 -0.22711892 0.05730986 0.10584602 0.000107202504 -0.016641978 -0.038811103 -0.16411623 0.15373558
496 0.07275161 -0.22014393 0.06276869 -0.25604185 -0.31827888 -0.1509848 -0.167229 -0.10773886 -0.16160926 -0.09480212 0.06285088 -0.058511678 0.118914105 -0.20045516 0.151524 -0.030973952 0.17302717 0.33949718 0.02798668 0.096712485 -0.05267502 0.07476453 -0.20326157 0.16315994 0.19590847 -0.1878059 -0.08954538 0.19071193 0.28223673 0.09850812 -0.013292029 -0.051590994 0.17315933 -0.018890277 0.13528563 0.06760602 -0.055893566 0.1486213 -0.16591355 -0.13726094 0.33162794 -0.20606604 0.017018156 -0.14238605 0.19702348 -0.18446532 -0.21951246 -0.019484567 -0.2510493 -0.023674514 -0.045841634 0.031673096 0.0006901323 -0.029845266 -0.18179086 0.3221451 0.07354803 -0.0721381 0.2002819 0.11129798 0.28245577 0.11388471 -0.12961712 0.1636311 0.044128682 0.032362595 0.0497937 0.15617552 -0.057857 0.15346856 0.10515073 -0.057948545 0.012496149 -0.26549348 -0.15582477 0.065626174 -0.17108738 0.14211342 0.2555041 0.16890027 0.10756183 -0.005792773 0.18103094 0.022611424 0.25187114 -0.026908727 -0.13073432 -0.038963534 -0.05684429 -0.2843553 -0.025554897 -0.06557447 0.04866116 -0.12206447 0.014690702 -0.27475736 -0.02317278 -0.27777869 -0.19814254 -0.036310486 -0.088511266 0.2817737 0.062774435 -0.029257806 0.13407682 -0.014986596 0.06938745 -0.022075465 0.20558937 0.028218096 -0.1805816 0.14177369 0.039882332 -0.10586359 0.043290578 -0.24242061 -0.2722391 -0.045854304 -0.10006699 -0.18948217 0.0969724 0.10664491 -0.08439155 0.08564783 -0.10744405 -0.05897259 -0.24617751 0.19974832
20 -0.006923365 0.043498944 0.0040829345 -0.07347001 -0.0058568926 0.007907393 -0.2825192 0.055307593 0.15610124 -0.019980114 0.0076223807 -0.25364062 0.17543599 0.018178603 0.16778891 0.11555874 -0.021111721 0.12862025 0.007975151 -0.03319026 -0.03340141 0.110294305 0.08036454 -0.24976338 -0.20272915 0.16855235 0.19181697 0.037259717 0.006651821 0.03032252 -0.092004225 0.16794217 0.27258468 -0.060022004 0.118275665 -0.13558322 -0.011144677 -0.08881569 -0.19227728 0.39219394 0.22190513 0.22219697 -0.088831045 -0.3420783 -0.116942324 -0.3683117 -0.1936999 0.047553856 -0.052321997 0.09355797 0.11133817 -0.03674898 0.095933154 -0.030190093 -0.2595552 -0.022194846 0.19362773 -0.087152265 -0.161875 -0.14777893 -0.0020440388 -0.15792498 -0.0579495 -0.1460731 0.077213526 0.2116372 0.07467335 -0.066149294 -0.038824163 -0.17562775 0.16291744 0.017617313 -0.06908794 -0.08315477 -0.36393195 0.20534459 -0.023365084 0.16553108 0.079762824 0.1354846 0.01794716 -0.1520592 0.09827935 0.023994504 0.0151435165 -0.04553093 -0.09804495 -0.0063900054 -0.13249558 -0.052197605 0.29038456 -0.24878915 -0.23882799 -0.059303533 -0.061557293 -0.06780684 -0.0022549257 -0.21467556 0.019960338 0.1990973 -0.056040496 0.015368598 -0.11759289 -0.0029662075 0.09608435 -0.053718153 0.12979984 -0.03048028 0.37080526 0.08397646 0.13422178 -0.049299557 -0.17336422 0.071486115 -0.2443137 0.06547144 -0.40046737 -0.13947642 -0.12346799 0.023124298 -0.22244826 0.029831909 -0.07796414 0.088489205 -0.027258761 -0.03352238 -0.017266467 0.4530066
4321 -0.06774364 -0.15197958 -0.012985181 -0.14481874 -0.018296828 -0.09129031 -0.14559788 0.052867606 -0.16964163 0.18254839 -0.04054463 -0.03751247 0.29121834 -0.20667763 -0.07187815 0.061946936 0.055714753 0.10588934 -0.20827627 0.058874283 -0.10927071 -0.022747558 -0.087315075 -0.0038357957 0.10365458 -0.28004754 -0.39250645 0.05587664 0.12594743 0.1969682 0.09232024 0.102498695 0.2043273 -0.1515526 -0.05363715 0.108666174 -0.07917212 0.18059896 -0.07142976 -0.16489303 -0.059800364 -0.080934174 -0.064997844 -0.16325219 -0.01987502 0.04699674 -0.15231682 0.001522426 -0.32987282 0.3362272 -0.15431063 0.018860638 -0.22497305 -0.025520558 -0.20823076 0.21059299 0.08209444 -0.13377577 0.15471187 -0.097084075 -0.1315183 0.038243514 -0.06647008 0.1659101 0.3144501 0.022511331 0.0466021 0.1334354 0.014638012 -0.0029286812 0.1716264 0.016564125 0.2464584 -0.041471153 -0.18701003 0.029455708 -0.25296712 0.33065504 0.16175367 0.16789086 -0.0019933674 -0.0053788596 0.1616209 0.13953961 -0.004043772 -0.056031305 0.08808751 -0.23137398 -0.10811817 -0.26778933 0.19894044 0.06733834 -0.0045545474 -0.45265934 0.24116258 -0.057848528 0.027221393 -0.18968658 -0.17450969 0.19386254 -0.072944716 0.27360603 0.304397 -0.112295315 0.041999634 -0.034607865 0.0568132 -0.1723046 0.1578269 -0.11514224 -0.02445482 -0.010330747 0.21310939 -0.07664993 -0.24853109 -0.16007864 -0.12035006 -0.17210342 -0.002593295 0.03081565 -0.11681904 0.15358558 -0.028563514 -0.2058556 0.101164654 0.18088138 0.048406195 0.2535626
813 -0.022805912 -0.010813654 0.070769414 -0.08890995 -0.14252043 -0.110138126 -0.18914661 0.09199805 0.006175399 0.08850849 0.15402207 -0.21042882 0.078344345 -0.009897104 -0.078283235 0.30327958 -0.012626286 -0.14319675 -0.10078918 -0.19767547 -0.007597924 0.08946176 -0.162213 -0.3445743 -0.0022731335 -0.144041 0.1631799 -0.0142797 -0.05211089 0.19497836 -0.14047688 0.18163365 0.111230195 0.04433696 0.17733505 -0.15068108 -0.037954878 -0.34857753 -0.0009885614 0.14970627 -0.059714995 -0.018602915 0.058136433 -0.2095506 0.12969066 -0.08029541 0.10105322 0.13305318 -0.16128348 0.40653652 0.11412237 0.06492241 0.021867506 -0.04710272 -0.1363098 0.27304855 0.2851399 0.05098428 -0.070960164 -0.020221552 0.15473063 0.009752696 -0.11619681 0.24355406 0.0652349 0.019764971 -0.0354739 -0.032096025 -0.24577041 -0.12367594 0.29530728 -0.21089457 0.058426473 0.120357186 -0.012904377 0.18344763 0.1824686 0.1233133 -0.06578934 0.15028472 0.26614603 -0.13419184 0.012201028 -0.090085916 -0.0061239325 0.16189459 -0.036322128 0.0509099 -0.11966711 -0.03023793 0.18344395 -0.11431351 -0.019809168 -0.09078545 -0.14416946 0.11698034 -0.118882224 -0.14340922 -0.08616146 0.34341663 -0.01753599 -0.11772256 0.029487314 -0.16244069 0.0651279 0.0064327614 0.07587003 -0.10653421 0.08473679 0.0018743508 -0.000532079 0.08522412 0.008162442 -0.07850434 0.0034039055 -0.07448491 -0.1464866 -0.12706186 -0.15616325 -0.031826615 -0.15913525 0.15895286 0.09349132 -0.07008197 -0.1846974 -0.20089243 0.108896054 0.21029049
3337 0.03387446 0.15397602 -0.15318833 -0.319879 0.12052554 7.74774e-05 -0.2948208 -0.1525509 -0.13073018 0.14923574 0.06676839 -0.06105535 0.002590718 -0.14413829 0.016589077 -0.18264087 -0.085307084 0.09566232 -0.18478885 -0.15016308 -0.17562678 0.1032148 0.1159793 -0.24258932 -0.0041437102 -0.052151714 -0.22077695 0.0740079 0.0448822 0.06900375 -0.29176566 0.27794933 -0.12180904 -0.32508293 0.22522555 -0.25912395 -0.21620013 -0.14412668 -0.14350711 0.030596841 0.22300687 -0.0776243 -0.17159742 -0.275621 0.17997392 -0.13960052 -0.20056766 -0.0138426665 0.00045435748 0.22205888 0.04337556 -0.022764273 -0.108265296 -0.12632445 -0.14795464 -0.105968915 0.06335909 -0.014479125 -0.20884088 0.0783458 0.26138756 0.007128564 0.11735194 0.14274845 -0.23565169 -0.1016902 0.0644152 -0.0041482244 -0.040022384 -0.1920928 -0.008634798 -0.028638326 -0.2572697 -0.14887314 -0.5150259 -0.030106599 0.12341057 0.0468519 -0.033111118 0.08788328 0.3745519 -0.23190165 -0.054747634 0.019134292 0.09206011 -0.24919418 0.077819 -0.22377507 0.010578699 0.2154168 0.10116581 -0.08138251 -0.26308224 -0.16046539 0.013022823 -0.064329684 0.07929545 0.03423606 -0.057151917 0.34962538 -0.033061955 -0.13283515 0.18439141 0.08024352 -0.07178718 -0.14000483 0.2400814 -0.07616093 0.18597926 0.1888213 0.2465647 -0.09216352 -0.24855864 0.046459977 -0.32501414 0.27415627 -0.027993135 -0.09795358 -0.043598253 0.13619934 -0.26861486 -0.13493788 0.042987145 0.22178774 -0.1565907 0.09578552 0.18759462 0.22133327
56 -0.069595456 0.06009712 0.3099686 -0.28903237 0.06356872 -0.17316942 0.22246236 -0.3154837 0.022497803 -0.051459614 0.015318916 -0.1685345 0.14807343 0.11611968 0.15061122 0.00072459225 -0.05829764 0.07268012 0.111177176 0.09594043 -0.15577874 -0.09386215 0.060248207 -0.2795899 -0.12779415 -0.102665655 0.08369535 0.104278915 0.13171518 -0.027130708 0.08580098 -0.018598674 -0.08732169 -0.08122493 0.13442239 -0.047173858 -0.14877596 0.1068637 -0.25804678 0.07298472 -0.34145385 -0.029332116 -0.08084307 0.19438314 -0.11890624 0.2614528 0.0066373176 0.032942116 -0.23209594 0.056044266 0.17303573 0.040990233 0.06987597 -0.12342274 -0.058455564 -0.0803042 0.10708244 -0.02053928 -0.0965887 0.107784554 0.42280367 -0.158983 0.016930755 0.01090369 0.025815364 0.46094134 0.043369636 0.011099086 0.0035316998 0.37266856 0.070642 0.040877946 0.115726486 0.10438373 -0.00432538 -0.13387807 -0.11269038 -0.25740498 0.10548728 0.2170207 0.3253211 -0.117441855 -0.060957666 -0.2061098 -0.0996939 -0.27310628 -0.05043088 0.10992892 0.07195089 0.07910654 0.28356886 -0.008247057 0.1146918 -0.19655 -0.28681558 0.124363735 -0.39594147 -0.08622621 -0.029120836 0.32836995 -0.21092135 -0.25535986 0.07629845 0.17322733 0.050362755 0.039286226 -0.23652196 -0.1622181 0.15859912 -0.06986173 -0.021285528 0.05967306 -0.17119366 0.31062034 -0.10684328 -0.033063646 -0.19806361 -0.12590274 0.08479788 0.23838204 -0.08968432 0.18148479 -0.0691633 0.22652596 -0.100412875 0.19990745 0.1280005 0.28963336
4572 -0.11454941 -0.38971668 -0.044503905 0.14748074 -0.114074685 -0.07034488 -0.42881078 0.078922614 0.04393779 -0.04423607 -0.08607299 -0.3258555 0.039038338 -0.23630366 0.06066615 0.009418076 -0.051072184 -0.00656897 0.07355435 -0.3654808 0.03383944 0.027817102 0.05208574 -0.0303152 -0.08668308 0.04750392 0.028107407 -0.17479374 -0.103544325 -0.06644596 -0.20843479 -0.26786593 0.11331941 0.027918186 -0.16706108 -0.07139024 -0.03315065 0.13351433 0.10090634 0.0773896 0.042309426 0.10584605 -0.02613629 -0.0452687 -0.04639677 -0.11060912 0.26399368 0.09707137 0.021622093 0.05869702 -0.3681316 -0.09591414 0.05081126 -0.346407 -0.049579203 0.5012637 -0.02100717 -0.14080043 -0.18173593 -0.28577927 -0.21660589 0.1220026 0.005334042 0.0077244244 -0.30034155 -0.031740323 -0.0037724841 -0.28628224 -0.15600829 0.002076983 0.04901509 -0.24682765 0.13802132 -0.2594852 -0.0031614634 0.020624917 -0.03734276 -0.3009994 0.064019814 0.057607505 0.4015106 0.07056732 0.026249398 -0.10480308 0.17358172 -0.03636644 0.18337838 0.09296742 0.029844962 -0.10833033 0.04159348 0.0117247 0.06904675 0.0061778636 0.28783977 -0.20800707 -0.28243995 0.17072591 -0.06899236 0.30486396 -0.31518927 0.032457005 0.42666033 -0.030495368 -0.0044281604 -0.09252797 0.03733422 -0.21625863 0.27604017 -0.052327007 0.13673705 0.059296478 0.10702312 0.4628528 0.020711567 -0.15810876 -0.12094004 -0.12154017 0.05458082 0.059801016 0.12030685 0.122497 -0.07912801 0.15401313 -0.10010725 0.13031043 -0.028603954 -0.07464037
3872 -0.055927087 -0.069887534 0.1728057 -0.15965796 -0.040373277 0.044128545 0.20589352 -0.393604 0.10489012 -0.32526585 0.06230471 -0.33282676 0.11945853 -0.24277844 -0.060495757 0.247686 0.37482503 0.14453529 -0.22242233 -0.4139942 -0.13715155 -0.024600083 -0.081673406 -0.06334769 0.21242324 0.19305821 0.13226378 -0.22054605 0.04844627 0.18461558 -0.25405645 0.0149901835 0.06701754 -0.17707025 -0.05469886 0.03301922 -0.03432781 -0.10835987 0.039980125 -0.016643928 0.16889414 -0.22534896 -0.26247823 -0.17017755 -0.022777582 -0.19808945 -0.019556312 0.061495043 -0.1027748 0.10164407 0.038451277 -0.042837624 -0.23301479 -0.03968868 -0.07188515 0.23979695 0.34585506 0.09411918 0.07836889 -0.018326892 -0.25997007 0.05769823 0.014940131 0.29274708 0.09240238 -0.06418909 -0.10363596 0.26957566 -0.31053394 0.02985879 0.200366 -0.111331254 -0.048320036 -0.049833465 0.16774726 0.09737033 -0.21780898 0.03796717 0.074708566 0.14286143 0.16005474 -0.07592305 0.013872665 0.15490654 -0.07663695 -0.017042711 -0.18663271 0.015477014 -0.0952993 0.031383727 0.23871575 0.4212916 -0.2299653 -0.24500467 -0.17685083 0.017660711 0.21244614 -0.22881082 0.17187417 0.11587725 0.2954638 0.17979693 0.015056869 0.16637474 -0.030634392 -0.016439755 0.046257038 0.25429088 0.11034718 -0.006179934 0.16021523 0.07487971 -0.0008830612 0.32681745 0.26413232 0.042559717 -0.22478005 0.04652569 -0.12149618 0.29823482 0.036060743 0.19771224 0.4775945 0.1945026 -0.11316298 -0.3110761 -0.07670704 0.19383061
3737 0.091795325 -0.017041309 0.03962142 0.02311186 -0.1470315 -0.17027906 -0.35535 0.13204351 0.15783474 -0.4401499 0.25169486 -0.45623976 0.09724418 -0.09947351 0.30289128 -0.037924398 0.17615594 -0.09567152 0.10056176 -0.016197858 0.0019316247 -0.20730639 -0.019156989 -0.45136282 -0.026381422 0.05301536 -0.079192266 -0.0014928768 0.065157406 0.26039058 0.19982105 -0.09970755 0.25376615 0.04344208 -0.030532718 0.091229424 -0.28117734 -0.00017064295 -0.20706001 0.085920766 -0.030957652 0.124593325 0.004381874 0.014942372 -0.09128097 -0.06323037 0.102207944 -0.018864995 0.20209044 0.21057108 -0.102642745 0.08669298 0.048541058 0.003449206 0.16949776 0.03758711 0.34447005 0.21275 -0.2548339 -0.07606015 0.15936044 -0.01358597 -0.1330713 0.0742992 -0.15593094 -0.04037515 0.31742653 -0.22888157 -0.17122841 -0.37597212 0.012767543 -0.3157849 0.16759178 0.28823555 0.3645284 -0.18171325 -0.08055139 -0.22565092 0.22390136 0.13198295 -0.09231207 0.24097808 -0.14107658 -0.09462827 0.18183987 -0.0850114 -0.06931646 0.17683282 -0.14134996 -0.111627206 0.39963993 -0.06872335 -0.09174154 -0.21145879 0.3090012 -0.00410156 -0.07612632 0.08111472 0.12507491 0.1585063 -0.3575871 0.009443225 0.2977139 0.012984676 -0.023061033 0.04537055 -0.14927047 0.032178946 0.098441124 -0.19633712 0.21700826 0.10813235 -0.019932387 0.095800996 -0.112838954 -0.07988606 -0.2743757 -0.01698466 -0.37072408 -0.02322683 -0.09782714 0.03583669 -0.0070584486 0.2370835 -0.29580203 0.004157126 -0.1239688 -0.20256382
1674 -0.039578814 -0.115723774 0.18414955 0.084431656 -0.005713471 -0.16061996 0.10564504 -0.16972256 -0.14260343 -0.062338296 0.189833 -0.30045456 0.053775534 -0.28973842 0.1740665 0.4897466 0.17201453 0.27685732 0.1234106 0.030934092 -0.053654164 0.055904478 0.10172335 -0.21328801 -0.11821034 -0.13972996 -0.0051457337 0.024792762 0.12439456 -0.16951685 -0.18938139 0.33460256 0.35192662 -0.0081646545 0.16845918 0.015886636 0.00468976 -0.205948 0.03280037 0.013243868 0.16526565 -0.08318976 -0.3765855 0.028895903 -0.23655885 -0.47736973 -0.16740303 0.37397796 0.0063853557 0.22195625 -0.15156771 0.32313755 -0.029567571 0.0057597794 -0.09394833 0.19197951 0.1273169 -0.3682321 -0.3924464 -0.1645439 0.0887905 0.42064717 0.032670032 0.029765949 0.17643452 0.100986704 -0.017209778 0.15760283 -0.19516665 -0.1744868 0.03263311 0.11933462 -0.024118287 -0.079937376 -0.08634685 0.14930099 0.025794834 -0.012104124 -0.09809118 0.035452694 -0.026433172 0.03331146 -0.31001848 0.15460034 -0.05049027 -0.22066781 0.12049607 -0.0961139 0.12454736 -0.082422115 0.13983913 -0.36400014 0.037112445 -0.27260405 -0.298808 0.07509627 0.09739688 0.18507765 0.22639222 0.25222066 -0.3012651 -0.145817 0.10788441 0.18884233 -0.07048159 0.15677615 0.15604362 -0.06319458 0.25497314 0.028941723 0.21731259 0.10636306 -0.044334207 -0.0032639029 0.035247453 -0.23500189 -0.09566729 -0.20582005 -0.05305948 0.12593268 0.1404774 -0.06526716 0.29006633 -0.0055553247 -0.0864228 0.16540119 -0.26722923 0.21053419
4012 -0.10871849 0.12934886 -0.23984791 -0.27009082 -0.089230634 0.048610397 -0.08404868 -0.07192722 -0.015584717 -0.09470101 0.15494275 -0.23782575 0.18570842 -0.014821911 -0.20402648 -0.051160656 0.0865583 -0.24776615 0.3725468 -0.19449383 0.1532369 0.02931697 -0.12847564 -0.25603464 -0.10780367 0.12768069 0.22216733 -0.16722864 0.059469312 0.19539969 -0.27867132 0.09395059 0.06983082 -0.009309113 0.1609421 -0.016167268 -0.07262401 -0.14794599 0.1195427 0.16964148 0.028615568 0.17897034 -0.055330265 -0.13602388 0.01950033 -0.0031068884 -0.22799331 -0.0361749 -0.35825285 0.13640906 -0.115418054 -0.009068214 0.0023693473 0.1649591 -0.4199201 0.2726115 0.4392984 0.04716673 -0.0047140378 0.060307425 -0.059458617 0.09837219 0.06630779 -0.10312429 -0.013793043 -0.057680268 0.10574718 0.07211909 -0.02133502 0.049286436 0.2585052 -0.26203525 0.083005965 0.134711 -0.07197498 -0.009504408 -0.03601087 0.33949855 0.10976032 0.38100615 0.014330037 -0.028598007 0.10037651 0.11548695 -0.038902875 0.16047043 -0.04457046 -0.0634566 -0.18494368 0.05099938 0.2230213 -0.28551027 -0.124496 -0.17649555 0.09922688 -0.022597529 -0.23944637 -0.11353979 0.28526682 0.3090104 -0.08267142 0.06274184 -0.08677401 0.10814848 0.13486561 -0.21176623 -0.014099322 -0.27774382 0.10752951 -0.19399416 0.014505034 -0.00434562 -0.2711244 0.11163979 0.105133384 -0.12107661 -0.19911459 0.10820981 -0.16243881 0.1477103 -0.43142793 0.08090215 0.08275042 0.006070439 -0.015313303 -0.11234655 0.1966445 0.017186958
2727 0.12913527 -0.1096606 -0.14781673 0.004935652 -0.10197928 -0.19693573 0.040545706 -0.0023738963 -0.095260344 -0.028166115 0.029945463 -0.22993127 0.26306596 -0.00046032568 0.11003614 -0.059810005 0.113590024 -0.13990992 -0.11105939 -0.1862518 0.13567543 -0.025484707 0.121882826 -0.2484794 -0.048596583 -0.15001903 0.23045829 0.008479147 0.121969774 -0.115460485 -0.034774084 0.019834379 0.12847698 -0.31435055 0.018275835 -0.10838114 -0.2650584 0.07294029 -0.042222433 -0.17752545 0.24936779 -0.06637396 -0.2540295 -0.38598442 -0.0029875718 -0.13356881 -0.021309773 -0.2703449 0.0783602 -0.02577196 0.10872791 0.18116604 0.3696354 0.115481004 -0.27032584 -0.051703732 0.046962447 0.064689174 -0.053616043 -0.10841994 0.13770977 0.0040591955 -0.1901621 0.11293216 0.0013727511 0.12316414 0.04647091 -0.0918995 0.12326073 -0.16383548 -0.01566506 0.22259729 -0.022070857 0.03700044 -0.19415186 -0.12544073 0.13646202 0.26639664 0.13561891 -0.20054549 0.31385916 -0.2356569 -0.18438044 0.08548114 0.2186721 -0.074472874 0.23969603 0.222168 -0.22515957 0.29402113 -0.033672005 -0.01187123 -0.09719617 -0.322267 -0.12195392 -0.10852628 -0.072117314 0.022001319 -0.3209918 0.5178188 0.0695214 -0.34828362 0.028356567 0.2859361 -0.012696985 -0.14250065 0.28576076 -0.04435396 0.12990165 -0.15129861 -0.11830183 0.08709368 -0.10415524 0.0945885 -0.39778835 0.22496589 -0.26479986 0.08206338 0.087239005 -0.11129001 -0.19245282 0.21036154 0.08836644 0.19298515 -0.13240656 0.11000394 0.11753887 0.09134573
2889 -0.20697537 0.13815601 -0.086332105 -0.07279271 0.070418075 -0.1465795 -0.12236563 0.1920698 0.08848769 0.05765441 0.05045118 -0.30598843 0.08018578 -0.15301576 0.15923893 0.40233737 -0.034422055 -0.04563631 0.10821899 -0.27198258 -0.079692446 0.21504563 -0.28435388 -0.24838206 0.16096032 0.048111863 -0.11439611 0.12425126 0.12132658 -0.11255302 -0.28477895 0.081502676 0.19008528 -0.24719968 0.25553533 -0.1303188 0.14344276 0.0061063087 0.18745324 -0.0056725014 0.31826615 -0.16126513 0.13958788 -0.1933337 -0.14109123 -0.10654522 -0.26883486 -0.084768154 -0.042115238 0.17611949 0.00012338524 -0.030322785 0.04535376 -0.100019135 -0.12849283 0.07854544 0.13703968 -0.13104965 0.14356115 -0.10123899 0.111646734 0.17789017 -0.014904975 -0.036697492 -0.10766854 0.20707965 0.2153806 -0.07080288 -0.21547629 -0.031765774 0.15824555 -0.18999946 -0.1268286 0.06842051 -0.08400333 0.22543785 0.24758805 0.044149388 0.37198874 0.27081504 0.12416527 0.03731583 0.17054908 0.04529571 -0.05868824 -0.15637444 -0.110395975 0.11343314 -0.040110756 0.17929345 0.33908314 -0.23214158 -0.0054639103 -0.09933389 -0.060598284 -0.08763273 0.13393411 -0.06301258 -0.14375934 0.26507086 0.22810563 0.04967009 -0.301223 0.21093431 0.11443558 0.010642544 -0.14781158 -0.30732197 0.08574823 -0.19025627 -0.18282524 0.20663068 -0.057416048 0.08413559 -0.12932785 -0.1883811 -0.14360213 -0.03964283 -0.10137299 0.18604006 -0.254366 0.22148621 -0.07010215 0.16219468 -0.13476388 0.056485396 -0.065846056 -0.004561667
773 -0.19990326 0.2105217 -0.10011405 -0.12003991 0.21099688 -0.03706631 -0.3950974 -0.24851146 -0.058515493 -0.25283968 -0.21125004 -0.36848846 0.008104842 0.104249395 0.086024664 0.11433623 0.11202749 0.032698695 -0.020660872 0.07362992 -0.21781589 0.23067227 0.14564009 -0.24423973 -0.08937669 -0.11840734 -0.12772153 -0.23438036 -0.07560274 -0.021231117 0.075812265 0.04877787 0.2712869 -0.05132596 0.11301669 -0.07897283 -0.08042961 -0.33718124 -0.030730356 -0.19694014 -0.20909356 -0.057798974 0.32700232 -0.054465786 -0.31216958 0.015989384 -0.27397367 0.06823069 0.06911167 -0.05813658 0.042448208 0.12201859 -0.1779139 0.2828081 0.03583092 0.05036366 -0.18181165 0.1437675 -0.046951022 -0.080791794 -0.06879494 0.19171797 -0.19267172 0.036593635 0.18774745 -0.0010272325 -0.004041416 0.18528353 0.025583697 -0.101619355 -0.29002297 0.13063852 -0.09857636 -0.043884568 -0.24781911 -0.094513394 -0.4595664 0.061232995 0.220494 0.087997235 0.057528347 -0.13453692 0.21824054 0.10269608 0.040314507 -0.041561205 0.030315101 0.29920742 0.3244935 -0.3085848 0.06538381 -0.11584608 -0.004606212 -0.46510586 0.04489928 0.022236643 0.0044155153 0.048520952 0.034455184 0.2202301 0.06076601 0.06859486 0.11182959 -0.030811554 -0.18438141 0.037073646 0.06373619 -0.003992336 0.19944663 0.123371676 -0.23240088 -0.06291753 0.37198934 0.069999285 0.107289046 -0.116230085 -0.13058953 -0.20534225 -0.119493075 -0.18012092 -0.12178536 0.40398768 -0.112334184 0.056529474 -0.1608438 0.051134624 0.149165 0.24364872
335 -0.10171115 0.070649594 0.17046325 -0.09624192 0.11738478 -0.049137674 -0.22112626 -0.31771266 0.08337581 -0.14734337 -0.10242771 -0.43942818 -0.0508986 0.051970094 0.11698762 0.14765963 0.08617467 0.09822799 0.0763413 -0.09946086 -0.18687429 -0.08582076 0.061058104 0.007565832 -0.051311813 0.13911667 0.12221538 -0.2015867 -0.039727762 0.0893306 -0.08373287 0.17611454 0.13539836 0.036618356 -0.026714072 0.09562472 0.04782846 -0.44510958 -0.0029406883 0.073899195 -0.11732273 0.0482637 -0.24803278 -0.15812525 -0.021501185 -0.14528191 0.1099959 -0.20131905 -0.27210477 0.115814686 -0.3715375 0.10573712 -0.12220284 0.10127598 0.026201528 0.045239117 -0.16313499 0.13155863 0.30760753 -0.1295753 -0.04782093 0.07922483 0.23065215 0.08400557 -0.1706247 0.095491804 -0.13058862 0.0067309737 -0.06860876 0.11998913 0.015173112 0.18692349 0.112747274 0.0528785 -0.057712313 0.16600983 -0.06322522 -0.09366942 0.06162525 0.34576112 0.016362574 -0.3511179 0.0037690888 0.16573144 0.34604508 -0.08978883 0.27461806 -0.08050987 0.16721171 -0.075725496 -0.020049999 -0.19653097 -0.11877352 -0.3730086 -0.22388953 -0.1917759 0.03824876 0.0799789 -0.024924127 0.003843702 0.1601933 0.08874493 -0.069951795 -0.20941213 0.28652918 0.072447196 -0.108648606 0.07765573 0.27956504 -0.28627878 0.035449322 0.06961381 0.0071378644 0.26407343 -0.031067861 0.10832232 -0.26848024 0.10128024 -0.076301605 0.11973696 -0.21218085 0.18190354 -0.24047478 0.022891374 -0.040056307 0.21569489 -0.17317988 0.19174471
5119 -0.12147732 -0.13678841 0.14938687 -0.16808495 -0.045760695 -0.15365255 0.18520023 -0.15043724 -0.1848175 0.12141572 -0.1172557 -0.35403875 -0.16506328 -0.12540106 0.00023358344 -0.013855186 0.2972048 -0.0045221504 0.04010127 -0.13400495 -0.2659702 -0.11035827 0.1565924 -0.3374905 0.086615935 -0.22024313 0.08315283 -0.070772156 0.07002961 -0.0065756007 0.026982099 -0.008008929 0.07415863 -0.18036252 0.30975723 -0.15907535 -0.009957505 -0.43702966 0.016068492 -0.04174021 -0.19022311 -0.17124312 0.029287165 -0.03296739 -0.29995704 -0.028224561 -0.3496388 0.20626348 -0.13764505 0.33699065 -0.019128999 0.40119213 -0.04150172 -0.012972688 0.0023598624 0.14669295 0.01794055 -0.09170977 -0.12067559 0.004506378 0.0005114273 0.2004374 -0.049285624 0.02512956 0.09725898 0.17729291 -0.009232237 0.269808 -0.02600106 -0.31859344 -0.020010361 -0.051846314 -0.15403704 0.00774196 -0.32346842 -0.050491486 -0.1700563 -0.107640594 -0.12256272 0.33380762 0.14045937 0.14249618 0.16895126 0.021701483 0.11151171 -0.16128147 -0.209233 0.12224779 0.19057173 -0.11588327 0.1155464 0.021802774 0.11038231 -0.33204573 0.04243752 0.18656623 0.25530022 0.1079441 0.10026673 0.21396682 -0.090950035 0.020110784 0.1503561 -0.074149795 -0.09275981 -0.029938534 0.1290813 0.06577089 0.3905016 0.115676425 -0.25288126 -0.30299005 0.006883317 -0.052186515 0.15436111 -0.0026327828 -0.24163863 0.00010998674 -0.08511392 -0.31563058 -0.053919103 0.04504509 -0.0055602146 -0.07870626 -0.14792868 0.09951071 0.09665726 0.15801449
1155 -0.21424647 0.26244533 -0.02677227 -0.071867704 0.044738274 -0.0977752 -0.4222886 -0.28349233 0.14928663 0.09414049 -0.079368554 -0.40290728 -0.064297445 -0.06700555 -0.07761151 0.099053495 -0.08967634 -0.070666656 0.06334712 -0.20213647 -0.08227935 0.0077198315 0.02098943 -0.19403201 0.11478061 0.17730734 -0.04315765 -0.0047921403 0.1516195 -0.03611521 -0.052367914 0.20698705 -0.06432607 -0.007097093 0.018131088 -0.020893507 -0.06291598 -0.40162197 0.19829562 -0.16993779 -0.24882491 0.30910063 -0.2077507 -0.13980572 -0.11120225 -0.032594714 0.48738056 -0.02425857 -0.031491198 0.14027059 0.1672333 0.19021024 -0.014811429 0.04527553 -0.21795744 0.065800585 0.22538002 -0.103227235 0.15315035 -0.0073821004 0.03888896 -0.034904767 0.22682278 0.10834343 -0.17308857 0.07537217 -0.29929775 0.100200415 -0.045887545 -0.04335683 0.14506859 0.13934787 -0.1834876 -0.030669492 0.050961513 0.20492345 7.699829e-05 0.016579272 0.14859176 0.10686552 0.04465798 -0.38415983 0.2880397 0.11656991 0.35257152 -0.024975317 -0.05090124 0.124382675 0.1099103 0.011589596 0.07947419 -0.31262103 -0.038947638 -0.40467155 -0.046210423 0.081806935 -0.13493176 0.0015174379 0.17354861 0.046467032 0.19533639 0.3213762 -0.06514574 -0.28375348 0.16944125 0.16613735 -0.11370378 -0.014921791 0.4307693 -0.013529622 0.14962329 0.10030027 0.027598262 0.09110745 -0.14866523 -0.11094613 -0.092149235 -0.13676268 -0.12729144 -0.15678333 -0.05464768 0.16096862 -0.09274322 -0.00021460929 -0.34719333 0.05667379 -0.114390194 0.14583522
4812 -0.13138153 -0.09494809 0.11241787 0.07186805 -0.088752866 -0.090829335 -0.01691974 -0.04827447 -0.095188424 0.040941823 -0.009936437 -0.16990502 0.34600404 -0.118475534 -0.0732332 -0.0819775 0.17838785 0.04849748 -0.22329989 -0.08146228 -0.0030308154 0.15638904 -0.09112286 0.077645294 -0.17459652 0.04560356 0.01923654 0.18094556 -0.0011789189 0.009365184 0.015214255 0.01442103 0.1830415 -0.22502297 -0.06296469 0.036463253 0.04375039 -0.1189276 -0.10173233 -0.008520843 0.015842976 0.04860927 0.03663581 -0.13356954 0.07675753 -0.14241917 -0.07709092 0.15363409 0.05621483 0.21890022 -0.07965381 -0.045560014 -0.22112668 -0.060195554 -0.14232498 0.22903956 0.15245664 -0.11044145 0.090058185 0.05377431 -0.062028416 0.18452124 0.022319 -0.019670026 0.033135474 0.10442028 -0.015058995 0.23176564 -0.08958376 -0.18569836 -7.332132e-05 0.006820975 -0.15840825 0.057034492 -0.083886236 -0.0643308 -0.20680337 0.15903684 0.26776528 0.5928051 0.101115 0.077291116 -0.13263485 0.12422556 0.12893975 -0.18368934 0.010304778 -0.10483895 0.05678161 -0.0990704 0.14895976 0.06447318 0.17570765 -0.03463269 -0.05463247 -0.078788646 0.02901683 -0.16718781 -0.15700631 0.21180768 0.016949706 0.09910227 0.2809472 0.19450724 -0.0221504 -0.15236948 -0.03331442 0.013006519 0.23982428 -0.3170561 0.017473688 0.18750426 0.013555808 -0.1557573 -0.16242705 -0.15938546 -0.1486559 -0.06642511 -0.06877813 -0.20729154 -0.16302226 0.1906601 -0.18080565 0.11162028 -0.19160506 0.11490302 0.008323724 0.012330914
5785 -0.0407488 0.108246006 0.169397 0.10008045 0.12765057 -0.04842102 -0.119198315 -0.370159 -0.005378667 -0.061902404 0.03672646 -0.19290814 0.1837439 0.18528286 0.24153028 0.108935684 -0.10633133 -0.03407678 -0.0043705995 -0.20519838 0.14617702 0.14978887 0.008369289 -0.116965584 -0.16762374 -0.14721736 0.12467969 -0.12339417 0.13228157 0.08019919 0.0044546425 -0.034849085 -0.030161394 -0.28816482 0.041924786 -0.114129975 -0.10124125 -0.120795704 -0.06739823 0.21644062 0.09978107 0.19865884 -0.22354716 -0.024751494 0.18345639 0.09626488 0.003956417 0.008689547 -0.23384093 -0.0035478887 -0.058456056 0.20711267 0.174743 0.115996234 -0.15737909 0.16734225 0.32267833 -0.197051 0.27666312 -0.22046167 0.19416599 0.13018484 -0.043851368 0.088553995 -0.003571578 0.17753586 -0.021466827 0.06521067 -0.07894956 0.09675977 0.12919058 0.05546529 -0.047084823 0.0016986737 -0.14603177 0.22144751 0.1695947 0.12524872 0.12527537 -0.02395886 0.2053598 -0.26573473 -0.21233945 -0.097393356 0.21009521 0.008222308 -0.094840765 0.053988323 0.1459827 -0.12632276 0.0145981135 -0.087698184 0.042720918 -0.21258968 -0.068148986 -0.0750188 -0.06168604 -0.22570553 0.10510477 0.06159106 -0.032565154 0.082080975 0.22805947 0.102364905 -0.072720245 0.014995441 -0.25343394 -0.20223202 0.16766144 -0.099378996 0.08192284 0.0060540065 0.15654758 0.045951977 0.07926163 0.20765169 -0.19591911 -0.029804701 0.09425363 -0.11718889 -0.0927714 -0.019505886 -0.02790829 -0.17961821 -0.17098308 0.04389542 -0.122151874 0.29848987
6136 -0.14814486 0.13109173 -0.05968841 0.11135523 -0.23034778 -0.039046913 -0.0054019406 0.17624348 -0.024068316 -0.036678985 -0.14716247 -0.38655594 0.4168082 -0.022185737 -0.116259426 0.3887905 -0.15984371 0.060067467 0.05354137 -0.34182188 0.08194327 0.12894455 -0.0774274 -0.39781162 0.27723768 0.03869849 0.30075547 0.07281431 0.12017185 0.030464115 -0.21840659 0.03326413 0.12141323 -0.10075011 0.326076 -0.08266704 -0.080561 0.012187189 0.24128065 0.10559412 0.1954923 0.13145433 0.09934382 -0.06898395 -0.13932799 -0.3496006 -0.12605451 0.10355402 0.13096663 0.27060264 0.07737296 -0.09299713 -0.008213705 0.28289917 -0.14895603 0.1453753 0.38052866 0.042588852 0.15590888 -0.18018955 0.085644126 0.25905535 -0.061341345 0.078694314 0.23299153 -0.12299149 0.14221218 0.14094728 -0.234749 0.22725804 0.18747212 -0.014312514 0.0033744967 -0.07845047 -0.16972566 0.11081648 0.11763748 0.07953506 0.10781449 0.12791705 0.038218834 -0.026186312 0.1394844 0.19867429 -0.21452928 0.059017617 -0.26611564 0.03293154 0.071275726 0.0073631904 0.23427097 -0.1416079 -0.022468604 0.11488904 -0.11405542 0.019600898 -0.09792639 -0.20689812 -0.1604747 0.16400875 -0.027866311 0.024298389 -0.0314204 -0.13249916 -0.023504645 -0.20178291 0.19218713 -0.10157984 0.19989151 -0.05943756 0.12023551 0.028488593 -0.15405168 0.15735525 -0.14245258 -0.03779359 -0.26981628 -0.1415361 -0.09971549 0.014713651 -0.21566653 0.15795073 -0.3014043 0.026613422 -0.15237263 0.06937044 -0.119873576 0.19208859
3123 0.19188358 -0.25958833 -0.19383138 0.14162289 -0.053460628 0.08942069 -0.084770255 0.007834473 0.03576407 -0.2115477 0.08624207 -0.117675886 0.078497395 0.039307248 -0.082503274 -0.12537496 0.26911092 0.024751548 -0.07561636 0.044917945 -0.26454952 0.13553372 0.1932198 -0.15161009 0.2296016 0.18774775 0.096235126 -0.3212409 0.25451595 -0.051456828 -0.0036304127 0.015458427 0.004445635 -0.06751548 -0.019607436 0.09240057 -0.03684297 -0.035838027 -0.36269993 -0.18837409 -0.090720035 0.06375273 0.41163826 -0.0858628 0.059680037 -0.22011071 0.11980408 -0.09495179 -0.16850893 -0.04112114 -0.21020205 0.20642893 0.15696429 -0.1400468 -0.20790811 0.01286876 0.064944275 -0.2110589 0.30881965 -0.12854291 0.09085863 0.08649136 0.028137332 0.23395564 -0.3982289 0.05693409 0.15368778 -0.071173556 -0.29932803 -0.13806301 -0.19096175 -0.16639493 0.06587971 -0.1773529 0.27397707 0.046827883 -0.29518026 -0.40520206 0.17219062 -0.29591137 0.1359294 0.17237042 0.037286606 -0.24185084 0.041478124 -0.13234879 -0.026993588 0.196118 0.11877841 -0.13140616 0.18915115 -0.32280245 -0.13756715 -0.10942148 0.038331836 -0.003042505 -0.31580967 -0.44041276 -0.14050575 0.105521314 -0.043638777 -0.16374317 0.22540618 0.07137308 -0.078099504 0.18028183 -0.011350712 -0.18556447 0.17530735 -0.07955703 0.06481005 -0.13504434 -0.20822617 0.09642945 0.04848433 -0.11671978 -0.5804619 -0.13415489 0.07202981 -0.08315687 -0.11299243 0.07173243 0.12284035 0.022520777 -0.061773162 0.13917027 -0.01249937 -0.10360826
3348 -0.18309337 -0.02926483 0.057279397 -0.11499048 0.07501934 0.05687894 -0.29173943 -0.039515674 -0.08039732 0.02656958 -0.018734671 -0.25422484 0.07026555 0.05819612 0.17153971 -0.063241966 0.103418075 0.09396573 -0.09489245 -0.11898896 0.09645709 -0.040904727 -0.13152333 -0.1286864 0.06971653 0.114031665 0.12383802 -0.19822314 -0.07628496 0.28377274 -0.032732863 0.11210472 0.13330579 -0.23401992 0.27389953 0.07409323 0.06384548 -0.21917129 0.016648758 0.048713773 0.14670077 -0.021092357 -0.2467928 -0.13291237 0.06289875 0.059459932 -0.016844518 -0.16212602 -0.031381655 0.006285081 0.042631824 0.15687914 -0.15243788 0.16570367 -0.17645158 0.081395596 0.015353664 0.120039135 0.123671964 -0.015659211 -0.11905872 0.07865729 0.22553955 0.057104975 0.004035043 0.07442257 0.023725199 -0.02986604 -0.20216468 0.17949808 -0.055232797 -0.04519142 0.10917503 0.100988366 0.041387986 -0.09683057 0.018185822 0.27233583 -0.064229615 0.13695781 0.18579732 -0.2040809 -0.0401398 0.0238905 0.13354656 0.030573597 0.14664385 -0.03980087 0.25854844 -0.05087547 -0.031356912 -0.045574035 -0.09204676 -0.44132397 -0.13716368 -0.25781137 0.0045948233 -0.2054734 0.07402087 -0.015583354 0.04307377 0.15734532 0.053611837 0.029424543 0.07616667 0.23827659 -0.120143354 0.041593183 0.28762472 -0.123073794 0.025884517 0.042326044 -0.0027992923 0.2672769 0.1739532 0.020962393 -0.1448045 -0.23212124 -0.034178942 -0.090707354 0.04489453 0.20519826 -0.15573362 -0.012275152 -0.106797285 -0.021388331 -0.040217344 0.0023592499
2016 -0.26661643 -0.2929674 -0.1801895 0.060184184 0.29645744 -0.23177956 -0.4311524 0.16579114 -0.2002981 0.09313066 0.22334662 -0.12755239 0.13039507 0.06834355 0.0039455593 -0.14974265 -0.064473584 0.3199478 0.14657873 -0.25105423 0.07314668 0.0011967347 0.22384243 0.02044813 -0.08885016 -0.013491338 0.09493151 -0.10665809 0.16316116 0.14961787 -0.28578228 -0.14325508 -0.06632487 -0.23562059 0.0045442763 -0.12457457 -0.060902152 -0.28469816 -0.013846135 0.1287067 0.037956294 -0.29427662 -0.00797524 -0.31140512 0.019703617 0.07871354 -0.19930501 -0.17477444 0.050267346 0.014111695 -0.25938356 0.35531288 -0.20001283 0.06792839 0.061197646 0.25871038 -0.013267676 -0.23927431 -0.1478455 -0.041133307 -0.24927463 0.115448534 0.17931914 0.082056984 -0.10886809 0.03215987 0.332835 0.15213537 -0.04221594 0.3782824 0.02281213 0.16334535 -0.05896397 -0.0064827553 0.072336055 -0.10342356 -0.17489599 -0.03697261 0.17607214 -0.011429095 0.094593875 -0.06343363 0.0070306812 0.26837853 0.013762131 0.32772893 -0.22678849 0.060528073 0.08246431 0.026554888 0.39491406 0.22909667 0.05972925 0.068768956 -0.157987 -0.052950386 -0.07286176 0.15307544 0.004308487 0.3378695 0.12547381 0.029642485 -0.13185473 -0.13563153 0.26325372 0.16596875 -0.14535639 0.31287014 0.20021327 -0.07808491 -0.043129414 -0.084814414 -0.0009445768 0.2131284 0.28370395 0.2465528 -0.008449648 -0.29545817 0.010583643 -0.18661137 -0.32340515 0.15247998 0.1680774 -0.014559187 -0.22132608 -0.16523392 0.16289176 0.09451024
1048 -0.17448424 0.054719307 -0.021319184 -0.2345012 0.031019563 -0.13480327 -0.087008744 -0.123558365 -0.045616783 -0.032550626 0.081019774 -0.18419382 0.058628637 0.012408862 0.059753828 -0.10076504 -0.25401804 0.1624303 0.16817828 -0.071274705 -0.08485951 0.13687833 0.011151469 -0.13519362 -0.024761634 -0.07683107 -0.009052007 0.12309962 -0.12886801 -0.23969707 -0.2890564 -0.14045301 0.25614375 -0.2455477 0.075525194 0.17166738 -0.059918087 -0.03360955 -0.10100385 0.111066185 0.24004218 -0.017112136 0.026528295 -0.5206642 -0.012343492 -0.1367807 -0.10036379 -0.012385956 -0.13230908 -0.0028118344 0.064771436 -0.117363155 -0.13295221 0.1479223 -0.1336408 0.009462652 0.090405695 0.047642548 -0.16208716 -0.22846611 0.09053469 -0.00029205915 -0.0096977 0.20822729 -0.029674737 0.11451344 0.11782149 0.013568502 -0.12383403 -0.29402438 -0.021817576 -0.04745557 0.18413396 -0.05249722 -0.09052547 0.102849714 -0.06882398 0.06002999 0.063441984 0.099881895 0.24489345 0.0059208497 -0.15375964 -0.042601425 0.031767696 -0.15437792 0.12461239 0.17135827 0.055972748 0.09005072 0.19492428 0.03988411 -0.09615677 -0.19242574 -0.1753244 -0.16046602 -0.021217307 0.053734817 -0.10569404 0.32638308 0.16269541 0.0237929 0.09404676 0.20049489 0.0058746287 -0.073142946 0.13252978 0.032156534 0.20144267 0.112585746 0.0651067 -0.09937255 -0.1388838 0.056138363 -0.08441209 -0.05129532 -0.25417784 -0.23151346 -0.16182162 0.19449767 -0.10697591 0.04560686 0.060370464 -0.0061486503 0.05458807 0.02917291 0.10063043 0.22525579
5703 -0.01447403 -0.0130550135 0.07417812 -0.03823449 0.04907028 -0.033255786 -0.19035645 -0.077799566 -0.117411956 -0.053558204 -0.10247894 -0.34837583 -0.25561827 -0.010021477 0.3268944 0.029959679 -0.05674964 0.10498595 0.12813978 -0.23362723 0.0176745 -0.23227845 0.026546681 -0.042407624 -0.1756479 0.28539675 0.131166 -0.27696607 0.029955022 0.24453142 -0.2727068 0.29788482 0.055715483 -0.16222773 -0.031525742 -0.0028525575 0.034670718 -0.39647654 0.15619059 0.011206469 -0.097634055 0.09028562 -0.091364615 -0.12471841 0.00028602025 -0.078159645 0.07117952 0.04358615 -0.20204067 0.06500794 -0.042797193 0.23045348 -0.05108927 0.23551099 -0.08654883 -0.049726754 0.038559306 0.15866451 0.21133995 0.015129086 0.13283138 0.111648306 -0.029042758 -0.051032294 -0.05972822 -0.014302323 -0.15594189 0.33851892 -0.22472732 -0.11251566 -0.21550287 0.112219535 0.28624806 0.03483834 0.0105318315 0.13805176 0.05127645 0.18683879 0.06149907 0.3143412 0.09753639 -0.20528097 0.11454695 0.1803143 0.12280398 -0.072032616 0.20867462 0.032989208 0.09921123 0.023381274 0.050350416 -0.20323487 -0.084753014 -0.2840667 -0.11335572 0.007809726 -0.1365228 -0.0484731 -0.385587 0.18530719 0.092724696 0.24464276 0.004259424 -0.46089035 0.06801364 0.13414247 -0.18598181 0.15634201 0.19080351 -0.08748702 0.064553805 -0.053073775 -0.117814906 0.20126171 -0.18064934 0.18977283 -0.23871344 -0.105128534 -0.022088395 0.0010056804 -0.0121821 0.15142155 -0.30269834 0.10350117 0.0431702 -0.046569023 -0.31426182 0.32067248
3307 0.097770944 -0.4225275 0.11778185 0.10353537 -0.015869698 -0.22963063 -0.28889897 -0.47574955 0.30483893 -0.13586897 0.27423194 -0.13656299 0.2910039 -0.32873026 0.3062446 0.25012442 -0.044446148 -0.18386213 0.043979518 -0.23570661 -0.115336545 -0.13463488 0.46025383 0.04815395 0.4144385 0.033942822 -0.1104509 -0.15087764 -0.28814384 0.20144835 0.04663855 -0.1374021 -0.24374896 0.12784253 0.011711383 0.0634794 -0.23351294 -0.11516857 0.0029564088 0.0798994 0.033552535 0.04687204 0.03596711 -0.37033218 -0.011341061 -0.1343212 -0.04668236 -0.11247982 -0.16412786 0.38795102 -0.14907372 0.13692705 0.10179958 -0.17391092 0.093683384 0.23386441 0.24423587 -0.15236068 -0.060325924 -0.3421006 0.014919434 -0.16837518 -0.22103478 -0.07427929 0.055722974 0.07485114 0.16200906 -0.095779024 0.13145606 -0.22871569 -0.25007647 -0.13408819 0.07912407 0.10077932 -0.33677372 -0.19282682 -0.17350824 -0.179699 0.4646158 0.12259658 0.0060336315 -0.005473565 -0.2759968 0.017239321 -0.05364972 -0.04997587 0.21661781 0.14005485 -0.0784922 0.2536175 0.2044449 -0.22336687 0.005333257 -0.26221228 0.1831445 0.018429423 -0.19414583 -0.10278376 0.09626044 0.032232497 -0.17371936 0.11335416 -0.04458055 -0.17571692 -0.06599458 0.011433417 0.036686793 -0.057759 0.007655459 -0.13117674 -0.151541 0.20367318 -0.2615021 -0.19899708 -0.032520786 -0.29484594 -0.12389519 -0.016308382 -0.31090012 -0.10054221 0.058077235 0.17800312 -0.054162297 0.09005859 -0.111708574 0.027960498 0.022343526 -0.20701285
1315 -0.20649436 -0.118011676 -0.077099584 0.123143785 -0.11753621 -0.056952424 -0.28477544 -0.18294711 -0.12470886 -0.10813568 0.108947344 -0.06920472 0.15034628 0.22122127 -0.06172595 -0.000402213 0.07975191 0.089102514 -0.09602602 -0.011529729 0.04655219 0.14778143 -0.0009731059 -0.0175152 0.09031746 -0.12668197 0.066162 -0.03462718 -0.00020705796 0.23857656 -0.05897576 0.04968084 -0.07856277 -0.20026869 0.10428099 -0.12716722 -0.09452194 0.097748876 -0.19815683 0.10816843 -0.16814691 0.15642829 -0.05898088 0.0719385 -0.27674368 -0.104343005 -0.20870464 -0.0038618457 -0.14814276 -0.14566824 0.11351714 -0.12596639 0.055341978 0.038048785 -0.04038921 0.23514605 0.15012689 0.014627378 -0.0454471 -0.20082062 0.06479984 0.33655035 -0.06209753 0.07903567 0.1790614 0.07701615 0.13313416 -0.027210416 -0.19766088 -0.0691972 -0.16023636 -0.096167795 -0.062519774 0.03529982 0.09509906 0.09965075 -0.06433955 -0.03713418 -0.050028414 -0.07285718 -0.11614484 0.021503862 0.2834314 0.06640845 0.1677599 -0.004891481 -0.12294581 -0.12057441 -0.1631586 0.050598558 0.20196816 -0.30014405 0.19474481 -0.35964283 -0.07855759 0.08590163 -0.022162914 -0.103099264 -0.08030752 0.06513395 0.0735769 -0.10139934 0.13344516 0.16264436 0.0033652445 -0.22958569 -0.047742657 -0.09398719 0.30693895 -0.020238595 0.07494921 -0.030412331 -0.1226763 0.1569926 -0.083268024 0.11459681 -0.112471044 0.04843302 -0.2127912 0.108731 -0.102266595 0.016501708 -0.043733925 -0.03081106 0.060678802 0.19818851 0.036620934 0.262194
5234 -0.24539258 0.08631917 -0.15611748 -0.15934312 0.029304942 -0.11100075 -0.25979602 -0.15111418 0.10392792 -0.0119462125 0.045306906 -0.11596753 0.16179267 -0.17214833 0.029569793 -0.015877211 0.08458868 0.009812189 0.09909043 -0.21422493 -0.013369451 0.007079849 0.08809245 -0.15632357 0.011154178 -0.18042651 0.20694324 -0.019118702 0.013841436 0.061022636 -0.12542175 -0.08628659 -0.033201013 0.080632925 0.1104773 -0.050916236 -0.10709442 0.19506823 -0.36058068 0.16540922 0.15980658 0.17452334 -0.082220465 -0.114273965 -0.18207316 -0.15865543 0.11587575 0.11897288 -0.14679888 0.038826253 0.32308137 0.13152002 -0.095963985 -0.07934645 -0.14951393 0.15670106 0.123721585 -0.024565889 -0.022054018 -0.17393033 0.09770399 0.107109286 0.011103497 -0.047274984 0.0969272 0.048946943 0.11692846 0.1248833 -0.0716478 0.15999088 -0.16160807 0.13886702 0.12210746 -0.07206286 -0.068322316 -0.04998277 -0.115875006 0.16382417 -0.015990954 0.17585501 0.07287232 0.010965609 0.013530277 -0.1056808 0.06998436 -0.013727786 -0.060670085 0.1028489 -0.19613726 0.13111474 0.17035498 -0.092032254 0.071105115 -0.17284599 -0.12422772 -0.11280157 0.022891622 0.06291663 -0.14022744 0.06561451 0.22318585 0.08156116 0.08787178 0.14930712 0.073737584 0.04380144 0.02117149 0.042426024 0.176649 0.047542594 -0.049000245 0.049799815 -0.038844343 0.18706283 -0.26545793 -0.1058656 -0.037447196 -0.006454058 -0.13790192 0.060945723 -0.1299285 0.17715923 -0.262951 -0.06696154 -0.06681183 0.038201015 -0.08501042 0.10154751
1326 -0.02429386 -0.028752113 -0.14029486 -0.11105006 0.04488962 -0.27148312 -0.26183078 -0.0057258364 0.0006383581 0.000839565 -0.07628658 -0.18425517 0.26630622 0.13097593 -0.14412527 0.14809243 0.0386434 0.443913 -0.09325521 -0.11459552 -0.01806727 0.175584 0.046081457 0.20315588 -0.0871411 -0.018918859 0.13077644 -0.10483885 0.072460905 0.082287826 -0.15627371 -0.031523034 -0.020066109 -0.24008793 0.0074787512 0.027977299 -0.19754142 -0.04935173 0.09866931 0.005637662 -0.123009674 0.12535194 -0.24846162 0.14779553 0.035268627 0.089179926 -0.3127643 0.094914824 -0.23621528 0.016371569 -0.014907186 -0.24166887 0.1111824 0.067891136 0.057106555 0.3476577 0.3662288 -0.12573887 0.2933376 -0.11610616 0.15428817 0.16971478 -0.007541715 0.2717243 0.18339565 0.41926733 0.029342104 0.23681712 -0.14999273 0.085093066 -0.21637222 -0.1437426 0.057171647 0.15909512 0.030303294 0.25024515 0.06820834 -0.018780116 0.11440646 0.23094559 0.26831713 -0.15181969 -0.08663699 -0.043964744 0.08502853 0.027102761 0.017834704 -0.055697467 0.113904074 -0.062224 -0.29803255 -0.031459365 -0.06621917 0.06885756 -0.28504282 0.0951001 -0.12408968 0.15956582 0.04546097 0.041357394 -0.0074544097 0.04310171 0.07700606 0.2161541 -0.098318346 -0.46686608 -0.034425423 0.15194026 0.30711243 -0.028026486 0.034166936 0.3916846 -0.1174008 0.127445 0.00022915934 -0.13628264 -0.030419808 -0.07372311 -0.05559467 -0.005619783 -0.38354838 -0.21378621 -0.335268 0.04913948 -0.08784386 -0.04940401 0.10170067 0.04813486
3886 -0.39180285 -0.04906008 -0.12790576 -0.0068171006 -0.41497988 0.16973777 -0.19974922 0.07403194 -0.09346653 0.002401962 -0.15855691 -0.056744356 0.19745804 0.032010503 0.20661482 0.02868981 0.1997313 -0.32364163 -0.1709706 0.023391867 -0.07878582 -0.14940049 -0.031358823 0.16571742 -0.0719975 0.07254282 -0.09511371 -0.037476745 0.12681128 -0.21357107 0.23809817 0.27253845 0.21247166 -0.23698252 0.034001306 -0.068238705 -0.0653776 0.028336875 -0.3523074 -0.103576586 0.011788529 0.06330033 0.23532303 0.12666324 -0.12999879 -0.23708852 0.05702437 -0.19229095 -0.15323621 -0.10934618 -0.109570846 -0.20141658 -0.048680503 0.07590413 -0.28868777 0.19212453 0.034512598 -0.12635379 0.017339425 -0.3087874 -0.10571938 0.10858329 0.0010637746 0.39900967 -0.062291853 0.23133655 -0.10332828 0.2668363 0.03403443 -0.061648063 -0.05071199 -0.21625662 0.40668592 -0.29933122 -0.072835095 0.013371277 -0.047098868 -0.22098462 0.22519507 -0.01716139 0.20947428 -0.05858814 -0.018974358 -0.05924105 -0.023434602 -0.13783655 -0.22264002 0.10843307 0.2131265 -0.19249721 0.06302044 -0.021016087 0.091663 -0.20944214 0.020533267 -0.04386842 -0.105511785 -0.1481248 -0.2708114 -0.07523768 -0.3748699 0.19465013 -0.095652506 0.06708073 -0.4151568 0.15578271 0.121448085 0.05642298 -0.18196635 -0.1615946 0.08425228 0.19738504 -0.22059329 0.16411258 -0.122981936 -0.16925213 -0.1332478 -0.24563695 -0.033661485 -0.096083775 -0.2440316 -0.14426705 0.14942867 0.26281488 0.16267778 0.037451427 -0.015348471 0.2427206
2121 -0.33335838 0.3557037 -0.102240905 -0.31179178 -0.15997683 -0.014108335 -0.16472387 -0.31535733 -0.30770725 -0.16654563 0.014085068 -0.103112034 -0.10536426 0.078892365 0.17476588 -0.045440465 0.046388526 0.4542484 0.11633023 -0.14336888 0.10178627 0.31644598 0.1879469 -0.1642056 0.0019060591 -0.19108331 0.12590359 -0.21216728 0.16033836 -0.09590212 0.09707716 0.029212756 0.03767197 -0.22887895 0.09847564 -0.1706552 -0.050359696 0.059984904 -0.1541374 -0.08588851 -0.025333669 0.13001785 -0.080223374 -0.022351248 -0.0049375924 -0.1963628 0.22558492 -0.008008904 -0.0014800866 0.14665344 -0.062760845 0.13037376 -0.073811494 -0.17788503 -0.12713388 -0.111956485 0.20647457 -0.21904454 0.37554252 -0.024494117 -0.057338484 0.12662348 -0.013377454 0.020219438 0.023452599 0.27479285 0.14929123 -0.36032996 -0.2081471 -0.13598996 0.08502854 0.0530795 0.21596618 0.08452009 -0.32206193 0.028862847 0.16018921 0.0070747226 0.056830544 0.08687546 0.18261307 0.1900088 -0.18207608 -0.048282612 0.005854814 0.1516247 -0.069402024 -0.048565857 0.081546865 0.12593529 0.01735918 0.08027931 0.1412073 -0.047287922 -0.28372306 -0.12264231 -0.09967232 -0.11412946 -0.20630391 0.052301683 -0.1624462 -0.060141765 0.043285564 -0.27075112 0.03988371 -0.006493278 0.43741515 -0.028358433 0.17453147 0.022908084 -0.16305521 -0.10718118 -0.0016327132 0.095546685 0.11892555 0.12843981 -0.016506927 -0.16304442 -0.2470431 0.23818915 0.015425939 0.14506796 -0.12605864 0.09682666 -0.064027935 0.15839373 0.10309901 0.016787756
4985 -0.07513699 -0.04471805 0.048941854 0.021922348 -0.21939977 -0.021854086 -0.058863573 -0.2487097 0.19473007 -0.1163676 0.054201644 -0.3091702 -0.10504289 -0.071901836 0.19233595 0.09854231 -0.10944169 0.0030344436 0.0009346866 -0.15046848 0.0045043826 -0.0843057 -0.027083168 -0.12473006 -0.11244821 -0.10814833 0.021091321 -0.10393908 -0.08347647 -0.011314433 -0.0013295475 0.19356449 0.11952737 -0.14551404 0.030569116 0.10277299 -0.14096151 -0.31152657 0.041903704 0.02237234 -0.13109067 0.014646687 -0.15212525 0.05848148 0.21677548 -0.17098151 0.17631689 0.008003242 -0.12739407 -0.02098113 0.008022961 0.15181445 0.20001589 0.0750537 -0.06541271 -0.0015877101 -0.063710935 -0.06258558 0.24005482 -0.14921948 0.23791625 0.112183236 0.03271099 0.14584374 -0.06738165 0.25114256 -0.062464774 0.049041413 0.018687919 -0.041984774 0.09996774 -0.0650056 0.0867573 0.111320935 0.016954388 -0.0042938236 -0.023987837 0.04634503 0.14789054 0.14366066 0.046070594 0.06116267 0.01182209 -0.030750852 0.0020127574 0.069739506 0.1840213 0.05241174 0.08324958 -0.037363593 0.1576034 0.019449916 -0.21845174 -0.15374139 -0.14981057 -0.163674 -0.12269902 0.005646955 -0.045839388 0.0043494506 0.13625234 -0.05686046 0.20029815 -0.14381614 0.14364183 0.18307535 0.022130948 -0.028716672 0.258142 0.028681716 -0.017074272 -0.0034471685 -0.1062933 0.069515616 0.0546527 -0.013352431 -0.10741476 -0.08058241 -0.063440196 0.08040264 -0.040468678 0.2234759 -0.16220413 0.19895017 -0.042080954 -0.07370069 0.14642818 0.18922077
5390 -0.32416332 -0.013161893 0.27700907 -0.1969142 0.012675828 -0.1253367 -0.2349899 0.005482458 0.16071644 0.0023887213 -0.13353615 -0.35337615 0.1427226 -0.24909247 -0.0059683183 0.21859379 -0.22166534 0.01700793 -0.017567245 -0.33906904 -0.18592341 0.30053577 -0.044706848 -0.33394718 -0.028559824 -0.09923937 0.024741547 0.017157797 0.0249285 -0.12707035 -0.07934142 0.008972438 0.34953314 -0.2108976 0.20157252 0.022434205 -0.17500274 -0.007197833 0.012845466 0.13298589 0.22040728 0.031569228 -0.04750164 -0.3116111 -0.046224955 -0.17829823 -0.27525976 -0.08397666 0.081053935 -0.18727787 -0.08919629 -0.19548585 0.06744677 -0.13962762 -0.009639907 -0.053673625 0.09588002 -0.031735312 -0.07051223 -0.090102494 0.15129663 -0.082865104 0.02173436 -0.027292931 0.16209228 0.27537152 0.18274826 -0.15982926 -0.031347953 -0.16348292 0.3326173 -0.13540676 -0.09556678 0.13667773 -0.2453857 0.13159697 0.10041892 0.07268488 0.17225988 0.030600198 0.15421955 -0.20517159 -0.267381 0.14505988 0.04796552 -0.3390753 -0.079335496 -0.11628147 -0.01297512 0.097940184 0.21609186 -0.17399062 0.12617217 -0.2827685 -0.100827456 -0.071411625 0.20906632 -0.12908317 -0.33340985 0.39223808 0.078806706 0.14542426 -0.08681663 0.3529296 0.032579195 0.004140246 0.024202336 0.18115711 0.073396295 -0.13466349 0.13916779 0.06312731 -0.18510276 -0.047711063 0.13043645 -0.01768079 -0.3865336 -0.23164578 -0.11501211 0.0766394 -0.06865993 0.07507539 -0.073018976 -0.011255665 -0.0014159979 0.06975794 0.120959744 0.37620103
4058 -0.20841855 -0.2722085 -0.018517993 0.20402978 -0.07976266 -0.15078191 -0.028206531 -0.19595863 0.030837182 0.088204585 -0.122000396 -0.0671083 0.20078996 -0.35819042 0.28383094 0.16516833 -0.06288282 0.12376938 -0.14455476 0.052140277 -0.097483985 0.018206866 0.24591018 0.021059029 0.16285008 -0.08839379 -0.023859581 0.08459083 -0.27793407 0.41805536 -0.05573796 -0.3118736 0.07427541 0.08879157 0.1884657 -0.11856495 -0.039663814 0.016274001 0.26749143 0.028716145 0.2589007 0.3103273 -0.06479214 -0.09653355 0.086065285 -0.097125866 0.2104441 -0.025419105 -0.047991034 0.25949082 -0.043257654 0.059664123 0.13183308 0.1778887 -0.061009154 0.089933485 0.15926461 -0.14388907 -0.02466484 -0.25960335 0.12204553 -0.074930444 -0.3950737 0.12746714 -0.024626464 0.09796304 0.09493103 -0.105353355 0.2151147 -0.4130889 0.16764116 -0.016325295 0.0013995698 0.1826447 -0.0020957093 -0.19471213 -0.26170492 -0.5193812 0.4219839 0.12708868 0.34876734 0.18094338 -0.32988375 0.00495857 -0.17857966 0.15233696 0.07253963 -0.020372877 0.25026205 0.056601368 0.16977689 -0.24621062 -0.1381664 -0.2618748 0.15408163 0.14968024 -0.34738985 0.16231926 0.006046003 0.14421533 0.045551628 3.5524252e-05 0.17146337 -0.08569106 0.019625317 -0.240844 0.07078147 0.015354675 0.04055342 -0.17770135 -0.009292978 0.26983276 0.08926299 0.29790738 0.115520425 0.08285237 -0.011313509 -0.088570416 -0.20349863 0.114852056 -0.053460263 0.119993046 0.13421246 -0.30826378 0.16971341 0.022833483 0.024069127 -0.027113017
3168 -0.3090055 0.074240714 -0.076149374 -0.054027572 -0.07362742 -0.24363527 -0.034999203 -0.12420218 -0.64716256 -0.20553176 0.1084861 -0.22718896 0.12617755 -0.11486249 0.19518079 0.13882127 -0.03430053 0.09802557 -0.045384847 -0.2557647 -0.16848603 -0.08149598 0.03886465 -0.060687944 0.0075906073 0.11921386 -0.058072787 -0.24403083 -0.09140529 0.01021318 -0.076252066 -0.09894622 0.002499202 -0.087322354 0.2966611 -0.10692093 0.020153185 0.38485754 -0.11299159 -0.3307787 0.19946435 0.05124881 0.07895551 -0.032395035 -0.18742487 -0.08623278 -0.20919314 -0.058110815 -0.27798605 -0.058609553 0.057674862 -0.028996518 0.102492064 -0.1427215 -0.1470479 0.07303649 0.2651455 -0.101521164 0.17682408 -0.3130362 0.05135325 -0.0030573034 0.13014221 0.08857378 -0.07046228 0.1474246 -0.013656448 0.17836912 -0.004013731 0.116998956 -0.08707653 -0.107955985 -0.00076805014 0.069576725 0.28131607 -0.057023834 -0.07610249 0.20941126 -0.008089926 -0.086270764 0.050306763 -0.18711708 -0.006231511 0.02171991 0.11613805 0.12880225 0.030467305 -0.1439281 0.041158307 0.09547067 0.20306753 -0.32853377 0.1675281 -0.16786526 0.020022735 0.2808924 -0.03975036 0.033237148 0.12244885 -0.051678464 0.1507837 0.0568461 0.20923223 -0.09304087 -0.23445724 -0.12756525 -0.13162142 -0.08805879 0.27864817 0.17067765 0.10732679 -0.114265315 -0.16084881 -0.14827658 -0.2663069 0.17154153 0.13898927 -0.007851653 -0.13499235 -0.0074338983 -0.09073547 0.089361735 -0.40159708 -0.022997154 0.068980455 -0.049618494 0.22187865 0.15314546
4409 0.023022618 -0.036082927 -0.09356839 -0.07955363 -0.3371649 -0.26097235 -0.0125595555 -0.100785315 -0.08918482 -0.018903524 -0.15355551 -0.42659327 0.21664867 0.037376177 -0.15212616 0.17428352 0.0010320607 0.45630828 0.07208267 -0.044031754 0.15813136 -0.059982534 0.13180907 -0.16217071 -0.003699155 -0.2922789 -0.06958962 -0.24477021 0.039764818 -0.032388646 0.0036396335 -0.16121238 0.056915116 -0.036510516 -0.14822635 -0.18808605 0.06508141 -0.22783391 -0.121618 0.10139901 0.11536827 -0.096439645 -0.12834623 -0.1110703 -0.024795335 0.035802804 -0.12993088 -0.008326885 0.16055048 0.3217865 -0.15937419 0.04142266 -0.436218 -0.21338733 -0.25174305 0.035246335 -0.022380812 0.083017334 -0.039504413 -0.38977978 -0.19879057 0.05188891 -0.04933262 0.19339658 -0.09820925 0.07014135 0.15751767 -0.021924835 -0.46514982 0.19851261 -0.13537787 0.21343175 -0.27463698 0.18468165 -0.041231148 -0.25808913 0.06311862 -0.17457668 0.024677455 0.2661356 -0.014360999 -0.18971078 0.049700525 -0.058850773 -0.19804128 0.048010916 -0.08424046 -0.03328766 -0.04530569 -0.11893506 0.13960676 -0.2060481 0.033452496 -0.07452244 0.08541714 0.20494118 0.23634338 -0.053819653 -0.04611967 0.5441516 0.25820586 -0.004075014 0.2745603 -0.3074216 -0.007886857 0.09348245 -0.068154946 0.22013953 -0.15932164 -0.014178142 -0.14939569 -0.13767081 0.12381983 0.07730294 0.034298103 0.17085758 -0.006510378 -0.32081234 0.16416194 -0.32932374 -0.29610014 -0.0173569 0.10541427 0.058565903 -0.19385016 0.091367275 0.22437043 0.08059343
3087 -0.19813007 -0.26917535 0.044528335 -0.021262545 -0.19777614 -0.21599707 -0.041810732 0.24743257 0.068913855 -0.1602044 -0.1807913 -0.3410954 0.17036743 -0.19376779 0.6457759 -0.15760623 -0.017494315 0.37309346 0.036897622 -0.24138601 -0.055625897 0.0034714486 -0.045864765 0.086106546 0.077884644 0.040609345 0.21206753 -0.25035757 0.22038896 -0.03035993 -0.04970793 -0.06532502 0.20860316 -0.05635298 0.1451032 -0.29312146 0.01244832 0.1109533 -0.024192143 -0.2543374 0.13546611 0.055516604 -0.28645253 -0.07254531 0.081623256 0.17091042 0.07015281 -0.17073698 -0.084065504 0.32215008 0.4276559 -0.018454688 0.013495808 -0.15412317 -0.23166615 0.044213478 0.01336942 -0.3575863 0.019728085 -0.059696376 0.013061693 -0.15465964 -0.289428 -0.030718716 0.07750402 -0.2634371 0.28933853 -0.20673679 -0.013774537 0.08898351 -0.0629801 -0.13423243 -0.2279777 0.3282573 -0.011021078 0.10000986 -0.039408542 0.10781649 -0.010012927 0.3773987 0.036988296 -0.24636158 0.085218914 -0.10839888 -0.10829724 -0.13063021 0.11543836 0.0388188 0.22788273 -0.16809176 0.19937271 0.12021109 -0.09901264 -0.3987029 0.0869772 0.26720634 -0.36238572 -0.08702756 0.09572509 0.2191399 0.026112169 0.057400987 -0.0049133366 -0.037675846 -0.0028703907 -0.2511444 0.015600776 0.119557485 0.082037464 0.035118982 0.22504456 0.03357125 -0.29101092 0.13780211 0.12213084 -0.009098351 -0.15530244 0.09893247 0.05023485 0.24503168 -0.13288857 -0.035546884 0.22849338 -0.10589906 0.06673571 -0.0215906 0.3218717 0.15130295
1550 0.02446001 -0.15978844 -0.1072036 -0.18892847 0.12341652 -0.018580208 -0.3421984 0.082329474 -0.324572 0.057086464 -0.097617544 -0.21847521 0.34850687 0.07157844 0.088126175 0.103145696 -0.1264954 0.21708648 0.09115785 0.057959363 0.12125179 -0.03658696 0.087770425 -0.04106024 -0.30171713 -0.12365523 0.14437237 -0.1033572 0.07019657 0.021761796 0.102050185 -0.23093332 -0.14541662 0.16117838 0.14587544 -0.2330926 -0.03696955 0.002690767 0.12608102 0.21076778 0.2384111 -0.074021965 0.018704586 -0.1983999 0.088405676 -0.23220661 0.043354865 -0.0007352282 -0.42412764 0.12147854 0.09534254 -0.24389213 -0.024249181 -0.27735105 -0.3303939 0.11319686 0.02711178 -0.08448487 -0.07748336 0.018340865 -0.077902645 0.20446922 -0.0739239 0.08813529 -0.10103428 0.037663154 0.2507418 -0.16931486 0.09469646 -0.12581879 0.014123672 -0.19515824 -0.3316338 0.10741205 0.0437657 -0.10374148 0.15074545 -0.017880637 -0.110238835 0.13869518 -0.10058391 0.009972552 0.13988264 -0.09359988 -0.018462239 -0.16297948 0.10514162 0.120622404 0.09645033 -0.06393574 0.25958052 0.19259737 -0.038840443 -0.15467435 -0.2569919 0.27292517 0.23770331 -0.15158132 -0.11873906 0.20002128 0.31675786 0.46985266 0.054460306 -0.058709923 -0.12022711 0.0658677 -0.1360645 0.35117823 0.023340378 -0.4613699 0.32814118 0.21846382 0.007231505 -0.0020057987 0.053671245 0.22112614 0.029389381 -0.05592246 -0.10370856 -0.20324498 -0.03700736 0.20204008 0.21715336 0.19603483 -0.24309257 0.22656779 0.2536423 0.117166944
5473 -0.20909084 0.19756621 0.1397591 0.06447043 0.17568123 -0.015341509 0.030915137 -0.08328926 -0.23069865 -0.16210951 -0.06620856 -0.295898 -0.0067893732 -0.005339281 0.2050001 -0.0061663347 0.10430948 -0.005144565 0.040844463 -0.008575246 -0.0045060087 0.18079598 0.07861587 -0.05920149 0.04987221 -0.10123749 -0.030659694 -0.13685365 0.13659896 0.16394895 -0.10004346 0.11772795 0.0048026503 -0.09411846 0.04657149 0.099698514 0.1389883 0.13185479 -0.1789269 -0.02258552 0.13821737 0.14132737 -0.19511087 -0.14362954 -0.17712538 -0.06922843 -0.2258327 -0.03495918 -0.2814176 0.06593509 -0.074257515 0.22227742 -0.12709405 -0.016014714 -0.22417976 0.24646972 0.07880445 0.08076554 0.18867905 -0.056625478 0.15135694 -0.10349237 0.16847686 0.19037957 -0.10836425 0.09542959 0.008955325 0.08369485 -0.082591645 0.022200713 -0.13397901 -0.31023636 0.029598584 0.104583375 -0.10387754 -0.021874651 -0.031052206 -0.021050837 -0.081311494 0.31011385 -0.19050562 -0.028639557 0.22887829 0.1535482 -0.06272112 -0.13594572 0.005501551 0.031308763 -0.038769495 -0.0099206 0.2623482 -0.12037969 0.11049124 -0.3868276 -0.32677737 -0.027639946 -0.118047215 0.19204976 -0.05145174 -0.11731204 0.2398137 0.17699488 0.25830537 0.07928924 0.07132398 -0.15143509 0.09806893 0.047994908 0.27267674 0.19314335 0.06098847 -0.0385582 -0.046761766 0.16600251 -0.054390647 0.08586029 0.1343784 -0.009564447 -0.023674995 -0.073457144 -0.0896149 0.2251481 -0.33351478 -0.0039137215 -0.05013973 -0.09547243 -0.006682232 0.08259785
1628 -0.2368302 -0.10527832 -0.153033 0.04378959 -0.013081788 -0.19704741 0.07120748 -0.09814217 -0.045480136 0.14977059 -0.06631052 -0.03287278 -0.017762275 0.024489261 0.2857991 -0.017053302 0.26576126 0.02474883 -0.2880257 -0.16432205 -0.21630509 0.05150872 -0.015331445 -0.039259266 0.07538212 -0.04897202 -0.018288758 0.12769851 0.2509725 0.06648638 -0.08268737 -0.062221736 -0.14334428 0.03671123 0.07940289 0.0068772025 -0.003849494 0.25797057 0.0694387 0.018135497 0.210913 0.13091905 -0.04361647 -0.17228068 -0.034196272 -0.16826512 -0.019382423 0.123407155 -0.10126324 -0.008393372 -0.078979835 -0.06757411 0.05801621 0.17822878 -0.08627465 0.17686197 0.14694867 -0.025600394 0.22293364 -0.1922249 -0.27865797 0.03919698 -0.21824017 0.20026962 -0.076553896 0.055403396 0.1268803 -0.04862998 -0.11978041 0.12766989 -0.04380593 -0.07557004 0.05524683 0.14893046 -0.13212983 0.023166396 -0.116539195 0.05268358 0.06832525 0.10169401 -0.012027153 -0.0022284794 -0.042726155 0.16724484 -0.060525298 -0.06889358 -0.03838221 -0.088750035 0.051485773 0.2148445 0.0401231 -0.08099649 0.17901607 -0.11114819 -0.048789516 0.08986942 0.043576688 0.13566366 0.064148575 -0.00826526 0.12654832 0.037606675 0.11774569 -0.014511727 -0.15909171 -0.12226519 0.024928333 0.20610422 0.339739 -0.1514077 0.034517314 0.13718973 -0.007844661 0.012997368 -0.18058209 -0.18269815 -0.36702204 -0.30139253 0.017955353 0.002191945 0.09661894 -0.026731037 -0.036158346 0.21469674 -0.10689678 -0.07074368 0.17702578 0.06451401
220 -0.19466707 0.089551486 -0.076830335 0.03882913 -0.1467477 -0.056566007 -0.073068574 0.08144396 0.07971734 0.008530323 -0.075964384 -0.21732263 -0.2367197 -0.05467756 0.27113187 0.20880502 0.07711983 0.048216715 0.038128365 -0.3704021 -0.082854286 0.03043116 0.09060695 -0.14117227 -0.36055586 0.21351191 0.25933227 -0.11300069 0.08803102 0.2425247 0.026072057 -0.15582113 0.38267466 -0.04830904 0.18460165 -0.3450317 0.03923963 -0.33826086 -0.030157093 0.23051524 0.030510927 0.27551004 -0.099675365 -0.21737258 0.00044053915 0.0063478877 -0.14207089 -0.03003725 -0.2379328 0.3202915 0.07001238 0.21960142 0.1354586 -0.039936345 -0.13192968 0.17122744 0.2599747 -0.060262367 -0.056571092 -0.30983415 -0.09078717 -0.06548317 0.19912016 -0.21502069 0.06472826 0.11711145 0.13606125 0.09957449 0.092904575 0.15817367 0.060148038 -0.13739114 0.15923193 -0.019761387 -0.106266454 0.033968724 0.036539253 0.049057536 0.22160237 0.36307406 -0.18211184 -0.21478474 0.1620985 -0.24886064 -0.27880207 0.115910046 0.12803544 0.02769436 -0.19983417 0.048527397 0.05509625 -0.011276355 -0.17391272 -0.10549217 -0.20592174 0.09833639 0.012397456 -0.05624293 -0.048523687 0.20870787 0.18358512 0.104123615 -0.06738407 -0.040179957 -0.1342178 0.13540255 0.123622805 0.06088416 0.38412282 -0.15057464 -0.049136426 -0.16302887 -0.12317958 0.044378266 -0.032265227 0.022686644 -0.43393177 -0.02762851 -0.097995736 -0.1279978 -0.051915925 -0.038906526 0.05123449 -0.02852989 0.053174324 0.23666608 -0.19827087 0.11386814
2289 -0.0735456 -0.15545754 0.069632865 -0.09490635 -0.11351902 -0.10669534 0.014910294 0.055561908 -0.2503596 0.1050923 0.15641221 0.12973914 -0.05687956 -0.094053715 -0.18152024 0.11189344 0.041662678 -0.10015453 -0.13040948 -0.043055005 -0.12549771 0.106681004 -0.12982821 0.23732512 0.13057242 -0.48032066 0.34426704 0.10461214 0.17412195 0.025485512 0.017697124 -0.062086366 -0.1020168 -0.23838122 0.15022272 0.1417331 0.06938471 0.30402532 -0.3293864 0.16191243 0.1035066 0.05917329 0.05975266 -0.08134893 0.2380019 -0.0065227663 0.086233184 0.37092057 -0.18507984 0.14908674 0.1989419 -0.092049055 0.011085487 -0.024706108 -0.13918355 0.082405254 0.010052674 0.055795595 -0.011574037 -0.10561341 -0.23650844 -0.027914386 0.024532914 -0.051923968 -0.10203145 0.073087774 0.12352881 0.326575 -0.046733513 0.03713577 0.17911495 -0.08489393 0.123543665 0.021582276 -0.04346711 0.15835197 -0.025379878 -0.0372779 -0.043042105 0.16006693 -0.01771207 -0.041422807 0.033138853 -0.011642792 -0.10386485 -0.093841 -0.122286595 -0.20844735 0.1484438 -0.038206395 -0.056121204 -0.22413875 0.07376768 -0.23269111 0.0711938 -0.30892187 0.1649041 0.18176867 0.0064457045 0.3436285 -0.07985905 0.14107147 0.23554493 0.024882691 -0.23082235 0.19055463 0.07089597 -0.0057586827 0.209473 -0.17202659 0.12737718 0.12442737 -0.12155991 -0.20568368 -0.12097857 -0.2257617 -0.3993945 -0.05713193 -0.4156481 0.2074758 -0.38929194 0.0919359 -0.18679535 0.016552426 -0.06288642 -0.061988924 -0.021601738 0.14059214
