439 128
4854 0.11167801 -0.15018679 -0.08273347 -0.022486111 -0.060426686 -0.05211423 0.013485171 -0.20898432 0.28682736 -0.21671778 0.16185771 -0.24340734 -0.0542405 0.07214154 -0.123011 0.11906908 -0.25574237 -0.06837349 0.11582601 -0.16261913 0.007722707 0.03536764 -0.03423243 0.00013334879 -0.15723492 0.21658495 -0.25538644 0.053790037 -0.039144296 -0.07154465 -0.078477435 -0.010975369 0.038022887 -0.27510205 0.08079966 -0.09971981 -0.15087268 0.022446252 0.28381374 -0.21471286 -0.22804679 -0.080062024 -0.0921403 0.019165749 -0.07685766 0.04101581 0.123782545 0.04893179 0.13840537 -0.12807089 0.12188208 -0.073109314 -0.123843424 -0.10297001 0.11379142 -0.06804938 -0.11021183 0.019723939 0.047092225 0.056065362 -0.06594664 0.2832689 0.10917381 0.104727365 -0.079506524 0.20625176 0.16547109 0.0020071312 -0.07225638 0.058519118 0.069184385 -0.08963512 0.25382787 -0.2386438 0.12662716 -0.031915274 0.18453959 0.4330913 0.053562477 0.03275236 -0.1478775 0.2116683 -0.092733614 -0.26748762 -0.03404577 -0.043311648 0.029765433 -0.01505039 -0.23907885 0.12036935 0.068628415 0.08891327 0.026408093 -0.025478631 -0.24320027 -0.07222806 -0.045839548 -0.08184435 -0.016314305 -0.12458596 0.19037883 -0.30599934 -0.14699157 0.14504991 -0.0035941391 0.04387919 -0.13600469 -0.28162163 0.11261933 -0.16504773 0.01614131 0.26060766 0.013891388 -0.3059335 0.0055534965 -0.083216645 -0.059086528 -0.08848525 -0.10296337 -0.13071091 -0.06515182 -0.13540247 -0.029787011 -0.035365995 -0.16268176 -0.15276328 0.09822889 0.116476625
5 -0.112443976 0.07729132 -0.21559939 -0.094739154 -0.123265505 -0.2502659 0.1297053 -0.11920646 -0.049956612 -0.05898865 0.02832556 0.16483499 0.008940064 -0.20917179 -0.0052766204 0.22885168 -0.23126355 -0.1725985 0.15540838 -0.2290084 -0.080470085 -0.05695232 -0.08509301 0.10915027 -0.41208544 0.04894579 0.17925172 -0.09212741 -0.046575785 -0.11824523 -0.0566622 -0.10171497 0.055037625 0.019834518 -0.018018853 0.07686291 -0.23002483 0.16021262 0.13007456 -0.06397781 0.10396211 -0.09174598 0.044712573 0.08573172 0.0068027703 -0.10234374 -0.03589844 -0.16616108 -0.09639885 -0.13605556 0.1276206 -0.28065494 0.13620402 -0.0009331504 0.19100007 0.06275277 -0.07482415 0.015320549 -0.05846007 -0.037404448 -0.06626631 0.041430753 0.3123034 -0.12185979 0.019240381 0.11684456 -0.010455364 0.18389332 0.16429202 0.043408547 -0.07367585 -0.0055127996 -0.030461723 0.06798454 -0.2041666 0.07953288 0.15153998 0.02841298 0.31983498 -0.15816759 -0.191082 -0.002958009 -0.056657095 -0.122719266 -0.21048093 -0.0038132276 -0.053352255 -0.19064094 0.27226987 0.0012806717 -0.025433013 -0.20135504 0.029898044 -0.013609623 -0.37504873 -0.12035682 -0.032902513 -0.3134869 0.20963675 -0.09189415 -0.049201783 -0.08887408 -0.12243088 0.17545056 -0.03307389 -0.19183867 -0.066403285 0.13615297 -0.14762658 0.04444928 -0.019620527 -0.016941512 0.24629612 -0.4556469 0.2778211 0.075655475 0.056479774 0.23051085 -0.35511112 -0.12919039 0.047616143 -0.067759655 0.10111403 -0.25139338 -0.083864585 -0.19195035 -0.12782367 0.36350372
5135 -0.041978993 0.13226889 -0.099636994 0.0055348678 -0.16546233 -0.03147961 0.01952762 -0.1051895 -0.02426914 -0.09044621 0.09723376 0.01729807 0.11152442 -0.21999179 0.014454987 0.0463634 -0.14970346 -0.047410056 0.076977775 -0.17315069 -0.030616246 0.14877024 0.009207985 0.05495244 -0.06554227 0.08812462 -0.097542204 -0.0659378 0.16556457 0.08601273 0.09535656 0.13664772 -0.24253592 0.066477805 -0.025008276 0.17314273 0.070629224 0.093340255 -0.07861061 -0.034540597 -0.18655476 -0.19101116 0.20861429 -0.07150518 0.0049515557 0.10783531 0.19125949 0.19123824 -0.05910955 -0.1533416 0.031254563 0.061396286 0.12807694 -0.32272705 0.14319691 0.061621588 0.13369069 -0.12886278 -0.08969012 -0.1820151 -0.038912028 0.06224193 -0.14746425 0.02054412 0.17166364 0.042178877 0.12517527 0.10859982 0.01635331 0.10975255 0.1156434 -0.10084104 0.0077711083 0.015488314 -0.14910042 0.097811714 -0.012034587 0.110407315 0.27982187 0.0145617565 -0.035665885 -0.2540266 0.17905448 -0.052385867 -0.08199189 -0.16133404 -0.42163938 -0.20087105 -0.1772533 -0.01855377 -0.20462246 0.12845248 -0.014239781 -0.011438456 -0.04147275 0.045324035 -0.059694674 -0.016040862 -0.15471596 -0.13559395 0.15742943 -0.015580477 0.21233815 0.13952447 0.07415109 -0.14101964 0.122074105 -0.22755215 -0.09787552 0.07003143 -0.3390778 0.19419552 0.09017114 -0.10477057 0.03039282 -0.12997563 -0.10995499 0.11002012 0.053210273 -0.26756737 -0.025736205 0.1686151 -0.14268894 0.34558162 -0.19631425 -0.19727486 -0.24703746 0.28622288
3623 0.051087122 0.21111606 0.06516041 -0.11275164 -0.2797435 -0.2121064 -0.034328807 -0.16858335 0.28462857 -0.240504 0.08858035 -0.20646916 -0.11503448 -0.05115742 0.07310221 -0.08361025 -0.13002378 -0.18547378 0.09607424 -0.13702354 -0.223295 -0.18482597 0.09342176 -0.0611122 -0.10612476 -0.00042835617 -0.09090175 0.21406385 -0.25458002 -0.27661076 -0.09038837 -0.10342189 -0.10438188 -0.19410886 0.025825461 -0.04014724 -0.13850214 0.029472835 0.04812765 0.023011582 0.03776933 0.078526184 -0.1980583 -0.14144877 0.063423745 -0.16683686 0.008061803 0.1018197 0.070973836 -0.18682373 0.003795723 -0.08921723 0.12734646 -0.24996677 0.11825089 -0.010569031 0.03222416 -0.033393294 0.12713218 -0.18068697 -0.025666144 0.076191194 0.014449364 -0.03638392 0.32534063 0.16481832 -0.016588107 0.20305558 0.237105 0.1995507 0.047062423 -0.122086495 -0.08892756 -0.13698547 -0.043729596 0.097329296 0.07558303 -0.022410044 -0.01726257 0.14784375 -0.30633605 -0.035644934 -0.077583365 0.13311638 -0.056600146 0.04932398 -0.03550629 0.17139441 -0.24924752 0.1881117 -0.2361507 0.061817087 0.13551526 0.12531324 -0.18514171 -0.032784622 -0.010770443 0.025254937 0.0052695004 -0.12633036 -0.009696774 0.10308447 0.071296126 0.15019195 -0.009669398 -0.00034196844 -0.19094363 -0.007972591 -0.05845213 0.02156823 0.017977344 0.086491 0.30491722 -0.19362564 0.23113514 -0.12644936 -0.19892758 -0.0018180462 -0.1914359 -0.1477655 -0.19864452 -0.08428106 -0.024089998 0.08013155 -0.06887335 -0.3177774 0.08847224 0.11319849
4171 -0.025043018 -0.073482156 -0.1453216 -0.024300212 -0.036371384 0.005776586 0.024447937 -0.09120656 0.049389597 -0.24443208 0.17279106 0.087353975 -0.19569404 -0.03678186 0.08867006 -0.12519513 0.016556997 -0.060092058 0.21458764 -0.09980468 0.14714618 -0.0032116452 0.1362615 -0.22707282 -0.09273796 -0.024443178 -0.20207131 -0.37185404 0.08699911 -0.07448657 -0.02029338 0.0761372 -0.18520086 0.2239392 0.19689193 -0.18850286 0.007705668 -0.04682832 -0.20965634 -0.0041001746 0.09359873 -0.10319304 -0.09397976 -0.20328988 0.041616667 -0.16940312 0.16402508 0.31406608 -0.12324663 -0.15629536 -0.038659602 0.015794802 0.05054233 -0.24454731 0.11111857 0.2184385 0.014118844 0.17136787 0.075873986 -0.15648896 -0.08326234 -0.039504137 -0.025181524 -0.0037641418 -0.018121284 0.110162035 0.17760256 -0.06557139 -0.09543817 0.14468053 0.10010452 -0.31098497 0.04693795 -0.15439963 -0.22315902 0.20857406 0.28706527 -0.034244962 0.124093875 -0.13426943 -0.061357614 0.12676777 0.23905581 -0.24296013 0.038024526 -0.39791453 -0.3913375 0.057942666 -0.2341001 -0.12582123 -0.12773874 0.014734557 0.025639825 -0.11193587 0.011689359 0.19217467 -0.0039932947 -0.029975608 0.0042455336 -0.06655565 -0.12278593 0.07482978 -0.022542505 -0.036309585 0.094450325 0.11483225 0.23845665 0.03609119 0.05628213 -0.062650256 -0.1814224 0.107583664 -0.27083686 -0.0629754 -0.2686294 0.015099428 0.09807957 -0.18504353 -0.21772246 -0.21702531 0.1476211 0.0052131596 0.033168945 -0.018785737 -0.1761694 -0.3806656 -0.071371146 0.33564952
1494 0.0049645 0.095417984 0.06130619 -0.24014573 -0.16137347 0.04798967 0.16192664 -0.009931957 -0.15268467 -0.039274354 0.29065484 0.08023978 0.07729189 0.28178903 0.19667186 -0.08642005 -0.32288906 -0.067105144 0.043289196 -0.06464384 -0.15186006 0.18872401 -0.15432319 0.20022084 -0.102055214 -0.03446232 -0.21057591 -0.035178095 -0.010675175 -0.10561544 0.15315612 -0.18713923 0.16056243 0.040139455 0.028121341 -0.14991118 0.121116005 0.0046159495 0.2662636 -0.09203106 0.25741544 -0.07194638 0.29299808 0.021253044 0.2528008 0.103433624 -0.0830581 -0.23470616 0.15152489 0.084266156 -0.055498134 -0.025540475 -0.093777865 -0.112988345 0.23831695 -0.08478166 -0.2514685 0.21101522 -0.13466407 -0.03871006 0.0042214445 -0.01611057 -0.17614597 0.11452976 0.017211309 0.11254886 0.112533405 0.054713674 0.3031579 0.10944491 0.15549147 -0.11459768 0.034582242 -0.1310699 -0.015117548 0.059045874 0.08421302 0.027362395 -0.026387205 0.20018008 -0.16486974 -0.11517145 0.32190347 -0.009157883 -0.10085468 0.24852498 -0.19985293 0.11710513 -0.119321935 -0.10723984 -0.043462664 -0.011878355 0.16409796 0.087125406 -0.1419989 0.21830626 -0.005910968 -0.12379648 -0.12471646 -0.17789961 -0.033192735 -0.2109854 0.27784288 0.07753819 0.10091811 0.16116777 -0.08460418 -0.34286186 -0.05242236 -0.077087976 -0.021367319 0.17627731 0.025656208 -0.21946216 -0.008353122 0.03173984 -0.19750565 -0.27911204 0.018080544 0.057978004 0.21180637 0.005493063 -0.050169334 -0.1639702 -0.025794094 -0.09737018 -0.26799098 0.013905982
1595 -0.16584753 -0.0038776854 0.0042608874 0.03146737 -0.23214173 -0.121476375 0.22902367 0.028328104 0.12181992 -0.18775383 0.16710953 -0.035437603 0.0833631 -0.02305243 0.088498354 -0.00014302637 -0.08450912 -0.31488645 0.24300286 0.102192566 0.12256715 0.22977744 -0.06471551 -0.09225896 0.17972532 0.17762889 -0.1682921 -0.004243197 -0.19382814 -0.30857316 -0.21215005 0.02869144 -0.22055046 -0.075773545 0.029896878 0.11917918 0.024505764 -0.12730767 0.10965339 -0.19913553 -0.1567598 -0.17096415 0.084506035 0.07956111 0.044715118 -0.22673225 0.08559906 0.05437822 0.11439638 -0.12554292 -0.008787365 0.23703955 0.16616051 -0.21250546 0.024210753 0.13611023 -0.20811592 0.06025093 0.21165717 0.032534294 -0.21782385 0.16304016 0.017602475 0.0043656053 0.16856791 -0.13915695 0.23651586 0.22840495 -0.11892145 0.085352376 -0.11695998 0.029960383 0.19552825 -0.04185624 -0.17642915 -0.016413592 0.18171266 0.23605761 -0.22300267 0.05975114 0.04963305 -0.19662894 0.019469077 -0.102461986 -0.08785488 -0.0066549517 0.0020160878 0.15379599 0.117998295 0.08257411 0.09666946 0.008113907 0.057301797 -0.08782118 -0.056154616 -0.24622566 0.08656492 -0.11455781 0.21679881 0.059274722 -0.1114802 -0.11952864 0.34129173 0.084485404 0.08559 0.019998547 -0.27536255 -0.10698412 -0.17864418 0.1491406 -0.06262981 0.21878238 0.091358505 -0.2783677 -0.19685344 -0.004003196 -0.15308148 -0.07067782 -0.012301006 -0.07762973 0.07840069 0.24622871 0.0684028 -0.13568324 0.17082411 -0.15250659 0.13509157 0.113305405
339 0.34681112 0.11422659 0.15234731 -0.15521455 -0.44267067 -0.036452755 -0.13088064 0.03755243 0.20852251 0.23042226 0.05757482 -0.14931259 0.03148488 -0.11980335 0.09568712 0.06468403 -0.09905756 -0.2698122 0.13379852 -0.0648663 -0.13911346 -0.17587163 0.009931087 -0.1447694 -0.20752358 -0.012057367 -0.052186728 0.082032 0.12201209 0.056687605 0.06859158 -0.16658856 -0.10438081 -0.3332845 0.18448432 0.25201756 -0.10535262 0.22975682 0.27430943 -0.10857647 0.068638965 -0.029783431 0.033601183 0.0025442769 -0.08922559 -0.07343572 -0.04606884 -0.038247336 -0.02152714 -0.06785839 -0.20767869 0.18152136 -0.026278134 -0.1326178 0.12524931 0.20033908 0.192393 0.12393412 -0.11565025 0.07398407 0.17645225 0.090353325 0.2287874 -0.117813416 0.07362498 0.17734605 0.034148555 0.3636788 0.11787953 0.053009264 -0.26434934 -0.09383829 -0.013068293 0.07241085 -0.22135611 -0.010921579 0.063150145 -0.0758527 -0.13755172 -0.13251096 0.09704009 0.17378062 0.33478853 0.027293088 -0.062181287 -0.19414836 -0.15871273 -0.03726519 -0.2979383 0.16384718 -0.0770311 0.05004574 0.017046958 0.04413709 0.0883813 0.08213214 -0.02276295 0.021806903 0.19938211 -0.18178663 0.09938947 0.16792016 -0.08981647 0.013428023 0.1490109 -0.020852132 0.13722906 0.021631703 0.009308534 -0.103467844 -0.0694857 0.33353886 0.09580079 -0.26321897 0.14990371 0.27348384 0.06395058 -0.023210442 -0.23432599 -0.0030813348 -0.031207168 -0.047404427 0.07773983 -0.01293289 -0.06683428 0.023702852 0.090505354 0.39581814
1049 0.038322154 -0.13045491 -0.10118611 0.06769404 -0.16557133 0.05728791 0.111257054 0.050959606 0.18638359 -0.3302475 -0.3433238 0.09753948 -0.17709567 0.20739536 -0.25331706 -0.025552591 -0.28123087 -0.18191172 -0.15695533 0.07789147 0.10043742 -0.0034553465 0.033765946 0.012873275 -0.07287827 -0.0012577784 -0.31075323 -0.0837618 -0.031146174 0.11953745 -0.06698093 -0.14646551 0.0065098163 0.2387269 -0.16660047 -0.13673659 -0.16797894 0.23566711 0.14566009 -0.041352905 0.062015653 -0.08650776 0.16066279 0.049206972 -0.21403663 0.06679214 0.049829774 -0.078602664 0.032651387 -0.04888542 0.11910394 -0.0014289905 -0.014365201 -0.13288952 -0.05311089 0.14116383 -0.037780996 0.04344104 0.22925255 -0.10318899 -0.0405078 0.016144397 -0.18590866 0.18673794 0.12780282 0.035393853 0.42072687 0.11425146 0.19556546 0.16349414 -0.039672956 -0.14869565 -0.021985767 -0.21399859 -0.0014276044 0.24685246 0.1564639 -0.18292584 0.012548156 0.15970719 -0.051703118 0.052879676 0.21665892 -0.015962888 -0.13872497 0.061619863 -0.15459049 -0.41045597 -0.1051892 0.035629507 0.012340251 -0.13003449 0.05448957 0.059281994 -0.26267135 0.015535891 -0.07246037 -0.18926938 0.16770144 0.12600529 0.21332301 -0.27697828 0.07284757 0.18315744 -0.124126635 0.14636104 -0.13596246 -0.45336562 -0.040187173 0.041413013 0.2939043 0.22496542 0.025518464 -0.086160235 -0.026299318 0.0073862853 0.03445975 0.097256236 0.11492221 0.1166425 0.19128142 -0.08999072 0.06385633 -0.043964453 -0.2655633 0.14833102 -0.031330377 -0.07410323
3838 0.093540154 0.045381546 -0.48491454 -0.02926712 -0.21003336 -0.088636324 0.1047606 0.065017335 0.085012294 -0.17036861 0.2574028 -0.07674943 0.05141691 -0.14209954 0.00927983 -0.13914888 -0.18486658 -0.0666897 -0.053422805 -0.05569153 -0.0892198 -0.11363103 -0.0025723728 -0.028862335 -0.17407444 0.23171623 -0.23685361 -0.16092919 0.17833886 -0.06015383 -0.07389044 -0.062964484 -0.0833468 -0.21806876 -0.028964112 0.21761583 -0.18808764 0.13500892 0.10036049 -0.11760217 -0.21358064 0.020900037 -0.28602687 -0.32811415 -0.1646317 -0.08207556 -0.013778662 0.0063031972 -0.019597039 -0.19566472 0.12352649 -0.06683228 -0.04937347 0.09710446 0.2061084 0.024113681 -0.16885367 0.19729282 0.020587815 0.03053317 0.014018596 0.063194156 -0.0871343 -0.023191294 0.20597988 0.23896219 0.17480938 0.15551306 0.2514571 -0.017678281 -0.07184713 -0.13578512 0.03685177 0.13253826 0.026928008 0.17769447 0.2846401 0.0999165 -0.117637835 -0.095377125 0.043745626 0.122580335 0.37557286 -0.15511218 0.08648238 0.11129318 -0.015015044 0.14202088 0.16194052 0.15337816 -0.23175162 -0.31916633 -0.10980841 -0.10166401 -0.16641457 -0.014298054 -0.14337838 -0.23776533 0.037267614 0.050857447 0.22282752 -0.05229723 -0.03889236 -0.038769886 -0.13526599 -0.044066593 0.05433676 -0.12112997 -0.20252907 0.020110585 -0.15826374 0.070929356 0.24124649 -0.2667234 -0.43693218 -0.04692376 -0.0831483 -0.108166344 -0.077637196 -0.19345136 -0.04214607 -0.15728027 -0.08315728 0.004471646 -0.1762037 -0.21071008 0.019802555 0.12133309
5020 -0.3301135 -0.00072495884 0.053584 0.101544544 -0.006440292 -0.29450566 0.29437774 -0.22579923 0.007601219 0.33478758 0.015525558 -0.14128461 -0.0393152 -0.06816923 -0.07112855 -0.019057035 0.089515045 -0.15956762 0.21989898 -0.17440897 0.23773687 0.0079618115 0.093063965 -0.15553227 -0.13622482 0.049215104 -0.26428407 0.01338866 -0.3272795 -0.18385363 0.017670557 0.018627934 0.01669428 -0.062754475 -0.19645101 0.118081875 -0.05247631 -0.07954854 0.3227891 -0.030518418 -0.05585156 -0.22426647 0.26569942 -0.020724513 -0.23915474 0.06229373 -0.16107966 -0.18492596 -0.22713178 0.026813067 -0.16616218 0.028127527 -0.20044376 -0.27592835 0.21670227 -0.15204935 0.060131427 0.1365665 -0.024401978 -0.2580505 0.0056338618 0.042588476 0.10088461 -0.120928384 0.07614581 0.30613416 0.3305672 0.07130024 0.15818243 0.11401323 -0.24398157 0.17748925 0.034786563 0.18979318 -0.09604835 0.10854013 0.13952605 0.1433267 0.06150003 -0.09150707 0.15100199 0.16025558 0.23491684 -0.25458887 0.013787775 -0.14789563 -0.31981412 0.0563095 -0.06680649 0.16244987 0.3145406 0.009652246 0.15259647 0.23448533 -0.08480164 -0.047282174 0.1548044 -0.21132004 -0.13884072 0.010037827 0.028780285 0.23355463 0.20219733 -0.24483986 -0.22445473 0.059256453 0.026957447 0.0040945527 -0.0011933396 -0.29444677 0.10766092 -0.093946464 -0.004429681 -0.17848314 -0.01508794 -0.018571336 0.119605124 -0.13470308 0.081316754 0.035220932 0.008923046 0.09829175 -0.03955195 0.16019437 0.11828649 -0.0605233 0.009012191 -0.14427833
3300 0.2082104 0.000987814 -0.26000673 0.047213364 -0.12975328 -0.045481376 0.41421843 -0.015561252 -0.026103014 -0.16669787 0.0032246045 -0.17765044 0.038629826 -0.019622544 0.06318755 -0.14074983 -0.21125443 -0.051541466 -0.012974207 -0.065647475 0.13390034 -0.27243173 -0.31639132 -0.18405049 -0.24718153 0.09695788 -0.46171665 -0.065694116 -0.11333229 -0.1410189 0.0909682 0.07230224 -0.36927733 -0.1479412 -0.052883685 -0.17181873 -0.15643093 0.094176605 0.13612074 0.080634944 0.07518683 -0.31017402 -0.055776674 0.0687414 0.07857422 -0.16996093 -0.09791364 0.021475658 0.05895836 0.045611683 0.13594057 -0.11857848 -0.14061134 -0.20673689 -0.19296597 0.042121828 -0.20033875 0.3263527 -0.00036489495 -0.07359783 -0.101915106 0.095452204 -0.15478057 0.24304755 0.13899332 0.08563871 -0.33443394 -0.077859834 -0.095483534 -0.06137814 0.015920078 0.1093798 -0.33595756 0.10727836 -0.20083489 0.022903403 -0.026219608 -0.11733215 0.011140301 -0.13379885 0.18955284 -0.01256806 0.069951855 0.19212587 0.06927073 0.11570687 -0.065660134 -0.07210227 0.07540279 0.19415842 0.17912106 -0.02765851 0.08962022 0.05898953 -0.10885781 0.05143874 -0.07357139 -0.043184903 -0.090065956 0.13288249 0.13310713 -0.0930184 0.15935063 0.1885019 -0.04221548 0.015051638 0.1415219 -0.16895418 0.0576874 0.27186072 -0.15903814 0.14221263 -0.11145287 0.09073879 0.10717639 0.0713818 0.13140336 -0.055479042 0.084277876 -0.2778529 -0.2209784 -0.084378414 -0.20666899 -0.12900737 -0.014043325 -0.27891505 -0.29490766 -0.013903686
3994 0.25522244 -0.2212066 -0.11827265 -0.15941904 -0.14111108 0.06404044 0.03056072 -0.13328981 0.22107191 -0.102354094 0.32502872 -0.1600598 0.18979417 -0.0566002 -0.099227525 0.3703287 -0.32036543 0.14498377 0.15481937 0.05547099 0.16650079 0.006458551 0.35888103 -0.109933086 -0.1280246 0.19549653 -0.34882578 -0.08753246 -0.113630705 0.0034105252 -0.050407566 0.15179728 -0.021177534 -0.1636049 -0.015456968 -0.20151313 -0.27394462 0.09059758 -0.067515574 0.25132507 -0.14031868 -0.11093388 0.21585064 -0.23783779 -0.029908301 -0.0641115 0.006190021 0.0012950588 0.08200175 -0.17939606 0.26175904 -0.16327135 -0.016590359 -0.49476296 0.045856684 0.19012669 0.046482656 0.108667314 -0.023206472 -0.012908391 0.13915914 -0.09465218 0.037646264 0.17965461 -0.02683323 0.17545393 0.12668204 0.13836204 0.0918574 -0.071521096 0.11507701 -0.14719497 -0.07618423 0.076602414 0.026711887 -0.036504246 -0.090797715 0.10368061 0.16043289 -0.039983183 -0.05987775 0.037733577 -0.03207774 0.018083032 -0.15787351 0.12404894 -0.11576316 0.45399737 -0.2906792 -0.00016838987 0.034036852 0.08457079 -0.14297554 0.09033245 0.071172774 -0.22081737 0.13679706 -0.2779958 0.124353506 0.081509404 0.033688046 0.037457712 -0.09365141 0.1572171 -0.016208028 0.07581109 -0.36531442 0.13104087 0.16906127 0.002814441 0.04929933 -0.10889018 0.2139173 -0.27061298 0.10232394 -0.1318222 -0.12684944 -0.06123488 -0.33134526 -0.24574569 0.21547864 -0.09943106 -0.011883941 0.032375507 -0.15794407 0.087176904 -0.18485935 -0.07020222
916 0.006219381 0.06911722 -0.05576907 -0.109737985 -0.17035373 -0.065775886 0.17480984 0.057432424 -0.2076235 -0.017023535 -0.04853908 -0.060362656 0.2648472 -0.22317496 -0.18888253 -0.22017331 0.011075697 -0.1288099 -0.016809799 0.15663826 0.17394732 0.3305402 0.20712948 0.007888871 -0.08975469 0.09262405 -0.23010176 -0.19167335 0.15831351 -0.14024535 -0.22369388 0.20176587 0.09809221 0.06055244 0.1469022 0.052766368 -0.12276696 -0.08432249 -0.0013372957 0.21164034 0.30070636 -0.2887056 -0.10140519 -0.09160244 0.057354424 0.061276704 0.15971328 -0.082257286 0.2828983 -0.035134405 -0.023069125 -0.10955612 0.07132181 0.27884623 0.060995862 0.22825733 -0.09148844 0.31968254 0.29951125 -0.054832194 -0.03605312 0.3050537 -0.014483298 -0.16837506 0.12760746 0.25428742 0.3831851 0.4977457 -0.03222772 0.2797686 -0.14305305 -0.013405537 -0.19041987 0.04891382 -0.017730454 0.19772962 0.22014579 -0.097681046 0.13707164 0.010261225 0.06661539 0.19955954 -0.18783414 -0.046832874 -0.058561347 0.16131926 -0.038223427 -0.14944963 -0.13005246 0.08013492 -0.18646863 0.1722713 0.16739506 0.09842847 -0.25918573 -0.0037100413 0.24291483 -0.2786538 0.21748875 -0.26337275 -0.026612679 -0.107386716 -0.16014121 -0.08945607 -0.015089133 -0.052372776 -0.0019757994 -0.2568821 -0.08333019 0.054400172 0.0078845145 0.20932929 -0.14374726 0.0041291635 0.08576187 0.08733984 0.23197469 0.016507505 -0.16759665 -0.30978578 0.2204689 -0.10521231 -0.10059549 0.044046875 -0.34518602 -0.17390798 0.01937027 -0.11041999
5789 -0.17021933 0.20529906 -0.1691359 0.012243933 -0.098673 -0.024377493 0.21474771 0.08005814 0.016686974 -0.021043355 0.25953853 -0.2583581 -0.0396026 -0.30264652 -0.18730673 -0.12667109 -0.08998457 -0.22596924 0.117379 -0.0053943405 0.017114453 -0.01091613 0.07258179 -0.04366508 0.12951037 -0.102364495 -0.36818573 -0.18125202 -0.15548417 -0.12376294 0.16878356 -0.2361018 -0.050503835 -0.10340613 -0.0051106564 0.041282758 0.019833537 -0.16923144 -0.07319259 0.12969786 0.0666338 0.10864677 0.08158222 0.13063382 -0.1353054 0.25912827 -0.0064975936 -0.03455799 -0.29190323 0.21022193 -0.028793951 0.29996783 0.009684369 -0.2286567 0.01127456 0.21790488 -0.15256047 -0.09550612 -0.2221629 -0.10475872 -0.038713686 0.16055627 0.101260595 -0.05888325 0.25755504 -0.09622802 0.39167044 0.34905025 0.30137596 0.13941836 -0.0012790789 -0.01566613 -0.0024692952 0.071012855 -0.2231671 0.115869634 0.2442738 0.06314158 -0.053910874 -0.05053259 -0.069892205 0.054716464 0.18417296 -0.1515474 -0.23705496 -0.12891087 -0.12475842 -0.027078781 0.036357716 -0.022948226 0.17102751 0.07323319 0.11336771 0.31684056 -0.2558022 -0.23158057 -0.15345351 -0.14300638 0.3295294 -0.08424404 0.0018648154 -0.054426644 -0.09299033 0.32591993 -0.005082494 -0.09013613 0.30088136 -0.10043172 0.03510556 -0.2575167 -0.29451817 0.04041079 -0.26589426 0.15944889 0.19409037 0.05492409 -0.0881679 0.065786384 0.0038082488 -0.06927987 0.024461849 -0.020599913 -0.12296779 0.16535771 -0.02880633 -0.22178875 0.18838364 0.008046636
5345 -0.22678357 0.1885934 0.1696285 0.110852234 -0.13958383 -0.16769078 0.0011090672 -0.05174541 -0.077271216 0.1415906 0.12068143 -0.052738436 0.014438341 0.06611213 -0.20711638 0.039481513 -0.14060198 -0.0362764 0.22013152 -0.041276004 0.056533217 -0.08017885 -0.06844935 -0.009114295 -0.02444907 -0.21807055 -0.35366422 0.083222516 0.03542123 -0.18670243 -0.09934319 -0.0016281152 -0.090367585 -0.28390297 -0.022419814 0.38051748 0.007406754 -0.14382371 -0.050743267 0.17018558 -0.1895743 -0.26694596 -0.055936147 -0.21865839 -0.06870202 0.16503888 0.17445363 -0.20598447 0.11971608 0.21149471 -0.0890119 -0.052513253 -0.26026195 -0.31839454 0.39676124 0.060442634 -0.029195867 0.24749087 -0.059844725 0.16045465 0.12609977 -0.08535421 0.114700094 -0.07753489 0.25488937 -0.06078628 0.20958182 -0.035470758 0.022705419 0.11668706 -0.048420183 0.016002702 0.013505014 0.12630185 -0.11898243 0.30155888 0.17344712 0.07087408 0.2189497 -0.043805722 -0.2357948 0.06365749 0.13892639 -0.2164541 -0.06469287 -0.06064095 -0.4307133 -0.27883577 -0.18990625 0.14862436 0.080914795 -0.05363156 -0.011304241 0.05273526 0.037245564 -0.013690998 0.1203244 -0.08911419 -0.19245088 -0.24162515 0.15219799 0.12248339 0.04526806 0.20030597 -0.016288478 -0.1497388 0.32188112 -0.004876264 0.04084782 -0.26824534 0.04299116 0.16189487 -0.00025842714 0.073431835 -0.09824833 0.27523515 0.22422709 0.078219935 -0.30811998 0.065542564 0.14204161 -0.20852825 -0.20978747 0.35341293 -0.06813591 0.0013273841 -0.133524 0.037119392
5463 -0.04196922 0.110025726 0.17045607 0.15587905 -0.09991055 -0.058205005 0.20146164 -0.07347727 -0.023593528 -0.26287544 0.07502083 -0.023546487 -0.047618102 0.055472698 0.036003735 -0.09605468 -0.1767363 -0.23159039 0.36545756 -0.16417813 0.27018696 0.0432951 -0.03966939 0.055438768 -0.06838145 0.31073788 -0.061506044 0.046642423 0.0614948 -0.07610039 0.04267379 -0.27367344 -0.06569031 -0.08238809 -0.013587357 -0.038440976 0.18244115 0.030573433 0.36320505 0.0948817 -0.19739002 -0.15091935 -0.050954282 0.009863482 0.09619548 0.25521666 -0.006369111 -0.0191646 0.10767424 -0.053529777 0.028536562 -0.007026942 0.25813696 -0.13334018 0.17361765 0.031600077 -0.2029033 0.21647339 0.0980209 -0.00300856 0.10052609 0.27565917 0.20681192 0.22001863 -0.11736882 0.028137513 0.13048398 0.14350584 -0.2904451 -0.052394286 0.029453762 -0.038154736 0.16917412 -0.27866566 0.136006 0.07868064 0.3987239 0.116244644 -0.20670459 -0.06667539 -0.032260414 0.14009263 0.047356457 -0.17992498 0.12749274 0.15428181 -0.24617605 -0.17866533 -0.057405278 -0.18523622 -0.073722444 0.012942728 -0.07119219 0.06485397 -0.07117372 0.2627628 0.14645763 0.02761926 0.015844729 0.0004242736 0.09731379 -0.19753401 0.16558324 0.1320726 -0.29293865 0.049423657 -0.033702902 -0.030692015 -0.12904093 -0.01076234 0.03493472 0.08140031 0.20331489 -0.15278582 0.09538132 -0.056590762 -0.048955023 0.101323 -0.1523125 0.10640564 0.10963386 -0.113266125 -0.082306 -0.03833553 -0.191369 -0.1490719 0.017773362 0.015795087
4713 0.048220366 0.01714559 -0.3435482 -0.010208856 -0.2858605 0.15095297 -0.012530032 -0.08308982 0.25587812 0.0031178475 -0.098481536 0.0007366518 -0.19642259 0.14472878 0.34362957 0.2689139 -0.063700296 -0.46231428 0.25840652 -0.102995634 -0.10510137 -0.12299894 0.014577135 -0.3324791 -0.1223381 0.18496089 -0.5171412 -0.2215525 0.1441528 -0.099084854 0.021961624 0.04370064 -0.13614187 0.12349196 -0.06554128 0.19708927 0.25276968 -0.06818281 0.012907956 -0.17411919 -0.05894253 -0.25222576 0.050457437 -0.21447265 0.03689106 -0.23665796 0.22488764 0.102492884 -0.090693794 -0.065952025 0.16203393 -0.18006809 0.2569901 0.1085534 -0.19459556 0.17745616 -0.12605013 0.011137157 0.29173023 -0.18596981 -0.06434875 -0.161883 0.0921143 -0.012846802 0.22520055 -0.20088741 -0.058990438 0.26784956 -0.06457475 -0.036888715 0.17648384 0.11588185 -0.2793055 0.053426377 0.075263664 -0.025709137 0.38541225 0.108919956 -0.01051601 0.031302623 0.13303104 0.025803315 0.2703361 -0.14849198 -0.19460458 0.08360058 -0.18134797 0.005691391 -0.16556026 -0.09956652 -0.051055267 -0.028872138 0.11188541 0.16368912 -0.05865122 0.18075503 -0.1680509 -0.21789023 -0.2022454 -0.019324213 -0.116272144 -0.18786022 0.16922598 -0.038723826 0.2006175 -0.09402312 0.06598466 -0.12133042 0.14476304 -0.17870632 0.010664517 -0.14573881 0.11656744 -0.123522714 0.073508084 0.030064315 0.33164427 -0.48410532 -0.1312128 -0.15985875 0.12889168 -0.34857556 0.03180143 0.040852852 -0.26945597 -0.017727548 0.13811938 0.011008848
3818 -0.25497887 -0.28345513 -0.15413727 -0.12960976 -0.006786713 -0.024777805 0.3038268 -0.24595569 0.11532325 0.19996938 -0.0898441 -0.05817942 0.26593354 -0.26195082 0.18043515 -0.15679538 -0.07093999 -0.042553872 -0.04603917 0.0014681463 0.030690761 0.12906444 0.08138399 -0.15974626 0.011676068 -0.14209047 -0.03979455 0.029472627 -0.029306017 -0.3557468 0.044054907 -0.0028731346 -0.15584745 -0.01992335 0.083612025 0.21858096 -0.48854944 -0.14388527 9.443817e-05 0.27556762 0.07949244 -0.29208025 -0.3728307 0.23526487 0.31689766 -0.10373002 0.2201268 0.1691091 0.3033727 -0.122382395 -0.358789 0.04113152 0.032849282 -0.2960442 0.07607465 0.123071514 -0.12076461 0.049990688 -0.0057803593 -0.025836235 0.2148957 0.016227808 0.15584612 -0.079560146 0.020174803 0.20851399 0.06439494 0.15506501 0.11678885 -0.2353464 0.014978532 -0.15899274 -0.188985 -0.065782696 0.09942979 0.1237418 -0.049676903 -0.13786991 0.09252583 -0.04467982 -0.16425122 -0.11012097 0.2768385 -0.15781926 0.08495543 0.07245348 -0.12525792 -0.014223027 -0.09213637 0.18826982 -0.07774574 0.08775144 -0.04946951 -0.034305517 -0.061229467 0.044285633 0.10594759 -0.24807212 0.16497606 -0.12895592 0.4594451 0.00087138504 0.17063685 -0.118184276 0.021654077 -0.17504713 0.10687328 -0.3043775 0.048963126 0.006649142 -0.11535344 0.057368893 -0.14104335 -0.056041863 0.23423266 -0.048834752 0.17027648 -0.043830805 -0.28518334 0.14642082 0.34963796 -0.062186684 0.043338295 -0.0693618 -0.19853538 0.08697152 0.04794766 0.040517785
1228 0.124794774 0.16716932 -0.17178936 -0.103010125 -0.094459176 -0.19392328 0.23493811 0.1899724 -0.011505215 0.28411305 0.21263152 0.005517351 0.041223343 -0.10450195 -0.04016973 -0.09067838 -0.28416476 -0.02494629 0.16699773 0.15597354 0.067146465 0.17013913 -0.063599035 -0.025719022 0.0006665505 0.206643 -0.17714274 0.010458457 -0.18991882 -0.027456334 -0.07619781 0.052939754 -0.2821554 -0.04480613 0.23190042 -0.10798038 -0.23315226 -0.22755443 0.2291965 0.057781294 0.06837296 -0.42306498 -0.11338831 -0.098806046 -0.0064194924 0.18178836 0.31096017 -0.16063976 0.11344658 -0.2850306 0.0070719104 0.30838025 0.19503646 -0.05881064 0.08306277 0.09412435 0.018948535 -0.016020726 0.07819867 -0.11722843 -0.062051896 -0.08601704 0.11750633 -0.13993856 0.15041311 0.17714074 0.21023075 0.12325402 0.17005786 -0.07852404 0.0055704326 -0.18138805 -0.23960578 0.049212597 0.030706247 0.15287633 0.20970906 -0.04976522 0.20654824 0.14859039 -0.23899235 0.022535685 0.27946392 -0.1912729 -0.13828091 0.023127308 -0.124492876 -0.033801604 -0.1735545 -0.18194814 0.018488264 0.19076094 -0.09847878 0.09267225 0.18063201 0.12529509 -0.22447324 0.049053114 0.20207976 -0.28061563 0.1697981 0.15472992 -0.19306068 -0.35846397 0.07560614 -0.26964274 0.12895745 -0.21289256 0.064293675 -0.115426764 0.007323448 -0.056601305 0.037051827 0.09460248 -0.031807832 0.20982993 -0.09717748 0.029511908 -0.070571534 -0.3196911 0.18104106 0.1183352 -0.120611265 0.26982263 -0.3046611 0.0014677792 -0.13664459 -0.08099485
4257 0.1891766 -0.20431493 -0.13598362 -0.06764025 -0.22063299 -0.45533112 -0.28046623 0.10104358 -0.009876568 0.013525543 0.2558922 -0.3863112 0.119859874 0.1419208 0.041572023 0.1182958 -0.1831 -0.29771736 -0.032739904 -0.046084028 -0.15245469 -0.034670554 -0.029895915 0.13040246 -0.09066829 0.076821886 -0.29911715 0.20568618 0.08287006 0.0045788083 -0.047690522 -0.124998696 -0.20441058 -0.07234837 0.064683 -0.07161244 -0.115039304 0.0660818 0.088409685 0.02217888 -0.13950665 -0.13979165 -0.051548533 -0.09013612 0.15109107 -0.13949718 0.26087132 0.039586615 0.055413727 -0.080582395 0.057405952 -0.022199288 -0.03083721 0.10574403 -0.053742595 -0.051330537 0.23472594 0.12054503 -0.01604005 -0.08349711 0.07732568 -0.19074869 0.2186084 0.1054126 -0.037349906 0.24858367 0.14752185 -0.0008561137 0.24902934 -0.07676507 0.030413296 -0.25041607 -0.1048831 -0.023686983 0.058394924 0.27741855 0.343264 0.10615471 -0.1940339 -0.07625107 -0.22872785 0.20236889 0.28267902 0.1437682 -0.021070587 -0.04640076 -0.10747414 0.090615556 -0.026703184 0.013891302 0.105465844 -0.039725263 0.037127264 0.09392887 -0.3834706 -0.14809032 -0.033633582 -0.15828569 0.12495082 0.13417576 -0.1205919 -0.025954833 0.12259003 -0.08899212 0.18457118 0.035016112 0.1481483 -0.20493962 0.20020296 0.038315404 -0.22624795 -0.052384216 0.20435868 -0.28471 0.052500986 0.18362492 0.009758407 -0.068476595 -0.17938882 -0.20081888 0.07516046 -0.09875489 -0.15796348 0.24957575 -0.14653137 -0.14387275 0.023897888 0.23935768
1198 0.43683106 -0.07197418 0.006667052 0.18337345 -0.22833724 -0.08894133 0.1509301 -0.14479908 -0.09010087 0.1018543 0.2524354 -0.23460363 0.04437338 -0.058501385 -0.14554714 -0.170301 -0.19275035 -0.22147149 0.15723291 -0.08021428 -0.19160473 0.02191992 -0.2981302 0.101483434 0.11126684 0.08934089 -0.35527948 0.113723576 -0.11879515 0.022041043 -0.15425973 0.055109944 -0.17788382 -0.14496775 0.103457764 0.026173923 0.02154985 -0.063557446 0.08821605 -0.05684561 -0.11123446 0.048234202 -0.24237894 0.1008604 0.0527544 -0.28196293 0.06796713 0.120013334 0.013207118 -0.15217099 -0.11319395 -0.20543908 -0.0020002038 -0.020299897 0.12901346 0.26711076 0.0026614752 -0.03112808 0.13345933 -0.24433428 -0.30828157 0.14682165 -0.04872581 0.052199926 0.15618503 0.32667375 0.14625312 -0.039063804 0.021843351 0.0067854743 -0.018767504 -0.207213 0.07736767 0.07931148 0.05060201 -0.14029893 0.31734228 -0.16782355 0.13902895 -0.041962907 -0.12713172 0.0720811 0.4324769 -0.019696327 -0.116342135 0.03453186 -0.0056666546 0.014236458 0.26770082 -0.08500627 0.18024057 0.09857894 -0.0006212046 0.046624776 -0.16365723 0.18128829 0.42147592 -0.11940496 -0.01694238 -0.06744779 0.055279855 -0.25604063 0.10455478 -0.15961672 -0.102281265 0.1528579 0.16647618 -0.10775593 0.23784707 -0.09463662 0.04311654 0.18338616 0.08491118 0.070371486 0.0999487 0.20802705 0.16148742 0.15133016 -0.30882326 -0.40761533 -0.049807582 0.0042581325 -0.23220433 -0.02185055 -0.0984852 0.055057302 -0.08992048 0.21483906
496 0.16453286 -0.014316151 0.13491857 -0.07222597 0.18007338 -0.10322668 0.07578393 -0.10223798 -0.0860641 -0.19485976 0.25361496 -0.3890475 -0.039647862 0.14943507 0.066924855 0.056671254 -0.28036988 -0.046841275 0.07184494 -0.026483541 0.13476275 0.07370905 0.17976233 -0.16965237 -0.06129623 0.14023566 -0.28600925 0.039545033 0.043959904 -0.08394744 0.09900751 0.03683375 -0.09378167 0.27406135 -0.17235477 -0.060674656 -0.17757353 0.1656817 0.19424933 -0.09344935 -0.118127435 -0.19578862 0.1326781 -0.026481884 -0.22944124 -0.06498731 0.2644798 0.0031239486 0.15311268 -0.039452918 0.16961592 -0.107768975 0.18130307 0.030459458 0.059450574 0.14461721 -0.24324995 0.034969095 0.062787406 0.006708547 0.089691356 0.3302631 0.06576341 0.17819744 -0.14376892 0.21771456 0.008567124 0.49526134 -0.03535258 -0.124154575 0.029227497 -0.07416583 0.29569453 0.13684143 0.013875646 0.10164354 0.17240798 0.039665475 -0.06953592 -0.18330893 -0.14985825 -0.30338922 0.46077153 0.061227605 -0.06881016 -0.043531384 0.074263774 0.098422654 -0.1438069 0.004076734 0.07413909 0.10392361 0.11953754 -0.05528062 -0.2682995 0.10641923 0.19359057 -0.11734703 -0.37908638 -0.1129815 0.04338189 -0.1640792 -0.0063696587 0.20089346 -0.28179 0.15472561 -0.15566102 0.078022055 -0.051944844 -0.09710151 0.06196147 0.07631802 0.03846431 -0.1755983 0.090106934 0.033786096 0.15272328 -0.11871307 0.02943386 0.08252718 0.17370339 0.26114786 -0.010551161 -0.25327203 -0.05755409 -0.29766265 0.15478788 0.053851943
5119 0.07721586 -0.03840216 0.009285457 0.044951513 -0.21312374 -0.09226835 0.14188716 0.120420426 -0.21605404 -0.07471563 -0.055161815 -0.2145909 0.061870646 -0.26149255 0.0043571033 -0.013524825 -0.28474602 -0.031156063 0.16240984 -0.0643765 -0.007536642 0.048864428 0.018174369 -0.21658055 -0.040188015 0.06923913 -0.2580518 0.02614064 -0.181507 -0.18061288 0.28569448 -0.23790108 -0.2653561 -0.07720403 -0.13731523 0.3587824 -0.38274217 0.07142713 -0.08448021 -0.005576374 0.22723618 0.07786191 -0.03421721 -0.10226668 0.08326136 -0.32425457 -0.068116136 -0.010601416 -0.23103209 -0.05810094 0.10234092 -0.280416 -0.15494263 -0.05545555 0.22185075 -0.044634614 0.06639651 0.096084625 0.43198588 0.10964876 -0.07891148 0.09765354 -0.2635216 0.24569921 0.107811764 0.2578823 -0.22073351 -0.13675958 -0.088669755 0.24616209 -0.25595644 -0.1359195 0.05388566 -0.040818222 0.22782636 -0.32232982 0.2220203 0.09131176 0.10821071 -0.047521587 -0.04772167 0.074282214 0.34826368 -0.081337534 0.036354523 0.10784323 -0.45149717 0.1385866 0.03135003 -0.12461325 0.15049599 -0.12979278 -0.08526846 0.2466617 0.086001895 -0.19272207 0.013096265 -0.17278095 0.12941216 -0.20315047 0.12369657 -0.07776682 0.20125167 -0.08535068 -0.23601344 -0.07742669 0.37822843 -0.11915007 -0.0056033586 -0.20793983 -0.24723265 0.20708472 -0.14416334 -0.15967873 0.2925257 0.16970867 0.15400712 0.1121451 -0.10171228 -0.08730051 -0.08278487 0.18467964 -0.09385481 -0.11660561 -0.22673883 0.02291957 0.092296645 -0.12173872
4321 0.17841433 -0.06403226 0.059581105 -0.22397368 0.020315547 -0.20566806 0.043659 -0.05545158 0.054081332 -0.20037028 0.24364455 -0.2863164 -0.124588676 -0.08252653 0.012980025 0.100377664 -0.29382938 0.09719781 0.1678872 -0.03211119 0.112464845 0.24571824 -0.036272194 0.07449704 -0.241058 0.014213713 -0.42162427 -0.0083287135 -0.1561982 -0.21645476 -0.1940896 0.106193446 -0.03090986 0.31773522 0.158319 -0.000503266 0.048451144 0.023045974 0.17983742 0.13313141 -0.12496794 -0.14498927 -0.03454042 -0.1356756 0.06047812 0.05666215 0.09575971 0.029329333 0.010472898 -0.16134839 0.080149785 -0.093739845 0.0061043007 -0.093344264 0.08224466 0.021447282 -0.026621215 -0.10573518 0.052992932 -0.026615424 -0.06344153 0.23789795 0.03622998 -0.04572422 -0.31012362 0.2852278 -0.18037726 0.14414859 -0.09680008 0.064418234 0.17415749 -0.022362173 0.25964007 0.08007319 -0.038417917 -0.3502617 0.580574 0.12520488 -0.119852595 -0.29574618 0.051691428 -0.12253207 0.18968445 -0.0889527 -0.12948704 0.06369342 0.0046252157 -0.09915648 -0.19519584 -0.046835914 0.17994668 -0.04607898 -0.13525563 0.31146035 -0.35679424 -0.04104764 0.14658758 0.0666563 -0.2681921 0.06804361 0.18401265 -0.18322466 -0.03247932 0.05660203 -0.24416254 -0.047026105 -0.028285809 -0.32364872 -0.06893832 -0.1807177 -0.05718349 0.33142212 0.11526825 -0.068690784 0.0915593 0.058988795 0.07513353 -0.224733 0.074290186 0.02088297 0.12614459 -0.002630132 -0.022128124 -0.17090526 -0.094802335 -0.33623907 -0.18717709 -0.07591697
3337 -0.15556024 -0.2288296 -0.2578252 0.18923907 -0.16402091 -0.08570634 0.018413663 -0.03137973 -0.16275552 -0.24889418 -0.04862647 -0.036346722 0.477732 -0.059204537 0.20498103 -0.03510635 -0.15878572 -0.24614434 0.06522182 -0.026054645 -0.20223545 0.023103924 -0.06013591 0.061666712 -0.057799295 0.045237616 0.020281127 -0.038499597 -0.048593514 -0.28326592 -0.14174001 -0.10050023 -0.0722132 0.1533434 -0.012063537 0.016161676 -0.1029179 -0.0575354 -0.0028709113 0.47452527 0.14592287 -0.28637284 -0.40465504 0.0877728 -0.00953352 0.27326795 0.0911716 -0.09140025 -0.17209814 0.084821105 0.07396784 0.13372861 0.19747187 0.05174272 0.31038693 0.115680285 -0.31017813 0.18596676 0.010856398 -0.07580532 -0.17314029 0.14439514 -0.10515856 -0.032728467 0.07557554 0.34489092 0.09986324 0.25246036 0.015617883 0.1027136 -0.018415283 -0.26050332 -0.1611433 0.13827501 0.20897639 0.13859428 0.16251071 -0.00028623053 0.32220793 0.10916622 0.03369345 -0.18707062 0.07880585 -0.12684798 -0.029743902 -0.13889337 -0.25883073 -0.03807742 -0.23491824 0.065244645 -0.24860013 -0.10112593 -0.06319076 0.45240605 0.09606524 0.15788727 -0.07113293 -0.11412796 0.13010019 -0.13795353 0.1421995 0.021921884 0.12589587 0.06307053 0.12540497 0.14640254 0.18932201 -0.10821763 -0.16490652 -0.11049794 0.050315868 0.019328095 0.02923456 -0.08018077 -0.13941465 0.016784022 0.24237756 -0.08024205 0.11295641 -0.27227914 0.2855517 0.31842515 -0.23307295 0.18814315 -0.3077981 0.016499612 -0.16218652 -0.026580067
1074 -1.1685888e-06 0.10762427 -0.20604491 -0.009695856 -0.06199313 -0.035516046 0.08037215 -0.2471068 -0.30504024 0.14033337 -0.034762565 -0.21426266 -0.08990612 -0.10073645 -0.026570067 -0.046128 -0.09712461 0.19477594 0.22246422 -0.26334926 0.2108294 -0.124590136 0.08740598 -0.11676871 0.08043719 0.13230468 -0.14215374 -0.19076185 -0.118619874 -0.20812494 0.046956647 -0.18828501 -0.17952462 -0.014438417 -0.043384086 0.148248 -0.08434784 0.1421539 -0.13236545 0.08730239 0.037990782 -0.3299633 -0.13702741 0.0134999305 0.14648463 -0.2897101 0.25234765 0.12437735 0.1557229 0.17252497 0.15876132 0.102525726 -0.1346063 -0.13133891 -0.13159753 0.005034367 -0.0064258603 0.16621687 0.37362522 -0.34329733 0.050072696 0.059765767 0.012033238 -0.031003084 -0.13382787 0.107499585 0.27228025 0.09188571 0.23187628 -0.2750806 -0.065471075 -0.33181977 -0.16571033 -0.0242167 0.06359393 0.15186624 0.07837355 -0.09012563 0.30802315 -0.070865884 -0.09549193 0.21240611 0.075200565 -0.13078779 -0.08421088 -0.0010756312 -0.30123654 0.012803652 -0.07778747 0.1002144 -0.16514635 0.090943485 0.07072972 0.015123022 0.051638134 0.13853951 0.0014190157 0.019533044 0.129401 0.20730051 0.05587905 -0.064942434 0.19141646 0.15671313 -0.18539183 -0.2214294 -0.18703619 -0.014498747 -0.04130157 -0.12645434 -0.37121627 0.08271795 -0.018962592 -0.3083714 -0.12020154 0.16767082 0.0547376 0.23280728 -0.0962777 -0.07050862 0.3288658 -0.03654379 0.29858825 0.043471046 -0.080004185 -0.47039223 -0.14031784 0.29796803
4572 -0.23233832 -0.025947321 -0.07265273 0.041701324 -0.23506902 -0.027786586 0.0104600815 0.043710094 0.1280027 0.011840168 0.10303124 0.16359325 -0.054091368 -0.18699417 0.04416763 -0.09640744 -0.114462145 -0.32173797 -0.12820914 -0.25364792 0.029189628 -0.12770478 0.017618004 -0.27179345 -0.07638832 0.004717908 -0.19937481 0.086660735 0.05470418 -0.065336555 0.12975319 0.13195536 -0.041159682 0.08326406 -0.3026452 0.069226615 0.018065477 0.08597934 0.3292925 0.11248587 -0.11157212 -0.23774348 -0.05912026 0.09218913 -0.01189892 0.15443002 0.20656781 -0.05221655 -0.057309058 -0.042133622 -0.16662441 -0.27435178 -0.11166502 -0.04761747 0.06469142 -0.049196556 -0.14703606 0.04489685 0.11806313 0.116619624 -0.03168925 0.15126012 -0.055390194 -0.21106333 -0.3493909 -0.14291619 0.0019630352 0.0025916698 -0.007792488 0.04925927 -0.19381683 0.10357804 0.023090418 -0.20034775 -0.29720023 -0.004511141 0.48140284 0.08743195 0.31687853 0.16881128 0.17666356 0.09201251 0.115821525 -0.39782906 -0.1728972 0.2855431 0.053977028 0.1369381 0.24267322 -0.17582901 0.049994234 0.16118318 0.2086646 0.009925364 0.058520056 0.0042027785 0.08724591 -0.364019 0.10373692 -0.02177949 0.45769936 -0.43845904 0.14669615 -0.036860976 0.17038442 0.012727341 0.19399291 0.094679534 0.09017208 0.36631456 -0.05227548 -0.18572117 0.18046935 -0.0637498 -0.039158717 -0.22652559 -0.12325411 0.15852246 -0.042914435 0.22001234 0.0038076711 -0.048429728 0.42995563 0.18224494 -0.15453807 -0.33349076 -0.050705902 -0.07272114
3737 -0.2224318 -0.26843137 -0.19763163 0.20472072 0.00075728213 -0.0017821572 -0.1567669 -0.13551126 0.06199852 -0.0021406834 0.2320267 -0.17817979 0.1811706 0.06871685 -0.14153484 -0.28759867 -0.025289042 -0.29194432 -0.17989042 -0.046316203 -0.18302079 0.08035138 0.0037181296 -0.25954 -0.21994904 -0.24539742 -0.07199181 0.09393253 0.065107584 -0.025708761 0.08508572 -0.055943966 -0.072100654 -0.35965633 -0.0833409 0.2784709 0.053505406 0.011004527 0.1392217 -0.053252835 -0.0452006 -0.35576245 0.102425694 -0.24098888 -0.13804191 -0.057246625 0.5696896 -0.08090605 0.23929255 -0.09003457 -0.013908732 -0.04430561 0.042694848 0.035411168 0.16848604 -0.024979379 -0.09548812 -0.0990417 -0.055661343 -0.1290167 0.35827103 0.36976698 -0.31804836 -0.110363185 0.2220955 0.1910962 -0.41845614 -0.027066087 0.091740124 -0.29912883 -0.10199989 -0.017948024 -0.105044164 -0.14458223 -0.09528 -0.09771575 0.04497395 0.068445735 0.096506715 0.061848897 0.16718021 0.20385525 -0.19695094 -0.10051444 -0.27845415 0.29170838 -0.12286368 0.07338592 0.2217183 -0.23996538 -0.057661925 -0.03106398 0.08488692 -0.1519924 -0.013686221 0.066995524 0.10224816 -0.10569987 0.26564297 -0.29179648 -0.08377626 0.010376112 0.39061302 -0.026498595 -0.11343651 -0.036874134 0.07069666 0.2630756 0.04671155 0.1838795 0.16752568 0.32425234 0.27152568 0.050844364 0.113715395 0.04718402 -0.08794845 0.014666667 0.29335472 -0.11794787 0.13643205 -0.20830992 0.03934215 -0.024197318 -0.2638952 -0.34130377 -0.082885765 0.052363854
2121 -0.15819126 0.04108939 0.16735375 0.019588426 0.16741821 0.026822569 -0.11193767 0.30285922 0.07716495 -0.06791612 0.10517006 -0.11233869 0.15539129 -0.33843514 -0.034448877 -0.32450435 -0.21790007 -0.29325014 0.26046762 -0.041017506 -0.02420536 0.2603197 0.1788719 -0.070012815 0.05655731 -0.01645538 -0.2513273 -0.26278043 -0.013681398 -0.117103025 -0.22145271 0.0019327565 -0.0049500563 -0.119611755 0.008657434 0.0213477 -0.2533332 0.12820564 0.03337306 0.23757346 -0.07780546 -0.28200907 0.05728629 0.2322592 0.077924624 -0.28556618 0.104551084 -0.059885614 -0.13014627 -0.08687881 0.19099677 -0.032564137 0.014146698 -0.11230458 0.100779645 -0.15953584 -0.24200113 0.21386816 -0.09662588 -0.23163773 -0.10295362 0.0056640273 0.18346463 0.069607675 0.22313453 0.1812143 0.2960058 -0.020397464 0.042964246 0.25224283 0.010921377 0.010395108 -0.11226649 -0.18755403 -0.036251973 0.30981678 0.11834158 0.1458885 0.108768955 0.08519109 -0.1315536 -0.15931566 0.15172897 -0.15698953 -0.28978607 0.09214472 -0.27520958 -0.3204471 0.114759944 -0.007990692 0.21826345 0.024101796 -0.018182032 0.06306286 0.11516534 -0.051652063 -0.21172541 -0.08477397 0.12672152 -0.21127065 0.022009619 0.14735779 -0.03128227 0.08555152 0.04461599 0.17643118 0.09221897 0.1435934 0.1509466 0.004275681 -0.15730579 0.11150918 0.37344652 0.033817507 0.03421481 0.11269783 0.3841661 0.10660981 0.06996361 -0.10781713 0.044062242 -0.20985225 0.1377907 -0.007167965 -0.007420063 -0.19612554 -0.09885197 0.05817797
1550 0.040530927 -0.019883368 -0.27403176 0.053739246 -0.055720817 0.00951508 0.32315788 -0.0019788174 -0.0053381585 0.04187612 0.10623358 0.030482136 0.30588746 -0.023222448 0.028327739 0.107369415 -0.120602846 -0.15529734 -0.26434657 -0.013023204 0.12798364 -0.14469385 -0.1329848 0.006107956 -0.011159952 0.0057258825 -0.16844751 -0.1252315 0.03407397 -0.065281376 0.1851415 0.22545066 -0.10020313 0.08448482 0.001874649 0.042564113 -0.26786968 0.24276604 0.16165309 0.2505066 -0.20436893 0.07987176 -0.0039800988 0.17249538 0.008094924 -0.27733907 -0.065065704 -0.019656058 0.22341727 -0.67360795 0.20676759 -0.2708768 -0.17881751 -0.17981273 -0.34710574 -0.18954307 -0.08631748 0.21677431 0.18018897 0.012414983 0.12374086 0.21604396 -0.17860201 0.09438998 0.08611378 0.007072561 0.15104935 0.02874182 -0.21835868 -0.034615397 -0.07676513 0.18102697 -0.29854906 0.0058468864 -0.15985212 0.03613928 0.20319854 0.06698245 0.09233598 0.06368048 -0.028920796 -0.009382418 0.17152536 0.046526182 -0.14167665 0.053657696 -0.15918264 -0.114489675 -0.23143929 0.07509741 0.054713808 -0.23450454 0.33918846 0.07207974 -0.17599839 0.25470528 -0.120509766 0.016821887 0.15337163 -0.11100724 -0.3042075 0.177951 0.17131163 0.2343605 0.22569825 -0.03270373 0.14670669 -0.10521574 -0.21736464 -0.16004659 0.11351161 0.01798612 -0.24459262 -0.097526886 0.150854 -0.09715968 -0.2754326 -0.07966398 0.09963202 -0.509279 0.0136408955 -0.019281466 0.1264274 -0.15449767 0.020997003 -0.16853341 -0.28580758 -0.1567115
4012 -0.09565787 -0.013544354 -0.32674393 0.07355137 -0.43077052 -0.32982653 -0.12848428 -0.25214243 0.21275283 8.902032e-06 0.28778172 -0.35947725 -0.025805956 0.03211953 0.23254175 -0.14644279 -0.004228967 -0.06275062 -0.19951649 0.17944287 0.028827073 -0.057954628 -0.104835875 0.08747776 -0.046254266 0.009325021 -0.33937436 0.048841115 0.05786522 -0.118644536 0.07193604 0.065215446 -0.085258424 0.09703557 -0.050239444 0.06523157 -0.14691651 0.15091735 0.011091923 0.027419234 0.31849006 0.06202155 0.0040012924 -0.48530418 0.0051066405 0.03375919 -0.020177197 -0.07845615 0.06370677 -0.16446368 0.07961317 0.02364898 0.0067589656 -0.2215538 0.023831975 0.050068256 -0.20142733 0.07757125 0.17337243 0.07903615 -0.10449563 0.23215935 -0.010929997 -0.17347154 0.09808796 0.4057312 0.29975277 0.05549367 -0.11738294 -0.065351896 0.014146104 0.18366696 -0.136927 0.29074514 0.04975372 0.08912971 0.21336603 0.12292528 0.23367509 -0.036385134 -0.37125394 -0.005755172 0.07560526 0.09266543 0.08906849 0.07385429 -0.25000098 -0.011667232 0.15705138 -0.03121287 -0.28038654 0.24361247 0.2316953 0.20106944 -0.07762444 -0.06823031 0.022042107 0.041686073 0.25592336 0.1009423 0.14100541 -0.12393818 -0.10879448 -0.04752651 -0.07877427 -0.1894837 0.060499076 0.17818256 0.08592634 0.1334383 0.13047288 0.23799415 0.22289962 -0.21613583 0.18265069 0.15883769 -0.1286853 -0.015949437 -0.0073055583 0.024804177 -0.047403365 -0.17018071 -0.10743391 0.09337459 -0.08628909 -0.16614334 -0.1099717 0.36096105
56 0.067035474 -0.022980977 -0.065244 0.11400459 -0.27400857 -0.16745861 -0.035153147 0.06919088 -0.17196262 0.030313313 0.16971706 0.02734525 -0.0817211 0.25070137 -0.07861878 0.16658367 -0.12737812 0.068529844 0.032899387 0.23419878 0.045427147 0.04247005 0.07400268 -0.27049777 0.019322712 -0.043438666 -0.26938415 -0.11544109 0.12326153 -0.26857165 0.19631732 -0.03779844 0.03460659 -0.24700962 -0.023932373 0.2549042 0.11022939 0.2189374 -0.08086834 0.41632685 0.14338437 -0.24418911 0.3255477 0.061704554 0.053846594 -0.07716787 0.27602735 -0.073748596 -0.15556931 -0.14858055 0.03198105 0.049937323 -0.003529996 -0.17187564 0.26213408 0.16054049 -0.3474995 0.21546686 -0.112062804 0.0013923032 0.086237945 0.11813013 0.029194934 -0.117980585 0.11167394 0.19623391 -0.11861496 0.028191494 0.19907643 0.1984527 0.020403814 -0.2208117 0.05530265 -0.035691503 -0.45907012 -0.045193948 0.13606265 0.29115316 0.01555356 -0.41427162 0.08982846 0.2905755 0.09415416 0.043870706 0.13956285 -0.31191057 -0.18469577 -0.22672775 -0.09705616 -0.23245221 0.060744554 0.065295294 -0.19495271 -0.35851446 0.014157015 0.1693996 -0.21616575 0.11145485 0.1551185 -0.25350747 0.007607607 0.10270062 0.14263755 -0.20294602 0.033576787 -0.032819275 0.08553287 -0.060572706 -0.20000441 -0.22334011 0.14408094 0.009505854 0.03727821 0.0075682234 0.008031161 0.16388018 0.09603308 0.020356987 -0.16889638 -0.18167298 -0.2419043 0.10997772 -0.039509103 0.059774783 -0.37069294 -0.13400924 0.11238766 0.4198567
3872 -0.076950915 -0.123378314 -0.10780796 -0.3220619 -0.10129294 -0.33466157 -0.31527492 -0.19833992 -0.20871548 -0.28609613 0.27870217 -0.19552647 0.040404554 -0.14098503 0.18494906 0.005810552 -0.16569541 -0.06217603 -0.14452268 0.046735276 0.16405302 -0.16346651 -0.10983703 0.22153474 -0.090928584 0.1382034 -0.40493262 -0.10757336 0.015882071 0.17293167 -0.0271136 -0.42871016 -0.28737643 -0.10211235 0.10887554 0.197796 0.10192486 -0.22863534 0.2964998 0.124587685 -0.31574747 0.028815344 0.09492619 0.086841635 0.07892437 -0.21603045 0.06286889 -0.14767201 -0.15229146 -0.09899723 -0.15068042 0.06317445 -0.19421585 -0.25597128 0.08348308 -0.08792666 0.26926723 -0.13706106 0.23227774 0.18925199 0.04027573 0.33806813 -0.17457825 0.09847076 0.13574709 -0.117016755 0.26832697 0.0030565893 0.09506659 0.10505355 0.0037097884 -0.07712723 -0.095426634 0.13552003 0.03584005 0.10796582 0.12096698 -0.003400453 0.32569882 -0.0059731826 -0.16628768 0.13819493 0.19304337 0.10762562 0.010205282 0.04535785 -0.08242349 0.2582655 0.01600272 -0.049237546 -0.18868652 0.0871867 0.3334903 -0.11874704 0.033758033 0.08526187 -0.20358272 -0.2158954 0.0749576 0.052634213 0.048931792 -0.0164473 -0.024149321 -0.12171732 -0.2561657 0.047371995 0.20652829 -0.12393465 -0.3372885 0.19021128 -0.06486143 -0.019842729 0.4072286 -0.3065544 0.40038007 -0.14797269 0.3106703 -0.33780634 -0.1692734 -0.16779037 0.27910438 0.086940445 -0.19573458 -0.09770101 -0.20420672 -0.18234785 -0.04165531 -0.024102537
1674 0.028140971 -0.28003192 -0.2411791 -0.01693549 -0.2765525 -0.0541192 -0.03403002 -0.285317 0.044226132 0.24383739 0.18173124 0.020331705 -0.21007153 -0.053406682 -0.09274851 -0.08620105 0.1411385 -0.043113917 0.3604081 0.026765045 -0.44930884 0.05404438 0.10716292 -0.028776346 -0.04791345 -0.46386513 -0.24022308 0.20564935 -0.23439057 -0.2520761 0.13544698 -0.05093664 -0.36515158 -0.10445303 -0.14670995 -0.16386062 0.020389713 -0.2523099 0.01464869 0.05049124 0.00834124 0.07451848 -0.12818493 0.06938001 0.07020131 -0.169805 -0.061107397 -0.1711059 -0.19401824 -0.1193591 0.13710949 0.1131281 -0.084676 -0.02417167 0.4218048 -0.166905 0.09695686 0.057744358 0.026179262 0.07550012 0.18447264 0.45511425 0.03125745 0.32908288 -0.053033452 0.20649582 0.07931616 0.2989847 0.051850438 0.028177397 -0.29673702 -0.039452314 0.03292259 -0.20407036 -0.035644952 0.11458517 0.16494225 0.2037867 -0.030402524 -0.23144527 -0.063825406 -0.06838153 0.41833225 -0.26546293 0.09356934 0.48922688 -0.1668898 -0.0131106 0.1814536 -0.13234803 -0.009380231 -0.004005084 0.075591385 0.22545612 0.10509023 -0.064443335 -0.04999701 -0.3471026 0.14161023 0.036324747 0.0028545065 0.08024394 0.383583 0.101315826 -0.07745685 -0.12637737 0.13157795 0.05513041 -0.099026054 -0.04589138 -0.04816122 -0.066886134 -0.06441551 -0.21410221 -0.13209936 0.043262158 0.38591206 -0.07359075 -0.28886825 -0.17352404 0.061313022 -0.08705061 -0.2689054 0.058421988 -0.41887748 -0.27245548 0.16826841 -0.12531994
3168 0.097219445 0.06765577 0.17328165 0.035134025 -0.20848806 0.15171115 -0.12309766 0.11601287 0.1055393 -0.07532912 0.24227872 0.10927608 -0.010432127 -0.22957322 -0.07821007 0.054233998 -0.28973722 -0.08231007 0.11534932 -0.038169604 0.0018988396 -0.15343082 0.026517928 -0.088681534 -0.15718421 0.18110308 -0.23241323 -0.08688096 -0.11970421 -0.09913831 -0.05732365 -0.009113489 0.021233609 -0.0052994527 0.06102244 -0.12253887 -0.16349572 0.099982105 -0.11364017 0.098176695 -0.1213464 -0.23763162 0.18423599 0.041655354 0.13997242 -0.02398622 0.0496536 0.05023456 -0.24537157 -0.20223464 0.14958823 -0.1695678 0.16657323 -0.010869985 0.005875868 0.2671848 -0.09581839 0.06086938 0.009645227 -0.021338657 -0.14079776 0.16312797 0.09966203 -0.060703125 0.044804808 0.19211453 0.14959237 0.06109055 -0.15872543 0.034821194 0.16602473 -0.29614466 -0.02719053 -0.1498578 -0.25876924 -0.03724705 0.049579762 0.43422452 0.23644975 -0.1197949 -0.27128527 0.056647867 -0.047766842 0.07637389 -0.096407 0.10688019 -0.1561984 0.16885027 -0.26126865 0.21364856 0.050280668 0.02626048 -0.012263355 0.04568977 -0.1933662 0.1027752 -0.06434443 0.07648012 0.08105937 -0.024802169 0.29876587 -0.009052319 -0.096097745 0.23647298 -0.069664866 0.22216156 -0.15943179 0.55291116 0.14361474 -0.11384033 -0.0137187615 0.2102474 -0.075858 -0.30126947 0.16365865 -0.17563398 -0.07966473 -0.03338964 -0.46440274 -0.42649332 0.048752513 0.018717242 -0.32847795 0.06965774 -0.044055115 0.02774266 -0.23348321 -0.31823182
1155 0.014370751 0.11006783 0.18652025 0.17859545 0.07129339 -0.24520464 -0.23733604 -0.07769282 -0.096183024 -0.04008491 0.44707868 0.10776461 -0.04837916 -0.028550688 0.073631264 -0.20051706 -0.20456547 -0.1010688 0.15126096 -0.11400388 0.37943426 -0.16032349 0.04732939 -0.06879308 -0.04659554 -0.006439807 -0.19532982 -0.15121582 -0.036858067 -0.05417409 0.118504934 -0.1251245 -0.4567905 0.018567838 -0.0015109279 0.09488135 -0.036133174 0.25378844 -0.1878725 -0.33249766 0.20040877 -0.15529945 -0.28304365 0.27949455 -0.050770782 -0.5200927 0.09792675 0.26960573 0.13869272 -0.112962924 0.1781016 0.09932839 -0.20462 0.036284856 -0.054040745 -0.12206438 0.05426718 0.094198294 -0.037597883 -0.20541976 -0.04516401 -0.085874684 -0.15524766 -0.24181199 0.0022617185 0.15499716 0.3015021 0.028403293 0.15487549 -0.075198315 -0.055619333 -0.1058973 -0.20110416 0.14807357 -0.06483467 0.07295309 0.08108491 0.43176523 0.2542876 -0.10051676 0.34766614 -0.031196041 0.15271921 0.22183023 -0.02813644 0.10744795 -0.41182598 0.03798038 -0.24542959 0.124384984 -0.2820612 0.085255265 -0.061676532 0.18836366 -0.105149 -0.18586457 -0.074631006 -0.0521479 0.052737184 -0.035284128 0.048229113 0.009295289 -0.046693932 -0.107140265 0.03969332 -0.24001008 0.05981473 0.043693412 -0.0063279886 0.09028714 -0.21285173 0.12338347 0.1866243 -0.4300933 0.07014875 -0.039242845 -0.1464813 0.18285896 -0.029609839 0.045063403 0.2089005 0.018053446 0.26455912 0.28408208 -0.34481147 -0.25366715 -0.14266749 -0.083793394
220 0.16877967 0.15561408 -0.26651046 0.27961814 -0.012388781 -0.22140747 0.11377517 -0.113711 -0.07478571 -0.18362091 0.14397761 -0.14308305 0.024324449 -0.1489889 0.16818714 -0.22739726 -0.19742125 -0.16481774 -0.024239464 -0.19932976 0.15703772 0.16088739 -0.03277889 -0.10706129 -0.3094934 0.16130313 0.0026028573 -0.22195461 -0.3311946 0.16215852 0.2880389 0.35921413 -0.22648126 -0.100749075 -0.044101838 -0.05317052 -0.25162712 0.14415209 -0.13044885 0.031717245 0.22486986 -0.14190643 0.073431045 -0.047283713 0.15641896 -0.05138236 0.19942567 -0.31565663 0.21519215 -0.11853944 0.11338945 -0.030353567 -0.17055577 -0.28727686 -0.10645004 0.076031856 0.0452796 -0.29968682 0.2904077 -0.07369077 0.025297018 0.20196484 -0.027713032 0.15195373 0.083772965 0.1994808 0.08724236 -0.28136817 0.027372211 -0.030154012 0.011577233 -0.004642004 -0.04814414 -0.0028823775 -0.13854282 -0.08923542 0.0511214 0.092537165 -0.041231114 -0.030156076 -0.07859221 0.15966782 0.33266515 0.1371189 -0.11704308 -0.13212794 -0.119792834 -0.020893725 0.16368319 -0.06450269 -0.17251816 0.15796466 -0.12732749 0.19683835 0.121722855 0.105947204 0.20797478 -0.13683777 0.06977905 -0.002349608 0.04204397 0.052522577 0.21287288 0.041424822 0.120910384 0.12345162 0.052680828 -0.11519938 -0.02292769 -0.19672509 -0.12603247 0.43134493 0.15827997 -0.06091795 -0.019472407 0.15979315 0.06726507 -0.021442171 -0.5085874 -0.21619457 0.023419516 -0.15517081 -0.0010236377 0.23647441 -0.27286923 -0.34355086 -0.020893497 0.046433907
1326 0.20417082 -0.1074674 -0.03061214 -0.26665685 -0.39726144 0.03988042 -0.22910717 -0.06742638 -0.06539275 -0.089217745 0.378624 -0.15187167 0.27295962 -0.041595943 -0.044794846 0.09003071 -0.13590807 -0.43146625 0.15041293 0.069739215 0.06307114 -0.10043155 -0.014185311 -0.06301952 -0.17064095 -0.012467964 -0.06310547 0.046139207 -0.103850365 -0.0049330606 -0.10505437 -0.0052679246 -0.076275714 -0.32469276 0.03654524 0.20118473 -0.009189652 0.29140982 0.0066293334 0.0666409 -0.06650842 -0.012526388 0.057256203 -0.23891105 -0.0628975 0.039896354 -0.21783748 -0.05295623 -0.10948544 -0.07227625 0.21632725 -0.061994545 0.42143494 -0.28049853 0.11517483 -0.11317959 -0.094030805 0.1938338 0.05772439 -0.26516566 0.10844282 -0.09407155 0.21661124 0.017797794 0.11355337 0.10866289 0.08176904 0.20464572 0.11157899 -0.1638774 0.26101944 -0.000364758 -0.16357967 -0.0074330596 -0.39733323 -0.30547434 -0.08882976 0.311447 0.06859944 -0.029992297 0.04455541 0.16396134 0.2569237 -0.18438596 0.0026989547 -0.13425949 -0.068314806 0.06586332 -0.28860858 -0.06935113 -0.3052334 -0.19531344 0.24498327 0.0777081 -0.07732389 0.031375714 0.26687774 -0.24304707 -0.07184031 0.08148415 0.19189413 -0.10165604 -0.09213475 -0.12904632 0.08723046 0.28218755 0.0642536 -0.13413206 -0.011289204 -0.14585489 0.1653695 -0.22122855 -0.10682157 -0.24918258 -0.049396183 -0.2799433 0.10315186 0.16296731 -0.32368165 -0.15271604 0.16261218 -0.38554406 0.049980003 -0.10369323 -0.0040818127 -0.039544515 0.084793985 -0.016188052
2889 0.2544021 -0.16002074 -0.43699023 0.120035194 -0.122481376 -0.1343005 -0.16944703 0.20116416 0.046666555 0.04156256 0.1899669 -0.017081456 0.1372543 0.06700916 0.20558558 -0.124519534 -0.29112923 0.07206493 -0.06134363 -0.097290814 0.063761406 -0.27256212 -0.06608212 -0.2704829 -0.28665638 -0.31121525 -0.09367216 0.1028241 0.18035515 -0.07052253 0.06324905 -0.036765344 -0.018001378 -0.09542416 -0.02255173 0.08013364 0.023822658 0.114118464 0.20168063 -0.03635523 0.0767598 -0.16121903 -0.3454876 -0.03383235 0.094428435 0.08444569 -0.18902606 -0.05482152 0.13229404 -0.42868212 0.09701365 0.07711592 0.17669468 -0.009357835 0.007296464 0.02880212 -0.011643889 -0.11825305 0.30728152 0.10513319 0.010715113 0.3441179 -0.06359367 -0.09142986 0.22666557 0.045132812 0.44237894 0.069158 0.22995675 0.367785 -0.20960866 0.06791706 0.21201678 0.053693756 -0.03874637 0.19228886 -0.054497924 -0.08417698 0.06324453 -0.1899655 -0.029959934 0.0137894275 0.25010866 -0.19376321 -0.055476233 0.07094325 -0.28933203 0.05476859 -0.17175312 0.1415341 -0.0071715233 0.001892402 -0.005990021 0.3263968 -0.21927369 -0.13193601 0.0028489104 -0.106552556 0.08714375 -0.12755966 -0.06098033 -0.09457738 0.2725364 -0.23066585 -0.33192992 -0.03248839 0.05503044 0.17781909 0.0712803 0.008855343 -0.12060466 -0.0035581775 0.4724123 -0.17562291 0.029915744 0.030972423 -0.33789128 -0.28553584 -0.18086593 -0.21511544 0.03877542 -0.12266192 -0.08070696 -0.112783276 -0.31249505 -0.11144449 0.021250898 0.13141249
3123 -0.20839201 -0.06525053 -0.11141508 0.11187598 -0.29223454 0.0067618587 -0.2944264 -0.08494668 -0.17216806 -0.16656667 -0.0064125326 0.14741333 -0.27378893 0.22795442 -0.04949098 0.11804001 -0.05786338 -0.10425853 -0.29125687 -0.1588791 0.33362103 0.15245603 -0.43354264 -0.39098838 -0.09274309 0.009567735 -0.17158541 -0.14591984 0.34826198 -0.17748319 0.17229892 0.022345698 -0.209577 -0.26368824 -0.030863602 0.025784897 -0.09638957 -0.057683133 0.30373156 0.21369815 -0.020742001 -0.09227063 -0.0054375757 -0.072573066 -0.18576786 -0.06777558 0.12767063 0.060468372 0.037509687 -0.010601876 -0.029033137 -0.28147802 0.029649299 -0.37426946 -0.0013562466 0.08427763 -0.10104685 -0.13271287 0.013701418 -0.240663 0.047607906 0.20416714 -0.15185721 -0.08735362 -0.103701204 0.08643339 -0.19544451 0.18329415 0.18728314 -0.08625353 -0.08029742 -0.11202991 0.3286318 -0.48801026 -0.110507265 0.3010764 0.12680866 -0.13870695 0.0887517 -0.029649323 0.049188457 -0.19886473 -0.04166371 0.045431517 -0.26941794 0.3241439 -0.115703486 -0.23749372 0.08964908 0.0148223825 0.08615674 0.09516525 0.0056624794 -0.033628393 -0.16806059 0.21002005 0.03995872 -0.14971115 0.1782832 -0.107559375 0.21030581 0.24988046 -0.14747916 0.03541261 -0.36223918 0.15767625 0.1848092 0.19603151 0.29715878 0.03446669 -0.092356496 -0.20273949 -0.061519533 0.031477842 -0.061085388 -0.24606349 -0.08631395 0.017071258 0.0461092 -0.16401702 0.02973664 0.087263726 0.36082256 0.14395474 -0.28683868 -0.0086999005 -0.027388955 -0.041430563
2727 -0.18366916 -0.20083967 -0.25496358 0.19452311 -0.1712175 0.32997152 0.019269297 0.027701247 -0.14655297 0.113887936 0.13391519 -0.022855626 -0.01882002 -0.12596954 0.23851281 -0.06575829 -0.20321003 -0.18826056 0.102167964 -0.047881745 -0.12514025 0.14848009 -0.004681816 0.1586159 -0.06668341 0.092463605 0.01693427 -0.1465586 -0.020876642 -0.091432355 -0.117736936 0.11343753 0.034848787 0.043252785 0.14767289 -0.28871116 -0.13572687 -0.058042936 0.07745603 0.5278419 0.15267693 -0.22713493 -0.16929172 -0.0016997063 0.34983417 -0.077036284 0.035165243 -0.20265767 -0.04211698 0.2111462 -0.17800005 0.06921714 0.23244534 -0.06385141 0.2029848 0.09620881 -0.24586672 0.14350867 0.15621382 0.051779807 -0.07332745 0.037013363 0.12719423 -0.12603442 0.32363993 0.18715528 0.06949507 0.15704681 0.16991155 -0.0057761786 -0.31423432 0.08943777 -0.0449623 0.045997966 0.21302152 0.13492277 0.31924862 0.15923491 -0.103825025 0.024125867 -0.046638 0.0119562 0.033377055 -0.2463602 -0.10998678 -0.1978353 -0.023956612 -0.22969419 -0.185231 0.03931517 -0.11499367 0.12263989 0.23404253 0.2570968 -0.11818904 -0.007920265 0.22909656 -0.04422882 -0.04521815 -0.13729644 -0.00594381 0.24132803 -0.039223846 -0.1465348 -0.12474938 0.13292882 0.25011092 -0.17373933 0.09266603 0.013158506 0.109144695 0.0025470254 -0.01572701 -0.19518974 0.22716385 0.1942232 -0.002544545 -0.25188938 0.025650397 -0.36283714 0.23379776 -0.061006673 0.40552872 0.12805073 -0.44921368 -0.012969083 -0.21864358 0.17476879
773 0.22256757 0.033946365 0.10364382 0.006757595 -0.10533323 -0.014220812 0.10264145 -0.01958094 -0.40389326 0.13116552 0.0666898 0.039297245 -0.05702727 -0.2542377 0.23432922 -0.066435345 -0.32655543 -0.13575622 -0.026346864 -0.10404507 0.10648467 0.021281594 0.11209451 -0.1617816 0.17432043 -0.01948396 -0.38336745 0.16083151 -0.29877844 -0.05460122 -0.038799107 -0.026149025 -0.32907254 -0.32085037 -0.110484645 -0.012988953 -0.32275546 -0.13578545 -0.07888973 0.11720993 0.20100495 -0.12530185 -0.032264374 0.021118464 0.27622607 -0.30609888 -0.10961819 0.5647418 -0.054978654 -0.018192882 0.11163197 -0.057979234 0.057652447 -0.23508836 -0.20187178 -0.055054713 0.13770752 0.24988155 0.25024563 -0.27051726 -0.057835247 0.13906786 -0.19120698 0.08735636 -0.062079605 0.13941741 -0.39489374 0.04355992 0.12883481 0.10177931 -0.18496001 0.010255938 -0.025089536 -0.029611457 0.17269355 0.23954143 0.21069093 0.052942086 0.12094489 -0.26585153 0.12803854 -0.072581224 0.03906193 0.16625708 -0.12696272 -0.092468396 -0.37083477 0.051727183 0.07938613 -0.060827997 -0.03095949 -0.09829019 0.0041520074 -0.14802937 -0.3574544 -0.29547805 0.21931864 -0.068236396 0.14527813 0.045844942 0.24776237 -0.20818034 0.14373896 0.041715 -0.1853753 0.023605285 0.2827337 0.045761604 0.010465498 -0.16288362 -0.08437139 0.3174291 -0.05021898 -0.11995979 0.048520237 0.08235768 0.03935815 0.25574774 -0.049448945 0.18588208 0.22794111 0.08349925 -0.058134463 -0.05873984 -0.2976129 -0.03566708 -0.23710774 -0.10226421
4058 0.24737436 -0.0267018 -0.3376038 0.032640353 -0.08268292 0.008433444 0.16323143 -0.27549076 0.16338621 -0.16794826 0.26944178 -0.019218652 0.15999836 -0.041632734 0.25249884 -0.38276416 0.20773935 -0.30123204 0.10622693 -0.12391256 0.15591829 0.14355627 0.10274361 -0.060571153 -0.18128903 0.23099402 -0.022899566 -0.0875121 -0.014023334 -0.061506763 0.2443863 -0.1189999 -0.062397595 0.053977385 -0.012777662 -0.05213963 0.13208953 0.072764285 0.09775119 -0.06874973 -0.2358585 -0.3055285 0.29116544 0.02531989 0.00765966 -0.18626174 -0.10941579 0.07442045 0.09009218 -0.1992575 0.17822072 0.23618218 0.080169715 0.052743137 0.05784689 0.12283788 -0.054770287 0.2319219 0.09566053 0.059578154 -0.08374804 -0.118346594 -0.29438028 -0.10672621 -0.040655617 0.0821243 -0.12382649 0.107180126 0.081366375 -0.015009243 -0.27732038 -0.15272471 0.013101391 0.09059164 -0.17831689 -0.15110084 0.28172216 -0.009999594 -0.048468303 0.26583186 0.029168233 0.24812338 -0.26080924 0.24437447 -0.27049863 0.37748072 -0.09722316 -0.28872296 -0.007961878 -0.11686786 0.071693845 0.11658939 0.14898089 0.17357521 -0.14821875 -0.15291011 0.06821247 -0.10469743 0.1265626 0.055831425 0.40627122 -0.14831103 0.36824745 -0.23106028 0.11043573 0.0070634657 0.15010203 0.32502678 -0.14866352 -0.09520905 0.14639519 -0.42071712 -0.058101572 -0.027063806 0.17377281 0.106174804 0.1639208 -0.306465 -0.24303024 -0.16596079 -0.18932672 -0.43434483 0.21622422 -0.013228519 0.1127425 -0.099203326 -0.26153708 -0.0765374
4409 0.033043 -0.10387474 -0.03992314 -0.21692194 -0.27729908 -0.05849186 0.10248129 0.10384532 0.30340254 -0.082577325 -0.23236859 -0.3700652 0.1560283 -0.22155133 0.04316527 -0.035254125 -0.20202358 -0.19421358 0.14875999 -0.046063725 0.42229953 -0.24283893 -0.22396278 0.09375341 -0.135379 -0.044418868 -0.23951946 0.03505353 -0.42375645 -0.12620349 0.16368994 0.2323889 -0.31728765 -0.30075744 -0.07182566 -0.019332776 -0.081228495 -0.09175923 0.22635397 0.33095884 -0.1570498 0.19776808 -0.09770877 0.09588963 0.029673072 -0.17029497 -0.115180634 -0.041325387 0.16183004 -0.17283957 0.056225058 -0.10265264 -0.1527042 -0.21678138 -0.15804647 -0.25675175 -0.43149444 -0.025264317 0.077423826 0.012908285 -0.03028544 0.014012818 -0.24833952 0.23693614 -0.0055261343 0.32203105 -0.25359374 -0.1288925 0.122607134 0.044628568 -0.05109033 -0.21388549 -0.11377125 0.11877683 -0.03500949 0.15614799 -0.057403293 -0.059600662 0.024710732 -0.11405975 0.038076635 -0.077192344 -0.07261883 0.05123608 0.10009621 0.1508369 -0.21398076 0.0803817 -0.013983263 -0.015775794 0.12763391 -0.29393125 0.061141167 0.104147166 -0.027265789 -0.13818415 0.0019469365 -0.074967526 -0.1405095 -0.13891104 -0.28706586 -0.056900177 0.051146474 0.10254542 0.103600845 0.17356226 0.428784 -0.19599617 -0.033806793 0.071985036 -0.07945791 0.27651814 -0.10956819 0.10767397 0.15481718 0.030034294 0.14254059 0.09772745 0.021774074 -0.28933823 0.121079534 -0.012645292 0.2474412 -0.041188415 -0.123177685 -0.28426787 -0.12729567 -0.26200503
3087 -0.012629677 -0.09939833 -0.39559844 -0.009436934 0.002515735 -0.1786819 -0.039100014 -0.19837998 -0.13118029 -0.17265205 0.001724326 0.0512972 -0.036344636 -0.21375082 0.2946079 -0.054138515 -0.2439016 0.011882951 0.07079405 -0.102088965 0.047350936 0.077824265 0.063284755 -0.16405621 0.045968547 0.12375653 -0.32203588 -0.17535676 0.02774078 -0.0040689837 0.36113992 -0.04266748 -0.10017694 0.058680717 0.27150595 -0.15162027 -0.020151688 0.41217062 0.19539948 0.1127899 -0.14564215 -0.16032043 0.26268995 0.18561119 -0.015895074 0.10737324 -0.11432423 0.068921775 -0.02523061 -0.43433067 -0.04545239 -0.28605762 -0.10223224 -0.034012083 -0.12368463 0.17627841 -0.06767756 0.038829785 -0.09180895 0.19360504 -0.15084934 0.0068994756 -0.45426884 -0.04451261 0.39764234 0.17172109 -0.25246403 0.1185843 0.054089155 -0.050118864 0.09715336 0.028401949 -0.4102625 0.04973133 0.17685434 0.037004497 0.27113232 -0.0116486065 0.16941822 -0.45913187 0.2206523 0.16831478 0.052768186 0.01157384 -0.10514937 0.13156648 0.1214648 0.16023472 -0.119811945 0.1377164 0.08347821 -0.0929105 0.40327117 0.2558018 -0.11561957 0.07964188 0.0863024 0.062327296 0.11276921 0.020009711 -0.069365434 0.030611325 0.2500592 0.11056119 0.28169572 0.2783395 0.104572475 0.01742965 0.26300383 0.031582806 0.13804258 0.20383036 -0.08951754 -0.0057029463 0.03153354 0.014219675 0.12796234 -0.0065212874 -0.28758618 -0.25788325 0.17645283 -0.16614276 0.004449949 -0.016423369 -0.12916502 -0.22122939 -0.019099075 0.2777792
6136 0.037424617 -0.13160545 -0.6617354 -0.02191107 -0.06465581 -0.2767348 0.18310647 0.0102202995 0.022396443 -0.048206914 0.0912675 0.023274876 0.08729412 0.1533264 0.007185694 -0.08154291 -0.22534764 -0.2263814 0.2532668 0.06253824 0.024044985 0.21876852 0.0016274739 0.04231933 -0.27508634 0.056010086 -0.11539614 0.009831357 -0.036576036 -0.12823012 -0.059005514 0.17740142 -0.27642623 -0.1052042 -0.32707214 0.38086316 -0.17818761 0.080620944 0.041597944 0.24941921 0.23327075 -0.35199338 -0.06243856 -0.25168833 0.04556504 0.1570165 -0.25493914 0.09030066 -0.13459127 -0.12899457 -0.116667904 -0.08328064 -0.08905951 0.1310702 -0.22044037 0.06188202 0.01950718 -0.010871986 -0.028635876 -0.09082586 0.113444924 0.3263921 -0.12278991 0.16696899 -0.026798299 0.13081291 0.3718086 0.08466376 0.22176486 -0.016174335 -0.17942408 -0.19269775 -0.06207343 0.08281413 -0.19013633 0.1410524 0.024740778 0.17564103 0.016827207 -0.05915989 -0.006549843 0.15873644 0.06416003 0.013452213 -0.018271104 0.084969565 -0.1714556 0.11385579 -0.017432475 0.24990004 -0.15206222 0.08461307 -0.07883914 0.40267473 -0.28881902 0.09402256 0.066538386 -0.07969132 -0.10512615 0.07223777 -0.07064064 0.0055680065 0.04691591 -0.12984069 -0.26356086 -0.011604854 0.22596325 0.13854405 0.19557388 0.15547042 -0.21662228 0.2916414 0.2726593 -0.3739005 0.1528652 0.11705191 0.054632585 -0.1715318 0.01798429 0.007084812 0.05551641 -0.22045575 0.032418706 -0.110213086 0.0319945 -0.18647277 0.05333107 0.13591349
16 0.15424134 -0.32173854 -0.45408925 0.05740766 -0.121097386 -0.1953113 0.074675106 -0.29640195 0.017831767 0.056863435 0.25836414 -0.24104875 -0.016800918 0.14603753 0.05485144 0.14713855 -0.21755128 -0.118737146 0.20004538 0.20328082 0.09874348 -0.15521482 0.06646093 -0.3954284 -0.23802531 0.061658002 -0.16615057 -0.12997049 -0.014804584 -0.21231918 -0.25019535 0.071249366 0.01338414 -0.109890714 0.1090326 0.120170034 -0.13415584 -0.14199689 -0.06920128 0.25827065 -0.2520184 0.2640347 0.12551428 -0.08448331 0.039610684 -0.16297744 0.053735234 0.13646136 0.021742277 -0.085448235 0.06681295 0.12400955 -0.015636269 0.2350533 0.046633504 0.083671644 -0.037161168 0.20366603 0.20189545 -0.073797345 -0.021955438 -0.06652534 0.021116283 0.044784043 -0.048101056 -0.21043374 -0.19111936 0.47560796 0.29978907 -0.13842419 0.00936837 0.12462407 -0.04875417 -0.2238658 -0.25916886 -0.12359842 0.066479556 -0.06566259 0.048836824 -0.04709252 -0.023564776 0.3691088 0.24981232 -0.50305414 -0.12398377 0.09804846 -0.44317746 -0.01767282 0.03129964 -0.14725977 -0.172276 -0.07091249 0.09729924 0.1997007 -0.13512963 0.09092811 -0.12677261 -0.0720061 -0.13119017 -0.20945233 -0.013690516 -0.28069124 -7.6090786e-05 0.059795104 -0.14443603 0.15727837 0.039624486 -0.15401894 -0.12513566 -0.08637294 0.03614479 0.11296773 0.30689678 -0.28419527 -0.039521907 -0.103506126 0.17821385 -0.118664734 -0.17420653 -0.24571216 0.06050074 -0.24150468 -0.08035912 0.16435578 -0.22292262 -0.33003652 -0.092487566 0.01718199
3307 -0.036675703 -0.33273953 -0.43756506 -0.07197979 -0.1321488 -0.0367689 0.13736911 -0.09916498 -0.045622587 -0.09396929 0.124903016 0.10332448 -0.012374705 -0.11819762 0.17413552 -0.15872538 0.039214328 -0.43872157 0.27899656 -0.17950162 0.12857746 0.04756195 0.07151364 0.07933793 -0.22418079 -0.029503012 -0.13876013 0.088080615 0.17604612 -0.41361636 0.23389745 -0.030664692 0.055437263 -0.13037717 -0.01592656 -0.05336488 0.033414677 0.27307707 0.11188705 -0.16653188 -0.26784295 -0.15185727 0.25808683 -0.32814664 0.0014264672 -0.2821498 0.35380447 0.1792095 -0.049523257 -0.060158864 0.03298477 0.3960591 0.04583492 0.19136907 0.121744476 0.2155505 -0.33360934 -0.041607205 0.34187418 -0.05169724 0.31739992 -0.08013075 -0.11812207 -0.1905926 -0.04128627 0.20230933 -0.21834241 -0.021894231 0.17418417 -0.0017694253 -0.20849948 -0.15374051 0.36501813 0.12329181 0.19925997 -0.11934435 0.15853536 0.13965523 0.15435362 0.24554746 0.15509132 -0.0040232954 0.09907278 0.17996624 -0.26355168 0.53255343 -0.028380513 -0.17302892 -0.25191617 -0.1928059 -0.023378568 0.10244265 0.20076208 0.16397305 -0.009256146 0.02526592 0.16485247 -0.20886414 0.03428978 0.07175689 -0.064142 -0.23327257 0.17744179 0.0816053 -0.18928619 -0.036750745 -0.15537599 0.27853134 0.06292927 0.1502188 0.19512741 0.02567908 -0.049815804 0.2916374 0.04977221 0.20488128 -0.22511749 -0.11133017 -0.22792651 -0.15612501 -0.13096936 -0.12174187 -0.0067334305 0.13426784 -0.20000923 -0.07717064 0.037971083 -0.04171972
3886 -0.15795141 -0.13505878 0.1424636 -0.0046178536 0.19279389 0.22931994 -0.10335927 0.17035937 -0.09179315 -0.13207215 0.023726458 0.15185495 -0.10037265 0.46349832 0.024055116 0.047692467 -0.31013432 -0.19650355 0.036281757 -0.006299981 0.21881594 -0.053497396 0.08444207 0.07949181 -0.21698941 -0.007531764 -0.18967319 -0.016082807 -0.000995282 -0.08530149 0.013800635 -0.13673261 -0.114821166 -0.0104920985 0.05671082 -0.029299691 -0.15326089 -0.16099888 0.2533762 -0.18399073 0.01186603 -0.11244924 0.15160453 0.027604988 -0.28851402 0.19931285 -0.029705795 0.10772868 0.089402765 -0.3501259 0.020534243 -0.19251265 0.121904224 -0.167553 0.34504363 0.010876889 -0.10987052 0.21720491 0.14224006 -0.20104188 -0.0033808888 0.3235087 0.08173892 -0.06966789 -0.15775675 0.1529501 0.100256905 0.28802276 0.16207974 -0.025817093 0.022624621 0.10082006 0.07586393 -0.2756689 -0.2179645 0.26297623 0.3896786 -0.2731496 -0.040901136 -0.11274058 -0.16182582 0.016267285 0.18788652 0.25420263 -0.20122935 0.13463116 -0.13317548 0.11616667 0.20682976 0.16939473 0.016985733 0.10428413 -0.0595681 0.116411924 -0.038795635 0.22313543 0.2661209 0.40100005 0.066162236 0.19208539 0.35276088 -0.35722452 0.21001461 -0.0018717883 0.061902866 0.101304665 -0.028407698 -0.15422292 -0.018294344 -0.079175845 0.011682109 0.32691318 -0.009446251 -0.025144897 0.058393046 -0.41770312 0.13298258 0.106816866 0.09596289 -0.11669779 0.065343305 0.1520839 0.19361776 0.35088575 0.092948735 -0.042650446 0.08179565 -0.021854546
1315 -0.049752876 -0.051939607 -0.059452575 0.07863927 -0.28637812 0.09299357 0.14965986 -0.070064604 0.043315277 -0.07818679 0.20109192 0.09010208 0.06156473 0.024857592 -0.10134209 0.22019067 -0.14133748 -0.1671056 -0.11994917 0.0010015317 -0.0014029328 0.12116313 0.05528705 0.06319204 -0.37079823 0.12889425 -0.23160923 -0.09982231 0.027932039 -0.14838429 -0.02792576 -0.18715641 -0.20423992 -0.06384296 0.003764911 0.045956817 -0.0875332 -0.044832278 -0.16935517 0.041011944 0.12518314 0.007533859 0.036945287 -0.10921693 -0.07738988 -0.20621006 -0.076180175 -0.055005096 0.23163429 0.12222942 0.29901075 -0.12190414 0.04586021 -0.11382864 0.06912344 0.033968374 -0.04811289 0.0601904 0.18351635 -0.046447303 0.14067708 0.022940036 -0.090678506 0.079680815 -0.16767924 0.05913367 0.10054926 0.029949648 0.09579562 0.38135844 0.05713147 -0.014822756 -0.05525229 -0.17294249 -0.06515142 0.1263445 0.017045218 0.117018156 0.16015436 -0.18373933 -0.09831213 0.08399536 0.21226433 -0.04240967 -0.10846199 0.045895264 -0.025026502 0.07884274 -0.09693828 0.07674293 -0.13885908 -0.07391994 0.14553255 0.124930106 -0.20722185 0.022248464 -0.10413182 -0.10494165 0.06828703 -0.1666391 0.33400965 0.1931155 -0.0478916 0.14317308 0.10765629 0.08402822 -0.10780609 0.26896986 0.116612494 -0.047503505 0.29682064 0.092163034 0.04869662 -0.20129 0.16361369 -0.12258476 -0.05240417 -0.029938994 -0.07505046 -0.23824206 0.07461556 -0.17986679 -0.19682993 -0.04379211 0.016964188 -0.23541762 -0.19761707 0.053042497
813 -0.16232148 -0.07448586 -0.26812115 0.26193056 0.021133704 -0.2706142 -0.14683276 0.0116837025 0.06858125 -0.08008946 0.2903257 -0.18990654 0.07814934 0.15931416 0.13642554 0.038003936 -0.20420739 -0.15054928 -0.026645565 0.040021222 -0.0026289462 -0.037941463 0.14113444 -0.060495332 -0.29670635 -0.096275926 -0.017733335 -0.028480282 0.068511434 -0.14634636 -0.03095155 0.029141864 -0.26291582 -0.24989282 -0.057023175 0.29463506 -0.06297912 0.037384648 0.09755605 0.09844757 0.21876287 0.05197681 -0.13757554 -0.26920938 -0.058699552 -0.11277973 -0.11583416 -0.31364593 0.069019526 -0.22776186 0.086395785 0.1157745 -0.20638311 -0.26911741 -0.006915385 0.055560514 -0.06612798 0.10115128 0.045900512 0.02877752 0.027590059 0.06746274 0.1174056 0.00797823 0.06281684 0.09054646 0.04300495 0.024169281 -0.06753304 0.089060605 -0.05443714 -0.28311977 -0.13439105 0.19687356 0.003964424 0.005308065 0.13544556 0.290949 0.14407827 0.02082731 0.077772684 -0.04176137 0.014448495 -0.07376449 -0.07180203 0.08175784 -0.21970437 0.21159104 -0.079044655 -0.004799935 0.23742516 0.035544906 -0.052508473 0.30871275 -0.11324319 0.021651633 -0.03658755 0.070098385 0.17226599 -0.044515055 0.09998272 -0.18654181 -0.031783465 0.14316063 -0.11123216 -0.036845215 0.12265056 -0.10257788 -0.037901845 -0.047142833 -0.06539837 -0.08296871 0.2895072 -0.2519989 0.32614964 0.070618376 -0.016152887 -0.16698416 -0.030076943 -0.1994258 0.05181848 -0.1894988 0.088825785 -0.01677592 -0.35380757 -0.1241666 0.08303138 -0.021569539
1335 0.03997433 -0.099995404 -0.14788327 -0.02428111 -0.037733924 -0.03564135 0.027691461 0.0864269 0.038264915 -0.054532155 0.16531047 -0.09368978 0.2516892 0.11420104 0.028225632 0.1349663 -0.33481723 -0.123056754 -0.11099453 -0.08931589 -0.052578926 -0.028958045 0.1904445 -0.10723238 -0.08395687 -0.012718849 -0.09096417 -0.09857961 -0.06948668 -0.07841464 0.071889825 0.12906073 -0.08300381 -0.1727504 -0.2345267 -0.002816182 0.073363125 -0.029573796 0.17308539 0.13070102 -0.0198434 0.037114594 0.08930804 -0.13782185 0.007946214 0.005478542 -0.05606608 -0.07856162 -0.08643149 -0.22563112 0.050972294 -0.11569023 0.018278023 -0.21118629 7.8466226e-05 0.16456439 -0.114467114 0.036135864 0.07423966 -0.1927695 0.0034626764 0.27797 -0.07174956 0.07991437 0.11411529 -0.043684393 -0.11115188 -0.057952482 0.10339972 -0.19004245 -0.11205861 -0.2587752 -0.07191523 0.18844835 -0.063018925 -0.15464373 0.40596828 -0.077466 0.23204051 0.022287197 0.124346346 0.080611154 0.112634614 0.090150185 0.15946336 0.10930434 -0.11312405 -0.17615579 -0.191097 0.1962818 -0.014207224 0.19838408 -0.037966166 -0.15206479 0.072363086 -0.11888189 0.027481267 -0.06831385 -0.022449218 -0.019355955 -0.049053058 0.055757042 -0.0602197 0.13705419 -0.03954542 0.01783032 0.12678465 0.09646977 -0.005546813 -0.12074385 0.33988258 0.022964576 0.09280164 0.021288369 0.025692685 -0.13422406 -0.104282215 -0.09158159 -0.19587328 -0.19157478 0.3130199 -0.2717327 0.013281876 -0.15041146 0.07581227 -0.27465492 0.16420926 0.058127426
2946 0.1398085 -0.14606129 -0.22011773 0.27394766 -0.3466016 -0.12120527 0.25605276 -0.16775963 -0.058628626 0.15173253 0.18938729 0.06666022 -0.031533696 -0.081504546 -0.04259247 0.21728036 -0.43520322 -0.14664237 0.049480274 0.09489171 0.1623758 -0.10560956 0.39162523 -0.29634473 -0.29425043 -0.08812831 -0.097932406 0.013426254 -0.049657073 -0.08983102 0.28187475 0.10458564 0.015287913 -0.27432093 -0.47272912 0.17280345 -0.14758216 0.26042643 0.015451733 0.26178983 0.026495194 -0.15938559 -0.09538664 -0.084733106 -0.23179206 -0.16601159 -0.02355819 -0.18457049 0.2124717 -0.19206093 -0.040689133 0.3366068 -0.044709172 -0.034244012 0.21801867 -0.044184186 -0.14972904 0.10097066 0.0048262742 -0.068897255 -0.25670862 0.022941636 0.028948288 -0.12989046 0.010399889 0.27297026 0.106796786 -0.11079894 -0.0044511533 0.12397834 -0.022656204 -0.17385763 -0.31160846 -0.17610237 -0.077548966 0.010487317 0.15643895 0.11124928 0.08471696 -0.124874055 0.12979746 0.020468196 -0.08726352 -0.1583918 -0.044569306 0.15238494 -0.19628198 0.28554335 0.19484167 -0.07202168 -0.07854955 0.0075327624 0.005565149 0.11737465 -0.24655084 0.011587983 -0.21207228 0.029736174 -0.016337713 0.07881866 -0.32301864 -0.009383909 0.12109527 0.10178412 -0.10759424 0.1290274 0.19466576 -0.1505682 -0.07827597 0.0013433482 -0.065255664 0.11150419 -0.0047679516 -0.10418547 0.22157238 -0.011799434 0.103606164 -0.5340873 -0.31963983 -0.27520335 0.307222 -0.2159797 -0.121165276 0.28204 -0.14326958 -0.22633 0.090258665 0.08753401
3073 0.08355113 0.029077783 0.030924674 -0.15030083 0.039433766 0.17940627 0.012889244 -0.030057224 -0.029725885 -0.16060184 -0.16458592 -0.08369487 0.19679809 -0.0484236 -0.31973746 -0.170411 -0.20323965 0.008650467 0.10212248 0.10130548 0.030637603 0.01237882 -0.42930385 -0.17959447 -0.32395992 0.055403512 -0.2452918 0.15572125 -0.10412512 -0.108074 0.21639167 0.055505976 -0.38600042 0.11946366 -0.044002403 -0.16480964 -0.11868161 0.06957826 0.044166975 -0.024009876 0.22385107 -0.29958144 0.12930681 -0.18979856 0.34821412 0.16184352 0.10631808 0.100611694 0.10242486 0.091912545 0.25546202 0.24687915 -0.048667915 -0.19417666 0.16163956 -0.07481667 0.031233078 0.1920496 -0.14182453 0.09776715 -0.046289828 0.40242633 -0.21621126 -0.28949755 -0.07902737 -0.19126244 0.41736516 0.33209693 -0.011632434 0.08463581 0.020028671 0.14591156 -0.039402135 -0.034552418 0.11413367 -0.20801379 0.30463368 0.15261462 0.0027181823 -0.06304384 -0.014004876 -0.14007878 0.15441465 -0.08365285 -0.1580696 0.09506201 -0.19599026 0.10828421 -0.1655889 -0.10071848 0.23858805 -0.14520131 -0.10202975 0.19545661 -0.1937545 0.08393911 -0.024684645 -0.13569014 -0.3636679 0.3497888 0.15256214 0.14741711 0.00538963 0.12841676 -0.0070865112 0.3432939 -0.052492287 -0.10884872 0.15215638 0.109313 0.06866207 -0.08969365 0.1830388 -0.07577471 -0.03987926 0.15319172 -0.1977244 -0.12629853 -0.23100695 -0.22629239 0.27268472 0.31594017 -0.03777872 -0.28795776 0.01885293 -0.25291 -0.12463668 0.2250968
2016 -0.05531654 0.033349328 -0.24614371 0.043681156 -0.2690039 -0.17165396 -0.039235055 0.053470213 0.10512352 -0.03945628 -0.018017692 -0.080438696 -0.026331289 -0.18164706 0.35679898 0.057268772 -0.3495971 -0.17990756 -0.02394768 -0.12094055 0.2176652 -0.30308157 -0.32295644 0.009070759 -0.15608858 0.0990829 -0.25203258 -0.018745186 -0.607711 -0.47107086 -0.15849204 -0.061887294 -0.10208285 -0.3846918 0.044986513 0.002935694 -0.16419007 0.14621693 0.031918287 0.06431452 0.23510592 -0.0069762757 -0.16937043 0.19961862 -0.14046349 -0.006867348 -0.10201842 0.11451103 0.1536336 0.0022525203 0.06077395 -0.12947837 -0.11027267 -0.21455005 -0.15155904 0.23117706 -0.065541014 0.07696504 0.13062087 -0.11392622 -0.21507958 0.1764487 -0.34571028 0.17288844 0.15264171 0.00012368182 -0.102396466 -0.1428167 -0.17030716 -0.18762873 -0.031668797 -0.108596005 -0.059013944 0.2462761 -0.058856025 0.20459849 0.028367229 -0.24720848 -0.3597841 0.16044207 -0.33846167 0.0037296168 -0.08436493 -0.33385223 -0.011167012 0.16065048 -0.12134163 0.078316 -0.19699794 -0.051024072 0.00721502 0.13650528 0.1734006 -0.14225394 -0.078842334 -0.083618686 -0.036850728 -0.20687404 -0.19593222 0.072461054 -0.0058394643 0.05880419 0.04460365 -0.1836844 0.30631635 -0.13575692 0.03288914 -0.17974676 0.039995313 -0.14720339 -0.08567511 0.13294722 0.36175668 0.16140813 0.09965841 -0.28017122 0.004978178 0.17391616 -0.07175303 -0.13208328 -0.14519684 0.06408719 -0.22266658 -0.032716613 -0.18778396 -0.3015946 -0.24168004 0.1302929
335 0.22505882 0.26099634 -0.06558001 0.022718173 -0.14071777 -0.020622415 -0.061236482 -0.03786645 -0.46097538 0.08093035 0.38917688 -0.07962495 0.09489704 -0.060686175 0.10842195 0.024890942 0.15916553 -0.10706998 -0.11598286 -0.296736 0.22049223 -0.101577826 0.13739152 -0.17107005 -0.19369318 0.009143017 -0.37410715 -0.19817965 -0.11016071 -0.18475151 0.043199327 0.18225227 -0.19622414 -0.11871658 -0.0099183135 0.00482406 0.010576904 0.03824261 0.06712174 -0.15550967 -0.021765837 -0.19994548 0.016172348 0.16471173 0.09481282 -0.3756207 0.24094068 0.33813033 0.04830132 0.22757596 0.06436478 0.2062914 -0.013436192 -0.23578349 0.017198423 -0.25949243 -0.12142046 -0.107621185 0.20954812 -0.3108184 0.15757202 0.03855399 -0.2102911 0.07332916 -0.15489961 -0.054909945 0.21293463 0.018552665 0.058698215 -0.06884033 0.10312166 -0.16319819 -0.15071602 0.18727261 -0.22666925 -0.007135468 0.046975967 0.14415528 0.13988712 0.0008860983 -0.16012606 0.17694427 0.011147262 -0.17058985 0.114184074 0.1330868 -0.41658375 -0.06587565 0.047183216 0.057258733 -0.096294306 0.3377285 0.07406488 0.26263043 0.094673745 -0.1854336 -0.09605266 -0.0026721074 0.19745806 0.0035880029 -0.088774495 -0.030535223 0.016840467 0.05609798 -0.07851004 -0.0386059 -0.03971685 -0.14326192 -0.042312607 -0.12609902 -0.226186 0.0905424 0.08377571 -0.16726473 0.037480928 0.16837646 -0.03273598 0.3557995 -0.09348498 0.11530011 0.30624175 0.1733262 0.19712798 0.021355532 -0.3088697 -0.3735385 -0.21984266 0.2014792
5234 0.026826184 -0.12017317 -0.032137074 0.06135181 -0.07390357 -0.11809638 0.042023465 -0.11149675 0.091062665 0.15092432 0.11740143 -0.028661797 0.32577676 -0.07798532 0.04864702 -0.0335892 -0.30351958 -0.24312116 0.3461018 -0.15572563 0.14578193 0.09216262 -0.05702366 -0.011886566 0.17205536 0.0700662 -0.14106756 -0.0704828 0.05984439 -0.1901768 0.051514756 -0.24447113 0.0067709596 -0.22617894 -0.034113232 0.06745103 -0.17028198 0.15207905 0.079928175 0.06958942 0.057053674 0.062139697 0.12507911 -0.008975714 0.18060084 0.076782666 0.28668815 0.11965748 0.09764306 -0.08758001 -0.044818953 -0.10748144 -0.04261762 0.06222718 -0.020706646 0.090875804 -0.09651835 -0.010978741 0.09229521 0.049710084 0.24236764 -0.10177149 0.03600775 -0.017719947 -0.14547147 0.04747452 0.26998615 0.1898789 0.18876953 0.18073879 0.1808528 -0.17303513 -0.1290807 -0.15826818 -0.06286327 0.14274877 0.019278798 0.15230316 -0.0402206 -0.11462773 -0.05812071 0.103316955 0.1826722 -0.14817452 -0.04047548 0.10588761 -0.077003926 -0.14433576 -0.11290575 0.116347045 -0.16337629 0.26078644 -0.035099853 -0.026263423 -0.1606644 0.048836686 -0.08997447 -0.1413796 -0.13977443 0.04829631 0.2015119 -0.047066607 -0.11318468 0.03248697 -0.024584945 -0.0837086 -0.21104509 -0.0073947418 -0.054312088 -0.010507478 -0.013431698 0.3318788 0.044159934 -0.07711801 -0.0063431794 0.22752249 -0.05449555 0.052652854 -0.12193009 -0.19768518 0.20337617 -0.051160462 -0.030916102 -0.07563441 -0.1145594 -0.15458691 -0.024593832 -0.057557587
5703 0.36766547 0.16917592 -0.14482081 0.21416697 -0.16369261 -0.18410526 -0.095672004 -0.16722634 -0.17513403 0.13187243 0.11038719 -0.13567582 -0.009400683 -0.038176 0.21606712 -0.032645214 -0.0696559 -0.06693209 0.16315314 -0.31174985 0.14666426 0.093868434 0.13562946 -0.06267937 -0.1252164 0.1412131 -0.16080607 -0.11592495 -0.010659994 0.17989355 0.105797485 -0.081456065 -0.29509547 0.1435085 0.064291105 -0.000775594 0.022887899 0.052610893 -0.103612006 -0.21207182 0.27810755 -0.26538187 -0.033621654 -0.08482527 0.14250326 -0.10594154 0.16160695 0.27329102 0.12169962 0.1271583 0.12249735 0.13249382 -0.11746007 -0.28906512 -0.11909293 0.10575619 -0.22685221 -0.07350927 0.23559688 -0.2999268 0.06707331 -0.1428727 -0.17157827 0.11019179 -0.059939325 0.19415538 0.2381724 0.011376169 0.16212393 -0.36493224 -0.07692457 -0.30265728 0.028800396 0.095613115 -0.2635489 0.29574466 0.12952149 0.09929983 0.22788298 -0.090720505 0.11635719 0.14226991 0.033573497 -0.17563777 0.12698497 -0.17505491 -0.35125613 0.009282126 0.00575654 0.058224745 0.06748353 0.22724031 0.294261 0.04539988 0.40935874 0.048300926 0.081406 -0.16370592 0.042057585 0.23414177 -0.07877664 0.11592444 0.099821225 0.2682172 -0.14574067 -0.09302045 -0.21680336 -0.27438024 0.0097471215 -0.051612936 -0.29525718 0.26523718 0.19337335 -0.22408718 0.055484794 -0.038378842 0.09022768 0.37686005 -0.19860266 -0.22637919 0.13329282 0.06499877 0.26091346 0.12664503 -0.20365281 -0.2915243 -0.20114325 0.13039024
6109 -0.06973041 -0.0753602 0.04605178 0.06118446 -0.15626585 0.1709336 -0.05672548 -0.079102315 0.13265952 -0.0049515767 -0.007435995 0.16610548 0.105136596 -0.046703648 -0.09749545 0.055788618 0.114066236 -0.042165667 0.2703108 -0.26969022 0.1028513 0.13037254 0.011076054 -0.23421073 -0.056596976 0.14032115 -0.0896119 0.0504532 -0.008829325 -0.07869594 -0.1603401 0.15965861 -0.26170275 -0.0021382957 0.2067019 0.053637616 -0.00471619 0.14932507 0.03827003 0.038336135 0.20244683 -0.36949083 -0.1116919 0.06540455 -0.07158163 0.091270685 0.1817706 0.013980626 -0.01500785 -0.13089466 0.03300456 -0.054110106 0.056002475 -0.0914465 0.103875875 0.21347857 0.050299466 0.19233778 0.09883349 0.1830417 0.16774462 0.0637447 -0.07469827 0.05714703 0.046829924 0.2118739 0.2905874 0.036552228 0.22388871 0.064990915 0.021283088 -0.005006102 -0.08938261 0.12335125 -0.14777572 0.14942312 0.11001426 -0.16026247 0.18485259 0.0614357 0.06414974 0.037375547 0.054181032 -0.15689436 -0.029580852 -0.04333516 -0.3475013 0.07053978 -0.083740816 0.018330509 -0.14832853 0.098142765 0.1261334 0.09627304 -0.026586298 0.2247314 -0.21694836 -0.35458362 -0.04697663 -0.3814071 -0.06637636 -0.14018339 -0.057082314 0.083743215 0.013934962 0.025812434 0.15331511 -0.09642902 -0.20825686 -0.07936646 -0.14739718 0.079577714 -0.1867692 0.053316 0.046175417 0.101343684 0.23928533 -0.19091581 -0.002522757 -0.39323187 -0.020275386 -0.032732625 -0.048901875 0.14312543 -0.24165604 -0.16844417 0.035426803 0.15561268
1477 -0.18929118 0.047831677 -0.012164685 0.102699414 0.05888963 -0.016935986 0.1072262 -0.14467472 -0.034081798 0.07557139 0.26260355 -0.16823074 0.15485327 0.032905612 -0.13966404 -0.006784828 -0.04660228 -0.4713436 -0.03665896 -0.14396396 -0.39843825 -0.16897652 0.097634204 -0.1546954 -0.49165642 0.27475208 -0.17394987 -0.12925681 -0.31859022 -0.45171657 -0.24350743 -0.10206135 -0.10365094 -0.069064565 -0.25427166 0.032042716 0.07772438 -0.26786712 -0.08748578 -0.111765236 -0.03099701 0.24495608 0.06180496 -0.14100935 -0.03603969 0.15192223 0.056372374 0.22190467 -0.25288248 -0.06360768 -0.119950235 -0.15299429 -0.080398045 -0.20874865 0.33755362 0.06943237 -0.05667397 -0.017426768 0.11479094 0.054573108 -0.109915055 -0.27039555 -0.21473074 -0.0014089614 0.24662559 0.16342486 0.33884665 0.18735111 0.13262579 0.19457126 -0.09739454 -0.04715281 -0.17002125 0.07656772 -0.1031418 0.08837227 -0.090206906 0.057018418 0.43674895 0.008482977 0.025820186 0.17424372 0.16701837 -0.32742155 0.09169409 0.192479 -0.13428487 -0.3285357 -0.15749869 -0.07857639 0.23132339 -0.16704634 -0.0017483085 0.3779744 0.03683142 -0.0013557121 -0.079398304 -0.2282322 0.25860423 -0.2183024 -0.10914429 0.12616014 0.16129392 0.12739192 -0.16410096 -0.07174449 0.16256402 -0.1515521 0.026567994 -0.01372222 -0.21064763 0.11405376 0.10296087 -0.02688409 0.05402742 -0.058750354 0.09451489 -0.45068672 -0.06779976 0.23390357 0.14337248 -0.077265814 -0.14451528 0.16547284 0.027461216 -0.06662805 0.06725064 0.12635005
5558 0.03849634 -0.10388547 -0.030781114 0.10520626 -0.09724791 0.05173358 0.03434971 -0.040665135 -0.018609608 0.1964827 0.34009266 0.0015782226 0.036624383 -0.13602112 0.056877203 0.117961556 -0.12743552 -0.16774747 0.20561546 0.2270242 0.021874204 -0.06795295 -0.26821455 0.20719369 -0.21527624 0.17725013 -0.077806704 -0.022800367 0.03794416 -0.29342815 -0.15069032 -0.054903083 -0.09624898 0.2793323 -0.03486466 -0.0724602 -0.05812749 -0.15150556 0.06144711 -0.06438225 -0.07423652 0.19844735 0.024287894 -0.10852657 -0.28995785 -0.21933857 -0.11796338 0.022461204 -0.030557185 0.27455553 0.048403468 -0.06856696 0.058701236 -0.23390093 0.4031868 0.051416945 0.23396061 0.02131553 0.31710833 0.0682348 0.2583756 0.17918141 -0.22712947 -0.19504307 0.53926104 0.21464138 0.09810831 0.053192984 0.02150435 0.097426794 -0.22632293 -0.17954458 -0.17908171 0.068084344 -0.117497414 0.36128193 0.04425727 0.18704091 0.047018524 -0.21613145 -0.068288475 0.04240594 0.18417448 -0.33350134 0.078582205 -0.03291917 -0.54394335 -0.22709763 0.08744851 0.017769434 0.36972907 -0.2594451 -0.17892984 0.105470315 -0.093527585 0.106633194 0.08848414 -0.17467055 0.1282356 -0.07834137 0.3076634 0.074184045 0.31806597 0.4736264 0.09512031 0.034720402 0.24732858 -0.101434305 0.063890934 -0.17062896 -0.0723774 -0.07616874 0.06961307 0.039348718 -0.048977405 0.028481275 0.14201602 -0.18273099 0.012399195 0.11355091 0.20821375 -0.022771971 -0.008120944 0.14219454 -0.097781405 -0.21284126 0.3136538 -0.2887202
1628 0.022281116 -0.0047775637 -0.08898973 -0.14822258 -0.18059276 0.08737436 0.06396141 0.018504735 0.03065331 -0.2944574 -0.071599826 -0.022367219 0.028355608 0.100425415 -0.18792555 0.2541735 -0.12246846 -0.34985477 0.12963754 -0.19300264 0.050829045 -0.12852943 -0.012977778 -0.023481743 0.14630318 0.18178198 -0.0010237736 0.051814977 -0.27519575 0.12681207 -0.03863685 0.11403907 0.10469158 0.2037854 -0.046380404 0.10303873 -0.098110795 0.08049344 0.16830182 0.035904933 -0.08101473 -0.05065406 -0.038171858 0.010016503 0.018283691 -0.14719325 -0.118959 0.07409656 0.019887894 -0.14346251 0.077015534 -0.0480503 -0.04884641 -0.24344084 0.28049293 -0.054614324 -0.032665927 0.04044442 0.08643596 0.04209132 -0.1490249 0.13124576 -0.07130625 -0.04775537 0.097064845 0.18219002 0.08943964 0.112909146 0.25506222 -0.14357108 0.057932932 -0.042937227 -0.048210606 -0.11250139 -0.054462694 0.057273164 0.059274115 0.17092192 0.052532353 0.063149065 -0.022249809 0.17462392 0.16058837 -0.09455938 0.043980528 0.17277405 -0.046354055 -0.2930773 -0.24832849 0.11300206 0.058749687 0.14243358 -0.05531922 0.18502104 -0.22835054 -0.13782509 0.007394961 0.08434139 0.011147508 0.045166016 0.259515 -0.09961392 -0.028587542 0.04883214 0.016433204 -0.042414185 -0.055655893 0.19169025 0.086856656 0.06859531 0.11500715 0.081191756 0.25177842 -0.25710064 0.0059335474 -0.111662894 0.010712926 -0.17889538 -0.23674959 -0.011970333 0.2535668 -0.031919736 -0.050666247 -0.0695905 -0.06585925 -0.11998872 0.14026006 0.01031084
5390 -0.054837953 -0.10362067 -0.29687038 0.15114117 -0.10564328 -0.028644834 0.18462396 0.17251073 -0.011628677 -0.02600923 0.049880832 0.26574123 0.099054664 -0.0938601 0.11963038 0.08325653 0.08464901 -0.025300885 -0.0016943765 0.22359505 -0.033782594 -0.12592886 -0.12670486 0.0032355739 -0.12375212 0.28611538 -0.32688078 0.12961039 0.11559654 -0.255621 -0.020651735 0.046280146 -0.074179985 -0.07484649 -0.011850907 0.28351566 -0.27387998 -0.03318406 0.19113144 0.19944139 0.14632542 -0.20771317 -0.22797012 -0.0049527935 0.14971095 -0.16121978 -0.23108369 0.25883296 0.04522461 -0.29486117 -0.09771875 0.13744266 0.09372984 0.06877149 0.2872046 -0.119249895 -0.28888664 0.110104546 0.16289546 -0.06952863 0.23888038 0.2743449 0.06308097 0.030551024 0.1822484 0.085570805 0.37743253 0.33208817 0.15880617 0.038972538 -0.094207115 -0.055381425 0.01507593 -0.0805522 0.001424297 0.0017920015 0.049699474 -0.042304054 0.26983285 0.14304952 0.0041775843 0.13859698 0.18425363 -0.07067572 -0.24878034 -0.055117596 0.07154011 0.043524537 -0.0013112125 0.16065244 0.0782161 -0.011148385 -0.09770272 0.19687562 -0.17955056 -0.19527514 0.12656157 -0.18904899 -0.05568858 -0.27903974 0.020378694 0.20214562 0.3058925 -0.15521017 -0.097067624 0.09869934 -0.08995842 -0.26147047 -0.075552 -0.0107795345 0.11383766 0.21376579 0.3273857 0.18323374 -0.024218459 -0.03850782 -0.030829437 -0.28061742 -0.17781308 -0.4263835 0.15415773 -0.25337896 -0.2712386 -0.15471493 -0.6109897 -0.24596475 -0.1742159 0.07312418
3634 0.17462175 -0.1044443 -0.053306572 0.11636772 -0.09577489 -0.029023718 0.23010693 0.009811104 -0.05921446 -0.24093592 0.31515342 0.06937508 0.26985708 0.13974737 0.19228192 0.12760656 -0.16824974 0.038616102 0.09521132 -0.2357739 -0.038800217 0.0017990022 -0.018210143 -0.03588145 -0.1645642 0.046939358 -0.3273574 -0.21450633 -0.11976574 -0.08768608 0.0053147697 0.05573629 -0.17947447 0.025160844 0.00092092715 -0.05466075 -0.23795676 0.11622496 -0.022953283 -0.13247843 0.051769894 -0.26315928 -0.062499635 -0.09546074 0.07108611 0.04691366 0.11742873 0.14099509 0.16207328 -0.0247856 0.08666236 0.099685036 0.06448694 -0.10139686 -0.16327636 0.1688077 -0.010709389 -0.10837743 0.14315799 -0.15878358 0.21138434 0.116053775 -0.067473225 -0.019173253 0.097567275 -0.04804569 0.27589092 0.30166695 0.09798448 0.18075593 -0.0010689185 -0.31523404 0.15331109 -0.12920319 -0.17734689 0.09219105 0.13523352 -0.028694354 -0.014767072 -0.23844595 -0.03680198 0.20494308 0.061681516 -0.18044642 0.08170631 -0.020850183 -0.22496274 0.116911136 -0.04001141 -0.19978634 -0.049538143 0.004942044 -0.21802512 -0.036413662 0.10840691 -0.12537938 -0.03705453 0.08023981 0.021471346 0.057996664 0.08891397 -0.016743865 -0.15768263 0.22791156 0.036577426 0.05140314 0.13454622 -0.13170451 0.18705891 -0.041548364 0.06769327 -0.033058356 -0.025678676 -0.22622918 0.1794562 0.14262003 0.1192427 -0.19486302 0.07387849 -0.14278658 0.08768093 0.046757992 0.056544345 -0.014498107 -0.19673117 -0.21427839 0.07057549 0.18112703
4985 -0.047295578 0.17331433 -0.12929043 0.060790244 0.14309411 0.010861609 0.10119199 -0.30573604 0.016249359 0.17267339 0.29015052 0.06568461 0.06775645 -0.19192183 0.15017003 -0.08485548 -0.09083255 -0.15303577 0.1486814 -0.10591278 0.028073372 0.09380493 0.104886 -0.098947234 -0.031448476 0.053167306 -0.17558475 -0.040236842 -0.035330173 -0.06277152 -0.0018024809 0.08824538 -0.019596009 -0.2679737 -0.18004379 -0.008305861 0.14969584 0.098761715 0.11930829 -0.006858435 -0.08087484 -0.21827519 -0.052847482 -0.08645568 -0.016996559 -0.20966303 0.10733019 -0.0016765742 0.17003785 -0.115001574 -0.23510566 0.14937979 0.19882776 -0.35388753 0.111967646 0.1550817 0.23036395 0.10643649 -0.012538378 -0.19779988 0.0028475788 0.09567044 -0.046231166 0.11673767 0.16860032 0.065692455 0.1289491 0.066470206 0.2819974 -0.06394669 -0.06946696 -0.07310775 0.113721274 -0.0048455987 -0.18394507 0.024090953 -0.0970681 0.13160345 0.1485884 -0.13322197 0.103611216 0.079556346 -0.022105053 -0.10154752 0.07502288 0.03540622 -0.42641407 -0.056842722 0.0914289 -0.05482914 -0.016724084 0.11981269 0.029675633 0.024323365 0.07341109 -0.12408927 -0.08526582 -0.025437033 0.11628551 -0.042444002 -0.08581327 0.12692167 0.16855252 0.092933945 -0.14519171 -0.045124236 0.20289719 -0.0830505 -0.008189928 0.042007104 -0.050261382 -0.017259955 0.0010956144 0.075223416 0.0006514143 -0.022214493 0.0333817 0.053334896 -0.102488205 -0.04609413 0.14696528 0.18743451 0.17379805 0.15891166 -0.14509775 -0.33250257 -0.14311957 0.03473145
