439 128
5135 0.0483606 -0.041223522 0.035021756 -0.17008512 -0.024152892 0.24766164 -0.18382247 -0.2918568 0.1344974 -0.10624041 -0.15013555 -0.0060961624 0.3471894 0.09850366 0.027570525 0.053470284 -0.025821367 0.24638124 0.057184905 0.20352232 -0.028942252 0.051119782 0.12124405 0.21232355 0.07893202 0.089006186 0.024061374 -0.06533666 0.13796747 -0.081827715 -0.13915274 0.07266468 0.028004436 0.0858696 0.2997988 0.012013547 0.009330568 0.10854965 0.239685 -0.072200015 -0.17600338 -0.15126327 0.010841971 0.12883599 0.09421231 0.09663182 -0.08307012 -0.11902495 -0.03616835 0.0049959677 -0.14921416 0.028408637 0.1245288 0.015569326 0.18828157 0.012946904 0.031252276 0.07097752 0.014819313 0.09233321 0.084499925 0.21333423 0.02746218 -0.0104565155 -0.18832281 -0.14611697 -0.17617644 -0.14570153 -0.28953433 -0.19205104 0.22758481 0.08057203 0.030218283 0.13871744 0.27937487 0.23566814 -0.13876857 -0.12508951 0.21756099 0.20255898 -0.15574907 -0.045313865 0.042443488 0.039425585 0.04717741 0.08561226 -0.061572563 -0.01715288 -0.025236366 0.032388676 0.26167107 0.07022804 0.15812056 0.043798514 0.05735925 -0.107413456 0.060068075 -0.0358889 0.13113093 0.118831895 0.13451922 -0.08339464 -0.06976173 -0.022094581 -0.17873712 -0.29357538 0.00850211 -0.18456915 -0.090748005 -0.17752163 -0.1488479 -0.26933175 -0.13225687 -0.035809647 -0.18072377 -0.07382857 -0.30350864 0.021831334 -0.06344101 0.18205927 -0.043491613 -0.06351446 -0.02801792 -0.09077238 0.16311412 0.13222988 0.23693232 -0.31665465
5 0.3728617 0.07716614 -0.06945492 -0.12234544 -0.012127927 0.1790138 -0.06259754 0.008042605 -0.053003505 0.11732573 -0.04460273 0.07330725 0.23754044 0.07855273 -0.18941881 -0.27832082 0.2055181 0.003309836 0.017807722 0.18089235 -0.062171254 0.18508184 0.16700047 0.0015729564 -0.10972913 0.16449289 -0.20697403 -0.16109967 -0.11442894 0.14420849 0.068180144 -0.028819963 -0.1590142 0.24384454 0.20794053 -0.06554021 -0.010447473 -0.035778537 -0.086028896 -0.06310035 -0.13537072 -0.03945639 0.127427 -0.1302882 0.18166067 -0.21826893 -0.22424394 -0.20444193 -0.3847114 -0.13521025 0.027247345 0.31791562 -0.2646157 0.2956305 0.07509153 0.09022871 -0.0252768 0.12595446 -0.19216427 0.06423563 -0.39617327 -0.09441787 -0.08477354 -0.23162591 -0.026208697 -0.080864556 -0.08768596 -0.008043363 -0.04518175 0.027999498 0.1259447 -0.097801276 0.0024145062 -0.0433039 0.023597986 -0.064080544 -0.02559324 0.09107274 0.25496194 0.12580742 -0.31065598 -0.14108293 0.05018646 -0.10613037 0.005838888 0.031143023 -0.21186627 -0.18410538 0.027984273 0.044427805 -0.0753984 0.1634683 0.01639437 -0.034095474 0.10470034 -0.12640616 0.0411679 -0.11925693 0.06355141 0.049815692 -0.095350415 -0.14201577 0.17638326 0.14678103 -0.109050095 -0.051122144 0.09132391 0.25703052 -0.1443448 0.18697543 -0.059755426 -0.27252802 -0.102921404 0.09474804 -0.0052393214 0.079251565 -0.21476509 -0.03908956 0.12790446 -0.12894642 -0.009560733 -0.044203 0.4484387 -0.14070098 0.14491004 0.22349685 0.32335034 0.069195755
4854 0.024460915 0.14326152 -0.06306385 -0.275873 -0.07981235 0.012427776 -0.017613862 0.11084772 0.11220637 0.0948489 -0.25418884 -0.0698246 0.31957138 -0.06778488 0.0073918584 -0.17344348 -0.029299626 0.0822838 -0.06267215 -0.043096982 -0.17140822 0.13110249 0.005260735 0.024966415 0.06887165 0.0021952842 -0.0059474655 0.015535104 -0.40569106 -0.021194944 0.039398465 0.056481972 0.04541521 0.1509545 -0.1695804 -0.06460603 0.22207563 -0.05350745 0.1765421 0.090076685 -0.24745806 0.16477896 0.20223387 -0.19646487 0.0112924175 -0.09573392 0.11818847 -0.24881727 0.19003992 0.06810022 0.14106046 0.0063091973 0.08808388 0.07039837 -0.047625028 -0.10111052 -0.18303552 -0.010958869 0.061541185 0.1088467 -0.19054693 0.106379926 -0.19075398 -0.061978966 -0.11436196 -0.14410828 0.19139872 0.13367507 -0.0786484 -0.028883778 0.10232151 -0.10355036 0.12182784 -0.10146109 0.04330092 -0.02190378 -0.14198956 -0.02547153 0.051758043 -0.055313114 -0.058492377 -0.114793114 0.11020735 -0.043222748 -0.08489078 0.045466878 0.022250865 -0.08709979 0.08713903 -0.063895494 -0.18660061 0.17626992 0.17924148 0.022827603 0.13965875 -0.047725838 -0.34609556 0.14128219 0.10028754 -0.066343024 -0.08386022 -0.04776256 0.10723794 0.48730993 -0.11384138 0.045732964 0.055070274 -0.17854373 0.021913765 -0.10488597 0.043572165 -0.035296615 0.31851494 -0.16043672 0.096577376 -0.071714476 -0.14021663 0.113046095 0.20354733 0.030333078 0.054448977 0.012287801 0.16799581 0.006046883 0.29352134 0.30410016 0.07310687 -0.014152333
3623 0.24813326 0.09723758 0.22331242 -0.10579781 -0.0528366 0.051328454 -0.02798784 0.01836821 0.008674682 0.021812871 0.017771913 -0.18307032 0.1798526 0.11285098 0.019708266 -0.21062988 -0.20125374 0.18194394 -0.17012382 0.06713631 -0.02438851 0.14472438 -0.063395366 -0.033874508 -0.04151555 -0.2477986 -0.1325265 0.016035967 -0.12525208 0.041334625 0.09142748 0.038841493 0.045561187 0.022468656 -0.1898463 -0.14500837 -0.050860953 -0.16961971 0.20364402 -0.053630162 -0.3556939 -0.24265204 0.14323652 -0.07604182 -0.11528836 -0.011769328 -0.013911766 -0.24228069 -0.0068625775 -0.008619199 -0.19710846 -0.09013862 -0.14187907 0.10408019 0.16000651 -0.11296755 -0.023498751 -0.091619045 -0.059638705 0.18276846 -0.3212041 0.009014827 -0.13119479 0.025692333 -0.09180193 0.08862923 0.14873429 0.12500304 0.090608366 0.09387199 0.10538029 -0.20620377 -0.004559695 0.13902234 -0.07760842 -0.06173317 -0.05354737 -0.14939739 0.15516034 0.0056478204 0.038567364 -0.09762754 0.09825659 0.04800478 -0.14648144 -0.05293883 0.057847846 -0.20505974 0.13147917 0.09650117 -0.062475044 0.049415298 0.14436732 0.010118545 0.34358338 -0.18810102 0.133473 -0.030805858 0.2700038 -0.2842745 -0.061340913 -0.31816703 -0.11150505 -0.028193781 -0.29579338 -0.109997205 -0.09906037 -0.20233384 -0.008867221 0.078755766 -0.09937152 -0.15715833 -0.08346223 0.12340551 0.059861626 -0.088990785 -0.05070356 0.027652109 0.015088563 -0.07777517 -0.17142072 0.087487765 -0.04318257 -0.025265062 0.19259581 0.22106062 0.02973342 -0.1575936
4171 0.051781897 -0.044409186 0.11865967 0.018379087 -0.10940286 0.047302485 0.124272764 -0.40918663 0.36185193 -0.07168479 -0.076386474 -0.07086625 0.010983973 -0.0075576683 -0.10481191 -0.17569938 0.004278748 -0.020545147 -0.048759997 0.0146425655 -0.11578671 -0.24911752 0.04405981 0.09568836 -0.08251192 -0.06145408 -0.048179034 0.14703721 -0.019487144 0.10409995 -0.003765647 -0.10946437 0.0666502 -0.19867025 -0.27738553 -0.1624816 0.22097033 -0.007739147 0.18923359 -0.07988916 -0.4658642 -0.0014436209 -0.13076775 0.09975574 0.2553412 0.1961812 0.09502585 -0.12932047 -0.2366073 0.21538912 -0.10902828 0.19180363 -0.07244565 0.23138496 -0.17131414 0.08785681 0.004649054 0.21595958 0.28249913 0.25072977 -0.027919363 0.104496345 0.15204836 -0.036132157 -0.18999897 -0.036012318 -0.15779766 0.1667498 -0.12957345 -0.1256819 0.20840804 0.095769316 -0.18347587 0.040795393 0.17396332 -0.046077404 -0.30504873 0.2028882 0.028859004 0.123322114 0.2460784 0.16735066 0.019741902 -0.03187869 0.118335254 0.11267038 -0.03652181 -0.118007824 0.17053054 -0.08681148 0.36157855 0.022760794 0.12420019 0.19669107 -0.051582705 -0.116231754 0.21155493 -0.038765162 0.17662556 -0.09102796 -0.13710678 -0.14892565 -0.0520769 0.15149266 0.068746425 -0.10528163 0.014041004 0.048453275 -0.21051486 -0.07887696 -0.092917904 0.02265593 -0.016622853 0.031079642 -0.20994523 -0.3224926 -0.27002534 0.15697765 0.020465072 0.10035117 -0.15400128 -0.03465888 0.27243596 0.09661969 0.110622115 0.18996286 0.14000605 -0.14368017
1494 0.012385185 0.06267246 -0.11132382 -0.34686 0.19805023 -0.16379838 -0.028477624 -0.15394504 -0.04159244 -0.12867077 0.02673865 -0.06897068 0.11745961 0.072676435 0.121865846 -0.18612416 -0.017171063 -0.063269794 0.023145469 0.03864632 -0.18477096 0.118271716 -0.13336855 0.047158364 -0.045722205 -0.09373877 0.12313385 0.14358129 0.018953234 0.03276083 -0.07676744 0.09559343 0.11354716 0.03316275 -0.044263598 -0.02305183 -0.04582158 0.019451456 0.016975831 0.08046515 0.15526804 -0.12155621 0.23474681 0.071271434 -0.009525543 0.009647575 -0.33506688 -0.0108517995 -0.022019744 0.05314718 -0.23714443 0.06466512 0.008188726 0.09084812 0.32500878 -0.1823086 -0.22779475 -0.0071695535 -0.009554153 0.27887776 -0.111582175 -0.027279932 -0.15125932 0.16612017 0.053356543 -0.46635178 0.21304592 0.18601733 -0.13284361 -0.07201067 0.051974654 -0.033770632 0.07610482 -0.2890368 -0.08531757 -0.07863551 -0.17534648 0.14202075 0.045126908 0.15286492 -0.0075089177 0.15280238 0.2642456 0.19170003 -0.10073887 0.020578962 -0.11931603 -0.23302458 -0.069860615 0.13086782 -0.076043956 0.055102352 0.048753757 0.07919423 0.03886787 -0.10661512 0.23617011 0.21281822 -0.018327734 0.032861214 0.13846706 -0.011586276 -0.17947488 0.12297551 0.024610328 -0.18347858 -0.2602301 0.1477872 -0.045004465 -0.031697635 0.066593826 -0.023412485 0.28209838 0.09013323 -0.028789276 0.07532862 -0.08522323 0.08342379 -0.12526351 0.13016339 0.2696211 0.05662124 0.09925159 0.26254502 0.11068124 0.23318599 0.19490926 -0.035231568
1595 -0.04050129 0.13846174 -0.029688949 -0.3442281 -0.20985845 0.098733604 -0.25857997 0.083531804 0.09871539 -0.10165326 -0.06684555 -0.08301342 -0.032450512 -0.029386373 -0.028013488 -0.06264108 -0.1759039 -0.11279709 0.042461086 0.106547065 -0.23517342 0.089553654 0.08674441 -0.14149559 -0.21953595 -0.15297817 0.16885716 -0.028896447 -0.13370265 -0.207262 0.014406567 -0.1671872 -0.011801315 0.19892842 -0.056014378 -0.1714415 0.14634462 -0.05948527 0.092715435 -0.13004932 0.021671133 -0.14443591 -0.034505095 0.16744584 0.031376045 -0.045406442 0.06797986 0.0641465 0.025233943 0.052188095 -0.24311619 0.1098099 -0.06679153 0.19493905 0.2841465 -0.32297185 -0.06850294 -0.029701274 -0.04589201 0.10500952 -0.08902549 0.28533778 0.12058053 -0.21543615 0.13781528 0.09713551 -0.028662283 0.29523715 0.077228054 0.022979135 0.4711437 0.073932044 0.010086291 0.10346455 0.12365011 -0.072154425 0.04302771 -0.018512173 0.093963765 0.10753434 0.10206606 -0.035311565 0.015035158 -0.09169148 0.11477226 -0.053465735 0.08953959 0.04382465 -0.17371592 0.13894603 -0.13865437 0.14512385 -0.056590546 0.040921465 0.24315195 0.067059375 -0.015997862 -0.021249473 -0.05112339 0.08916543 0.08047069 -0.1270573 0.0492117 0.043790035 -0.21154152 -0.036184408 -0.0322788 -0.11687161 0.009055476 -0.0060869106 -0.13827096 0.047202524 -0.16488202 0.26886323 -0.016094718 0.13986507 0.17976125 -0.012716517 0.038248297 0.19787303 -0.016434077 0.06768733 0.2437225 0.08362053 0.39559698 0.48280314 -0.18793659 -0.028935257
339 0.12608302 0.2184414 0.28619257 0.06336357 -0.19875523 0.0007682064 -0.4336914 0.10768671 0.13270795 0.09888425 -0.08856768 0.08006715 0.2638556 0.016665246 -0.27536362 -0.28997508 -0.29667816 -0.009363963 -0.12488136 0.09630404 0.012878068 -0.1699568 -0.07216972 0.087625936 0.027631927 -0.072392695 -0.14555678 0.013841201 -0.12036249 0.2233685 0.094289996 -0.123531595 -0.12787575 -0.0057034334 -0.14086924 -0.16092128 -0.08693448 0.15541737 -0.038422957 0.031841516 -0.18451975 -0.120556735 -0.05485121 -0.14421521 -0.0016854778 -0.14980707 0.020918684 -0.18330187 -0.257163 0.2945891 -0.2617803 0.15969877 0.23826288 -0.031264123 0.11135829 0.08548284 0.2154232 0.08588696 0.0902837 0.13551667 -0.15653594 0.090479136 -0.057208303 -0.11652677 0.0051451894 -0.13612947 0.062117532 -0.14653204 -0.039702103 -0.014449056 -0.112529926 -0.15358965 -0.008378302 0.17648974 -0.05279677 -0.2840629 -0.20215039 -0.09103728 0.10527124 0.4106868 0.025260776 -0.29855227 0.09234237 0.03903776 -0.18703678 -0.11291951 -0.054479804 0.06838033 -0.078690305 0.16516678 -0.085677855 0.114272736 0.22160162 -0.08626465 -0.12842222 -0.080766045 -0.11553238 0.013577333 0.17307635 -0.067948334 -0.25197148 -0.15204793 -0.057736766 0.25756076 0.009817833 -0.22251345 -0.123769276 -0.16777395 -0.08074968 0.013787504 0.015991757 0.17618324 -0.105569534 0.09862773 0.04981362 0.027437493 -0.17163645 0.13085698 -0.11433211 0.055119712 0.06436554 -0.115015924 -0.008348867 -0.14721051 0.022920102 -0.01475693 0.32815754 -0.16360907
1049 -0.1708793 -0.006681641 -0.15637787 -0.06197426 -0.17264909 -0.09672304 -0.102388225 -0.0761321 0.2255543 0.062283967 -0.07929433 0.21439362 -0.056684375 -0.112572886 0.05626362 0.096797965 -0.04111521 0.36595532 0.052641716 -0.03831054 -0.1805168 0.092622265 0.118988186 0.118044205 -0.0446076 -0.08303993 0.15310863 0.10757595 -0.0060898736 -0.081571184 0.06438757 -0.038491417 -0.09052266 -0.07843522 -0.11236481 0.09250389 -0.30039537 0.16592768 0.0063153133 -0.20162828 -0.15232165 -0.024454247 0.01915311 0.1528726 -0.02135095 0.10334126 -0.030547317 -0.06279977 0.13247125 -0.09315445 0.16786711 0.04199218 -0.027637845 0.04740889 -0.10372736 0.04996241 -0.11880029 -0.15258229 0.08202045 0.23249818 -0.05996878 0.16319525 0.23187819 0.061321635 0.15340748 -0.046919484 0.021443829 0.25121912 0.11543828 -0.07643263 -0.10742477 -0.1786592 -0.010817909 -0.18815811 0.105260685 0.016549664 0.051200207 0.10962658 0.005797295 0.22420903 -0.041291513 0.13240778 0.35159606 -0.22288059 -0.1584743 0.06797093 -0.06591687 0.109458946 -0.07959293 -0.04167601 0.059508972 0.32614088 -0.20105077 -0.22473264 -0.149427 -0.14042419 -0.116689466 0.3309906 0.063823365 -0.06896515 -0.09401035 -0.034441836 0.012187471 0.18045461 -0.3191159 -0.00027812296 0.07373296 -0.006775074 -0.28642562 -0.23427854 0.11093749 -0.29369304 0.11207073 0.14484163 0.14782171 -0.0051669315 -0.2830343 -0.043711264 -0.2410723 0.14384621 -0.0136518115 0.11212984 0.089770265 0.24133243 0.12554216 0.19621044 0.2665783 -0.34317675
3838 0.15786862 -0.13634731 -0.08465065 -0.068572134 -0.045264214 -0.1078304 0.05615012 -0.0026891178 0.2020094 -0.024617737 -0.048436992 0.11347635 0.12700266 -0.021610161 0.12268878 0.24496509 0.027348476 -0.040223587 -0.1944362 0.24621521 -0.27994874 0.03524639 -0.11986804 -0.06573153 0.21291578 -0.122003555 -0.07410556 0.18414009 -0.32730162 0.09487002 -0.055319827 -0.35142088 0.102881834 0.12154304 0.10199028 -0.07454678 0.10823326 -0.11098284 0.20596868 -0.053805813 -0.15791766 -0.082164384 0.14855506 0.0040303483 0.23351982 -0.07125818 0.14704621 -0.5011165 0.0029772082 -0.20302905 -0.038041666 0.015918773 0.22235844 0.11681218 -0.006522809 -0.24158192 -0.1595418 0.18568218 0.038101345 0.18254746 -0.17001559 0.010676455 0.057512276 -0.08158915 -0.014548218 -0.15880427 0.21579583 0.08274606 0.015211261 -0.1422986 0.071136445 0.12227614 0.009553633 -0.013137759 -0.06648376 -0.0474019 -0.16713502 0.034127798 -0.01238969 0.08838251 -0.06454003 -0.1391021 0.34219483 -0.13987245 -0.030299082 -0.043400016 -0.18315509 -0.0444743 -0.048500836 0.23294093 0.09367314 0.2786867 -0.12235599 -0.13363563 0.1411934 -0.23256035 -0.062388126 -0.054497223 -0.06608808 -0.15119708 -0.35052973 -0.260786 0.13217984 0.018875489 -0.0068063224 -0.18813244 -0.13165854 0.046173006 -0.07652805 -0.16610748 0.08149637 0.15177888 -0.19228266 -0.15157053 -0.080005355 -0.049215302 -0.13311188 -0.15045802 0.29409662 0.025652368 -0.12456294 7.1350856e-05 0.07395057 0.05998777 0.19283526 0.46849543 0.019422146 -0.11397668
3300 0.101991996 -0.048600607 0.030161751 -0.13620597 -0.22558643 0.09368312 0.21835041 -0.078403525 0.31531402 -0.10117297 0.12666461 -0.03966872 -0.03172232 -0.48900273 -0.030712044 -0.124593236 -0.28591254 0.24280748 0.13182357 0.028937496 -0.0059872433 0.12431729 0.04786387 -0.15075304 0.1715518 -0.02763085 -0.015088836 -0.017147293 -0.0015235221 0.15409014 0.0069922274 -0.10583904 0.4021779 0.09440637 0.019380655 -0.08319164 -0.3308409 -0.17336118 0.22918712 0.03434567 -0.07082623 0.10117487 0.13059242 -0.05157195 0.08951844 0.10359335 -0.33147871 -0.22402792 0.22869775 -0.25488076 -0.15887702 0.026207007 0.2443895 -0.23782137 -0.024534883 -0.14943248 0.20387323 -0.09160905 -0.15084009 0.26072636 -0.15627308 -0.057955366 0.032423675 0.11025482 0.26827526 -0.008453948 -0.19068104 0.21547087 0.03410419 0.043650802 -0.007643897 -0.063376 -0.021076342 -0.09022515 0.008440803 -0.09365513 -0.12168333 -0.12142611 -0.1335552 0.21999499 0.04523226 0.07726845 -0.015513827 0.09719403 0.18075047 0.23560308 -0.17840041 -0.055749923 -0.18181072 0.108772285 -0.11288974 -0.017963115 0.21329501 0.16408612 0.18252017 0.31024823 -0.0327504 0.04503159 0.12420656 -0.13220875 0.12618941 -0.08620303 -0.0010685974 0.34134096 -0.044323504 -0.11382893 0.014654399 0.13322185 -0.10822599 0.12806416 0.17352782 -0.08160629 -0.3209932 -0.15361048 -0.18541229 0.13893446 -0.081850715 0.08241734 0.047933687 -0.040491957 -0.26070288 -0.08874814 0.18643692 0.043979805 0.002257479 0.12498414 0.15598056 -0.10969825
5020 0.054999318 -0.11628515 -0.1867297 -0.10054623 -0.21762913 0.034749437 -0.4243769 0.0061245966 0.2533914 -0.16688538 0.047497 0.15469117 -0.07375344 0.021843113 0.012704491 -0.0061696856 -0.22061051 -0.012715028 -0.27427605 0.0082454365 0.24296509 0.07780159 0.14069961 -0.124187514 0.26333886 -0.049089216 0.028132567 -0.12356215 0.065616064 0.019220095 -0.2452091 -0.04480915 -0.06572536 0.12649797 0.026648771 -0.05844574 0.09097957 0.1464849 0.014429307 0.10852234 0.021730827 -0.09236601 0.032357484 -0.46834597 0.12521663 0.34261963 0.025071813 0.16580655 -0.009066366 0.11797852 0.13348861 -0.05846385 -0.026803603 0.3262587 -0.15874906 -0.08042001 0.014667572 0.22450861 -0.017833404 0.26990587 -0.15251483 0.11852355 -0.094374605 0.07855225 -0.071388304 0.22321875 0.07599732 0.23070464 0.061563626 -0.17134662 0.04872374 0.12218292 -0.15208489 0.10673877 -0.0798565 -0.2067105 0.034923848 -0.2062674 -0.04909128 0.24566872 -0.0050559887 -0.044885237 0.06262854 -0.14798103 0.123863995 0.055077143 -0.20978992 -0.17486352 0.057889998 0.040883664 0.04300924 0.17754295 0.2956453 0.111527644 0.028265588 -0.11504282 -0.082765795 0.2402465 0.110229164 0.00015785603 0.09610222 -0.17698215 0.069779634 -0.11234136 -0.13388175 -0.15212698 -0.31037965 0.25941345 0.16767891 0.12092735 0.12055291 -0.020874068 0.09054624 0.10965805 0.13501537 -0.15276203 -0.1437605 -0.05530618 -0.13897993 0.43314576 -0.08120229 -0.02692022 -0.09635218 -0.031848606 0.18734986 0.26685482 0.004425676 -0.26254514
3994 -0.2046473 -0.065006144 0.03795285 0.013713323 -0.35251948 0.13445899 0.087147266 -0.0566494 0.121380106 0.19495796 -0.06571393 0.049290296 0.2571835 -0.13275017 -0.076911345 -0.27075493 -0.18832408 -0.05373479 -0.031410366 0.1515834 0.06999357 0.07423308 -0.2102749 -0.15380648 0.053409953 0.08191332 -0.10109124 0.0071221218 -0.19192316 0.007886432 -0.030047148 0.0027889824 0.21278124 -0.03639191 0.07793984 0.029741095 -0.00801551 0.10338544 0.12880583 0.032016125 -0.13027158 0.0978997 -0.10607463 -0.21288382 -0.038483493 0.15726453 0.009631944 -0.10834957 -0.0687349 0.10171155 -0.03938084 0.059120387 -0.1656735 0.11048558 0.14640279 0.037298515 -0.09296059 -0.04088538 0.035715934 -0.03260098 -0.002678764 0.327895 -0.31161898 0.09895471 -0.24110487 -0.25146818 0.031995863 -0.099312596 0.03970669 0.17634705 0.0765073 0.016218448 0.12282654 -0.24910991 -0.121305265 -0.02927125 0.21171378 0.018162489 0.14071836 0.039065007 0.034528032 -0.06295676 0.28149694 0.015740344 -0.11906497 -0.10246605 -0.17175658 0.12082147 0.26483944 -0.22227094 -0.11483083 -0.11861242 0.34927136 -0.10973872 0.122905895 0.06987873 0.06613223 0.14618611 0.27355957 -0.27546737 -0.032612856 -0.06431976 -0.11923827 0.30941665 -0.39622173 -0.17030299 -0.002592546 -0.05893561 -0.045851823 0.037582953 -0.16324069 0.26397777 -0.1943641 -0.1675592 -0.25905576 0.1911669 0.016610272 0.10573938 0.13400863 -0.04330079 -0.29248726 0.45777604 0.17391703 0.04375056 -0.03631372 0.5392501 0.048383627 -0.25230718
916 0.22910272 -0.08946445 0.019813977 -0.3012078 0.06157305 0.09930559 0.09128996 -0.060208496 0.42067054 0.06995612 -0.10173958 0.3432477 0.12586711 -0.10435104 0.038330965 0.21554397 -0.17342888 0.08724293 -0.1396581 -0.0136607075 -0.189467 -0.005020462 -0.2018545 -0.11764934 0.004759751 -0.24074967 0.12395272 0.15234767 -0.3779243 0.3110795 -0.022539686 -0.044956673 -0.18217492 -0.09178633 0.05515645 0.21604252 -0.2538183 -0.017115192 0.14837426 -0.08162039 -0.11605516 0.079231575 0.09921739 -0.30268088 -0.108846426 -0.19051084 0.026510103 -0.0021535698 -0.24419515 0.07477731 -0.13252492 0.15403542 -0.06703794 0.15262802 0.055440973 0.06292223 -0.19159415 0.027392425 -0.0746204 -0.28654644 0.12486957 0.16494441 0.13574298 -0.22571653 -0.0021802576 -0.21950266 0.058639105 0.45897344 0.059558213 0.16839199 -0.048404343 -0.08465637 -0.12459074 0.24950285 0.13698947 0.0533666 -0.09933308 0.22204445 -0.115333214 0.0696393 0.11070176 0.17488018 -0.07055191 -0.14651047 -0.0034242196 0.09849085 -0.07782079 -0.333163 0.106565244 0.08377064 0.26381937 0.29741317 0.1864311 -0.10092657 0.12981662 -0.008140353 -0.012143649 0.033742104 -0.001806016 0.13155572 0.01778215 0.055035006 -0.108406454 0.084742375 -0.21744761 -0.30992198 -0.02283607 0.16685146 0.27978888 0.12352869 0.045097988 -0.01964728 -0.20141453 0.2715785 0.024869038 0.30093762 -0.05804228 -0.055392087 -0.04618098 0.13527966 -0.2428056 0.17917418 0.17744395 0.030696739 0.46446365 0.06320841 0.25495386 -0.019889213
5789 -0.1078262 -0.18969388 -0.12780589 -0.15378146 -0.12450359 -0.18514845 0.21671927 -0.23141702 0.074854985 -0.2255721 -0.058498718 -0.12232753 0.027732173 -0.08201237 -0.25234166 -0.008321862 -0.37546572 -0.21809936 0.058273353 0.18390425 -0.13581534 0.17034039 0.08657136 0.025634056 0.36106402 -0.10077451 0.037676744 0.09382588 0.15259047 -0.16786715 -0.23532905 -0.25218812 -0.096244656 -0.009732812 0.16191801 -0.17629759 -0.16596636 0.019854026 0.071532466 -0.08704844 -0.030423632 -0.04021333 -0.035899814 -0.21077399 0.05313287 0.20805255 -0.10119062 0.2582434 -0.12653032 0.17593496 0.060999252 0.2637701 -0.09570553 0.18630275 0.17619623 -0.017566921 0.08434637 0.136319 0.008098978 0.2277101 0.10080892 0.11857144 -0.00092788367 -0.1736858 -0.07422063 -0.06229603 0.11614636 -0.21728063 0.08759992 0.15207626 -0.06670983 0.22282302 -0.39316913 0.38820526 0.15345567 0.13686511 -0.18171264 0.043548893 0.24375579 0.19454254 0.1912045 -0.023638107 -0.1345687 -0.07164578 -0.26744553 0.17656411 -0.18304653 -0.26619846 -0.04946085 0.09194561 0.01025351 0.37329972 0.23724884 0.20697924 0.0130236 -0.21515755 -0.16207376 0.16660209 0.15986489 -0.044673536 -0.22872168 -0.24247862 0.04488698 0.08276802 -0.21349686 -0.047859494 -0.0888391 -0.05846788 -0.014721836 -0.16792563 0.14637917 -0.1937415 -0.18537503 0.11044697 0.21233594 -0.07111373 -0.0051949997 -0.16627859 0.13460992 0.011392755 0.16281003 0.045694605 0.027147977 0.15726343 0.11769076 0.05586385 0.32482326 0.057615533
5345 0.08729342 -0.13340859 0.094640136 0.11663899 -0.08503247 -0.060054235 -0.3063987 -0.10834886 0.13521181 -0.031190988 -0.1916542 0.10588057 0.25005814 -0.017380906 0.04110763 0.02460735 -0.2882212 0.038785186 -0.08900813 -0.11922702 0.19726953 -0.18538634 0.06434232 0.18666023 0.22177769 -0.03965531 0.16016711 -0.22554694 -0.11116245 -0.017460287 -0.20325024 -0.020535829 0.026371932 0.268773 0.16302146 0.030737394 0.01008075 0.26957083 0.20169543 -0.052174184 0.0020257593 -0.06077476 -0.096548244 -0.24551022 0.2793077 -0.14925423 0.14813696 -0.100138396 -0.26993656 0.08204784 -0.005343439 -0.022636563 0.061618946 0.13361296 0.011715104 0.10338645 -0.011208085 0.05013469 0.1788566 0.23627377 -0.13230808 0.044544503 -0.2628691 0.15087608 -0.101340644 -0.119753376 0.11154052 0.18914796 -0.042402707 0.06467831 0.054995146 0.034724146 -0.1898757 0.1376932 -0.03749882 -0.114491045 -0.24214096 -0.1490081 -0.064762436 -0.004978194 0.33527797 -0.30219072 -0.22531563 -0.014475616 -0.42949033 0.17100008 -0.3757798 -0.1823604 -0.086355634 0.25447083 0.11108409 -0.021535426 0.29999226 0.37567353 -0.038441278 -0.16685918 0.0031030572 0.18549678 -0.20895596 0.10732898 0.1468982 0.02981678 0.13113648 0.023925826 -0.12082972 -0.09388351 -0.14228842 -0.020801488 -0.21049574 0.03535551 -0.10304425 -0.3191452 -0.10658125 -0.0024098894 -0.07604778 0.090408064 -0.19256984 -0.014454467 -0.21014829 0.33673328 -0.01569515 0.023736615 -0.06531368 0.09422555 0.24654873 -0.019651756 0.18531066 -0.046419505
5463 0.06612215 0.2975903 -0.03758632 -0.07118347 -0.04607988 -0.06483766 0.0049901875 -0.23533869 0.017945549 -0.04799138 -0.13056472 -0.18311599 0.07214449 -0.028820597 0.019816786 0.032685004 -0.15991217 0.112504326 -0.08664491 -0.11760882 -0.113617085 0.105256915 -0.20149794 -0.032575514 -0.23165987 -0.20923418 0.14106452 -0.06056362 -0.14166328 -0.24044994 -0.09421079 -0.1285697 0.07361949 -0.040487044 0.13072214 -0.084020585 -0.031341646 -0.016058184 0.07115916 0.075607605 -0.17119043 -0.026223905 0.16638523 -0.021515064 0.11840077 0.070481725 0.12598744 -0.10680335 0.015798708 0.06910244 -0.044211227 -0.15563588 0.1256222 0.22208598 -0.11071421 -0.061153747 -0.08818624 -0.11125754 0.18700181 0.054686934 -0.07781718 0.045221888 -0.016759774 -0.06554666 0.11184423 -0.14875779 0.022827195 -0.053427853 -0.19223012 -0.07669864 -0.051569115 -0.006577135 0.10453683 -0.3004016 0.19728567 -0.025425667 -0.09492425 0.24726367 0.08458867 -0.106814966 0.08754014 -0.084271505 0.11668731 -0.027259478 -0.025467655 0.12020853 -0.32287914 -0.13469356 0.30301917 -0.117856085 -0.17229663 0.08444704 -0.05485789 0.023256917 0.34050313 0.0791728 -0.13783072 0.045055114 -0.04629434 0.37075746 -0.053459264 -0.051062558 -0.061980393 0.27756205 -0.31879374 0.06928236 -0.019136256 0.17447953 0.09245884 -0.0883476 0.0009956338 -0.09540288 0.08176735 0.15566503 -0.05162656 -0.016949004 -0.12600337 -0.14222008 -0.12693572 0.28636 0.2594936 -0.1807211 -0.0489028 0.015933463 0.09192961 0.20170322 0.30305958 -0.14969815
4713 0.014666262 -0.09148543 -0.16812406 -0.24741852 -0.229748 -0.24607657 -0.12550749 -0.04610906 -0.042772017 0.017191347 -0.24131002 0.1365323 -0.107569516 -0.13540412 0.01919296 -0.20206212 0.03801558 0.28523928 -0.22330824 0.17944016 -0.050009236 -0.24736701 -0.22686131 -0.2123574 0.07849307 0.29943493 -0.18395299 0.1005311 -0.042139415 0.07738958 -0.065713376 -0.00935869 0.049892753 0.4079788 -0.11230447 0.089777194 -0.0065530366 -0.030749068 0.42456707 -0.09030047 -0.24472095 0.059246585 0.06706774 -0.092663325 0.368233 0.024151547 0.062029872 -0.13962865 -0.01576807 0.515217 -0.10680843 0.18147284 -0.101998255 0.06067317 0.11709491 0.103681125 0.11735663 -0.13045801 0.13708077 0.23580243 -0.19257447 -0.060526084 0.15294649 0.054058436 0.08694676 -0.14221956 0.05672528 0.11788456 -0.2631482 0.16780053 0.026390688 0.007580087 -0.04946535 0.008104009 0.36129573 -0.0033194213 -0.30795157 0.061731 -0.15676124 0.0793167 -0.20026371 0.10810872 0.013876265 0.17697634 0.01490474 0.091089435 0.018197773 -0.14876853 -0.08881543 -0.30195892 -0.26104328 0.25202268 -0.052474193 0.3189552 0.23670569 0.06249787 0.2648049 0.09712363 0.26945955 0.14729664 0.059022564 -0.08972096 -0.22956298 -0.077737585 0.09862239 -0.1873657 0.03644148 0.12020147 -0.17781948 -0.18220383 -0.2637421 -0.053973526 -0.25711048 0.068927646 0.34314084 0.09948462 -0.26536095 0.02853632 0.05136011 0.11073298 -0.23220628 -0.05557931 0.14619167 0.1586441 -0.13996461 0.268457 0.09658788 -0.10035341
3818 0.060902372 -0.23925635 0.19802599 0.15830499 0.22265644 -0.131146 0.052747127 0.012587692 0.45091918 -0.45167074 -0.13607624 0.229538 0.15416703 -0.031464405 -0.105016895 -0.13468295 -0.17196539 -0.10459923 -0.05614535 -0.03670993 0.19789857 -0.11200686 -0.117678575 0.059758067 0.033914853 -0.13149671 -0.23171842 0.22175765 -0.27097377 0.17050402 0.06924326 -0.15388179 0.15870783 0.005106843 -0.03902135 -0.035834134 -0.028512856 0.1653726 0.083218515 0.21060379 -0.1892601 -0.06416495 -0.063634284 -0.08338146 -0.19461757 0.033177964 0.055785734 0.12572399 -0.23477082 -0.2651717 0.043278247 0.118582256 -0.0822415 0.14005776 0.0108165275 0.22160068 0.13788706 -0.23408017 -0.03884593 0.093658805 -0.022379372 0.14168276 0.010793124 -0.18078627 0.17941286 -0.012147872 0.060283076 -0.15312415 -0.215158 0.057731405 0.21057992 0.050819688 -0.020105056 0.25387648 -0.14047074 -0.124384165 -0.013730901 0.17072028 -0.28571746 0.19044042 0.12060378 0.074812144 0.19834991 0.21817619 0.0695423 0.10566855 -0.053885356 -0.27253968 0.0232721 0.16312224 -0.08587121 0.115803905 0.23557694 -0.14153884 0.16584542 0.11701975 -0.026636893 0.24524873 0.05810356 0.1184222 -0.2402118 0.17346111 0.16652454 0.20103851 -0.24967512 -0.018165981 0.024267374 -0.1964883 0.08031459 0.236418 -0.3370168 -0.10313708 -0.00659989 0.18073694 -0.10273429 0.037957605 -0.14075342 -0.22476587 -0.050894182 0.25743306 -0.2804183 0.02331471 0.09111488 0.17557871 0.29877526 0.035985157 0.2534198 -0.1406439
1228 0.1813179 -0.048802316 0.20095769 -0.12968597 0.02645994 -0.013578846 0.18324675 -0.1494118 0.31551635 0.11602089 0.024792733 0.3408949 0.17079605 -0.05520423 -0.077543154 0.03149284 -0.11444248 0.02709376 -0.12055301 0.09381805 -0.016827459 -0.13897417 -0.0522804 0.15113287 0.3162313 -0.2919279 0.18371564 0.0866661 -0.03878122 0.14652278 -0.045713644 0.009850927 0.15155317 0.06383235 0.058688197 0.07604547 -0.104895554 0.07828768 -0.018084528 -0.27758658 -0.16957147 0.050376948 0.12810224 -0.12213031 0.08496337 -0.11304738 0.08970178 0.21196371 -0.29585722 0.23476543 0.08315624 -0.052294448 0.12392323 -0.034918614 0.06636379 -0.13824427 0.028685024 0.031297088 0.024783034 -0.013240485 -0.19605483 0.47050557 0.13408771 -0.084156215 0.14046462 -0.13642606 -0.12019825 0.023010302 -0.24821477 0.34332648 0.2395036 0.02357312 0.050775576 0.4584039 -0.11544759 0.17825036 -0.16029093 -0.0989185 -0.14890213 0.012683044 -0.009304206 -0.14212075 0.17183384 0.15864363 -0.26743397 0.1050015 0.11323182 -0.3392455 0.2702186 0.006346135 0.1692222 0.12365282 0.14709686 0.09354041 0.08199322 0.19036742 0.18040398 0.03274855 0.03988034 0.015848605 -0.27596933 -0.22773351 0.19728844 0.17032799 -0.11298863 -0.043919683 0.03484038 0.09444368 0.13956268 -0.14298746 0.023373444 -0.08713062 -0.0020864115 0.008676726 -0.12846917 0.24422376 -0.4674388 -0.01829246 0.0308695 0.17478591 0.10444259 0.3600328 -0.030794172 0.26343232 0.27986246 -0.024899866 0.04303809 -0.13327612
4257 0.22598766 0.14380498 0.18322265 0.0524563 -0.064414345 -0.44726747 0.039966393 -0.0125710545 0.03307326 -0.21301687 -0.0887527 -0.060245886 0.44927788 -0.044246756 0.03697938 -0.3415431 -0.16951899 -0.097523555 -0.16380662 0.15856878 -0.12914534 0.16760983 0.23043849 -0.05791166 0.10024166 -0.1741528 -0.06753592 0.39742315 -0.39527553 0.14016001 -0.04868857 0.034450486 0.001968013 0.110600576 -0.17955649 0.090847015 -0.27221024 -0.295923 0.056336574 -0.06633197 -0.081704035 -0.1256755 0.043776512 -0.25383344 0.035979737 -0.16551045 -0.055922497 -0.29232383 0.017804686 0.20640877 -0.122746035 0.35010314 -0.039521236 0.1507244 -0.0521145 -0.03657076 0.21813868 0.028694583 -0.04602801 0.06768322 -0.16700599 0.18562177 -0.039073043 0.18553628 -0.10460093 -0.010936835 -0.0392858 0.17149848 -0.20742828 0.24350883 0.041007828 -0.0044160904 -0.07354897 0.033110753 -0.043426096 -0.06077028 -0.022182306 -0.10875351 0.0077862386 0.13161829 -0.19688943 -0.3960986 0.20227946 0.26768976 -0.26337218 0.0067568617 0.020870736 0.06944772 0.049425416 0.023964638 0.018703297 0.08285447 0.004859625 -0.032973357 0.28346518 -0.05598413 0.012154855 -0.049472086 0.30417413 -0.030419124 0.005782474 -0.35013312 0.23105021 0.20024331 0.06523771 -0.09648 0.049360566 0.006200828 -0.027161172 -0.40959728 0.03414089 0.099087276 0.14299782 -0.06550419 -0.0680931 -0.058975603 -0.14602679 -0.20885937 0.045301292 0.06667838 -0.2814944 0.14608364 0.118243314 0.07843153 -0.09152753 0.073183596 0.21647227 -0.114942685
1198 -0.22939536 -0.14485852 0.045297906 -0.07424065 0.012132366 0.0060934224 -0.08220203 -0.19044633 0.12561409 0.004512831 0.049809974 -0.12754361 0.3187859 -0.24440114 -0.040546823 -0.071922466 -0.40648943 0.052875552 -0.0432444 -0.07387745 -0.23999873 0.036948554 0.14012666 0.02663392 0.042532254 -0.22483778 -0.0677878 0.11670343 -0.43171263 0.10442832 -0.06548513 -0.044753607 -0.22121742 0.21197516 -0.25281346 0.01564566 -0.04323585 -0.1274059 0.325014 0.33768257 -0.057058766 -0.119406514 0.095027514 -0.19816296 0.04847645 0.013716108 0.1267485 -0.06579029 0.047297325 -0.10779551 0.1946651 0.13850302 0.10233584 1.3189394e-05 -0.23549622 0.15653092 0.07551504 -0.044120476 0.0321987 -0.021428032 -0.22202678 0.015088168 -0.006743814 -0.034819867 0.15358573 -0.26476762 0.08623747 0.30302092 -0.24103242 0.22264497 0.14539328 -0.0311219 -0.04887255 -0.023944607 0.013207946 0.061494343 -0.23859861 0.03743651 -0.19718817 -0.13535412 -0.36316422 -0.07930672 0.028005198 0.20298305 0.062152736 0.008944591 -0.1188927 -0.11568287 0.0128586525 0.4163091 -0.04694547 0.14336205 0.27070686 -0.047281306 0.020224422 -0.07940028 0.26426542 -0.04444203 0.38936976 0.13717711 0.051587313 0.008652743 0.00044675067 0.23849253 -0.15160935 -0.036095712 0.23995356 0.13936214 0.0070833303 -0.23308009 -0.04304004 -0.016948193 -0.16959846 0.30430055 -0.30991393 0.10601781 -0.13723962 0.009067524 0.18510197 0.1974755 0.029010968 0.027746296 0.019097408 0.12678249 0.24530502 0.08821933 -0.17354253 -0.09643995
496 -0.05353827 -0.18299496 0.15201774 -0.31817585 -0.08488097 -0.14473166 -0.11715041 0.010063754 0.12570839 0.15347433 -0.20069522 0.11404517 0.14939995 -0.010338441 -0.2007198 0.15695077 -0.10142921 -0.003263874 0.05676357 -0.003691789 -0.016380578 0.33307397 -0.045451228 -0.007548959 -0.16727883 -0.111379884 0.08380448 -0.13631459 -0.10527086 -0.13021809 0.06730727 0.058635928 0.1472164 -0.121141486 -0.1071349 -0.16458504 0.18890879 -0.01407868 -0.011265204 0.33921635 0.034699388 -0.095808774 -0.10644573 -0.16501005 0.023620106 0.15163618 -0.060648117 -0.22590244 0.07623883 0.28072125 0.036088288 0.15358393 0.012442471 0.35954133 -0.05338961 0.021842964 -0.048452113 0.039771475 0.11078628 0.17499188 -0.10387011 0.17224208 0.16136633 0.04814036 0.022507558 -0.291726 0.0040789316 0.14903216 -0.07558813 0.065849476 0.09013308 0.115890145 0.23030487 -0.37560233 0.16425574 0.0056628487 -0.31170765 0.3719464 0.04659747 0.3036529 -0.3561423 -0.042983063 -0.006431774 -0.15752019 -0.020771958 -0.04843603 -0.041265536 -0.055487722 -0.0088140685 0.11979761 -0.07335224 -0.05673742 -0.09354163 -0.2265562 0.2119075 0.1855685 -0.10696041 -0.004946517 0.023872338 0.07806956 -0.2206372 0.0827436 -0.14424084 0.2243641 0.026018994 0.039946105 -0.25052804 0.1441732 -0.19628333 -0.2959402 -0.22136949 -0.19380005 0.018264737 -0.0327569 -0.048606858 0.010479645 -0.03457879 -0.051967397 0.2006385 0.05758601 0.17031336 0.20396687 0.035607085 0.0884297 -0.030470466 0.47225213 -0.03922624 -0.27529028
5119 0.067035854 0.26274484 0.055650253 0.008236541 -0.052115817 0.022926794 0.12473717 -0.19343224 0.1357847 0.08598656 -0.03691286 -0.20261429 -0.060016602 0.010880032 -0.028947819 0.03896556 -0.19672264 0.105731875 -0.16313517 0.098914735 -0.06841807 0.16468444 0.11186825 -0.037043758 0.16945721 -0.22352542 0.14946038 -0.03470291 -0.2219687 -0.16457808 0.0169936 0.15908636 -0.0015267966 0.12988907 -0.024105268 -0.12748098 -0.22533605 -0.027638184 0.21870707 0.282717 0.048142362 0.13680199 0.13629067 -0.021901017 0.040439498 0.26275444 0.0881749 -0.18220678 -0.12801656 -0.03897372 0.14818549 0.017100425 -0.14601406 0.29527557 -0.26506546 -0.10572274 0.42162254 0.14224869 -0.2167962 0.016118046 -0.41857922 0.13711461 0.19036585 -0.003315993 -0.05565567 -0.53712445 0.028090663 -0.13888858 -0.09488597 -0.10401813 0.054375965 0.15917455 -0.15570037 -0.1574307 0.20989682 0.097391225 -0.13663638 -0.29316878 -0.08980718 0.26363537 0.14439993 -0.2718484 0.0009229252 0.14918008 0.1524746 0.06457046 -0.22926651 -0.05060175 -0.23499407 0.38865736 -0.13128711 0.003789222 0.2399123 -0.069212444 -0.23241673 -0.09663986 0.02756069 0.27213696 0.18257168 0.030630164 -0.16315965 -0.1256958 -0.12239999 0.3102323 0.05563514 -0.27417776 0.12067013 0.28853136 -0.027875446 0.1003728 -0.19295247 -0.009434315 -0.14056455 0.23323363 -0.034820314 0.30343223 0.022072932 0.1814292 0.10008401 0.11213279 -0.46877217 -0.002611258 -0.14266734 0.06667575 0.060904197 0.055535205 -0.01596749 -0.2679901
4321 -0.11041022 0.22651578 -0.08087735 -0.07323337 0.00044508168 0.117801175 0.054859318 -0.14266782 0.0023805862 0.09535802 -0.41470605 0.109217174 0.2534134 0.028679209 -0.04521583 0.06443729 -0.039893314 -0.0117040975 -0.052757498 -0.24556474 -0.2852998 0.11730273 -0.19772342 -0.09112752 0.18971965 -0.092468865 0.19300373 -0.23685056 -0.11046214 0.002218439 0.088257 0.10989349 0.043478876 -0.03845068 -0.10079227 -0.15030698 -0.114806265 -0.2362758 0.14510287 0.37555802 0.082571514 0.21755098 0.061776504 -0.17688054 0.12775078 0.007928336 0.22055404 -0.2836829 0.030043744 0.17233625 -0.13568778 0.20759971 0.16520731 0.36563143 -0.10587569 -0.15982705 0.025733253 0.1041899 0.011939136 0.2195802 0.09933987 0.2352872 -0.21498671 0.15717234 -0.1132491 -0.06159371 0.047615267 0.024307579 0.018044671 -0.041562192 0.24446738 0.02688597 0.07665426 -0.21387315 0.09679203 -0.039942496 -0.1378761 0.13750015 -0.17685966 0.22596641 -0.323444 -0.1256263 0.013449108 0.19278045 -0.029386938 0.20203479 -0.13352183 -0.24519296 -0.04722484 0.068580925 -0.14350343 0.036274895 0.14150135 0.0032246152 0.21974164 0.27289927 0.06176999 -0.06664743 0.00036344098 0.055616062 -0.07126064 0.066140264 -0.24289943 0.32986903 -0.15861133 -0.0035381073 -0.11590941 0.22194576 -0.14795743 -0.29978812 0.27870762 -0.34331068 0.2110091 0.07218877 0.050073452 -0.10278119 -0.14255345 -0.12637536 0.14166476 0.050886244 -0.16589299 -0.092101835 0.036262862 0.18512943 0.19321421 0.28818083 -0.09375434 -0.21987793
3337 0.4422867 -0.27066058 0.07692218 -0.14413151 0.15000208 0.11122599 -0.23279887 -0.1398557 0.32501787 0.052170925 -0.17056704 0.13510777 0.24563146 -0.13147233 0.12878582 -0.053270523 -0.23959939 0.007580259 -0.23351608 -0.06927503 0.12007537 -0.048307225 -0.1246131 0.04614351 0.090997316 -0.22510666 0.13782653 0.009733915 -0.06922308 0.28210878 0.061881382 -0.104330525 0.036730636 -0.037574284 -0.025538053 -0.1930419 -0.26140642 -0.092716694 0.08556472 -0.27123514 -0.24058823 0.23046657 -0.016922021 0.1579262 -0.123337306 0.27751362 -0.09723921 -0.008408923 -0.2385545 -0.17369264 0.060998287 -0.011485644 0.04828783 0.1842638 0.016126193 0.052244917 -0.11252292 -0.12360651 -0.026495488 0.101018436 0.23693682 0.3043489 0.22056562 -0.09744522 0.13168167 -0.12227659 0.07322119 0.1297417 -0.18244831 -0.20919614 0.18630399 0.031260118 -0.18923111 0.17057294 0.34101924 -0.0053885756 0.14956702 0.17068829 -0.020344105 -0.078333795 0.10409357 -0.03479457 0.029014222 0.39239135 0.0016799116 -0.032923218 -0.24936906 -0.3267305 0.18552543 0.41267875 -0.035380412 0.16225107 0.054110136 0.018171161 0.1831395 -0.15600729 0.14898776 0.218686 0.0355441 0.22384223 -0.048429646 -0.14406668 0.21817352 0.022527013 -0.03790016 0.07017912 -0.17341715 0.27365884 0.024097262 -0.2934665 -0.18712729 -0.12337964 0.0002861758 0.018377718 0.25422612 0.09817904 -0.26252928 0.23832129 -0.030347591 -0.13345112 -0.08104919 0.17679171 0.11036982 0.2728791 0.21308394 0.005719726 0.24636616 -0.1406437
3737 0.089850836 -0.35874835 -0.0087859295 0.24449116 0.36830258 -0.04729115 -0.34240836 -0.116919704 0.15704417 -0.06714117 -0.11160342 0.29265878 0.03991094 -0.14970942 -0.057407256 -0.28183395 -0.16272737 0.0084239 0.24378534 0.07986438 0.06603975 0.044796098 -0.07918035 -0.08516133 0.006797533 -0.17806518 0.32154936 0.29951182 -0.17780414 -0.17645071 -0.007017807 -0.09303151 -0.04475069 -0.070718005 0.06133097 -0.36492026 -0.19601049 0.11424815 0.18577781 0.05903392 -0.23868172 -0.26674098 0.0061953347 -0.14097671 -0.036093023 0.048222244 -0.0074829743 -0.12572584 0.14502609 0.07530653 0.25900865 -0.12668434 0.11699282 -0.04209013 0.03494209 -0.32805404 -0.13983531 0.036501866 -0.40594873 -0.055973094 -0.20314713 -0.0076381387 0.2046546 0.080362566 0.03737955 -0.17609155 0.12515771 -0.024005359 -0.115046486 0.11022261 -0.07437727 -0.27864733 -0.20513836 -0.100051396 -0.19096716 0.13427116 -0.3074574 -0.12672926 0.08451698 0.019506725 0.056169834 0.03587263 0.046095807 0.058412105 -0.08603452 -0.35834742 -0.2765891 0.08314896 -0.30294004 -0.36070737 -0.28373858 0.14386673 -0.15305968 0.17357907 0.44629225 0.11148721 -0.20617005 -0.40109825 -0.13048303 0.20817646 0.2301464 -0.19135346 -0.16627172 0.30422944 -0.025563948 0.06884045 0.09199867 0.18705124 -0.012977001 0.11906949 -0.2240493 0.13361843 -0.09567866 0.13033043 0.07571182 0.24417649 -0.067688175 -0.0642678 0.06528617 0.20256543 -0.17474101 -0.111058466 0.19442569 -0.18189582 -0.08871336 0.032466106 0.1134831 -0.14230533
1074 0.14857918 0.17610268 -0.10380925 0.19773965 -0.23985778 0.057003524 -0.050169196 -0.14233316 0.4284837 -0.108805306 -0.16122219 0.19977427 0.018724035 -0.087021135 0.18060982 -0.14814149 0.026897911 -0.15086684 0.17293353 0.2628057 -0.1648645 0.19488804 0.1975553 -0.014153393 0.0058342465 -0.030587342 0.2559894 0.07667651 -0.022532297 0.3578706 -0.20957729 -0.1525615 0.07089235 0.2777001 -0.17974918 -0.12946644 -0.16437064 -0.15083413 0.089518555 0.18359967 -0.054722756 -0.07195557 0.06426634 0.069534145 -0.1341053 0.20165017 -0.119338796 -0.35353205 -0.4491223 0.15440115 0.043719012 0.052862138 -0.3953117 -0.18116471 -0.057199005 0.09229426 -0.2657347 0.08222499 0.070082 0.17931919 -0.23683581 0.28251538 -0.16369554 -0.034726966 -0.17339145 -0.14622982 -0.04126223 0.15091619 -0.13062486 0.117947 0.32259402 0.13025402 -0.18509251 -0.14269264 0.21429472 -0.013374099 -0.14697982 0.06837093 -0.16868225 0.04188079 0.105525516 0.09574627 -0.29817528 -0.09399393 0.1909868 0.020112284 0.0729351 -0.12328573 -0.08665644 0.05924241 0.11517701 0.0061012506 0.026493916 -0.2862165 0.28007752 0.05085618 0.050391257 -0.15405531 0.22074988 -0.110057555 -0.11380754 0.042065613 0.07994702 -0.07963461 -0.18719876 0.045280237 0.017768811 -0.24379182 -0.10983544 -0.021781173 -0.11187813 -0.040893413 -0.25854897 -0.08724281 -0.07457208 0.120103456 -0.16265188 0.0484084 0.07957149 0.25531876 0.009619768 -0.32574406 -0.050035745 0.0045664352 0.2905932 0.17271878 0.2909283 -0.22979218
56 0.1961273 -0.07600669 0.092755355 -0.015787266 -0.03284359 -0.2892771 -0.090736926 0.05429042 0.12659276 0.05465889 0.087103166 -0.14301096 0.11581901 0.09553866 0.048561927 -0.13741976 -0.011935741 -0.27260277 -0.12672852 0.24442188 -0.013241758 -0.16855365 -0.044500265 0.32146403 0.13540207 -0.20599705 0.18939139 -0.1166034 0.116343774 0.14019221 0.097660415 -0.4094513 -0.34242824 -0.09141139 -0.04021943 -0.17188723 -0.01444902 0.4127907 0.21475764 -0.15485546 -0.2888481 0.19571772 -0.03248942 -0.1862808 0.3200032 0.17576575 -0.15378402 -0.2659842 -0.15541342 0.22442026 0.24247196 0.15011218 0.14883022 0.1332797 0.27422708 -0.076675385 0.07717257 -0.0038150658 0.18069181 0.015387781 0.0010576028 0.3397016 -0.25280288 0.26285297 0.16843715 -0.060259305 -0.043818556 0.068469994 -0.25250348 -0.05040088 0.03590642 -0.11168038 -0.07808751 -0.049437117 0.105394565 -0.16903692 -0.13703352 -0.3132001 -0.097049534 0.315094 0.39641708 -0.09488848 0.1643749 0.052020762 0.024467811 -0.12942071 -0.03435573 -0.0436266 -0.047266796 -0.20486695 0.0619131 0.019287048 -0.018151721 0.18841445 -0.29485172 -0.14854278 0.11675598 -0.29899508 0.1572051 -0.08973893 0.07964042 -0.1744175 -0.093792476 0.29338837 -0.12353795 0.056493897 -0.19716248 0.10582059 -0.11466897 0.003220564 -0.16104102 -0.09393672 -0.22712208 0.21906154 -0.072143115 0.04668137 -0.3469766 0.015129529 0.1825821 0.3832377 0.15249312 -0.16639511 0.026737142 -0.029434053 0.065515846 -0.02578248 0.24120873 -0.072475776
4572 0.17906392 -0.15371498 -0.20174018 -0.17578001 -0.05037632 0.11918487 0.010489592 0.04342898 -0.0055246167 -0.11239115 -0.11153376 0.18420254 0.3261565 0.07393781 -0.107644826 0.075705074 -0.056463644 -0.11455451 0.072844304 -0.04070473 0.24141103 -0.10282884 -0.01362467 -0.2246386 -0.070332445 -0.0066755796 0.24474394 0.08477638 -0.33681834 -0.15336525 -0.15695252 -0.2878888 0.20018746 0.12839174 0.07918023 -0.22497527 -0.15588455 -0.1189423 -0.029088438 0.2608427 -0.29936948 -0.2916762 0.1807765 0.11293364 0.09591129 -0.07393382 -0.44143707 0.15886487 0.07547133 0.17010902 0.11792696 -0.018926056 -0.032808624 0.010861916 -0.41891217 -0.061019327 0.16299523 -0.119579144 -0.25688556 -0.013862005 -0.3779578 0.18519594 -0.16839889 -0.13271771 0.17309041 0.13746929 0.07629313 -0.3250568 -0.020502578 -0.056915164 0.13018619 0.014185266 -0.19032308 0.1609866 0.10286875 -0.09292694 -0.4011174 0.34904215 -0.113876596 0.12547912 -0.035987504 0.19936986 0.29612243 -0.06320794 0.1449141 0.16005066 -0.3622611 -0.04636664 -0.20979801 -0.08598094 0.1050883 0.20277034 -0.08185935 0.06254223 -0.034010343 -0.034516353 -0.04808689 -0.13465884 -0.24720846 0.19309756 0.019129584 -0.16370481 -0.1405252 -0.012302181 -0.21303184 0.15928374 -0.12248617 -0.096053354 -0.07746061 -0.17432155 0.08190862 0.16415432 0.2654345 0.013338131 0.14239836 0.1913064 -0.04464357 0.013419259 -0.1095205 0.19049434 -0.169208 -0.14997551 0.28011665 0.02005558 -0.056495655 0.18584485 -0.06570738 -0.28431398
1550 0.0059337765 -0.10654 0.014197716 -0.25836504 0.04774233 -0.019838916 -0.09867651 -0.3199594 0.0006587511 0.1192204 0.19153598 0.14473946 -0.12951094 -0.058170434 -0.043149322 -0.3625058 -0.20851727 0.11226296 0.15784402 -0.0065544806 -0.20819417 0.22096416 -0.16784893 -0.09262982 -0.3232258 -0.04404262 -0.18968524 0.41272855 0.100587755 -0.10709357 -0.015657105 0.0016149302 -0.026813783 0.25670993 -0.052369315 -0.26221293 -0.043399315 -0.092849225 0.25881678 0.07364046 -0.1831782 0.24237102 0.17258798 -0.20430963 0.082150884 -0.09394592 -0.023979813 -0.3593161 0.08701589 -0.14423162 0.023526076 -0.08527594 0.15503053 0.10487627 -0.04892096 -0.07771291 -0.33510643 -0.2909849 -0.2076818 0.032326166 -0.16967888 0.21979967 -0.31020078 0.065278 0.25419816 0.12183259 -0.30331206 0.0034839897 0.13584529 0.120183684 0.06535722 0.14627147 -0.069083735 -0.12323886 0.026445819 -0.10189899 0.18065418 -0.09462056 -0.14933977 0.2595786 0.034337655 0.11731519 0.24481952 -0.09218268 -0.049814526 0.1415575 -0.15014108 -0.26550072 -0.1713548 0.039604697 -0.029402405 0.29979572 0.34689143 0.036642 0.012868485 0.24858727 -0.22317849 0.26003933 -0.14240853 0.033152115 0.08998794 0.22151333 0.21046434 0.061483398 0.3416558 -0.21899305 -0.35048524 -0.106276765 -0.022875853 0.113950476 0.051931273 -0.0391714 -0.25007892 -0.38170645 -0.19689961 0.09895977 -0.10398743 0.059767026 -0.058420368 -0.084567904 -0.33728445 0.059629995 0.2727582 -0.03808693 -0.021394495 0.24697018 0.11055592 -0.20998251
2121 0.004490874 0.06037069 -0.03213311 -0.085891694 -0.28884163 0.079701796 0.08233498 -0.22741131 0.22182679 -0.36782363 -0.11893791 0.06099446 -0.15220872 0.06312057 -0.30201766 0.021928022 -0.113864 0.1404245 -0.1486058 -0.074120134 -0.019243589 -0.03181497 -0.076851405 0.06674596 0.0939473 -0.04225717 0.051680516 -0.10042442 0.117894076 0.02791478 -0.20042855 -0.085570134 -0.15677021 0.08729751 0.061484255 -0.0840821 0.087347865 0.27887687 0.15235868 -0.052973002 0.062119707 -0.17413674 0.07883091 -0.2913965 0.14771679 -0.11315691 -0.1135294 -0.21094446 -0.27883947 -0.096230015 -0.07229853 0.0031588522 -0.1483837 0.28961325 -0.19704175 -0.0984162 0.16732837 0.04219582 -0.23435399 -0.05656747 0.025580369 0.21892488 -0.044001997 0.15410031 0.30610815 0.084889494 0.31274304 -0.04646305 -0.42585477 0.103426605 0.44211477 -0.019026257 -0.1070336 0.12227267 0.0047565517 -0.1753004 -0.16507033 0.1122048 0.20058773 -0.076713115 0.26341975 0.033016387 0.005769658 -0.316056 -0.059278805 0.056966715 -0.23763081 -0.036798455 0.025165007 0.16731223 -0.079066426 0.19804932 -0.0929318 0.06979429 0.23861192 0.03081681 0.13176008 0.12359923 -0.17744324 -0.15122709 -0.016382886 -0.26153037 0.35301816 0.08593665 -0.070936166 -0.1717136 0.121620774 0.15142989 0.054215923 -0.013751355 0.045105856 -0.1639207 -0.09264587 0.0302375 0.05563621 0.21633944 -0.15800826 -0.1281587 -0.013031066 0.030233854 -0.16688663 0.17559269 0.018199785 0.1709356 0.24318387 0.04444721 0.22665186 -0.13066107
4012 0.20138103 0.15513618 -0.07344167 0.2733223 -0.0073923436 0.12240701 0.024601335 -0.15452993 0.07317708 -0.19923255 0.16734372 -0.100398965 0.18601158 0.08924169 -0.075398274 -0.033468094 -0.0740438 -0.23064896 -0.19905081 0.24653673 -0.32482868 0.0137288505 -0.048191335 -0.34461486 0.16833359 -0.087295406 -0.09084418 0.11303019 -0.27787566 0.22378428 0.036682636 -0.10800108 0.030589437 0.14722283 0.09939521 0.012654787 -0.17451057 -0.15161185 0.07303037 -0.004108152 -0.42192408 -0.44119403 0.020217523 -0.3102091 -0.16047318 -0.15792878 0.041251186 -0.26231673 -0.11989713 0.035743624 -0.037072778 0.10274309 0.3103042 0.33691105 0.20664999 0.09740111 -0.44799626 -0.16379365 -0.020524807 0.1545459 -0.26444063 -0.009774857 0.014873127 0.15350801 -0.20192389 -0.057704 -0.084040195 -0.15168491 -0.037562232 0.1662713 -0.03283819 -0.20200208 -0.22347473 0.22155342 0.08808346 0.17154852 -0.19143549 -0.22037223 0.15094665 0.17347814 -0.0384687 -0.11964798 0.224176 -0.10719988 -0.12527694 0.021832595 -0.08028528 -0.119626634 0.0073402696 -0.06250993 0.002582086 -0.18976109 -0.009645847 -0.37816882 0.24381104 0.099785835 0.2282616 0.111985266 0.013559694 0.0532421 0.06339424 -0.17940101 -0.15467465 0.025432806 -0.14819531 0.022942614 -0.09420063 -0.079881325 -0.10693275 -0.105982415 -0.13699612 -0.20988502 -0.035432477 -0.048066113 0.076276965 0.30851045 -0.05238893 0.28382787 -0.07850773 -0.07596207 -0.00030704154 -0.012471896 0.108352326 0.140697 0.076629646 0.067138545 0.17488281 -0.17355095
3872 -0.1299075 0.08150464 0.2807654 0.0596466 -0.053185657 0.046900574 -0.013329201 -0.028341971 0.45364186 0.18261988 -0.018727962 -0.42003137 0.070039846 0.24460141 0.09986453 0.14084847 -0.21779674 -0.42213067 0.18151355 0.05576646 -0.22758195 -0.026434166 -0.035654984 -0.067480326 0.26661256 -0.024418864 -0.14518318 0.49365792 -0.36928344 -0.095302 0.14256012 0.1426071 0.1719157 0.22135165 -0.036351766 0.0018239416 0.079074964 -0.103266425 -0.0966698 0.012699067 -0.14618191 -0.041002017 0.19132905 -0.14000075 0.12710084 -0.34300402 -0.3407659 -0.22933178 0.1011923 -0.083913475 -0.080522984 -0.15303876 -0.1527407 0.22440411 0.03927314 0.1441602 -0.072859265 -0.27024195 -0.03375349 0.23695429 -0.33472398 0.09603066 0.32888123 0.04035254 -0.22956063 -0.17091781 0.047104046 -0.00644235 0.05575777 0.2825258 0.2334481 0.29554775 -0.2512406 0.068129115 0.094653316 0.07668273 0.16589674 0.011323172 -0.02564791 -0.010198778 -0.13707805 -0.13190639 -0.07899821 0.35090902 -0.054279894 -0.14531633 -0.2920622 0.10436856 0.12033796 -0.08372971 -0.21842194 0.20939483 0.12894008 -0.035735585 0.3001112 -0.15663165 0.040024653 -0.06294493 -0.007495872 0.13308975 0.14947952 -0.124169126 0.010853683 0.18029653 0.16721073 -0.37409908 -0.23947547 0.044259876 -0.38703787 0.11531117 0.15743232 0.0945169 -0.119126275 -0.09117592 -0.013568371 -0.18851244 -0.16675456 -0.26820007 0.16290797 0.23957889 0.022898523 0.0957572 -0.019740736 0.090686575 0.24219944 0.052615818 0.20185803 -0.44953188
1155 0.1067312 0.19581631 -0.17067418 0.1591193 -0.09962364 0.09647339 -0.388373 -0.2877389 -0.064806715 -0.045274995 0.015528187 0.25447267 -0.019333337 0.046195846 0.28880417 0.12810415 0.061021168 -0.0624877 0.24281868 0.1260463 -0.164085 0.407253 0.3171161 -0.17564622 0.14767385 -0.00016268517 -0.15864794 0.26127535 -0.21696344 0.39108828 -0.024297519 0.08450756 0.101595566 0.051640235 0.18498231 -0.34021124 -0.18651727 -0.15701596 -0.12768526 -0.15403637 -0.33804688 -0.074078046 0.10640438 -0.112741664 -0.017507266 0.038162157 0.037423596 -0.25646463 -0.16244614 0.1985494 -0.21577306 -0.17690396 0.1669709 0.09102745 0.00030899924 0.01970109 0.18207076 -0.14296584 -0.13557607 0.18689027 -0.142648 0.27511147 -0.024416493 0.09554036 -0.115149364 -0.16372935 0.18568031 0.022708097 -0.20132445 0.022140887 0.45781055 0.09277314 -0.18735375 0.041966375 0.109459355 -0.055017542 -0.12966181 -0.12233937 -0.017572885 0.015378269 0.05867842 0.101840496 -0.27563486 -0.13498293 0.0059398054 0.14923672 -0.117467046 0.18906869 0.020500556 0.094724625 0.096780166 -0.047679663 -0.054282974 -0.11359971 -0.17111124 -0.023540588 -0.07330512 -0.038964886 -0.05920534 0.0325277 -0.19610365 -0.38575828 -0.145512 -0.04512097 -0.08507468 -0.28529507 0.1154033 -0.31771192 0.17133598 0.10251583 -0.23814125 0.2559574 -0.2489169 -0.02847539 -0.21905823 -0.19136854 -0.4015179 0.21504661 0.18519577 0.055497814 -0.17649554 0.00027577142 0.1350369 0.18353516 0.028178236 0.13250877 0.1444639 -0.2817139
3168 -0.12102174 0.15374784 -0.08241321 0.02206391 -0.21171537 0.08968985 0.1795531 -0.30804327 0.21882272 0.083181925 0.03962396 -0.08891839 0.053235218 0.052215938 -0.08791119 -0.04650975 -0.32771662 0.0021238837 -0.2252173 -0.0018133062 0.0058028214 0.012617281 -0.09526699 0.037354764 -0.10318979 -0.10266404 0.040210117 -0.14638834 -0.22051021 0.12279222 -0.07631303 0.008405866 -0.008257153 0.0752429 -0.08568526 0.11353944 0.058344614 -0.05122559 0.2097141 0.06879328 -0.23756526 -0.02204494 0.10765326 0.14588878 0.11166709 -0.09064659 -0.058834925 -0.29368004 -0.20599855 0.33157244 -0.11403299 0.11599327 -0.26288784 -0.1639975 -0.057879295 0.0684563 -0.07869408 0.051844455 -0.029778909 -0.16898175 0.04163041 0.11067485 -0.19515187 0.1446457 0.05029662 -0.0032616411 -0.0057807537 -0.008978172 -0.098053016 -0.15636875 -0.10098133 -0.0028859805 0.109624 0.14328179 0.14055127 -0.21464318 0.05531265 0.07719281 0.24518949 0.17698093 -0.10012499 0.04158176 0.19005607 0.03483538 -0.114284895 -0.06080034 -0.18414098 -0.16004325 0.40339696 -0.19162925 -0.31599408 -0.050567906 0.3457754 -0.048159316 -0.016114864 -0.4086241 -0.08026008 -0.101570696 0.08411175 -0.19153477 0.1674586 -0.18573086 0.047092237 0.24777126 -0.3553996 -0.14996208 -0.14003924 -0.07071792 -0.02556443 0.087561235 -0.18166131 0.04700033 -0.102904305 -0.12352297 -0.0243674 -0.016442299 -0.21029319 0.10435656 0.42808917 -0.07280457 -0.22660191 0.23390634 -0.037339974 0.16434023 0.18295252 0.33558115 0.08878742 -0.014828474
1674 0.2676763 -0.20086414 -0.056575462 0.18718943 -0.024501417 -0.18719208 0.050032344 0.07008063 0.17281722 -0.17692107 -0.019142333 -0.06621512 0.15966228 -0.05290505 0.000618123 -0.16113894 -0.12845206 0.12232518 -0.11388763 0.038192656 0.5055221 -0.19066854 0.19106261 -0.17383975 0.13551761 -0.16073716 0.23303741 0.5460005 -0.115973294 -0.011016566 0.26680383 0.22151622 0.071579605 0.04660013 -0.21633181 -0.14323524 0.1972703 0.12698524 0.24202575 0.018863283 -0.0956475 0.108134255 0.12169901 -0.30338785 0.007967629 0.029994959 0.05750863 -0.21058054 -0.025737751 0.121302456 0.009176914 0.11028979 -0.08096356 0.14224035 0.26556757 -0.21454528 0.16348048 0.31199175 -0.2451004 0.14209785 -0.23700051 -0.11157892 0.010232196 -0.29048666 0.3254012 -0.21809508 -0.035007406 0.22369283 0.027386667 -0.05142845 0.09206899 0.42683923 -0.20915723 -0.14962234 0.4993719 0.17924242 -0.21485728 0.06674803 0.008310114 0.082259424 0.063543014 -0.62354493 0.24739891 0.1100676 0.018728463 0.002290096 -0.33668435 -0.20281982 0.032060347 -0.056379143 -0.06747247 0.0071104323 0.121668585 -0.29766938 0.051877167 -0.07793035 -0.12613095 0.15964575 -0.02939046 0.05542106 0.16417897 -0.1514515 0.21816255 -0.083701484 -0.1827198 -0.065026924 0.1345154 0.0766239 0.021440152 -0.1912633 0.09385906 -0.12845926 -0.045075815 0.07199076 0.025053067 0.016534239 0.25786483 0.05353028 -0.07087169 0.29042795 -0.09951435 -0.18099731 -0.16043742 0.16064139 0.28977075 0.29671082 0.2639156 -0.21295455
220 0.14144434 0.039460354 0.108453 -0.042477965 -0.13646002 0.21889287 -0.0055027483 -0.16098912 0.1262583 -0.084583044 -0.06428177 0.059871253 -0.113144614 -0.0012046809 0.040811457 -0.075253166 -0.1697667 0.14241995 -0.13024966 0.048623458 -0.13344683 0.11155415 0.10832632 -0.0006448309 0.08761574 -0.012585666 -0.12660974 0.32933488 -0.12715101 0.051530402 -0.039124 -0.06097464 -0.07258827 0.12007979 -0.18626793 0.20797735 -0.09167652 -0.1038058 0.12024228 0.246021 -0.029852925 -0.34872505 0.18736818 -0.024029696 -0.14992271 0.044425674 0.014061961 -0.43709144 -0.3673679 0.14351039 0.057248693 -0.14466502 0.13498633 -0.21873625 0.17328319 -0.30969092 -0.2076458 -0.060949475 -0.040641773 0.00842555 -0.09774169 0.5534148 0.102972485 0.1912185 -0.13239212 -0.23064736 -0.003869538 0.07529931 -0.09600722 0.27561778 0.15576307 0.32017675 -0.22428873 0.17935915 0.009097619 0.14370547 -0.03440351 -0.24334516 0.092162445 -0.015613173 0.001405647 -0.08688089 0.30807003 -0.005594347 0.12986387 0.37955642 -0.18645671 -0.20813744 0.091878094 0.0015196439 0.13023265 -0.042546317 0.14297977 0.10550929 0.08363832 0.06984469 0.008793166 0.013499817 0.15561184 0.08697576 -0.10614318 0.09033221 -0.13268873 0.08491659 0.019380553 -0.18411756 0.1729584 -0.059573483 -0.15885858 -0.110319465 -0.117371626 0.07012554 -0.023816513 0.38996196 -0.32627416 0.028677957 -0.12723099 0.24978279 0.065875255 0.18400249 -0.19194369 -0.34901524 0.21322726 0.15545441 0.16104124 0.13436194 0.115602255 -0.20883697
4058 -0.17728382 -0.045675196 -0.1444413 -0.22444353 0.061625496 -0.3265317 -0.05376101 0.07972867 -0.008476043 0.19085881 0.18963917 -0.09932598 0.11313123 -0.14869416 0.34443858 -0.4088941 -0.27334327 0.062927224 0.12605068 0.090192944 -0.031005872 -0.18639416 -0.13487668 -0.40478247 -0.042095214 0.08873023 -0.10865737 -0.02581925 -0.23501374 -0.20493014 -0.0024118766 -0.21192238 -0.113742866 -0.04404635 0.10645099 -0.27724856 -0.48739478 0.06896294 0.14826728 0.20935665 -0.25392485 -0.16771437 0.3774772 -0.046794765 -0.1543485 0.11098348 -0.16171764 -0.3322075 0.06746376 0.3830037 -0.019663813 -0.042079553 0.0011475306 0.16251099 -0.15251063 -0.18104953 0.28237724 0.055716183 0.08105624 -0.17163408 0.09596368 0.010185297 0.27951267 0.042660233 0.1689221 0.19883612 -0.16817823 0.04367941 0.10201698 -0.10154175 0.005766953 0.12221747 -0.29680684 0.3735344 -0.034791254 0.14800252 -0.41032884 -0.15858698 -0.19731791 -0.47596443 -0.25459242 0.17412794 0.09577727 0.03428431 0.061878853 0.36570635 -0.20517047 -0.09938315 0.04455441 -0.15298493 -0.07894351 0.24989997 0.055599634 0.0026499284 0.24240191 0.15024398 0.11014799 -0.05103142 -0.18701598 -0.0952188 0.12855546 -0.22948733 -0.11601301 0.08518614 -0.01755557 0.013762558 -0.09231407 0.049837872 -0.06822229 0.2697938 -0.05155549 -0.113253005 -0.26261693 0.077880956 -0.017207472 0.066511706 -0.097436085 -0.15750788 -0.101868935 0.008038014 0.04845968 0.085951254 0.27126968 0.1636251 0.17972924 0.38648978 0.035689786 -0.1368047
3307 -0.25965995 0.019096289 0.11874568 0.15569165 0.010422276 -0.29028666 -0.3904963 0.0017899504 -0.11192087 -0.07387682 0.066922136 0.28609055 0.12673207 -0.0042944527 0.22474247 -0.28484225 0.03223978 0.010045758 0.14935644 -0.16473329 0.114368424 -0.022815498 -0.08328665 -0.23792137 0.1362258 0.0063834293 0.39963526 0.33967513 -0.39184391 -0.3050486 -0.05170626 -0.112867184 0.08393936 -0.09640501 0.2215266 -0.31523955 -0.1725456 0.049941156 -0.13867798 -0.01837224 -0.18415274 -0.095458075 0.057186726 0.18858582 -0.077383004 0.047774408 -0.004145319 -0.060470037 0.09012592 0.10221143 -0.20783313 -0.014848412 -0.20344302 0.029260656 0.08015583 -0.31018096 0.1382771 0.12564225 0.009056646 -0.18514116 -0.08552759 -0.11535901 -0.05903966 0.0033085775 -0.038582355 -0.02350288 0.02038737 -0.14636964 -0.24300024 0.24697559 -0.13136339 -0.043702114 -0.3108786 0.07309829 0.05348309 0.035326183 -0.4749057 -0.31903473 -0.22589263 0.16266817 -0.37929425 0.25208825 0.070216835 -0.092626505 0.073258616 0.119180955 -0.037417702 -0.48097643 -0.14472179 -0.2039134 -0.32181832 0.05812388 -0.0024411506 0.041985862 0.3494684 -0.013852218 0.018673327 -0.0080765225 -0.057917338 0.10374266 0.03290142 -0.015372387 -0.39179173 0.19188327 -0.11567331 0.31062865 -0.08684918 0.26868975 -0.017994558 0.09545918 -0.105005786 -0.055683512 -0.17775084 0.27444264 -0.025012553 0.18895635 -0.31725666 -0.13891459 -0.03608842 -0.31923917 -0.11182177 0.079312034 0.120630294 0.21853422 0.15924026 0.45715094 -0.030362815 -0.073176034
2889 -0.029272718 -0.23574144 0.11043502 -0.095598035 -0.26972285 -0.03550271 -0.10066721 -0.024593659 -0.052099254 -0.0908648 -0.07025956 0.009836039 0.31172496 -0.12584768 0.20703746 0.055520978 0.1935528 0.024964932 -0.1836895 0.14582635 -0.18781167 -0.05799545 0.36255884 0.01008977 0.109119326 -0.2932446 -0.07765498 0.1816293 -0.15055083 0.15058894 0.107151136 0.043222237 -0.079245076 -0.14027444 0.050423793 -0.18080418 0.17388006 -0.19109969 0.48276415 -0.032186445 -0.13682066 -0.24969524 -0.22970408 0.15249759 -0.07246062 -0.18487601 -0.2674977 -0.42730284 0.07364684 0.3781298 -0.081213355 -0.043832425 0.07202769 0.480882 0.25124335 0.11104841 -0.16976254 0.2069795 -0.16600953 0.043796163 -0.26036593 -0.008500107 0.14429285 -0.22166204 0.13923052 -0.057731092 -0.061066322 -0.07526566 0.0939794 -0.033895176 -0.015805617 -0.08456181 -0.15135226 0.024028068 -0.22887532 -0.2802822 -0.11590847 0.032898296 0.013407743 0.15855111 0.06483776 -0.17645775 0.11787393 0.053275514 -0.21226688 -0.012237495 -0.4867097 -0.10447242 -0.019926628 0.20475902 0.11165159 0.124428235 0.16085237 -0.17584252 0.2893784 0.09684688 0.015383209 -0.23161602 0.15495408 -0.078965485 -0.15399288 0.01962641 -0.044597853 0.0849754 -0.056004748 0.03980283 0.07494349 0.2159003 0.06088843 0.12750126 -0.007325336 0.12557775 0.15785713 -0.05441432 -0.049621135 0.10386526 -0.19169538 0.118203744 0.09144378 -0.041719977 -0.23663555 0.053010747 0.07888283 0.26802906 0.3097446 0.29875013 0.22716233 -0.30821562
1326 0.1926591 0.13969465 -0.22661251 -0.21197699 -0.35901877 -0.13568722 -0.24629633 0.022878833 0.063036196 0.144966 -0.20457764 -0.026550405 0.3187623 -0.12704855 -0.1051547 -0.18616866 -0.0697825 0.08019724 -0.34443286 0.1231762 0.16547287 -0.108573675 -0.29625776 -0.26265615 0.409299 0.14852707 -0.07089159 0.20430396 0.011379466 -0.09913994 -0.046579815 -0.10500057 0.1832269 -0.057314433 -0.14186765 -0.18723175 -0.0019274359 -0.12785996 0.11445663 0.13866882 -0.062592894 -0.021715024 0.023195023 -0.1698316 0.102350175 -0.05054467 -0.20633666 -0.2967891 -0.086563386 0.24509595 0.06036169 0.0023719727 0.056357294 0.06170802 0.13863766 -0.0483941 0.23212613 -0.16550657 0.38204113 -0.066026665 -0.28137708 -0.04463253 -0.27926913 -0.020764764 -0.21705069 -0.33494133 -0.092057556 0.28209358 0.05348996 0.15650149 0.0526104 -0.334373 -0.028429272 0.12694842 0.0011605275 -0.23683728 0.0049583623 -0.056352593 0.07951372 -0.11751334 0.14890471 -0.08754005 0.05279124 -0.059187923 0.14375485 0.06194121 -0.1275493 0.30496126 0.35378796 0.07841313 -0.16944167 0.20449443 0.33101466 -0.118987665 -0.04445943 -0.28722298 -0.008104235 0.0011222389 0.19662134 0.13175666 -0.135478 0.16953158 0.23632398 0.028370533 -0.075315066 -0.16020034 -0.00053179456 0.1150864 -0.16110551 -0.12313444 -0.27861914 0.07599169 -0.16745989 -0.20426038 0.087657414 0.15154763 -0.0045585353 -0.12777181 -0.03371604 -0.034140583 -0.085840456 -0.022410512 0.17481847 -0.069232315 0.100331545 0.2907033 0.16371815 0.14204761
3123 0.03646249 0.099529535 -0.271502 0.057323277 0.078744836 0.017092336 -0.21987954 0.010809459 0.19012722 0.15087798 0.26653442 0.03691646 0.16181341 -0.024907093 -0.11548473 0.10025912 -0.15468755 0.18850972 0.1365062 -0.07254987 -0.022167368 0.05483226 0.09845722 0.30493405 0.19161528 0.01069201 0.2870974 0.30012575 -0.20052467 0.2186906 -0.03915724 -0.2423209 0.28846687 -0.3211971 0.08574166 0.06949039 -0.09257437 0.069951415 0.015815731 -0.15499453 -0.12681162 -0.27835184 0.085521325 -0.029231127 0.016260514 0.11948083 -0.18719971 -0.22875111 0.07524965 -0.097336724 0.20486622 -0.11054126 -0.15442939 -0.018464223 -0.121776044 -0.03058943 -0.0307387 0.13479647 -0.057725303 0.081130244 -0.01805031 0.2250029 0.27973258 0.17024851 0.0945582 0.1430077 -0.23978792 -0.16002713 -0.094139144 0.33162507 0.10643636 -0.008706248 0.054116637 -0.08196744 -0.00393201 -0.42260402 -0.26039082 0.20675285 0.14935033 0.11908971 0.14612742 -0.20017278 0.2482464 -0.0028420084 0.100420475 -0.041142415 -0.21722889 0.041786905 -0.27910858 -0.094029225 -0.35419554 0.1351182 -0.0531834 -0.022164872 -0.10890836 0.046047453 0.0008122116 -0.1767428 -0.023238273 0.12166286 0.024445686 -0.0076901726 -0.4613436 -0.11315244 -0.22692677 0.24146187 -0.012939655 0.13856563 -0.07598022 -0.21083014 -0.2973229 -0.15220138 0.019201107 0.1691914 0.03454682 0.06861148 -0.13687235 0.046437345 0.29752547 0.29762843 -0.1925336 0.40878066 0.21512203 -0.10978227 0.15071198 0.0065278173 0.1986729 -0.0013406187
4409 0.061169874 0.0052215904 0.032518845 0.16254084 -0.049438108 -0.21742119 0.25308207 -0.26218063 0.30528417 0.015730374 0.029347565 -0.027283909 -0.20671645 -0.116676025 -0.050259408 -0.33400843 -0.2655988 0.028148187 0.3056235 -0.1877095 -0.13087988 0.38940752 -0.19252309 0.1273249 0.121132456 -0.30197972 -0.017611317 0.20203765 0.07734027 -0.14056954 0.050361384 0.02904894 0.26299873 0.12561467 -0.16462089 -0.18968649 -0.14157209 -0.38315362 0.07626007 0.2862601 -0.16744006 0.20655511 0.0753763 -0.30814993 0.20344196 0.09962413 -0.34295985 -0.3638485 0.14282304 -0.12076272 0.10674111 0.15801872 0.055419892 -0.06376937 -0.22419064 -0.15121135 0.103851214 -0.07246908 -0.34066167 0.29347825 -0.20067917 0.060088523 0.14777008 0.053216893 -0.015645169 0.1575645 -0.014329105 0.103732266 -0.1360409 0.03433181 -0.08644772 -0.10194515 -0.2236613 -0.07796011 0.06824784 -0.0009409081 0.04488627 -0.14781968 -0.028186902 -0.047579043 0.15477197 0.011375847 0.21665415 0.03199292 0.0013340517 0.12835269 -0.33798078 0.17519997 -0.051373567 0.3090014 0.0834877 0.03576073 0.13356352 0.25755712 0.17176482 0.15804729 -0.040106844 0.20736104 -0.0847724 -0.06816115 -0.09970732 0.19045706 -0.2269737 -0.08806711 -0.1233217 -0.03605355 -0.11445971 0.28815344 -0.07843631 0.27883753 0.016296739 0.21253347 -0.25014797 0.020376367 -0.11305797 0.2708237 0.058431864 0.28421795 -0.03620967 -0.0995491 -0.35205728 -0.018704027 0.15327963 -0.011376832 0.27063933 0.2730005 0.09304158 -0.0021842157
2727 0.10357296 -0.06769385 0.1386681 -0.051928017 0.17831561 0.09886637 -0.089038976 -0.34506914 0.21447049 0.054413963 0.12346922 0.2775006 0.12886956 -0.5335931 -0.115027666 -0.040206566 0.0584012 0.05056271 -0.07384183 -0.14457008 0.10367929 -0.05174091 -0.008368367 0.15838267 0.3110007 -0.22926933 -0.42550865 0.19621484 -0.25262538 0.26540294 -0.021019237 -0.0065613035 -0.24438688 0.015177948 -0.21866721 -0.10991633 -0.29106888 -0.1397588 0.18684557 -0.0997536 -0.14351763 -0.19418979 0.26893443 -0.07143784 -0.017493796 -0.116618745 -0.20743877 0.2829824 -0.36830163 0.08761356 -0.004449298 0.16779074 -0.2098771 0.22017059 0.04522414 0.16823387 -0.23556429 0.074415974 0.27191156 0.10601141 0.20587355 0.15762533 0.09856377 -0.046318065 0.15779196 -0.11809187 0.03957071 0.09039861 -0.101500526 -0.13721982 -0.03534807 -0.18197992 0.05592611 0.22781074 0.23453979 -0.05833248 -0.2664543 -0.06398597 0.02963831 0.14520672 0.16264579 -0.09290618 0.0952277 0.18788114 -0.09457504 0.16601259 -0.080787316 -0.36146948 -0.0123629235 -0.0018354824 -0.16133763 0.13453716 0.12630595 -0.12991521 0.28923285 0.26573056 0.06691132 0.09322479 -0.17696427 0.15430167 0.0418496 -0.0011644987 0.14148356 0.008379673 -0.14096512 -0.059448574 -0.35263065 0.26442695 0.0072996253 -0.066925235 -0.3852297 -0.076260276 0.05247842 0.027540766 0.10656806 0.1971999 -0.024087097 0.10358092 0.10917243 0.33082098 -0.055603262 0.07513389 0.08293977 0.055417124 -0.04242254 0.13080058 0.19876802 -0.056220602
773 -0.16513926 -0.0034755103 -0.07326119 0.11016916 -0.09313236 0.04646218 -0.2545387 -0.045358624 0.11072631 -0.21935126 0.1442189 0.0070590856 0.14024971 -0.10624694 0.04903053 0.12603666 -0.0003807051 -0.16083695 -0.0708373 0.193256 -0.08413493 0.28572172 -0.035514683 0.18986657 0.025235534 -0.13454339 -0.031313945 0.17558622 0.14646986 0.022424025 -0.09268277 0.013336952 0.2677269 -0.046250794 -0.04357251 -0.1545372 -0.3284102 -0.3948699 0.12759826 0.055464353 -0.23089771 -0.21715915 0.23751178 -0.053942356 -0.17267948 -0.14930648 0.10552628 0.071625516 -0.33046147 -0.31703734 0.060355328 0.22776125 -0.07073554 0.1057789 -0.4180023 0.10243954 0.47158393 -0.038901474 -0.1929189 -0.0043255757 -0.3093084 0.23935495 -0.05803562 0.22408067 0.10720363 -0.17624597 0.029188853 0.034414668 0.088922404 0.0029462453 0.15659086 -0.16215746 0.06214533 -0.23800647 0.24933332 0.09414343 -0.08472591 -0.0761851 -0.08340184 0.1147638 -0.023297414 -0.1885248 -0.33865133 0.06627193 0.20906419 0.12134434 -0.13946983 0.084584095 -0.022189824 0.04220541 -0.104135476 0.053879 0.33200127 -0.09030418 0.034198742 0.26262417 -0.033177678 0.19423051 0.2205659 -0.121736735 -0.12784389 -0.06435255 -0.33597243 0.3904462 0.07717123 -0.004615473 0.061348964 -0.07615957 0.0006289649 0.1911064 0.06012551 -0.1835786 -0.10332505 0.32580122 0.04045405 0.08701722 -0.037316956 0.23109324 0.2000852 0.106064275 -0.36701864 -0.20769054 -0.118020564 0.104737714 0.2537554 0.31060934 0.10929348 -0.25245658
16 0.34912997 -0.16030902 -0.25458273 -0.12241893 -0.17994966 -0.19750457 -0.12326328 0.023335418 0.22057025 -0.13098705 -0.18792069 0.06975435 0.23344451 -0.046201102 -0.009076328 -0.24677604 0.28375503 0.046449393 0.047601856 0.14831111 -0.010150201 -0.14234127 -0.012691145 0.104464754 0.106398605 0.037402313 0.120502524 0.24151938 -0.3723325 0.031104082 0.23907135 -0.13445574 -0.06292993 -0.063336805 -0.22619548 0.27045396 0.060948897 -0.2859628 0.38191575 0.014057202 -0.32085654 0.23065749 0.09324596 -0.031028412 -0.044214107 0.14057924 0.11452163 -0.254319 -0.2438898 0.12102052 0.015079592 0.08526801 -0.18638317 0.05508748 0.13855061 -0.3772705 0.25343794 -0.35573393 0.12462074 0.113294326 -0.19436832 0.12401266 -0.2232888 -0.12241326 0.090420656 -0.2744825 0.07772892 0.061913412 0.1649001 0.03207714 -0.12740463 0.18844616 -0.17147425 0.10017071 0.13562644 -0.21030185 -0.18690723 0.03464645 0.23803021 0.1325025 -0.1723839 -0.06930717 0.0710104 -0.09893166 -0.07202838 -0.13479404 -0.21637917 0.033118885 0.16963327 0.12241794 -0.032096338 0.07577752 0.06638227 0.11405006 0.24113128 0.026118936 0.1954423 0.056084238 0.2708695 0.24273401 -0.02492725 -0.034945335 -0.2671579 0.2320198 0.1469773 -0.041198675 0.046202358 0.25282305 -0.24474846 -0.022970757 0.114601664 -0.038268846 -0.19295847 -0.24189728 0.02109867 0.1017866 -0.1172529 -0.18515047 0.2383794 0.19077261 -0.013130788 0.05321316 0.083698705 0.030246204 0.1914427 0.33780888 0.027885761 -0.16836657
3087 0.13008049 -0.018934267 -0.14974888 -0.11807508 0.04710725 -0.2615431 -0.11560461 -0.28777525 0.2998797 -0.068881854 -0.05506197 -0.26596153 -0.04378527 -0.15341748 0.14156353 -0.40122518 -0.025258584 0.09960845 0.05837846 0.015145571 -0.26738307 -0.02721042 -0.32589558 -0.34492472 -0.07841695 -0.08200221 -0.20435387 0.29963228 -0.4024994 0.19525638 -0.2384615 -0.14700356 0.26919147 0.17026511 -0.16663226 0.03535172 0.16934237 0.04602161 0.50502133 0.21999772 0.032309927 0.2618566 0.2716552 0.017401371 -0.01581072 0.0050701816 -0.1962429 -0.16475037 -0.12197282 -0.22250879 0.0029989167 -0.0021928048 0.10360304 0.08009459 -0.008330289 0.073293336 0.0123688625 0.10152187 0.07426641 0.09625293 -0.10931578 0.4660686 -0.00031264807 0.28017363 0.097567104 -0.009700235 -0.19561037 0.07101145 0.03686657 -0.11719608 -0.021545097 0.036515832 -0.15601437 0.09571958 -0.03436642 -0.10629155 -0.18137321 -0.24074869 -0.023527943 0.2651126 -0.037907388 0.010376476 -0.21263233 0.25007924 0.071718745 0.15427464 -0.42473155 -0.19676813 0.08043734 -0.41650245 0.07745116 0.31794652 -0.008642379 0.04835125 -0.038813066 0.0074640485 -0.025890166 0.07741321 0.07336675 -0.006369492 0.18932334 0.08396026 -0.036427803 0.072525315 0.19521888 -0.0939248 -0.2456391 0.044794034 -0.10424163 0.0100514265 -0.17732726 -0.052079026 -0.20745577 0.27955276 -0.18701153 0.05369668 0.020493181 0.1941734 -0.08652282 -0.35819656 0.051094174 0.2732157 0.05612917 0.16357593 -0.20764805 0.09493742 0.08797177 -0.26700935
6136 0.24517381 -0.056376904 0.029907798 -0.010639204 -0.06667809 0.158515 -0.07724829 -0.091014065 0.22237925 -0.0023619172 0.25729397 0.14974385 0.2601832 0.16381185 -0.00766663 -0.08816587 0.026473384 0.088384345 0.00796249 0.20170292 -0.20220229 -0.028366867 0.06935092 -0.03818722 0.15987389 -0.1189055 -0.112211056 -0.14680967 -0.16823229 0.14052938 -0.14564547 0.0131117925 0.11340738 0.2468878 0.10564717 0.10527305 -0.24952158 -0.19685672 0.2644432 -0.076202855 -0.38494065 -0.024067229 -0.22202602 -0.21899119 -0.0006194743 0.057263862 -0.18191636 -0.2105814 -0.06270372 0.23873672 -0.037997633 0.039038155 0.0058823046 0.45484897 0.12452109 -0.095982544 -0.09230592 0.10916441 -0.26001233 0.0016498525 -0.21322493 0.11308001 0.1702419 0.008477741 -0.23210333 0.079567604 0.20241037 0.13835144 -0.0850401 0.07700122 -0.13182057 0.008616562 -0.35813928 0.16830824 -0.35087 -0.11921874 0.1067442 0.12843417 -0.04555003 0.47257072 -0.14192373 -0.21861757 0.20541354 -0.048517644 0.07198878 0.2301272 -0.3928327 0.043442283 -0.021458616 0.081897475 -0.13656043 0.055358496 -0.0013791677 -0.35002908 0.33178845 -0.0073825936 -0.13489404 0.057920404 0.15507875 0.057823416 -0.07358387 0.010454239 -0.07034591 -0.091817595 -0.0027089033 -0.18325086 0.28164607 0.40829635 0.29407868 -0.14053608 -0.020633569 0.088452615 -0.21303797 -0.083904974 -0.15236486 0.005615441 -0.042810652 -0.07731722 0.11942908 -0.0115871765 0.07029523 -0.14447469 0.10904019 0.12665568 0.14308603 0.25998774 0.06865151 -0.42561278
3886 0.16068229 0.07243454 -0.039344322 -0.08738649 -0.13044935 -0.12371238 -0.058593858 -0.46751451 0.18151814 0.07197709 0.124724954 0.1494663 0.03699896 0.019918924 -0.054552656 0.063977934 0.010022624 0.19965123 0.0056743664 -0.15729673 -0.13085759 -0.17918673 -0.13669969 -0.058551155 -0.028432094 -0.11537683 0.104308866 -0.06311069 0.18504772 0.09960698 -0.16446584 -0.35495874 0.15601285 -0.28362474 -0.07199534 -0.39038906 0.07101422 -0.20649295 0.036504943 -0.09175827 0.0233608 -0.29851198 0.11475346 0.22865337 0.10240496 -0.032537643 0.06822085 -0.12431741 -0.013581631 0.029382989 -0.019962903 -0.025549542 -0.055234578 0.24040774 -0.10661609 -0.009359453 -0.08655897 -0.19846164 0.12700665 -0.02636555 -0.22153789 0.21825321 0.14307648 0.19061351 0.09450696 -0.07948538 0.0849552 0.15692577 -0.08057597 -0.005378735 0.17406955 0.17925568 0.05093638 -0.29097107 -0.17029323 -0.11902802 -0.15743883 -0.022034684 0.06395671 0.1565641 -0.3317228 -0.11182275 0.14559385 -0.34223843 -0.0669865 0.02583177 0.07817169 0.22548783 -0.3215041 0.056484237 -0.4689186 0.47394565 0.10932137 -0.018011803 0.051162962 -0.2955335 -0.10273901 0.20023248 0.16513687 0.13955499 0.38455728 0.1203712 -0.3409563 0.059021942 -0.3319696 0.09352394 -0.022025324 0.040797323 0.07076205 -0.11766843 -0.1051989 -0.28949928 0.4101239 -0.01283993 -0.1571301 -0.009441148 -0.11982182 0.022603376 0.22522758 0.22562627 0.27024895 -0.14554253 -0.023463182 0.13682652 -0.04821738 -0.073554955 0.19863406 -0.19267628
813 0.044429783 0.0735135 0.055856336 0.03214832 -0.21250364 -0.0104166735 -0.015785608 -0.1940786 0.1219777 0.11412864 0.015128361 -0.04419629 0.18940248 -0.17175618 0.163417 -0.13332827 -0.12296379 0.025194388 -0.07515337 0.06604933 -0.05561179 0.16506405 0.33344302 -0.22791386 0.13031037 -0.19413877 -0.060045578 -0.07442011 -0.21206455 0.13155891 0.16655184 0.11149811 0.031953678 0.22191978 -0.13372396 -0.25091347 -0.24705818 0.033264887 0.08188018 -0.12045127 -0.15309143 -0.026232528 -0.020718748 -0.16357335 0.0847714 -0.036654245 -0.024236143 -0.26341993 -0.29148582 0.07413298 0.14610797 0.08080842 0.0036289946 0.40635857 0.32713667 -0.038312353 -0.20134072 -0.098318174 -0.1774392 0.305578 -0.35251153 0.12555139 -0.09738363 0.051629454 -0.008818517 -0.12889987 0.37285963 -0.10778573 -0.10687171 -0.026724514 -0.01879487 0.042388987 -0.10378873 0.2689052 -0.072671846 0.00065771065 0.020644149 -0.05666085 -0.08814638 0.11209483 -0.025498617 -0.11848638 0.28093123 -0.049166083 0.0077476096 0.11453064 -0.368166 0.10727094 0.04266638 -0.10029364 -0.25370467 -0.08782205 -0.0072428174 -0.02550788 0.20519926 -0.027916672 0.018927181 0.08988541 -0.09055503 -0.0011650915 0.042374294 -0.15189098 -0.20478092 0.044473264 0.11299228 0.018796798 0.09791087 0.04083531 -0.032133676 -0.09754597 -0.10199432 0.05107036 -0.026587013 -0.10980419 0.008151901 0.11112412 -0.14126201 -0.03598163 -0.0063338666 -0.0069367564 -0.31897104 0.060030412 0.18231463 0.09173791 0.19340044 -0.093686424 0.061957013 -0.25810826
1335 0.23228416 -0.19806235 0.026816024 0.19975671 -0.00032959436 0.16332872 0.01920965 -0.11549449 0.13528828 0.052888703 -0.04223852 -0.077657916 -0.1893708 -0.1206836 -0.067360304 -0.22088474 -0.13720664 0.07675444 -0.09898375 0.08005378 -0.15216604 -0.07941966 0.046280514 -0.13147728 0.064017825 0.12190675 -0.08778225 -0.09919005 -0.10084872 -0.27373987 0.13469806 0.013097016 0.19181676 0.0894821 0.03669463 -0.19651045 0.046973523 -0.05601046 0.021597393 0.003008864 -0.1847004 -0.024465522 0.018242309 -0.18675901 0.021293553 0.0113599915 -0.11358566 -0.017767923 -0.17167994 0.037088417 0.13598281 -0.04476176 0.18864134 0.07535562 0.08375116 -0.09361738 -0.20829427 -0.03466618 0.09028359 0.06148149 -0.209928 0.14050964 -0.18902081 0.24525616 -0.07897394 -0.21764627 -0.12637481 0.18805614 -0.05906873 0.1322452 -0.043072578 -0.23966677 -0.015284269 -0.006612244 0.068648264 -0.11740089 0.08025055 -0.07712093 -0.01488555 -0.09488386 -0.17126895 -0.19055507 0.20595664 -0.07562477 -0.030384537 0.098827556 -0.26825318 -0.03136817 -0.20358746 -0.04277244 0.044696834 0.058331635 0.22761624 -0.13204268 0.19459555 0.01727986 -0.013009106 -0.013259698 -0.15893441 0.035601072 0.07957381 0.0400664 -0.15961741 0.10528724 -0.04461025 -0.039152764 -0.19285429 0.0784845 0.06835502 -0.05182371 -0.03679968 0.008290417 -0.34582978 0.18411897 0.1339568 -0.18496878 -0.27714142 -0.14111061 0.17026934 -0.08676195 -0.1376584 0.17269453 0.15160532 0.15307844 -0.04578517 0.29817575 -0.012022014 -0.2552024
1315 0.21677889 -0.06101588 -0.0026459412 -0.16741905 -0.18754704 0.069570564 -0.11322665 -0.3736811 -0.031681266 0.080238186 -0.06529619 0.15983355 0.24723439 -0.027123952 0.056547426 -0.11596061 -0.12686177 -0.0077419155 -0.1288821 0.2455249 0.025768692 -0.044345587 -0.071648195 0.09600676 0.22299728 -0.13778473 0.010267532 0.005274371 -0.03919394 -0.004306423 -0.0946043 0.067062356 -0.006036075 -0.08341093 0.07075816 -0.038580865 -0.025289288 0.14309958 0.122730196 0.047187403 -0.06081508 -0.079593584 0.21502864 0.15289536 -0.023737805 -0.016575646 -0.13468443 -0.21709178 -0.1195395 -0.13552362 0.102013804 -0.02411821 -0.13445714 -0.12105921 0.06899129 0.11654586 -0.063459 -0.23775563 -0.0947455 -0.06344212 -0.041378964 -0.0520333 -0.011996572 0.25926244 -0.10469396 -0.0011784219 0.05654991 0.2138194 0.057406854 0.056892134 -0.09355077 0.05089197 -0.20758384 -0.13139018 0.17982069 -0.1406434 -0.075821355 0.16563454 0.1294645 0.26346987 0.19235034 -0.40500557 0.11091025 -0.23861969 -0.1150105 -0.10583268 -0.13262889 -0.268385 0.05558712 -0.14388005 -0.12940234 0.03829495 0.15757415 -0.2665859 -0.12732804 -0.09131717 0.0876189 0.09781334 -0.034698937 0.05670899 0.018741801 -0.028871644 0.011704804 0.4461919 -0.06312938 -0.28527406 0.035263304 0.059048202 -0.020227125 0.08626016 -0.04091054 -0.003368647 0.124461964 0.014944668 -0.03653647 0.058769677 -0.10410897 0.051511455 0.15175126 0.07821531 -0.27450413 -0.050443005 0.18149082 0.06288704 0.058928926 0.2404333 -0.040683124 -0.020958602
2946 0.40384033 -0.13262141 -0.03800326 0.09807812 -0.25165534 0.22855468 -0.01150792 -0.09575375 0.2384354 -0.042692173 0.17138349 -0.012114825 0.16875105 -0.015901223 0.052187085 -0.06724155 0.08841717 0.04044754 -0.101721495 -0.021583512 0.22681285 0.20897347 0.13279568 -0.33236784 0.19949897 -0.1792855 0.060693145 0.12509845 -0.26711634 -0.21370625 0.08103148 0.015824903 -0.24875543 -0.028313644 -0.042619754 -0.056825005 0.13763107 -0.301967 0.29120538 -0.085159674 -0.12744814 0.36020634 0.055747885 -0.24302895 0.09129157 0.31357047 0.020404091 -0.12627551 -0.21267451 0.043584015 0.19985713 0.20941788 -0.08237552 0.08196884 0.084933676 0.067991786 -0.09205143 -0.27248085 0.018595405 -0.10554639 -0.26598847 0.25394455 0.06475191 0.18981577 -0.037004974 -0.38415936 0.02161556 0.064848155 -0.09627257 0.31467867 -0.18005179 0.13844243 -0.27758473 0.12987585 -0.13460024 -0.10797855 -0.05009356 -0.08821976 -0.008901208 0.6026124 -0.006304446 -0.23216353 0.35527506 0.08587934 -0.17380066 0.13338673 -0.38724595 -0.10606555 0.114461064 -0.051957507 0.07494637 0.14277515 -0.08183528 0.33409023 0.39402646 0.13762908 -0.072971396 -0.043309417 -0.017488196 -0.14077042 0.24179451 -0.18160549 -0.16222207 -0.034045808 -0.03072645 -0.08950371 0.03656186 -0.030914122 0.016742215 0.036355413 -0.27892107 0.105413094 -0.08704981 0.018833252 -0.006423338 0.0065312623 -0.06803866 0.08960987 0.09843693 -0.08542599 -0.16668946 -0.0912535 0.16432743 0.022010745 0.28914747 0.21802019 0.46894583 -0.0064376937
3073 0.0817476 0.027038975 -0.06314374 -0.39764944 0.124210574 0.24745953 0.063341565 -0.1479273 0.27570117 -0.08918474 -0.404735 0.2744767 -0.010794328 -0.11180536 -0.14195159 0.11859581 -0.13546295 -0.25954056 -0.052871063 -0.11471523 -0.1527766 -0.31007993 0.15108208 0.17467223 0.24883534 -0.01623521 0.24237512 0.15056573 0.0426884 -0.3429332 -0.031777013 0.01212479 0.20033263 0.16358517 -0.22040287 0.058610454 -0.07864278 -0.16264379 0.3395276 0.025354441 -0.16528276 -0.13963197 0.17916681 0.009212291 0.056068 0.31647307 0.03820057 -0.05956208 0.26264098 -0.067736015 -0.2458204 0.0059746234 0.17387736 0.21881665 0.42053849 0.23518412 -0.12245629 0.08135455 0.011909205 0.008542988 0.062082816 0.18221456 -0.022264414 0.19524929 0.122615986 -0.20919059 -0.10845064 0.0027160465 -0.12114045 -0.08391902 0.007227026 -0.09030647 -0.008190389 -0.2860376 -0.018971058 0.055788413 0.09051033 0.22075588 -0.09703504 0.10527354 -0.13791749 -0.13820855 -0.02216357 0.06960596 -0.084109664 0.2787417 -0.12448686 0.11832265 0.047404513 0.18439159 -0.24225532 -0.071827464 0.36023897 0.10149218 0.035007976 0.19090158 0.05701286 -0.2574113 -0.0497358 0.016560866 -0.19898134 -0.24464747 -0.08379754 0.29245248 -0.2713987 0.15056026 0.03977896 0.19946823 -0.15365212 0.027744634 0.09585937 0.09811034 -0.05755783 -0.036749087 -0.14931747 -0.1660103 0.17934883 0.23246326 -0.34963003 -0.03018018 0.06226998 0.046099253 0.30949795 0.35574353 0.072294995 0.31267333 0.15675458 -0.11666547
5234 0.21990363 0.11659236 0.14144029 0.11435074 0.006706561 -0.13839535 0.033420194 -0.15924229 0.21759458 -0.11900846 -0.11800691 0.14640178 0.21087036 0.0009561592 -0.038954798 -0.0016793596 -0.057305057 -0.1563768 0.021852069 -0.02667975 -0.11244575 0.19654419 -0.107566416 0.038510855 -0.0064707035 0.010466685 -0.015830671 0.04471974 -0.25048828 -0.036128834 -0.20216882 0.14447804 -0.10398541 0.08255321 0.2403874 -0.15697674 0.08478095 0.20309342 0.110486925 -0.06223483 -0.32843256 -0.11672825 0.0857005 -0.049336057 -0.04003026 0.047830302 -0.012458463 0.06153735 -0.07242446 0.22808576 -0.08130285 0.061601885 0.049318112 -0.01598827 0.0056810845 -0.027296692 -0.02757775 0.01138875 -0.030343264 0.032829233 0.121901385 0.008113001 -0.04458237 0.11767532 0.004832813 -0.09023242 0.0341933 0.15763964 0.07664698 0.13921373 0.0764499 -0.10394911 -0.17204623 -0.12557417 0.10016716 -0.46320027 -0.11522585 0.030296244 -0.034493662 0.093142346 0.04445146 -0.08559257 0.21224762 0.034046344 0.019729257 0.017624903 -0.12106783 -0.32808438 0.20027159 0.15289205 -0.1335457 -0.02163443 0.15702875 -0.14562437 0.19664623 -0.032431155 -0.08894476 0.084949784 0.18338951 -0.16261472 -0.050968826 -0.015052637 0.01647488 0.174109 0.02046905 -0.14460827 -0.027782237 -0.16227306 -0.037970845 -0.098775275 -0.11655567 -0.10284906 0.032140005 0.129648 -0.13244148 0.06884817 -0.14678729 -0.12177724 -0.0075368895 -0.04988422 -0.11397889 -0.115896106 -0.073879324 0.13438445 0.16697848 0.26507878 0.05561701 -0.23472312
2016 0.16330732 -0.2128794 0.14654672 -0.051222835 -0.060188856 0.26067996 0.010203049 0.09817815 0.21546604 0.0424136 -0.04261506 -0.018076608 0.06149047 -0.35249475 -0.21237613 -0.29296267 -0.2926534 0.15558441 0.0074549494 -0.017960256 -0.4073922 -0.0048302696 -0.03848319 -0.081581034 0.10808628 -0.36957622 0.07759053 0.35868654 0.06802951 0.030258272 0.016938174 0.092446044 0.043607537 0.004198062 0.061200824 0.087061666 -0.06029249 -0.29285198 -0.040396694 0.1908193 -0.05217864 -0.080632865 0.27759054 -0.06616481 0.44912785 -0.10010639 -0.19899307 -0.0981081 -0.046681475 -0.22592977 -0.19646989 -0.077088244 -0.28941074 -0.03282481 -0.023158919 0.112809725 0.1807311 -0.14951497 -0.21010193 0.4784482 -0.2842222 -0.12901793 0.08367716 -0.054128617 0.067096926 0.25350854 0.10447445 -0.040969912 0.23822571 0.11313995 0.06352753 -0.07622957 -0.02317707 0.079068184 -0.1422362 -0.28844583 0.021996884 -0.37821868 -0.09592692 -0.06430429 0.25001752 -0.035052978 0.26157662 0.08213242 0.17118777 0.018723847 -0.17128174 0.10750653 0.008502844 0.02761091 0.27494377 -0.16693102 0.19199955 0.30503836 0.11765705 0.1342914 -0.023546362 0.19505051 0.24298069 0.10873568 -0.08382791 -0.066106975 -0.14691155 0.26778415 -0.057106357 0.0044290707 -0.13637511 -0.17089319 0.26786014 -0.037690282 0.03175031 -0.084187895 -0.4289077 -0.07937721 -0.01022989 0.49998623 -0.20311578 0.21578915 0.119128436 0.04945482 0.22832322 -0.06017912 0.005463668 0.100057624 0.13124073 0.23802614 -0.0957136 -0.21242301
335 0.19671129 0.14787047 -0.14223962 0.13247377 -0.2258027 0.1444679 -0.1772439 -0.2602019 0.17297003 -0.081130415 -0.0075334203 -0.010265775 0.05202145 -0.030248605 0.09084709 -0.25264704 0.03752797 -0.07028016 0.18452798 -0.05493779 -0.0018675154 0.08152436 0.35813347 -0.084021315 0.33664176 0.17024161 0.18545616 0.24539874 0.17060617 0.005812107 -0.097382985 -0.11981859 -0.11090718 0.11967848 0.21618319 -0.101859644 -0.11287018 -0.25446454 -0.12610269 0.14612311 -0.21890621 -0.2288509 0.17686774 -0.15876353 -0.12448349 0.0007638927 -0.15361848 -0.37026075 -0.29866827 -0.035583388 -0.025774306 0.036534186 0.07977401 -0.12087588 0.035586324 -0.08987848 0.11727967 0.093382806 0.017139936 0.16365017 0.049241915 0.19802289 -0.15953872 -0.054420542 0.0006417708 -0.19586596 -0.15252142 0.033691317 0.035569236 0.26700988 0.59647745 0.09141642 -0.20328847 0.020114783 0.08607036 0.116353996 -0.036104195 0.046186153 -0.19492248 0.17798755 0.0021672002 0.17474239 -0.28443015 0.046110544 -0.06884414 -0.13752666 0.04112844 -0.088851854 0.045939583 -0.089497514 0.20583434 -0.089911 -0.081729636 -0.117644645 0.005854211 0.22693716 0.02727054 0.08338633 0.19644149 0.062860824 -0.3284281 -0.04438286 -0.27369016 0.26406038 0.10596157 -0.10789251 0.12885535 -0.20269388 0.0024652362 0.011011825 -0.17102492 0.061361082 -0.18907146 -0.03014309 0.16988125 0.047214743 -0.27864975 0.20968181 0.14032774 0.22332047 -0.023292623 -0.18483381 -0.085074745 0.072231635 0.295033 0.27049664 0.22538348 -0.38526782
6109 0.16681154 0.009356331 0.107295126 -0.20202325 -0.007413973 -0.071686886 -0.17410159 -0.23834632 0.06323382 0.07259392 -0.0743757 0.094164886 0.30958322 0.13307422 -0.07342938 -0.043444667 0.008601199 0.124586545 -0.073878035 0.059604652 -0.077017315 -0.29748803 -0.24292181 0.06557798 -0.10827683 -0.11418012 0.029990748 0.18004265 -0.011398731 0.10580933 -0.21601924 0.034945406 0.21459919 0.1009903 0.056329798 0.0034692674 -0.0438852 0.15343755 0.04832981 -0.114651784 -0.15710686 0.052536048 0.07787779 -0.12713006 0.041799143 0.23250487 0.0554788 -0.0071317176 -0.33786687 0.0853704 0.10631644 0.19364004 0.16084327 -0.014106897 0.008415129 0.06709897 -0.09324137 0.09730908 0.105297096 -0.13709006 0.0038318404 0.112264544 0.06740002 -0.11856641 0.1081837 -0.113297656 -0.035989538 0.19815695 -0.17298906 -0.10324468 0.14742468 0.028576786 -0.16709927 0.14003552 0.19036475 0.012567041 0.072804525 -0.051335756 -0.06977963 0.14045891 0.18131986 0.11151069 0.055498395 -0.11402168 -0.08658638 0.1766453 -0.20565896 -0.18879895 -0.19434543 0.024755672 -0.004965364 0.39823204 0.18258078 0.22597542 0.1786957 -0.008117987 0.09352768 0.071906455 0.17385373 0.03405161 0.13283506 -0.016087322 0.070876166 0.09531789 -0.267911 -0.21544299 -0.049878526 -0.19376193 0.053376313 -0.021887146 0.00931378 0.10670664 -0.08952746 -0.066005796 -0.06753632 0.043616712 -0.28095362 0.21133868 -0.009698651 0.08780962 -0.18128905 0.08476323 0.0052180807 0.12791081 0.2734789 -0.22085829 0.20874308 -0.19919512
5703 0.110002905 0.059529155 -0.028202947 -0.13767847 -0.2760682 0.12321813 -0.19929455 -0.25984117 0.29643944 -0.21976237 -0.061784804 -0.11229819 -0.06553231 0.07856669 0.09927815 -0.17322744 -0.10369808 0.041694745 0.15206726 0.11674019 -0.15889974 0.0377632 0.18671858 0.078048676 0.32274452 0.161621 0.16297407 0.07416881 -0.11254966 0.3433304 -0.3006912 -0.050283983 -0.20248254 0.0644122 0.033343527 -0.1342649 0.042258255 -0.38403675 -0.1921114 0.011618075 -0.28812474 -0.15069273 0.08905724 -0.036774848 -0.08538868 0.31131637 0.028004868 -0.44191444 -0.57484686 0.16590206 -0.061398923 -0.034051854 0.098575614 -0.23983493 0.07313907 0.1928442 0.042939022 0.07457942 0.10605923 0.32934612 0.008995864 0.24435416 -0.08233441 -0.16844736 0.013073725 -0.14955856 -0.06596827 0.27986535 -0.29778096 0.19246034 0.24363813 0.08573136 0.038054507 -0.077812366 0.19346951 0.06459269 0.13199341 -0.086890996 -0.08424883 0.050511587 -0.08359061 0.19546023 -0.1739305 0.14887021 0.24235901 0.0029020426 -0.1567361 -0.16900116 -0.0968929 -0.23708884 0.113853574 0.043713085 -0.091034226 -0.2593486 0.007851628 0.21011102 0.069404945 -0.0974842 0.043631736 -0.066343814 -0.098735996 -0.12341973 -0.10216516 0.01647 -0.11492369 -0.018475946 0.15554526 -0.43672273 -0.015447128 -0.017640129 0.040940072 -0.04108609 -0.21177058 -0.04850599 -0.02727925 0.031528868 -0.15861185 0.21592066 0.112518765 0.28909177 -0.04248833 -0.06471422 0.17684735 -0.045415197 0.10886777 0.16671728 0.13039991 -0.46402645
6119 -0.41944882 -0.17405526 0.046122734 -0.014630881 0.10984032 -0.05929654 -0.15081708 0.03710817 0.09674052 -0.01522909 -0.10934904 0.1471983 0.12677161 -0.34545255 0.32309324 -0.23962626 -0.10108047 -0.11023578 0.13541515 -0.1613199 -0.0041890554 -0.13214262 -0.2382854 -0.2888889 0.018026529 -0.1490806 0.34398052 0.088533066 -0.23396933 -0.20679386 -0.044601817 0.018838776 0.06277373 -0.13089496 0.3429907 -0.34402436 -0.28952616 -0.0034805178 0.080831505 0.1675721 -0.22511165 -0.17560498 -0.002483963 -0.102742575 -0.13959478 0.21225636 -0.27390665 0.104625426 -0.17655362 0.16535711 0.009442282 0.31235966 -0.04888109 -0.20084329 0.24800253 0.117967404 -0.14757428 -0.0058761863 -0.15360463 -0.09045561 -0.08048688 -0.05133314 -0.08790189 0.21690057 0.32689983 0.18580467 0.04481379 0.085425794 -0.37415266 0.059885215 0.02631367 0.17200047 -0.08831423 0.26650983 -0.0914574 0.2064169 -0.6671206 -0.031646203 0.001817467 -0.13958631 -0.022799468 -0.22193535 0.187647 -0.023442397 -0.026409876 -0.14783171 -0.0073874057 -0.38823286 -0.23377663 -0.24527243 -0.15461406 0.15530977 0.058843173 -0.12937486 0.410444 -0.1024119 0.12903859 -0.11689185 -0.16525607 0.3932651 -0.10396389 -0.00061344693 -0.16210775 -0.09726636 -0.05387823 -0.3199947 -0.13125254 0.17467828 0.028859505 0.057728413 0.101487085 0.012908753 -0.14811681 -0.021977914 -0.31586733 0.06943265 -0.2364408 0.13278435 -0.075993605 0.18914928 0.017531084 -0.12776738 0.11387793 -0.046338357 0.10132395 0.13786264 -0.0748153 -0.012443732
1477 0.24319652 -0.14019804 0.08388973 0.046957202 -0.11115645 -0.15659022 -0.3748928 -0.36863124 0.37294605 0.10409588 -0.15593523 0.012480218 -0.044606883 -0.061707467 0.022533713 -0.12373024 -0.07850669 0.21634613 -0.26793194 0.4066964 0.26311326 0.0029430233 0.23831433 -0.30100137 0.24055852 0.004021358 0.0726539 -0.33010608 -0.047269728 -0.3737177 -0.062507294 0.15124048 -0.049648512 -0.01675757 -0.02203558 0.15177394 -0.029740887 0.112831816 0.30307108 -0.048241112 -0.16279604 0.13208896 0.10060077 -0.2546715 -0.3348809 -0.02489735 0.06777142 -0.023354424 -0.22245143 -0.15783738 -0.09048896 -0.0076910337 -0.040449627 0.5172694 0.12908946 0.03170725 0.16651846 -0.14148971 0.015671214 0.47820145 0.054167207 -0.17933711 0.012344073 -0.026707761 -0.05983214 0.09332359 0.112176135 -0.046319306 -0.03273545 0.38626415 0.18028836 -0.031487938 0.006686411 0.020912437 -0.043934654 -0.222134 -0.44244817 0.01256959 0.19490822 0.0050171744 0.059143167 0.041193306 0.035498306 -0.033503704 -0.04824435 0.20126992 -0.32672507 -0.24104904 -0.17093849 0.065636195 0.010931195 0.3198588 0.1400715 0.019056685 0.007757962 -0.30232722 -0.0055907834 -0.009632287 0.24256729 0.09007302 -0.07677488 -0.19085929 0.110855885 -0.23063774 -0.04479945 -0.019055275 -0.0651573 0.15752447 0.021201054 -0.0347229 0.43423238 0.3545296 -0.07040813 0.058602273 0.13325033 0.25673753 -0.22651266 0.04396637 0.122818 0.060399354 0.02098281 0.098138966 -0.008422515 0.10158813 0.34231487 0.067500316 -0.06093986 -0.2507427
1628 -0.108489946 0.06857002 0.046062313 -0.1883841 -0.09938396 0.23526017 -0.0799766 -0.18796343 0.1430373 -0.001170342 -0.09852812 -0.041785058 0.05168716 -0.17856632 0.17870943 -0.21079232 0.19782634 0.23263378 -0.022783194 -0.06322793 -0.016600218 -0.16288896 -0.1006682 0.0008012969 0.06566187 0.046398256 -0.058560375 0.026444549 -0.14423965 -0.023211282 -0.1094653 0.13326767 0.03555126 0.3041939 0.09432697 0.08970948 -0.0041942173 0.026713759 0.038767423 0.13485242 -0.25620243 0.063121445 0.20441498 -0.018141948 -0.03896742 0.24700652 0.090050384 -0.0946091 0.17590958 0.0963179 -0.10141063 0.0149326585 -0.126658 0.1535834 0.009957279 0.056924995 0.2558351 -0.11143317 0.045314904 -0.026934128 -0.29256874 0.05726331 0.092486866 0.23045495 -0.057388615 -0.16996525 0.039900817 0.097211555 0.16568358 0.06677416 0.08137472 -0.047442473 0.00080676656 0.17547454 -0.03634779 -0.17584436 0.026581885 -0.055897627 0.17933705 0.0654556 0.004505789 0.008796977 0.16847585 -0.17952988 -0.10143326 -0.063098 -0.073175065 -0.06776785 0.026930355 0.02770081 -0.106442444 0.1830526 0.23344086 -0.23545967 0.050416816 -0.061710656 -0.4435169 0.049316686 -0.020040596 0.05211968 -0.031210527 -0.065194756 -0.034691386 0.07799582 -0.29156005 -0.009946634 -0.16579868 0.15700969 -0.06468323 -0.04361627 0.031461123 -0.084489256 0.034702655 0.09022248 0.07843252 -0.12824117 -0.00958405 -0.11252506 0.18016043 0.037989814 -0.044853307 0.06479419 0.11752404 0.11053519 0.05161596 0.23379022 0.20884885 0.012435048
4985 0.04642964 0.0018308657 -0.1937552 0.049961634 -0.09140022 -0.17822127 -0.41117197 0.035139807 0.17988452 0.06961258 0.05941285 -0.06777175 -0.014218063 -0.11778315 -0.090609275 9.4188224e-05 -0.15126297 0.027990855 0.10738418 0.118433684 0.10137417 0.06528908 0.1482822 0.0698474 0.10882769 -0.07659209 0.001458516 -0.0315386 -0.02027863 0.08923833 -0.11611574 0.10261709 0.0076441183 -0.0059386757 0.011304903 -0.014176538 -0.09880006 -0.11495079 0.025123121 -0.018071692 -0.3114281 -0.3016914 0.05969425 -0.06148096 0.106592216 0.01661458 -0.06892149 -0.106858775 -0.15050781 0.0998872 0.0957055 0.17096111 -0.092280045 -0.038459625 0.16601734 -0.01233081 0.098487526 0.008959013 0.08009863 0.19581859 0.021258997 0.314576 -0.011227834 -0.082553 -0.041831102 -0.26075116 0.02643549 -0.1022214 0.08851343 -0.09167823 0.35816285 0.06339265 -0.2621529 -0.0700231 0.02730414 0.15486325 -0.08019998 0.070165105 -0.023342613 0.0882875 0.022309223 0.03548606 0.037545774 0.02570635 -0.05337935 0.057946905 -0.25759575 -0.18443082 0.032288585 -0.046581957 0.11392898 -0.023906117 0.09654625 -0.015704012 0.30119503 0.015352409 0.11785848 -0.1999396 0.034480862 0.030890305 -0.026432576 -0.02365703 0.0013938845 0.019228298 -0.11482862 -0.08521669 0.026202615 -0.20657137 -0.14251852 0.07512283 0.18351415 0.23110878 -0.22465172 0.2410189 -0.18112895 -0.054172672 -0.26912516 -0.038609095 0.01594149 0.12313027 -0.08317377 -0.09760636 0.040952414 -0.14346297 0.1899574 0.17295077 0.10388994 -0.08930291
5558 0.102691114 -0.23624177 -0.11008697 -0.22910997 -0.17667057 -0.4372063 -0.23798007 -0.44145387 0.14516942 0.036558602 -0.16054201 -0.06797241 -0.2637318 -0.01368653 0.0614232 -0.13726112 -0.075540885 0.2504334 -0.33327097 0.11494469 -0.0011255402 -0.043338913 0.09055466 0.34042984 0.32718512 -0.008705873 -0.17338401 -0.1085426 -0.12650776 -0.17238604 0.12115494 -0.058426235 0.12146019 -0.084306836 -0.055017397 -0.1615852 -0.117661975 0.09097881 -0.052785195 -0.36028934 0.019281998 -0.15796037 0.28389636 -0.16687162 -0.12536144 0.2879247 0.33101854 -0.22535612 -0.21935844 -0.13921496 0.017593091 0.36033675 -0.23128916 0.36801478 -0.16198951 0.07858844 -0.015433326 0.12393224 -0.06702597 0.2896386 -0.066193156 0.088660315 0.13068119 -0.033833772 0.2644025 -0.059275176 0.04865119 0.14107345 0.12654196 0.14395227 0.05476715 0.35115105 -0.15547855 0.06555471 0.16019598 0.02279809 -0.21243443 0.1573509 0.20566215 0.2922927 0.120319836 -0.19648376 0.0052915155 0.2527675 -0.03240269 0.12430652 -0.2374284 -0.09812217 0.07924053 0.053278577 -0.0709698 -0.0807812 0.3582836 -0.028565042 0.05776461 -0.39328152 -0.27782512 0.07671627 -0.19096741 0.033821218 0.15934682 -0.17521247 -0.07551206 -0.14887062 -0.068343274 0.098961994 -0.16269813 0.09956713 0.12827061 -0.07260565 0.08894351 0.019515587 -0.07373651 -0.14689729 -0.110953376 0.28408605 -0.1958201 -0.026932044 -0.189079 0.2703871 0.0505586 -0.10488068 -0.023177644 -0.025311956 0.19695692 0.043494064 -0.000549073 -0.2413325
3634 0.12486147 -0.0058244215 0.10459377 -0.058753863 -0.08383342 -0.06812293 0.011710311 -0.22881313 0.071680434 0.17995572 -0.08799265 0.05532597 -0.0052026166 -0.07481662 -0.098633945 0.035088066 -0.12030166 0.1022651 0.052177586 0.10746813 -0.13944046 -0.24308129 0.16496727 0.22681473 0.2233606 0.079886034 0.1716639 -0.048008792 -0.1740719 -0.06608086 0.018282697 -0.113320306 -0.08264072 0.12249613 -0.026858011 -0.2123296 -0.042768188 -0.1341251 0.22140005 0.05094855 -0.20994504 0.007376602 0.023498299 0.04392845 -0.068736605 0.13651265 -0.1901872 -0.10272481 -0.33973148 0.13414946 0.0051164934 0.20302817 0.10256147 0.2051275 -0.0010851646 -0.008681538 -0.017640846 -0.09637033 0.0024814107 -0.13484125 0.10492739 0.17226313 0.09587236 0.042421736 -0.15281184 -0.039870393 0.11862252 0.33988854 0.15719579 -0.034496047 -0.09213592 0.1269013 -0.028456451 -0.12386156 0.062152665 0.0006654712 -0.063636646 0.0421782 -0.087832026 0.12713273 -0.058362138 -0.17300329 0.12583555 -0.04050424 0.016695058 -0.06739401 -0.17898713 -0.10576763 0.091390245 -0.004112614 -0.09039193 0.020091629 0.057419118 -0.043424048 0.07684263 0.18527503 -0.048598748 0.11009714 0.24591774 -0.09708032 -0.18681134 -0.092509285 -0.115263775 0.32737365 0.076464094 0.043052435 0.1135674 -0.11868432 -0.019969348 -0.14278816 -0.1857189 -0.0632823 0.07666994 0.024257887 -0.23593493 -0.2409557 -0.28848603 -0.025292104 -0.04348148 0.13983 -0.07599769 0.13171749 0.24804254 0.22596593 0.13469034 0.12775172 0.08728233 -0.36774075
