439 128
5135 0.06192486 -0.13020836 -0.06883293 -0.20999244 -0.048937183 0.14783703 0.07990594 -0.112901054 -0.24955933 -0.01929129 0.07341848 -0.039770484 0.13990964 0.031496163 -0.055338666 0.22551772 -0.08527468 0.13799892 -0.13066965 0.12680133 0.054629922 -0.06367198 -0.020911807 0.09652281 -0.18556245 0.11142233 0.2736052 0.08668499 0.041661922 0.01798923 -0.045841467 -0.08472545 0.11348494 0.168648 -0.33408925 0.039614018 -0.012059518 -0.0652625 0.1756208 0.020650584 -0.023097677 -0.18979749 0.010298093 -0.06067696 0.023475341 -0.11125381 0.10947906 -0.057957437 -0.03552809 0.11401768 -0.17028116 0.029756827 0.022244979 -0.09824081 -0.27178487 0.035330605 -0.090292044 0.13720754 0.18135801 -0.23904258 -0.0792431 -0.058172844 -0.06459205 -0.026385503 -0.029345404 -0.0026298985 -0.07180116 0.29291457 -0.2458422 -0.023297552 -0.0058662104 0.17433564 -0.16035454 -0.04528123 -0.21767525 -0.085414544 -0.3175441 0.028588103 -0.020604808 -0.06462916 0.0024426177 -0.1302365 0.14016128 -0.008735516 -0.21436746 -0.13172653 0.020973058 0.22097914 -0.017056558 0.10944581 0.018851953 -0.34865874 -0.21425726 -0.124554895 0.04713415 0.18884464 0.17754427 0.18171804 -0.072031125 3.968123e-05 -0.11171996 -0.13729437 0.20923065 0.11762116 0.070127994 0.09292528 -0.13578692 0.05922514 0.09850129 -0.2451222 0.027471496 0.13936079 0.22379808 0.027014105 -0.10777673 0.022153161 0.11553002 -0.0404895 -0.2490604 0.29587707 0.1883537 -0.07789681 -0.092708945 0.0060331025 0.26975092 -0.072708 0.15021841 -0.20060515
4171 -0.22149791 -0.12552403 0.2186114 -0.035840545 -0.0036729358 -0.13001978 -0.018307058 -0.012820885 -0.03596079 -0.19007815 -0.13186602 -0.104895175 0.18866788 0.0679168 0.0864141 -0.07121716 0.041016955 0.22756864 -0.1993876 0.030378483 0.10776949 -0.37161765 0.0012154509 -0.08059757 -0.09581988 0.15519719 -0.13432556 0.03225298 0.11253411 -0.042190764 -0.21166272 0.03359968 -0.22774504 0.19407004 -0.10527657 -0.043465693 0.29817927 -0.08042971 0.13085389 0.1084231 -0.08766442 -0.008771424 -0.02690006 0.10464077 0.15037882 0.08031269 -0.0909146 0.19331664 0.1974316 -0.07519779 -0.041662924 -0.01358466 -0.11032792 -0.15228072 -0.12308313 -0.15260276 0.033710867 -0.14045426 0.016871441 -0.21671984 0.056909874 0.0062986333 -0.13664201 -0.06815763 -0.04864565 0.118196085 0.13505507 0.07709951 -0.2065197 0.22108272 -0.16059539 -0.005064952 -0.34526587 0.080669776 -0.34356377 -0.22725764 -0.15016088 0.00579253 0.09516657 0.06734659 0.002236303 -0.21774986 0.10507573 -0.1385455 0.100264825 -0.12306131 0.25242066 0.46968424 0.14042981 0.21380551 -0.16081142 -0.13600494 -0.35572907 0.11051579 0.05761997 0.1250564 -0.1638305 0.19846843 0.06186064 -0.065018505 -0.2087628 -0.046428002 0.15544415 0.08082537 0.05042426 0.06090985 0.052369703 0.24132545 -0.035964407 0.21090008 0.18611637 -0.050750196 0.20290846 -0.13886878 0.008810666 0.024192631 -0.034370337 -0.091119014 -0.11714644 0.27064723 -0.008192741 0.12678853 -0.28155103 -0.06878864 0.066117994 -0.119080424 0.030451246 -0.0975245
3623 -0.1432146 -0.50835204 0.09371539 -0.0131051075 -0.053808205 0.044949826 -0.089813374 0.105544776 -0.16262321 -0.017733857 0.0034978148 0.0015314249 -0.08985308 0.12822098 -0.031180406 -0.1364936 0.16486165 -0.021344714 -0.01842216 -0.22069228 -0.14372523 -0.18152916 -0.08296446 0.12380805 -0.16320698 -0.074825145 0.08260216 -0.040369373 0.14979136 0.09311932 -0.109071694 0.096046165 0.037929617 0.0007855377 -0.08045021 0.016977334 0.2777127 -0.12870643 0.07786134 0.40286547 0.004391889 0.1024188 -0.107969165 0.15627539 0.0867381 0.031512693 0.097961456 -0.032063104 0.11204582 -0.05681954 -0.10730852 0.0765252 -0.116362445 0.037765317 0.10554571 0.01616679 0.082242236 0.119706854 0.17866765 -0.09234789 -0.03325974 0.0030615637 0.011550453 -0.0290471 -0.028892828 -0.06765389 -0.03171499 0.27058634 -0.25180772 -0.021720033 -0.12377128 0.05325829 0.017154664 -0.054427758 -0.03759811 -0.07064947 -0.116234586 -0.17641167 -0.061662927 -0.046865348 0.1429243 -0.120538354 0.14483616 -0.12645751 -0.02478862 -0.06790749 0.10791087 -0.12668903 0.22543725 0.10996637 0.09228846 0.18851994 0.00027679632 -0.33910897 0.18606026 -0.030097658 0.008845188 -0.12981214 0.15141495 -0.08824576 -0.22534354 -0.071435384 -0.06130791 -0.054339953 -0.08685336 -0.15250652 0.22092627 0.03789168 -0.17925334 -0.09492646 0.11061034 -0.088426955 0.2672879 -0.009279373 -0.13289307 -0.12202624 0.0787032 0.0044548498 -0.049567714 -0.116406605 0.24076825 -0.093835324 -0.13220625 -0.11490802 0.1783892 -0.22188307 0.1275676 0.16568474
4854 -0.17919149 -0.102365695 0.053170547 -0.0069057057 -0.066733964 0.045206666 0.1267501 0.1662294 -0.06785744 -0.21042119 -0.14917278 0.10196689 -0.05223331 0.15603404 -0.089092985 -0.16947846 -0.018579934 0.028226431 -0.05011332 -0.0420234 -0.039620776 0.066262975 -0.085320845 0.18774924 -0.042657036 -0.07482036 -0.10909754 0.18134922 0.1003922 -0.12505841 0.07980111 -0.050268773 -0.09695594 0.054326814 0.1880459 -0.07299164 0.13022543 -0.09538776 0.3297652 0.4853224 -0.03618656 0.24774382 -0.034779806 0.037301 -0.013443298 -0.026612349 0.11037175 -0.07871256 -0.08656637 0.021239547 -0.16154091 0.013796072 -0.19263175 -0.104204535 -0.0039363774 0.20682412 0.095975704 0.21845964 0.052991718 0.041090593 0.112309285 -0.0024116575 -0.13654019 -0.046830624 0.1198728 -0.07952179 -0.14737257 0.090823635 -0.15796715 0.22692993 -0.033773392 -0.010022775 -0.11039869 -0.31299302 -0.07663779 -0.10558574 -0.08959806 -0.23957719 -0.24452293 0.1520335 0.018736664 -0.076363645 0.30517524 -0.03951028 -0.1059006 -0.068467736 -0.30872628 0.12999432 -0.13197811 0.13287902 -0.23275049 -0.26311132 0.15310185 -0.05569031 0.060874857 -0.043039832 -0.0053071138 -0.019427598 0.15296575 -0.07354016 -0.109322175 -0.11346401 -0.14790784 -0.12932242 0.06468718 0.14496538 0.032170236 0.10670539 -0.07081447 -0.13988383 -0.029395835 0.047758773 0.054648392 -0.115158886 -0.1578325 -0.2284746 0.13822669 -0.0385114 0.20950201 0.051740255 -0.14932661 0.1979151 -0.016197123 -0.17916283 0.073222935 0.028546609 0.24790744 0.08132753
1494 -0.2709221 -0.25356686 -0.22538781 -0.18502451 0.013177 -0.12888671 0.064842 0.030426528 0.08511016 0.0050580585 -0.17217879 0.19273053 0.0069715115 0.16181791 0.19733864 -0.06972462 -0.07518079 -0.0696292 -0.13692686 -0.00771957 0.08146475 0.24764846 0.009250587 0.011601319 -0.049580857 0.030129047 0.11589437 0.12288481 0.08990978 -0.0058040475 0.23930857 0.109108865 0.29130322 -0.16531885 -0.10450563 -0.12729022 -0.16492613 -0.12848383 -0.08871268 -0.23515978 0.25871012 0.2848731 0.00930074 -0.023249323 -0.16709703 0.11509701 0.0052714488 0.04741989 0.05552756 -0.08298115 -0.10485457 0.11314895 -0.2881822 0.12115989 -0.1407017 0.07345212 -0.15554604 0.26030132 -0.0036202862 0.13508193 0.05028904 -0.18961586 -0.039344616 -0.086496904 0.13754863 -0.1597803 0.13605869 0.16125995 -0.03915186 0.3485708 -0.048798885 0.22222602 0.116976716 -0.029397156 -0.29801932 -0.20492578 -0.09066984 -0.32864946 -0.019674005 -0.022799077 0.04479451 -0.0065274467 0.22842829 0.115548044 0.04891693 -0.10573821 0.028382352 0.23719999 0.21969232 -0.046295516 -0.22762354 -0.03159801 -0.042170987 -0.05350145 0.2597256 0.36110532 0.15354255 -0.17575778 -0.12760177 -0.007999622 -0.0070232125 -0.001328638 -0.15140203 0.19736694 -0.06795749 0.16489395 0.08047772 0.018159963 -0.027741695 -0.16355963 0.06628723 -0.0695989 0.100665405 0.023566585 -0.31077972 0.13952903 0.06322783 0.047192726 -0.04228142 0.14016938 -0.09823675 0.015015503 -0.22422121 -0.14191444 -0.08578137 -0.0290803 0.13726886 0.15614322
5 0.10481612 -0.30317837 -0.15208897 -0.13032316 0.012746249 -0.020841993 0.045570083 0.20779124 -0.10677513 -0.35562003 -0.00041074693 -0.18444408 0.00652913 0.18799615 0.10147865 -0.082699455 0.05618329 0.092182495 -0.3650209 -0.18577921 -0.0013154672 -0.07522575 0.115373656 0.07141867 -0.21594813 -0.39938667 -0.020382311 -0.015781598 0.07455509 0.15059549 -0.21227242 0.015267081 0.21404427 0.11731481 0.18247528 -0.15606987 -0.02663963 -0.1793258 0.044780314 0.38876998 -0.088832185 0.09446952 -0.090323426 -0.050386634 -0.041991945 -0.03372227 0.17324227 0.01225044 -0.10602667 0.043290075 0.012670249 0.14717178 0.36232507 -0.3464427 0.06461875 -0.13654564 0.09374277 0.012631859 0.08535129 -0.041408356 -0.06034335 -0.07335319 -0.1999441 -0.17211522 -0.13599819 -0.13278842 -0.33159634 0.20397857 -0.14105566 0.037552316 -0.123516254 0.30617356 0.048300426 -0.13355795 -0.17571563 -0.20921025 0.10982306 -0.22576633 0.16203855 -0.0388863 -0.019098014 0.11657576 0.060334258 0.0714711 0.12236172 -0.15586194 -0.13531266 0.23292372 0.13392532 -0.15182878 -0.17033686 0.17645851 -0.13538364 -0.21379799 0.08624268 -0.16895084 0.084867105 0.06163544 -0.18731046 -0.079736 0.027493192 -0.17118613 0.023185315 -0.008663323 0.14876114 0.026312148 -0.04728755 0.057581127 0.051185895 -0.15134425 -0.17447722 -0.2807452 0.29971611 0.07015092 -0.15849201 0.017087279 0.1299047 0.049778514 0.08165038 0.018040411 0.028136289 -0.008256451 -0.041568425 0.09008279 0.17326865 -0.10145754 0.13128777 0.15164585
1595 -0.09800629 0.027361097 0.05752398 -0.10822042 -0.052102476 -0.062280837 -0.0076198657 -0.04327906 -0.023792215 0.025382059 -0.12832373 0.0811763 -0.0073505915 0.17633455 -0.05376007 -0.028517025 -0.0380323 0.16201718 0.02744509 -0.20093349 -0.053629685 0.12624644 0.16248646 0.23028223 -0.14400443 0.019074388 0.048743077 -0.1121163 0.10570843 0.050753813 -0.063968614 0.29600704 -0.070758015 -0.11729026 0.24801122 -0.002970211 -0.022609435 -0.0036525473 0.03449728 0.0403392 -0.08257386 -0.013527657 0.021275535 -0.12090079 -0.02542296 0.1794545 0.010357501 -0.01986809 0.025175588 0.0918668 0.10362524 0.26254332 0.13395084 0.13300468 -0.0958368 0.15332 -0.08846801 0.008156713 0.09780569 -0.24532361 -0.10987745 -0.024287714 -0.12543069 -0.22569549 0.0024836222 -0.15785576 -0.17790706 0.120530926 0.09192004 -0.09532781 -0.2631355 -0.018350588 0.28871965 -0.04909995 -0.069740996 0.034845635 -0.041988354 -0.19277623 0.044422854 -0.18519276 -0.07552886 0.05072532 0.25880346 0.05153573 -0.010938259 -0.16328894 0.1307477 0.13600086 -0.14894624 0.16817477 0.06930448 -0.08122248 0.1326576 -0.2714911 0.020062953 0.033221673 -0.04514651 -0.033797707 0.09431829 0.06314619 -0.03366774 -0.28974506 0.11888258 -0.29148802 0.04731031 0.06592797 -0.15114337 0.069815 -0.2013888 -0.037463494 -0.06439105 0.09381359 0.38192418 -0.027728552 -0.15841532 -0.12013727 0.22099543 -0.26485705 0.02185949 0.14009291 -0.049065404 0.2515475 -0.46280953 -0.24204932 0.10795271 -0.24489355 0.015732255 0.09834006
339 0.0019056759 -0.11044925 0.31829518 -0.07345529 -0.25191325 0.17289884 0.07561839 0.18606286 -0.23610768 -0.1093767 -0.13364568 -0.021430152 -0.2440033 0.26795635 -0.015289014 0.03248401 0.0504555 0.0010094959 -0.02226942 0.07873377 0.024997348 0.025631918 -0.11214282 0.18962398 -0.15098071 -0.11466272 0.2517847 -0.14118572 0.11603849 0.20158145 0.107670836 -0.041459013 -0.19281554 0.030796504 -0.009353447 -0.019596167 0.16604744 0.012428129 0.12913416 0.14358592 -0.18024428 0.00034507416 -0.04698695 0.20491602 0.042628266 0.0907926 0.29321074 0.07146944 -0.1487723 -0.25045574 -0.2963368 0.21442156 -0.13364793 -0.06297483 0.03885431 -0.24668786 0.13150777 -0.085541226 0.14104104 -0.0717258 -0.19794644 -0.07242747 -0.17792852 0.23818661 0.121495955 -0.07908523 0.10799882 0.43779448 -0.12550503 0.001787232 -0.06830142 -0.14028198 0.14222276 0.091951914 -0.047871318 -0.09937613 0.12514731 -0.18849158 0.21634886 -0.02187662 -0.02115327 0.01892989 0.23975053 -0.016694909 0.08663017 -0.026950132 0.011345875 0.07587919 0.107199974 -0.16641583 -0.03278358 -0.01888222 -0.10454041 -0.050984178 0.15989052 0.2770783 0.027760098 0.05482363 -0.08694363 -0.04883248 -0.34375006 0.10959975 0.05582813 -0.07371494 0.12751004 0.05785217 -0.17128791 -0.09787318 -0.15664725 0.048967604 0.075023904 -0.21847488 0.010707262 -0.17225195 -0.07064133 -0.057999384 0.22254936 -0.081085086 0.13851541 -0.08552508 0.1717495 -0.110497616 0.29995158 0.054153383 0.036334563 -0.33528623 0.1904915 0.07916289
3838 -0.21710381 -0.16454327 0.16799448 0.16983111 0.2341722 -0.052516717 0.14242479 0.15983634 -0.13845924 -0.115947604 0.034296352 0.051673576 -0.055674523 0.16183223 0.07421999 -0.07456442 -0.10216964 0.01963058 -0.12071851 -0.030999055 -0.14117113 -0.12763329 0.088649414 0.36218697 -0.015240031 -0.08089864 -0.05008056 0.0053315302 0.22897714 0.19243327 -0.15794484 0.019447653 -0.21593899 0.19082583 0.16231772 0.051707678 0.1799837 -0.109736316 0.30418262 0.48206118 -0.08966808 0.28174654 -0.1309126 0.10695809 -0.029607622 -0.05584249 0.0007938973 0.037121315 0.10016317 -0.09412183 -0.06405628 0.06911187 -0.27636728 0.05935701 -0.27984217 -0.013171091 0.08257998 0.07013347 0.18839939 0.06623139 0.016505765 0.15005198 -0.1613684 -0.015896536 0.12587795 0.160289 -0.17545436 0.10415877 0.26558465 0.087984875 -0.085633546 -0.09109038 -0.009226327 -0.16986519 -0.2641613 -0.028512498 -0.21260448 -0.13917391 -0.016297527 -0.06106649 -0.15955074 -0.0960511 0.17505123 0.018535268 0.043431297 -0.14713359 -0.05140984 0.2532058 0.12134039 0.18196452 -0.15929209 -0.11905061 -0.09535896 -0.011303709 -0.055657394 0.09373717 -0.019437475 0.055883206 -0.30908155 -0.10667549 -0.14860682 -0.120601766 0.068374336 -0.17081523 -0.1389681 -0.27224782 -0.124956116 -0.15169887 0.18755057 -0.35443443 -0.042065877 -0.19138204 0.13588582 0.09135784 -0.060092762 0.15412833 0.15765785 0.010007694 0.06542376 0.15944797 0.18721212 -0.031326953 -0.24059786 -0.0792378 -0.22628306 -0.061783377 0.13441908 -0.15028085
1049 -0.04251163 0.02101264 0.14853741 -0.058535766 0.030183023 0.23371066 0.18057404 -0.17428215 -0.13352525 0.030668568 -0.21898569 -0.022817148 0.18751168 -0.0019651374 0.024305236 0.05576338 0.05280558 0.14347625 -0.059217937 -0.013952744 -0.04426251 0.23995459 -0.08819546 0.26202956 -0.04171079 0.022617808 -0.04897083 0.27295893 0.08398485 -0.03976522 0.14064889 0.21497655 0.088507324 0.15326191 -0.03783134 -0.079106525 -0.035219364 -0.19226179 0.3291281 -0.011248081 -0.2337343 -0.08402898 -0.09958315 -0.20595743 -0.057426758 0.078435324 0.14832069 -0.17777833 -0.16105743 0.17216723 -0.2283465 0.021078685 -0.07861415 0.0032676144 -0.15879488 0.039173707 0.09112014 0.23079486 0.10267584 -0.07585663 0.106475994 0.24073759 -0.13751613 0.116819166 0.26320428 0.20867954 0.037565354 -0.04304651 -0.010719745 -0.09172512 -0.06824958 0.36521754 -0.18677868 0.11091221 -0.09909743 0.17532258 -0.07834878 -0.16829677 -0.060790952 0.17933235 0.01780946 0.21435428 -0.01544931 -0.07070597 -0.24007198 -0.1372669 0.22768056 0.30842674 0.118720755 -0.14847307 -0.3212184 -0.0037606996 -0.14347036 0.19422866 0.09813787 -0.0032134457 -0.039792724 0.28789404 -0.10014369 -0.2041721 -0.0705851 -0.19719192 -0.21848117 -0.15798493 -0.20936304 0.017060263 0.049896304 0.02373013 -0.15022942 -0.14627136 0.10428725 -0.34775883 -0.048306376 0.110138774 -0.07088233 0.02680027 -0.064608805 -0.05284587 0.26479912 -0.15994905 0.11143011 0.06048427 -0.40129775 -0.06412489 -0.01319869 0.027211323 -0.04220699 -0.03224014
5020 0.008253223 -0.07093701 -0.05333799 -0.089071386 -0.08488384 -0.090345524 -0.24374019 0.02734102 0.11992562 -0.009127361 0.08891501 0.16582891 -0.08576316 0.1207565 -0.042837866 0.4072136 0.33910674 0.440939 -0.07822106 0.13393302 -0.008880788 -0.017871337 -0.17428188 -0.10509248 -0.18491757 0.02495462 -0.010480046 0.011198256 0.16723163 0.17221381 0.2594818 -0.046514537 -0.019147256 0.03758467 0.08202382 -0.07503796 -0.13086775 -0.27002373 0.09249621 0.25238162 -0.14651729 -0.07706914 0.2978503 -1.0768999e-05 0.015376941 0.18072455 0.1428358 0.13963416 0.3110571 0.24324526 0.035539936 0.058188763 0.060047586 0.2419026 0.07885402 0.1755434 -0.067874566 0.16339023 0.21076421 -0.24232414 0.1953974 -5.1159088e-05 -0.16820228 0.051051944 -0.059839386 0.09994143 -0.0043774997 0.29110667 0.1561262 -0.33653897 0.00018316414 -0.056577727 0.017587088 -0.08504146 0.035069223 -0.29132125 -0.04823214 -0.13166402 0.12415217 -0.0026451403 -0.14947546 0.0018651797 0.12904496 -0.13084503 0.07598538 0.14568555 0.01991116 0.29413632 0.0015471196 -0.06414458 -0.10798956 -0.15536015 0.032880034 -0.10478258 0.08922581 0.2202179 -0.096305184 0.22094443 0.26995292 -0.20920259 -0.18224485 0.12906288 -0.32370055 -0.00036719648 0.007819195 -0.122060016 -0.18397935 -0.039688878 -0.02319488 -0.16418312 -0.03993884 -0.21260384 0.058665507 0.10571398 0.002456577 0.34260067 -0.24630919 -0.18871935 -0.047346655 0.05935262 0.0626387 0.23694639 -0.067201085 -0.071416356 -0.0949423 -0.3319129 0.07305383 0.1616903
916 -0.08816465 -0.34463176 0.044986144 0.08621169 -0.034056433 0.09778996 0.254347 0.042448677 0.31860203 0.14669709 -0.00026874227 0.08838954 0.13585532 0.017408265 -0.18589045 -0.05246476 0.28820866 -0.22793807 -0.06332017 -0.123829484 0.19197239 0.019188508 -0.40754974 0.2521327 -0.121294685 0.091231294 0.13338986 -0.17754349 0.27007154 0.1476761 -0.22518203 -0.06741586 0.115080535 0.29342204 -0.009553792 -0.034570824 0.20184883 0.10097242 0.15243743 0.17795482 -0.32120216 -0.15495883 0.08944362 -0.09773661 -0.110547386 -0.26232976 0.02601559 -0.020628067 -0.10235257 -0.11396963 -0.09917732 0.18698448 -0.059656218 -0.033100873 0.05060888 -0.054448087 -0.19745049 -0.007304631 0.036036234 -0.015792489 0.031055281 -0.035246633 -0.32570773 0.19714916 -0.3112691 -0.01509429 0.015790414 0.18203801 -0.11924667 0.018960405 0.121052735 -0.0019304497 -0.022210963 0.067625485 0.026866391 -0.07147828 -0.29059058 -0.11706238 0.0009116872 -0.091704145 -0.109540254 -0.13062395 0.15980332 0.1006079 0.27350935 -0.031981535 0.06807632 0.2568079 0.2958401 0.10300505 -0.09192955 -0.06999701 0.12372229 0.07612843 0.27171186 -0.12542593 0.01429292 0.22374167 -0.099143475 -0.23469333 -0.25921005 -0.0723226 -0.021285592 0.008962058 -0.0024914625 0.2044597 -0.26849005 0.09446792 -0.064653605 -0.0762314 -0.09773629 -0.2402509 0.1760606 0.42257878 -0.17014427 -0.17188965 0.34441754 0.02385692 0.035701513 0.051330946 -0.053535666 0.20859645 -0.18748872 -0.23322947 -0.0758424 0.15800054 -0.13738832 -0.0072255936
3300 -0.26053366 -0.11897316 0.033030502 -0.21704215 -0.040911227 -0.13366984 0.094319 -0.047153022 -0.05374682 -0.148687 -0.2231297 0.16985571 0.15947087 0.00218157 -0.08887514 -0.028584937 0.08172103 0.22009067 -0.027261 -0.13527346 0.018351784 0.044729955 -0.12334961 0.19477428 0.104948066 -0.24016316 -0.106049724 0.02326596 -0.040804595 0.36311004 -0.004558236 -0.03335689 -0.20425403 0.22238374 -0.07351007 0.3027783 0.24682797 -0.23396038 0.0045366148 0.23344687 0.07771892 -0.019638218 0.31950444 -0.08366524 -0.43159842 0.009161997 -0.036906395 -0.095419504 -0.006673399 0.019895395 0.089401506 0.11222814 0.27418253 -0.045962933 -0.18519911 0.20341723 -0.29559 0.16158716 0.34400207 -0.12291979 0.18480161 0.26412925 0.1148651 0.079014435 -0.07161411 -0.11051985 -0.24177761 0.03889133 -0.17489839 0.1620837 -0.014316789 -0.08250123 0.18943442 0.0072736354 -0.14517793 -0.1428255 -0.16047202 0.05281324 0.012800969 0.07614689 -0.2063626 -0.01579147 0.08407403 -0.24095283 0.13234651 -0.1150024 0.1647641 -0.035108093 0.17035682 0.15111966 -0.12174574 0.09464615 0.10189136 -0.040756516 -0.0056220163 0.2789673 0.011443125 -0.17081125 -0.14117526 -0.05956729 -0.1624576 0.07499723 0.05865024 0.023934685 -0.14999098 -0.02133496 -0.11214386 0.03645871 0.023817463 -0.3006929 -0.033777654 0.0057387417 -0.010565673 -0.11689276 -0.030737614 0.15267614 -0.03347434 0.26535845 -0.009373168 0.092256956 -0.03141729 0.11311349 0.110327795 -0.35531837 0.3143816 -0.11329764 -0.12034317 0.030980796
3818 -0.2636246 -0.34071955 0.29565555 -0.4778756 -0.31851852 0.29210335 0.1813531 0.22801238 0.2860822 0.14571154 -0.025327878 0.036563933 0.070999674 -0.046036355 -0.010249707 0.19028373 -0.028061686 -0.12739922 0.17752364 -0.35912144 0.087821625 -0.021309828 -0.055073764 0.082226075 0.071558304 -0.025087165 -0.061529752 -0.038779028 0.20871015 0.26465517 -0.09475197 0.2507774 -0.1200019 0.3445723 -0.10962195 0.21514261 0.057885125 0.008141705 0.23133682 0.052462667 0.21620433 -0.07763246 -0.07830002 -0.06092213 -0.023711247 0.015742492 0.19726114 0.25476655 -0.07677542 -0.035233658 -0.075153075 -0.11130344 0.0020492752 -0.017021194 0.07684664 0.1347729 -0.0892024 0.22637334 0.35294303 -0.285057 0.07424285 -0.31462693 -0.03715724 0.094872504 -0.15477437 0.23835035 -0.2637089 0.254773 -0.13466893 0.008295896 -0.12288513 -0.15202048 -0.08255463 -0.08974729 -0.15588725 0.048783265 -0.06579918 -0.07577474 0.10007729 -0.14661038 -0.20611021 0.06374213 -0.10419361 0.22078441 0.15033932 -0.15272503 0.025470389 0.08348219 -0.08236677 0.18967989 -0.17268334 -0.17126153 -0.18201979 0.1595931 0.16441229 0.0692507 0.118266165 -0.02698258 -0.092824586 -0.26335928 -0.18698354 -0.0025325713 -0.19283184 0.02907153 -0.14215092 -0.014141352 -0.19476345 -0.030391544 0.27606556 0.2626308 -0.0776671 -0.0931667 0.21128409 0.059758216 -0.036431346 -0.18628839 0.010089758 -0.16811065 -0.055250928 0.033821907 0.015088453 0.2560505 0.0032558662 0.040025923 0.01873529 -0.05510538 0.13534172 0.011291503
3994 -0.08893473 -0.0402452 0.34315208 -0.050097764 -0.27756637 -0.084410556 -0.07214226 0.018622434 -0.021680614 -0.34732205 0.21608102 0.09514504 -0.07919326 0.18153077 -0.02126726 -0.1065078 0.02547926 0.1366519 0.05755769 -0.13334027 0.06305216 0.005494659 0.091815926 -0.043174826 0.021801699 0.42348996 -0.10060697 0.007621671 -0.080736786 -0.11018026 -0.35209805 0.15581727 -0.1467427 0.22118527 0.13105008 -0.18414398 0.17629078 -0.29559985 0.23868893 0.3973595 -0.019002488 0.06442175 -0.20387042 -0.12035882 -0.28018513 -0.12540627 -0.019577969 0.046831254 -0.10510893 0.03238213 -0.21785529 0.17670846 -0.18043794 0.17168258 -0.18896082 0.17963234 -0.059784606 0.2190748 0.12697709 -0.06934315 -0.030221991 -0.09714878 -0.26206833 0.153107 0.029499011 -0.29119167 -0.25137964 0.37502432 -0.045738075 0.047258336 -0.018576574 0.21297643 0.20928864 -0.09173525 0.06861149 -0.12820497 0.043141056 -0.20132093 0.11549647 -0.05606088 0.22224185 -0.22918375 -0.19975103 -0.19778857 0.06281676 -0.001210115 0.037982177 0.1668076 0.04602594 0.10876708 -0.04990622 -0.16232425 -0.029043334 0.07471194 0.017399848 0.1934424 0.23488545 -0.2799897 -0.042768102 0.059754208 0.0007875659 -0.0561915 -0.09164076 0.06644144 0.07738951 -0.050709322 0.22709076 0.24867295 0.029606262 -0.13131972 -0.017111912 -0.08734674 0.119126596 -0.13260129 0.053566474 -0.1613322 0.11516946 0.056726083 0.12129877 -0.30252242 0.21763578 0.054583695 -0.025705585 0.06463771 0.18581069 -0.06664472 -0.14117263 -0.03921926
1228 -0.31827205 -0.14142983 0.30937132 -0.18806171 0.010416744 0.018073423 0.033829562 -0.061040018 0.16905947 0.18843372 0.14381428 -0.0023299532 -0.26049656 0.15271531 -0.27036047 0.114242055 0.11906518 -0.00074617885 -0.16760606 -0.19827959 0.057232235 -0.18518507 -0.11663293 0.0076589 -0.10474887 0.12320779 0.12090368 0.1477046 0.32061386 0.1994457 -0.0133778285 0.02955379 0.046639133 0.15767464 -0.17894706 0.06564429 0.099020064 0.14547153 -0.2971035 0.093113065 -0.111940354 -0.13256739 -0.17912573 -0.023719719 0.009727671 -0.118662246 0.14723575 0.054819707 -0.010404369 -0.12980151 0.055363167 0.13126113 0.10123084 -0.15649918 -0.19305654 0.114610896 -0.09010616 0.024639944 0.017309261 -0.11066084 -0.021223156 0.06235233 -0.21104674 0.057815414 -0.05112765 -0.12958676 0.103081614 0.44732738 -0.057547472 -0.02498729 -0.040825777 0.05343838 -0.23307551 -0.18882881 0.07035754 -0.0062725996 -0.050598774 -0.12175231 -0.17154078 -0.16352746 0.009553222 -0.1665059 0.025398122 -0.063720204 -0.07212542 -0.13921541 0.017971078 0.15436432 0.15576054 0.17743053 -0.1250815 -0.17243847 -0.06506258 0.18115607 0.29018188 0.19272512 -0.09530038 -0.023505751 -0.039308213 -0.27894428 -0.19860092 0.020344406 0.2201364 0.08750019 -0.10569223 -0.15073062 0.030841775 -0.027559666 0.01619429 -0.03592595 -0.07755597 -0.3285361 0.059772536 0.5225279 0.028517885 -0.19991736 0.050450683 -0.17678897 -0.084686674 0.098529525 0.19544365 0.21148108 -0.11230865 0.0051052077 0.14495604 0.0990628 0.32533893 -0.021870488
4713 -0.29387632 -0.13673984 0.14470923 -0.01485707 0.026880998 0.08823047 0.007133902 0.23601368 0.032383997 0.01682176 -0.24787678 0.14675751 0.20433448 0.10458466 -0.08764428 0.108282596 0.3498104 0.09483396 -0.07910897 -0.003286208 -0.10897277 -0.1441031 0.17485636 0.16708039 -0.32364687 0.14455844 0.0076683927 0.043068245 0.2186403 -0.28267446 0.027617352 0.073016085 -0.19009084 0.18102431 -0.032122966 0.12677042 0.1095971 -0.32210132 -0.10743414 0.20656706 -0.16441843 0.052001547 -0.25241 -0.028811451 0.29408848 0.08067426 -0.08647685 0.17552142 -0.22513476 0.07466634 0.27210712 0.05771952 -0.11025274 0.0065591917 -0.21774362 -0.3395459 0.06335858 0.22390306 0.2853878 -0.26601824 -0.1183398 0.12327859 0.26100028 0.12332178 0.03508916 -0.0951353 -0.24374546 -0.017072564 0.14159542 0.08151773 -0.044212453 0.07050049 -0.0028299948 0.04676648 -0.18750663 -0.22402163 -0.09471269 -0.22791395 -0.2584787 -0.3093059 0.068897314 -0.12473329 0.24618831 -0.15645404 0.06918644 -0.21282388 -0.07359225 0.09148517 0.42930424 -0.1501124 -0.21398625 0.023851424 -0.1850533 -0.026064888 -0.23654635 0.04307321 -0.06403585 0.011540342 -0.31037104 0.0058548446 0.19634609 0.1642138 0.15055116 0.033716023 -0.08739136 0.08874007 -0.16186671 0.281925 -0.07575059 -0.040225707 -0.21829344 -0.16143693 -0.044494435 0.010260217 -0.1313649 -0.06465212 -0.083683 -0.042743906 0.14552312 0.195112 0.10759987 0.09375284 -0.04195663 -0.1257764 0.10859358 -0.22106995 -0.07120773 -0.00035178772
5789 0.1432642 -0.20938165 0.29309034 -0.061721217 -0.15706068 -0.06985517 -0.09138543 -0.09803305 -0.063657254 -0.06736249 -0.01970031 0.38910174 0.09009199 0.038808707 0.19155994 0.37628987 0.25007612 0.23893826 -0.019805852 0.31440055 0.18004936 0.06966601 0.062462833 -0.0046568527 -0.07486293 -0.084130205 0.16144007 -0.08531045 0.14562373 0.09441055 0.1343946 0.003715662 0.1380947 -0.24902415 -0.04743437 0.2857138 0.112401284 -3.848699e-05 0.09654036 0.2967944 -0.18822621 0.054680068 -0.35816377 -0.023184279 -0.00836471 -0.011558607 0.04602041 0.1640302 0.084266 0.1499824 -0.26088136 0.15793577 0.19901703 0.107028216 -0.075100414 0.013192651 -0.16869844 -0.044517282 -0.062159147 -0.32827744 0.05019683 -0.18800385 -0.32786065 0.18496013 -0.060229126 -0.19946034 0.008774987 0.08689663 -0.088042445 0.0037862223 -0.13360636 -0.051351663 -0.20872739 -0.15206638 -0.004553325 -0.05320799 -0.101154596 -0.13301034 -0.14987738 0.0018151243 -0.22908342 -0.072962195 0.20458995 0.0420242 0.06409338 -0.5261003 0.1443328 0.2017227 -0.0019150368 -0.079064324 0.12805982 0.21595608 0.042291194 0.2025562 0.08866657 0.1460091 -0.10542067 0.22046295 -0.05451566 -0.1457536 -0.25345448 0.26487437 0.05039361 0.032959282 0.125338 -0.16973606 -0.13448553 -0.17084685 -0.0927471 0.14112711 0.022427963 -0.33289033 0.046435576 0.051059928 -0.31056955 -0.1983042 -0.16994783 -0.09327018 -0.05719641 0.24948338 0.00020492535 0.1102074 -0.19284523 0.006272424 -0.020435387 -0.0018728047 0.042292837 -0.02856749
4257 -0.38854855 -0.16599761 0.008902472 -0.002222123 0.092818655 -0.00082633196 -0.08741614 0.3868155 -0.21613997 -0.0064289323 -0.044599533 0.015221633 -0.12547944 -0.053516872 0.005227858 -0.0306059 0.17005283 -0.21514091 -0.3471826 -0.10149387 0.09762361 0.08690434 -0.04454198 0.37460047 -0.14671509 0.039382614 -0.009323451 -0.020347781 0.24196647 -0.077948704 -0.00816225 0.08055094 0.11177419 0.2651701 0.16257297 0.1968625 0.29257292 -0.21805497 0.026194833 0.24086314 -0.13397646 0.020693524 -0.19795924 -0.09106599 -0.04118826 0.05749054 -0.08099366 0.10001038 0.1717148 -0.04135991 -0.15063587 0.068497956 -0.17232369 0.08667632 -0.21484062 -0.07106644 0.2676601 0.21082638 0.14828165 -0.2985951 -0.2296559 0.060418308 -0.37012267 -0.11224798 -0.06397897 -0.048521426 -0.06800565 -0.0083490405 0.05108129 0.3061142 0.014383975 0.08243462 -0.23196626 -0.10952127 -0.113641985 -0.12320064 0.03495472 -0.19744895 0.05340698 -0.14376087 -0.08311487 -0.19103163 0.15074055 0.051891584 -0.19885916 0.009155254 0.16879943 0.2537812 0.32289135 0.0972181 0.0691552 0.015168036 -0.14814043 -0.06977695 0.20914826 0.20795889 -0.05235151 -0.09644721 0.01895657 -0.045215447 -0.09258205 0.225776 -0.01322838 -0.06092073 0.16499116 -0.05348609 -0.12793763 -0.08175383 -0.12309095 -0.23334236 -0.14261545 -0.24118209 0.039212763 -0.16385674 0.0154044535 -0.19461915 0.0020346623 -0.05160393 0.018911514 -0.13930662 0.18688846 0.0027107492 0.2504396 -0.003981222 0.14911059 -0.13872033 0.18570714 -0.022943506
5463 0.039236035 -0.062353816 -0.1579482 -0.21183519 0.034164675 0.068407744 0.069587246 0.07756899 -0.058381584 -0.004673949 -0.18447255 0.25194544 0.054023065 0.25799683 -0.1182022 0.05227243 -0.16545904 -0.10537293 -0.01807453 -0.0060103307 0.094205774 -0.025107699 -0.10878535 0.17618468 0.048848882 -0.15838858 0.15017027 0.17975618 0.1128722 0.25710148 0.13686867 -0.01695521 0.022512896 0.08152581 -0.109372854 0.05428027 -0.04816592 0.021285461 0.27928782 0.2110872 -0.25259504 -0.018962504 -0.058827452 0.14989051 -0.13365017 -0.23048028 -0.08079286 0.1315175 -0.12338883 0.050223388 -0.07298548 0.038672153 -0.16378643 -0.06451093 -0.17351763 -0.117851116 0.016372828 0.4049271 0.124319695 -0.022733528 -0.039176468 -0.011265063 0.10782732 0.028864818 0.055801537 -0.026816644 -0.05597722 -0.12979306 0.1503783 0.032590546 -0.2592912 0.26847982 -0.051757198 0.023831189 0.041348133 0.102121934 -0.01503829 -0.3466806 -0.18689768 -0.06445353 -0.121327475 -0.0049741846 0.053748213 0.055927742 0.01937307 -0.24376377 -0.02979191 0.17703396 -0.1565913 0.030309109 -0.38663656 -0.14990927 -0.09975952 -0.12502907 -0.04194883 -0.122841075 -0.009456519 -0.08602527 0.13737082 -0.0043926826 -0.06395831 0.036861207 0.06814556 -0.023812559 -0.064927734 0.031163583 0.0032153311 0.18065658 -0.18611103 0.031365942 -0.020932054 -0.13081376 -0.12697391 -0.104592025 0.04754426 0.13005048 0.21478178 -0.21990544 -0.019130638 0.10316455 -0.042951114 0.076372184 -0.46019307 -0.14665133 0.12344757 0.071713746 -0.10277473 0.09039895
5345 0.020955684 0.01731314 0.18645366 -0.097755305 -0.29435915 0.045575958 -0.24988604 0.14838709 0.09101936 -0.10357106 0.01775647 0.059668552 -0.10131027 -0.10853529 0.08263451 0.252458 0.28683853 -0.046801746 -0.17013167 0.06990998 0.048744027 0.13834107 -0.11405447 0.04998503 -0.20229484 -0.14659806 0.31154522 0.061652754 0.23882484 0.07370321 0.2725284 0.09168711 -0.0549155 0.11408841 -0.14544243 -0.09415369 0.06660514 0.12655164 0.5142834 0.14802179 -0.018337678 -0.17967787 0.21648821 -0.095083 -0.06368728 -0.05983094 0.051539097 0.18502161 0.12688355 0.106071256 0.10485559 0.2067055 -0.04032556 -0.032153208 0.09831263 0.10888107 -0.04769975 0.03881317 0.19724351 -0.4519289 0.15643811 -0.07970044 0.050728623 0.07148151 0.038160097 -0.058869157 0.22145525 0.35273877 0.083726116 -0.261943 -0.09140829 -0.030502731 -0.092394225 -0.20104964 -0.060164925 -0.19849718 -0.06664345 -0.22860505 0.0017303005 0.19925517 -0.09614315 -0.17851965 0.04222252 0.109501734 -0.18468714 -0.0020080449 -0.1508156 0.31008145 0.21884334 0.10136959 -0.2554179 -0.00607976 -0.019432839 0.17544514 0.018758602 0.067138344 0.021457372 0.08925438 0.0840707 -0.09362288 -0.040756382 0.1663683 0.030131154 0.30018383 -0.13546826 0.1929185 0.01782477 -0.2086637 0.08014054 0.06963584 0.04185646 -0.22362287 0.17467189 0.058295783 -0.10642345 0.15605564 0.035920054 0.09003129 -0.092279084 0.1190335 0.057530552 -0.055486377 -0.061046053 -0.13380352 0.07503021 -0.07858703 0.35644862 -0.04976199
1198 -0.44109723 -0.21682341 0.10455926 0.22409263 -0.05088013 -0.090453796 0.011629082 0.021302624 0.0002804803 0.21451737 -0.24374539 0.044579994 -0.09503171 0.20695949 0.026718814 0.13820314 0.09663183 0.003820816 -0.07907708 -0.20900165 0.025178462 0.09681632 0.0004013712 0.13932694 -0.011180487 -0.064176835 0.11896104 0.23564649 0.08933803 0.070295006 -0.113159165 0.2776723 0.117707275 -0.029763153 0.002524948 -0.025370087 0.22708376 -0.027145548 0.10716864 0.17385004 -0.2392535 -0.21401095 0.08885168 0.0022221736 -0.2034197 -0.16085781 -0.15773576 -0.16465737 0.06960334 -0.07514657 0.16242193 -0.255526 -0.11797419 -0.03714131 -0.11235611 0.13501044 -0.08687182 0.21057436 0.19093753 -0.089108296 -0.20309606 -0.07246102 -0.2498156 -0.03494306 -0.039133824 0.10691656 -0.20334752 0.119976 -0.1760638 -0.01584371 -0.114970334 -0.045357645 -0.041173756 -0.28068727 -0.3705981 -0.29863095 -0.1075983 -0.12657537 0.0038680134 0.06298398 0.05797518 -0.5566372 -0.2138753 0.18224172 0.013569493 -0.18285558 -0.07833503 -0.08123301 0.19119361 -0.1029251 -0.021081967 -0.13096593 0.060618483 -0.099657826 -0.0154849 0.07037484 -0.009614296 0.09829326 -0.014188739 -0.002883447 -0.26545316 0.1846999 -0.027907452 0.050301645 -0.13390468 0.045416784 -0.111067206 0.29917678 -0.114543706 -0.2333468 -0.10972455 -0.19341084 0.06903095 -0.04599869 -0.07740493 -0.16895144 0.16305241 0.053353254 0.11722604 0.2064676 -0.018149357 0.19672565 0.075900204 -0.300873 0.16548783 -0.020538948 0.310295 0.033805672
1074 -0.05432039 -0.1402701 0.60373914 0.034824483 -0.06911956 -0.04052271 -0.027257508 -0.007888386 -0.12693557 -0.010905992 -0.29640216 -0.111473724 0.14485082 0.027006399 0.040758528 0.17901482 -0.10334057 -0.10757895 0.016228849 -0.19149339 0.065219335 -0.31812084 -0.29764965 0.07904048 -0.15962887 0.21318418 -0.07812641 0.1867922 0.13401298 0.26921135 -0.18274835 -0.12907872 -0.06479705 0.12180406 -0.0820603 -0.004769457 0.17422917 -0.24439691 0.05493426 0.19688515 -0.0166612 -0.19597092 0.018043427 0.05968318 0.19856569 -0.07911657 -0.10791674 0.1931368 0.15023677 -0.09923204 -0.02291832 0.033601254 0.091421455 -0.16794094 0.0053837253 -0.07268589 0.21033162 0.13402785 0.1571185 -0.29691136 0.25308532 0.0016587594 -0.2486632 -0.09190855 -0.07945142 -0.16431193 -0.14225475 0.1849537 0.0065675084 0.02035212 -0.040251408 0.13642661 0.15882978 -0.08664755 -0.21682337 -0.10334911 -0.18741085 -0.048339054 0.062057156 -0.2681631 -0.3309167 -0.03948194 -0.056138974 0.09246072 -0.08574611 -0.036898 0.4017769 -0.017932696 0.018567147 -0.13374414 -0.18807162 -0.31432435 -0.10891945 -0.099603936 0.10952073 0.17746474 -0.21778361 -0.038982872 -0.14712596 0.015881745 -0.055568594 0.043447938 -0.14449708 0.08440684 0.18111405 0.1579778 -0.20333381 0.14632778 -0.020968005 -0.13023837 0.31341308 0.073015355 0.31393206 0.20362014 -0.31742802 0.063954845 0.015483648 0.088391 0.03281805 -0.055473413 -0.01369514 -0.057421602 -0.1859709 -0.100585386 0.07031859 -0.0038967072 0.053581737 0.085089505
496 -0.2975349 -0.0826916 -0.11795178 -0.048256952 -0.0006679593 0.059698533 0.10686673 0.20898566 -0.02950039 -0.15692312 0.0058473093 0.019713173 -0.17265356 0.15243767 0.082433105 0.15432894 0.0234393 -0.17996354 0.021247793 -0.097037 -0.127359 0.1270931 0.02567699 -0.03705501 -0.06769519 0.07159195 0.013225125 0.13308847 0.01905066 0.12736242 -0.20093994 -0.10460896 -0.03963323 0.009631297 0.030896902 -0.035036355 -0.0053637335 -0.24731657 0.023514377 0.14827892 -0.2503226 0.011135075 -0.33541787 0.22401805 -0.18090406 0.020046286 -0.12009728 -0.12728287 -0.030851644 -0.05670643 -0.25505778 -0.17924717 -0.3101113 -0.05905349 -0.1796284 0.2859986 -0.010716599 0.08349746 0.20000835 0.14517614 0.08956619 -0.006873097 -0.12877916 0.040250435 0.019800825 -0.15602246 -0.2937902 0.032450538 0.035944823 -0.090376794 -0.16550517 0.20577091 -0.13542417 -0.049414117 0.109254695 -0.23837385 0.22842224 -0.11458987 -0.29109207 0.069563754 -0.07734962 -0.011794345 0.18536444 0.3063805 -0.074845135 -0.18203275 0.16915217 0.15546817 0.15824409 -0.2059484 -0.13209875 -0.1593895 0.029633487 0.15799542 0.077453025 0.07065981 -0.084678404 -0.05128258 0.0029090068 0.3441613 -0.16382115 -0.053926926 -0.014286377 -0.060880527 0.068681404 0.1711438 -0.09674569 0.0106656505 -0.030770255 -0.0026508884 0.013583558 -0.03699477 0.17730135 -0.31760564 -0.25364912 0.24143413 0.17500228 -0.3097857 0.21728422 0.4144227 0.009416987 0.3242295 -0.16932417 -0.05731085 -0.013371211 0.06618159 -0.076025195 0.011853642
16 -0.13041346 -0.15702903 0.038212717 -0.34756356 0.12160592 0.0053553027 0.1859545 0.28918913 -0.088163406 -0.007974953 -0.008486142 -0.027024614 0.15045166 0.25340596 -0.0114987595 -0.27091318 0.30491605 0.084212095 -0.1096395 0.18065122 -0.4704736 -0.08669946 0.05489201 0.33201158 -0.5153083 0.0011657589 -0.08707045 0.05097763 0.2040305 0.18433292 -0.08047229 -0.04622231 -0.013049872 0.18199392 0.025802812 -0.018029956 0.22767885 -0.31288052 0.23464133 0.17097415 -0.2457361 0.11392725 -0.35434142 0.111435704 -0.09869014 -0.08662766 -0.03362515 0.064784475 -0.17851739 0.066856146 -0.05342309 -0.056280028 -0.25691342 -0.099682294 0.048224546 -0.04122792 -0.018382486 0.1773418 -0.056635987 -0.36446226 0.0556454 -0.08049284 -0.0040861294 0.041982368 0.1195519 -0.02008339 -0.12585935 0.20974366 0.0017900788 0.19194815 0.06847298 0.15073732 0.046392623 -0.038591377 -0.33449548 -0.15559888 -0.096095406 -0.18372616 0.15571152 -0.26305088 0.1865834 -0.19465707 0.082791425 0.079831116 -0.12977791 -0.17638145 0.074532025 0.2743891 0.03595625 0.013273877 -0.10675845 0.12474012 -0.09493973 0.14259437 -0.24539745 0.12898421 0.15628126 -0.0077768797 -0.18201734 0.046606295 -0.04731193 0.2607582 0.11251843 0.084035344 0.00935782 -0.05215283 -0.09159266 0.28567892 -0.043995176 -0.3961195 0.04808639 -0.14712566 -0.017511683 -0.023250101 -0.2917908 -0.008824319 -0.031928547 0.16236934 0.12860769 0.22025868 0.181912 0.18252242 0.04399859 -0.24124289 -0.18397938 -0.005302195 -0.17569701 0.2197713
3337 -0.28436527 -0.030790728 0.031005232 -0.124838844 0.073906526 -0.08083904 -0.11759864 -0.18415414 0.3409752 0.1934848 0.133733 0.16968648 0.0334672 0.18887149 0.07478438 -0.055888437 0.2686362 -0.18294337 -0.07914773 -0.19746275 0.10252455 -0.009856086 -0.2607887 0.042700697 -0.17479889 -0.10820327 0.3122362 -0.037108056 0.37152344 0.18348493 0.112140924 0.09570422 -0.023586892 0.122418076 -0.33364704 0.23934768 0.21714154 0.12844783 0.10056685 -0.071958356 0.17252602 0.038991176 -0.07564282 0.05745928 0.07963443 0.114532314 0.06803862 -0.233518 -0.11285879 0.38657647 -0.15952688 0.013834945 -0.106272995 -0.22793676 -0.18352208 0.0016490034 0.13043822 0.12535752 0.30556035 -0.19913688 -0.1211043 -0.057032775 -0.4298742 -0.07316839 -0.026643397 0.11941448 -0.18509343 0.1281954 -0.062098514 -0.06273626 0.09440295 0.32137924 0.049300995 0.048977766 -0.33653718 -0.18620719 -0.20855285 -0.16417304 -0.0020099988 0.13028276 0.10201555 -0.051265795 -0.0015544329 -0.022105092 0.11432488 -0.15997879 0.16658632 0.261988 -0.16937928 0.04254354 -0.120803244 0.091621794 0.038592156 0.37906167 -0.067344606 -0.11634491 0.08791741 0.04107904 -0.14160058 -0.16756094 -0.2382093 0.07411896 0.25421777 0.06470228 -0.10787665 0.1309765 -0.21519874 -0.038337763 0.08116104 -0.030100925 -0.0719208 -0.22724584 0.32989833 0.3285921 0.18036501 -0.03278034 0.17703994 -0.061658144 -0.02718147 -0.057834554 0.2649367 0.34962657 -0.23142593 -0.09911914 0.0036479703 0.10558834 -0.084116906 -0.028203068
813 -0.11757842 -0.012376917 0.24219732 -0.15759735 -0.10160271 0.2031055 0.026415436 -0.011840352 0.03648498 -0.10435681 0.20012571 -0.04523678 0.035477687 0.1371779 -0.04004141 -0.118725434 0.35176066 -0.100191355 -0.05990263 -0.14393024 0.11246232 -0.0380844 0.11388229 0.009687044 -0.30107793 -0.082041465 0.113625295 0.17064773 0.20033361 0.3321473 -0.19842553 0.020537416 -0.045945827 0.043532424 0.15142217 0.2360902 0.20420595 -0.25873172 -0.0885421 0.21560217 0.07883334 0.06543417 0.17795458 -0.19320631 -0.02659816 0.10675582 0.020924043 -0.19762702 -0.08580658 0.17119429 -0.06040622 0.11961124 0.013914465 -0.1328555 -0.10726666 -0.033574957 -0.078298345 0.032824386 0.15555778 -0.28387633 0.019650685 0.0072262962 -0.2397994 -0.020953558 0.31758147 -0.099945694 0.029830256 0.14241615 0.008103094 0.05939357 -0.08195082 -0.0009965554 -0.14401458 -0.16169909 -0.10414314 0.027335543 -0.22595385 -0.0843533 -0.29080525 -0.02146928 -0.04563113 -0.31767845 0.112986125 -0.018780658 -0.08218915 0.07471183 -0.13724247 0.28732485 0.22469412 0.104360595 -0.1642808 0.07458015 0.008352824 -0.1500955 -0.007921022 -0.08887137 0.09765058 -0.13086878 -0.030796476 0.050822888 -0.06725294 0.26102737 -0.22058113 -0.1392153 0.24024454 -0.020530794 -0.15861616 -0.05889401 0.13639279 -0.033092245 0.03788584 -0.18615986 0.07825488 -0.11143842 -0.047504492 0.080443144 0.14103045 -0.054702535 0.08957666 0.038925294 0.03250065 0.03647113 -0.0475386 -0.04771506 0.10117034 -0.14569615 0.051051196 0.26562467
4321 -0.24100883 0.0014442137 0.07394351 0.101058096 0.23347332 -0.17219672 0.01569886 0.03617356 0.00074260554 0.052343134 -0.2285638 0.024673961 0.00363532 0.15990718 -0.17600608 0.07698481 0.12832144 0.20144552 -0.010679501 -0.43319196 0.005943586 0.048460014 0.02596767 0.10096181 -0.34566838 -0.020251676 0.031821482 0.043298353 0.027821997 0.092146896 -0.124025874 -0.15675513 0.003185425 0.055876017 -0.22692028 0.084500164 0.11324705 -0.34688944 0.3350251 0.2858387 -0.2625826 -0.027757408 -0.014452649 0.25679323 -0.33092976 -0.13515769 -0.28333294 0.018629527 -0.035049483 0.08620498 0.028375592 0.030317636 -0.32705572 0.080148526 -0.11177473 0.26310673 0.1064795 0.07027464 0.13934937 0.10402458 -0.09740474 0.030752651 -0.081324816 0.050479326 -0.11233981 -0.10183708 0.039044898 0.00014660669 -0.10586841 0.07325752 -0.083325446 0.2053045 -0.09171348 0.08857723 0.049535055 -0.25418746 0.027817851 -0.27363688 -0.19880494 0.056429572 0.12275345 0.07279081 0.18966328 0.21542175 0.09823824 -0.13193478 -0.10875308 0.246409 0.22440006 0.1265157 0.08641492 -0.22050272 -0.043104798 0.019702274 0.021097148 0.07240421 -0.017256856 -0.2513188 0.21809512 -0.00717337 -0.18256803 0.024943357 -0.06136676 -0.24918874 0.15770309 -0.08728988 -0.11642756 0.09012817 0.11306561 -0.056538805 0.0028545435 -0.12995157 0.10144089 -0.32698977 -0.3736836 0.054454282 0.15019238 -0.12173773 -0.10506814 0.25157 -0.26039317 0.1813337 -0.09241009 -0.10896138 0.1515239 0.2591594 0.106156625 0.04958835
56 -0.13093433 0.07924287 0.13050157 -0.17060357 -0.16044691 0.2608607 -0.07416207 0.10083036 -0.006805484 -0.09878677 0.055603538 0.1658827 0.265731 0.017379427 0.15818629 0.119001865 -0.15499052 0.0035839519 -0.3426335 0.27004468 -0.08290797 -0.17454837 0.15296423 -0.10741798 -0.16186137 0.06474682 0.15932523 -0.07513158 0.09643574 0.27460667 0.15913866 0.095723264 0.010150288 0.10896419 -0.04272945 -0.16016391 0.14692794 0.18931551 0.168994 0.19241142 -0.17455941 -0.021528892 0.10480546 0.13919117 0.22619273 0.033815857 0.10594125 0.1354467 -0.09923547 -0.2643509 0.011430511 0.25524563 0.070784226 -0.009973978 -0.18913078 -0.15432993 -0.040665872 0.0336748 0.06938396 -0.08388199 -0.053083174 -0.14137442 -0.13737938 0.2298314 0.109379694 -0.1426472 0.070769675 0.39097685 -0.060769472 -0.05729501 0.08668147 -0.13777365 0.10514337 -0.18409114 -0.28611618 -0.20244871 -0.100287914 -0.16089548 0.06865425 0.05206841 0.21264997 0.23219544 0.17822209 -0.1826181 -0.07292153 0.1577986 0.1102942 0.21217227 0.16438611 -0.022132285 -0.049234167 -0.13384923 -0.27486905 0.38964027 -0.25858548 0.16932039 0.15400404 -0.03518895 0.2803608 0.065610945 -0.23079762 -0.074884616 0.3848188 0.2656387 0.17141202 0.03744858 -0.13039419 -0.05618949 -0.19175717 -0.19275308 0.20483048 -0.60188895 0.027844243 -0.02423426 -0.032778554 0.18519819 0.149094 -0.26289183 0.02751643 0.0336813 -0.14976197 -0.14771546 -0.040862616 -0.06733513 0.21762848 -0.079069026 0.08871532 0.13890493
20 -0.22300933 -0.05643108 0.10887077 -0.2185316 0.039249327 0.14113438 -0.1122803 0.04325576 0.045171898 0.1344722 0.04035408 -0.003491506 0.15364741 0.033991747 0.015242438 -0.11717342 0.28662446 -0.1813541 -0.003934317 -0.091731906 0.19373737 -0.12060989 -0.040679444 0.016182944 -0.06782572 0.10073715 0.11315532 0.02824531 0.2708898 0.25784606 -0.13052231 0.189602 -0.102041066 0.33178326 0.09209046 0.12054787 0.22363162 -0.20189574 0.077175036 0.21057549 -0.15856622 -0.12826109 0.101805516 0.07554909 -0.11012632 -0.27247095 0.15924123 -0.20544651 0.16672045 0.15786251 -0.12405859 -0.046879504 -0.024421902 0.14706986 -0.02744286 -0.18938899 0.048807267 0.10810784 0.2000493 0.07240838 -0.080039054 -0.15142263 -0.33914176 0.0046520713 -0.02498089 0.015800595 -0.13098261 0.35986322 -0.1417331 0.23406595 0.16717556 0.013565467 -0.065808155 0.10043415 -0.116942406 -0.10207604 -0.1703215 -0.13051201 0.07593754 -0.08037509 -0.19453938 -0.030390766 0.007438775 -0.13586919 0.0014240654 -0.04168302 -0.083922274 0.25518095 0.03906524 -0.007436443 -0.056149397 -0.28921553 0.08946125 0.04934933 0.1068457 -0.230339 0.14967908 0.036390387 -0.0452518 -0.20656396 -0.17074056 0.18511559 -0.11548166 -0.049078975 0.002520759 -0.08335939 -0.24176085 -0.032114897 -0.092585586 -0.057052806 0.03551191 -0.1918408 0.20041297 0.28230357 0.028025536 -0.03164363 0.21965331 -0.10111754 -0.1565145 0.17860062 0.08754376 0.05986676 -0.21312477 -0.33913916 0.07362914 0.065944396 -0.034847952 -0.06245272
4012 -0.21011272 -0.32664448 0.16208826 -0.2553643 0.175799 0.32255 -0.06557527 -0.0125922905 -0.10888894 -0.28444004 0.13562168 0.08261745 0.024809118 0.25275913 0.010382829 -0.014322323 0.21773182 -0.06853484 -0.20374832 -0.2787089 0.033447582 0.022192977 0.103490025 -0.18931434 -0.06484848 0.0033173286 0.06490571 0.2340588 0.0065697697 0.23975904 -0.061949644 0.081804074 -0.086508535 0.2169837 0.025050187 0.12670061 0.26197365 0.06916792 0.014128235 0.24925339 -0.0150739355 -0.015433461 -0.086781986 0.0068467036 0.04739819 -0.12137586 0.12973846 -0.003971544 -0.10380318 0.02592565 0.07450951 0.07190312 -0.12847163 0.106414 0.03120739 -0.27681902 0.10900451 -0.07018109 0.34337077 -0.035168108 0.061484624 0.19609332 -0.27968806 0.054678407 0.041335057 0.05928608 0.15901607 -0.003274593 0.011281273 0.076564 0.023897694 0.16526659 0.25729147 -0.033895317 0.18489395 0.11595321 -0.1469239 -0.116097696 0.12752108 -0.07230048 0.19634013 -0.2680544 0.12270884 -0.06280521 -0.01067345 -0.35368076 0.032953143 0.13293736 0.34589633 0.06892103 -0.04940326 -0.29108268 -0.04896553 -0.1282672 -0.044569038 0.02465866 0.034442607 -0.20801166 -0.14962716 0.0677676 -0.25478512 0.06999224 -0.27499002 0.012770157 0.21803981 -0.058035616 -0.14784014 -0.19117051 0.017953277 -0.16407898 -0.057454668 -0.2142548 0.36110866 0.04135502 -0.22621305 -0.08997115 0.060442183 0.085637 -0.0677277 0.07149064 0.107799895 -0.1351598 0.013568799 -0.250636 0.14641881 -0.029278265 0.21173584 0.252796
1315 -0.2341453 -0.11157242 0.05418917 0.031039564 -0.15624289 -0.0026319006 0.0007794658 -0.120339744 -0.030709323 0.069538295 -0.14542858 0.05660586 -0.06629808 0.016127797 0.2279605 -0.017496832 0.16430795 0.07579486 -0.07038404 -0.031369932 -0.0014167975 -0.047602084 -0.08199138 0.16914792 0.06821755 0.11378383 -0.05623471 0.14686117 -0.13133508 -0.015155994 -0.06720792 -0.08526292 0.2869678 0.077947184 0.020071458 -0.120324865 0.22470544 -0.26332152 0.18843943 0.22002806 0.29306486 0.12532113 0.02280153 0.017485868 -0.07603291 -0.15968752 0.049000267 -0.06374482 -0.13752997 0.027335944 -0.20233253 0.13687192 -0.06516402 0.0507722 -0.15727358 -0.035494305 -0.26472172 0.059444178 -0.014619572 0.015835715 0.08178418 -0.01536222 -0.02645918 -0.08082096 -0.26592085 -0.08317634 -0.13214637 0.31100813 0.023135906 0.11075937 0.07170035 0.18121606 0.0049122726 -0.0022516479 -0.1301637 -0.13011259 0.016054312 -0.27984932 0.22162025 0.114566155 0.11532739 0.2561902 0.10568211 0.04545941 -0.016000705 -0.12720416 0.029816667 0.39068666 0.3088707 0.04304116 -0.0032277284 -0.08086887 0.027588347 -0.10810247 -0.13794038 -0.07810018 0.10630026 -0.310718 -0.3294821 -0.15064904 -0.10162937 -0.021128545 -0.043537676 -0.06856463 0.059461884 0.119979784 0.021224748 -0.005175356 -0.056906536 -0.020064838 0.028175196 -0.1934264 0.13104104 0.060443558 0.09665879 5.115402e-05 -0.09636652 -0.18538514 0.042022068 0.04000724 0.34752074 -0.04674596 -0.046339624 -0.14891903 0.2716476 0.019768247 -0.07432189 0.015274046
3737 0.04791499 0.18977211 0.20127681 -0.25200576 -0.20449086 0.109155916 0.35668853 0.44814113 -0.06873667 0.11991532 0.07447178 -0.15589245 0.104434706 0.09375885 0.04305821 -0.07709313 0.27205232 -0.22900176 0.14223248 0.058616422 0.2233466 -0.04197001 -0.10780766 0.0886639 0.014623912 0.09509237 -0.09394705 0.0504946 0.07487922 0.11683458 0.32802036 0.064047314 -0.22606437 -0.015714394 0.065057755 -0.15406772 -0.088067725 0.040454157 -0.17453367 0.11857543 -0.21839823 -0.07161853 0.24628237 -0.08353266 -0.06638494 -0.23393632 0.068023 -0.077984616 -0.039028767 -0.11023739 -0.0550053 0.18659161 -0.20040347 -0.06168076 -0.063355416 -0.2601292 -0.112849735 0.019871272 0.6349249 -0.0017013345 0.04578602 0.17041962 -0.14363171 -0.32829642 0.067604564 0.024840018 -0.15404418 0.072037555 -0.06120276 0.0750389 0.3374878 -0.21591827 0.027204262 -0.036746666 -0.31764823 -0.22133239 -0.20416145 -0.012340756 0.12577532 -0.2139937 0.14133835 0.041575942 -0.23437458 0.1609049 -0.047218956 -0.19778082 0.04837225 0.00833839 0.14867672 0.03351419 -0.28482413 0.30324057 0.11196291 -0.5703246 0.053235933 0.104582295 0.054145522 -0.22339591 0.12178208 0.08207812 -0.03764288 0.26997617 0.13384451 -0.02981783 0.20238177 0.08201877 0.085733406 -0.23861115 0.24528652 -0.18937409 0.029544586 -0.51449883 -0.16558838 -0.09925507 0.09150336 -0.05212534 0.07088835 -0.36131588 -0.10008089 0.31550592 -0.17508134 0.02450728 -0.21662025 -0.04201848 -0.027997486 -0.06503662 -0.08699956 0.110753655
3872 -0.21014407 -0.30432972 0.14846112 0.16431811 0.1476763 -0.35179242 0.36218208 0.41308692 -0.35045275 -0.16973981 -0.26151836 0.19185227 0.04786884 0.13435896 -0.12992154 -0.084039494 0.1220691 -0.13431996 0.064434916 -0.023897586 -0.05414847 0.11640605 0.058103256 -0.14261456 -0.08736559 -0.07617675 0.35560673 0.0677359 -0.036270484 0.51476413 -0.01565454 0.087418124 -0.28715262 -0.12791377 0.03210116 0.15332651 0.097800344 -0.103858754 -0.1235413 0.32543352 0.082996935 -0.05903681 -0.05448387 -0.37611336 -0.036561668 -0.09259913 -0.16634747 -0.1035866 -0.06560053 0.12228846 0.06347256 -0.15537444 -0.06355574 -0.0019413293 -0.30483425 0.028318848 -0.1999931 -0.08619803 0.10649118 -0.22324798 0.06550912 -0.27828276 -0.15268826 -0.085073546 -0.0015340284 -0.0029492183 -0.16537191 0.33555362 0.35273838 0.26598793 -0.063352995 0.18240899 -0.07174325 0.10220543 -0.25159773 -0.08725349 -0.18225971 0.009979299 -0.05637027 -0.020138573 0.06582462 -0.23475263 0.21205957 0.17807971 -0.2273978 -0.2349406 -0.015788293 0.20175245 0.23970535 0.028170833 -0.020995589 -0.3720584 0.14876185 -0.0056376522 -0.107895024 0.02918685 -0.05244847 0.111238234 0.19627093 -0.012209532 -0.10389508 0.28093857 -0.26691216 -0.026471192 0.15552881 -0.113763556 0.08846621 -0.06588008 -0.3063806 -0.35553926 -0.13836785 -0.12120629 0.20232089 -0.121980004 -0.08701304 -0.05768996 0.040225588 0.026933523 -0.21872586 -0.30374995 0.25650215 -0.018806979 -0.022034658 0.2383103 0.11190139 -0.08066985 0.069941156 -0.04040262
2889 0.018808072 -0.123600736 0.08490853 -0.05724723 -0.086541876 0.060734816 -0.0695358 0.28472692 -0.3161417 0.053435482 0.052866418 0.27044666 0.09099758 0.11730209 0.2827602 -0.083835274 0.24648601 0.026306922 -0.18122947 0.020879276 0.07436048 -0.014864902 -0.061233677 0.39831042 -0.168886 -0.21056212 0.04351409 0.06187263 0.21935341 0.203909 -0.48463514 -0.13050118 -0.06785109 0.19140695 0.12269715 -0.1312013 0.09945589 -0.077915244 -0.07420059 0.08389707 -0.22235937 0.029442254 -0.09428542 0.028747123 0.057859965 -0.057515934 -0.056783244 -0.04656644 -0.15148175 -0.006619007 0.01564092 -0.05668144 -0.015969155 0.13529629 -0.10423118 -0.004053546 -0.09325445 -0.19234034 0.23482578 0.09547201 0.00663744 0.09133191 -0.36736837 -0.018044285 0.19992293 0.15905695 -0.0990464 0.2524214 -0.12964745 0.07756246 0.0519477 0.17176135 0.06962653 -0.026435921 -0.18477724 -0.05054278 -0.3503111 -0.29243773 -0.053203415 0.0877189 -0.037194677 -0.13019083 0.10492291 -0.12758741 -0.14087537 -0.13643691 0.17427775 0.022620913 0.17982316 -0.067155086 -0.15381722 -0.21745856 -0.095308155 -0.14865884 0.15797071 -0.14386381 0.43666264 0.20782958 -0.19795923 -0.18423204 -0.048106045 0.18824334 -0.20437503 -0.0019075859 0.0037207105 -0.46140304 -0.01865075 0.009927405 0.058921706 -0.061763264 0.02655125 -0.13157709 0.30548915 -0.21206802 -0.11875043 0.13409281 0.33899578 -0.146259 0.07272221 0.16847165 0.09046449 0.0720346 -0.174101 -0.08316232 0.02374505 -0.13337137 0.25417313 0.17832582
4572 -0.0040317527 0.055016704 -0.053741075 0.03481678 -0.074443236 -0.1571738 0.08007999 0.2599575 -0.033609167 -0.17663696 0.12910998 -0.1458123 0.10933362 0.28988296 0.04905037 0.089893155 0.09618808 0.06052324 -0.15258461 0.0575932 -0.017888613 -0.07024713 -0.14077565 -0.11644693 -0.29786807 -0.06918984 -0.13964088 -0.07366102 0.30049917 0.21358669 0.3605456 0.077881925 0.13181104 0.14111982 0.13311256 -0.04871774 0.13852064 -0.32743046 0.12431549 -0.043285627 0.004206262 -0.06880835 -0.21566093 0.049477834 -0.16577601 -0.14393514 0.5436485 -0.14771888 -0.25031826 -0.09747756 0.032123003 -0.0715952 0.07067255 -0.03863824 0.047337975 -0.004500146 -0.099183895 0.30636013 0.25901616 -0.08189751 0.13386732 0.21344216 -0.097979344 -0.055187423 -0.24488263 -0.009836731 -0.309446 -0.20998015 0.13761391 0.03156109 -0.09185818 -0.26535937 0.040908687 0.22400759 -0.26352704 0.05366371 -0.3638917 0.075668685 0.22412921 0.106475696 -0.12486119 0.022947278 0.18149368 0.26722518 -0.14764948 -0.24383909 0.16447715 -0.105530754 0.20169608 0.08882008 -0.26465288 0.07544342 0.026758442 -0.27290615 0.13662975 -0.0022140602 -0.0465972 -0.15069453 0.008525868 -0.16496964 -0.017466282 -0.0017947997 0.08135151 0.08853908 -0.13217881 -0.109991916 -0.25294957 -0.19667861 0.042601082 0.16482453 0.06750851 -0.023946611 -0.38383323 0.07602222 -0.043660495 -0.24189173 0.027011601 -0.0936902 -0.0033373975 0.00828463 -0.043255836 0.40553966 -0.42098162 0.005608201 0.4135857 0.09663436 0.14804174 0.22819045
6136 -0.07566285 -0.17120533 -0.008624831 -0.08916395 -0.013981338 0.0762336 0.100901365 0.00039642205 -0.0698731 -0.32747456 0.19215368 0.10373103 0.123378955 0.33051786 0.0502135 -0.008887496 0.18952723 0.06446648 -0.06655615 -0.019883232 0.11604751 -0.025807656 0.18986392 0.14948295 -0.04295228 -0.07813506 0.08232426 -0.14589274 0.27311188 0.045417022 -0.22537073 -0.29071134 0.06100843 0.27987307 0.23262143 0.29883105 -0.015059702 -0.218738 0.0059208297 0.2564653 0.035903223 0.09521937 0.1454831 -0.08811157 -0.08213875 -0.11952289 -0.045541905 -0.15095711 0.08530099 0.11459544 -0.2009977 0.021921268 -0.08335208 -0.29224935 -0.21939479 -0.15223378 -0.096981734 0.15879 0.025565097 0.032941826 -0.13900705 0.008931101 -0.36954567 0.2081511 0.09160734 0.28540716 -0.1025032 0.23445842 0.03574149 -0.09753662 0.090572506 0.059637293 0.13448055 -0.0636541 -0.026290998 -0.079041906 0.021868309 -0.22871208 0.13128668 -0.29377165 -0.08688854 -0.19372858 0.02682583 -0.10103568 -0.14197691 0.0017239089 0.102218576 0.13798778 0.47633377 -0.0002068019 -0.24318331 -0.19885497 -0.057174783 -0.23717514 -0.04416995 -0.006604599 0.11231264 0.050173473 0.007973982 -0.12061623 -0.15066831 0.37515333 -0.12706412 -0.22245431 0.024404116 -0.09933309 -0.09138578 -0.090690434 -0.088145524 -0.15688503 0.14141731 -0.066858046 0.30833635 0.017591676 -0.070383556 -0.005878036 0.045250736 -0.06013388 -0.03044801 0.41010693 0.15628453 0.1493718 -0.21581729 -0.10362906 -0.14237143 -0.14788593 0.12773146 0.30844897
3348 -0.04302515 -0.048170652 0.24545585 -0.0033851347 -0.004380098 -0.090242945 0.04370104 -0.0021231773 -0.10309295 -0.15972486 -0.19375572 -0.02051606 -0.041926436 -0.083434775 0.131669 0.018694831 -0.08690648 -0.058932096 -0.055791043 -0.1954307 -0.044065405 -0.026312694 -0.31060833 0.095899366 -0.19760805 0.025899868 -0.05799194 0.026114203 0.07656215 -0.021387754 -0.21374185 -0.09032 -0.2680986 0.19345932 -0.09729887 0.019366033 0.28920123 -0.34188876 -0.051086117 0.12969026 -0.047215614 -0.09737893 0.05677994 -0.063891344 0.056640852 -0.032763027 0.051516462 0.0026669602 -0.024144178 -0.10763178 0.014323467 0.05652999 0.056260627 0.06405896 0.09866842 -0.24193394 0.12168747 0.16445851 0.14942528 -0.20603189 0.03669172 -0.15268712 -0.12379153 -0.14260207 -0.120158926 0.094594404 0.10808277 0.3313735 0.02762599 -0.053628672 -0.023559889 0.049934506 -0.06642483 -0.14624168 -0.06268296 -0.19353527 -0.12299644 0.07649117 -0.21979503 -0.1293878 0.05794005 -0.26299968 0.039511304 -0.12821798 -0.13425119 -0.12491432 0.17900275 0.04136738 0.08281315 0.12779066 -0.1373883 -0.20992829 0.022636488 -0.045369662 0.103915684 0.18164164 0.008882447 0.01038853 -0.15055884 0.25883442 -0.1588973 -0.045939505 0.023512378 0.14466074 0.2054021 -0.04440202 0.010770096 -0.12884808 -0.17795518 -0.25639755 0.04177726 -0.03745044 0.18403299 0.16017936 -0.31607863 -0.040566597 0.18802084 -0.026998186 0.036851726 -0.0032826916 0.05204303 0.046261303 -0.22289519 -0.122876525 0.14868768 -0.07877446 0.16630681 -0.2167376
1674 -0.10367159 -0.00030151266 -0.16144478 -0.08468396 -0.22008632 0.109214336 -0.32394233 0.35251573 -0.0164641 0.2317283 0.09092213 0.1709403 0.55693084 0.24081644 -0.08087778 0.0906484 0.047775164 -0.1116843 -0.07772882 -0.09814 0.279428 0.07296471 -0.039617438 0.31490627 -0.018615723 0.02082017 0.1563544 -0.021250151 0.27797884 0.27000043 0.0010605443 -0.11068337 -0.17982657 -0.06387321 0.3488755 -0.031937465 0.122731075 -0.4267818 0.11952418 0.021852069 0.17102851 0.23461638 -0.0055977246 -0.083592065 -0.074547574 -0.010775553 0.16726038 0.29064432 -0.015548014 -0.13835874 0.03759637 -0.39239544 0.10581591 0.2935669 0.11618486 -0.21089837 -0.18517621 0.037341528 0.1712623 -0.087631375 0.08447265 -0.09958689 -0.20275903 -0.11701657 0.2355729 0.21474405 0.0025593475 0.48470905 0.16152841 -0.079514444 -0.089150906 0.097952284 -0.1517087 -0.40872812 -0.14621885 -0.62614655 -0.039766043 -0.063212216 0.102612704 -0.039955072 0.19487073 -0.013065838 0.21353257 0.17674525 -0.17366225 -0.32947537 0.13878052 0.34111708 0.14585064 0.15095489 -0.030535627 -0.013549273 0.26621816 -0.058040645 -0.086114824 0.2768449 -0.16134346 0.09716484 -0.117213674 -0.058298405 -0.20814821 0.3561403 -0.03720432 -0.29861638 -0.118938945 0.12606029 0.01870745 0.058780503 0.07075166 0.104683384 -0.014647318 -0.18617153 -0.22508386 0.16790727 -0.20123455 0.14028569 0.0406649 0.05617353 -0.010621306 0.051938333 0.19378686 0.021872163 -0.080374755 -0.12933095 0.07682088 -0.028343847 -0.013780974 -0.0070687057
2727 -0.3579168 -0.39489925 0.117551886 -0.19888586 0.0706048 -0.0038024336 0.19443682 -0.1882375 0.19922082 0.070552364 -0.022378715 -0.06665354 0.02127494 0.24059969 0.1498411 0.14278363 0.33605105 -0.15844949 -0.22217764 0.02039097 0.14062259 -0.13579616 -0.429089 0.058010336 -0.20978191 0.011147822 0.25946787 0.040687658 0.46023327 0.026121486 -0.08652245 0.009352779 -0.16390908 -0.02539579 -0.24116561 0.2508857 0.13669097 0.10386084 -0.275423 0.26547587 0.017192332 0.08620122 0.08202671 -0.18101993 -0.0909064 -0.133295 0.19311124 -0.11345393 -0.20155415 0.07667386 -0.17385289 -0.022270657 0.048999876 0.12349301 0.29747343 0.08329374 0.16845466 0.12922579 0.08999401 -0.036518022 -0.12051035 -0.1406018 -0.12939997 0.21137668 -0.049087223 -0.26544064 0.11892898 0.12211335 0.1381959 0.024079818 -0.27414802 -0.105490744 0.051182397 -0.22252384 -0.2136445 0.070444524 -0.1946716 -0.57213867 0.106517985 -0.078119956 0.082429074 -0.039273314 -0.02868807 -0.25177735 0.04169909 0.07065246 0.15659876 0.3057302 0.0719905 -0.094459645 -0.08845207 -0.16778797 -0.029270783 0.077153385 -0.008926316 0.07661849 -0.06047247 0.04368602 -0.11912101 -0.15356517 0.06458916 -0.015519122 -0.12555549 0.05768982 -0.13540067 0.29072928 -0.06296342 -0.03463522 0.19685134 0.17826606 -0.13811044 -0.23186612 0.08377548 0.11855929 0.01948694 -0.015701609 0.19988658 -0.20178448 -0.008608065 0.20908637 -0.10909584 0.11411854 -0.14476384 0.097150646 -0.08224317 0.038138814 -0.11143526 0.11922608
5119 -0.022869393 0.22038 0.039336953 0.13043864 0.025891675 -0.02360787 -0.1795951 0.100378 -0.12776944 0.3138232 -0.14784814 0.11904788 -0.023597585 0.07669314 -0.05695034 -0.021263756 -0.07977562 0.12881593 0.10212356 -0.060428068 -0.07477029 0.2602826 -0.07182564 0.20543751 -0.18600625 -0.1347245 0.2084244 0.17704463 0.11520178 0.25978464 0.06205497 -0.062178906 -0.075351454 0.18319204 0.20192406 -0.05520366 0.24251854 -0.19576457 0.01732852 0.32904914 0.1075834 0.14221013 0.13707753 0.092387095 0.07850355 -0.10927412 0.16732666 0.2968569 -0.017273268 0.2576356 -0.024502493 -0.21589139 -0.06337362 -0.09413052 -0.20585637 0.121925764 -0.29907045 0.06660229 0.27051115 -0.19105531 -0.07384846 0.03550603 -0.12643412 0.24089912 0.15163587 -0.10509707 -0.030130278 0.3970688 0.06806276 -0.06358333 -0.22427253 0.27262005 -0.15169369 -0.05107859 -0.25759852 -0.3326824 -0.13192812 -0.14816758 0.043595023 -0.008991395 -0.20118445 -0.27388182 -0.1723273 -0.06948265 0.11795866 -0.068853274 0.23079047 -0.1853021 0.24698192 0.29773033 0.0046356 0.10562954 0.17560318 -0.017590543 -0.10110648 0.1388371 0.10848514 0.14379916 0.0761644 -0.3476352 -0.36768898 0.09065897 -0.065499336 -0.25858596 0.1215147 0.22771282 -0.15482415 -0.03379029 0.02802963 -0.22593893 0.057958208 -0.21613385 -0.08507601 -0.03477266 -0.17390326 0.21688208 0.08062998 -0.036902178 -0.09377376 0.14945136 -0.1437889 0.1659937 0.21175392 -0.062076513 0.23916213 0.16769859 -0.0050515877 -0.0340851
773 -0.1979309 -0.15095362 0.24923807 -0.306889 -0.27692038 0.13784982 -0.021487182 0.121388674 -0.2364453 0.18705624 -0.33682677 -0.17179741 -0.23774342 -0.08783782 0.08860036 0.32388276 -0.09734221 0.07204572 0.2958514 -0.25938907 -0.017924942 0.05758334 -0.30379894 0.00892915 -0.2507085 0.06488669 -0.2610192 -0.0944087 0.122017175 0.22429097 -0.22512917 0.093493715 0.18686207 0.10118218 0.051563513 0.04150265 0.40824094 -0.16767351 0.08283152 0.20698333 -0.020971635 -0.02527498 0.12873492 -0.13908638 -0.14478406 -0.08564108 -0.06673027 0.11029206 0.02159501 -0.17919496 -0.069998495 -0.34210572 0.07001662 0.011399962 -0.18333669 -0.031531412 -0.059463296 0.15262735 0.41807726 -0.023243152 -0.12259898 0.05595077 -0.021291941 0.16597869 -0.23294972 -0.25929826 -0.10220386 0.054344907 0.030043095 -0.07243512 0.013720897 0.30970654 0.1282852 -0.07812107 -0.14957555 -0.18045166 -0.09609778 -0.1264948 0.16553023 0.046687804 -0.10231184 -0.18228482 -0.12169561 -0.0034149582 0.09471588 -0.05016601 0.18996397 -0.15139626 0.12977996 0.17027044 0.0019258228 -0.07458693 -0.00016072032 -0.18175489 -0.05958054 0.16255802 0.2961581 0.24679226 -0.08485223 -0.44660446 -0.01326318 0.14535305 0.051874433 -0.3092702 0.2898277 0.2398279 -0.093960315 -0.12785074 -0.1480145 -0.29744017 0.15890169 0.073166125 -0.06395699 -0.24566679 0.060347844 0.03763015 -0.10958441 0.10240259 -0.110551946 0.15214664 -0.12153884 0.056006897 -0.10764055 -0.31910014 0.33299533 0.34233516 -0.16950923 0.04168448
4812 -0.3862077 -0.03699405 -0.081078224 0.024173843 -0.04598904 0.19490848 0.070693396 0.22367768 0.11770813 0.055774543 0.03633325 -0.17285402 -0.108956635 0.25424343 0.10786537 -0.010648588 0.062446814 0.053184688 -0.1652513 -0.20701763 -0.0094271405 0.12063031 0.0030890156 5.1728068e-05 -0.22151348 -0.14182527 -0.033303432 -0.070750006 0.006420473 0.129934 -0.119149774 0.0028453295 -0.19052474 0.14381482 -0.20510533 0.11742353 -0.07137364 -0.20323728 0.11631675 0.21738951 -0.119100675 0.11813598 -0.22767979 0.019744312 -0.16253835 -0.24141115 -0.011440185 0.22140187 -0.034711886 0.12795119 -0.17329249 0.07708265 -0.1253047 0.08305851 -0.030284705 0.08326012 -0.078273 0.24314341 0.026636066 -0.040318478 0.03212806 0.1836434 -0.19528635 0.12363528 0.07610086 0.007148122 0.015575613 0.16802314 0.00084713416 0.22838068 -0.22008748 0.10636318 0.21947505 -0.07640218 -0.16861267 -0.11641729 -0.16805057 -0.11223685 -0.24088804 -0.01946537 -0.16588113 -0.13524528 0.0712749 0.00598153 -0.21925023 -0.101563066 -0.0025893543 0.049579125 0.113858014 0.056475285 -0.06908249 0.0105369175 0.13645293 -0.039452676 -0.01742562 0.052839484 0.030513508 0.060506236 0.10625674 0.092357054 -0.23648493 0.026881296 -0.1730343 -0.025626784 0.32300174 0.024226485 0.04471376 0.12925431 -0.011099922 -0.22329515 0.22820668 -0.084571116 -0.12449117 -0.15203138 -0.08901556 -0.06801846 0.037355144 -0.12454772 0.08145341 0.104747765 -0.0049709557 0.22535168 -0.10919574 -0.022975644 -0.058832183 -0.1385787 0.1286495 -0.1520087
2016 -0.2735878 -0.028043376 0.050691135 -0.30132726 -0.06673802 -0.011132945 -0.2377105 0.113659754 -0.1699254 -0.2693197 -0.07900772 -0.040701494 -0.060101803 0.14505523 0.14594744 0.08795017 -0.063114285 -0.08037873 -0.015522136 -0.14378406 -0.40535298 -0.26738852 -0.49492294 0.067059204 -0.064608246 -0.37840804 -0.033305313 0.04478273 -0.021193642 0.06480574 -0.29108825 0.037922878 -0.28820023 0.09016332 0.055608623 0.06892267 0.1055159 -0.039031167 0.03848114 0.11985544 -0.109301224 -0.1255572 0.15033154 -0.112055376 -0.2039142 -0.18413535 -0.07305673 -0.1987868 -0.0017089867 -0.39013675 0.012902522 -0.10066608 0.14072496 0.022763519 -0.12712489 0.1745051 -0.23568825 0.13923542 0.13788456 0.06863574 -0.1771728 0.2680759 0.038824204 0.06844046 -0.09004013 0.061579246 -0.0699175 0.36942792 -0.22974175 -0.05073883 0.11276239 0.08774533 0.045323953 -0.16337577 -0.028390396 0.044697065 -0.25679705 -0.20054534 -0.17066127 -0.16143562 -0.024765646 -0.2130026 0.2642076 -0.113616504 0.2308545 -0.34525427 0.0081092585 0.02435969 0.056056224 0.28352955 0.13874304 0.30453146 -0.07049407 -0.07805584 -0.13161819 0.26204252 -0.1864185 -0.043396015 0.021505665 -0.033639453 -0.24906714 0.09928162 -0.2963691 0.17454839 -0.28301847 0.18065992 -0.17044467 -0.17932872 -0.11350262 -0.42823377 -0.07993593 0.03636174 0.25521684 0.00075881806 0.04371274 -0.1343152 -0.16060553 0.048574787 -0.011152092 -0.1477433 -0.08860987 0.30906245 -0.13994202 -0.17138594 0.12503803 -0.3808455 -0.0075133 0.03630594
4985 0.039433137 -0.2386144 0.14870411 -0.03472815 -0.33964106 -0.04735465 0.015257787 0.066454746 -0.081460856 0.06400464 -0.086835094 0.15068434 0.13862853 0.0040248316 -0.18176596 0.057236716 0.121348776 -0.067403875 0.042598426 0.002250276 0.07894266 -0.26106915 -0.017462185 -0.058806423 -0.37545118 0.088325694 -0.055934444 0.021124931 -0.058689892 -0.038346555 -0.05964677 0.03360898 -0.02915935 0.08181604 -0.055498928 0.00028409585 0.08296123 -0.21274784 -0.061266333 0.0068036485 -0.0021215356 -0.1090206 0.057736292 -0.08361162 0.03401891 -0.16054489 0.2469015 0.17662583 0.18984352 0.037511963 -0.00064190995 0.14150476 -0.023687214 -0.048681222 -0.047584474 -0.09050782 0.03872175 -0.0029466765 0.30358395 -0.25594193 0.08953196 -0.20359004 -0.22712678 0.09382986 0.009348685 -0.22621012 0.0977748 0.19371466 0.08749759 0.008162091 -0.04680414 -0.008493626 -0.03387149 -0.2071073 -0.14431047 -0.036026057 -0.1233111 -0.029218849 -0.07380136 -0.03615746 -0.03237989 -0.004398758 0.033647615 0.19628415 -0.033991866 -0.14515978 0.11696792 0.09555277 -0.109212354 0.011724881 -0.2611038 -0.1484794 0.010960598 -0.12636541 0.12165171 0.14518295 -0.037938014 0.10310592 0.15357874 0.013158513 -0.008031399 0.08819336 0.15994138 0.05489353 0.014851194 -0.002990687 -0.18466622 -0.059418585 0.0756296 -0.095325805 0.08775258 0.042322032 0.21569528 -0.010307248 0.14042304 0.18371786 0.15846379 0.045425966 -0.16911514 0.1758775 0.058233365 0.019636706 -0.19802645 0.07162105 0.12745541 -0.1722141 -0.14806573 0.20447469
1155 -0.035991788 -0.28654897 0.4330725 -0.038219072 -0.11224858 0.1910141 0.021100398 -0.10789371 -0.07124515 -0.017730854 0.17721988 -0.15455787 0.1744407 0.18888763 0.19364303 0.009714505 0.17788842 -0.033201862 0.008425199 -0.0330715 -0.19941047 -0.09822807 -0.23203814 -0.25788 -0.03409391 0.06885489 -0.070803516 0.0543102 -0.06072951 0.10576743 -0.010636166 -0.28437278 -0.103818424 -0.17253406 0.23094109 -0.12478104 0.31580135 -0.34957987 0.06927197 0.1286571 -0.06628283 -0.005591732 0.16336077 -0.17889795 0.07827786 0.043057185 -0.009456656 0.2190355 0.31466314 -0.011044958 -0.0017706758 0.22841549 -0.012313822 -0.26292995 -0.101555966 -0.0027865751 0.2840691 0.15831362 0.3345665 -0.121598326 -0.19253887 0.18445376 -0.31205902 -0.20253114 -0.13317718 -0.13752975 -0.14805785 0.45061174 0.06459715 0.28480405 -0.06365706 0.2831128 0.06680173 0.15619324 -0.17836902 -0.019643761 -0.20475055 0.15380533 -0.09925392 -0.13250943 -0.26223063 -0.25548005 0.21822149 -0.116625994 -0.108621344 -0.028885826 0.3468378 -0.020172892 -0.111857854 0.13797954 -0.24539006 -0.29769805 -0.0688272 -0.21059427 0.26367897 0.13033168 0.008757865 0.19118486 -0.048998825 -0.054417014 -0.15755928 0.17811528 0.07028179 0.021482615 0.13316631 -0.03399744 -0.24567935 -0.058142345 0.017260069 0.027538732 0.10240053 -0.018418254 0.12278341 -0.16196696 0.08827582 -0.062424976 0.0044000475 0.041751225 -0.21045937 0.11220422 0.24322754 -0.24438754 0.054621797 -0.15133108 0.26638052 0.08978157 0.1261603 -0.11954648
335 -0.17223302 -0.220916 0.40120366 -0.1387803 -0.049224243 -0.0033197275 -0.039973814 0.13648199 -0.26010978 -0.026392829 -0.18299533 0.018531205 -0.013354989 -0.09034826 0.18267258 0.06430759 0.06613715 0.10203706 -0.041776773 -0.014043019 0.12783892 -0.079401195 -0.26572552 -0.157897 -0.16213803 0.03024777 0.0040142066 0.013725236 -0.05309339 0.092983216 -0.12432781 -0.25245866 -0.008548292 -0.022485642 0.26158202 -0.04653603 0.18894035 -0.3752118 0.042237815 0.028505199 0.10259649 -0.24977256 0.1004927 -0.2690009 -0.05465789 -0.1082738 -0.021952208 0.07445284 0.13882317 -0.12388232 0.28984296 0.21407057 0.048279386 -0.06512478 -0.07144867 -0.11073126 0.10493604 0.24936374 0.2829947 -0.16999224 0.15500705 0.005560722 0.0018648909 -0.081461914 0.0068103946 -0.11260037 -0.048831843 0.24895558 0.0031862066 0.10096144 -0.009116612 0.21061972 0.09483343 0.18170317 -0.10740848 -0.15038227 -0.37591884 0.0028152447 -0.08341846 -0.28459287 -0.029247202 -0.2146299 0.009355958 0.09931101 0.11808735 -0.2961907 0.5416941 0.05329973 -0.24971406 -0.07659522 -0.047024347 -0.29916248 -0.158098 0.079530984 -0.027033126 0.11567513 -0.060862187 -0.06939561 0.07034693 -0.049178384 -0.16482136 -0.14279473 0.030425835 -0.040572196 0.21292382 0.14599733 -0.29010323 0.08614489 -0.060508955 -0.22125778 0.38957486 0.14370275 0.18461628 0.23541045 -0.16886978 -0.16384181 0.09140817 0.075620875 -0.10336633 0.29467207 -0.07362667 -0.11641916 0.028246317 0.03925843 0.17783879 -0.10774185 0.16107897 -0.104638375
3123 -0.266646 -0.04680998 0.052792817 -0.15836473 -0.12167641 -0.043065973 0.22698027 0.14304005 -0.4119149 -0.03990265 0.1704129 -0.0024708093 0.25617954 -0.060604636 -0.23360972 -0.039852865 -0.24993035 -0.04305127 0.06920098 0.33117995 -0.04930217 0.01231864 -0.19921128 -0.18269405 -0.3265537 -0.29601288 -0.31767964 0.31131628 0.007650153 -0.06432251 0.056888383 0.23265418 0.09886965 0.00020441084 0.032189444 -0.017511612 0.06508003 -0.029877642 0.120721236 0.25430295 -0.07021277 -0.4248109 0.118938535 0.016632477 0.22934847 -0.19823577 0.18355261 -0.1905891 -0.095237315 0.3607213 -0.100367785 -0.11253552 0.00023199974 0.030062731 0.08183586 -0.08418782 -0.1455815 0.31605652 0.30272073 0.05976946 0.05021341 0.27502897 -0.06686043 -0.018907746 -0.06385279 0.050250556 -0.058514003 0.20160063 -0.056295007 0.16353182 0.06177825 0.10280751 0.0951322 0.11625015 -0.27292362 -0.20169179 -0.053290542 -0.04423998 0.10862922 -0.031661447 0.0071182735 0.09792226 -0.10695682 0.026880234 0.036597352 0.16867462 0.16542779 0.35087708 0.12935 -0.019050328 0.19210808 -0.051406417 0.22113252 0.04663888 0.1724549 0.12579252 0.0077019916 -0.03819524 -0.07688911 -0.1837802 0.0690419 -0.021703366 0.06924288 0.0232479 -0.1431216 -0.105572715 0.016709022 -0.11624035 0.15156917 0.23024276 0.23927084 -0.2336409 -0.24781156 -0.07305685 -0.0061045997 -0.11799631 0.25034967 -0.26850826 0.036374602 0.4359316 -0.007133224 -0.012132427 -0.30736226 0.08134291 0.10399731 -0.20230678 -0.34778327 0.18020093
1550 -0.36658615 -0.027924124 0.15374894 -0.14936657 0.08174743 -0.1053378 0.009275582 -0.09341831 0.0083660465 0.009056276 0.15295157 -0.10251464 -0.09588196 -0.04109554 0.09330152 0.10059803 0.2770237 0.17951053 -0.16643861 -0.024495225 -0.034265403 0.113309585 -0.25775164 0.15087985 0.14086542 -0.019008439 -0.0042378516 0.030050578 -0.32806334 0.3533906 -0.2256435 0.22414288 -0.31622395 0.15451272 -0.2270877 0.016879689 -0.37551764 -0.39874673 0.09921984 -0.04512517 0.069949284 0.17890596 0.09808673 -0.058831785 -0.30209118 0.004018615 0.24619137 -0.3008248 -0.29923648 0.050245557 0.060004212 -0.052030932 0.04928126 0.05855469 -0.07051008 -0.19483902 -0.16696034 0.21659346 0.44141343 -0.10975218 0.15515992 0.01270923 -0.25269932 0.182319 -0.32155633 -0.116741695 -0.22867294 -0.0972402 0.32836476 0.20187338 0.1112364 -0.09907373 -0.22671321 -0.11914388 -0.30724773 0.031991746 -0.20251183 -0.21597716 -0.165324 -0.0141691165 -0.098334506 0.09180625 -0.014138824 -0.4338875 0.20967153 -0.21593569 -0.09159933 0.028160818 0.110704154 0.43767816 -0.15500225 0.20461231 0.14243123 0.2402439 0.20937413 0.13445166 0.048869804 0.013112053 0.048876934 0.17299093 -0.010978723 -0.2408666 -0.09533435 -0.24352977 0.03946807 0.013055862 -0.042138536 0.2595128 0.012153623 -0.04370398 0.042940628 -0.11730927 0.30713984 -0.017581526 -0.041587982 0.10944966 0.037493005 0.09013502 0.095744334 0.13787553 -0.025649019 -0.1063278 0.07174564 -0.09422031 0.13085529 -0.24360307 -0.07921988 0.14379196
1048 -0.36133707 0.003127328 0.04550635 -0.017891437 -0.2185231 0.04263363 0.11356088 0.053435784 -0.09651597 0.008006878 -0.12365148 0.14137392 -0.0075642103 0.23520751 0.02516128 0.12690051 0.018916441 -0.23481333 -0.2835505 -0.059607774 0.037840325 -0.067394964 0.11392699 0.37037992 -0.26325974 0.023516782 0.010674632 -0.034874268 0.19780998 0.3319362 -0.23599648 0.20045468 -0.17375582 0.16190822 -0.14983723 -0.011783645 0.2320436 0.029350976 0.050414853 0.44522285 -0.03649942 -0.13472341 0.0042071603 0.028562805 -0.04203585 0.1491628 0.10858296 0.032710444 0.018925853 -0.107883535 0.014565473 0.03878418 -0.15951839 0.12978086 0.09838704 0.05442607 0.20790671 0.24378487 0.1689047 -0.15498973 0.06795656 -0.11072495 -0.32617268 0.1364496 0.105532035 0.042576823 -0.12280491 0.2385436 -0.015406693 -0.026004663 0.1639219 0.067961946 -0.10173005 0.03838115 -0.084433265 -0.012511169 -0.13668089 -0.27838528 -0.07444503 -0.052404243 -0.031226361 -0.09829047 0.038913798 0.14048459 0.10057958 -0.016780356 0.058469772 0.18693215 0.019434324 0.11892371 -0.19667809 -0.058578607 0.16795376 0.04939475 -0.105607666 -0.019377774 -0.041131437 0.11481088 -0.06405015 -0.38534698 0.06813991 0.12590131 -0.14360307 0.06420428 -0.19071089 0.084796265 -0.16012259 0.04990196 0.090405375 0.08952227 0.05317632 -0.29372588 0.1432725 0.18983172 -0.086333916 -0.13593745 0.1743775 -0.08945422 -0.14798236 -0.02748542 0.08723549 0.06984257 -0.1176897 -0.08449942 -0.012008992 0.110538974 0.08829168 0.029955985
4409 -0.3013379 -0.056391474 0.111907266 0.029493535 0.08308422 -0.058819793 0.33947793 -0.18929598 -0.09638421 -0.07594662 0.10320048 0.2160447 -0.08773955 0.104475275 0.0727325 -0.10056417 -0.06225188 0.061074402 -0.09879451 -0.2842712 -0.18217938 -0.10280839 -0.27800184 0.3680849 -0.31630933 -0.06785349 0.048479147 0.1212979 -0.15468904 0.30282187 -0.0385107 -0.13861157 -0.115464374 0.1892474 0.04077184 0.13361067 0.071718074 -0.33447674 0.014973768 0.18517242 0.2056988 -0.09530014 -0.09700509 -0.35896212 -0.4630837 -0.060771458 -0.1439079 -0.10495594 0.34390825 -0.22859265 0.21844925 0.01042169 0.080244325 -0.06304817 -0.13912745 0.05622849 -0.16961963 0.15841235 0.36875492 -0.13537814 -0.12177691 0.14030191 0.030320361 0.2922993 -0.06873051 0.008492497 -0.015853513 0.36029223 -0.111188814 -0.10640939 -0.014149431 -0.0531153 -0.22545925 -0.14220609 -0.37574664 -0.085922286 -0.17825381 0.16126092 -0.05236336 0.09279878 -0.23108114 0.123168096 -0.048150495 -0.3529792 0.38513556 -0.13489583 -0.07733713 -0.1348595 0.2165666 0.25888038 -0.102536745 0.3169111 0.21889359 -0.07427807 -0.16068432 0.21653382 0.06352045 -0.05061293 0.0372576 -0.18500176 -0.17695652 0.13986298 -0.06277285 0.005036173 0.13989204 0.13239248 0.10058811 -0.027669458 0.092774756 0.02928397 0.24500716 0.1375062 0.07793537 -0.30417764 0.015106734 -0.0077446424 -0.05786189 0.039830767 0.19449255 0.015559961 0.001090013 0.12307639 -0.20274867 -0.06997576 0.0551786 -0.11373192 -0.09196093 0.31619716
1628 -0.20981118 -0.24854746 -0.021857385 -0.01426198 -0.07069795 -0.02963347 0.13836074 -0.17132264 0.020522464 -0.20948265 -0.0940346 0.122361496 0.051534377 0.20848595 -0.053807806 -0.22686969 0.25874317 0.19157548 0.12242397 -0.07194858 -0.065992005 -0.03977503 0.023930289 0.091772154 -0.08012332 0.026095927 -0.11512879 0.095205456 -0.11000359 0.16041379 0.1261499 -0.08383001 -0.3878991 -0.005570977 0.024204345 0.09164673 -0.001214704 -0.25472024 0.3393303 0.10777067 -0.033281486 0.20990591 0.06246284 -0.12613203 0.18522166 0.02809797 0.11467152 -0.010141308 -0.1510329 0.076824434 -0.22368965 0.11229735 0.032829564 -0.07741679 -0.17241992 -0.03087072 -0.06686411 0.22201142 -0.004357459 -0.043940336 -0.0690792 -0.0288177 0.014516644 0.048908286 0.03078158 0.08573816 -0.1736433 0.21781468 0.17479816 -0.1568801 -0.01667288 0.18855008 -0.20868105 -0.07597256 0.038122043 -0.021599893 0.020861562 -0.33081818 0.06007275 -0.050666735 -0.03521587 -0.17851168 0.027917793 0.11694274 0.055531822 0.05747002 0.021552222 0.07649307 0.14742838 -0.1446478 -0.16463032 -0.024570422 -0.039067686 -0.039613087 0.045200367 -0.079140075 0.1463008 0.24570078 0.0753383 0.0132767875 0.04242419 -0.08244402 -0.035464864 0.06381215 -0.072871774 0.18569688 0.04875439 0.25151324 -0.070108145 -0.047221452 -0.078052826 -0.088696934 -0.17447565 0.096682064 -0.028507592 -0.34546742 0.068827726 -0.17719561 0.10410743 0.08097347 -0.11953976 0.0077265725 -0.17218632 -0.17340313 0.02475876 0.048345353 0.25956413 0.033660542
3168 -0.11272288 -0.06395632 0.32581985 0.079439156 -0.11274642 -0.09518462 0.006495648 0.007055723 -0.040255934 -0.1775831 0.008734792 0.010824031 0.21494928 0.39179155 0.04692865 0.08561083 0.1456721 0.16726929 -0.15300673 0.0042692423 0.00014247038 -0.115875006 -0.13101077 -0.0669708 -0.10851843 0.10490796 -0.15565644 -0.078329645 -0.013882569 -0.07866219 -0.11323483 -0.27283987 0.039169528 0.070603 -0.09002015 -0.21468987 0.24791002 -0.15447828 0.3443693 0.13372412 0.081121385 -0.1596916 -0.031637605 0.15893352 0.1642685 0.029152181 -0.051448867 0.022510255 -0.165359 0.025257139 -0.02248166 -0.03624697 -0.24607597 0.23038906 -0.27045417 -0.034800403 -0.026491772 -0.0015194331 0.07302723 0.028108671 -0.122149326 -0.07496958 -0.024678567 0.0431426 0.08330931 -0.35504735 -0.39778933 0.12023251 0.051719245 0.23407926 -0.033441912 0.17334594 0.019838998 -0.33518362 0.07313856 0.095744744 -0.04481027 -0.2146838 0.41895726 0.25532043 0.2991247 -0.3252678 -0.06574796 -0.030333234 0.18745354 0.04523149 -0.0303476 0.25692442 0.0006798847 0.022087693 -0.13152169 -0.029836867 -0.067101255 0.019266969 -0.022834154 -0.03405786 0.2432855 -0.26529542 -0.05740534 -0.19603318 -0.16086501 -0.03375479 -0.05561085 0.026016993 0.1796938 0.06879047 0.3518504 0.20149818 -0.107786 0.14264698 -0.16893595 -0.16990188 0.29024744 -0.096003875 -0.062096268 -0.17287023 0.1776799 -0.06845004 0.17470194 -0.15458883 0.15621178 0.102650665 -0.2933402 -0.008883003 0.2504386 -0.1708083 0.033849612 0.035596147
3886 -0.015411983 0.079280116 -0.035470802 -0.056693904 0.02824518 -0.0411159 0.03546413 0.048474416 0.009361437 0.08638467 -0.057440344 -0.16751224 0.028537134 0.25569054 -0.2026847 0.14537296 -0.26976413 0.16169252 0.20766532 0.23797953 -0.13438812 0.098447375 0.066518 -0.13054301 0.006583523 0.0012346199 -0.3292594 0.133934 0.16780382 0.13563627 -0.0199462 -0.08240236 0.18916559 0.07113074 -0.15330571 -0.06022914 0.13706753 -0.038417168 0.3037369 0.12312599 -0.06650725 -0.38658893 -0.027352214 -0.24841759 -0.12009439 0.07638838 0.32137594 -0.079906076 -0.2644447 0.04212471 -0.14148524 0.051410306 -0.15587759 0.34604 0.12737791 0.033332407 -0.19697799 0.07223364 0.23647694 0.13371351 -0.17000887 0.052522365 0.049728557 -0.3538591 0.2611754 0.20512244 -0.008599151 0.06437519 0.13100527 0.09374989 -0.25887987 0.17973971 0.009199947 0.06693164 -0.3277386 -0.014005573 0.05604464 -0.27691734 -0.33944425 0.14543326 -0.09915827 0.22649549 0.17266032 -0.008296371 0.0707434 0.041443493 0.037471898 0.3151744 0.2566405 -0.14105025 -0.05577148 0.04544928 -0.10053179 -0.07977331 0.24824166 -0.16079877 -0.07341106 -0.13986365 0.27227774 -0.07685887 0.018856596 0.16563098 -0.11942847 0.04864102 -0.012430587 0.07768418 -0.046182353 0.1898445 -0.338435 -0.14314695 0.013678 -0.11095547 -0.12232218 -0.024750628 -0.1473189 0.07145971 -0.13221838 -0.15943614 -0.012467312 0.41125178 0.14282909 0.067100845 -0.40396786 0.0110263955 0.097199 -0.15069695 0.100066096 0.040607397
5390 -0.3648378 -0.2580751 0.018416084 -0.05475817 -0.1950776 -0.08152579 0.112996854 0.005629867 0.10767893 0.19082095 0.15181793 0.07060152 0.041887183 0.08275081 0.08562245 0.043952137 0.4969054 -0.21792041 -0.14080565 0.10451447 -0.003788014 -0.14898697 0.016649371 0.32050368 -0.28041735 0.07180168 -0.09784809 -0.17575145 0.4346102 0.4730293 -0.16342811 0.022723261 -0.29900134 0.20090769 0.068994045 0.16339917 0.19246209 -0.058328524 -0.04545037 0.31021512 -0.21770108 -0.083355166 -0.0010339415 -0.11448961 -0.02735033 0.17639554 -0.012005366 -0.05271313 -0.21678884 0.1106254 0.22658053 -0.08501314 -0.087944604 0.22942767 -0.3739401 0.1995842 0.019323168 -0.07340366 0.1174841 0.023874346 0.055014126 -0.091495484 -0.27147216 -0.016954312 -0.117659 0.26461136 -0.08067969 0.3356986 -0.020163432 0.10285289 0.08068151 0.20900676 -0.10730559 -0.02024055 -0.3788509 0.006069154 -0.24309576 -0.26821944 0.021508941 -0.09045694 0.1371995 0.024645803 -0.0022736294 -0.0035767884 0.23732068 -0.017112643 -0.14187248 0.09566191 -0.038559824 0.011070757 -0.16089374 -0.03829061 -0.15569064 0.12268662 0.046873577 -0.027919075 0.028731877 0.08923625 -0.2774181 -0.06980204 -0.012902978 0.06636581 -0.20888178 -0.11022177 -0.23869601 0.035453003 -0.13622801 0.006674624 -0.049947027 -0.06782576 0.24013992 -0.16001445 0.080928296 0.030300872 -0.11675294 -0.022968955 0.28401405 -0.25146556 -0.063527346 0.09110047 0.16084158 0.027140602 -0.24747467 -0.17048718 0.06524469 0.07816399 0.25445813 -0.01999766
3307 -0.18319923 -0.27231944 0.12167829 -0.18772234 -0.16070403 0.16600175 0.10714876 0.09727996 0.096454866 0.19321406 0.058437612 0.40308523 0.058709435 0.022257369 0.047320567 -0.008305151 0.29957524 0.07268098 -0.25023136 0.0190504 0.10992972 -0.10171645 0.04708171 0.003590717 -0.1647376 0.28456533 0.06402866 0.007039061 -0.052242104 0.07188709 -0.12814596 0.3499006 -0.25454736 0.05690935 0.3016665 0.1573635 -0.039174784 -0.46998325 -0.16964507 -0.14478168 -0.3713241 -0.083627984 0.24553944 0.17160372 -0.13838021 -0.1890926 0.3296694 -0.023778634 -0.15833399 0.20253128 -0.032296058 0.2620445 -0.2583791 -0.24532394 0.1356805 0.065384075 -0.023010463 0.023984373 0.29312462 0.31143492 -0.2567058 0.19835098 0.04961547 -0.30961385 0.26066503 0.117120825 -0.022896655 0.1930731 0.021082262 -0.017467907 0.07928006 -0.050869856 -0.048741166 -0.06949062 -0.2027002 -0.044468563 -0.46938255 -0.040068112 0.20755216 -0.04099362 0.04536076 -0.19203733 0.12700577 0.31777954 0.066585094 -0.279001 -0.17053229 0.02766274 0.09991835 -0.1763667 -0.06730458 0.08972798 0.0051449686 -0.2552069 0.06746482 -0.012946639 -0.1430102 -0.30172923 0.10118506 -0.12855592 0.24743567 0.07426838 0.3389158 0.26495478 -0.053635612 0.13979809 -0.08680502 -0.01143523 0.14651266 -0.20414428 0.12567034 -0.09642563 -0.117537946 -0.1460982 -0.37934852 -0.11456564 -0.05742489 -0.4184601 0.057704978 0.26626053 -0.038903404 -0.12718101 -0.20675035 0.063773684 0.2664463 0.15625347 -0.31865564 0.13540277
5785 -0.13025886 -0.21107422 0.3638184 -0.13114397 -0.2251616 0.02608167 0.04905451 0.26623148 -0.09279979 -0.017851522 0.1934703 -0.1102235 0.009876415 0.075425796 0.25892612 0.06416254 0.21955742 -0.035003386 0.117142834 0.18222207 -0.033619836 -0.23870406 -0.19427218 0.23805396 -0.41032177 0.20705128 0.05231691 0.06685495 -0.007548901 -0.19935402 0.011997324 0.14059518 0.10926651 0.20405708 0.031048222 -0.12692094 0.18766896 -0.30288547 0.09757565 0.4134228 0.117020525 0.2556327 -0.055788904 0.05509735 -0.10017581 0.094576456 -0.13339755 -0.002452141 -0.13276835 -0.014853931 0.08251285 0.32436383 -0.12955554 -0.10024931 -0.1750145 -0.11709831 -0.11964459 0.14309949 -0.103541054 -0.33524123 0.03439704 0.004788038 -0.17495008 -0.009003426 0.117117725 0.12216553 0.024818854 0.20199423 0.09237487 0.13900629 -0.23489007 0.02662879 0.13864397 0.14140858 -0.011802457 -0.05292709 -0.12175793 -0.048435267 -0.07287591 -0.076798536 0.014425474 -0.19630675 0.08502555 -0.08947909 -0.1437671 -0.18102896 -0.070707746 0.1993436 0.06739422 -0.12320497 0.023989428 -0.120257065 -0.13161215 0.25428206 -0.007143022 0.24626265 -0.0975691 -0.006679823 -0.187529 0.077812985 -0.035342272 0.020744223 0.07767983 0.1324686 0.17330739 0.09986944 -0.115488976 0.008214316 0.06923982 0.026046375 -0.09871559 -0.17607398 -0.018421056 0.014513454 -0.20617457 -0.007948091 -0.047441877 0.14678979 -0.11073918 0.24381246 -0.005024049 0.043058008 -0.050342258 -0.23490784 0.18003441 0.11221035 -0.041436937 0.06716741
220 -0.14421383 -0.06311786 0.29451653 -0.11393305 0.07452554 -0.0053470875 -0.19086735 0.18453173 -0.087933384 -0.11484326 0.06425197 0.027622668 0.1381901 0.08243878 0.19909224 -0.059109695 0.12284172 0.28360394 0.0012117709 -0.13884194 0.2679143 -0.056808617 0.03595688 0.16000886 -0.13723347 0.10639174 0.16869237 0.053672545 -0.2534095 0.18671277 -0.059463944 0.07875232 -0.051661976 0.2687192 0.05441176 -0.016176734 0.42492813 -0.0011374529 -0.17420445 0.16445078 0.05794614 -0.053347062 0.19649802 -0.051858183 0.05293826 -0.28180858 0.12127361 -0.08329091 0.11580378 0.0440912 -0.021389637 -0.1734566 -0.2740844 0.1524395 -0.06487487 -0.033274356 0.11507594 -0.0002837794 0.16034648 -0.030472051 -0.045447137 -0.03156076 -0.11140978 -0.033182997 -0.044877917 -0.07375606 0.13517885 0.48555267 -0.08600209 0.09915534 0.047652718 0.027417254 -0.011222756 -0.0020915018 -0.29292274 0.14883074 0.22428134 -0.018441377 -0.16552143 -0.24796127 -0.14138114 -0.2018224 -0.016141333 -0.12284963 0.08929191 -0.18254347 0.16980633 0.012575421 0.2330735 0.28353494 -0.18621634 -0.25435987 -0.0681423 0.040227283 0.0072186305 0.34750772 -0.14862984 0.1356776 -0.05696684 0.13732879 -0.42435333 -0.0032614665 -0.31300297 0.054541185 -0.074453585 0.035863727 -0.42012218 0.27726266 0.07095531 -0.21250822 0.11459847 -0.122725174 0.040745378 0.042590357 -0.04314515 -0.1277402 0.29343787 0.079273656 0.05865733 0.08751075 0.2843475 -0.05755098 -0.31932622 -0.23133293 0.25869507 0.13514315 0.05392793 0.13263744
1326 -0.42930618 -0.08305497 0.05004219 -0.107363306 -0.16205427 -0.26113456 0.027599761 0.20244163 -0.0803658 0.158742 0.007260328 0.057577353 -0.06253489 0.18490352 0.22602825 0.0060336497 0.21707359 -0.099980906 -0.047577787 -0.09898323 -0.16322738 -0.034118306 -0.050164368 0.022880271 -0.26391834 0.16608025 -0.06554095 -0.21069783 -0.037414644 -0.0026379745 0.15403393 -0.024602845 0.13041939 0.50764865 0.28134403 0.061855443 0.13977109 -0.15750441 0.43093073 0.15398456 -0.020652441 0.16312669 -0.29709783 -0.14303114 0.012388073 0.02713014 0.095053874 0.10489526 -0.019596623 -0.041104104 -0.34548143 0.04431977 0.0025924183 -0.13645753 -0.14548863 -0.239645 -0.16764528 0.0010432245 0.30102658 -0.24245971 0.15796573 0.22603086 -0.102982774 0.18196541 0.23409781 -0.2954028 -0.13711534 0.1271087 -0.10000819 0.048229303 -0.09770818 -0.11483589 0.23107202 0.31175828 0.04303459 -0.15410712 0.06704395 -0.28433967 0.1645665 0.17992876 0.442564 -0.21533023 0.26369494 -0.20288 0.28617805 0.18543811 -0.06755375 0.32340276 -0.114426136 0.004637148 -0.2120746 0.046561137 -0.11600372 0.017345464 -0.1689535 0.09757259 0.14577954 0.235964 -0.0469567 0.039071314 -0.09081645 -0.038616594 0.05490935 0.054560952 -0.07852393 -0.035660334 0.10871921 0.14097482 0.06688877 -0.3690928 -0.26554632 0.19691171 -0.11356505 -0.007075998 -0.04738511 -0.17942968 0.054437082 0.05828006 0.25951216 0.24204203 0.4211399 -0.12414308 -0.011622703 0.00046237977 -0.11591336 -0.14902268 0.10859812 0.15453924
5703 0.02542328 -0.070910044 0.5232863 0.0025309157 -0.20060526 0.18726923 0.053052753 0.1109001 -0.031561513 -0.013909327 -0.23929775 -0.39700475 0.20166993 -0.20748228 0.16370362 0.08734738 -0.026787106 -0.037385873 0.09621295 -0.04928234 0.28163615 -0.1809838 -0.107952334 -0.20140879 -0.1632339 -0.09306755 0.08082756 0.20505519 -0.031237718 0.07626336 -0.08742866 -0.073596455 -0.049290605 0.0041714446 0.02125172 0.15537544 0.29184043 -0.3609379 -0.087996945 0.093684785 0.032646213 -0.17075066 0.058630683 -0.12212625 0.07425139 -0.21307419 -0.017435014 0.14334545 0.32789376 0.1191499 0.20645332 0.18052937 -0.1983919 -0.02517064 -0.08621217 -0.05624823 0.14138407 0.1263016 0.2252737 -0.17980446 -0.027277078 -0.059059408 -0.4681241 -0.034484085 0.13012457 -0.04752676 -0.22387806 0.18247615 -0.22049473 0.006763473 0.059362393 0.04200345 0.06688476 -0.0054404503 -0.19027616 -0.06996765 0.02256983 -0.20648056 -0.054235503 -0.08096637 -0.020301627 -0.18639626 0.31357688 -0.25967938 0.16268903 -0.1001822 0.6403074 0.046953294 0.020964274 -0.06718416 -0.096880086 -0.34023315 -0.07141347 0.020774031 0.108727194 0.09683508 -0.22300416 0.074506536 -0.12092067 0.07593697 -0.1984745 0.09386302 0.0184661 0.07987624 0.04979195 0.15672754 -0.14351518 0.20975053 -0.04043267 -0.26513106 0.26286215 0.26202258 0.23446171 0.21794313 -0.20367634 0.023427034 0.03761797 -0.039475203 0.07002512 0.121897504 0.09586975 0.025058223 -0.07016262 0.018882932 0.22130115 -0.10487323 -0.0071528815 -0.20107007
4058 -0.30165818 -0.21032767 0.059915427 -0.03845486 0.081124544 0.09411465 0.36366284 0.10738167 -0.139598 -0.1322142 -0.23270693 0.36203665 -0.14210324 0.20452556 -0.09823388 -0.035237707 0.2926318 0.07393941 -0.116247706 -0.06529171 0.31956136 -0.16374196 0.07913598 0.41311908 -0.030902477 0.005774172 -0.37654993 0.013627724 0.069468416 -0.11485659 -0.10809814 0.22585118 -0.15353933 -0.16466588 0.051137313 0.29517785 -0.060588427 -0.123350956 -0.018754745 -0.08667037 -0.2765361 0.13928807 0.14648427 0.03893737 -0.13812223 -0.14811642 0.35087094 -0.05885301 -0.05892844 0.022284728 0.086005144 0.06310025 0.0775919 -0.1714755 -0.114296846 -0.15555301 -0.23294853 0.3038704 0.36791298 0.20721984 -0.2091579 0.004812133 -0.09775594 0.0023157003 -0.023365509 -0.22370154 -0.060583808 -0.010120215 0.3434917 0.028163519 -0.044205893 -0.27855077 0.2655269 0.16482322 -0.06921953 -0.24901888 -0.13881291 0.18343408 0.028174521 0.22263551 0.2128908 -0.1034226 0.1990897 0.32277194 -0.10785969 -0.101894416 0.033894334 -0.035952866 0.09999111 -0.017625038 -0.13774347 -0.023843355 -0.22173579 -0.15791671 0.2177937 -0.057829145 -0.14974327 0.227856 0.16760854 0.1058274 0.122397184 0.115561426 0.15752953 0.28636128 -0.03629193 0.10372638 -0.07246013 0.31485146 0.16972545 -0.19320957 -0.033919066 -0.27866092 -0.1273517 0.15930039 -0.22405142 0.1862443 -0.22456725 -0.027379822 -0.14158043 0.009602253 0.2239299 0.05346815 -0.33196706 0.004817094 0.41650823 -0.008601462 -0.21324895 0.2529772
3087 -0.13129571 -0.02320915 -0.029982181 -0.08528983 0.1149166 -0.23952734 0.23067689 -0.0278922 0.016737921 -0.4873084 0.00011170893 -0.18282793 0.0011698859 0.20185496 0.02595941 -0.018607087 0.28049666 0.2931512 -0.23545608 -0.005074367 0.15851398 0.02160735 -0.10259768 0.052799594 0.089757115 0.05092083 0.013594256 0.121864006 -0.08272135 0.22315475 -0.04472172 0.23075347 6.700914e-05 0.08242604 0.0401908 0.22338581 0.04915203 0.017104937 -0.22992334 -0.06753146 -0.20577899 0.20623173 -0.020333814 -0.15868087 -0.0419991 -0.101077445 0.21835189 -0.38947052 -0.1410418 0.06442999 -0.037425656 0.05057312 -0.37368226 0.1459469 -0.32040232 -0.15189362 -0.1384185 0.22301394 0.39704794 -0.14145401 0.03661529 0.16424665 -0.085724115 -0.025086151 -0.17625602 0.051342122 -0.15329383 0.034576345 0.051712863 0.030706039 -0.06325237 -0.0935367 0.10970982 0.06490425 -0.2883463 -0.28473347 -0.062380124 -0.12197764 -0.026174033 -0.07951014 -0.1920206 -0.07306249 -0.030283391 -0.19935556 0.42563227 -0.08522537 -0.03204314 0.03803552 0.1681461 0.12730163 -0.36549884 -0.2149215 -0.185999 0.34598115 -0.040189337 0.22160989 -0.053476922 -0.0027101934 -0.08018462 -0.06952122 -0.033271544 0.48789224 0.06365603 -0.020324133 0.073238924 0.14135958 0.23600921 0.29867512 0.10048449 0.16498344 -0.048176102 -0.098758124 -0.014336928 -0.07571656 -0.5104103 -0.07227055 0.21106704 -0.06687509 -0.0063546384 -0.18862262 0.12944725 0.10317442 0.29790977 -0.39747047 0.4110961 -0.17297179 -0.3263226 -0.04069204
6109 -0.06823579 -0.17097886 0.25309673 0.048241053 -0.24948104 0.090335675 0.04137793 -0.06706512 0.027189352 0.12625827 0.06072136 -0.04256194 0.12070315 0.06187043 -0.19187163 0.14395124 0.07308197 0.044254627 -0.0017844267 0.0015946284 0.056178916 -0.011215966 -0.08096972 0.05423254 -0.14398606 0.09251817 0.20475 0.11672796 0.19902907 0.016188616 0.12392566 0.075180046 -0.18926853 0.04419325 -0.17866561 0.092589825 0.02532262 0.12966122 0.12048889 -0.02970787 -0.19092076 -0.165494 -0.017385144 0.08590522 0.017883386 -0.10006036 0.039837025 0.106459126 -0.06985265 -0.07438707 -0.06437348 -0.009009339 -0.011220936 -0.27117226 -0.18358934 -0.1701884 -0.08539148 0.119227685 0.30958384 0.038260683 0.16216722 -0.080319844 -0.44045493 0.2285142 -0.11195467 0.0670488 -0.049204674 0.227578 -0.0374639 -0.0073150103 0.11474448 0.031030945 -0.16072933 0.045221694 -0.14462206 -0.030444358 -0.079905786 -0.19307992 -0.06064623 0.07743202 0.0069525912 0.0036066463 0.037577335 -0.14241624 0.13324682 -0.17521966 -0.046570193 0.4810895 0.17375058 0.1920292 0.032305952 0.12574671 0.0034250442 0.030402634 0.014785521 0.059342723 0.17003661 -0.08848453 -0.04220545 -0.19417745 0.010810838 0.025255218 0.11387677 0.11584411 0.06299668 0.11580358 -0.15236351 0.20206113 -0.027281525 0.03567964 -0.027843049 0.048345204 0.14136972 0.40063646 0.013241559 0.16623798 0.10937751 -0.14341217 -0.04177939 0.014545781 0.18194836 0.11838303 -0.08176632 -0.14321828 0.04008556 -0.16983412 0.1743438 0.010440085
2289 -0.10621564 -0.012872287 -0.12613086 0.08227054 0.10283733 0.15228897 0.12976122 -0.08964126 0.11858286 0.036801107 -0.20434014 0.16118532 -0.18716104 0.29862544 -0.15409926 0.13669297 -0.08538729 0.01882839 -0.07369379 -0.10525408 0.07986252 -0.051912334 0.01733834 0.10832737 0.1015336 -0.18193923 -0.079397805 0.19232698 -0.19180539 0.06682885 0.24386163 0.10552648 -0.14900932 0.110057436 0.1702437 0.26598102 -0.13866884 -0.06734113 0.47568253 0.2523382 -0.07900869 0.014430358 -0.16876104 0.09156613 0.13639945 0.079593316 0.015923796 0.15093178 -0.2925891 0.057201702 -0.1299975 0.11206513 -0.15495345 0.14120276 -0.26749164 0.17974266 0.13985772 0.34408528 0.03582178 0.12401874 -0.14679335 0.043916304 0.053546913 0.03509665 0.21936482 -0.30153126 -0.042380314 0.10140066 -0.12421471 0.25721413 0.115875766 0.21158636 -0.110690035 0.18923083 -0.15459128 -0.022024501 -0.106170505 -0.34128317 -0.1452251 0.018021883 -0.009414935 0.0031569079 0.11677846 0.16848598 -0.30770463 -0.24851114 -0.23969999 0.34997216 -0.025080623 0.1565654 -0.29467574 0.055055894 0.008308103 0.104000844 0.06485639 -0.26517862 -0.04914656 0.09648292 -0.11464458 -0.03406453 -0.34824938 -0.039821774 -0.08050731 -0.12540664 0.13860573 0.11216944 0.049348917 -0.041587096 -0.0642389 0.042579245 -0.017337916 0.08132292 -0.1165921 -0.015243464 -0.1634409 0.07384325 0.22090401 -0.18688807 0.060525525 0.11375361 -0.037888937 -0.10652468 -0.22078194 -0.46918488 -0.02382925 -0.108646184 0.40069708 0.1851054
3449 -0.45236072 -0.076396905 0.06676354 0.030987252 -0.122457564 -0.009044766 -0.049024913 0.14212467 -0.035237532 -0.15183625 0.010635057 -0.020112006 -0.0599749 0.17521556 -0.123426296 0.046157274 0.070959024 -0.05531366 -0.11488742 -0.10848828 -0.008272273 0.108320214 0.17854927 0.1573129 -0.10683045 0.036721393 0.028195033 0.17859292 -0.005718065 0.08246386 -0.17033832 -0.0647153 -0.079651415 0.05289817 -0.00035438794 0.12005386 0.121674694 0.028184421 0.19639978 0.07130003 -0.1634005 -0.17243594 -0.14161886 -0.06340874 -0.16180798 0.054486122 0.02508057 0.26254433 -0.018001111 0.06339522 -0.09877412 0.16771376 -0.26714095 0.14891918 -0.17761958 0.023269799 0.1335758 0.12920068 0.041734636 0.030481964 0.075405344 0.12240072 -0.12873448 0.05846868 -0.019154483 0.075601056 -0.05835306 0.040096756 -0.105808884 0.3401022 -0.29555812 0.15986866 -0.104927436 -0.14438577 0.043951225 -0.09921557 -0.15485345 -0.32362974 0.012596795 0.15491 -0.23155473 0.0017391223 0.14922625 -0.04822726 -0.108094506 -0.055682182 -0.09015309 0.10931509 -0.025187237 -0.06434735 -0.17491616 -0.109680556 0.060543124 -0.040774476 0.13664776 0.16064553 0.028405469 -0.106538 0.04564143 0.21124823 -0.25146478 0.06561851 -0.12493319 -0.056779485 0.040218852 0.027160306 -0.04867681 -0.014276686 0.011744991 -0.2558455 0.2292478 0.024737248 0.082230374 -0.14546528 -0.16351856 -0.0025754133 0.0025929944 -0.03942598 -0.10643061 0.20460308 -0.10147246 0.29201952 -0.08856924 -0.112919375 -0.022642288 0.097903974 0.1987149 0.029774979
5234 -0.25535762 -0.071083225 0.18720917 -0.041402105 -0.19331366 0.072392784 -0.007946283 0.06890693 0.022624925 0.140211 -0.09660192 0.23713006 -0.06750707 0.11481302 -0.012173902 0.11912381 0.14130904 -0.19376875 -0.05780462 -0.07357932 -0.040784974 0.050436564 -0.13442056 -0.009331136 -0.014461281 -0.07048878 -0.026910177 0.051187 -0.017192636 -0.01613662 -0.009767225 0.023116598 -0.15090959 0.18784729 0.021855578 -0.09072554 0.08751833 -0.043495223 0.10999824 0.051674798 -0.091239214 0.14137255 0.21154138 0.029792724 -0.08492705 -0.36269394 -0.10927793 0.00896001 -0.057780027 -0.041768067 -0.15201855 0.0024387955 -0.07322992 -0.105328195 -0.2283476 0.009665804 0.1836081 0.17157136 0.025930807 -0.0013846847 -0.11068247 -0.12732415 0.070821606 -0.044426512 -0.06551406 -0.08032989 -0.09346209 0.1657381 -0.039653163 0.0799111 -0.05889688 -0.005206734 -0.040312383 -0.261243 -0.0685935 0.02099985 -0.16879548 -0.2676096 0.19681773 -0.15175836 -0.27358958 0.038184226 0.19465654 0.14874506 -0.08998626 -0.08941871 0.011716258 0.18013962 0.008234734 0.16931468 -0.29054478 -0.1213112 -0.037300184 0.16742416 0.12567072 0.05028539 0.14104763 -0.17660804 -0.020221116 -0.058322877 -0.15379824 0.11323656 0.10682429 0.06865993 0.044795208 -0.14636296 -0.047061086 0.07729261 -0.09445992 0.12058975 0.031453684 -0.12968093 0.26343346 -0.060865846 -0.30709088 -0.17725019 0.01653327 -0.17639574 -0.015787719 0.08739165 0.25615475 0.03366951 -0.061539162 -0.029277788 0.054381143 -0.13115086 0.11403225 0.1908652
