439 128
1315 -0.14470889 0.17996968 0.12909764 -0.30147436 0.14316899 -0.0051387623 -0.17120263 -0.168575 0.2626346 -0.06087369 -0.0273236 0.10576201 0.034517825 0.15904133 -0.23023002 0.10794203 -0.16942622 -0.005707629 0.15012851 0.06706921 0.064251445 0.10484929 -0.30636737 0.06620357 0.15220957 0.22623399 -0.101331264 0.22666517 -0.13641195 -0.15974173 0.21204758 -0.03795112 -0.029920166 0.12303105 0.28606403 0.0032144994 -0.055996176 -0.07803935 0.082106456 0.19059567 -0.042536195 0.18241473 0.095668554 0.259654 -0.2919594 0.094719015 -0.045644548 -0.23281597 -0.25725812 0.025242442 -0.09952538 0.18935649 0.018215436 -0.030308465 0.094241746 -0.07962938 -6.0973765e-05 -0.19961303 -0.04278451 0.02604565 0.22500055 -0.39191455 -0.03588675 -0.29726544 -0.25452638 -0.095841676 -0.0216712 -0.021356931 -0.058997363 -0.23490526 -0.18438332 0.0538572 0.14047894 -0.0954589 0.065160915 0.29555944 -0.19315116 -0.038717102 0.011910627 -0.32678205 -0.009384309 -0.04422684 0.03743539 -0.2132358 -0.12607437 0.1834384 0.03890054 -0.007854041 0.035752207 -0.1725546 -0.059962027 -0.2627209 -0.16640674 -0.11399855 -0.09925297 -0.2685203 -0.27701843 0.2099187 -0.08157005 0.0055333036 -0.040866867 0.054816246 -0.23866843 -0.24120109 0.14474693 -0.040488202 -0.2136864 0.101498134 0.0658849 -0.22210953 -0.030197416 -0.2515369 -0.18762772 -0.022309016 0.00076354615 0.10109407 -0.09848361 -0.044779614 0.08355555 0.069440424 0.0721071 -0.13300724 -0.16753687 0.011385709 0.075386256 0.39677292 -0.002104349 0.13490726
20 -0.08233166 0.06301299 0.19009055 -0.23266128 0.019898923 0.16260244 -0.100654714 -0.33176878 0.09428325 0.24070472 0.039763596 0.0514753 -0.15617736 0.1627341 -0.21477756 -0.076833874 -0.29381514 0.1441849 0.08393881 -0.2095841 0.03605624 -0.2366176 -0.17908262 -0.08212634 0.20021807 0.02409 -0.03440264 0.23478463 0.025278483 -0.2381335 0.026276633 -0.06382171 0.093180604 -0.18498985 0.2753173 0.0013055576 -0.14661159 0.062213633 -0.005011764 0.4420348 -0.19835967 0.3862196 -0.1922687 0.13541983 -0.15535818 0.2311881 -0.024116259 -0.00045332426 -0.20513335 -0.048532974 -0.19757451 0.13186567 -0.0036390822 -0.03843306 -0.011634817 0.108787864 -0.095233746 0.2319565 0.11670173 0.015191736 0.1940149 -0.38756657 0.029893659 -0.15086555 -0.0698178 -0.5632708 0.2681151 -0.1784721 0.12895624 -0.25035995 -0.20531836 -0.02868988 0.014765783 0.16298826 -0.005040315 0.05376115 -0.028696071 -0.03685436 -0.123585574 -0.1847172 -0.02397789 0.13144316 0.17063802 -0.195174 -0.2580465 0.18535133 0.06713923 -0.030145854 0.029050456 -0.21242398 0.20837907 -0.12631007 0.20825353 -0.008641656 0.1661527 0.1372244 0.085642986 0.09630534 -0.036978062 -0.013718956 0.12427584 -0.16170679 0.046182975 -0.115104 -0.021354012 0.03831704 0.017454345 -0.17960696 0.15054256 0.106358126 0.26457778 -0.024314722 0.15416358 -0.17282455 0.029236158 -0.017745858 -0.027417056 -0.29349744 -0.015378435 0.13981965 0.24242315 -0.14448017 -0.18813388 -0.10172392 0.20272423 0.030456714 0.07710162 0.3640451
5234 0.1583012 0.108477205 0.018880144 -0.116626136 0.14878818 0.08108237 -0.028751226 -0.13958786 -0.010537846 0.19458342 -0.13956988 -0.050152656 -0.021706339 -0.116764314 -0.0464029 0.21547388 -0.12034796 -0.012312019 -0.009701603 -0.050200853 -0.08724805 -0.19467773 -0.17193267 -0.08605985 0.05662677 0.10583374 0.03205711 0.14637129 0.033975504 -0.2077673 0.08081312 -0.066959865 0.12337689 0.11427381 0.16952969 0.13217796 0.123712204 -0.030167954 0.100607306 0.17245351 -0.026313663 0.08993337 0.047716398 0.016381131 -0.24659316 -0.0011731982 0.07974159 -0.14305699 -0.23030943 -0.061776362 -0.28342226 0.30633858 -0.0148513 0.057422068 -0.08849672 -0.028037779 -0.021398129 0.07099053 -0.033725522 0.14466831 0.055704407 -0.2354209 0.016513651 -0.1841677 0.07256376 -0.10540487 0.04284453 -0.032800023 0.06494878 0.023942547 -0.22768809 -0.06653986 0.27985713 0.11033105 -0.117063306 -0.09011655 -0.20354605 -0.090838514 -0.0040693865 -0.15834314 0.22893006 0.06139815 0.022563038 -0.13885882 -0.11213576 0.24529517 0.038873795 -0.066580735 -0.030383233 -0.15996861 0.15782936 -0.39174452 -0.038915616 0.09963986 0.05480671 -0.21932392 -0.22864115 0.21007304 -0.18469074 -0.10276038 0.17978376 0.2833358 -0.14608361 -0.08920307 -0.021227673 0.08675648 -0.039132174 -0.10403981 0.06512531 -0.3262689 0.11228546 -0.089770585 -0.07681454 -0.2212358 0.05891697 -0.17439997 -0.10938661 -0.06927095 -0.0031971585 0.177233 0.1050552 -0.09424799 0.0555072 0.043809623 0.08395633 0.35429725 -0.091639005 0.23748896
813 0.14877991 0.13286729 0.22510792 -0.020679297 0.19179729 0.14815213 -0.1282854 -0.23861098 0.015943585 0.17403503 -0.100986294 -0.21437061 -0.0033869355 0.03174001 0.0018814402 0.18925054 -0.045586854 0.018305277 -0.17118165 0.040971626 -0.03559878 0.05035958 0.12132478 -0.44126096 0.24836533 0.04778384 -0.14137338 0.34932327 -0.35087237 -0.13160701 -0.011916939 -0.03367289 0.09008653 -0.112740986 0.07690122 0.039699122 0.33093733 -0.026758695 -0.1170082 0.4735038 0.008036122 0.3043357 -0.14890678 -0.11578326 -0.20606777 0.101381436 0.074582264 -0.015109243 -0.20061143 0.07395398 0.007963368 0.214561 -0.042248465 -0.10455384 0.020481758 -0.1538026 -0.081734896 0.1371046 0.11281254 0.19034058 0.22718453 -0.49232447 0.18308564 -0.015004011 0.0945057 -0.0076224552 0.19178855 -0.096320145 0.032784205 -0.060330782 -0.3650138 -0.03695196 -0.008618939 0.08883556 -0.101054944 0.019391734 -0.06714234 -0.074569836 -0.2403381 -0.15226863 0.09503616 0.09860233 -0.028371917 0.1111596 0.030277964 0.12987103 -0.11870573 -0.066617444 -0.15383267 -0.2249311 -0.09073369 -0.28341007 0.1031078 0.104495704 0.25246388 -0.12611142 -0.13251565 -0.15655547 -0.117800325 0.09924264 0.08187236 -0.32489896 -0.07207666 -0.10972558 -0.0193687 0.117486425 -0.19383773 -0.07674118 -0.07736338 -0.13104996 -0.12094546 0.07906827 -0.09736238 0.06210827 -0.063824885 -0.019286815 0.13510208 -0.2125344 -0.15209094 0.11108035 0.10842432 -0.017322876 -0.25502148 0.022699384 -0.10687158 0.084292345 0.015480077 0.08947546
4985 0.034680113 -0.20553404 0.14732508 0.061561212 0.04524867 0.1246777 0.20219162 -0.060834553 0.10911543 0.20280613 -0.07717435 -0.17760976 -0.095175296 -0.013789645 -0.14587541 0.20217064 -0.20418052 -0.036175385 -0.07212784 0.024244575 0.111169316 -0.1857173 -0.12441383 -0.19118124 0.026540658 0.11556713 -0.067659244 0.12514079 0.07626801 -0.021847183 -0.06737202 -0.22293839 0.25971046 0.2377404 0.2715814 -0.11487746 0.09286678 -0.087456636 -0.16874097 0.3957112 0.0010539523 0.21525542 -0.11795495 0.060238548 -0.24625787 0.036479197 0.13608746 -0.07202609 -0.15547833 -0.24794401 -0.17336288 0.21657258 -0.031394307 -0.15570658 -0.044066593 -0.05287678 0.10024357 0.19265993 0.27110317 0.32417813 0.24263918 -0.22042733 0.10808197 -0.06577544 0.06186409 -0.03225472 -0.01585475 -0.1825428 0.09971586 -0.03289542 -0.18128894 -0.006851579 -0.09531731 0.05498461 -0.14717671 -0.06018994 -0.2361126 -0.30432823 -0.029124744 -0.28768083 -0.024064556 0.22503833 0.12241168 -0.0012493791 -0.11060694 -0.024358094 -0.09281385 -0.052745808 -0.15046139 -0.27729392 0.0052021584 0.086451255 0.054862108 -0.14001527 0.05176306 -0.13410167 0.07527924 0.0036302211 -0.27904588 -0.0057544354 0.15183066 0.0052343807 0.07720031 0.0061731315 0.120195135 -0.00652267 -0.08969989 0.08192023 0.34898978 -0.16415949 -0.07475273 -0.099269226 0.091555126 -0.31232455 -0.06512453 -0.06457144 -0.026287861 -0.187955 0.055538524 -0.0067045023 0.26380083 -0.09121964 -0.00859699 -0.073347904 0.03464891 0.3150835 -0.030203342 0.17928009
593 0.2617716 0.19493021 0.16989294 -0.20106617 -0.0069002635 0.1531997 0.12062391 -0.3250644 -0.0030704946 0.09303937 0.034867324 -0.015875272 -0.13867332 -0.0943528 -0.15576528 0.11433564 0.12537655 0.035849627 -0.19086704 -0.055353653 -0.09414 -0.29307008 -0.12788212 -0.19086984 0.13645326 0.1169587 -0.2969534 0.26574293 -0.20840208 -0.26877016 -0.0055329157 -0.022589996 0.06795381 0.07345233 -0.054802842 0.110133834 -0.0155719295 -0.2101448 -0.059078187 0.122571565 0.16774727 -0.06347477 -0.10793466 0.11274077 -0.1788044 0.053962387 -0.025874093 -0.23665877 -0.18206672 -0.09989858 -0.14745285 0.39439592 -0.09282529 0.023386015 -0.07072942 -0.2816618 0.09989541 -0.17679937 0.1845967 0.15261723 0.24014962 -0.29467916 0.033815406 0.0028746552 -0.11551495 0.016755644 -0.02222999 -0.054880004 0.02540084 -0.053894505 -0.24646582 -0.054014914 -0.1348491 0.078060724 -0.35473725 -0.08840007 -0.1913088 -0.06983827 -0.38795763 -0.16761988 -0.015895031 0.12496143 0.23126157 0.08396684 -0.26989704 0.22875315 0.061917692 0.01122796 -0.15300007 -0.22591119 0.041165 0.1735753 0.06928764 0.1062663 0.044168424 -0.051571928 -0.4324908 -0.11987075 0.026631722 0.03077235 0.30181774 0.022927262 -0.16610585 -0.2285644 -0.03721205 0.16729839 -0.04480293 -0.09228942 0.16419472 -0.26351342 -0.009285775 0.0957454 0.051135704 -0.2724303 -0.24944235 0.09037394 0.16409257 -0.10725417 0.038349014 0.17583549 0.19218001 0.09277927 -0.1730436 0.02801852 0.054730725 0.17507227 -0.0012171512 -0.071775205
3634 0.04230792 -0.047095962 0.09566433 -0.046347015 0.22070788 -0.060716067 -0.01943698 -0.058792938 0.08151298 0.21142486 -0.14088921 -0.17204098 -0.12298452 -0.0597951 -0.32764977 0.13929199 0.017933114 0.014149916 -0.0016171319 -0.14581622 -0.03236794 -0.102942534 -0.21479379 -0.07352331 0.35159576 0.086289994 -0.077942565 0.25271246 -0.06520062 -0.21746287 -0.077357635 -0.031986028 0.111361064 0.015598926 0.34452817 0.051835306 0.20574121 -0.12634163 0.030629015 0.29386267 0.0757559 0.16600381 -0.029970257 0.10415672 -0.23313296 0.06801689 0.036783006 -0.052366495 -0.1696994 -0.13327792 -0.11401132 0.09375861 0.02056157 -0.13496184 0.08020445 -0.17013133 0.054037094 0.056457847 0.04709653 0.044523947 0.19201145 -0.30528456 0.08229686 -0.0681461 0.025268449 -0.08060612 0.101049975 -0.14586997 0.17754212 0.052235734 -0.14058073 -0.23707984 0.11350894 0.11118883 -0.14585501 0.17935547 -0.1272714 -0.026480095 -0.12879129 -0.22567718 0.0050109974 0.14226255 0.0677748 -0.14604735 -0.046241585 0.039422147 0.05411743 -0.04013056 -0.21493627 -0.056433033 0.07367546 -0.3467616 -0.14240746 -0.024856368 0.074397415 -0.14080422 -0.12626708 0.2298991 0.23076491 -0.28660157 -0.06896628 0.06733743 -0.13076538 -0.09774804 -0.28605148 0.1039353 0.046169136 0.087574266 0.14257991 -0.31144637 0.001847085 0.10590353 -0.08546134 -0.24550042 -0.022579573 -0.12401916 -0.015286589 -0.14197414 0.054442707 0.06525712 0.2677375 0.048977945 -0.22923365 0.07210268 0.002650027 0.21726058 0.023109498 0.23801085
4812 -0.05672834 0.15873232 0.28113645 -0.15607108 0.029675359 0.12030763 0.12342935 -0.19884533 -0.1107419 0.08587659 0.0010627704 -0.22211507 0.11599321 0.09113556 -0.098892614 0.14734259 -0.060794592 -0.14493048 -0.113243036 0.1356723 -0.18413575 -0.16977988 -0.19485444 -0.054959685 0.19016641 -0.03474875 -0.14716342 0.13633762 0.048876975 -0.24646787 -0.13058141 0.121145144 0.06790367 -0.047470428 0.052126188 0.0149145555 0.1366088 0.050151266 -0.19197042 0.35068572 -0.1830345 0.33906084 0.12165586 0.05566349 -0.27279496 0.14573245 -0.044642165 -0.3811935 -0.16265951 -0.21032558 -0.019057501 0.40106013 -0.0045981836 0.15356798 -0.09728387 -0.14839835 -0.22908287 0.14273052 0.005008402 -0.15567493 0.019373437 -0.2705435 0.07354818 -0.18075047 0.059150156 -0.09358311 0.0833079 0.051611345 0.2008474 0.19102831 -0.11925917 0.24365802 0.019023418 -0.056045495 -0.2600078 -0.010936463 -0.16735178 -0.08244818 0.17422642 -0.23807397 0.14417578 -0.05972939 0.13353099 0.01303976 -0.11034165 0.18455909 0.039980553 -0.073060185 -0.044065267 -0.12722613 -0.10654081 -0.35205206 -0.07392852 0.079068266 -0.010685109 -0.15143941 -0.079095684 0.16569579 0.11442885 -0.018203508 0.23641336 0.00022578087 -0.07615379 0.013971785 -0.12549923 -0.027759453 -0.047168892 -0.2323462 0.26259425 -0.009808652 0.16596064 0.025742684 -0.14277752 -0.2406981 -0.011640168 -0.030316068 -0.06279332 -0.1375703 -0.12206078 0.1112969 0.12641424 -0.14435606 -0.32332927 0.21775036 0.09448506 0.12603056 0.083596006 0.18393704
3259 -0.13600089 0.038453855 0.15984355 -0.19712725 0.16448098 -0.10880994 -0.084414326 -0.2400604 0.0053834994 0.16470912 0.03006974 0.060583252 0.0023851707 -0.15943632 -0.25580862 0.10000178 -0.090696655 -0.2695569 0.07392764 -0.4206914 -0.05461968 0.10397342 -0.021439504 -0.11534274 0.20143266 0.12834589 -0.31053722 0.19888154 -0.18490359 -0.022177966 0.20043501 0.085558556 0.25935885 -0.054759357 0.17882888 0.034594476 -0.01297733 -0.08258524 -0.13272293 0.20032874 -0.13427454 0.3329618 0.13590175 0.17140107 -0.07060858 0.1773587 0.040221907 -0.15218158 0.0042098504 -0.124775104 -0.104113795 0.25998768 -0.1092956 -0.090582125 0.04510325 -0.093495786 -0.08677609 0.0775026 0.07971511 0.109905116 0.19986263 -0.26058492 -0.017504415 -0.15994713 -0.015339071 0.07978655 -0.028082913 -0.15334001 0.17421533 0.20774002 -0.27816886 -0.013264119 0.27309784 0.052457396 -0.04347518 0.16983776 -0.08876903 -0.3384202 0.0064256797 -0.18639567 -0.11853814 -0.037639033 0.09510179 -0.011324965 0.017973784 0.20101337 -0.08487144 -0.07947904 -0.07240554 -0.13270795 -0.08218891 -0.4285792 -0.08456601 0.06544275 0.01449125 -0.35469887 -0.16386966 0.0500561 0.063000225 -0.122964926 0.294581 -0.02387239 -0.16787384 0.108051844 -0.23305994 0.0921995 0.06269321 -0.1088433 0.021936 -0.27266937 0.05728575 0.018668078 0.0078051034 -0.16491339 0.14590581 -0.09632507 -0.062907934 -0.082112424 -0.04831615 0.3029334 0.33341858 -0.050180543 -0.08166216 0.043586344 0.06038199 0.05056724 0.07656516 0.06322648
1625 0.23578121 0.20787448 0.16111451 0.051062196 0.1950707 0.22112396 -0.07643707 -0.16622238 0.023637757 -0.08878812 -0.20495117 0.118286 0.0119925495 0.003312664 0.028129455 0.02188472 -0.095924094 -0.08389152 0.051922444 -0.116474874 0.0843265 0.06417529 -0.26168042 -0.07845201 0.18477906 0.0714729 -0.08701096 0.18008584 0.009407917 -0.115414 0.17200986 -0.069386 0.19744687 0.044428255 0.31968105 -0.13506168 -0.08936748 -0.09359003 -0.33628458 0.40938482 0.07496462 0.1333441 0.2168496 -0.10314937 -0.10811529 0.13320605 0.19034258 -0.04918465 -0.30151176 -0.08094338 0.0270625 0.08334535 -0.012851458 -0.019192925 -0.10083405 -0.13470373 0.13330258 0.1103715 0.18028708 0.12785959 0.096270755 -0.21045232 0.024824303 -0.09909279 -0.011472121 -0.019545212 -0.005317911 -0.08286374 0.08343045 -0.069700874 -0.39053965 0.24828777 0.08059844 -0.26617426 -0.10854639 -0.09886293 -0.18250263 -0.005616796 -0.17380965 -0.1443066 -0.025922267 -0.19131008 -0.111634254 -0.07570617 -0.17113833 0.12060651 -0.0068148496 0.15061828 -0.041213457 -0.46521962 0.04779599 -0.24567494 0.10852924 0.08384829 0.20465133 -0.18048577 -0.21382138 0.14170443 0.10808385 -0.06803384 0.13061233 0.10418155 0.03761839 0.000776259 0.012688582 0.19309047 0.05036333 0.22243512 0.30913752 -0.18754801 0.102110036 -0.086093746 0.09225686 -0.18974645 -0.01807827 0.016373362 -0.13963316 -0.035383068 0.10690724 0.21542259 0.058819048 0.08658366 -0.20608597 -0.15718774 0.088084444 0.48531327 0.08197838 0.11838479
5785 -0.028261585 0.22977412 0.17664963 0.17377111 0.04578387 0.049278922 0.29120773 -0.013572745 0.02536798 0.09615782 -0.25578594 -0.1979949 0.20409282 0.15981069 -0.113618776 0.35927075 -0.00050882035 -0.13997066 0.048095476 -0.021906123 -0.0065650013 0.097012036 -0.19589978 -0.09473635 0.041227818 0.17490716 -0.04004659 0.4954511 -0.06379794 -0.27901432 0.23646785 -0.21632993 -0.011112444 0.030865278 0.12740554 0.00073470734 0.01485948 0.03246288 -0.093060166 0.23150906 -0.02532643 0.23224466 0.0021295957 0.040005196 -0.30164596 0.15469605 0.323391 0.08964855 -0.21609783 -0.074629515 0.024907654 0.27609658 -0.02196488 0.05464821 0.21215558 -0.19920154 -0.19498326 -0.13293397 -0.09958993 0.0004853917 0.32318398 -0.16448541 0.021077216 -0.14643392 -0.08443369 0.059902154 0.05128569 -0.08789465 -0.010813875 -0.12818639 -0.032230563 0.20213164 0.03533 0.22133476 -0.27042452 0.10688673 -0.0738085 -0.26215714 -0.025479807 -0.412897 -0.05951586 0.18514644 0.29700968 -0.08600486 -0.15091589 -0.0087330965 -0.03141346 -0.066952236 -0.07900959 -0.3063211 0.024777725 -0.21523002 0.08775672 0.034484386 0.06505973 -0.13250273 -0.20053294 -0.19081476 -0.0953704 -0.17342196 0.040671937 0.088735655 -0.3216609 -0.095498174 0.0105779525 0.15024322 0.072500825 0.0082082255 -0.100490876 -0.066732414 0.008402348 -0.089343324 -0.0030289893 -0.2004561 0.035192594 0.097125694 0.00058264605 -0.050067294 -0.17204504 0.043302704 0.14833204 -0.25862604 -0.2457056 0.2218786 0.17253135 0.24879931 -0.24138194 0.20977354
2411 0.2323083 0.10906318 0.15594876 -0.3013978 -0.026853014 0.08418124 0.23271598 -0.27088526 0.078969024 0.26772997 -0.08660292 0.06988202 -0.29350355 -0.040005162 -0.20991343 0.075908944 0.023748424 -0.2209846 -0.05330924 -0.01894025 -0.07222603 -0.009918189 -0.1048879 -0.26226777 0.24862744 -0.014477389 -0.13226163 0.06983528 -0.1704956 -0.028276717 0.20535332 -0.036309797 -0.072622366 0.025288304 0.111714296 0.09405802 0.16234761 -0.01518767 -0.25583643 0.33763832 -0.025278518 -0.07164374 -0.11994865 0.0146654025 -0.30333656 -0.068859614 0.052909274 -0.018936697 -0.18882559 -0.09218466 -0.17041737 0.36811936 0.13030884 0.084932916 -0.15392497 -0.057193864 -0.16967513 0.06562972 0.28670946 -0.043582406 0.3200416 -0.17284611 -0.075223625 -0.21783622 0.14812374 0.15219024 -0.119346656 0.073700294 -0.09876151 -0.007210335 -0.017052552 0.0153783765 0.09535031 -0.012367255 -0.19289929 -0.031023288 -0.21312284 -0.14242405 -0.25988778 -0.41438097 0.034055054 0.032316808 -0.0036040647 -0.02242862 -0.12162966 0.1763134 0.094329216 0.023048546 -0.19429658 -0.31030765 0.15776443 -0.10633171 0.19138901 0.056052275 0.039537214 0.021492671 -0.22141862 0.0055309893 -0.004836768 -0.02517919 0.23348764 -0.031757902 -0.063866585 -0.023194948 -0.08869576 0.13438928 -0.16311957 -0.04214776 0.13424335 -0.052996356 0.005214248 0.14524391 -0.032389943 -0.23952879 -0.24305825 -0.08008122 0.16848981 -0.19394423 0.018425867 0.0063436143 0.076540194 -0.088143736 -0.12603508 -0.046685856 -0.06471125 0.23420975 -0.15037225 0.107114755
1628 0.14747617 0.14366908 -0.107660726 -0.32023647 -0.027458536 0.12471788 -0.17438029 -0.22987954 0.31007025 0.07853911 -0.13715436 -0.02514052 -0.058483087 0.08915722 -0.08438535 0.2553448 -0.21019956 -0.06784201 -0.06809449 0.2633356 0.19265072 -0.21364468 -0.32472783 -0.25284114 -0.0858767 0.121729024 0.021673635 0.074041985 -0.071424544 -0.2504848 -0.1031459 -0.066468604 -0.0046641333 -0.007895512 0.2092768 0.018025402 0.101108685 -0.095003225 -0.13195638 0.25372526 -0.0822212 0.19295783 0.11954583 0.015374109 -0.18740872 0.106646106 0.030519716 0.019185131 -0.07250685 -0.10973835 -0.104675636 0.13420787 -0.15054008 0.14488265 0.027618451 -0.11275069 0.20449768 -0.0036875564 0.21302699 -0.046449594 0.1762859 -0.2479165 0.14946085 -0.30697948 0.09455545 -0.039534755 0.012310294 0.087564886 0.032245044 -0.016113238 -0.25537777 -0.13898385 -0.122138835 -0.08255596 -0.17792988 0.10598562 -0.02965754 -0.07200989 0.1531141 -0.03993025 -0.030507227 0.056776565 0.19380735 -0.15261097 -0.32299107 0.06672565 0.20837891 -0.2708586 -0.09863908 -0.29603142 -0.04159334 -0.33559906 0.0965238 0.22461723 0.016759722 0.05927363 -0.11024919 -0.06968258 -0.023949109 0.02927253 0.0063673607 -0.28804588 -0.28402367 -0.24862994 -0.08720243 -0.073671035 -0.008978159 0.124437645 0.24062939 -0.1113256 0.07193022 -0.13255411 -0.13299051 -0.066983566 0.0753565 -0.12356513 -0.17294574 -0.13904266 -0.34728745 0.15288225 0.22077899 0.19082163 -0.1747463 0.20481864 0.04933364 0.09491154 0.082989566 0.04391077
3623 0.04239083 -0.2226926 0.26659107 -0.024551474 -0.10401161 0.22445938 0.05923937 0.233445 -0.25424352 -0.20164573 0.2043614 0.51119137 -0.19093606 0.11434017 -0.011605778 0.30715922 0.13887781 -0.0959699 -0.0138906315 -0.10991407 -0.77504426 0.4907141 -0.6851756 0.27396062 0.1395417 -0.21621162 -0.34026802 -0.13557881 -0.19610168 -0.18355295 -0.105164334 -0.03323798 -0.1754556 -0.048444156 -0.47842237 -0.23867154 -0.14394894 0.050357148 0.3864651 0.6215741 0.43554926 0.13272671 -0.07958684 -0.7226476 0.7461209 0.07418392 -0.43694827 -0.19584149 -0.20290281 -0.24623293 -0.017785948 0.6182413 -0.18144387 -0.22138622 0.18963079 -0.2138567 0.12685186 0.29376543 -0.27925864 0.6426778 -0.08477339 0.06971725 -0.14309216 0.18500154 0.21484597 0.079892404 0.30898649 0.053880095 -0.1921495 0.21584152 0.11526805 0.012887443 0.2856617 -0.17071515 0.3178836 -0.039119776 -0.44714117 -0.17276444 -0.6636153 0.19398262 -0.30716646 -0.6381306 0.1674468 0.075412214 -0.0076362332 -0.058532875 0.0024046197 -0.2626583 0.094208255 0.06602827 0.4449076 -0.14984232 0.37883854 0.22717588 -0.3161215 0.5050467 0.23306026 -0.39319935 0.40235344 -0.29824018 -0.18732168 0.20788494 -0.019650303 0.40250272 0.22864103 -0.23912036 0.1388167 0.18702212 -0.2834215 0.20610416 -0.020539926 -0.28486037 -0.05799075 0.27508703 0.047760177 0.038945507 -0.5979798 -0.09320146 -0.22690335 -0.48075062 0.7055208 -0.34769323 0.4541278 0.29923004 -0.49277604 0.061246984 0.032523777 -0.05105008
1335 -0.0146124605 0.098895915 0.057775714 -0.12664533 -0.11315963 -0.10472472 -0.05687603 -0.4259177 -0.0077513075 0.09385843 -0.115627594 0.08721388 -0.03963947 0.0052180286 -0.018568529 0.12804209 -0.02971792 -0.0279978 0.033504996 -0.14172582 0.07591501 -0.13679701 -0.17302135 -0.08432449 0.09876427 -0.013562425 -0.15930015 0.138633 -0.004541016 -0.17009424 -0.076166466 -0.053754717 0.11058626 0.20187767 0.11712537 -0.024389675 0.034669306 0.08646969 -0.28864765 0.3309307 -0.067908816 0.1876544 -0.06920609 0.15756032 -0.07550046 -0.010099381 -0.19765213 -0.019138362 -0.3061513 0.09542608 -0.19048478 0.116662174 -0.014713751 -0.038605656 -0.18547617 -0.17593254 -0.05273748 -0.03898953 0.10537635 -0.008789881 -0.009211919 -0.027870914 0.28280327 -0.1732307 -0.12489217 -0.09466785 0.024420852 -0.13895534 0.071703605 -0.08893963 -0.30185905 0.12016625 0.05089462 0.13898201 -0.15179059 -0.020046089 -0.39650446 -0.05527221 -0.011494766 -0.080438696 -0.06697695 0.21576156 -0.0076136612 0.011262561 -0.16262542 0.25238916 -0.00028422996 -0.30017594 -0.07664912 -0.13986266 0.021308575 -0.30356646 0.09652479 0.04648151 0.022319634 -0.095641784 -0.021901121 0.023726769 -0.07447105 -0.13528068 0.23288807 0.017393561 0.018397158 0.023484975 -0.08813394 0.0738316 0.114411965 -0.12211688 0.14116593 -0.30098602 0.005924998 -0.06183584 -0.045401044 -0.13864143 0.04215518 -0.082993284 -0.07630003 -0.10455201 -0.039525352 0.25455815 0.10091988 -0.15581612 -0.05816939 0.08974594 0.002922374 0.14002937 0.01154228 0.35378182
5135 0.2702758 -0.22262779 0.3087208 -0.12759201 0.035964318 -0.086387396 0.268852 0.10389082 -0.041437704 -0.36665583 0.20515877 0.2734392 -0.305375 0.04823634 -0.045125764 0.19126287 0.07463708 0.11469351 0.10956601 0.30596656 -0.90174097 0.4479623 -0.38352785 0.4542327 0.13709873 -0.20054144 -0.56880814 -0.29600826 0.08530108 -0.13378973 0.0383649 -0.20040697 -0.23035623 -0.086301915 -0.3098534 -0.33488053 0.15350342 0.059432235 0.4356913 0.21439904 0.30043483 0.30728647 -0.2916963 -0.65769726 0.3860214 -0.13060331 -0.125811 0.053523798 -0.15067834 -0.009627435 -0.029854087 0.17708988 -0.14233612 -0.057422813 0.54378265 -0.16005553 0.27074426 0.27587318 -0.3980853 0.43963435 -0.05331507 -0.14464308 -0.6883956 0.19625057 0.16687703 -0.2678754 0.02165093 -0.09807896 -0.4671912 -0.26737395 0.1649373 -0.104944915 -0.054762777 -0.10292681 0.30169356 -0.015162837 0.034241244 0.056956906 -0.39647913 0.17541677 -0.7413947 -0.57124126 0.37282813 0.23180197 -0.3621752 0.08258171 0.029480685 -0.38804674 -0.10088687 0.25155276 0.27622607 -0.48316813 0.016856804 0.45075288 -0.21806714 0.45060623 0.09406996 -0.6422053 0.49175757 -0.164333 0.013359709 0.14895932 0.27973786 0.3037649 0.28255937 -0.06593888 -0.14840785 0.397879 -0.45923308 0.078722395 0.24095365 -0.39136654 0.040227305 0.19365434 0.12317197 -0.07899876 -0.2701341 0.008428346 -0.22776519 -0.30991134 0.8495224 -0.39542407 0.32566056 0.14391387 -0.28672826 0.07716232 0.13199234 0.22568046
4854 0.24238977 -0.21958645 0.35233405 -0.18136013 -0.2280171 0.03334547 0.17519881 0.097628884 -0.14047518 -0.27566174 0.24305089 0.2506939 -0.19677576 -0.02590423 -0.057076592 0.22703803 0.19885547 0.34506938 0.12584095 -0.1415643 -0.62306076 0.19150306 -0.7444386 0.36223742 0.12861747 -0.106356874 -0.30908042 -0.30845454 -0.3311449 -0.15918313 0.035456967 0.13961977 -0.073852025 0.148179 -0.388963 -0.53689325 0.1801988 0.20462768 0.549305 0.46272254 0.31385925 0.16431513 -0.11523165 -0.42381144 0.5934592 0.021241026 -0.36214504 0.01702349 -0.2971229 -0.288817 -0.19616142 0.41931197 -0.07944994 -0.10840262 0.1135724 -0.11119767 0.46420377 0.24690573 -0.25609398 0.6309352 0.07004318 0.2493702 -0.2513487 -0.0037878978 0.2075276 -0.42286253 0.18189393 0.053041123 -0.4252533 0.12658137 0.21665204 0.11329744 0.016877033 -0.19034234 0.20175785 -0.10249775 -0.34656298 0.026807508 -0.6215903 0.22020486 -0.43259016 -0.4547829 0.2737205 0.5330167 -0.3531759 -0.07911764 -0.32083637 -0.39774874 -0.15212652 -0.115628526 0.23783587 -0.34572715 0.37673753 0.3400751 -0.32433343 0.4163381 0.18402731 -0.12860757 0.4378837 -0.34649795 -0.13034983 0.19338945 -0.14786305 0.5250101 0.25893602 -0.34159264 -0.056261797 0.19168396 -0.41799587 0.3361104 0.25390998 -0.3131472 0.032921758 0.46499366 0.12458292 0.041696522 -0.5687811 0.03299777 -0.31858712 -0.30958334 0.59592485 -0.32884786 0.4255686 0.2793125 -0.565528 -0.094808266 0.11912088 -0.06459158
1048 0.02979066 0.2144792 0.16255 -0.13265711 -0.024907356 0.12559742 0.12715468 -0.084258944 0.110434465 0.2738377 -0.16151221 -0.2534687 -0.08048189 -0.05821753 -0.10373365 -0.010943834 0.029247392 0.17697413 0.10150969 -0.11865931 -0.066597044 0.12934056 0.0059881904 -0.14692448 0.06914095 0.016892029 -0.2105248 0.29508045 -0.006922287 -0.1658621 -0.038761146 0.02143178 0.25533304 -0.003633302 0.24011885 0.024484623 -0.324063 0.24628018 -0.06858073 0.37505478 -0.07454542 0.4364755 -0.04098683 0.021906542 -0.31092447 0.16095394 0.23157233 -0.009144441 -0.20955259 -0.08589782 -0.22682445 0.39726585 -0.0028663296 -0.06741883 -0.04362478 -0.111355655 -0.12619115 -0.13161653 0.2604325 0.12531877 0.045514077 -0.38275483 0.006450119 -0.10284655 0.33246422 -0.22298706 0.021177756 -0.13992423 0.18510967 -0.19671592 -0.16240947 -0.021627283 0.08530462 0.094649136 -0.0690663 0.047208976 0.023644684 -0.1291222 -0.0066451686 -0.04438107 0.03588973 0.23725113 0.309804 -0.09513338 -0.23358327 0.24392453 -0.09917787 0.1511648 0.16446064 -0.1616474 0.044246644 -0.35775152 0.21834223 0.049009718 0.20132528 0.10594755 0.05048504 -0.0059365653 -0.075165965 -0.11252748 0.06711633 0.10348599 -0.043904446 -0.07910077 0.020381209 -0.011568282 0.0295489 -0.0938216 0.00038853724 -0.123612106 0.049947374 0.17343372 -0.06661685 0.004476861 0.014558729 0.084640086 0.047739856 -0.15811312 0.05155491 0.28671762 0.21901721 0.07007219 -0.09556159 -0.1988455 -0.10129176 0.15598848 -0.07073033 0.22195174
4980 0.04378281 0.110644884 0.14410183 -0.057586398 -0.14448078 -0.023718635 -0.17523916 -0.28154457 0.04542299 0.26099092 -0.12319294 -0.06782263 0.055062663 0.08239894 -0.14152446 0.13434109 -0.004100518 -0.33416182 0.045915972 -0.14735809 0.09518224 -0.07397867 -0.10553109 -0.28406766 -0.087242454 -0.18542387 -0.117557816 0.079259165 -0.087828554 -0.09282043 0.109388515 -0.12232828 0.18187043 0.047150377 0.06960327 0.0147225745 0.21019721 -0.0038795993 -0.003276138 0.16661666 -0.07186221 0.18248786 -0.22144285 0.05317979 -0.1837098 0.08411406 -0.16454507 -0.0476188 -0.37113512 -0.029983478 -0.08979143 0.31704172 -0.052912515 -0.24714918 -0.24003205 0.048060566 -0.12656894 -0.014512608 0.009315423 0.07653857 0.18787265 -0.31628412 0.07808069 0.08679465 0.12494896 0.09417394 0.015041687 -0.11338268 -0.11849203 -0.05573255 -0.2107865 -0.085628204 -0.04892129 -0.12623607 0.028829608 -0.11321488 -0.04644131 -0.259614 -0.31737533 -0.2385752 0.17379683 0.27785334 0.07893832 0.04208505 -0.06289949 0.20560478 -0.18979953 -0.07989864 -0.04495674 -0.33005348 0.018772297 -0.2154151 -0.31399554 -0.07241523 0.044837464 -0.039959844 -0.06149248 -0.055217244 0.10615387 -0.11949706 0.13363884 -0.026865788 0.17942907 -0.01939296 0.0141181145 0.16905259 -0.07947699 -0.01691995 0.21904364 -0.13338073 -0.041736893 -0.030663457 -0.12708442 -0.28298435 -0.054846056 0.004446171 -0.077084236 -0.3014788 -0.020665692 0.20884974 0.24018554 -0.15754993 0.0012455267 0.16150789 0.02026867 0.43319312 -0.23762499 0.0074168188
3449 0.25383505 0.06810095 0.109679185 -0.16511905 0.14890943 0.163758 0.03294339 -0.076021485 0.0066614132 0.07910513 -0.23134696 -0.15276444 0.08491859 -0.26050887 0.040689144 0.16308273 -0.082188584 0.00666098 -0.12833475 0.0015141026 -0.11657767 -0.2974247 -0.31387725 -0.17153734 0.0020476263 0.035646766 0.021175582 0.35391605 0.068238355 -0.17272003 0.01020672 0.14129108 0.034109764 -0.1341654 0.14787228 -0.026929252 0.17721222 0.013164887 -0.116807394 0.20233913 -0.15786326 0.28859258 -0.06902491 0.10113009 -0.22548243 0.022649748 0.0737824 -0.23026545 -0.25104088 -0.07214087 0.107369155 0.38311625 0.04093269 -0.008592054 0.112515695 0.046638593 -0.27532214 -0.014852208 0.047597714 -0.024449399 0.18382192 -0.2685703 0.052823644 -0.2481565 0.182934 0.029024426 -0.012875763 0.039865196 0.09831132 -0.2624542 -0.14985046 0.02699467 -0.045933645 0.07405107 -0.2746303 0.08749956 -0.046565287 -0.0429112 -0.11156204 -0.34130856 0.10156916 0.021255046 0.13365693 0.12453657 -0.14929056 0.15000655 -0.086487494 0.087329 0.028566184 -0.1598391 0.15763399 -0.30598497 0.004082917 0.12135548 0.005828892 -0.15003003 0.083335556 0.059035238 0.17346781 -0.26037824 0.12566051 -0.07804085 -0.04638377 0.0069589163 -0.05765965 0.1687352 -0.19043002 -0.032875005 0.20316458 -0.23749934 0.18935457 0.057219382 -0.15369393 -0.16349107 0.13783109 -0.31301877 0.084194206 -0.19656211 -0.1302176 0.22355127 0.26972505 0.0713982 -0.15532763 -0.0352371 0.008630959 0.07042346 -0.06797422 -0.033572316
1595 0.32433817 -0.33827326 0.29467517 -0.20031771 0.19297376 0.20556638 0.27962288 0.056073774 0.019648176 -0.29924172 0.19581023 -0.16774572 -0.52378154 0.13665411 -0.08328318 0.09956155 -0.049988266 -0.15835164 -0.00088667084 0.23318805 -0.58708674 0.5552078 -0.62219685 0.4101398 -0.03564613 0.0032310993 -0.25677335 -0.33769235 0.094029084 -0.3257635 -0.26412338 -0.41554067 -0.032683402 0.08661906 -0.43910962 -0.61020905 0.49287847 0.29249963 0.5770233 0.29403132 0.3894403 0.28179136 -0.29354584 -0.6639012 0.34061882 0.14977191 -0.46213725 0.070665546 -0.257041 0.07980343 -0.09730774 0.4581779 -0.07498436 0.18531767 0.28862318 -0.2506911 0.51106215 0.26336056 -0.20540865 0.28876212 0.078062676 -0.048281938 -0.118160084 0.06824045 0.07808752 -0.21068788 0.25636873 0.13408513 -0.32576406 0.09518136 0.12387685 -0.094558135 0.22492895 -0.12064529 0.26847246 0.07149402 -0.0023866897 -0.12672362 -0.4082637 -0.049422223 -0.57375705 -0.5929564 0.22654684 -0.01435067 -0.10699684 -0.23622498 0.009388765 -0.33056596 -0.105496615 -0.03992711 0.39150688 -0.107041724 0.24543951 0.35083327 -0.5203538 0.3136459 0.20123474 -0.6287868 0.35515797 -0.37740543 -0.051434573 0.25701183 0.28422993 0.50476736 0.565021 -0.14650227 0.18891837 0.4481971 -0.5782597 0.3270617 0.27917388 -0.4033531 -0.19230539 0.42498395 0.036233027 -0.14685915 -0.3348409 0.13213928 -0.17842942 -0.00020019378 0.68888235 -0.124552965 0.31811583 0.24794121 -0.64845705 -0.17873882 0.244673 0.29216215
4436 0.08340043 0.10778567 0.1532894 -0.0043623163 0.15930298 0.09156865 -0.060801607 0.00899051 0.19670139 0.018457362 -0.3162405 -0.04174133 0.14513537 -0.07551466 -0.2760186 0.03814893 0.059221737 0.09217746 -0.11667549 0.017771168 -0.13727851 -0.19803272 -0.2852492 -0.15272503 0.019438839 0.102680996 -0.16438556 0.1348282 -0.0045428616 -0.2429351 0.2843325 0.092846245 -0.084709726 0.12597504 0.23520696 0.1989315 0.19191104 -0.10122509 -0.06365736 0.28942236 -0.006368847 0.19680755 0.15460382 0.14482419 -0.33695582 0.24370806 0.22342281 -0.1296793 -0.28589103 0.014093161 -0.021651385 0.30861932 -0.07490887 0.019454129 0.017182792 -0.08869472 -0.09838817 0.01346845 -0.122199945 -0.12440706 0.22361815 -0.26345196 -0.000114648596 -0.24069223 -0.09267048 -0.062054753 -0.113682956 -0.14594738 0.0045539285 -0.07086366 -0.213958 0.19781464 0.16790654 -0.046856087 -0.15350929 0.07782698 -0.2377348 -0.17959149 -0.11581008 -0.16789982 -0.104301825 -0.10038388 -0.012163392 -0.15274161 -0.10747822 0.2706354 0.13550548 0.13186409 -0.02930023 -0.3534791 -0.00690797 -0.037599407 0.060715917 -0.2642608 -0.0234493 -0.16016105 -0.11180818 -0.2179857 -0.09137246 0.06254569 -0.15862799 -0.24929948 0.016453823 0.29633206 -0.093810044 -0.05825546 -0.03373131 0.19849186 0.099198 -0.28839988 0.06470156 -0.08904469 0.22183894 -0.15871021 -0.033325776 0.12605275 0.009858018 -0.15241323 -0.26553434 0.29020318 0.1366125 0.07933343 -0.07100548 0.02456696 0.051237077 0.36482477 0.10661898 -0.039240524
6109 0.015262104 0.007834074 -0.10081394 -0.07386463 -0.02528195 0.27254128 0.06800351 -0.13380487 0.26635832 -0.026072124 0.08343686 -0.076007426 -0.20301831 0.08719023 -0.043433767 0.011632095 -0.048105437 0.19271046 -0.091592245 -0.10998092 0.028541682 -0.04126276 -0.2515795 0.060287956 0.11306018 -0.05464985 -0.0010444128 0.35596588 -0.10732144 -0.062251754 -0.06416766 0.10437517 0.13106653 0.06950536 0.38380033 0.08443743 0.05200009 -0.16521925 -0.21424831 0.4818315 -0.052621793 0.051625095 -0.024942273 0.10289513 -0.13717511 0.05140863 0.07074448 -0.2385815 -0.2732273 -0.086679615 -0.14515933 0.23041585 0.14173283 -0.055608884 -0.03279114 -0.069676615 0.07432768 0.07423449 0.100359 -0.08217006 0.3045946 -0.19270077 0.046855234 -0.23590253 0.057007633 -0.027462905 0.26186514 -0.16670106 0.057735566 -0.1045469 -0.13346678 -0.16617465 0.1769598 0.06333465 -0.19673881 -0.07054359 -0.14614683 -0.31583157 -0.00455572 -0.3774468 0.10599275 0.23989801 0.07007885 -0.22710352 -0.070552446 0.2273518 0.061618246 -0.012801849 0.0009602175 -0.12968588 -0.120566905 -0.16536021 0.21905854 -8.927043e-06 0.092400596 0.14358678 -0.02189455 -0.070713334 -0.05857087 -0.06034648 -0.044535823 0.08972145 -0.23353073 0.031828698 0.13513 0.0358293 -0.20494133 -0.046350632 0.18468687 -0.07257817 -0.04038902 0.032096263 0.02900162 -0.093817316 -0.17395565 -0.13904469 -0.027932324 -0.26295835 -0.1565991 0.16086021 0.06072568 0.06596215 0.07276233 -0.18192546 -0.07165689 0.28870207 -0.05850958 0.081528634
605 0.003446866 0.00063836994 0.06387254 -0.15056407 0.13903935 0.012219806 -0.18009752 -0.50588787 0.09787586 0.067262806 0.009383826 -0.014055033 0.022956993 0.21126606 -0.0068135224 -0.033931516 -0.106628574 0.003968782 0.29820278 -0.16522172 -0.07017632 0.064336576 -0.38848102 -0.17816888 0.0010849225 0.26788095 -0.04942376 0.2857097 -0.01596558 -0.02031708 0.052288044 0.0033941935 0.052060813 0.15552737 0.17017394 -0.1921587 -0.07713662 0.15454201 -0.117332384 0.22333749 -0.2809584 0.37264207 -0.1333516 -0.0015014209 -0.29585063 0.12838317 0.09286719 0.10380931 -0.33141732 0.038172584 -0.059469223 0.17655262 -0.17365962 0.14369339 0.15057157 0.11907758 -0.16042379 0.053796872 0.08435928 0.1100566 0.30894876 -0.4225575 0.18275407 -0.03794245 -0.042254776 0.0060956446 -0.16704418 0.047141224 0.23644985 -0.2835614 -0.3126688 0.020828614 0.22978476 -0.01876353 -0.003048647 0.07763561 0.09822009 -0.37209094 -0.08723785 -0.31904772 0.10383331 0.14121912 0.016736163 -0.09453081 0.06309302 0.096676655 -0.00055940566 0.01572819 0.012433907 -0.10819584 0.15405516 -0.4430961 0.32738924 -0.056702465 0.056900278 0.024357732 0.040815204 0.29188663 0.09706125 -0.22480157 -0.097975366 0.043104455 -0.16450799 -0.1321577 -0.0141113885 0.05813135 -0.115785666 -0.22641133 -0.15103224 0.071049 -0.15832008 0.06869951 0.162638 -0.23901574 0.20680752 -0.2844247 0.103316 -0.13527949 -0.1419952 0.12876602 0.27748248 -0.02170135 -0.09220204 -0.07250396 -0.00912341 0.16567162 0.09075453 0.2551983
4171 0.3122688 -0.101862475 0.4005017 0.08725649 0.035342317 0.12828527 0.48063123 0.0030599677 -0.16420227 -0.38710585 0.13194269 0.29434913 -0.27424428 -0.055184875 -0.16469689 0.4978816 -0.11330513 -0.003422684 0.112724744 0.37970594 -0.97429264 0.1674324 -0.4741215 0.40222934 0.070093475 -0.26445827 -0.5177533 -0.1741564 -0.0033693516 -0.21676034 -0.26047245 -0.15208702 -0.32339233 0.022731729 -0.094605185 -0.16779417 -0.15235506 0.07130975 0.4145277 0.35283923 0.42565313 0.17807989 -0.1660389 -0.63028836 0.6680953 -0.09627092 -0.38972238 0.43941796 -0.3402797 -0.113693565 0.04527084 0.19012088 -0.23063324 -0.19782695 0.67146236 -0.14009885 0.41483292 0.19763044 -0.6188606 0.4428098 -0.04102382 -0.07199194 -0.119956926 0.20812519 0.047486767 -0.2962375 0.29312274 -0.08719433 -0.25146225 -0.2976505 0.3566529 0.09192085 0.36580867 -0.0055520614 0.1866042 -0.15021832 -0.05969934 -0.27846134 -0.47903943 0.09211772 -0.6498991 -0.5033327 0.19778979 0.2932708 -0.26338437 -0.06730554 0.15522893 -0.6077491 0.11374087 0.12062862 0.24792847 -0.25900865 0.07757968 0.2281267 -0.25200975 0.32289213 0.51855314 -0.5048156 0.30797097 -0.027424362 -0.098737426 0.16953155 0.052781034 0.30916065 0.21872081 -0.07917722 -0.15143242 0.51787156 -0.2533132 0.18681815 -0.020038977 -0.16866286 -0.114332326 0.27183318 0.15152648 -0.047161784 -0.09666907 0.1453054 -0.1465217 -0.24681991 0.8800175 -0.46740118 0.3935845 -0.0026427398 -0.119256884 -0.088837385 0.148612 0.17668253
5615 0.1614744 0.26086706 -0.007730825 -0.18568566 0.10674517 0.13059038 0.18341395 -0.17796718 0.16613156 -0.09292805 -0.14623049 -0.072665885 -0.2390825 0.19930977 0.07976275 -0.03848219 -0.029450689 0.042863525 -0.034415163 -0.13667166 -0.0041026436 -0.013905739 -0.3287485 -0.4314591 -0.020553077 0.07633557 -0.024206255 0.33872753 -0.037192725 -0.27341998 0.025323212 0.22547415 -0.04469786 -0.033727724 0.19472204 0.02574401 0.0057899244 -0.17635252 -0.048261914 0.2810834 -0.07460654 0.21001649 0.13093506 0.11790657 -0.1268527 -0.005458805 0.057303328 -0.17957102 -0.14499304 -0.22633977 -0.014085694 0.2623979 0.08461992 -0.13691473 -0.09892708 -0.035284452 0.12421984 0.12348795 0.13368441 -0.002505183 0.17449045 -0.1273574 -0.005749955 -0.011836548 0.028267063 0.25994393 0.018005617 -0.09828531 0.010858814 -0.20284508 -0.32472074 -0.08548492 0.02673721 -0.1859216 -0.07697637 -0.05740586 -0.11918993 0.0966091 -0.10206391 -0.1733395 -0.006116463 -0.03265346 0.22129878 0.07110749 -0.19364206 0.2234548 0.12934643 -0.21228127 0.01294353 -0.15109599 0.037753787 0.0763258 0.0866298 0.11624044 0.11819445 -0.00670872 -0.23583238 -0.05877908 -0.15752947 -0.092569776 0.0507049 0.06929708 -0.22747591 0.005094273 0.2144214 -0.03081871 -0.017744765 0.14102864 0.1278639 -0.07311368 0.07686547 -0.22808897 -0.060679004 -0.30332366 -0.17091626 -0.12146801 0.30326697 -0.32289997 0.12318818 0.09964701 0.21963944 -0.047780026 -0.2405389 0.04197626 0.11280402 0.23368837 0.0024033864 0.11120086
5473 -0.0854177 -0.08221565 -0.06308132 -0.033948075 -0.073914364 0.0066627194 0.012116627 -0.23005489 -0.056327157 0.13144496 -0.09842174 -0.1100578 -0.18427165 0.022474386 -0.026424065 0.3495024 0.28348082 -0.043934364 -0.0315731 0.0573418 0.052260667 -0.0647429 -0.11162414 -0.23337342 0.08980414 0.12422786 -0.09315392 0.26146373 -0.0142053235 -0.24553986 0.045401733 -0.07112391 0.083555244 0.119830005 0.06294979 -0.13789839 -0.008543907 -0.11100072 -0.20770349 0.05301633 0.13457082 0.045723464 -0.14359984 -0.19591875 -0.54385626 -0.01101356 -0.08018556 -0.11500768 -0.13448954 -0.045225285 -0.2292835 0.08374104 0.0060670897 -0.13861865 -0.17735314 -0.33085066 0.1245128 0.11940403 0.035484154 -0.09661798 0.31593266 -0.20656545 0.006752543 -0.111756034 0.051417205 -0.18334892 0.065102555 0.014879492 0.30715072 0.00033653126 -0.094312966 0.043003876 0.05177568 0.16881335 0.007829119 -0.037701618 -0.42167798 -0.18197475 0.09523235 -0.31256703 -0.14293437 -0.06923184 0.27509585 -0.23197655 -0.26318595 0.109893866 0.020329768 -0.040452924 0.106357254 -0.33136627 -0.090948395 -0.19964637 -0.044997666 0.112215236 -0.09995571 -0.13786665 -0.036315374 0.1824377 0.09727745 -0.31370392 -0.024896469 0.0063931523 -0.18028648 0.03698683 -0.14172173 0.26018193 0.11260407 0.03469732 0.24298872 -0.08669513 0.17336592 0.048198592 -0.37836415 -0.42360365 0.063104995 -0.11496815 0.07754713 0.15849721 -0.07610629 0.22905134 0.18511468 -0.14227307 -0.12706879 -0.24725737 0.31320152 0.3591912 0.02383322 0.19967534
434 -0.25004697 0.1858632 0.13915059 -0.029655052 0.008831402 -0.22014311 -0.019799491 -0.27541882 -0.15069357 0.07838415 -0.003042813 -0.10533316 0.10527346 0.07959898 -0.052109066 0.20408913 0.13799825 -0.10691795 0.07270278 -0.12019795 0.11140862 -0.09753795 -0.32652268 -0.054231897 -0.35203773 0.23603085 -0.1359281 0.10416694 0.043206315 0.047129113 0.11395837 -0.14051059 -0.113247894 0.10814367 0.20292403 0.11657598 0.30285117 -0.012499654 0.027170522 0.17338164 0.069177836 0.22123471 0.06933119 0.07700921 -0.122384414 0.035351884 0.007558945 -0.13319753 -0.031840604 -0.099921905 -0.18103777 0.12884632 0.16587633 -0.15050058 0.023348546 -0.21371254 -0.11313216 0.17136577 0.057366017 -0.092153385 0.12288396 -0.13988069 0.00642468 -0.094467 0.015474959 -0.018743733 0.02862728 0.13588236 0.3165123 -0.018794397 -0.38107514 0.038093146 0.16401616 0.01311991 0.0022203121 0.026108215 -0.02138402 -0.23322324 -0.035183925 -0.19596535 0.14353034 0.013485511 0.33510658 -0.2124384 0.054333042 0.2916675 0.065025896 -0.19951417 -0.06573319 -0.32862255 -0.12708946 -0.19868113 0.1075874 0.065542966 0.07110675 -0.089076534 -0.18275636 -0.024637932 0.26621628 -0.19005117 0.077257976 -0.013518359 -0.17336702 -0.05374613 0.046846732 0.13177468 -0.22522123 -0.11936179 0.1446308 0.021807883 -0.2517625 -0.076209545 -0.03455741 -0.006674154 -0.14906213 -0.12745893 -0.2979196 -0.339578 -0.009265006 0.41677442 0.3814243 0.13266948 -0.012263967 -0.062856756 0.098970026 0.17661019 0.025611129 0.186004
5 0.025410425 -0.38495082 0.27667233 0.017599417 -0.17274553 0.19848742 0.18426377 0.12496682 -0.40589264 -0.22147566 0.12845796 0.23914778 -0.26140878 -0.03996762 -0.029875593 0.37649906 0.107942894 0.08080021 -0.09353893 0.1595177 -0.5971205 0.37827292 -0.5173396 0.37135968 0.22632645 -0.23454872 -0.40823314 0.0252695 -0.19287173 -0.07177485 -0.18226993 -0.022094853 0.029955853 0.008078452 -0.34850252 -0.28123364 0.062299483 0.4626178 0.24302462 0.7140302 0.28142458 0.25680545 -0.018115094 -0.73404205 0.5594871 0.030103846 -0.5839376 -0.14321864 -0.25674456 -0.13321531 -0.16342306 0.2527519 -0.17392297 0.07314624 0.09886206 0.05148797 0.512189 0.36948133 -0.28667474 0.42931128 -0.0049789776 0.14159034 -0.37333146 0.22343102 0.4186422 -0.14926274 0.23038492 -0.23808622 -0.12170819 0.5143169 0.17080903 0.12576626 0.37541667 -0.20227702 0.24694619 -0.23023644 -0.22683965 0.026937036 -0.59619266 0.26838788 -0.45522082 -0.28041503 0.23664457 0.17105323 -0.20002598 0.31473067 -0.0063513033 -0.36781913 -0.068699196 0.061797325 0.21913303 -0.14817396 0.068238 0.44903904 -0.60891366 0.46584898 -0.11769546 -0.410548 0.64280564 -0.08097634 -0.093406625 0.27272972 0.15579258 0.40703526 0.41045263 -0.48901764 -0.119858295 0.29016668 -0.4026131 0.3394698 0.2953712 -0.5705249 0.018680982 0.36639485 0.042543944 0.078237124 -0.22277601 0.032711253 -0.19457054 -0.24702525 0.77038926 -0.57871205 0.42765087 0.08156469 -0.38110644 0.08186288 0.011745326 -0.07513312
3939 -0.063082375 -0.033428397 0.16296437 0.17578174 0.0006562817 0.10282546 0.14726047 -0.11279331 -0.026461354 0.08417863 -0.22108586 -0.07783157 -0.09393604 -0.047253426 -0.02884072 0.12903993 0.017108241 0.09075546 0.075798735 -0.12650649 0.009926065 -0.28814578 -0.11561914 -0.2863174 0.17123799 0.05555751 -0.17457534 0.32560366 0.06411104 -0.36069736 0.3697154 -0.1071983 0.21642421 -0.015184324 0.15307353 -0.14681403 -0.08540688 -0.2168359 -0.08089039 0.21346715 -0.012245433 0.13703758 0.0008059066 0.028182285 -0.30650508 0.09041241 0.12164181 -0.25158212 -0.07824916 -0.21774727 -0.12422466 0.12784445 -0.29255068 0.09339167 0.090090565 -0.12955703 -0.095416546 0.1510007 -0.15113434 0.0114149125 0.226845 -0.38828894 0.21010308 -0.14327644 0.33456907 0.1633066 0.051005404 0.16884857 0.06387306 0.1290364 -0.26588893 0.03984946 0.00084197125 0.15182811 -0.04038325 0.035197705 -0.008270277 -0.041533574 -0.22237118 -0.42346913 -0.15629171 0.024495874 0.07497353 0.01141141 0.042177357 0.20019719 0.26310945 -0.1270096 -0.13644075 -0.21050677 0.033273526 -0.1963539 -0.03875825 -0.088758454 -0.1315456 -0.3348391 -0.0018429218 0.2570632 0.1470081 -0.17591456 0.2673169 0.027296243 -0.07220382 -0.13932021 -0.1445392 0.17795838 -0.09139374 -0.06892721 0.1481504 -0.14404933 -0.16622245 -0.1195936 -0.2201298 -0.16532302 -0.095214576 -0.017991327 -0.01620668 -0.1763768 0.039851855 -0.050363995 0.30877066 -0.17573227 -0.24780732 0.063197374 0.08586959 0.17207362 0.019070249 0.28429526
3348 -0.030013788 0.114260845 0.015962696 -0.087467924 -0.11765621 0.18292163 0.23837455 -0.17157726 0.15430807 0.5279437 -0.29271513 -0.106805794 -0.07977791 0.042775832 -0.23678309 0.28937715 -0.054539222 -0.060964216 0.04506736 0.06926937 -0.054569416 -0.07922205 -0.20628306 -0.32059363 -0.014376176 -0.04579378 -0.12108614 0.08883954 -0.020981949 -0.38390538 0.15102102 -0.1252898 0.17016062 0.16495803 0.08913681 -0.0025131176 0.19133635 -0.06006848 -0.17849913 0.2601617 -0.1206016 0.16290979 -0.34774643 0.043326017 -0.23099098 -0.19082056 -0.07614047 0.10990504 -0.27312115 -0.026444474 -0.26234624 -0.009727915 0.007101051 0.11821102 -0.07335473 -0.025540508 0.028436879 0.08099323 0.08608014 -0.15943362 0.27362204 -0.36112058 0.026860427 -0.14531569 0.18916701 0.17728488 -0.18038422 -0.057600573 -0.11285242 0.052538972 -0.07603331 0.15641923 0.053720012 0.14487274 0.10199623 -0.0071281316 -0.046647113 0.06095064 -0.10993624 -0.31747106 0.06589214 0.07962899 0.22089106 -0.26450565 -0.18675262 0.14935955 -0.23353477 -0.02458585 0.0011145863 -0.05662327 0.050489467 0.038030602 -0.13628745 0.06605758 -0.00097580574 -0.011457938 -0.1871299 0.07292902 0.3072669 0.0045112222 -0.011827016 -0.04827088 0.107697345 0.23933282 0.039159194 0.30139813 -0.039371144 0.02876948 0.41191384 -0.1958782 -0.19799127 0.041710757 -0.35809517 -0.27735636 -0.31093097 0.12749647 -0.050387252 -0.24817586 0.2175408 0.10076108 0.3548125 -0.1965213 -0.20917588 0.19218816 0.14113766 0.24901962 0.05329259 0.09360664
2234 -0.13075797 0.078244366 -0.035817817 -0.14989774 0.10652221 -0.13697363 -0.0995807 0.07666481 0.014478095 -0.039319415 0.0914865 -0.068867765 0.0069313897 -0.02594719 -0.20105702 0.21809904 -0.23107806 -0.09138397 0.12068715 0.056110643 -0.08898589 -0.14859204 -0.16555108 0.08905877 0.25707102 0.00039005768 0.12840983 0.32545227 0.074047476 0.0043189074 0.11863063 -0.059693873 0.021817889 0.0858428 0.11733177 0.07773611 -0.03764883 -0.05286343 0.06449127 0.31947717 -0.08945202 0.4481178 -0.12207292 0.44022542 -0.062751345 0.029112114 0.17532371 -0.0901953 -0.023366448 0.085322365 0.04583033 0.5143647 -0.0034352834 -0.050771575 0.0413228 -0.0631849 -0.07168145 0.11313279 0.22012727 -0.0451687 -0.019938402 -0.30916393 0.06258008 -0.23280391 -0.027474685 -0.078510985 0.10843132 -0.027632268 0.15189597 -0.056443155 -0.3709231 -0.06143508 0.08029604 -0.017075304 -0.07104677 -0.08049026 -0.14399776 -0.101934254 -0.25693953 -0.14831698 -0.07962342 0.18129188 0.18331222 -0.34608144 -0.4173425 0.077409066 -0.027667662 0.085226044 -0.13543701 -0.097038716 0.08409266 -0.62461096 0.0685999 -0.03628639 0.1365439 -0.21217228 -0.25240108 0.08011369 -0.22043258 -0.21193123 -0.05805031 -0.026578631 0.006404876 -0.19232371 -0.13879114 -0.0126690585 0.07897376 -0.049717896 0.22608262 -0.30749255 0.34735104 -0.08752353 -0.21349995 -0.041935425 -0.081887305 -0.0232887 -0.07156931 -0.21392155 -0.20918499 0.0894146 0.17308424 -0.33989468 -0.19128135 -0.10675073 0.1408385 -0.031522077 0.055520523 0.07304068
3782 0.16108908 0.15921503 -0.015696134 -0.21267325 0.042502202 0.040022563 0.117079474 -0.22985685 -0.03785671 0.15348427 -0.1486715 0.07698763 -0.20095147 0.05265352 -0.10926616 0.11434349 -0.17936695 -0.15471084 0.08105352 -0.143757 -0.050397065 -0.14838229 0.046533078 -0.21371593 0.15543991 -0.065309025 -0.25811976 0.15702048 -0.0463881 -0.005130796 0.0037505603 -0.2220424 0.20496021 -0.19810116 -0.04322768 -0.015416784 0.14833756 0.11862128 -0.026860788 0.28625685 -0.0806822 0.34428418 -0.17788075 -0.14320105 -0.24366009 0.091573454 0.017028213 -0.29431778 -0.042786073 0.053807806 -0.08777869 0.35610217 0.009171673 -0.3080677 -0.16668734 -0.021867264 -0.18030329 0.03750588 0.06611599 -0.006755513 0.19648112 -0.35185033 0.09701399 0.2575248 -0.2354693 -0.060036104 -0.16394438 -0.1255047 0.10997575 -0.19637612 -0.27405658 -0.121286325 0.00511664 0.021143463 -0.027381802 0.10731687 -0.33235723 -0.18905485 -0.14815013 -0.33417362 0.018789962 0.08970233 0.1683085 0.06545619 -0.08051631 0.16234547 -0.2227453 0.123371154 0.014084581 -0.26146707 -0.048539493 -0.11441999 0.17145404 -0.13046229 0.07627236 -0.011608703 -0.2708159 0.0004820811 -0.06639882 -0.08632103 0.21676148 -0.15592791 -0.122700796 0.14297524 0.11820196 0.1093531 0.027753154 0.2068919 0.039640643 -0.21954747 -0.06770285 0.26403213 -0.0985418 -0.08853436 -0.10876816 -0.0035717112 0.24440357 -0.22976924 -0.0980608 0.10643761 0.18397264 0.14003941 -0.27166247 0.14519446 -0.03253463 0.3393352 -0.03839041 0.2421645
677 0.04210629 0.00012476943 0.29206222 -0.16847374 0.17065163 0.081452094 -0.063626595 -0.080272 -0.0017480215 0.02441361 -0.20796153 -0.033604186 0.0647744 0.007834146 -0.21748923 0.14305386 0.01380249 0.21009232 0.1195497 -0.006001455 -0.006432007 -0.22563256 -0.086622715 -0.08711325 0.10718656 0.2221847 -0.046413228 0.31337824 0.097316004 -0.07979216 -0.08348159 0.09680083 0.04103501 -0.016766232 0.14787757 0.13148735 0.064437054 0.06988518 -0.04168209 0.26140404 0.007281568 0.11061869 0.005405683 0.097746246 -0.2773477 0.112410225 0.09486536 0.07730081 -0.43553445 -0.1617962 -0.04545218 0.22491081 -0.120029695 -0.22364305 -0.3278751 -0.06611387 -0.07895642 -0.0031663913 0.19949774 0.03431851 0.4007602 -0.19653559 0.026945794 -0.23835325 -0.20425859 -0.10450109 0.1476931 -0.08664558 -0.056655627 -0.0889594 -0.23012172 -0.02372237 -0.05529142 0.0011390725 -0.20712124 0.042312168 -0.03990519 -0.044179827 -0.11729319 -0.30524838 -0.26500347 0.22483937 -0.028391665 -0.034353826 -0.14601558 0.3330926 -0.01637072 0.009751651 -0.10455972 -0.25629047 -0.016658599 -0.30781323 0.16084549 0.14316796 0.16147755 0.033339247 -0.028001318 -0.108095735 -0.13224426 0.029456781 0.24218442 -0.049019545 0.16149217 0.06558074 0.1448192 0.05813373 -0.3244308 0.028602598 0.2621326 -0.14021213 -0.09652908 -0.12762888 0.23759589 -0.06471569 -0.17429127 -0.1803229 0.20265387 -0.33953524 0.06959391 0.16383448 0.304873 0.072581604 -0.11719836 0.0034916396 0.03893554 -0.10875806 0.017376332 0.03839756
97 -0.003565116 0.18294889 0.27110338 -0.053018127 0.094127074 0.109632984 -0.21202803 -0.12105369 0.010424184 0.022385893 0.16175547 0.0024749385 0.041498423 0.037107654 0.012882991 0.19523455 -0.065101996 -0.26676598 0.057355467 -0.10867808 0.04205908 -0.046007786 -0.17291917 -0.403119 -0.13175939 0.04561905 -0.21593206 0.25341797 -0.13743645 -0.20078376 0.02115657 -0.16605909 0.25581706 -0.0076650972 0.059428655 -0.0074653765 -0.049938183 -0.13901395 -0.053469505 0.2713538 0.023326583 0.100165196 0.07540356 0.18335332 -0.22290365 0.028736815 -0.17651866 -0.18755373 -0.35120022 -0.12483799 0.041272994 0.16970995 0.059091058 -0.07478597 -0.20636393 -0.122277774 0.075919494 0.017888416 0.21014443 0.086018376 -0.04013197 -0.08318459 0.14900021 -0.020141443 -0.10579293 0.00064422714 0.13592952 -0.13778268 0.16388458 -0.29132417 -0.1696859 -0.11987406 0.004054249 0.03565257 -0.009978254 0.100611 -0.059424642 -0.1850676 -0.09579335 -0.13266279 -0.08304856 0.12352972 0.084442064 -0.07924411 -0.20315386 0.2612369 0.1594375 0.0653759 -0.04104346 -0.27831388 0.028297659 -0.2495356 -0.17518501 0.002377513 -0.05399819 0.032200634 -0.07853468 0.07923385 -0.19049586 -0.16815618 -0.08045211 -0.2489953 -0.019798849 -0.0151510695 0.06374692 0.09552458 -0.01952174 -0.18276322 0.069042325 0.027698178 0.04313325 -0.12063444 -0.4321761 -0.18214215 -0.2796358 5.1789342e-05 0.024796823 -0.17953086 -0.085531875 0.13209721 0.18888983 0.09559029 -0.105509624 0.098716065 -0.13286074 0.21300098 -0.1636975 0.14242655
3838 0.119229265 -0.2292823 0.1865784 0.04590541 0.074092776 0.12997667 0.23676763 0.32015494 -0.3019595 -0.3975597 0.2764159 0.35840672 -0.11534062 0.09633371 -0.12551843 0.40254653 0.15151493 0.5084628 -0.1879429 0.19149916 -0.60436106 0.26716653 -0.89697844 0.31800333 0.3846545 -0.16134632 -0.74328923 0.01727762 -0.3037806 -0.20583862 -0.3064306 -0.120207734 -0.2122603 -0.092978105 -0.15071654 -0.4125401 0.18560176 0.12185805 0.5348904 0.43503994 0.44549838 0.20937066 -0.013708279 -0.26733214 0.536729 0.04719285 -0.43357795 -0.064821064 -0.37516847 -0.10194181 -0.019376108 0.34142557 -0.045057088 -0.09020825 0.21896495 0.1350324 0.35353038 0.18179107 0.12069088 0.4538376 -0.21017863 0.28340292 -0.27913332 0.12836264 0.447163 0.01880301 0.12328208 0.27448043 -0.33433315 0.13893975 0.4183112 -0.053385258 0.39467326 -0.1983949 0.25232005 -0.08481217 -0.43445605 -0.031249 -0.5484722 0.36586082 -0.4618517 -0.44442648 0.1200323 0.08315038 -0.2482358 -9.55228e-05 -0.05893313 -0.14619282 0.33176976 0.11458808 0.16691285 -0.30291843 0.54333043 0.29824072 -0.43970278 0.39196497 0.33933005 -0.34030104 0.3010441 -0.27245104 0.07081161 0.544466 0.10576047 0.47794923 0.3571902 -0.4386505 -0.17779435 0.14507166 -0.056542065 0.16055386 -0.04337307 -0.14379694 -0.12035293 0.18808304 0.029998142 0.017283468 -0.28208098 0.014363079 -0.23732501 -0.37074032 0.77600336 -0.3184792 0.5048369 0.10533522 -0.1727285 -0.09661782 0.19334754 0.1259596
817 0.024250552 0.1742138 0.115950376 -0.1551029 -0.13845587 0.2190521 -0.053615525 -0.1383065 0.11692426 0.07095617 -0.04860726 0.022148225 -0.18741071 0.11465404 -0.07990819 0.05564677 0.049549468 -0.25506327 0.06830353 -0.1965837 0.00971579 -0.11357984 0.08973131 -0.03477987 0.16557354 0.10821978 -0.15544254 0.12154008 -0.17286287 -0.07547567 0.18431748 -0.10575658 0.27149296 -0.13559516 0.24874471 0.2789429 -0.091892295 -0.10855953 -0.2826494 0.28348157 0.09063293 0.31887814 -0.13103892 0.10282383 -0.1634956 0.0111464355 -0.022640457 0.022770178 -0.10048243 -0.322754 -0.066898055 0.423955 -0.008528831 -0.29471135 -0.1741998 0.051004346 0.026703866 -0.13996401 0.11258454 0.16026832 0.06818118 -0.28012922 -0.015624783 0.009786571 -0.09157695 0.022135425 0.102963604 -0.1862745 0.27046442 -0.080071904 -0.16060266 0.066886395 0.0076463 -0.08198346 -0.08323082 -0.0013134521 0.10643469 -0.17203699 -0.25546107 -0.18883455 -0.11203528 -0.055566166 -0.08555443 0.10108352 -0.09343485 0.24100988 -0.2933955 0.033219103 0.10828183 -0.2260235 -0.0030087521 -0.3475946 0.18005909 0.35535315 0.2479037 0.052838847 -0.11455086 0.04686286 0.27508032 -0.04480005 0.15420648 -0.04389973 -0.024618598 0.09281768 0.058517117 0.14960058 0.1361476 -0.061574273 0.044171825 -0.20530668 -0.008234102 -0.0003975546 -0.107578784 -0.42346528 -0.0047131106 0.049916178 0.06700915 -0.21851325 0.15244691 0.41524562 0.26982406 -0.10689127 -0.21308559 0.104075015 0.07397969 0.31616318 -0.013329737 0.17991707
4449 0.025562834 0.35318625 -0.0736903 -0.05991637 0.057902236 0.14467296 0.1643285 -0.282155 0.20844579 0.06974487 -0.053932466 -0.0820358 0.08443472 0.061834905 -0.08599437 0.114516154 -0.16827953 0.04276754 0.011802145 -0.055636916 -0.11015399 -0.18108207 0.054038484 -0.110839404 0.14677794 -0.11647508 -0.050427895 0.193577 -0.011136494 -0.073171936 0.21775523 0.056356102 0.3000255 -0.15269206 -0.020298097 0.16059765 0.025295189 -0.19831711 -0.26500213 0.13123107 0.21423098 0.32953328 0.039443165 -0.054006323 -0.3629709 0.07439924 -0.08509286 -0.013765976 0.045518614 0.07569709 -0.16327317 0.36191565 0.09200673 0.038761538 -0.11487818 0.010941199 0.01177191 0.17313756 0.14780717 0.06926481 0.0099027 -0.27339572 -0.020972602 -0.268122 -0.034200616 0.027430013 0.054567326 -0.22029582 0.21203971 -0.32322243 -0.06532179 -0.02347712 0.15293607 -0.088883266 -0.11891683 -0.124666825 -0.11010972 0.04327481 -0.14008634 -0.4641645 0.090067185 -0.15176262 0.11073118 0.08406966 -0.20255606 0.22865444 -0.024155281 -0.19235422 -0.07993255 -0.29049334 0.2232857 -0.059855077 0.3389752 0.18200605 -0.07630766 -0.15778206 -0.04862807 0.10571788 0.07499028 -0.19674788 -0.075128116 0.11815821 -0.07280193 -0.10940163 -0.08273574 0.04755002 -0.25653762 0.23594058 0.22303738 -0.34628662 -0.080466285 -0.16273497 -0.075094506 -0.32919216 -0.21700035 0.24023807 -0.11551339 0.014530189 0.029829195 0.18804908 0.36586216 -0.23922265 -0.21392255 0.02377538 0.28650442 0.26165354 0.09028562 0.33216292
2333 -0.2761723 -0.005876796 0.011062977 -0.04962285 -0.09731748 -0.0028399085 -0.15448879 -0.1810012 0.12280279 0.17337982 -0.22759438 0.17424962 -0.15461817 0.16545029 0.009754049 0.29600182 0.06976425 -0.01718662 0.18929686 -0.06539142 -0.051188633 -0.11311472 -0.28619835 -0.104734145 -0.115087 0.34716728 -0.3098749 0.15226746 -0.13092312 0.044116188 -0.18585369 0.0681333 -0.14037567 0.11834352 0.034191154 0.24505736 0.11516368 0.077684015 0.0037361616 0.04070552 -0.027902318 0.2878527 0.18233337 -0.1296573 -0.29098305 0.06839296 -0.16906469 -0.17990604 -0.014006635 -0.14511015 0.08348683 0.18720815 0.20036653 -0.09077535 0.034456734 -0.12519756 -0.08928273 0.039781958 0.025909107 -0.11767758 0.37358555 -0.14179082 -0.124200195 -0.3376626 0.4221931 -0.043234155 -0.052800648 0.22418076 0.20219237 -0.08978125 -0.4376142 0.19424643 -0.1114345 0.110304795 0.14662318 -0.0447696 -0.15863742 -0.2745045 -0.073417135 -0.21271597 0.046825662 -0.04624277 0.11310446 0.0069757914 -0.019069936 0.007855876 0.16929884 -0.16520904 0.05177001 -0.31814787 -0.027109988 -0.17764187 0.2938964 0.25975683 0.12370761 -0.12221702 -0.31520656 -0.24621804 0.03687393 -0.10382164 -0.033564676 -0.118345276 -0.08555596 -0.24780244 -0.13046944 0.23647122 -0.16620521 -0.026190987 0.31436697 -0.11212838 -0.02750207 0.07154797 -0.13697785 -0.254643 -0.019175129 0.12209581 -0.20367782 -0.1884117 -0.08107326 0.3306503 0.27800533 0.1768199 -0.05430704 0.075327694 0.21665172 0.17157489 -0.14536572 0.1329746
1424 0.016706206 0.12178499 0.117729925 0.048635356 0.0015592179 0.04847944 0.09751342 -0.25451297 0.10587275 -0.09500507 -0.1874465 -0.17870462 0.17175147 -0.052283026 -0.14282134 0.17555705 -0.31179288 -0.13774112 -0.30497095 -0.11183085 -0.14351736 -0.26186517 -0.040810406 -0.1329157 0.013685117 -0.09107539 -0.0949196 0.18837756 0.017015686 -0.29202014 -0.014530722 0.068695836 0.06831039 -0.3018847 0.30892858 -0.11514369 0.13418378 -0.010155571 -0.13240471 0.22651052 -0.23684295 0.1693149 0.22625683 0.2752991 -0.08840968 0.06756791 0.04451346 -0.2882189 0.15405534 -0.04529145 -0.014650688 0.40296495 -0.0013113215 -0.077805035 -0.0022739016 0.04436062 -0.009583209 -0.030619849 -0.12672059 -0.06129189 0.12061777 -0.32171798 0.30304235 -0.285345 0.023840794 -0.17332 0.061028454 0.0052302247 0.08282752 -0.13544935 -0.112495854 0.1379978 0.005654035 -0.0537093 -0.21591443 -0.07881588 -0.18737626 -0.22776882 0.06156784 -0.40761435 0.12448766 0.26166517 0.09015106 0.009612343 -0.3416501 -0.06213197 0.08477519 -0.071073405 -0.07069088 -0.18154414 -0.025376925 -0.39206624 0.27894595 -0.03770113 0.035351947 -0.14422856 -0.15831573 0.036494378 0.354354 -0.06671554 0.12845361 0.008489845 -0.2092354 0.07442598 -0.12440478 0.1340423 -0.06774153 0.06560788 0.16039053 -0.35113558 0.21933626 0.09926114 -0.24083672 0.036078874 -0.025854306 -0.117653005 -0.15881082 -0.10784885 0.02816745 0.14250675 0.2975432 -0.038245756 -0.10033345 0.026404517 -0.21826346 0.10030866 -0.110242195 -0.0075170835
1494 0.082778744 -0.32279646 0.5045463 -0.22538066 -0.20135173 -0.020189198 0.1972258 0.21545254 -0.2874281 -0.34225923 0.26974007 -0.10329951 -0.38783512 -0.19391616 -0.12599319 -0.006885825 -0.22203085 -0.21896662 0.17964269 0.36599207 -0.45665544 0.3349559 -0.6429626 0.5623059 0.15083148 -0.08540534 -0.39907375 -0.4203859 0.046608485 -0.18331133 -0.0929934 0.00028645634 -0.002482128 0.061032005 0.16601858 -0.639415 0.22649632 0.19214018 0.60947514 0.7511314 0.31884706 -0.039845664 -0.08048979 -0.46469635 0.35367647 -0.1312969 -0.40404466 -0.11414181 -0.25948367 -0.07456187 0.019427175 0.25127065 -0.102688335 0.27662653 0.3119009 -0.11065581 0.46971676 0.4423242 -0.28986663 0.35162082 0.15669107 0.08099489 -0.28863108 -0.0024451711 0.3107473 -0.19599143 0.48327222 -0.15812 -0.5168559 0.021659095 -0.11423556 0.151635 0.062626585 0.021218944 0.08547549 -0.17933163 -0.15131754 -0.04579737 -0.5451465 0.042913143 -0.19214767 -0.40449092 0.23291709 0.3696659 -0.15844375 -0.17731352 -0.09702469 0.014235068 -0.25069004 0.073466204 0.4702542 -0.25092542 -0.06634393 0.6148547 -0.64471817 0.2659971 -0.064007804 -0.5028886 0.5788724 -0.5219027 -0.19285068 0.30582467 0.060054414 0.55352646 0.47993425 -0.34571785 -0.12012538 0.6496217 -0.59735024 0.31317946 0.14540708 -0.34860232 0.10263348 0.5987619 -0.13460074 0.23991089 -0.30181614 -0.2280614 -0.14398347 -0.12332618 0.35095966 -0.34632862 0.53531027 0.38778105 -0.30396453 0.11048968 0.20242038 -0.18977235
3051 0.3255283 0.228305 0.12398714 0.15646666 0.12058495 0.30034012 0.29856378 -0.16325723 -0.02551851 0.24414073 -0.111853935 -0.056047954 -0.012642056 0.12155261 -0.033467434 -0.11086376 -0.15343298 -0.07824833 0.2631407 0.20274588 -0.06913598 0.08840242 -0.29193172 -0.21506937 -0.03133769 0.013186118 -0.09800378 0.5604042 -0.012298009 -0.27112612 0.36273316 0.06255468 0.09007115 -0.07016589 0.04533873 0.10479513 -0.42393994 0.046229012 0.122876845 0.15583815 -0.0062855463 0.36145088 -0.13618234 0.13406788 -0.28051165 0.13346426 0.20305759 0.045273602 -0.32746413 -0.12346613 0.12518786 0.30729008 -0.17126498 0.025215266 -0.0075628376 -0.10410129 -0.08643886 0.19464648 -0.061117034 0.102737255 0.2281288 -0.15229939 0.2162886 -0.17110358 0.15257479 0.19194148 -0.11132612 0.008916318 0.06740052 -0.10887932 -0.19014613 0.29666343 0.036994375 0.18317726 -0.18389608 0.18605036 -0.10070145 -0.1500365 -0.13220647 -0.09744295 -0.08223612 0.17496401 0.30999035 -0.1946962 -0.25252 -0.03155142 0.03688164 0.014871592 -0.23726445 -0.10323412 0.038111337 -0.16031249 0.17240392 0.20511454 0.05841781 -0.29127616 0.14229052 -0.1141861 0.15496078 0.013333357 -0.031796932 0.05261416 -0.2838913 -0.05293489 0.103762075 -0.010483271 0.29532692 -0.427342 -0.08132429 -0.2144732 -0.1407263 0.06473905 -0.23578553 -0.2877589 0.29271162 0.074740894 0.07605604 -0.26501384 0.09815165 -0.057494562 0.17853507 -0.19282715 -0.041737456 0.36140907 0.23260076 0.41389716 -0.16831344 0.19593044
2730 0.21071807 -0.005372334 0.16978507 -0.029825786 0.077493295 0.28425074 0.051201586 -0.2148557 -0.013856561 0.13855815 -0.16656032 -0.024182055 0.05446975 0.21353851 -0.20007238 0.10086316 0.007383128 0.1293167 0.03250553 -0.22760755 -0.12241031 0.048664898 -0.13493775 -0.07068568 -0.12539515 -0.066883534 0.010882486 0.11409342 -0.1038862 -0.16669649 -0.035044882 0.085932076 0.19485469 -0.03395879 0.20185047 0.29555884 -0.08793937 -0.098217815 0.100390255 0.27084398 0.018732458 0.45903748 -0.2148656 0.106689684 -0.476649 -0.005423744 0.11241861 0.1032652 -0.2966651 -0.033657443 -0.05737565 0.21522199 0.016076967 -0.033888154 0.14262162 -0.07045696 -0.14874674 0.15478288 0.10694233 0.032965533 0.24121925 -0.46198738 -0.026785798 -0.0072661005 0.14867924 -0.22859517 0.11060956 -0.031739686 0.030792903 -0.11978374 -0.267305 -0.079482675 0.17231706 0.09529813 0.06326969 0.013197771 -0.15648142 -0.40031028 0.056516718 -0.25098288 -0.021736728 0.17417195 0.05682079 -0.18534146 -0.07506937 0.24666779 0.08107164 -0.038047902 0.18345934 -0.25190374 -0.012348004 -0.16869897 0.14311555 0.060852766 0.15588073 0.020632066 -0.08709515 0.19335176 0.061394744 -0.062424194 0.22242871 -0.08158574 0.02727688 -0.067219205 -0.11239724 0.035275977 0.06843859 0.023044806 -0.029125173 -0.15499873 0.052448127 0.22399247 -0.054086007 0.08844605 -0.09366913 -0.088256545 0.14428663 -0.15053944 0.047190804 0.15779936 0.10880538 -0.019541174 0.018252276 -0.13164842 -0.104568094 0.23355062 0.043969966 0.30939382
2113 -0.2641196 0.12152388 -0.049547352 -0.16730334 0.19790113 0.014136182 0.15873 0.0041882554 -0.08151194 0.32129163 -0.04887448 -0.0857851 -0.034570206 -0.08532371 -0.324406 0.35428643 -0.03573047 0.079197735 -0.06431182 -0.12754172 -0.17783767 0.019471766 -0.14503765 -0.16152063 0.07057241 -0.039114513 -0.09949326 0.112059146 0.058860183 -0.37839517 0.175892 0.08408002 -0.028747965 0.01687838 0.10427609 -0.063823275 0.16402265 -0.068532765 -0.16682158 0.13977064 -0.037686676 0.21911156 0.023704482 0.17813039 -0.20463209 -0.028106268 0.071287245 -0.25163218 0.05560536 -0.09788234 -0.26941183 0.2546632 0.012600585 0.040874224 0.07352665 -0.1005107 0.008565843 -0.007416227 0.046433143 0.093683966 0.34495488 -0.4643705 0.20939887 -0.33008412 0.0981028 0.039477482 0.12044654 -0.06450138 0.1324017 -0.041348577 -0.19095442 0.082229465 0.21936008 -0.10474458 0.1530566 0.023169225 -0.2546287 -0.06641215 -0.10764133 -0.17230134 0.31622878 -0.029473037 -0.1321741 0.17841983 -0.094637014 0.2613636 0.096686944 -0.04349034 -0.20578182 -0.16152453 0.16246122 -0.43346968 0.0063047935 -0.040340412 -0.002605407 -0.23496133 0.027560133 0.07009148 0.09879253 -0.3881071 0.06282007 0.12152671 -0.17585237 -0.18459839 -0.28978512 0.28508818 0.017810028 -0.002588895 0.2257699 -0.22098571 0.12700628 0.002798681 -0.27158368 -0.39390802 0.013358773 -0.20454894 -0.053180575 -0.23939455 -0.07341518 0.0049246876 0.17464253 0.098778956 -0.13629423 0.16465919 0.15461309 0.23327954 0.07468553 0.30259803
1897 0.16924722 -0.027539855 -0.001706635 0.059969958 -0.1528975 0.18519345 0.032578476 -0.3522746 0.0048721624 0.10779459 -0.36621466 -0.060136843 0.06318515 0.0698328 -0.14177053 0.16064548 -0.12574166 0.18434012 -0.10692347 0.009487643 0.16329296 -0.16438535 -0.059281338 -0.12518522 -0.1080884 -0.10582242 -0.14143935 0.18127489 -0.15834595 -0.41183266 -0.028642664 0.0022106192 0.15336819 0.32921508 0.29478785 -0.05726217 -0.2704713 -0.2650804 -0.17823854 0.26054165 -0.10627359 0.23486371 0.06366825 0.22041044 -0.36909845 0.023131585 0.078221716 -0.038430423 -0.24800016 0.12751292 -0.2633515 0.32987043 -0.33849958 -0.0024554774 -0.115768485 -0.14038646 0.16122289 0.17017671 -0.23183927 -0.015024145 0.40281293 -0.10000977 -0.031568713 -0.113260455 0.07205151 0.061139796 -0.011331994 -0.17079642 0.16458954 0.1324309 0.063019834 -0.16526802 0.0737582 0.16968063 -0.19592036 0.3090813 -0.184188 -0.37596658 -0.027275203 -0.22472404 0.032717835 0.13723971 0.0482474 -0.0083886385 0.013300513 0.18378022 -0.004970974 -0.18580008 -0.2416455 -0.24092983 -0.016531993 -0.2459603 -0.09303563 0.039480288 0.061963443 0.11504766 -0.16685554 -0.14464794 -0.006669792 0.03440121 -0.04763016 0.07523424 0.24145561 -0.12471806 0.072485335 0.16621703 -0.14384617 0.0393682 0.10107731 0.08022459 0.15908624 0.098468535 -0.062979296 -0.13638835 -0.09271027 -0.040809054 -0.046711054 -0.22227377 -0.112158634 0.084906735 0.1923527 -0.061930366 0.049449556 0.23703662 0.17276293 0.23842579 0.1892362 0.20324133
650 0.14646992 0.08509595 0.05790605 0.25935146 0.048811104 0.1384946 0.15528776 0.12529483 0.04701453 0.068272516 -0.05844676 -0.09170621 0.020286096 -0.049688417 -0.31905526 0.26204532 -0.10007974 0.10169531 -0.16024694 -0.05601592 0.10355312 -0.09000642 -0.19179432 -0.23689994 -0.0552899 -0.1486565 -0.33604884 0.19787481 0.17718768 -0.14789018 0.18142362 -0.22645277 0.2245861 -0.12047495 0.18041478 -0.029742679 0.051333725 -0.13076746 -0.1421517 0.34687576 -0.11793701 0.0411414 -0.26687232 0.15624836 -0.35623696 0.16114758 -0.009312266 -0.16616906 -0.30962825 -0.43893543 -0.41249198 0.08824123 -0.2624807 -0.09084227 -0.10904819 -0.09491527 -0.13369104 0.02756857 0.21785522 -0.08403125 0.17672871 -0.35997143 -0.05991219 -0.014790933 0.026807448 -0.22883475 -0.1746533 0.033954117 0.35612527 -0.004695569 -0.013776128 -0.2639912 0.05567277 0.16414934 -0.045275778 0.14153042 -0.010208898 -0.27720222 -0.24732019 -0.26902798 -0.029207548 -0.04470971 0.08830594 -0.035571706 -0.06019146 0.25201124 0.085368 0.0026680212 -0.40610462 -0.25650588 0.06936727 -0.20795222 0.12566574 -0.04434431 -0.01772284 0.05365687 -0.13675697 0.0069931317 0.051319886 -0.0726367 0.023738094 -0.07201301 -0.1960435 0.1261808 -0.18000627 0.2570803 -0.07610614 0.28483334 0.0036909832 -0.14870341 -0.20028655 0.1022387 -0.037610408 -0.111994885 0.09987743 -0.19478893 0.023475176 -0.14323865 0.07729972 0.15368928 0.15564205 -0.08319295 -0.11596834 -0.05770123 0.07479517 0.3070144 -0.1489289 0.30729204
1175 0.047772605 0.14031142 0.05817729 -0.2491879 -0.049263097 0.028644027 0.059484452 -0.28501534 -0.10044261 0.07796039 -0.06506026 -0.35856655 -0.09817104 0.12748396 -0.054437432 0.07077684 0.17648476 0.015033723 0.10320073 0.16213565 0.0025025199 -0.2752076 -0.3736081 -0.079457015 0.065704994 -0.049288247 -0.13609645 0.2410961 0.1777482 -0.04348547 0.123416774 -0.034950275 0.047329806 0.28942463 0.19644283 0.04781536 0.34507897 -0.109806225 -0.16616802 0.46577203 -0.20255627 0.32219273 0.20943081 0.21421167 0.008538355 0.11538332 -0.12954271 -0.23024195 -0.31766725 0.46298614 -0.19810697 0.33073786 0.044393305 -0.2016049 0.027692946 -0.13235793 0.0401444 0.15262292 0.14172326 -0.12439076 0.059317395 -0.19915293 0.070928976 -0.07848375 0.10465828 -0.17378946 0.066432126 -0.15039223 0.105080344 -0.10148042 -0.46950606 -0.17340097 0.012538417 0.10026354 -0.228083 -0.15137796 -0.18525201 0.14237463 0.14599644 -0.20690754 -0.042607754 0.28265813 0.05849728 -0.009803523 -0.07006581 0.08952068 -0.031060958 -0.090349324 -0.1078983 -0.2497413 0.010454141 -0.09510258 0.012014456 0.21348532 0.11013323 0.16736169 0.07704435 0.2154398 -0.1329816 0.0042906203 -0.15582536 -0.22346656 0.14755446 -0.12327951 -0.00053390826 0.14966942 -0.046218812 -0.21718891 0.042160377 -0.046299193 0.0969416 -0.13898097 -0.11140187 -0.23467954 0.048752934 0.07603013 0.15606667 -0.25564495 -0.03383781 0.009143383 0.18793157 -0.1873023 0.085308105 -0.12759706 0.10774631 0.061336022 -0.07064998 0.27836883
2216 0.18227923 -0.035133168 0.0712922 -0.026704805 0.109531075 0.13023624 -0.12240664 -0.10441934 0.08456818 0.42342198 -0.22685239 -0.067677796 -0.10660825 -0.083012976 -0.09905182 -0.018558532 -0.09636854 0.14382215 0.00056809874 -0.06428093 0.095217444 -0.040310316 -0.060457382 -0.24299857 0.07007973 0.14193484 -0.2728572 0.31073934 -0.04433683 -0.06600587 -0.006749884 -0.081890516 0.17234096 -0.13966927 0.21867803 0.037227932 -0.1378149 -0.18094578 0.023475597 0.44634476 -0.05624944 0.15271135 -0.15907177 0.093295425 0.058697324 0.042741865 -0.07182515 -0.008792805 -0.24071535 -0.05453398 -0.2298166 0.044160593 0.15796596 -0.082554415 -0.06390063 -0.22126964 0.03965059 -0.28530392 0.18389618 0.07561275 0.16994233 -0.19264762 -0.09380929 -0.21759866 0.12672797 -0.16067354 0.23002352 -0.034670103 0.027428167 -0.11422585 -0.24793044 -0.027332589 0.26084977 -0.04633173 -0.21664494 -0.08138254 -0.2594102 -0.33192196 0.027145807 -0.26469848 0.15105438 0.28521854 -0.082130775 -0.32810348 -0.09035033 0.33284315 -0.039543614 0.028247656 -0.063968204 -0.16759008 0.0077932174 -0.16478312 0.20400971 0.17278717 0.2782199 0.120344885 -0.0015467695 0.03168192 -0.21771938 0.0772463 0.25318122 0.052453633 0.045023423 0.12663159 0.07928992 0.1389187 -0.17069085 -0.0369932 0.11110148 0.1634787 -0.07903615 0.008211624 0.154036 -0.16177592 0.018334718 -0.14161067 0.14753518 -0.29185247 -0.19937184 0.41218114 0.32103488 -0.10088238 -0.109483376 0.0047508213 -0.041697916 0.17286633 0.030651415 0.36356708
5306 0.08942706 -0.12677169 0.12062367 -0.14049959 -0.08755717 0.19896643 -0.24422455 -0.06969272 -0.001576277 -0.03755764 -0.15126985 -0.1596204 -0.052147392 -0.17408729 -0.16759999 0.14554694 -0.15195876 -0.05564993 -0.115615495 0.15490724 -0.060903896 -0.2150218 -0.31567645 -0.07282452 -0.04711167 0.17906284 0.05709413 0.35076016 0.060904734 -0.124229774 0.017984074 0.0022713244 0.25287965 -0.07098933 0.22595386 0.087146625 0.13133068 0.08448871 0.07313182 0.13935262 -0.33502537 0.224716 0.087284885 0.13970606 -0.29383785 0.2089482 -0.055883713 0.029565478 -0.20003286 -0.07644816 -0.14434381 0.13395989 0.04342601 -0.10716216 0.120034374 0.049544208 0.042518556 -0.041127827 0.19156052 -0.12718742 0.33447307 -0.40726566 0.052978825 -0.024501782 0.022656659 0.06337919 0.059273973 0.06369875 0.16591765 -0.030998925 -0.2619166 0.012476307 -0.06798148 -0.1631383 -0.37107423 0.18499313 -0.3991242 -0.06401945 0.20253941 -0.35590893 0.068348415 -0.018389799 0.12038136 -0.10315592 -0.4310711 -0.015185605 0.07760859 -0.35187343 -0.08704027 -0.27431336 -0.1262375 -0.16319552 -0.120173156 -0.025457531 -0.11778538 0.020094162 0.009136749 0.09860463 0.22607784 0.016756075 -0.15252185 0.26255107 -0.00024286917 0.20179135 -0.08040556 0.018131543 -0.1565303 -0.015152237 0.22604086 -0.17800725 -0.107725106 0.08191271 0.053602464 -0.16865402 -0.019109622 0.07445475 -0.05502831 -0.322669 -0.0039958246 0.13977933 0.035063434 -0.014715921 0.032746945 0.13561049 -0.106478006 0.2743803 -0.10254178 0.1402987
586 0.12435715 0.24534719 0.06569701 -0.11686743 -0.093219936 0.30101538 -0.10341175 -0.22545035 -0.0085042445 0.03152447 0.072264925 -0.07767969 -0.04892463 -0.07421651 -0.09724397 0.11810838 -0.14761159 -0.117941745 -0.30644614 0.14984275 0.0014259361 -0.31638104 -0.13042635 -0.083704695 0.028549513 -0.052921925 -0.13425079 0.22448947 0.21221325 0.03649663 0.020349175 -0.20926481 0.1998258 0.091196716 0.110319875 -0.05105047 -0.09007425 -0.04641569 0.033569418 0.3425183 -0.11931937 0.15709934 0.078917965 0.069848366 -0.08759227 0.025226537 -0.043190807 -0.14440951 0.017615434 -0.116159394 -0.0015164885 0.39519498 -0.18473993 0.13759369 -0.040265094 0.008452308 0.059949923 -0.14960305 -0.073596545 -0.107435055 0.27919436 -0.365641 0.023645798 -0.20289189 0.09190146 -0.03675653 -0.039045516 -0.02413801 0.044531982 -0.17307453 -0.41104126 0.04520998 -0.063181795 0.027566489 -0.3461937 0.056575652 -0.0994684 -0.041525602 0.14250578 0.08981432 0.026667988 0.3066901 0.3119976 -0.13540483 -0.16386954 0.15324306 0.08236507 -0.23121789 -0.063966565 -0.1619259 0.16750328 -0.49566165 0.13064447 -0.018468905 0.15760362 -0.04937858 0.014104706 0.1029742 -0.0010671931 0.12509748 0.018520983 0.07331978 -0.15079516 0.08931326 -0.037134554 0.31724548 -0.21085301 0.1751315 0.2526718 -0.12279876 0.06548664 0.2212506 -0.06867609 0.12015125 0.08617721 0.082302324 -0.015284592 -0.14865154 -0.15321177 0.22306643 0.26862213 0.18080713 -0.2176341 -0.29621777 -0.3308226 0.30718234 -0.25130835 0.112456635
3030 0.009643966 0.02404003 0.12256987 -0.29062203 -0.07343002 -0.081516795 -0.094210155 -0.21372545 0.26534906 0.16269732 0.1352159 0.19413416 0.20206188 0.052332554 -0.19307578 0.066845305 -0.15366943 0.0047935694 -0.038461577 -0.017899662 -0.055091776 -0.2839125 -0.44282046 -0.17513679 0.016032644 0.20537475 -0.0068463227 0.32585368 -0.21005543 -0.091393225 -0.111126 0.0495769 0.3352233 0.12959483 0.11777699 -0.12528236 0.005155102 0.08884309 -0.17232232 0.16576585 -0.40962797 0.08438376 0.027206855 -0.037184905 -0.06445271 0.18601394 0.15114073 -0.34662983 0.0011735583 0.05238496 0.034338333 0.43223083 -0.06563104 0.22296514 -0.04755688 -0.11370649 -0.026484253 0.13977148 -0.0044738166 0.12595849 0.19998893 -0.2535341 0.113556646 -0.13353224 0.12474996 0.069671236 -0.039584972 -0.017956072 0.17460403 -0.09633267 -0.26739585 -0.16243291 -0.15210699 -0.36036193 -0.10234146 0.01378448 -0.066186994 -0.046534844 -0.014449155 -0.18072906 -0.017977497 0.09618051 0.06590029 -0.019928418 -0.27977833 0.002127502 0.1735231 -0.46051016 0.18671985 -0.36655053 -0.2138564 -0.36713365 0.041232165 -0.054030377 0.16456364 -0.030853914 0.0007600416 -0.018694893 0.29868484 -0.04005755 -0.14705193 0.23622796 -0.09371881 0.21811321 -0.019522902 0.04825715 -0.14204536 -0.14234075 0.17518856 -0.12441279 -0.04431437 0.008933281 0.027406635 0.03410584 -0.034738414 -0.21772286 0.19323401 -0.42494643 -0.019435698 0.06334297 -0.013777889 0.0634473 -0.2882931 -0.024385884 -0.15129866 0.11006376 -0.23072813 -0.04667634
3292 -0.104814634 0.15076669 0.036201205 -0.26844227 0.38330132 -0.06795021 -0.033614337 -0.24316376 0.08897152 0.41950014 -0.0070337793 0.24442744 0.013130199 0.074591264 -0.26213536 0.103675686 -0.0020971748 0.06398211 0.11877161 -0.21443503 -0.09424415 -0.081754155 -0.21818107 0.08579584 0.010472292 0.13857624 -0.0005760542 0.22907756 0.0498249 -0.31164476 -0.17887959 0.26291874 0.12070636 0.27234465 0.18366663 0.1364812 0.11940441 0.019716617 -0.22028415 0.048101995 -0.18269971 0.31594127 -0.14995979 -0.038498353 -0.19470574 -0.10566791 0.21398054 -0.21337172 -0.10455579 0.027002377 -0.09486558 0.14505969 -0.040946737 -0.030555464 -0.22377965 0.0792318 0.037388403 0.025966516 0.013984638 0.05562201 0.10984444 -0.18201306 -0.0031411427 -0.026494442 0.115123495 0.015238129 0.2615661 -0.06163608 0.35336336 -0.16204005 -0.33708388 0.1366751 0.17560819 0.3763614 -0.24748749 -0.09014529 -0.26110756 0.011549085 -0.1711412 -0.46043387 0.018548906 0.18754971 -0.024214942 -0.19976372 -0.2520363 0.08462977 -0.08411658 -0.12883773 -0.13223101 -0.37416282 -0.05429835 -0.33166048 0.029516065 0.21406548 0.009531737 0.13970819 0.22761178 -0.015734846 -0.2920769 0.07390945 0.1905738 -0.02524434 0.02808184 -0.025402669 0.06673196 0.3179386 -0.22272629 -0.087205365 0.1524407 -0.056853056 0.055097267 0.07346158 -0.058378708 -0.015569158 -0.15108395 0.20963547 -0.014614009 -0.0065872376 -0.095295355 0.108653 0.10176729 -0.054243308 0.015005824 -0.035185605 -0.14672668 0.35096928 0.10588439 0.1808482
1198 0.09958972 -0.1351973 0.4615821 -0.068873644 0.07706911 -0.08935049 0.012927401 0.061325636 -0.11316089 -0.30031335 0.47473288 0.025228202 -0.49714917 -0.042833477 -0.35621044 0.15890007 0.054094013 0.23263104 0.051907808 0.46847174 -0.5647241 0.37811914 -0.6142423 0.5018218 0.026153002 -0.18279552 -0.6309737 -0.11723586 0.10194072 -0.55511475 -0.08640026 0.29867962 -0.21625958 0.23106575 -0.05035109 -0.54159164 0.055624235 0.00589865 0.86578166 0.5315415 0.2597445 -0.18269609 -0.18717018 -0.52633715 0.11090131 -0.17012799 -0.6258266 -0.16650441 -0.09054944 -0.004247428 -0.1413991 0.49967203 -0.16206948 -0.039957266 0.12703893 0.08400247 0.68273896 0.2915698 -0.2605316 0.6202959 0.0026867066 0.20812857 -0.15700094 -0.1640952 0.033530097 -0.12675048 0.21025977 0.025476143 -0.24888556 -0.05621772 0.24351141 -0.10286149 0.16024818 -0.026904296 0.17984222 -0.2191079 -0.15468848 -0.239812 -0.44436705 0.2597466 -0.26734596 -0.44408926 0.1185382 0.6176532 -0.26929113 -0.3709013 -0.21953382 -0.18579331 0.16280426 -0.13314687 0.16012432 -0.16923416 0.18642543 0.42947453 -0.3135969 0.24979733 0.43842378 -0.24024083 0.5833138 -0.4847769 0.02341358 0.10037551 -0.08109633 0.267382 0.3923137 -0.3738676 0.039350364 0.42736372 -0.37713477 -0.14602503 0.06432856 -0.38534054 -0.11214467 0.25289825 -0.006858141 0.25195625 -0.33852184 0.25667933 -0.16977355 -0.56043017 0.48208165 -0.3306009 0.4443403 0.15889715 -0.33747163 -0.03406822 -0.055603366 0.13474812
1448 -0.10292114 0.024965893 -0.11775342 -0.13012165 0.0005495755 0.0076906914 0.015080668 -0.2538582 0.024529075 0.007149693 -0.0960549 -0.027460666 -0.04858486 0.056091186 -0.25936773 -0.08719445 0.052365653 0.040231768 0.017848868 0.10103138 0.016557984 -0.27643985 0.065914564 -0.17946711 0.14120986 0.10787491 -0.1749111 0.2416315 -0.05562168 -0.09583596 0.04815776 -0.06482412 0.040875535 0.054658998 0.11636044 0.05820527 -0.045880377 -0.051254593 -0.13702373 0.40490752 -0.035838623 0.14477465 0.06950151 -0.023307858 -0.15161122 0.15586954 0.02615113 -0.22621739 -0.13840207 -0.20732765 -0.087386996 0.42420137 -0.038038213 -0.102718286 -0.1876192 -0.10545892 0.14727776 -0.065574095 0.2510784 -0.30596757 0.30925342 -0.033152577 0.22138028 -0.10575201 -0.0040127556 0.1019345 -0.14878313 -0.05300595 -0.03961203 -0.016520282 -0.15238284 -0.20352481 0.023906859 -0.046279017 0.16720898 -0.18240435 -0.19316037 -0.16094595 -0.2861321 -0.2656064 -0.07481709 0.25881764 0.18794115 -0.12826154 -0.26454094 0.263523 0.010200347 0.041769285 -0.027963111 -0.306362 -0.0032447707 -0.16653477 0.042249788 0.10257721 -0.009527291 0.0781147 -0.22345738 -0.12903444 -0.14590062 -0.2781667 0.18146965 0.28555924 0.10114052 -0.10478768 -0.018451085 0.16621228 -0.123226285 0.18100637 0.33005872 -0.22399493 0.070212804 -0.20049722 0.13720578 -0.19062951 -0.2661265 -0.005791149 0.18519251 -0.20476145 -0.1605933 0.03711615 0.11318477 0.20353009 0.105530515 0.07424001 -0.06857972 0.20248272 -0.07301866 -0.14952068
5463 0.34755576 -0.27398977 0.59865344 -0.058775224 -0.114429384 -0.0056351377 -0.027828736 0.08470342 0.0156503 -0.25481883 0.22351108 -0.1616721 -0.30632806 0.0685721 -0.3074741 0.08829897 0.1582462 0.036897007 0.09849764 0.21658085 -0.8531498 0.23534565 -0.74544555 0.66733426 -0.30537906 -0.24575244 -0.21228053 -0.19521628 -0.099388644 -0.1499526 -0.15584087 -0.13409671 -0.12574437 -0.069627665 -0.29359397 -0.60928035 0.19835699 0.31823674 0.20828666 0.68605536 0.20806631 0.04947585 -0.1681967 -0.4416627 0.3339699 -0.3046961 -0.5537274 -0.028173963 0.16537978 -0.08255393 0.0227208 0.35227403 -0.44803253 0.16436565 0.11103662 -0.15050417 0.5885561 0.28409144 -0.39333028 0.5404712 0.21824731 0.2050198 -0.103949785 -0.025341 0.23003879 -0.26120195 0.35675335 0.09370415 -0.3946542 -0.20017491 0.28821602 0.17147349 0.13289717 0.05057208 0.06550875 -0.1589842 -0.18239214 -0.06219886 -0.7753579 0.17264421 -0.52922547 -0.40996563 0.04103502 0.13505496 -0.1603276 0.0022375467 -0.055007294 -0.22640064 -0.23002338 -0.10962211 0.22772934 -0.10466296 -0.115663275 0.35304758 -0.44415364 0.45329458 0.100642875 -0.6088669 0.39673603 -0.44807532 0.038898587 0.44820485 0.06108146 0.4090248 0.56034005 -0.22632311 -0.099980205 0.24216889 -0.47944736 0.6016731 0.25203726 -0.26071036 0.016904058 0.3488424 0.038728625 -0.09253043 -0.5064255 -0.18929319 -0.12768142 -0.17346615 0.6806196 -0.2889222 0.3985103 0.5232738 -0.5762135 0.08120981 0.3698925 -0.089141905
205 0.039475244 -0.029925156 -0.015132115 -0.121121995 -0.041210078 0.04842489 -0.21485813 -0.071733065 -0.119879246 -0.10279947 -0.18648927 -0.12537163 -0.20729017 0.04073741 -0.2756238 -0.08688703 -0.26836765 -0.09649991 -0.24370006 0.005412701 -0.14158325 -0.25597596 -0.30287686 -0.155279 -0.10519354 0.21178839 -0.002571363 0.37207994 -0.08112593 -0.18904597 -0.060076512 -0.025855636 0.123654045 0.079959005 0.20647025 -0.033598382 0.18558262 -0.036512226 0.094270825 0.018135741 -0.27498198 0.063273825 0.107481234 0.121038444 0.0055293366 0.34992853 0.020040585 -0.20134379 -0.10975872 -0.12778814 -0.13843603 0.34327006 0.1957398 0.07525447 -0.09966719 -0.039846607 -0.2004841 -0.046206046 0.14774442 0.007984996 -0.14704843 -0.30565947 0.04748272 0.10360786 -0.044018295 0.05667035 0.05740558 0.17356262 0.05889774 -0.10196373 -0.32441473 0.118539296 0.04223829 0.059284788 -0.3334792 0.046872035 -0.10242241 -0.105696015 -0.11583053 -0.23956701 -0.026540797 0.19138242 -0.02429321 -0.0064895675 -0.4251066 0.1701241 0.09472471 -0.24904317 0.042994287 -0.2847746 -0.20354983 -0.44532084 0.14877373 0.060920935 0.06915882 -0.077342086 -0.07977175 0.08151865 -0.027652718 0.021325463 0.018496225 0.04873469 -0.0019826056 -0.12886195 -0.11428054 0.08640246 -0.20041467 0.08659061 0.16944046 0.11556262 -0.038500734 -0.0125575485 0.08967818 -0.17852549 -0.044188406 -0.09176653 -0.1677052 -0.25248933 -0.0002533641 0.16681069 0.31465223 0.063113 0.034625597 0.00085264543 0.040546592 0.07574195 -0.08155581 0.13851057
927 -0.085364975 0.14302155 -0.03383024 0.047047347 0.092587754 -0.13397291 0.011568205 -0.31509086 0.15076868 0.11505833 0.023375148 0.053549845 -0.115344636 -0.2523097 0.041240152 0.2259758 -0.102587834 -0.028389685 -0.02923452 0.11572107 0.061195772 -0.15941943 -0.14007308 -0.14917888 0.42226362 0.13626307 -0.09866698 -0.010939336 -0.025402512 -0.23857424 0.17501435 0.037517574 0.10153762 -0.052199803 0.12083897 0.08184352 -0.063567124 -0.03937854 -0.12589309 0.3249153 -0.019871028 0.3139907 -0.20643468 0.21605559 -0.047728617 0.17788889 -0.02181128 -0.17765467 -0.43420878 -0.2663137 -0.26438487 0.35709074 0.1613135 0.07147868 0.09596627 -0.124101974 -0.093728974 0.36270097 0.092206284 -0.052077204 0.05879884 -0.46694097 4.7286972e-05 -0.1946478 0.057108544 -0.11956665 0.08768945 -0.2851296 0.20932882 -0.09296652 -0.19831066 0.107505366 0.23159178 0.08657925 -0.048343275 -0.0066195945 -0.16820708 -0.054016415 -0.2998745 -0.105769634 0.28822306 -0.061697833 0.10177587 -0.19930434 -0.3046601 0.121105626 -0.12251137 -0.06703632 -0.08912471 -0.22754554 -0.11016716 -0.46169907 0.055377502 -0.11234721 0.33743152 -0.3676303 0.024884367 0.066202484 0.043675628 -0.34926203 0.042094063 -0.11311361 0.0116954325 -0.009705746 -0.022821516 -0.14672787 0.14134263 0.0053253034 -0.07276489 -0.3353877 0.30784467 0.10828373 -0.050516922 -0.17324986 0.074930586 0.07400564 0.12861748 -0.1981997 -0.10437873 0.18011865 -0.06560956 -0.2853305 -0.21961567 -0.06465751 0.20746142 -0.090017594 0.20515071 0.16161987
1092 0.0066097085 0.118320666 -0.1672285 -0.26658803 -0.033874664 0.07289536 -0.06917692 -0.19397572 0.07965588 0.23046637 0.13398106 -0.10533237 -0.15673772 -0.038336776 -0.00764515 -0.19944908 0.15207593 0.17046332 0.12916689 -0.14933562 -0.014278735 -0.32713303 -0.0230043 -0.38212177 0.18883513 0.16780992 -0.08741377 0.26926604 -0.22925784 -0.16411172 0.018742494 0.005694245 0.12270881 -0.37745214 0.15685862 0.03749224 0.049524106 -0.18144123 -0.13678865 0.2566573 -0.046993952 0.036594514 -0.09389318 0.1524833 -0.38169983 0.071860164 0.06701914 -0.18585628 -0.2437667 0.18035342 -0.19688949 0.49768627 0.12910284 -0.047010027 -0.12375482 -0.19799756 -0.063029826 0.14871186 0.18484344 0.20036744 0.0636713 -0.4596353 0.27284473 -0.42938584 -0.08181282 -0.06797015 -0.14466676 -0.084354095 0.043498352 -0.09564744 -0.018244639 0.17032795 0.012361056 0.3181275 -0.13090861 -0.021595528 -0.26979202 -0.11981794 -0.17992097 0.024674233 -0.14148007 -0.01082398 0.23658958 -0.13130529 -0.16165142 -0.041950665 -0.09787423 -0.05792027 -0.27213255 -0.5087849 0.12314375 -0.019684039 0.12987368 0.15354174 0.14790845 0.04847658 -0.121645845 -0.2059285 -0.02806955 -0.13984501 -0.07530841 -0.1343028 0.00798025 -0.31448886 0.03206627 0.07184747 -0.2809177 0.042508524 0.045732588 -0.20407422 0.055932306 -0.26323304 -0.019969963 -0.30373797 0.038793985 0.1886618 -0.14899768 -0.20992684 0.065113924 -0.0935486 0.37778592 -0.08602171 -0.041899793 -0.05951515 0.044723786 -0.108599186 0.16651483 0.11406629
4676 0.20569028 0.13256244 -0.03160293 -0.14196517 0.04696401 -0.005476508 -0.3516555 -0.11051328 0.24635433 0.18865234 -0.11890194 0.08628102 -0.011505797 -0.022942193 -0.10418465 -0.06853123 0.18894115 0.14877544 -0.018231891 -0.1823822 -0.036708567 -0.09827239 -0.095591865 -0.44265395 0.3278091 0.26740447 -0.014110206 0.31624007 -0.04307392 -0.35946864 -0.031978108 0.16855988 -0.04762717 -0.19835198 0.060231343 -0.0023485252 0.13762401 -0.04961842 -0.07721792 0.48341027 0.11733464 0.20057014 -0.2154319 0.07100333 -0.24539348 0.2168698 0.18215756 -0.10055767 -0.18138789 -0.08077199 -0.10096923 0.64437824 0.05319107 0.11588702 -0.07368956 -0.111053325 0.007399706 0.09074275 -0.14415576 0.07976578 0.15659489 -0.24752507 0.16575243 -0.13021328 0.107373476 -0.029015737 -0.33755067 -0.24853452 0.1183375 -0.010266155 -0.13221915 -0.011634401 0.08037776 -0.029388469 -0.26111805 -0.07391244 -0.37422642 -0.2815828 -0.10316002 -0.33632407 -0.074909195 0.1161377 0.16933408 -0.08532669 0.0007437019 0.09814559 -0.07217959 -0.17983453 -0.24779817 -0.24888179 0.010399287 0.039735526 0.10366232 0.12842762 -0.056912646 -0.15568738 -0.08334611 -0.08090225 -0.10440024 0.25428596 0.115017615 -0.052115828 -0.069814764 -0.11619187 0.13613196 -0.05565012 -0.06104402 0.24151938 0.10723752 -0.1083183 0.16103686 -0.015530392 -0.064267084 -0.18600576 -0.27591085 0.08759235 0.06256504 0.05257889 0.28425473 -0.0050229714 0.09733739 0.013310411 -0.2825682 -0.012310156 -0.08883844 0.051794004 -0.035844315 0.0351474
5082 0.12841035 -0.15701196 0.20926756 -0.17334513 -0.11349962 0.2660442 -0.07914754 -0.25131416 0.12698627 0.39825326 -0.036512833 -0.005073513 -0.17301671 0.36508384 -0.07394995 0.102660015 -0.21269518 0.07475419 0.10567072 -0.35065073 0.078396544 0.0017164261 -0.21494707 -0.14046502 0.25139803 0.109260485 0.06240044 0.15050945 0.15650183 -0.038742904 -0.123498164 0.19222176 0.08303066 -0.11017406 0.19001485 0.12684168 -0.0042314394 -0.06331534 0.03912575 0.3441403 0.094396 0.10182361 0.15582775 0.22281672 -0.2513576 0.13022707 0.02946666 -0.09154769 -0.30652797 0.023998229 -0.11243972 -0.03155601 -0.2022497 -0.04182416 -0.041667808 -0.12521774 -0.014863089 -0.0014461603 0.19481999 -0.15538655 0.18743078 -0.23199137 0.065669835 -0.36399975 0.13315314 -0.051657747 0.12875515 0.142737 -0.03519057 -0.12999587 -0.21656704 -0.08958648 0.27397382 0.011998136 0.057030577 -0.121484675 -0.11556433 -0.3396525 -0.1641495 -0.3249897 -0.21175797 0.08000398 0.11028941 -0.37862664 -0.10241498 0.41357768 0.06883581 -0.108180955 -0.058960192 -0.2091653 0.12219139 -0.3262562 -0.04525239 0.19785176 0.04286163 -0.16046438 0.0418316 0.030531604 0.044035397 0.26442307 0.10955273 0.1183974 -0.22754633 0.056051306 0.07136394 0.047268286 -0.29208255 0.04806724 0.20575005 -0.0878167 0.06627676 0.1910552 0.19461937 -0.17045224 -0.16673459 0.01282282 -0.03381963 -0.35825688 -0.2907682 0.0038865828 0.0955653 0.1442694 -0.17108235 -0.20896947 -0.16462015 0.12818097 -0.18702602 0.04789362
5351 0.022209838 0.35838842 0.3266646 -0.2602324 0.120471485 -0.15608673 -0.08999296 -0.16874573 -0.000286519 0.16309968 -0.23606494 0.16621876 -0.09151973 0.16584297 -0.16667657 0.046623114 0.02630281 -0.12177868 0.013287808 -0.08378262 -0.045300066 -0.19485907 -0.18048939 -0.23559946 -0.036861565 -0.044460237 -0.1796955 0.11692171 0.029568337 0.08213326 -0.0054219416 -0.18657567 0.07630566 0.22648133 0.19752598 -0.035898995 0.04317466 -0.04967285 -0.14536335 -0.096809514 0.09535603 0.15454766 0.059404094 -0.0635846 -0.10887963 -0.0142396735 0.035608813 -0.26713854 -0.0855028 0.0085253455 0.05582019 0.22688793 0.33358485 -0.0008424468 0.035361048 -0.17923748 -0.14920256 0.07615651 0.008828746 0.02490245 0.25101736 -0.15784764 0.11019977 -0.25508115 0.09884521 -0.049684156 0.16546176 -0.1622865 0.21784681 0.03840744 -0.2825388 0.0036756385 0.1055935 0.20348546 -0.011561337 -0.13356131 -0.07149187 -0.23270142 -0.1596422 -0.24539089 -0.08652439 0.17388877 0.10736518 -0.11782915 -0.35219038 0.2203201 -0.0031150165 0.013029995 -0.17968097 -0.3229067 -0.20666537 -0.2222588 0.24569303 0.027633036 -0.05846589 -0.058124647 -0.29848674 0.07971711 0.25343937 -0.0071781166 -0.008297315 0.10267746 0.054328516 -0.19674854 -0.07213868 0.2694176 0.048820928 -0.09447991 0.28633654 -0.01615379 -0.2763179 -0.011873159 -0.01416501 0.08496037 -0.053981397 -0.101054385 -0.17554897 -0.26515278 -0.013497268 0.13398474 0.2661413 0.14167024 0.23563994 -0.039991643 0.17970623 0.04054934 0.16425033 0.3042456
947 -0.050578665 0.16077282 0.12723656 -0.26802778 0.0062139817 0.25591883 -0.21519096 -0.07784193 0.25898945 0.04039481 -0.13854523 0.07723244 -0.21985583 0.30272642 0.04647632 0.21107031 -0.032517754 -0.29668784 -0.099777214 -0.030738708 0.13456741 -0.37781227 -0.2588274 -0.16377135 0.07301653 0.059541203 0.05720005 0.11530191 -0.13795589 -0.13502882 0.018335126 0.111051746 -0.09270235 0.05815389 0.2295886 0.13617638 -0.0047062505 0.11265886 -0.10019602 0.29882655 -0.37516335 0.08643497 -0.0834925 0.31375358 -0.24218222 0.21417624 -0.036947746 0.15500228 0.10558523 -0.009566758 -0.06940441 0.2890977 -0.053739667 0.18123539 0.004299405 0.037643086 -0.13615482 -0.18644145 0.24290484 -0.12853897 0.26090065 -0.29372215 -0.034154717 -0.07593065 0.017127914 0.13728905 0.021898462 0.096739806 0.05055007 -0.076562665 -0.40011328 0.011246145 0.3033119 0.08177561 -0.20673598 0.06441829 -0.25583118 0.010222129 -0.10507172 -0.1957765 0.0032603117 0.12660347 0.19378462 0.17146036 -0.37581998 0.19505763 -0.0022688876 -0.064274855 -0.04698086 -0.35674146 -0.3124189 -0.30189228 -0.02027011 -0.022977494 0.037444763 -0.018728059 0.16722064 -0.035045575 0.30076241 -0.2082841 0.013708093 0.18412964 -0.027197786 0.15270956 -0.043119814 -0.10261377 0.080563016 -0.1056257 0.119576626 -0.015340764 -0.1327962 0.120130986 -0.13722052 -0.06343634 0.022313593 -0.14552312 -0.023630247 -0.21679895 -0.11485653 0.12348506 0.18459713 0.040522832 -0.053302668 0.21870263 -0.24539207 0.0755322 -0.11486178 -0.019626983
3300 0.0909355 -0.48375136 0.3660462 -0.33095264 0.3059945 -0.23042528 0.18466946 0.08552213 -0.44475853 -0.045936145 0.35407144 0.23867908 -0.23126967 -0.5643621 -0.10058377 0.10885915 0.086809196 -0.16726193 0.20306405 0.3304252 -0.7899878 0.45098618 -0.46275842 0.32000226 0.0840717 -0.031133123 -0.31523123 -0.16148323 -0.26722363 -0.21823978 -0.13691744 0.14631511 -0.004618589 0.18795715 0.0787829 -0.7520399 -0.080617175 -0.22815454 0.51512927 0.43467417 0.1234533 -0.055534624 -0.29933357 -0.49398565 0.46278796 -0.27746108 -0.6342301 0.4738767 -0.19187704 -0.10505392 -0.15324011 0.7359229 -0.2565162 -0.09510038 0.5172778 -0.15564062 0.69122845 -0.113633424 -0.4393482 0.10993264 -0.2836959 0.018745264 -0.29809126 -0.20144099 0.17673756 -0.15365107 0.2560007 0.15649055 -0.23293112 0.057597578 0.11323793 -0.06435587 -0.029548032 -0.22517966 0.068597935 0.29982987 -0.21408321 -0.24885859 -0.5147082 0.17649944 -0.3199647 -0.7586525 0.44115174 0.12939017 -0.13223328 -0.09430968 -0.21903262 -0.019998742 0.21665421 -0.05041803 0.12842086 -0.09306867 0.594879 0.30258095 -0.17557469 0.30484805 0.36331663 -0.29196143 0.24157545 -0.44401416 -0.30358726 0.2876897 -0.11890755 -0.0030629577 0.29955044 -0.076558135 -0.19957787 0.4820076 -0.42483082 0.00294903 0.1224491 -0.37660134 0.16987522 0.62116104 -0.12573686 -0.03347634 -0.35381824 -0.024778482 -0.21103166 -0.21768345 0.6210011 -0.50163275 0.5100175 0.35342363 -0.6623413 -0.14664516 0.3265877 0.011001354
3994 0.07563552 -0.606632 0.17893498 -0.3607791 0.03826026 0.17795318 0.20765194 -0.027375646 -0.46802926 -0.10175332 0.022133257 0.40600494 -0.034999922 -0.2602949 0.09794424 0.6442452 0.16238706 0.20090735 0.24165393 -0.057542592 -0.7134735 0.07608421 -0.5256052 0.33910277 0.29915476 -0.28182438 -0.29346323 -0.073269024 -0.25260752 -0.3119969 -0.25933108 -0.059071846 -0.2684792 -0.033849716 -0.20967738 -0.5435058 -0.1498476 -0.14207737 0.5040157 0.47986987 0.1888866 0.4322858 -0.13378601 -0.3763264 0.6687562 0.12837517 -0.55916506 -0.0033113086 -0.083313376 -0.35027164 -0.09844917 0.43758032 0.03994964 0.3604107 -0.043628667 -0.04248312 0.25923893 0.3338861 -0.14366034 0.469253 -0.16815352 0.1232303 -0.16972709 0.051627945 0.1994873 -0.29642916 0.3538862 0.16679555 -0.40360948 0.112618044 0.07871861 0.083073065 0.20587389 0.091982216 0.43230602 -0.111979984 -0.06463637 -0.13721801 -0.6355343 0.03081762 -0.43050128 -0.63299495 0.33167708 0.09321363 -0.19875102 0.30362183 -0.36570212 -0.0038570992 -0.21364863 0.114868544 0.21678448 -0.038513392 0.13186154 0.24888402 -0.21105683 0.5884486 0.30993322 -0.3371938 0.26215833 -0.2774381 -0.36113375 0.048872873 0.055180933 0.37114573 0.62011325 -0.047254853 -0.11098869 0.34208277 -0.40068167 -0.0321366 0.14886865 -0.40726832 -0.1098621 0.5755759 0.20856196 0.23799416 -0.3360487 0.22720392 -0.23481669 -0.32061994 0.74795425 -0.4888293 0.4036252 0.22425722 -0.64947045 -0.03954581 0.014668112 -0.2653653
4257 0.123253316 0.012276726 0.47726303 -0.3130217 0.16974314 0.38267377 0.06363741 0.2727535 -0.15424776 -0.31057602 0.10323939 0.3512876 -0.046649627 0.09198172 -0.017910765 0.3162802 0.12596156 0.36985493 0.11247287 0.24325344 -0.7733516 0.19889787 -0.7160867 0.316135 0.2690636 -0.0944471 -0.55096924 -0.2700762 -0.23869158 -0.17968087 -0.08454448 -0.077914946 -0.26211914 0.48445305 -0.07061886 -0.41670755 0.11137697 0.15526053 0.7033902 0.54078746 0.4252574 -0.18824524 -0.21030854 -0.5244479 0.5760087 -0.014033653 -0.42169493 -0.19607797 -0.33126736 -0.06968396 0.32723477 0.49029374 -0.040691063 -0.20078501 0.20571035 0.14135268 0.5368804 0.18891805 -0.19041057 0.49724543 -0.13860945 0.124200135 -0.20664805 0.25857013 0.13658541 -0.30744305 0.2559184 0.0980812 -0.4300953 0.07928756 0.34603602 -0.060218677 0.2828235 -0.20551884 0.32418898 -0.17723674 -0.3925574 -0.13369685 -0.272002 0.07858513 -0.30534124 -0.4934227 0.09309335 0.43312895 -0.07920904 -0.07152214 -0.34418917 -0.36910582 -0.27905777 0.0031786873 0.21605095 -0.19037 0.39892697 0.011761754 -0.24424456 0.2933645 0.21224636 -0.09975132 0.49927813 -0.25972217 -0.07039288 0.4449457 0.0011973559 0.31621253 0.4005009 -0.41615853 -0.11574566 0.21077889 -0.16300578 0.1936077 -0.091324076 -0.13573827 0.015769403 0.032466415 -0.01315467 0.31245586 -0.48583695 0.07496134 -0.4866098 -0.60942006 0.6806962 -0.5303181 0.33437857 -0.07855287 -0.39878687 -0.011540492 0.029805679 0.058039315
4713 -0.003074007 -0.106658414 0.34955028 -0.08474604 0.19087133 0.15666267 0.05690306 0.13351995 -0.42008325 -0.26670837 0.3131784 0.30112472 -0.2085944 0.09071109 -0.223251 0.41503626 0.36814815 0.2657519 0.14865205 0.17322811 -0.6485996 0.224552 -0.521169 0.38605392 0.26635128 -0.37735227 -0.54254466 -0.15328798 0.15199782 0.07200096 -0.3820407 -0.21136868 -0.48563585 -0.0024552182 0.05706423 -0.6234829 0.2502206 -0.07267357 0.6296248 0.41738528 0.16210578 0.24542212 -0.45482126 -0.49052656 0.42331016 -0.09675579 -0.5563391 0.30750096 -0.063415475 0.19426152 -0.059351742 0.14799684 -0.12446777 0.03378921 0.28048378 -0.083336204 0.53922266 0.391355 -0.17073546 0.38183567 -0.031925414 0.19621134 -0.19132687 0.33200708 0.2335868 -0.4225481 0.13339685 0.34181258 -0.35506552 0.2806957 0.35428035 0.23848124 0.3940419 -0.19446036 -0.11342326 0.07785735 -0.30359837 -0.41280758 -0.5938176 0.15546764 -0.5433929 -0.5930772 0.3337899 0.16239046 -0.25352478 0.015813157 -0.038267594 -0.48795536 -0.106081046 0.027366005 0.25069058 -0.2939103 0.24523912 0.531348 -0.3695738 0.2593607 0.34957337 -0.4113011 0.49037948 -0.3173477 -0.2001222 0.42659083 -0.18135917 0.31706703 0.4728015 -0.38570026 -0.2928303 0.21868666 -0.5198615 -0.066301644 0.098149024 -0.26082864 -0.17918009 0.12743641 0.18693134 0.08644701 -0.3762801 0.13618866 -0.0025690785 -0.16938083 0.37745675 -0.12343255 0.21961516 0.22494213 -0.30167425 0.13669485 0.36413065 0.033672705
