439 128
4171 -0.0036811542 0.16279289 0.15919644 0.04562271 0.12893435 0.06842987 0.09344419 -0.033363495 -0.14585166 0.1577348 -0.34579208 0.16323145 0.096031494 0.062033497 -0.15288436 0.11354732 0.056633074 -0.07290446 0.16591437 -0.00026042157 -0.111260414 0.10918387 0.10384106 0.066998936 -0.057101477 0.09032172 -0.096457385 0.16042198 0.13757172 0.07215156 0.035255034 -0.16598544 -0.047311265 0.1557742 -0.12688866 0.011696728 0.103438705 -0.044931225 -0.09494769 -0.16985275 0.004245403 0.23775321 -0.20668826 -0.1298315 -0.3185349 -0.05879607 -0.20054242 0.09143592 -0.37799323 -0.15847449 0.14455566 0.056175366 -0.12597133 0.06005995 -0.21253833 -0.0052084965 0.16102894 0.04167346 0.02115792 -0.4116529 -0.10541986 0.06876776 0.1779132 -0.13516866 -0.11879676 -0.1827852 0.11273682 0.1889787 -0.0036844925 -0.050273336 0.39840597 -0.016279163 -0.05133909 -0.3420526 -0.23419385 -0.08899833 -0.37148434 -0.16966471 -0.0018933752 -0.12233148 -0.036117163 -0.23743689 0.068798095 -0.065736994 -0.1466029 0.22864555 0.091549136 -0.23358436 0.06612854 -0.2292174 0.23742668 0.060471185 0.19437225 -0.118711434 0.08651068 -0.43750718 -0.16355745 -0.0043519316 -0.006571011 0.19410704 0.21754412 -0.12579864 0.039732166 -0.19519632 0.07834555 -0.023539193 -0.21763185 0.101916246 0.11258126 0.10263557 0.17738017 -0.110560775 -0.079101056 -0.09314185 0.13277379 -0.27801755 0.19149612 -0.11036605 -0.10135528 -0.060895026 -0.0930118 0.054183833 -0.040347192 0.19003099 -0.012721371 0.099659696 -0.19735125 -0.08688348
1494 0.021004563 0.016133603 0.12837104 -0.14665471 -0.12325901 -0.28260502 -0.0582403 0.19611777 -0.2029743 0.18029344 -0.091751784 -0.2398897 0.09133827 -0.10004751 -0.20090877 -0.012270572 -0.026852448 0.0023797627 -0.13274407 -0.08315973 -0.04401808 -0.108423725 -0.042551436 0.1335102 0.12679422 0.015417313 -0.22429019 -0.10360387 0.067398295 -0.14652258 -0.072582066 -0.12355556 0.029097205 0.1786932 -0.048869252 0.16714752 -0.1335898 -0.20482075 -0.2699084 0.004384629 -0.101293296 -0.07545961 -0.26005244 0.18953486 0.043424185 -0.045088135 -0.15623872 0.048441928 -0.1273179 -0.024259407 0.39120212 0.21978983 0.16226259 -0.07899184 0.11786531 -0.07410367 0.08038542 -0.19673377 -0.019848567 -0.17068446 -0.05257623 0.28654128 -0.030861778 0.012029839 0.0046511116 0.16250008 -0.09668064 -0.07677365 -0.083532885 0.06149604 0.01725334 0.086170614 0.0615302 -0.0022884514 0.108968295 0.097084776 -0.14911589 0.11099225 0.03356512 -0.44921726 -0.17996052 0.17421918 -0.17679046 -0.0823774 0.12465152 -0.22389217 -0.30644834 0.17602518 0.0056297965 0.025288258 0.010790398 0.15294471 0.015706874 -0.19457188 -0.15258607 -0.40590325 0.19525218 -0.28269422 0.08693126 -0.25534624 -0.1122662 0.03587935 0.14089537 0.019348476 -0.07835249 6.461247e-05 -0.16604137 0.07214426 0.1783519 0.047053676 0.22972408 -0.19158287 -0.08100201 0.089571856 -0.16549425 0.28382233 0.26975176 -0.003428752 0.007363139 -0.017023401 -0.081275195 -0.035669103 0.19387464 -0.026307054 -0.12589778 0.098457776 -0.060334064 -0.26551408
4854 -0.15989 0.11684947 -0.01869267 0.011722597 -0.06655083 -0.24256304 -0.20159166 0.14060663 -0.058791243 -0.03120557 0.0024990416 -0.10193612 0.11030512 -0.18164366 0.0123870885 0.11170305 0.05783347 0.14628571 -0.1523127 0.0002863989 -0.100503445 0.027297525 0.22532493 0.10646148 -0.036549296 -0.180123 -0.08886525 0.024909295 -0.030815134 0.041120477 -0.13107882 0.07650924 -0.077557534 -0.024308838 -0.13585305 -0.13726814 -0.15228936 0.04220797 0.032965746 -0.06051312 -0.07527422 0.24065068 -0.112818494 -0.16599488 -0.10051354 3.8274662e-05 -0.26777354 0.022028944 -0.012470567 -0.14667773 -0.020919513 0.17570199 -0.17938513 -0.021406462 -0.3348758 0.0043626656 0.08092603 0.044759117 0.011632521 -0.1270084 -0.016202271 0.12153113 -0.21430625 0.3375897 0.08793181 0.2203905 0.09096233 -0.10201509 0.069251396 0.20750661 -0.13354523 0.036414076 -0.01118004 -0.15339752 0.08417205 0.048813313 -0.07394513 -0.09861667 -0.031495105 -0.24037689 0.03670724 -0.14891335 0.096295536 -0.093468145 0.0403891 -0.13244629 0.025661515 -0.15662406 0.0062369755 -0.10825833 0.16357891 0.012942523 0.22021297 -0.12848702 0.03750689 -0.10189593 0.26144356 -0.07808165 0.1529006 0.28031763 0.02654663 0.11712418 0.2876283 0.1604748 -0.15383591 -0.108838655 -0.051031135 0.19033575 0.17270036 0.21701334 0.16845104 0.07533788 -0.2531172 0.14007786 -0.06574577 0.020091822 -0.030843394 0.1189432 -0.22972088 0.019623753 -0.084446155 0.12764567 0.35834503 0.28053755 0.074058644 0.15590203 0.027496481 0.04625332
3623 0.021970006 0.21367331 -0.23330419 -0.032683965 0.123625 -0.09436702 -0.016256748 -0.035247043 0.13439289 -0.06719453 0.022217553 0.13811646 -0.072489776 -0.0068456274 -0.07502061 0.15720494 -0.17510566 -0.081674926 -0.0551857 -0.12233151 -0.038121898 -0.016891973 0.23729381 -0.220052 0.07536111 -0.12720989 -0.1761583 0.12121075 -0.10797658 0.09709339 -0.16540529 0.061676953 -0.090661615 -0.015322009 0.017822249 0.022062996 -0.0560206 -0.06490148 -0.0038171432 -0.18962736 -0.16578834 0.087642185 -0.19574322 -0.15778726 0.20415846 0.01740306 -0.18300037 0.12447139 -0.21004395 0.14098553 0.03947869 -0.00019797096 -0.08749875 0.15625863 -0.121838 0.07926913 -0.01078993 -0.00564347 -0.15980317 -0.13297506 0.076629974 0.254521 0.06820105 0.07650908 0.122729085 0.19576284 -0.008551173 0.025223441 0.14412674 0.018682014 0.26980945 0.21420628 -0.038825843 -0.051940564 0.0968399 0.0739978 -0.10222029 -0.043382734 -0.041595764 -0.051569812 -0.14276706 0.031162662 -0.3394767 0.31349882 0.09884545 0.28230923 -0.16223101 0.091015205 0.15002914 -0.10647774 0.25569907 0.03266958 0.13691431 -0.08126452 -0.05626203 -0.06629847 0.06122465 -0.055492062 0.062293522 0.064038284 0.103104316 0.12077549 0.30590925 0.051265243 -0.22291212 -0.045764636 0.067329206 0.014923314 0.10957879 0.2847832 0.057937246 -0.0036373595 0.046971165 -0.23968326 -0.082133144 -0.28477225 0.19670606 0.09939837 -0.16951203 -0.08509518 0.12347428 0.10392279 0.26916668 0.008632628 -0.014825068 -0.015748873 -0.031636402 -0.02494857
5135 0.10092301 0.37736413 0.43638933 -0.038786475 0.18008654 -0.03232784 -0.08624308 0.012619367 -0.12235875 0.031212477 0.045485593 -0.004958983 -0.19437642 -0.12939812 -0.17929292 0.013377411 -0.106125355 0.007252871 0.1301331 -0.20266779 -0.28671473 0.11514748 -0.070403695 0.022284059 0.0495294 -0.22579403 0.024881454 -0.15951583 0.032287996 0.0875089 0.028321393 0.040977348 0.0072300755 -0.02565939 -0.18818827 -0.056114327 -0.048783604 -0.14246441 -0.10315174 -0.11509175 -0.018718598 0.13428971 -0.07561855 -0.021023637 0.17335469 -0.06321563 0.1831698 -0.11109499 -0.16796431 0.03861115 0.23799635 -0.13636926 0.038797777 -0.1229091 -0.2250548 0.12665825 -0.14368679 -0.14833562 -0.10635035 -0.26277092 -0.0667497 0.02148449 0.10820119 -0.0058828215 -0.075904 -0.12449926 -0.1876866 -0.07331851 0.17111278 -0.20328723 0.23790835 0.097416036 -0.13436906 -0.30820495 -0.091042675 0.05316519 -0.26432472 0.14607555 0.04829272 -0.004478748 -0.030775981 0.08888597 -0.04297555 0.020644743 0.07407248 -0.067672595 -0.21658045 0.037406594 0.3226417 -0.091654725 0.115659125 -0.09561433 0.05095428 -0.2551729 0.12888569 -0.046327952 0.049054105 0.021932226 0.06768905 0.16556123 0.29013795 0.2636556 0.11900597 -0.046692517 0.06025713 0.11600475 -0.022831684 0.16931766 -0.115266845 -0.24803442 0.109973155 -0.11063276 -0.16143203 -0.0718462 -0.07240932 0.10723259 -0.20913546 -0.19628277 0.06664037 -0.06904689 -0.16635141 0.21393459 0.26853538 -0.15150052 -0.1738354 -0.015851973 0.010480143 -0.021509998
5 -0.30882785 0.2490235 0.09275619 -0.21614681 0.1570442 0.08979672 0.08056052 0.07403286 -0.022865426 -0.05944251 0.13510124 0.23567986 -0.10649711 -0.20882928 -0.3903469 0.06889181 -0.0017862562 -0.08463427 -0.22384404 -0.10977209 -0.111851275 0.053791083 -0.045651678 -0.031527255 -0.14403185 -0.45755976 -0.4703292 0.019916086 0.10561374 -0.0009215358 -0.13018237 0.17717056 -0.36568326 -0.111464046 -0.054204457 -0.06918533 0.18378058 0.08432795 0.117442995 -0.32900506 -0.3098404 0.11099723 -0.067351066 -0.0039857626 -0.04566099 0.08329233 0.050258525 0.18624972 -0.05435223 -0.25008222 0.098542236 -0.15108259 -0.111983426 0.16523105 0.13144106 -0.08916396 0.116332695 0.22778413 -0.18248112 -0.07006144 0.27528912 0.16391775 0.15399648 0.09636063 0.047425758 -0.043198664 0.038866885 0.11220767 0.0014844975 0.019468635 -0.20684776 0.01309253 0.05245885 -0.13972773 -0.1568776 -0.12628603 -0.014627019 -0.21087776 0.2252504 -0.15876552 -0.18398318 0.05380983 0.08751819 0.099989526 0.21652389 -0.10925678 -0.13906835 -0.006152566 0.061544754 -0.14508612 0.011925557 -0.24753375 -0.16644655 0.009258752 0.16087155 -0.093664 0.11282835 -0.28082132 -0.05611791 0.25800177 0.26703975 0.0307423 0.26667377 -0.13165988 -0.13834189 -0.07031338 -0.24894573 -0.13181064 0.121411465 0.08542322 0.1881491 0.17212087 -0.027627017 -0.27500328 -0.12752052 0.15801568 -0.15516347 -0.016057413 -0.1202605 -0.021946756 0.22205792 -0.03010371 0.12431074 -0.017078739 0.1816268 0.12864828 0.07024356 0.038621802
339 -0.12875299 0.15273668 -0.275216 0.056445498 -0.008599119 0.06700243 0.07743911 0.10180323 0.11338368 -0.26826683 0.34233195 -0.161344 0.08778349 -0.11219858 -0.19098575 -0.28501567 0.05740135 -0.115129955 -0.0044549163 -0.06664744 -0.23837279 0.0638622 0.041635167 -0.017401887 -0.15112206 -0.014340635 -0.14289016 0.060298987 -0.051016983 -0.047176998 0.13287786 0.012311677 -0.19162843 0.026574764 -0.072724655 0.1412762 -0.026423058 0.029727878 -0.013326502 -0.14360817 -0.030632893 0.10780466 -0.110564254 -0.10277391 0.24680257 0.057873845 0.015632583 0.14307861 -0.14299059 -0.047167476 -0.15728806 0.29485342 -0.11963642 -0.01965046 -0.014179637 0.110633284 0.07612785 0.11371819 -0.19707778 -0.42240193 -0.07436503 0.2549957 0.38441223 -0.12703496 0.037128296 0.000764138 -0.27382088 0.109985344 0.38649938 -0.30494064 0.1720922 0.25566506 0.18331186 0.0076456033 0.035983674 0.050592642 -0.1234967 -0.07458127 0.26070377 -0.08343075 0.2628456 -0.15999146 -0.0444158 0.10550707 0.15430313 0.023803387 -0.11720023 0.05382142 -0.15884699 -0.1269924 -0.06380392 0.062362306 0.20131524 -0.39728302 -0.09108689 0.122266576 0.1627699 -0.06318637 0.015018418 -0.0066076 0.13046214 0.06951797 0.1484137 0.14182065 0.12426612 -0.0057645882 -0.07417716 0.03448253 0.07063338 0.20624761 0.24508493 0.07344341 -0.21614867 -0.035357706 0.025173597 -0.27693418 -0.08445593 -0.049768545 -0.07953105 -0.06430861 0.23791523 0.12791996 0.08357114 0.16957563 0.018151967 -0.19018678 -0.16763055 -0.3840599
1595 -0.13422698 0.034642246 0.0023700553 0.1841203 0.095131814 -0.24388762 -0.2537333 -0.03508348 0.2341019 -0.09642592 -0.17105402 0.29909697 0.24019346 -0.13331668 -0.22259054 -0.024593161 -0.16047263 -0.24077137 0.012212862 -0.072497495 0.0864715 -0.09289104 0.2390793 -0.02529086 -0.15059935 -0.041131288 -0.09743963 0.0413979 -0.0033267343 -0.10555731 0.14804602 -0.08853627 -0.1009193 -0.103574485 -0.05134648 -0.100080475 0.30079338 -0.08038112 -0.124732 -0.29960632 0.027993368 -0.049174268 -0.048697084 -0.25687674 0.15582173 0.2271871 -0.0802761 0.054702427 -0.15974618 -0.08452419 0.14303918 -0.043537565 -0.22467701 0.27642477 -0.147031 0.13222826 -0.014458521 0.07921375 -0.011695643 -0.10985045 -0.14302097 0.053629193 -0.1658987 -0.002349905 0.054118942 0.017094914 -0.16278426 -0.10079441 -0.07788385 0.03362063 -0.05610657 0.059701793 -0.29102296 -0.25410607 0.21103577 0.002075888 0.0243019 0.057548232 0.17737877 -0.17394316 -0.12581266 0.19769298 0.03261679 0.14728981 0.1414482 -0.10057771 -0.10617372 0.18673064 -0.08172868 -0.06164116 0.050540183 0.081470355 -0.12182522 0.066360936 -0.18728432 -0.19903998 0.18486753 0.0034987018 -0.04702194 -0.006617243 0.15933336 0.06345626 0.20432173 0.063160226 0.06592738 -0.07920796 -0.09863423 0.03845519 0.37537065 0.004059951 0.030310968 -0.19190873 0.122839496 0.103242725 -0.06277757 -0.018400647 0.036064006 -0.08773897 -0.22466302 -0.0935383 0.10565661 0.44315022 0.1632575 -0.21573393 -0.08011265 0.22773805 0.0074509517 -0.116130136
3838 -0.23617694 0.15517566 -0.18664697 -0.032499555 -0.039974228 -0.0981836 -0.11212049 0.2737928 0.14740251 0.11379485 0.04238018 0.30870378 0.20495813 -0.20718879 -0.27325267 0.16170745 0.12856612 -0.3478502 -0.018708125 0.3581804 -0.032544535 0.0030186232 -0.09886901 -0.043696053 -0.047181197 0.0911583 -0.08984139 -0.00011076641 0.15903667 -0.040617485 -0.20288214 -0.017793274 0.009743194 0.0141999265 -0.2797107 -0.121174335 0.018655024 -0.12258256 -0.003576431 -0.17159747 -0.19439651 0.16417007 0.091188714 -0.030064292 -0.030050473 -0.08914289 -0.047764897 0.16205432 -0.14777073 -0.1961222 -0.025264466 0.18819176 0.06303034 0.045022327 -0.1159228 0.082556434 -0.12410306 0.13959259 -0.14442466 -0.27821216 -0.06409631 -0.16681312 0.09905792 0.2995257 0.23084879 0.3457159 0.089252144 0.13579527 0.108278655 0.040216774 0.28940004 -0.21878734 -0.077381946 -0.12969916 -0.08100798 -0.038915142 -0.24542686 0.13839027 -0.0031983398 0.025790475 0.038170476 -0.004181648 0.09468741 -0.112492956 0.06684228 -0.033682622 -0.11401674 -0.20427175 -0.027584014 0.016845204 0.21448411 -0.027245445 0.10330061 -0.26256213 0.13678399 -0.2782388 -0.08344342 -0.031980023 -0.06718665 0.16695376 0.17887662 -0.037304074 0.10529415 0.21603973 -0.10618574 0.09323424 0.042563364 0.115672626 0.116019696 0.26028988 0.09236894 -0.3395039 -0.17299153 -0.3173318 -0.0077256514 -0.10736852 -0.06757411 0.01871556 -0.2663476 -0.08884783 -0.21837957 0.1300673 0.37032062 0.04450148 0.01360992 0.06715427 0.1443189 -0.18886724
1049 0.052691467 0.34244192 0.02820624 -0.27599466 0.0011270682 0.036221568 -0.12423029 0.1664174 0.114546075 0.07882691 -0.3799457 0.07120104 0.1512782 0.038214497 -0.21607098 -0.066928744 0.035187017 0.13913542 0.036612857 0.122652255 -0.020196019 0.2453983 -0.19478196 0.13176094 -0.25905785 -0.2070951 -0.012596041 -0.14200267 -0.14938912 0.01155951 -0.34069192 -0.17421012 0.022183724 0.17289715 -0.03959116 -0.11567114 -0.12574023 -0.20766753 -0.2119742 -0.14982888 -0.05351915 0.15906678 0.21469305 -0.25880075 0.14798285 0.123030886 -0.2694614 -0.20255172 0.16183454 -0.064021684 0.17968418 -0.02817995 -0.1657365 -0.06767207 -0.03102775 0.046631772 0.2884433 -0.060271297 -0.20747301 -0.051472098 -0.14513807 -0.074975714 -0.2575097 0.08579921 -0.27492684 0.030614952 0.04860364 0.113943174 0.0029414473 -0.3186435 0.1140033 0.22756255 -0.00044829983 0.08151507 0.17601386 0.047998656 -0.1049461 -0.4109034 0.0639296 0.027441168 -0.056958497 -0.09327369 -0.120720774 -0.25963467 -0.093802415 -0.19278929 0.102470785 0.023282556 -0.10840426 0.16183089 -0.14298965 0.093879044 0.04296313 -0.1947152 0.10421827 -0.11209764 0.029483506 0.015500433 -0.18684985 -0.27322406 0.09968327 -0.075951 0.14727874 -0.04613497 -0.062069904 0.044909097 -0.014631258 0.072580874 -0.065863505 0.17391905 0.11661409 -0.08501785 0.054783236 -0.18348573 -0.011631453 0.34448972 -0.11101819 -0.0029618065 -0.11833869 -0.0756959 -0.05989508 0.24608138 0.2883831 0.19576305 -0.102042235 -0.05535919 0.07115217 -0.1277279
5020 0.016670475 -0.108644634 -0.28930926 0.10670568 0.032782808 0.024015367 -0.060315 0.34257546 0.025787512 -0.012605786 -0.20963192 0.059760645 0.10831516 -0.18598983 0.36414286 0.08073561 -0.04247611 0.20743243 0.056319874 -0.037888784 -0.3447393 -0.22592781 -0.046938624 0.2547134 -0.064649716 -0.50946337 0.15942262 0.3659395 0.118384376 0.05187196 -0.039077032 -0.13954128 -0.13415281 -0.110947594 -0.16468956 0.09375529 0.01318342 0.16879605 0.014766899 -0.041894585 -0.13605745 -0.1592372 -0.18474223 -0.18618967 0.3065008 -0.1164844 -0.29480085 0.51448584 0.18879822 -0.4400087 0.2913707 0.07974296 -0.06100969 0.12057034 -0.021435741 0.18784921 -0.17468329 0.12222608 -0.2596984 0.0036494066 -0.07631624 -0.047292963 -0.051189195 0.03043116 -0.16161352 -0.12994431 -0.27785286 0.046044603 0.2167809 -0.09261573 -0.06231784 -0.038974702 -0.03950728 -0.012060125 0.0047031404 0.02990342 -0.11842661 0.2530999 0.15270272 -0.17427875 0.2358796 -0.019290958 -0.031138808 -0.07116889 -0.15223294 -0.11208797 -0.2254301 0.13857347 -0.06538463 0.13147183 0.08080765 -0.06646553 -0.011402281 -0.10996782 0.017027654 -0.15173383 0.105457716 -0.16970715 -0.06539585 0.03361997 0.24359141 0.06942064 0.03922885 -0.02805137 0.10910848 0.25768498 -0.21129215 0.21872078 0.12210146 0.10493667 0.15824297 -0.03531527 0.13159658 -0.0034961847 0.012711921 -0.13298643 -0.075411834 -0.0757818 -0.111774035 -0.29113176 -0.018463435 0.13465454 -0.050152224 0.024921652 -0.13403408 0.016066626 -0.15778922 -0.06432994
3300 -0.18066615 -0.17544155 -0.24495494 -0.28021565 0.23754425 0.011718497 0.065051965 0.12845464 -0.17939267 -0.36497274 -0.0112732155 0.0691712 0.030191705 -0.21490604 -0.06708884 0.106453836 -0.26662415 -0.02344581 -0.07786531 -0.013852997 0.048534926 0.20548165 0.14559972 0.03199033 0.17242247 -0.1298601 -0.04783595 -0.07206574 0.18772756 -0.027702553 0.012240145 -0.08941821 0.1622191 0.15107909 -0.1629235 0.19475019 -0.04608298 -0.07849323 -0.007835513 -0.14269938 -0.09020444 -0.053587165 -0.11262328 0.051145494 0.04882729 -0.010131061 -0.13574839 -0.17391512 -9.314174e-05 -0.35159966 0.13066472 -0.0313087 -0.101446114 -0.15979652 -0.020892432 0.15066077 0.13415274 -0.061165676 -0.10257979 0.08267917 0.25148988 0.03733161 -0.036636997 0.04285534 0.002792767 -0.069688246 -0.21059656 0.07397628 0.07516796 -0.11704446 0.088569924 -0.047963217 -0.12372346 0.15363154 0.005058227 -0.23218697 -0.0013327678 -0.11365082 -0.17517376 -0.02049997 -0.027343636 0.31553125 0.048735783 0.30982533 0.07879546 0.16336316 0.081191465 0.0062780217 -0.13603663 -0.0395404 0.16445543 0.022987535 0.21047564 -0.30409095 0.13432585 -0.3425814 -0.3438235 0.09165787 -0.19262415 0.2754462 -0.06929271 0.12370103 0.12816817 -0.28968412 -0.012822248 0.1739674 -0.28310344 0.21830042 0.38425893 -0.007728282 -0.0071756686 -0.15038863 0.08309853 -0.06623536 0.28176293 0.08914677 -0.050287183 -0.025673473 -0.328255 0.053877067 0.15160093 0.13973801 0.27448195 0.014288213 -0.19089602 -0.07680219 0.29890442 0.07763678
916 -0.11546162 -0.038902517 -0.03835783 -0.09493681 0.13038434 0.12393606 -0.13195705 0.12046823 -0.03194418 -0.11792223 -0.1556664 -0.20549709 -0.058427155 -0.038441647 -0.14548282 0.12615232 0.27746987 0.054837193 0.035267506 0.012744509 -0.19274801 0.05504357 -0.0035300988 0.26340935 -0.24477893 0.2678083 -0.030519567 0.0667352 0.15246174 -0.054834872 -0.15790653 0.05825578 0.15473062 0.1203821 -0.025333233 -0.12015223 0.16084163 -0.1057171 0.12220835 -0.37579447 -0.4408596 -0.22482975 0.1281231 -0.08246217 0.10885216 0.037068903 -0.039795935 0.036189053 0.0001446517 -0.0322808 0.14224537 0.049142923 0.08440775 0.30987298 -0.17635833 0.11235578 0.14812467 0.042853467 -0.17912562 -0.17556386 0.13835074 0.120661445 0.19628073 0.09374059 -0.085609905 0.04340625 -0.2992751 -0.13349167 -0.2542752 -0.020253679 0.2376588 0.09006523 -0.12470425 -0.13750996 0.4554706 -0.23389253 0.03546501 -0.15524228 0.13304307 -0.05783199 -0.24142769 -0.19207725 -0.20104153 -0.3047368 0.040404394 -0.13344248 -0.15939677 -0.108347446 0.059320487 -0.09938393 -0.082239695 0.22340477 0.13884717 -0.088502035 0.16837727 -0.036892436 -0.22970131 -0.10163979 -0.2989016 0.27252212 0.21842784 0.1491844 0.2864594 0.15108617 -0.02764671 0.031355802 -0.23801075 0.2635271 0.10786592 0.13079579 -0.057819687 -0.02561893 0.22090442 0.2042892 -0.11587159 -0.18149772 -0.20017858 0.036043923 0.02061722 -0.03594673 0.046174444 -0.12650198 0.3401378 0.047796316 -0.13953981 0.05538277 -0.057196487 -0.2618544
3994 -0.060495924 0.07360509 -0.04390195 -0.001102445 -0.013576302 -0.21063131 0.015218647 -0.1336229 -0.12425794 0.015784688 -0.05554064 0.03825169 0.07801717 -0.1933931 -0.22499514 0.2799099 0.078348964 0.061612096 0.022958076 -0.21921806 -0.25402907 -0.071011305 0.12519796 -0.0252245 0.117088705 -0.13216093 -0.3027222 -0.07478432 -0.07285372 -0.0232546 -0.082621925 0.08354125 0.26493287 -0.05946202 -0.16621123 -0.10636166 -0.34322494 0.03127236 0.0039773392 -0.2398979 0.18495649 0.39852878 -0.22949594 -7.867824e-05 0.35777545 -0.09310878 -0.16411388 -0.104697414 -0.114150085 -0.19716491 0.13254479 -0.057447795 -0.08092232 0.041906007 0.18343727 0.24163672 -0.07406956 -0.07779335 0.0038456025 -0.1302914 -0.10143493 0.2524037 -0.14162616 0.2994508 0.0546187 0.3021851 0.044963438 0.14514092 0.09614742 0.001602183 0.0027615568 0.13655402 -0.10355584 0.05032244 -0.13364092 0.2077648 0.014646973 0.0046019084 0.31517994 -0.014768857 -0.041328464 -0.3300822 0.046846267 -0.05007022 -0.09697549 0.24828425 0.10758924 -0.06370056 0.10378319 0.057274655 -0.07917243 0.17337148 0.22530593 -0.24302353 0.028409444 0.07998883 -0.039031975 -0.08432153 -0.15180916 0.046676356 0.09304987 0.3616769 0.14743093 -0.01893066 0.022322671 -0.14512251 -0.3709998 -0.21715884 0.0128368195 0.29218107 -0.09627511 0.04010507 0.0814246 -0.17541341 0.095886 -0.22762759 0.11528998 0.01177362 -0.22643259 0.03760207 -0.188688 0.18882371 0.15940188 -0.14088298 0.07664405 0.05139404 -0.12340143 0.30305928
3818 -0.11711957 -0.0952116 -0.17395897 -0.07887421 0.09935536 0.184757 0.07531339 0.23233898 0.103330486 -0.22798064 -0.1545465 0.12275151 -0.3489747 -0.02003663 -0.19989406 -0.013114437 -0.05183487 0.03625469 -0.3273767 -0.09763262 -0.119872525 0.121656224 0.22163485 0.23641111 -0.1578621 -0.19237758 0.20600106 -0.23442087 -0.12417419 -0.34362677 -0.117747545 0.19009322 0.19223116 0.3882879 -0.281847 -0.31316134 -0.04633179 -0.093109444 0.20493956 -0.5374976 0.042173963 0.008520202 -0.012566687 0.068423286 -0.03510152 0.09987846 -0.08717672 0.06965675 -0.053989664 -0.014084362 -0.086213715 0.06376301 -0.18004468 -0.05052765 -0.23605111 0.01630185 0.09931034 0.032376472 -0.13305055 -0.2105597 0.13510229 -0.03441876 0.09522277 -0.29871607 0.07202157 0.18032901 -0.14051285 -0.045890547 -0.049265474 0.13206536 0.16740908 0.15001981 -0.07469282 -0.20488426 -0.017793644 -0.085538745 0.050353136 0.20321803 0.13797924 -0.28147912 -0.030335203 -0.120024644 0.22255325 -0.18801394 0.009697124 0.25565898 -0.22563064 0.14970917 0.114767246 0.062634364 -0.1275196 0.13812774 0.21386917 0.01948252 0.30660427 0.1028728 -0.11262363 0.036370505 -0.2136032 0.013665314 0.06664218 0.07236268 0.2891335 0.04692778 0.06128049 -0.091946214 -0.031172812 0.34334797 -0.14779435 0.07428126 -0.047942042 -0.17849901 0.036489826 -0.15570149 0.050650343 -0.09197018 0.2033626 -0.23727864 -0.069197305 -0.27176544 0.18775782 0.035880692 0.11472645 -0.10769491 -0.19458123 0.043270107 -0.059921466 -0.09530514
4713 0.24592692 0.17362544 -0.07423618 -0.15736532 0.041636467 0.049220726 -0.15350877 -0.2392771 0.13132328 -0.04270091 0.025090165 0.3216597 0.06864341 0.25745603 -0.36391073 0.1431147 -0.1523714 -0.073949344 -0.07996883 0.059868384 0.039901163 0.0655444 0.16104946 0.38102883 0.032581538 -0.047432203 -0.15660097 0.04898085 -0.15541634 0.13669647 0.11623145 0.10280342 -0.0885902 0.3152644 0.12921263 0.05609305 -0.095619686 -0.08976243 -0.12446218 0.12739365 -0.30546996 -0.21644582 -0.39141065 -0.26941723 0.13011186 -0.022914154 0.09705249 -0.06261765 0.0010589575 -0.09804057 0.32211363 0.09043148 -0.29078346 -0.18333259 -0.019711236 -0.07791363 0.05016291 0.20273535 0.06240265 -0.17737602 -0.07863641 -0.11732298 0.24549583 0.35175222 0.018248603 0.028123938 -0.13889499 0.18009715 0.24505077 0.0070697553 0.09897088 -0.346368 0.04213419 -0.17884631 -0.18190478 0.029795816 -0.40135762 -0.03714945 0.019152958 -0.23114873 -0.20316282 0.09174095 -0.22244106 -0.09810709 -0.31466326 0.22161615 -0.17429973 -0.04293708 0.039085325 -0.17834507 0.006588643 -0.056889076 0.108318105 -0.0664191 0.32019866 -0.14153744 0.13619542 -0.12434361 -0.18209925 0.013803246 0.31760183 0.12005712 0.17479731 -0.042916834 -0.013631835 0.17956011 -0.4709475 -0.045910038 0.12183644 0.12909785 0.26558003 -0.2740323 -0.059363082 0.07486074 -0.048979852 0.0061269375 0.011999548 -0.021903487 -0.22565381 -0.19682394 -0.084232815 0.3349248 -0.034734387 0.15260066 -0.05454895 0.047418643 -0.059205603 -0.08242043
16 -0.10081492 0.028753439 -0.17741299 -0.25738657 -0.025413543 -0.02604266 0.16131015 0.023626914 0.11113784 0.12169173 0.37130734 0.054611437 0.068723574 0.20988576 -0.4182779 0.099003136 -0.0884308 -0.1268164 0.04746521 -0.05854673 -0.16611825 0.22210817 0.022188492 0.32472914 -0.047319736 -0.19006258 -0.26959002 0.044662535 0.046096526 0.15640032 0.04049439 0.22111097 0.07882377 0.12328 0.13086578 -0.16813987 -0.04720674 -0.07315219 0.051472716 -0.16112252 -0.07132126 0.088698246 -0.07393541 -0.19436982 -0.17766453 -0.26013988 -0.3059089 -0.117907815 -0.17201933 -0.19955519 -0.00085090974 0.13804777 -0.32766122 0.00082693825 -0.1362814 -0.16091087 0.030166786 0.19725363 -0.11502501 -0.11539853 -0.29517612 0.14411509 0.05363926 0.26737833 0.02398218 0.35516354 -0.06778079 0.047410738 -0.01627542 0.030111782 0.013621226 -0.21606311 -0.12518284 -0.15993027 -0.19327311 -0.115880296 -0.08765343 -0.008995676 -0.102804914 -0.12904024 -0.064304106 -0.3354577 -0.23508489 -0.053595573 0.073006645 -0.056989558 -0.4801625 -0.1323895 0.11965743 -0.008459769 -0.0563517 0.07945825 0.049163867 -0.18095191 0.070072144 -0.32825264 -0.010610348 -0.21002711 -0.05400758 0.05134574 0.079941414 0.07172204 0.19657522 -0.14239363 0.12734596 0.093286425 -0.36105007 0.28531453 -0.03554781 0.10550665 0.1682588 -0.028196584 0.15306212 0.027505003 -0.00034578142 -0.26031125 -0.004479903 0.12656207 -0.33342642 0.06275854 -0.031873807 0.51499707 0.351769 0.002232448 0.14995936 -0.12048306 0.022300359 -0.14267084
1228 -0.26385286 0.005972132 0.07147801 -0.011696593 0.086535245 0.110346496 0.06794095 0.0024066411 0.19510807 0.095439814 0.08500944 -0.088452674 -0.19062372 0.15453564 -0.2206922 0.041606277 0.07965877 0.066613086 -0.26990616 -0.021971643 -0.12146608 0.0019448884 0.24901362 0.019703317 -0.058705393 -0.26133832 -0.23555286 -0.17062175 0.012842014 0.09104456 -0.026733328 0.02574513 0.043161344 -0.008825846 -0.25121698 -0.19951846 0.13339157 -0.2145311 -0.09328092 -0.24546239 -0.2592559 -0.11007769 -0.13150865 0.082910225 0.19270699 0.07453941 -0.0890819 0.11945523 -0.17829435 -0.18387346 -0.0018227648 0.011854142 0.12567112 -0.16246724 -0.25399733 0.2004826 0.22303832 0.118435435 0.07291667 -0.15982558 -0.24251418 0.09050538 0.051131804 -0.17655179 -0.09011595 0.24423371 -0.30980942 0.14475971 -0.21355183 0.07296807 0.44523194 0.3093857 -0.02343907 -0.11609418 0.18591131 0.18437855 -0.17537396 0.18131731 -0.23092195 0.068559915 -0.047374554 -0.08714539 0.0014577515 -0.17547008 -0.029356977 0.086314894 -0.04177687 -0.08534889 -0.09710392 0.1175265 0.090132505 0.030094564 -0.03359112 -0.13284162 0.12819135 -0.19797856 -0.01873029 0.08579443 -0.21942788 0.10905384 0.16280624 0.13449663 0.12843347 0.08849873 -0.012913137 0.4315904 -0.19352318 0.17532027 -0.080905005 0.3419686 -0.056931246 -0.055124566 -0.0016879779 0.017620215 -0.07774719 -0.15271333 -0.16802979 -0.39860353 -0.056890853 -0.002770673 -0.135308 -0.16972664 -0.01308539 -0.08434888 -0.11553259 -0.088212535 -0.23827237 -0.21012393
4257 -0.07130565 0.04852763 -0.13953607 -0.02327229 -0.11844271 -0.061086573 0.28773686 -0.14371304 0.04009518 0.0006363 0.19699353 0.2957362 0.07794825 -0.10215799 -0.36752835 0.14556204 -0.07235667 -0.09629343 -0.2411206 -0.05948709 -0.19757253 0.35749206 0.08683932 0.064479865 0.048703145 -0.089238964 -0.22158082 0.005719124 -0.13911675 0.021653106 -0.09398951 -0.27830365 -0.0056183883 -0.0026143717 0.04439333 0.1127371 0.023608519 -0.08399819 0.15924667 0.11119922 -0.29486036 0.14093876 0.013654842 -0.032261096 0.29845738 0.06278669 -0.14585039 0.014137605 -0.04621443 -0.063922256 0.023486588 0.098149434 -0.03480877 -0.07263663 -0.45602882 0.23233312 0.22406635 0.020919906 -0.03825066 0.037914257 0.11426263 0.27795228 0.19129507 0.12395068 -0.31065747 0.22579826 0.17681211 0.17649302 0.28239486 0.23260216 0.30844814 -0.11480551 -0.2122865 -0.10488313 -0.34912026 0.20222445 -0.03894745 0.008024146 -0.043784156 -0.3346921 -0.015347553 -0.037534766 -0.021646304 -0.09614654 0.08694306 -0.0032535156 -0.24942318 0.16596358 0.2575841 -0.09986767 0.03207969 0.16184577 0.1312351 -0.25131372 -0.030610202 0.25399417 -0.08563806 -0.18020333 0.13812459 0.18530709 0.2720343 0.058738984 0.22406824 0.048762225 -0.015722523 0.080741346 -0.15644622 -0.15877567 0.01199517 0.22877324 0.29268438 -0.1222625 -0.007656095 0.12328596 -0.10575511 -0.22631218 0.052751962 -0.05275397 -0.16817585 -0.061904065 -0.16761635 0.065640055 0.21742535 0.12104448 -0.03299019 -0.06023825 0.31729257 -0.38848683
5789 0.031822886 -0.22189184 -0.014903738 0.1323309 0.026340555 0.29694 -0.2506712 -0.0067076385 0.09513355 -0.24943951 -0.08162309 -0.042457648 0.07926512 0.21270436 -0.12159108 0.005460442 0.39856496 0.043430958 0.100932606 -0.26766023 -0.09578012 0.12626666 -0.05052605 0.12982677 -0.051193547 -0.32516035 -0.0677792 0.16059846 0.09449044 -0.22786397 0.17802058 -0.09707009 -0.10210001 -0.07286738 -0.36243922 -0.3015647 -0.18382776 -0.3033559 0.19699326 -0.19000112 -0.05830291 -0.18676794 -0.29257584 -0.05024785 0.18146041 0.04003414 -0.09262971 0.11314589 -0.13403094 -0.19428755 0.3109552 0.3467219 0.05416749 0.06888502 -0.18521896 -0.07200669 0.16306965 -0.18149143 -0.14309125 0.18738906 0.10708658 -0.07565614 -0.07801863 -0.07341429 0.13071604 0.025485989 -0.020088764 -0.16699632 0.08469753 -0.11938593 0.21290281 -0.12661974 -0.1693389 -0.12808107 -0.05528071 0.00269242 -0.3613445 -0.11493041 0.13965335 -0.086462155 -0.28634563 0.010382809 -0.16218205 -0.06671106 -0.1167097 -0.22657694 -0.30334064 -0.24005102 -0.1136 -0.17888246 0.04997744 -0.5231408 -0.040823057 -0.29081777 -0.21300659 0.12804997 0.1345746 -0.14656386 -0.0033201592 -0.029256878 0.13096601 0.060097743 0.094420925 -0.17142782 -0.00943861 0.35127887 0.10445803 -0.033772834 -0.093340605 0.11230296 0.031657044 -0.06997157 0.08789305 -0.0059988946 0.11952256 -0.09686111 0.034117658 -0.31536704 -0.008974782 -0.006842621 0.10155243 0.14344715 0.293829 -0.0051754257 0.01810015 0.21612643 -0.40059343 -0.20697847
5345 0.06778975 0.020783957 0.09085392 0.09111057 0.31450316 0.043446645 0.039650977 0.2687164 0.016337866 -0.020288546 0.03467457 0.09476883 -0.05730762 0.143172 0.040166624 -0.048034433 -0.16263708 -0.048106357 -0.077514194 -0.16547254 -0.18649817 -0.07775955 0.101431996 0.44050515 -0.31156102 -0.15602608 -0.007346025 0.29079598 0.12059516 -0.15467595 -0.040971458 0.00537118 -0.2242908 0.076888464 -0.23859328 0.034255438 -0.015457935 0.22801362 -0.26119357 -0.21242839 -0.15128058 0.12482865 -0.13241386 0.0861066 0.09134061 -0.2318385 -0.07025478 -0.015129407 0.11725683 -0.22843666 0.26847243 0.09978884 0.091627434 -0.12946554 -0.22590686 0.08353914 0.06855715 0.025990607 -0.17951378 -0.009951871 -0.11282937 -0.041125238 0.11899085 0.042041417 -0.15226245 -0.08600056 -0.21776657 -0.14546725 -0.10154611 -0.022933638 -0.019355137 0.05282878 0.020080911 0.076322064 0.22533822 0.20804466 -0.23753105 0.071607895 0.25064677 -0.18689644 0.21676804 0.15103978 -0.117740214 -0.13783552 0.07151627 -0.25945634 -0.106262974 -0.16924314 0.086775385 -0.20621715 0.06525156 -0.0173492 -0.02722069 -0.3690706 -0.024700124 0.11707894 -0.06566925 0.06393601 0.10487257 0.23896624 0.11374052 0.1329127 0.18776305 0.04345997 -0.32891086 0.2266075 -0.0027772167 0.46603954 -0.2237119 0.24266547 0.31590283 0.17555018 -0.07292226 -0.004348481 0.15969732 -0.19856507 0.032786597 -0.02570118 -0.23363045 -0.104350984 0.09936112 0.015875159 0.0054412642 -0.1833922 -0.03815258 -0.07442264 -0.41828245 -0.19223621
5463 0.05631652 0.19737738 0.13146071 0.12761721 0.09364373 -0.18833464 -0.24842793 0.06663312 -0.12783116 -0.20384263 0.07384178 0.0020216745 -0.07286174 0.20342319 -0.19178894 0.21838431 0.10946058 -0.17464769 0.1403581 0.032030996 0.11010303 -0.26931933 -0.16866055 -0.06009302 0.12946668 -0.39797515 -0.04184179 -0.121243946 0.18576345 0.00945534 -0.07107685 0.0124213025 -0.031453434 0.09430708 0.09939102 0.008086105 0.0060009426 -0.11528245 -0.2280384 -0.14892353 -0.20188683 -0.10402824 0.16687289 -0.095919274 0.05270451 0.04762314 -0.27493432 -0.07576222 0.030149063 -0.11543953 0.028825533 0.26632825 -0.3320212 -0.16794991 -0.16204077 -0.0452 0.2779763 -0.13280962 -0.22150294 -0.20717788 -0.09410886 0.062180128 -0.08322168 0.17540129 0.055699896 0.058581144 0.0045998315 0.056065023 0.086472824 0.04241359 0.11918639 0.16284755 -0.07999371 -0.03498755 0.15478297 -0.04643259 -0.13616554 0.16680755 0.061308097 -0.26735985 -0.17297259 -0.2685183 0.12830389 -0.26570156 0.32726166 -0.27013314 -0.13487373 -0.03305842 -0.14445789 0.19129767 0.15975954 -0.011246541 -0.10330774 -0.01822358 0.1860678 -0.049211383 0.10354526 0.10164377 0.1055141 0.10399087 -0.23910971 -0.14479788 0.20364529 0.15710697 0.010934523 -0.03645754 -0.18253605 0.28821304 0.026814498 0.04898503 0.044505347 0.012024946 -0.09258682 -0.17862271 0.1584867 -0.036794443 0.035551094 0.043735772 0.11978794 -0.08645678 -0.13006704 0.124050416 0.17115526 0.19111519 -0.08484598 0.14067812 0.077277325 -0.036291823
1074 0.19429664 0.2120408 -0.073595054 -0.11239992 0.14659975 0.07373355 0.0042002527 0.09630081 -0.310552 0.027377 0.060192928 0.01857821 0.1231727 -0.1530786 -0.24689843 0.15014122 0.16506192 -0.27506474 -0.09318739 -0.18041892 -0.21630022 0.22251907 0.2552937 0.6254117 -0.0627671 -0.1313218 -0.1539243 0.031167228 -0.114925876 -0.0012541672 -0.26422387 -0.11676221 0.06336758 -0.021943077 -0.10658758 -0.1680269 0.08025449 0.13705513 -0.06420974 -0.22911885 -0.19134855 0.11106861 -0.031496346 0.08751336 0.069186404 0.10000305 0.0128599275 0.1222914 -0.07385426 0.06366612 0.05359855 0.03839892 -0.16608466 0.24107353 -0.31208807 -0.15139939 -0.07705862 -0.075054355 -0.102922976 -0.3904629 0.10733801 -0.1331875 0.12386142 -0.068863206 0.002037529 -0.2631675 0.023179686 0.2363883 0.017384069 -0.13699885 0.23091196 0.16502285 -0.21395963 -0.19524352 -0.07287148 -0.04001632 -0.012305984 -0.06730692 -0.15902472 -0.30633453 0.061168373 -0.096627936 -0.035672843 -0.08242918 -0.1475702 0.14970481 -0.075370364 -0.13316227 0.2607904 0.32025355 0.13320702 0.14551452 0.26636174 0.002517948 -0.081641816 -0.3240275 0.017267566 -0.015700463 0.065805286 0.0542326 0.023445373 0.06669019 -0.12411243 -0.22226235 -0.15856203 0.277067 -0.09145059 -0.010564744 0.28076056 -0.19583093 0.14458248 -0.009726712 0.22220351 -0.26457167 0.107683174 -0.17618868 -0.23445709 -0.12154164 0.029227782 0.03817298 0.010673284 -0.07786431 0.10239673 -0.0228084 -0.30385923 -0.025990056 -0.0042827586 -0.05651301
496 -0.016981917 0.08526482 0.15768738 -0.0055318684 0.03462479 -0.35561094 -0.20778386 0.019170528 0.25698933 -0.31572902 -0.058711007 0.03553844 0.1344075 -0.025621131 -0.32187665 0.09135723 0.07507541 0.042401552 0.14494199 0.12721275 -0.059847057 -0.053083967 0.031698737 0.27914524 -0.02287478 -0.09617146 -0.018833486 0.0015405437 -0.18682253 -0.02124815 0.07345995 0.052283745 0.0025412561 0.014579299 0.039187327 0.13373417 -0.034685574 -0.25426152 -0.020237133 0.024442468 -0.23907438 0.09171761 -0.22529292 -0.18082577 -0.014628103 0.044514697 -0.25401446 -0.0015728442 0.060835384 -0.047667585 0.065954074 0.10309165 0.013696848 0.09386258 0.06081274 -0.22175945 0.10191758 0.09775502 0.13903004 -0.24391854 -0.09559867 0.009708785 0.025162399 0.23739877 -0.17939702 0.158433 -0.052573647 0.06689262 -0.0677118 0.24707228 0.078316666 0.24509753 -0.36437237 -0.0028056265 -0.24246025 -0.0004617657 0.19762923 0.060122985 -0.010399443 -0.16553652 0.09644231 -0.23679087 -0.1001889 -0.11514197 -0.084132 -0.051936224 -0.2888229 0.02167335 0.15291108 0.25018865 -0.06872637 -0.21965969 0.10113735 -0.26261428 0.39643615 -0.2087268 0.02241164 0.18804938 0.21925655 0.15644477 0.16044478 -6.504022e-05 0.12673466 0.14110059 0.22566637 -0.14938341 0.13298404 0.016797075 0.34954455 0.102329865 0.12184204 0.08620958 -0.33339572 -0.101853676 -0.030666841 0.2966891 0.13938582 -0.16966161 -0.2549998 0.2955104 -0.0071529513 0.041074187 0.20514093 -0.05567881 -0.17223442 -0.044548515 0.09208845 0.08326901
813 -0.34947327 0.16626887 -0.24897435 -0.01890489 0.2150619 -0.025039408 0.108783744 0.30826738 0.20218787 0.03876672 0.0786561 0.013318494 0.06688992 0.11883969 -0.39620623 0.03563655 0.16505937 -0.061196536 -0.10069249 -0.0722632 0.015762968 -0.12722313 0.063665144 0.05414697 -0.012702748 -0.25736883 -0.2848755 0.03151735 0.037773017 0.1457753 -0.088974625 -0.047972966 -0.073060125 0.12398588 0.063530624 -0.04714666 -0.10060222 -0.082773805 -0.2646229 -0.24733634 -0.067756705 0.036296878 -0.043997664 0.20938823 0.31021538 -0.16074036 -0.1647799 0.075379975 -0.13137844 -0.20803316 0.13593817 -0.00039140365 -0.24795528 -0.11003076 -0.078827016 0.005082758 0.015837068 -0.0081435945 -0.22517185 -0.045673545 -0.020344486 -0.053170018 0.16330205 0.24432552 -0.1327953 0.13001384 -0.124137275 0.07577562 0.06003748 -0.17368405 0.21482518 -0.10365066 -0.0670183 -0.048046738 -0.11590012 -0.1028971 -0.048824344 0.034706157 0.012774181 -0.30666655 0.043898597 -0.230144 -0.06622633 0.08275176 -0.06470795 -0.009223894 -0.15218808 -0.06509667 0.23444101 -0.32845876 -0.12743789 -0.18225719 0.04025144 0.028899554 -0.13079247 -0.009276391 -0.041402616 -0.1555323 -0.19097838 0.15645118 0.037326407 -0.017362593 0.27764353 0.29454792 -0.083074115 0.018004168 0.03725923 -0.016576579 0.16069694 -0.14612284 0.118969165 -0.05637265 0.060599305 0.040737465 0.1974423 0.030621542 0.02863795 -0.06993797 -0.33670878 0.059322815 -0.040508445 0.036275446 0.03574564 -0.12187391 -0.09806172 0.09302861 0.102061175 -0.06979109
4321 0.11896056 0.12298766 -0.03256503 -0.027938703 0.18149641 -0.32134858 -0.032354046 0.007979916 -0.1078306 -0.2787902 0.1717571 0.094340555 0.2655914 -0.048913028 -0.31448585 0.101008736 0.1533627 0.09961394 -0.0032874062 0.31254122 -0.032522622 -0.038996857 0.16372503 0.081647925 -0.010189023 -0.021450939 0.039103188 -0.022040691 0.24663834 -0.0687147 -0.120863535 -0.015343194 0.10857447 -0.2734042 0.047801275 -0.10132313 -0.15170608 -0.13439262 -0.04919185 -0.08318348 -0.3443945 0.11724285 0.028680773 0.02032926 -0.2107524 0.040608168 -0.34616834 -0.21929334 0.09641637 -0.16317894 0.18812229 0.12920201 -0.1248169 0.06708012 -0.0069762543 -0.07940173 -0.00047415122 0.071169674 -0.2778788 -0.011944991 0.14841764 0.28163865 -0.2559389 0.23560715 0.009216815 0.20317298 -0.060068816 -0.2126771 -0.22609492 0.07175378 0.18397246 0.15402433 -0.31255314 -0.0019279377 -0.3411361 0.0770748 -0.14978418 0.28420615 0.058419466 -0.2320949 -0.033323094 -0.35063928 -0.09313532 -0.16805367 0.061183725 -0.14806496 -0.17005967 0.10337038 -0.15225042 -0.08851935 0.08935464 -0.0069137146 0.267407 -0.3767012 0.37297526 -0.16324273 0.075509004 0.2637901 0.028815309 0.10251648 0.011988139 0.16919969 0.18816842 0.26306286 0.05244901 -0.059706546 -0.090986446 -0.10828359 0.296468 -0.11316424 0.109942704 0.120164946 -0.17578562 0.12433149 0.1722399 -0.046105444 0.091607526 0.053034127 -0.1392713 0.24868706 -0.06619232 0.024661059 0.07094368 0.1083397 -0.28232944 0.10111498 0.009702218 -0.08118097
56 -0.32985434 0.18872276 0.16434072 0.1972879 -0.02374996 0.054387376 -0.077797376 0.055795375 -0.5159491 -0.0067644804 0.39973554 -0.05662416 0.19067515 0.14775333 -0.1848237 0.16048372 -0.023046281 -0.099878624 0.16675146 0.0011537446 0.12994318 0.06433426 -0.12407701 0.18866384 -0.13444501 -0.38635638 -0.023644656 0.22372341 0.3230583 -0.072964124 0.060769357 0.096579716 0.0705066 0.1671943 -0.14487717 0.3341505 0.112518124 0.016655538 -0.032333463 -0.23152776 0.12206408 0.1311154 -0.31702885 -0.14943042 -0.1284348 -0.1253357 -0.092640445 0.06998331 -0.14881052 -0.046956144 -0.11042619 -0.0017836441 -0.122541755 -0.060536467 -0.09267744 0.25692898 0.30731004 0.0054818415 0.10056389 -0.108512156 0.05525796 0.0024096798 0.111655265 0.083672985 0.01938524 0.18755096 -0.03549048 -0.1514857 0.086444244 -0.46656558 0.32674205 0.12942335 0.032369293 0.028078547 0.048043355 -0.0109107215 -0.14686716 0.009168551 -0.028793022 -0.18651421 0.28585753 0.14821683 0.0009989352 -0.16228376 0.084721625 0.05181361 0.010662458 -0.053427983 0.16403373 -0.08417279 -0.04440904 0.034837484 0.14407206 -0.40269825 0.0014417267 -0.1533183 0.2270974 -0.06272602 -0.031343296 -0.034022857 0.18019702 -0.017065205 0.15162946 -0.22220671 0.18673767 0.20109281 -0.13782679 0.111542165 0.08101836 0.5049348 0.13098809 -0.020561371 -0.09409874 0.07461571 0.11567443 0.04275928 0.07042986 -0.16184185 -0.10672319 -0.17381531 -0.11400023 0.22543432 -0.5062239 -0.1272203 0.100527726 0.0843333 -0.13402925 -0.3739972
1198 -0.054554436 0.06374935 0.09142686 -0.08163889 0.2506295 0.05875036 0.01474453 0.20403054 0.03937146 -0.052506313 0.21447141 0.041683048 0.07378514 0.018058453 -0.12531745 0.053135812 -0.1988099 0.28523362 -0.2909331 -0.14065185 0.1298156 0.26603335 0.20609203 0.42983228 0.04005598 0.08678422 -0.034036446 0.06260506 0.10365758 -0.08854204 -0.015409108 0.06761089 0.13359162 0.056449067 0.13382892 0.020529166 0.099593036 0.16903083 0.015255439 -0.1332408 -0.21843171 0.24997666 0.006625814 -0.1132137 0.25718457 0.14194873 -0.17284563 -0.14150013 -0.11768463 -0.1055802 0.24302933 0.3492527 -0.27771592 0.079336375 -0.22030966 0.16153027 -0.018088635 0.27429482 -0.07967054 0.10076982 -0.024913518 0.25240454 0.019303186 0.027626334 0.009407019 0.23688376 0.101023994 0.095512375 0.050085623 0.2072445 0.16993065 0.07800779 -0.28566682 -0.27070192 0.15394616 -0.17697985 -0.14898193 -0.0430398 -0.19328359 -0.25950766 -0.06691506 -0.16428424 0.12164961 -0.010116917 -0.09253907 -0.20882614 -0.10140173 0.15866755 -0.098191746 -0.15927427 0.10351665 0.059994742 0.30620924 -0.089824386 0.055083986 0.08443784 -0.2480688 0.056759432 -0.02491319 0.09174234 0.28990084 0.129781 -0.12805334 -0.096845195 0.041942358 0.1681772 0.01669493 0.1194099 -0.03401584 0.16849706 0.09977937 -0.19973916 -0.24248958 0.019820714 -0.11277617 -0.13115558 0.16201249 -0.079730414 -0.29250252 0.13255656 0.011520233 -0.11244887 0.31938577 0.062023357 -0.14353229 0.19722462 0.02638716 0.04267864
3337 -0.10777528 0.31250882 0.21466532 0.011240719 0.08150726 0.2210211 -0.13613467 0.13704397 0.13691793 0.099638924 0.006183045 -0.15501088 -0.09947753 0.022937022 -0.18002738 -0.24863423 0.14037584 0.16525637 0.11282893 0.018669715 0.059885968 0.02534757 -0.18388945 0.30218294 0.11038179 0.09325427 0.032083537 0.0568066 -0.026683481 -0.16003288 -0.3549246 0.045192096 -0.0028117248 0.006836108 -0.41329834 -0.026026214 0.16013731 -0.41332212 -0.09194962 -0.4382922 -0.09241173 -0.16433465 0.029136939 -0.14537261 0.14718542 -0.1408049 -0.080587484 0.054517444 -0.100148916 -0.2836853 0.52196765 0.07109491 -0.11537165 -0.097171515 -0.058740564 0.10925728 0.2612796 0.08114757 -0.081160195 -0.26398218 -0.12278259 0.122426555 0.03480981 -0.03783493 -0.09966827 0.24378417 -0.27700958 0.23605879 -0.035481308 0.25326794 0.30928186 -0.19868448 0.15231928 -0.18255645 0.003622555 -0.027158806 -0.18155557 0.036280856 -0.21868783 0.033501178 -0.295761 -0.10867227 -0.08774019 -0.1566785 -0.023478987 -0.019941142 -0.1280956 -0.033494167 0.038789418 -0.12026931 -0.04637179 0.15504347 0.1752504 -0.18783918 0.24826013 0.041001283 -0.23975064 -0.13410047 -0.041593704 0.13420402 -0.039096586 0.15668318 0.3086314 0.120761424 0.09261568 0.13340493 -0.12623475 0.41488746 0.033194024 -0.17013818 0.08043049 -0.0767736 0.022808153 -0.0900669 -0.06639654 -0.28549 -0.13799481 -0.38779467 -0.03322448 0.119440846 0.20505786 -0.0011136308 -0.06127048 -0.27419174 0.020701375 0.024770126 0.15319195 -0.081050746
3737 -0.3990139 -0.077276014 -0.32075217 0.18612343 0.05643809 -0.08477448 -0.10578296 -0.28812808 -0.038000114 -0.20199671 0.1419778 -0.13834955 -0.035563767 0.1094479 -0.1296582 -0.17066577 0.07982705 -0.21199934 -0.20544608 0.05308511 0.016731957 -0.14248893 -0.10676934 0.07243599 -0.07786903 -0.191284 -0.12901396 -0.11031579 0.16199483 -0.17636235 0.046594806 0.054526366 0.012263025 -0.025449844 0.11876302 0.2837725 -0.26880935 -0.1530027 -0.06287807 -0.10452977 -0.15478936 0.06834038 0.13780709 -0.18011117 0.10680287 0.18046771 0.19171008 0.24556704 -0.14934722 -0.32312137 -0.14710289 0.118274726 -0.21011196 -0.053008966 0.12710907 0.23187113 0.039256826 0.08543927 0.0051190197 -0.0444865 0.03474601 -0.18983111 0.39496943 0.42741323 -0.5744359 0.12373098 -0.060189128 -0.35417438 0.47853988 0.1960776 0.25470492 0.124861136 -0.12497067 0.013719592 0.00093675026 -0.16410677 -0.10315635 -0.25494152 0.021724122 -0.5130206 0.08185824 0.11224636 -0.24958602 -0.1793485 -0.314786 -0.010364861 0.06786175 0.093754545 0.21519059 -0.13359311 0.30348128 0.18582578 -0.06997479 -0.20708843 -0.0983584 0.015494292 0.17230067 0.0815235 0.03888407 -0.15312262 -0.025992356 -0.16822235 -0.16035634 -0.028829856 -0.041603096 0.21891288 -0.08798684 0.42654186 0.08224898 -0.08889956 0.058180895 0.09011765 -0.040573392 -0.15825617 0.10217551 -0.03191557 0.13923216 0.04875323 -0.045431927 -0.17083631 -0.0725265 0.021430241 0.22071168 -0.09754316 -0.12255437 0.025098434 -0.14723559 0.07821105
20 -0.25313422 0.13257182 0.14771438 -0.1438271 0.021119872 -0.050358925 0.017881807 0.3170753 0.1605593 0.118418865 0.009437628 -0.11368505 -0.06403815 -0.060807366 -0.24643311 -0.0228078 0.31489787 0.09279456 -0.042487904 0.052186985 0.006547746 0.050029147 0.17725445 0.114046335 -0.14036077 -0.08846455 -0.058985665 0.15293533 0.11573529 -0.31822988 0.057770032 0.109966464 0.25785896 0.25058922 0.021323014 0.10996756 0.016706867 -0.1818045 0.1755847 -0.2114908 -0.24344012 -0.01141839 -0.07552338 -0.09330146 0.28792882 -0.059243318 0.017714998 -0.018749613 -0.004010505 -0.16391441 0.097506404 0.059859574 -0.1545823 0.0037421165 -0.20391124 0.24382815 0.055909354 -0.0023121692 -0.043063585 -0.120625935 0.1381031 -0.04396146 0.09089244 -0.071645536 -0.24989045 0.22428803 -0.35123792 -0.0737311 -0.091166735 -0.115058124 0.2926107 -0.08404159 0.044832624 0.016985439 0.06663496 -0.21516474 -0.042089764 -0.10165672 -0.03973703 -0.33010578 -0.053671807 -0.4064996 -0.10130724 0.0074507627 -0.028820943 -0.16162781 -0.17592125 -0.016962336 0.24596268 -0.16928823 0.0498039 0.14620541 0.019063776 -0.15236413 0.18056463 -0.11975683 0.06981221 -0.112874486 -0.056717586 0.09764197 0.24130598 0.21813276 0.21821477 0.13589077 -0.10381131 -0.004553437 -0.19421028 0.19910052 0.052320044 -0.01860254 -0.048013806 -0.16500045 -0.0049438993 -0.06487108 0.1626213 -0.15854263 0.0071065766 -0.26871383 0.09040056 -0.17988159 -0.26927024 -0.13980721 0.15592904 0.046096448 -0.12649705 -0.027412068 0.18437813 0.007320706
1628 -0.029256206 0.054166697 0.29883236 -0.1844265 -0.16418569 -0.08497889 0.049389392 0.2312627 0.008557501 -0.027912453 -0.11034615 -0.008751671 0.0111321425 -0.11261733 -0.09117365 0.32544246 -0.16224992 0.09707125 0.1076627 0.13566726 0.040677078 0.007981519 0.030793138 0.09366552 0.09615829 -0.1653977 0.050959405 0.16102356 -0.025769295 -0.040236533 -0.22527657 0.18264274 -0.10320144 0.16928817 0.026190186 -0.020381609 -0.08079319 -0.018640514 -0.21965902 0.00030028648 0.020312198 0.03647923 0.07459921 0.034870557 0.07713268 0.011329268 0.076188855 0.18273678 0.05215337 -0.08247386 -0.19280851 0.15602556 -0.38487974 0.08634194 0.09182019 -0.019979848 0.20595539 -0.12596636 -0.032533307 -0.13535953 -0.17991924 -0.04430544 -0.062154684 0.21102884 -0.082900316 0.19561131 -0.18131638 -0.08230474 -0.008354386 0.11053126 -0.07891444 0.25915274 -0.21596129 0.043173175 0.012439404 -0.0035342562 -0.06107934 -0.05705475 0.063189186 0.0030735072 -0.1525179 -0.23761025 -0.20197234 0.09622659 0.19444637 -0.058596626 0.08525128 0.03628682 -0.17752895 -0.14735912 0.118690856 -0.10231595 0.20233549 -0.10059497 0.11481499 -0.10881795 -0.013813937 -0.03472004 -0.028655047 0.0055976585 0.19037153 -0.07768258 0.41805428 -0.004889314 -0.17240502 0.10439438 -0.2566112 -0.06844344 0.029118082 -0.12757145 0.1539172 -0.064017035 0.10795578 0.042704903 -0.16121347 -0.040809188 0.038242664 -0.06437895 -0.10449023 -0.053780153 0.0034691524 0.3500566 0.1444756 0.07489129 0.019863136 -0.040317908 -0.06614605 -0.03957675
3872 0.17776498 -0.2206402 0.0411077 -0.25575796 0.08669998 0.07339726 0.3749654 0.3295705 -0.14037237 0.11194986 0.16027793 -0.07678532 -0.052888032 -0.045116484 -0.15374012 0.037363786 0.18993603 -0.14804754 -0.05902399 -0.076792404 -0.022497868 0.017942289 0.22181292 0.17484663 -0.0070114713 -0.0449892 -0.55490905 0.07768081 -0.11211704 -0.14335565 0.109274976 -0.082418464 0.02588669 -0.11775004 0.14156559 -0.24997649 -0.30552518 -0.04154084 -0.13028528 -0.19625504 -0.06911048 -0.16578956 -0.037274104 -0.027521031 0.39242882 0.111752994 0.07347161 -0.11341894 -0.24701536 -0.072437204 0.1227566 0.11406222 -0.07255747 0.3136338 0.09026949 0.21072689 0.12030156 -0.22680257 -0.35511225 0.03266473 -0.35440096 -0.08890457 0.13887863 -0.034918495 0.0073884004 0.22579046 0.30668962 0.19245821 0.17664632 0.21690124 -0.010264403 0.1575267 0.06666744 -0.24557954 -0.04811932 -0.24619459 -0.10851242 0.121847376 0.2348462 -0.23547225 0.060475025 -0.028801937 -0.18558674 -0.12860273 0.066587456 0.20564346 0.1828718 -0.18923953 0.2881808 0.079316095 0.2632356 -0.030641235 -0.12479553 -0.242647 0.07232101 0.05534175 -0.06751044 0.18867259 0.38177815 0.2530674 0.23290691 0.039054263 0.42683294 -0.0813868 -0.14379391 -0.04121827 -0.1529239 0.091925204 0.2908639 0.11847654 -0.026820539 -0.5509178 -0.039194945 0.18578105 -0.06372045 -0.06513088 -0.11040335 0.14132492 -0.087867446 0.10026309 0.09053573 -0.023554688 0.22074796 -0.08065001 -0.16348752 0.12084796 0.27193922 -0.094572045
4572 0.09711784 -0.0751713 -0.039774276 0.2110115 0.19670783 0.09497124 0.06752758 -0.2914011 -0.09385926 -0.17074363 0.043173056 -0.005131909 0.10997008 -0.107982434 -0.42714423 -0.101181515 -0.028053315 -0.041053038 -0.030867303 0.24131908 0.043183245 -0.06063674 -0.009828175 -0.022977496 -0.084628865 -0.5026546 0.055829477 0.11892432 0.32976598 -0.017584596 0.06053016 -0.12245327 -0.07011879 0.14396474 -0.18575646 -0.37476107 0.0036503074 -0.26603067 -0.055173907 -0.1718573 -0.30544293 0.14946952 -0.20581049 0.049693674 0.10761678 0.23359646 0.040246755 0.48991388 -0.11427949 0.045161676 -0.108758986 0.07483753 -0.037477802 -0.022916682 0.12922025 0.08200273 0.13336071 0.12833995 -0.2745799 0.21353413 -0.32388863 -0.04416474 0.09766891 -0.17150009 -0.4272123 0.07424687 -0.12055914 -0.015440143 -0.023155881 0.06253002 -0.26380745 0.100429006 0.041689638 -0.050611604 -0.022434322 0.009196543 -0.12886116 -0.25579926 0.40155092 -0.06271571 0.0017236694 -0.07389063 -0.13358049 0.030175284 -0.09666734 -0.081933275 -0.10795571 0.2744822 -0.15117033 0.0075557437 0.06694579 0.19296715 0.32376185 0.08017133 0.03932516 -0.094960935 -0.06119016 -0.2840586 0.05894042 0.122578755 -0.088034645 -0.17371313 -0.0115040755 0.034446776 -0.043277483 0.23916188 -0.010077518 0.33021885 0.28525576 -0.24860902 -0.09614726 -0.3660655 0.07764553 -0.25184286 0.08096481 0.18359984 -0.015877469 0.086351104 -0.25980604 -0.018009817 -0.13495387 0.152685 0.2477583 -0.021720372 0.19446044 -0.2667415 -0.03371204 0.24011715
2016 -0.03721944 0.018489288 -0.1499731 -0.20111385 0.506854 0.11139979 0.058429424 0.07157083 -0.09966461 -0.37327158 -0.14504038 0.23645674 -0.09617103 -0.1223519 -0.080677465 -0.039633054 0.13667387 -0.15827158 -0.17488806 -0.031594083 0.058638133 0.13379958 0.30800617 0.051334616 0.14986436 -0.16792971 -0.22833893 0.14014621 0.18404132 0.22553903 -0.13524018 -0.21026117 0.09027675 0.09944828 -0.40963835 0.13456945 0.11813411 -0.054102182 0.0025264798 -0.11558652 -0.13294788 0.19815204 -0.12793584 -0.1811853 0.30808154 0.084837735 0.14888798 0.084655166 -0.006267128 -0.1258903 -0.065843396 0.006207541 -0.02980554 -0.25107002 -0.1251213 0.16763125 -0.42636544 -0.13321559 -0.088089265 -0.048553716 0.024385253 0.09230732 -0.4130926 0.109709 0.060566697 0.34050584 -0.016197396 0.19911641 -0.08387802 0.25350398 0.15350428 0.12604827 0.16707952 -0.28792343 0.27451122 -0.17754938 -0.034653846 -0.042613685 -0.08127655 -0.17358327 0.13731559 0.059608042 0.05581554 0.30293065 0.16288306 0.13326524 -0.07491263 -0.083205655 -0.07665053 -0.017161278 0.12503839 -0.017812887 0.00015472987 -0.26616082 0.07318257 -0.10552695 0.0014658546 0.11829842 -0.071178764 0.21207 -0.18330948 0.117133126 0.20004332 -0.15520954 0.21987484 -0.0588226 0.05945 -0.11144079 0.41226012 0.123207144 0.23588774 -0.19970728 0.4091183 -0.3118074 -0.22687557 -0.0586062 0.105748735 0.08578849 -0.1738865 0.031404343 0.31693664 0.071367994 0.1736405 0.05133381 -0.12688704 -0.17474255 0.010466604 -0.021244317
4012 -0.13039 0.11592024 -0.10869962 -0.31475842 0.196035 -0.094330564 0.3155213 -0.040477578 -0.012874836 0.065748334 0.123603955 0.13370945 -0.029886292 0.119856454 -0.33947435 0.28045115 0.14480516 -0.032031238 -0.09231564 -0.002560942 -0.025961177 0.15359777 0.08505633 -0.07708351 -0.059640147 0.0031630376 -0.3360284 0.13362874 0.027727727 -0.20658045 -0.10945442 -0.15157503 0.20428757 -0.1963707 -0.4358293 0.04874772 -0.058996107 -0.12723434 -0.11298154 -0.22635753 -0.097043276 0.08178579 -0.20244095 0.12840293 0.24124996 -0.2489773 0.02642565 0.1872444 -0.29579982 0.0624288 0.1370362 0.20639525 -0.19028686 0.05189685 -0.33688053 -0.085788354 0.3292824 -0.070269346 -0.29411054 -0.023699561 0.3869112 -0.16844463 0.17981933 0.25703374 -0.13248649 0.1774414 -0.23671114 0.1512495 0.071457095 -0.14441313 0.29745784 -0.057728622 0.21670875 0.018366806 0.100129604 -0.3260732 0.10334804 0.20550811 0.024866559 -0.07667901 0.07973382 -0.1402948 -0.131753 0.08484798 0.046365153 -0.2358924 -0.14584497 0.03461498 -0.015241138 -0.24562281 0.12676711 0.013268374 -0.14026433 -0.018222915 -0.093944475 -0.12952012 0.09417757 -0.081801206 0.042338107 0.20317398 0.18490928 -0.020938925 0.02307232 0.3083469 -0.19555996 -0.27129522 0.140148 -0.05479894 0.1932747 0.043596353 -0.03064031 -0.05518882 -0.18337028 -0.25755912 -0.122610465 -0.065669924 0.091740325 -0.14519879 -0.17623308 -0.03650734 0.051768154 0.038447987 0.2630261 -0.05754776 -0.17729492 0.048509203 -0.3632467 0.044684384
335 0.18390281 0.07894087 -0.013228807 -0.10282992 0.26247573 0.007283493 0.11330645 -0.101973034 -0.37037596 0.06925777 0.17925513 -0.15664804 0.12064803 -0.31553477 -0.37895212 0.0767707 0.3088774 -0.09410747 -0.00095239596 -0.20412089 -0.30164427 0.08703681 0.37375697 0.2649644 -0.20111081 -0.105841935 -0.13550298 -0.02859959 0.060418658 0.006406336 -0.06054973 0.053379104 0.20294702 0.11880789 -0.07421674 -0.04700541 -0.024875412 0.16251568 -0.10194889 -0.18350035 -0.036685493 0.042885322 -0.28138828 -0.23365082 0.23499048 0.08825281 0.23200318 -0.05904283 0.06687777 -0.020859664 0.10439292 -0.06782749 0.011476383 0.12674809 -0.32456762 0.061669063 0.022430453 0.17028895 0.09219855 -0.27819964 -0.18860878 -0.17477503 0.16238923 -0.037668135 -0.02277727 -0.10277069 -0.0050753006 -0.10465907 -0.01974658 0.14751273 0.31595415 -0.25707304 -0.09476146 -0.11899839 -0.09534553 0.15847898 0.09943802 0.21302384 -0.21546084 -0.124332055 -0.079519875 -0.04608662 0.06307947 0.024479637 0.112645835 -0.0014802385 0.21301474 0.1822857 0.18145625 0.06092695 -0.06945019 -0.16268155 0.027053926 -0.31188625 -0.093394384 -0.115871154 0.14311808 -0.009947671 0.41197735 0.085241 0.10846233 0.06286936 -0.046393555 -0.18072963 -0.007779142 0.27164182 -0.2169317 -0.0070592854 0.3376161 -0.05135626 0.053161643 -0.039050408 0.2144355 -0.26540408 0.10624759 0.034097314 -0.23850726 -0.2666806 -0.06568738 -0.10079755 0.23287112 0.24036923 0.21106452 0.083805494 -0.35358357 0.04951506 -0.26869375 0.0017032715
4812 0.04541566 0.17571814 -0.11501238 -0.012666936 -0.049532756 0.005469134 0.16754538 0.087945096 -0.1932529 -0.24104555 0.033408828 0.15718636 -0.1509448 0.042891745 -0.27980447 0.019246 -0.008910802 -0.0057265135 0.043776624 0.02454189 -0.09508144 0.0041662604 0.04593075 0.16989002 -0.007876476 -0.23712125 -0.031609822 0.039051957 0.175666 -0.07392811 -0.08564879 -0.04979536 -0.08561795 -0.05177824 0.058937512 0.010208643 0.14858595 -0.39246613 -0.22247268 0.02753555 -0.0996294 0.1142604 0.07260726 0.04180093 0.11841363 0.18645003 -0.23543048 -0.023818308 -0.16175385 -0.10320899 -0.112033606 0.24651413 -0.13926949 0.15007547 -0.21092951 -0.094722554 -0.024098478 -0.039572764 -0.02722023 -0.14272368 -0.09186669 0.17883879 -0.00995346 0.32735366 -0.102317505 0.16187577 -0.16420928 -0.18463339 0.053294376 0.040334135 -0.114508726 -0.03660916 0.14313188 -0.0017104547 -0.0560567 -0.09270287 0.13917081 0.33296752 0.08223038 -0.31936893 -0.00729357 -0.21071078 -0.16832656 -0.055243697 -0.13231832 -0.07502655 -0.2183145 -0.09922732 -0.14962555 -0.058947094 0.0047455453 0.017799424 0.2172123 -0.086026974 0.12555625 -0.32059386 -0.26073256 0.0076867333 0.14615864 0.13969153 0.038208943 0.043030117 0.18885833 0.08408007 0.11483086 -0.061480995 0.06257477 0.027505029 -0.046658833 0.12517488 0.105753876 -0.045932014 0.01689235 -0.09905612 0.08869534 -0.13091718 -0.051728286 -0.13200335 -0.1859403 0.18547323 -0.1351185 0.19305626 0.37730408 -0.16722475 -0.18136458 0.18942963 0.060536817 -0.13377406
1315 -0.3574558 0.29556677 0.11818228 -0.009735343 0.010071995 -0.08754006 -0.08278125 0.10643625 -0.097881004 -0.015478888 0.00783981 0.046093866 -0.03198809 -0.024207903 -0.060320076 0.0643041 0.12461976 -0.031163303 0.1015516 -0.09480903 8.959782e-05 0.15169398 0.27241793 -0.08694839 -0.060501043 -0.031771947 -0.17739005 -0.12161328 0.0058683213 -0.17018336 -0.10998055 0.0072098947 0.14338303 0.14857726 0.035836164 0.04200577 -0.2903769 -0.10778375 -0.01835408 0.019913146 0.0017744638 -0.065716684 -0.17751676 -0.09015301 0.13260564 -0.22200361 0.033303827 0.14966403 0.12067861 -0.029795041 0.26780263 0.18011905 -0.10085475 0.07861146 0.16600032 -0.030106047 0.15246598 -0.08768785 -0.05177506 -0.05241098 0.03469314 -0.046062503 -0.04481251 0.27012366 -0.17237689 0.08941825 0.05037433 0.13706867 -0.34865454 -0.036597896 -0.029876556 0.11466043 0.021333518 0.14036897 -0.26617163 0.081259556 -0.04047087 -0.0074513936 0.2056175 -0.12512268 -0.044132113 -0.10792469 -0.2482261 0.071502395 -0.020403963 -0.13521342 0.0872477 0.1883951 0.01840899 -0.021873035 0.10130967 0.062265135 0.10999322 -0.19765945 -0.053926557 -0.17963551 -0.043165088 -0.101520486 -0.3198797 0.15490992 0.18586071 0.14412427 0.3633513 -0.3209395 -0.0995106 0.2381952 -0.13606317 -0.055458467 -0.08218515 0.31040174 0.23372068 0.042142395 -0.033642616 -0.17317845 -0.015737573 -0.17636672 -0.06613927 0.014627488 0.045516443 -0.13262266 0.04076861 -0.12645535 0.2848038 0.0783915 0.05699207 -0.14448173 0.049842443 0.010479895
1674 -0.084970616 -0.084424324 0.07101378 0.13336475 0.13568252 -0.12297509 -0.19760165 0.17258945 0.03527048 0.013079409 -0.07603412 -0.17711349 0.027940884 0.0881705 -0.011724785 -0.05775572 -0.07262489 -0.14333317 0.08425963 -0.16270679 -0.2422229 0.34320462 -0.0688634 -0.15667611 -0.5230598 -0.23517501 -0.07483303 0.19359174 -0.1728717 -0.06176177 -0.40466863 0.1954934 0.026701137 0.15626006 0.1515156 -0.08012606 -0.11802574 -0.11590718 -0.22379881 -0.05775187 -0.01848875 -0.20075488 -0.13432032 0.10129869 -0.006048474 -0.064615935 -0.06209017 0.23564118 0.08415858 -0.1736019 -0.15928534 0.15368822 -0.40047082 0.11986751 -0.00043085098 0.09604524 0.17107716 0.20623143 -0.105700135 0.27937707 -0.1034374 0.075269215 0.2028919 -0.21360049 0.23262414 0.18652244 0.10333153 0.23195064 0.1131991 0.11397265 -0.2422828 -0.17541775 -0.29815063 -0.17618763 0.094298586 -0.13405868 -0.077224426 0.41996008 -0.006127417 -0.5248392 0.14553343 -0.111830585 -0.026226692 -0.1382367 0.06883951 0.17837155 -0.62200475 -0.053002484 0.00083880965 -0.3555015 -0.06585146 -0.055667017 0.03814375 -0.40446568 0.09277942 -0.24541095 0.11566539 -0.1292362 0.05378676 0.13180614 0.1328612 0.017248172 0.15785344 -0.15430757 0.016117243 0.10638112 0.008332542 0.20269315 0.28198257 -0.043679446 0.18307078 -0.077153 0.22153746 -0.35412285 0.3589888 -0.16635919 0.030750278 -0.104647025 -0.36213896 -0.18675637 -0.25201532 -0.25165355 0.22818637 0.12974676 -0.21037617 0.09187252 0.010852395 -0.114905134
3123 -0.32607126 0.09357331 0.17978348 0.08125116 -0.03070536 -0.08118045 -0.117696375 -0.20054166 -0.07608416 -0.07105202 -0.09671364 -0.12799677 0.1873958 -0.05701314 -0.20426974 -0.2109477 -0.37257063 -0.17029275 0.07237598 0.13666879 -0.42025524 -0.14727882 0.1447383 0.025557322 0.030254642 -0.41048914 -0.077667445 0.19909978 0.14798798 0.10574091 0.016327308 0.018904705 0.25439644 0.30213368 -0.09981802 0.090436585 0.19636703 -0.334221 -0.29799083 -0.12675816 -0.33900583 -0.10611597 -0.026748575 -0.2467841 -0.105087034 0.111175254 -0.10149932 0.06086659 -0.19412126 -0.025289513 0.050586693 0.2074465 0.05355988 0.38459662 0.17368591 0.02961068 0.15053439 -0.091770194 -0.38792428 0.21498655 0.063775524 -0.35904926 0.13137285 0.21765065 -0.27817246 0.15951449 -0.11926259 0.24027093 -0.18009318 0.031058747 -0.16286895 0.08019317 0.31016237 -0.00396258 -0.17883207 -0.15888534 0.049712427 -0.44588736 -0.044366755 -0.21453638 -0.030559147 -0.1170548 0.15407816 -0.068473995 -0.16031966 0.15323639 0.24016047 0.10937171 0.25965115 0.047700513 0.021088632 0.011771325 0.21060115 -0.33036134 0.17797977 0.0525884 0.2298534 0.2863014 0.07394069 -0.17067273 0.092335686 -0.019349454 -0.14092188 -0.16735752 -0.07882024 0.10144732 0.1679326 0.34474695 -0.046273343 -0.15558721 -0.15834343 0.037522428 -0.0010721753 -0.1546456 -0.25322032 -0.10618062 -0.054867934 -0.04898724 -0.20758706 -0.22793528 -0.015738584 0.1720155 -0.011034609 -0.053436514 0.0018598947 0.047759335 -0.034426674 -0.13572611
773 -0.11746399 0.082808375 -0.30503273 0.07354917 0.20967303 0.0074518626 0.12714233 0.16591728 -0.40077692 -0.13759392 -0.03395121 0.14590502 -0.06575886 -0.1881585 -0.36065245 0.03927352 0.018374773 0.11523696 0.12463385 0.08480405 -0.21062478 -0.13683933 0.15012841 0.084819674 0.11455529 -0.0405054 0.023647008 0.049893152 -0.025660679 -0.2939128 -0.2674891 0.13635822 0.23943289 0.18313508 0.164174 0.11500252 -0.03939174 0.061123274 0.13952439 0.21005037 0.008744815 0.29425278 -0.17011926 -0.4301538 0.16347326 0.39116064 -0.09408348 -0.27189162 -0.031051202 -0.34553733 0.13108478 0.06660508 -0.08111719 -0.012708511 -0.0293962 0.117264576 0.12031704 -0.014514903 -0.32095343 0.06283027 0.02165834 -0.21555927 -0.004761322 -0.02784163 -0.038093608 0.07892782 0.041965105 -0.028439574 -0.15522082 0.04123723 0.47211057 0.095587485 -0.22914924 0.09365627 -0.086117834 0.016220529 0.06954305 0.008289016 -0.008556782 -0.1165707 0.26221427 0.120501325 0.044583052 0.17201172 0.0015226437 0.0942766 -0.32997367 0.3538611 -0.0747333 0.071705334 -0.12661773 0.034013662 0.15255888 0.10663838 0.17779236 -0.12539984 0.015417886 0.07775442 -0.008543722 0.12396267 0.005672113 0.08231818 0.11878667 -0.19884768 -0.032980945 0.08680188 -0.034914788 0.13658501 0.00729836 -0.18981776 0.32282442 -0.09805459 -0.041866582 -0.36882466 0.006092506 -0.43107784 -0.30193198 -0.17497273 -0.25129566 0.37684667 0.11146185 -0.1286528 0.19667025 0.17613178 -0.08043719 0.19107376 -0.13405623 0.029919015
3348 0.13326722 0.0827206 0.07679605 -0.076066256 0.25622457 0.011284582 0.21369794 0.09303916 -0.08316763 0.015680611 0.21101043 0.15264294 0.15266287 -0.030319529 -0.4102767 -0.0347624 0.25874627 -0.029928993 -0.09638026 -0.004949273 -0.11148256 -0.0034141885 0.24781674 -0.06067562 0.11419228 0.02440879 -0.09814746 0.13399805 -0.22417097 0.06418273 -0.0845751 -0.14695227 0.075770356 0.077157855 -0.103109196 0.086224556 -0.03143974 0.117170386 -0.0034444826 -0.12392808 -0.1411553 0.11400835 -0.068491414 -0.1562644 0.06386429 0.06555969 -0.14955984 -0.06357474 -0.03983457 0.122338444 0.03390451 -0.01044459 -0.059478406 0.0031169986 -0.18287891 0.041538104 0.06960591 0.026797924 0.019029042 -0.25487068 0.009226538 -0.029349972 -0.043348894 0.00421014 -0.040776968 0.045033522 -0.078948684 -0.023087896 0.08815772 0.068088025 0.1349656 0.18363461 -0.02133559 -0.2100491 0.02645553 -0.025853552 -0.033130515 -0.034871977 0.028740931 -0.10587731 -0.06054486 -0.011831563 0.041858833 -0.14058039 -0.09021388 0.12742317 -0.0056351232 -0.21460284 0.07913521 -0.09152011 0.1496989 -0.09806387 0.064225525 -0.100010544 -0.10381943 -0.11815789 -0.014436895 -0.017382318 0.15811133 0.032261394 0.30022526 0.17970003 0.19760934 -0.052731 -0.16534035 0.116975285 -0.19252092 0.015971899 0.1398499 -0.07315437 0.22460444 -0.007260233 0.32401365 -0.17989106 0.13794446 -0.15799683 -0.17260112 -0.03377714 -0.21899684 -0.075226836 -0.2426729 0.044950377 0.32793936 -0.19598047 -0.2744945 -0.052362405 -0.25185096 0.003753935
2727 -0.043476734 -0.1399752 -0.21631849 0.08172839 0.1764906 0.38631073 -0.0485396 0.018435458 0.05355394 0.14588805 0.018132614 -0.22854462 -0.3685466 0.110379264 -0.19003357 -0.19714105 0.066459775 -0.2670278 -0.21034338 -0.06671751 -0.15257189 -0.18138377 0.26037973 0.34896886 0.014632075 0.0013356215 0.082957566 0.16303945 0.07138677 -0.041925322 -0.22236207 0.009349725 0.2378243 0.13207562 -0.12603924 0.011631655 0.091096625 -0.16213593 -0.07814236 -0.16170216 -0.12848474 -0.1270958 -0.323607 0.08842595 0.37189525 0.14865772 0.048909802 0.05201149 -0.12873898 -0.0036119644 0.1375922 0.123799786 -0.14839035 0.20146379 -0.19826621 0.037571732 0.0061682225 0.046033617 -0.1008325 -0.394598 0.20928912 0.27230126 0.13002063 0.09429165 -0.20474586 0.07166043 0.03524094 0.1964942 -0.22417855 -0.1354496 0.12751237 0.0634841 -0.16843449 -0.23376875 0.096682705 -0.1454062 -0.16218096 -0.19917354 -0.2423457 -0.030977907 -0.2168753 -0.15822878 -0.14616197 -0.36293712 0.1767713 -0.052229993 -0.038506135 0.17888902 0.012868364 -0.06641961 0.12747823 -0.113548435 -0.06996101 -0.23221952 0.29174364 -0.16378118 -0.16933192 -0.18387033 -0.3097995 0.1600046 0.098684214 0.17061433 0.4786812 0.3179838 -0.0058409944 -0.082675815 -0.22631319 -0.054477237 -0.1349219 -0.13276537 0.101874955 -0.023194302 -0.14680451 -0.07705397 -0.024363464 0.1745631 -0.02814266 -0.21065846 -0.2101324 -0.19007434 -0.12541065 0.09590311 -0.12567599 0.05293145 0.14180908 0.045946084 -0.15138479 -0.13242947
2289 -0.12869132 0.22270624 0.09734695 -0.0024145695 -0.23538156 -0.28925756 -0.011560646 0.08693125 -0.10785079 0.14493969 0.18190044 0.09614477 0.052040484 0.04196178 -0.16947685 0.08312216 0.08129855 0.12206873 0.025789043 -0.115292005 -0.063309625 -0.10009945 -0.008772831 0.1459136 -0.103662185 -0.1908013 -0.006208732 -0.18134743 0.15751773 -0.12088911 -0.22091636 -0.19072118 -0.07055191 0.1558044 0.09849649 -0.3372055 -0.08197837 -0.25637162 -0.2512341 -0.075190715 -0.036915142 -0.07433743 0.112679385 -0.07694545 0.29960427 0.07061549 -0.2510041 -0.048201643 -0.001966884 -0.0844243 0.054969657 0.18457946 -0.29267597 -0.24560845 -0.059817854 -0.17288181 0.17019108 -0.16035677 0.11888037 -0.01715101 -0.11909629 -0.0305167 -0.1628645 0.22339113 -0.094013646 -0.17545758 -0.02597564 -0.012272671 0.0027846317 -0.0033149638 0.03356441 0.01059912 -0.2268766 0.11232799 0.08207976 0.116237864 -0.15664202 0.04405147 0.26225036 -0.15456781 -0.115262 -0.24530111 0.45412537 -0.0088878125 -0.057545763 -0.10916295 -0.1461854 -0.15443842 -0.055086643 0.05907158 0.09341933 -1.4637162e-05 0.17883565 -0.15146452 0.27363643 -0.018522827 0.11474231 -0.17089811 0.011677879 0.18612884 -0.23805983 -0.102341175 0.3298177 0.017020319 -0.37675738 -0.22941886 0.15751676 0.1742222 0.2605839 0.08964677 0.21271366 -0.07712264 -0.32044965 -0.14921753 -0.16364059 0.061710794 0.2291729 0.06205506 0.039372366 0.022514729 -0.16966854 0.4720851 0.1680068 0.37525916 -0.07691926 0.012885743 -0.031229116 -0.30046588
1155 -0.025773808 0.25017014 -0.02569293 -0.18511716 -0.03213611 -0.15853928 0.33052546 -0.055926137 -0.17791693 -0.19383778 0.05314425 -0.28114778 0.13414083 -0.2642636 -0.16503118 0.1346578 0.21786883 -0.10108279 0.1821203 -0.14989884 0.15662882 0.2108359 -0.048485585 0.13402773 -0.060005624 -0.06987261 -0.09454321 -0.03183264 -0.101810016 0.074070536 -0.027237972 -0.18351336 0.18891914 0.24369384 -0.08641461 -0.03709078 0.047054056 0.018701961 0.0559141 -0.3228755 0.055507496 0.18025549 -0.40397745 0.06853976 0.21646775 0.073933445 0.22315763 0.083391346 -0.10722281 -0.10912194 0.089970075 0.06105177 0.00018568696 0.16132954 -0.38246253 -0.07925532 -0.13910624 0.12984565 -0.2550444 -0.23500031 -0.14350429 -0.14692739 0.16749527 0.032710414 -0.085946575 -0.058854334 0.102115616 -0.13966234 -0.1572698 0.14127626 0.48145232 0.0764399 -0.24504143 0.06276772 0.018230148 0.2938664 -0.18944281 0.116410896 0.12982042 -0.3118502 0.034422882 -0.09038703 0.060424037 0.0027462018 -0.16528113 0.3293705 0.11218788 -0.047099836 0.3565162 -0.17395571 0.051137198 -0.38033062 0.09360453 -0.026986124 -0.1801488 -0.2559231 0.025368202 0.11967799 0.100310914 -0.055109497 0.25459635 -0.0016156168 -0.15458195 0.058015946 -0.07496055 0.09057815 -0.19983853 0.2567272 0.003137848 -0.27209947 0.13745259 0.08177901 0.15631525 -0.06762267 -0.1402071 -0.2717761 -0.47674417 -0.035551272 -0.33372673 0.06275112 -0.078564405 0.06596081 0.2613918 0.0049070446 -0.0093045365 0.010954431 0.12446075 -0.11413286
5703 0.24500105 0.09098557 0.2465968 -0.0533987 0.46878293 -0.05463783 0.054467548 0.064101994 -0.31866243 0.04444991 0.115395404 -0.19792715 -0.085233144 -0.30799747 -0.26443246 0.248446 0.18657772 -0.19613513 0.059133746 -0.05687865 -0.12222961 0.218667 0.15069617 0.1381619 0.19040678 -0.14225325 -0.041145593 0.26580665 -0.4445914 -0.11023295 -0.04355104 -0.10698699 0.24855705 0.11872214 -0.16993624 -0.010298018 -0.0038877577 0.12727056 0.123838924 -0.35017332 -0.04349418 -0.08554809 -0.070186496 -0.15667206 0.05479718 0.11522186 -0.0839579 0.06614002 0.13945612 -0.28193578 0.17316575 -0.059157744 -0.17417401 0.064076 -0.49811903 0.01918606 -0.13764054 0.106905915 0.11572282 -0.41666508 -0.2458852 0.10146223 0.3809771 -0.0012036815 -0.34094277 -0.091045484 -0.027041879 0.139406 -0.046759434 -0.19142596 0.1516916 0.023684023 -0.06520606 -0.087414615 -0.06239119 0.014133439 0.09889337 0.1817911 -0.14156833 -0.3640281 -0.08951696 0.04179816 0.054341353 -0.2277098 -0.00890186 0.14071368 0.042414635 -0.12922183 0.24941567 0.08056927 -0.0005748197 0.010079594 0.16741277 -0.0192313 -0.2844175 -0.2220429 0.019842383 0.10373802 0.18544504 0.030823516 0.12859632 0.17794175 -0.17444128 -0.15987286 -0.16949105 0.1081938 -0.08129096 -0.2415833 0.23643856 -0.09272309 -0.012911958 0.081767134 0.06256339 -0.3503975 0.011484265 -0.013851736 -0.3154274 -0.08120867 -0.14193355 0.056190457 0.115108706 0.2839213 0.24854754 0.05446551 -0.17009959 0.138348 -0.06934329 -0.029343229
5785 -0.31444195 0.030232329 -0.0850234 -0.17427938 0.2787348 -0.014661744 0.08464714 0.014129672 -0.16445103 0.064380184 0.086497255 -0.06919122 -0.023078023 0.11212132 -0.20948994 0.26672128 0.0013224366 -0.38445967 -0.0038585523 -0.10690903 -0.06513147 0.05955626 0.1754147 0.24225943 -0.25400415 -0.22517231 -0.24654283 0.10483923 0.0792743 0.06559656 0.027654383 -0.054129656 0.14467505 -0.0658593 0.018271033 0.05650326 -0.032558843 -0.014542447 0.047702853 0.13692118 -0.01280205 -0.07748584 -0.11860512 -0.095455125 0.0628115 -0.256041 -0.086094074 -0.22105408 -0.1533998 -0.047003444 0.2814965 0.2424732 -0.07772825 0.015661504 -0.20390208 -0.13506322 0.018338043 0.07651012 -0.07230488 -0.40036142 -0.21258716 0.049294233 -0.10659209 0.01982598 -0.09077719 0.016510764 -0.4160651 0.14302287 0.021613022 0.057043057 0.09834955 -0.15542857 -0.09950261 -0.047413234 -0.2045959 0.1360564 -0.12010884 -0.084709294 -0.017995348 -0.011182503 -0.025100546 -0.09778024 -0.13938022 -0.043636184 -0.22507179 0.104774445 -0.1429966 -0.075397216 0.11261794 -0.046982504 -0.014132656 -0.09020496 0.31700623 -0.13449827 -0.09494912 -0.14040582 0.24169664 -0.14989117 -0.050761603 0.248678 0.13394132 0.06323539 0.16585177 0.099466845 -0.029791353 0.0056440015 -0.0952594 0.16309439 0.12007726 0.02246562 0.08157158 -0.040002797 0.1917521 -0.03632374 0.21434236 0.11419322 -0.12319663 -0.058058124 -0.04617342 -0.14408627 -0.20140883 0.013440042 0.23558323 -0.051641777 0.10287353 0.006420897 -0.24546166 -0.027934661
4058 -0.19334823 -0.62111473 0.07244739 0.069615245 0.046227425 0.033881314 0.007928619 -0.06882348 0.1955937 -0.0069035413 -0.2847619 -0.1314695 0.23509398 -0.323038 -0.033680525 0.19196506 -0.34903875 0.010067232 -0.16626906 0.09335033 0.016089946 0.1475727 -0.08585767 0.108761646 -0.04496386 -0.18818058 0.0015946715 -0.20003256 -0.12801099 0.1900885 0.040660195 -0.19834915 0.04726305 0.009340418 0.31649655 0.32989427 -0.16993421 -0.26289737 -0.26156354 -0.36067107 -0.38404846 -0.35637647 -0.19835824 -0.18745707 0.1720935 0.09256191 0.15129593 0.04950733 -0.11512025 -0.044509042 -0.10054043 0.22908358 -0.11525288 0.034265857 -0.15450938 0.010965553 0.24823487 0.4552888 -0.2614389 -0.11703747 0.20693994 -0.147457 -0.009566688 0.3325469 -0.124786735 -0.010350628 -0.20898427 -0.008926913 0.32497153 -0.044217225 0.10536842 0.07587155 0.08799465 0.03708715 -0.14372125 -0.004500479 -0.05956156 0.0025559126 0.36872384 0.07678342 -0.4125814 -0.16618611 -0.11613539 0.034027856 0.13643037 0.009482446 -0.03666769 0.05238187 -0.08848574 0.053505674 0.21423493 0.042594228 0.15174234 0.30005676 -0.055271126 -0.19692165 0.08051404 0.014280928 -0.029159306 0.22097597 0.03307947 0.1544489 0.16601087 -0.1356603 -0.06613043 0.29083905 -0.0726331 0.10725322 -0.013077243 -0.07932153 0.08424246 -0.37105057 -0.08263914 0.0061805663 0.13558751 0.0575579 0.16573982 0.07416585 -0.31022945 0.32522708 -0.2912165 0.18918939 0.08951438 0.0027682032 0.14087975 -0.00090172404 0.02537075 -0.056427583
4985 0.1286178 0.13376884 0.023230208 0.16010512 0.280271 0.17411585 0.036885455 0.2091747 -0.010787645 -0.018089572 0.059184045 -0.14171864 -0.048867624 -0.032596864 -0.021070879 0.17883894 -0.040544692 -0.1219027 0.0035746333 -0.05893467 -0.012876147 0.026799275 0.19069561 0.019197928 -0.11026566 -0.19637889 -0.080969766 -0.037214525 -0.14320219 -0.11599153 0.051363196 -0.10955836 0.24160029 0.08461033 -0.25221112 0.015077502 0.23367849 -0.035785045 -0.07669262 -0.13921778 0.1065141 0.09518553 -0.19872192 -0.12313817 0.12713172 0.0051323315 0.044773955 0.13066193 -0.07953755 -0.13832879 0.14717287 0.023466494 0.06432074 0.108590096 -0.15944473 -0.045118876 -0.024338773 0.08542846 -0.08456496 -0.07788964 -0.029970856 0.0018168567 0.22614685 0.042969164 -0.11707799 0.03559772 -0.18068942 -0.07429715 0.20527007 -0.1329538 0.1134241 0.143451 -0.10361524 -0.19784626 -0.035090387 -0.037935242 -0.050188757 0.056932233 0.06253374 -0.020276222 -0.12151707 0.04509099 -0.014877161 -0.1309747 -0.01114788 0.05626124 -0.24153908 0.13558309 0.4214063 0.05989544 0.21076496 0.042321704 0.07218039 -0.0720073 0.03744627 -0.15305033 0.22176309 -0.07321855 -0.0019126355 0.12064522 0.043823585 0.078060314 -0.12219374 -0.06556521 -0.032049168 0.17125227 -0.0930828 0.096452944 0.0770859 -0.20357619 0.12017741 -0.08496802 0.15755421 -0.08594727 0.25911015 -0.18454088 -0.11828971 0.024300776 -0.16059104 -0.0140375 -0.15578932 0.22357225 0.0879978 0.195783 -0.06846541 0.18775433 -0.19829898 -0.10295882
3307 -0.22812751 -0.08547504 -0.09316712 0.035895724 -0.029296279 -0.004179138 -0.2091082 -0.16778798 0.22894514 -0.40701264 0.15888186 0.1036329 0.15725854 -0.16171381 -0.096921846 0.07553424 -0.0769017 0.055447966 -0.14884907 -0.044030562 -0.036797024 0.18725705 0.10112701 0.14730594 -0.23528801 -0.24819334 -0.14255626 -0.09502369 0.0023198873 -0.027466673 -0.16453531 -0.09449481 0.1171602 0.08336609 0.072340325 0.2775611 -0.03467428 -0.33662856 -0.5010342 0.110461816 -0.47669291 -0.3489626 -0.43114716 -0.09356569 -0.13307463 -0.05614276 0.22065602 -0.14426205 -0.16814704 -0.058814514 0.029455563 -0.044678114 -0.12582284 0.28435495 0.06907956 0.0598245 0.24926825 0.38495594 -0.08321973 -0.43920153 -0.15937537 -0.0010730467 -0.26180157 0.31894284 -0.4265448 0.16322172 0.021021998 -0.25976777 0.4207953 0.03172509 0.23290275 0.07728505 -0.120786585 -0.17079067 0.0022806476 -0.10633122 -0.32171264 0.035498712 0.2174575 -0.1483784 -0.16137649 -0.51612264 -0.35046923 0.018050695 0.061502974 -0.121730074 0.049612653 0.26056322 -0.05490106 -0.059123974 0.0062391423 0.0363738 0.031072851 0.35542417 0.037274145 0.08433759 0.22097184 -0.04054958 -0.00056942314 -0.05165692 -0.4766712 0.20280007 -0.0008345174 -0.1580383 -0.18003976 0.22046319 -0.0037682082 0.12913685 0.19656198 -0.17314138 -0.05151296 -0.13219328 -0.06275332 0.032505494 -0.18721108 -0.16225576 -0.053141844 -0.18966724 -0.18236625 -0.061655615 -0.13565934 0.02485545 0.053258307 -0.15212472 0.09062582 -0.004703259 -0.13655928 -0.06307108
6136 -0.25016904 0.2522184 -0.057078503 -0.30703595 0.089291155 -0.087790035 0.13953693 0.28745064 0.16013762 0.073240176 -0.09931705 -0.049182754 0.09390125 0.020030811 -0.1964008 0.347766 0.20804858 0.014664427 0.120129324 0.073364064 -0.045902222 -0.012872522 -0.09594984 0.22272705 0.010748118 0.0029328754 -0.17191425 -0.014428412 -0.11209779 0.04125146 -0.0075899833 0.10680183 -0.15413588 -0.07555485 -0.09234623 0.041231036 -0.04231918 0.0049653007 0.049516097 -0.027802574 -0.28948137 -0.019205596 0.13151409 0.024006965 0.19904971 -0.15106165 -0.28174162 0.15092775 0.08232804 -0.07470083 0.003630896 0.12876391 -0.15004018 -0.014475867 -0.08833501 0.38991815 -0.22790638 0.030760475 -0.3997011 -0.20682882 0.22575422 0.18150516 0.073060885 0.24299349 -0.14572237 0.2509813 0.03830721 -0.081117965 -0.1275137 -0.1360246 0.22395965 -0.08853994 -0.10899445 0.1033393 -0.08292849 -0.11610391 -0.085464746 0.088269055 0.11981413 -0.2504113 0.04690846 -0.22800535 -0.039191313 0.1832485 -0.08627741 -0.3887653 -0.34410927 0.07964082 0.118571974 -0.2972693 0.033923056 -0.09164408 0.028533733 0.0120868115 0.25198463 -0.15445326 -0.028114796 -0.20168386 -0.051381715 0.45122656 0.24374202 -0.07024207 0.013652222 -0.023390476 -0.09531092 0.25190625 -0.1431255 0.037782393 0.3431638 -0.13023195 -0.28707543 -0.20011397 -0.0146703385 -0.03236405 -0.11044491 -0.41700634 -0.021999674 -0.14290656 -0.31309438 -0.28312045 -0.020789316 0.28312108 0.13261046 -0.044060573 0.015764618 0.03499556 0.117776595 -0.06072713
817 0.022890871 0.07499924 -0.09625457 -0.013117112 0.06827317 0.021079095 0.012400841 0.093065634 -0.15311112 -0.06830495 -0.11148815 0.37175918 0.071665704 -0.03901783 -0.19911353 0.054859497 0.08504673 -0.071022026 -0.28527442 -0.03004832 0.07265919 0.008200371 0.14288218 0.08725777 0.2368672 -0.13409778 -0.2287929 0.12727994 0.056522347 0.15201984 -0.082242414 0.16526589 0.024291288 -0.013098085 -0.36390236 -0.025048435 -0.048402913 0.072206184 0.19414261 -0.106100544 -0.27909032 0.07243208 -0.05342437 -0.09691725 0.044287883 0.02256333 0.07717322 -0.07365485 -0.009442095 -0.2977928 0.055900857 0.21021037 0.045863017 -0.15678254 0.0024152861 -0.027255222 0.038106754 0.2252078 -0.14700818 -0.03526686 -0.073636845 0.22891824 -0.07078519 0.15191622 -0.058178358 0.19550017 -0.012501982 0.13513194 0.23428321 -0.07344282 0.14095208 0.1030723 -0.25184122 -0.103456825 0.052795924 -0.11844473 0.03697596 0.23677866 -0.023111558 -0.06790395 0.043931615 -0.0071950867 0.07362801 -0.052056238 0.006113798 0.257798 -0.29753882 0.15865375 -0.10894797 -0.19586691 0.11535469 -0.016942794 -0.036288336 -0.11578701 0.05942918 0.036922816 -0.060902238 0.023543185 -0.15330075 0.23561881 0.16592982 -0.016523577 0.06585725 -0.0039278264 -0.21368334 -0.009482092 0.08989857 0.09136537 0.21821189 -0.01668188 0.12735198 0.07225833 0.07291503 -0.12110638 -0.11933623 -0.091560856 0.030889431 -0.0034971759 -0.17138614 0.055396024 -0.018355021 0.019618195 0.3540026 0.14403196 0.0073652584 -0.12410362 0.016389875 -0.14309962
5119 0.096218176 0.06261707 -0.2155717 0.051883433 0.10932422 0.16887532 -0.13289586 0.32821292 -0.26244035 0.014706787 0.14503816 0.16195832 0.17362979 -0.091621876 0.015821196 0.05844116 0.18278736 -0.18811768 0.14110738 0.074828066 -0.016861027 0.19008474 0.07284044 0.09782288 0.06105773 -0.2685937 -0.113495074 0.05929094 0.11385862 -0.23161812 -0.2847511 0.09162418 0.0133081125 0.081699215 0.21781547 0.2529502 -0.19850932 0.012018408 -0.08642719 -0.026911095 -0.1739018 0.10478083 0.07941804 -0.019717203 -0.05798554 0.04732226 -0.21378784 -0.020866124 -0.032940164 -0.16732387 0.2163545 0.24340369 -0.1866989 0.08836758 0.24728812 0.16723858 -0.13568145 -0.0064839926 -0.26171198 0.29369563 -0.08760533 0.3278562 0.06467 0.0026276861 0.18887947 0.2831998 -0.05418864 -0.039800566 0.1762701 -0.060332455 0.5417932 -0.18856888 -0.24829799 0.0018923756 -0.061311714 0.1342563 0.15454942 0.06546754 -0.0021087653 -0.21100809 0.23699032 -0.016110515 0.055980984 0.0071524377 -0.10745255 0.018467518 -0.050111417 0.18794733 0.007646314 -0.3857517 0.15390581 0.13117078 0.2348615 0.15807034 0.21448444 0.08990863 -0.03495638 0.20305568 0.0069300747 0.10568835 0.11359249 -0.050321046 0.37423453 -0.17152761 -0.058764335 0.093623914 -0.0020515667 0.15507974 0.117132895 -0.11812581 0.2848462 -0.017524928 -0.14794894 -0.21981776 0.008339769 0.00047465775 -0.24105544 -0.28712687 -0.2766128 0.31040606 0.02674639 0.055087425 0.22577108 -0.0603604 -0.299329 0.16231622 -0.10002252 -0.06263051
4409 0.12810095 -0.16479114 -0.011322734 -0.21787551 0.36250612 0.12275438 0.305517 0.14461581 -0.37137252 -0.3352608 -0.026565531 0.0017837533 0.0007729468 -0.2346718 -0.19873683 -0.015410791 -0.04435212 -0.247163 0.07921926 -0.14146161 -0.15014803 -0.011817947 0.27770942 -0.004422411 0.03339671 -0.061226383 0.2233979 -0.175455 0.17461231 0.2094402 -0.24648258 -0.052353784 0.027946722 0.013439923 -0.14953037 0.30498487 -0.19124162 -0.38249502 -0.046572335 0.0017012542 0.019881925 -0.1434764 -0.12200719 -0.09738516 0.11257785 0.30345708 -0.1130996 -0.17014454 -0.2544848 -0.22868152 0.016558273 0.076427974 0.17726718 -0.1361114 0.078861825 0.17772806 -0.10735169 0.007073362 0.036147896 0.17919178 0.095485754 0.40451634 -0.3169583 0.1315435 0.040737025 0.2946006 -0.015033165 0.051856373 0.19067203 0.12987003 0.07940596 -0.16224238 -0.3314595 0.29040933 0.17712599 -0.15219343 -0.19984236 -0.11787595 0.043498356 -0.10337035 0.07293986 -0.16050988 0.16036494 0.050518233 -0.0033427523 -0.044839934 -0.19305515 -0.18035771 0.05340923 -0.27467132 0.18480422 0.15732795 0.05282309 0.13779607 0.126408 -0.152731 -0.18087193 -0.041555732 -0.3277544 -0.049205348 0.109267116 -0.19220668 0.119491704 -0.109888785 0.11014375 0.31619176 -0.14366657 0.071964994 0.19845887 0.0590691 -0.019618608 -0.04947315 0.028856518 -0.1969372 0.25654936 -0.26340687 0.021298757 0.09053254 -0.41683453 -0.037357625 0.3768858 0.1338383 0.23085214 -0.123034626 0.0392741 0.043161366 0.18537062 -0.0061603263
5473 -0.041158717 0.30173892 0.001378879 -0.22110629 0.25670862 0.013427001 -0.064385206 -0.017977692 -0.35716555 -0.14426412 0.1138552 0.050999794 0.13437617 -0.20080264 -0.08435522 0.23314992 0.11981057 0.027470972 -0.13672625 0.06698809 -0.41250658 0.04495378 0.21680917 0.062660426 0.012492596 0.020749837 -0.074718356 -0.025224153 -0.21589057 0.05050663 -0.1270482 0.006031081 0.15724105 0.22202614 0.012319623 -0.101036385 -0.08763514 -0.027894957 0.2663656 -0.06806118 -0.032565393 0.13462695 -0.16944683 -0.19210559 0.14067093 -0.10993355 0.22763059 0.040456224 -0.050465826 0.11595108 0.15552697 0.05883957 -0.11225862 0.21492441 -0.23300067 0.022606153 0.25116712 -0.11260168 -0.21841027 -0.14145505 -0.105460085 0.1208522 0.07817241 0.15884687 0.08802682 0.25974113 0.16604811 0.021999134 0.1667085 0.122372486 0.19467708 0.06328221 -0.18500641 -0.105100736 -0.045255788 0.035777427 -0.026461432 -0.08777235 0.0025271692 -0.11828357 -0.031066326 -0.118111484 0.006182993 -0.06854757 -0.07706991 0.1553423 -0.03078893 -0.10182294 -0.01805194 0.092652954 0.15742326 -0.043691456 0.19607887 0.08739062 0.032531947 -0.09217524 -0.037841532 -0.040293988 0.012449472 0.04586732 0.12148392 -0.1665918 -0.05046604 0.049740043 -0.063140705 0.31814077 -0.010531548 -0.015333412 0.044440188 0.11604808 0.3799228 0.33339208 -0.057617072 -0.007888393 0.16188909 -0.1778913 0.064282 0.045918394 -0.05106247 -0.12950821 -0.23837417 0.17791969 0.23269112 0.11782042 -0.19159241 0.08274974 0.03248933 0.12715113
5390 -0.27344158 0.2521824 -0.10147236 0.18013884 0.06112433 -0.051146902 -0.23970267 0.19094297 0.2037067 -0.025994731 -0.057522546 -0.023017585 0.05137075 -0.20027062 -0.14701132 0.058906708 0.35608095 0.058249593 -0.26480645 0.11250639 -0.08311996 0.037920672 0.053781588 0.3373053 -0.23167896 -0.18557052 -0.033571694 -0.24493061 0.037710965 0.085036136 -0.2788231 0.03717615 0.11023557 0.26728117 0.07666637 0.013327848 -0.07015621 -0.25836006 0.12826931 -0.08759778 -0.28529355 0.30629697 -0.1563236 -0.1820169 0.08288754 0.14988077 -0.26988962 -0.03261792 -0.13220689 -0.22440647 0.0046942285 -0.15982498 -0.24293451 0.32362068 -0.09432152 -0.1113725 0.017356481 0.19435452 -0.05638229 -0.3057571 0.025452536 -0.09499656 0.08797935 -0.027561925 -0.027456645 0.18372485 -0.20530619 0.18782537 -0.07431944 0.012152689 0.25128236 -0.18646303 0.03177549 -0.13156912 0.4604578 -0.22146708 -0.15532897 0.15528168 -0.1993555 -0.3359947 -0.035163198 -0.17605771 -0.19273345 -0.16634329 0.012885121 -0.04371819 -0.22900926 0.06748702 0.16515476 -0.18558262 0.14011446 -0.11250602 0.09415211 -0.25951684 0.19354923 -0.08568913 -0.31184053 -0.02562811 -0.09793764 0.24755801 0.036551047 0.16491096 0.35477713 -0.039016224 -0.10110474 0.27106524 -0.2767328 0.011016935 -0.09458554 0.13549384 -0.14388646 -0.33722007 -0.1541353 0.09775424 0.06679587 -0.1379024 -0.0023669875 -0.15927555 -0.045465533 -0.49886015 -0.06112812 0.22680447 0.083856024 -0.063975506 0.07741237 0.008870246 0.031265188 -0.15206407
2889 -0.1769043 0.16214284 -0.22488095 0.013304685 0.0061207614 -0.07161383 -0.021883005 0.23201849 -0.003236283 0.07194417 -0.027999679 -0.13164225 0.14416328 0.036254704 -0.33386993 0.18893304 0.36209682 -0.07255725 -0.021944283 -0.20972972 -0.06639951 0.10958134 -0.2507771 0.09303738 -0.046655916 0.040626068 -0.22126125 -0.10917691 -0.00016097858 0.09875539 -0.03521662 0.062382635 -0.14817351 0.21404955 -0.09275535 -0.10798195 -0.1751318 -0.04275492 0.054376177 -0.19688116 -0.010897864 0.3049403 -0.43366146 0.011218219 0.042625 0.07494866 -0.11675243 0.033397827 -0.18472323 -0.08587736 0.16099681 -0.05872532 -0.31390384 0.14579958 0.24609894 0.11479749 -0.13893753 0.14952135 -0.4159457 -0.27937165 -0.013750023 -0.063070804 0.060415357 0.02473045 -0.2041879 0.4039811 0.029898442 -0.06237089 0.0057770032 0.018386867 0.13927664 -0.2954181 0.19341826 -0.20806557 0.14936002 -0.2280497 0.103587456 -0.081688955 -0.021007827 -0.17393239 0.26750857 -0.3058607 -0.11930404 0.14389387 0.34828088 -0.1218495 -0.032276757 0.12027631 0.28884822 -0.2862659 0.0994132 -0.09639187 0.2619854 -0.21912302 0.31651333 -0.16676624 -0.20123163 -0.06383937 -0.16383776 0.29026055 0.22990619 0.15842177 -0.10180951 -0.00429852 -0.25561896 0.15910207 0.0038842799 -0.10117113 0.179992 -0.031387914 -0.050874937 -0.20195886 -0.033527303 -0.0020085645 0.071582444 -0.023430202 0.18516381 -0.08313139 -0.005643445 -0.23699386 -0.18079056 0.10471114 0.23959632 -0.01039975 -0.19793585 0.04046929 -0.038502473 -0.40964028
3886 -0.15361722 -0.32369384 0.20218672 -0.22186813 -0.12192532 -0.19422296 -0.32857656 0.30556372 -0.24497968 0.071350634 -0.2630104 0.028672777 0.0075745406 0.06260647 -0.22763287 0.061848626 -0.32554397 0.13100168 0.12713172 0.14641686 -0.017300397 -0.28669637 -0.15648717 0.13065246 0.115439944 -0.19505014 -0.045906246 -0.07906568 0.16659549 0.078574784 0.21510725 -0.28797027 0.025550624 0.17745543 -0.100902095 0.039426353 -0.040013243 -0.0666455 -0.21833429 -0.04901643 -0.1854018 0.1011867 -0.06407968 -0.21631828 -0.06693385 0.038750574 -0.3440053 0.0745251 0.07505445 0.058922037 -0.19347897 0.08157881 -0.17953505 0.19574107 0.097598486 0.017984834 0.17827967 -0.09938633 -0.2481791 -0.13800763 -0.23506576 -0.101584226 -0.034490146 -0.0050223707 -0.23182613 0.17928138 0.07620711 0.23083577 -0.033785436 0.04076512 0.18540573 0.13909493 -0.15006058 -0.2174818 0.0018346293 0.025272643 -0.24775058 0.010767941 0.16256776 -0.24056558 -0.28466782 -0.03573836 -0.20522253 -0.02000686 -0.18833464 -0.5908537 0.13425316 0.26052752 -0.028559625 0.111544035 -0.3562176 0.11022983 0.19046672 -0.04968692 0.015196421 -0.17725536 0.24613099 0.38877293 -0.103807576 0.004613784 0.20237528 0.03739403 0.16703911 -0.02871731 0.13224767 -0.09338671 0.08414559 0.18598022 -0.09953975 -0.17796904 0.21444868 0.20866445 0.1301123 -0.21869941 0.077495776 0.1716911 0.008932299 0.025241086 0.22653575 -0.15973978 0.120884955 0.027775828 0.24772617 0.23913759 0.1368003 0.0076740603 0.07919623 -0.24295661
6109 -0.117153816 0.14612027 0.34279817 0.021900252 -0.029296713 0.14349654 -0.1803189 0.19961065 -0.14394316 0.26228496 -0.24821082 0.19203332 0.08567297 -0.15676758 -0.18619768 -0.055508014 0.022465726 0.23693801 -0.027333638 -0.14781968 -0.058418665 -0.05359943 0.24234119 0.022735037 -0.12834801 -0.12998582 0.05973829 0.06272961 0.06441094 0.049520206 -0.09029235 0.026028927 0.07270611 0.078442976 -0.13252844 -0.07952301 0.038195495 -0.06999552 -0.07552516 -0.31291518 -0.07634115 -0.08003395 -0.18288812 0.084160365 0.17360386 -0.03739052 -0.055871665 0.030445717 -0.05352088 -0.17582352 0.018900678 0.0072618355 -0.008125659 -0.027545659 0.030206153 0.11722733 0.048919156 0.061650306 -0.048028436 -0.108314104 0.041629564 -0.12415126 0.33790526 -0.13003026 0.017479831 -0.019916482 -0.20026357 -0.13248554 0.011000877 -0.10081041 0.2822385 0.037612893 0.04416107 -0.25376457 0.10431342 -0.23185325 -0.039940853 0.020527946 0.08654446 -0.20052391 -0.06194312 -0.17650864 0.06644882 -0.11616108 -0.1984231 -0.066661485 -0.1487006 -0.20887789 0.07548498 -0.25026503 0.091990426 0.15441215 0.20216787 0.053444184 0.10751892 -0.009577928 -0.056093384 -0.1639731 -0.00019356405 -0.009959343 0.014714979 0.19260848 0.10342981 0.10129853 0.09435888 0.15325074 -0.15599121 0.23084797 0.03937718 0.16937202 0.09837138 0.083341375 -0.07855729 0.012482536 0.13441959 -0.036997788 -0.21297306 -0.27487123 -0.012570121 -0.010359868 0.23850794 0.2112264 0.17988181 0.12559137 0.13399325 -0.14348526 -0.08988299 -0.125883
1550 0.035007954 -0.17654204 -0.24167679 -0.36787638 0.17880817 0.29460415 0.06165571 0.054067623 -0.25997752 0.030818934 -0.26776335 0.11889322 -0.1536396 -0.42453825 -0.10171039 -0.32189202 -0.05106375 0.0976818 0.047479093 0.075946145 0.021676596 0.007912726 0.22465041 -0.073092714 0.09997251 -0.07256927 -0.08063432 -0.035267424 -0.10660325 0.25838548 0.2969909 -0.0009898783 0.10713535 -0.081336364 -0.11039915 0.03634487 -0.022376351 -0.13243616 -0.20735161 -0.093992606 0.10301789 -0.020650757 -0.0049833423 -0.09299603 0.09014411 -0.10482349 -0.09004102 0.012738024 -0.39380687 -0.23351584 0.041891027 0.10332693 -0.21206136 0.0152060585 0.12628208 0.13465677 0.1162485 0.106437564 0.122064546 -0.06822266 0.041822016 -0.13136582 -0.5537144 0.40221462 0.07007077 -0.055178776 -0.17536928 -0.036915712 0.027829865 -0.021951463 0.19386101 -0.0014453502 -0.103224084 0.14191903 0.13368566 0.17403248 0.30348155 -0.078593336 0.08180607 -0.37993798 -0.10443523 -0.10141567 -0.050951768 -0.15407178 0.062184535 0.22309105 -0.07237292 -0.03729141 0.13782236 -0.16944097 0.12657553 0.09411039 -0.032433234 -0.21956016 0.24784781 -0.1669284 -0.18929309 -0.30128762 -0.07995955 0.098796375 -0.008921254 0.18936406 -0.06918166 0.09616735 -0.15314049 0.21086797 -0.3520142 0.11741105 -0.13369673 0.024759986 0.1751289 -0.08256656 -0.32684618 -0.040847015 0.22748981 0.118382305 0.022804925 -0.15368058 -0.14566503 -0.35902387 0.32355133 0.10802101 0.5097045 0.015297859 0.17653646 -0.16774763 0.45362532 -0.22206187
3168 -0.14916421 0.2383098 0.037484176 -0.18065843 0.029598659 -0.03866118 -0.31678462 -0.063620865 -0.13605039 0.0040044966 -0.04653196 -0.038655456 -0.02621126 -0.105920255 0.015395625 0.45081514 -0.024963673 0.16437657 -0.23962018 -0.21544142 -0.34819016 0.11345714 0.21378484 -0.12415879 0.09679528 0.06652337 -0.11657358 0.042349365 0.13703977 -0.24288867 -0.10335328 0.030750893 0.016865328 0.0009472504 -0.033721965 -0.16733685 -0.020930355 0.037782986 -0.06872499 -0.26003274 -0.0425531 0.23644733 -0.21185601 -0.2700688 0.11117038 -0.25545737 0.08381172 0.26513296 -0.10960447 0.1116439 0.031888373 0.13327608 -0.322299 0.21787551 0.096448585 -0.14048289 0.23898888 -0.059389617 -0.15310757 -0.20146026 -0.10510649 0.33026227 -0.29728305 0.24571027 -0.11020899 0.09292903 0.069275275 0.06846651 0.041639075 -0.13424505 0.009932783 0.18343483 -0.11160971 0.30752626 -0.22403122 0.048965156 -0.12991782 0.055235423 0.14087787 -0.03756853 -0.22322148 -0.0892002 -0.06775536 -0.07959216 -0.2439048 0.18726118 0.020667851 -0.095104374 0.09245817 -0.27606237 0.082473256 0.0040478543 0.33620924 -0.1889505 -0.06047073 -0.08615826 -0.21242057 0.026247468 -0.16416861 0.055303585 0.2732727 0.112569034 0.26749465 0.0005367773 0.13217022 -0.0005745706 0.044703744 0.0844785 0.16751197 0.004415614 -0.018276183 0.31492624 -0.043406107 -0.039897468 0.099631615 -0.28817657 0.015652493 0.02474897 -0.023331339 -0.021989143 -0.075697705 0.050769664 -0.018196665 0.05221932 0.23157431 0.030677289 -0.086415686 0.007934236
1048 -0.16479997 0.017769175 0.0045216223 0.29947463 -0.009576011 -0.029626288 -0.12273492 0.27743414 0.07494509 0.11033165 0.14317937 0.09855107 -0.1717626 -0.13024794 -0.09955465 0.21524273 -0.059977524 -0.30152485 -0.028735204 -0.12249629 0.015527693 -0.05365654 0.138162 0.29757822 -0.09696463 -0.06820955 -0.11202001 0.0356968 0.08339151 0.0468168 -0.023845116 -0.00021725638 0.16295037 0.15231831 -0.10862062 -0.19431525 0.12504627 -0.29172593 0.0028607454 -0.3093387 -0.21996608 0.09501802 -0.13964088 -0.1877114 0.17665984 0.08692516 -0.19219054 -0.11565235 -0.0502889 -0.18601939 0.02739606 -0.027899314 -0.18666609 0.0030199434 -0.114220455 -0.06547851 0.1366907 -0.030735062 -0.1659529 -0.17478015 0.12213599 -0.010418178 0.18577194 0.031663377 0.004930767 0.22939667 -0.2958384 0.09544716 0.15011807 -0.020967085 0.15708138 0.0963036 -0.058297835 -0.3107715 0.23592643 -0.17888543 -0.1074636 -0.027413597 -0.024155835 -0.18698418 0.0034122292 -0.17041434 -0.13186741 -0.08059291 0.17560574 -0.082317136 -0.12034958 0.011809226 0.07041865 -0.08281373 0.12135348 0.019934023 0.19824539 -0.15084305 0.19433753 0.07013859 -0.18075436 -0.19418555 0.010133956 0.08808892 0.11853623 -0.034349065 0.091542214 0.0948539 -0.068880126 0.14837295 -0.075400844 0.019785788 0.04522006 0.05250044 0.10050272 -0.07262302 -0.039265864 -0.008777202 0.0034136015 -0.25706562 0.034068972 -0.18783326 -0.22326076 -0.120623715 -0.038415033 -0.16030231 0.14606021 0.17957309 -0.028328776 -0.30937254 -0.028022755 -0.19683935
3087 -0.327163 -0.16290107 -0.061975043 -0.29919553 0.14915815 0.27680257 -0.00817576 0.1179264 -0.0730192 0.087083645 -0.29531866 0.17646721 0.21247083 -0.28584284 -0.22864509 0.047901247 -0.06162677 0.009433211 0.041342735 -0.17854182 -0.039051417 -0.1586168 -0.18706729 0.17916319 0.38086444 -0.10439107 0.36580357 0.031828936 -0.13683833 -0.35002854 0.36101732 -0.15947081 0.19981517 0.15307769 -0.014214545 0.07840076 -0.257948 -0.14140655 -0.20286153 0.060985353 -0.19386585 -0.25591764 -0.18071938 0.19648458 0.25114605 0.057133444 0.062970825 0.02580822 -0.2961743 -0.13149764 0.13523689 0.07219761 -0.040403992 -0.026901245 -0.035475124 -0.15688226 0.54631174 0.20412587 -0.3098046 -0.13147081 0.21226773 0.12160249 -0.25803915 0.2360548 0.12973094 0.043382496 0.0108505795 0.38064098 0.0547508 -0.14144394 0.09691476 0.036390044 0.10282157 0.0029071295 -0.0057555204 0.0024465593 -0.09513718 0.14495403 -0.009159006 0.011089636 0.092953764 0.08511022 -0.01598905 -0.12679633 -0.11862943 0.31495875 0.18570441 -0.18518569 0.17717396 -0.508804 0.17861712 0.23480159 0.032804444 -0.23559877 0.13144541 -0.11423602 -0.12808429 0.07513561 0.0925013 0.30757585 -0.1140363 0.036329634 -0.011676973 -0.18225242 0.25080785 -0.14680028 -0.522072 0.12058651 0.14552827 0.056063235 0.12305059 -0.093622774 -0.055852234 0.19250813 -0.12905584 0.04746032 0.054112483 -0.036443263 -0.179512 -0.21435848 -0.015303758 0.23464996 0.24117823 0.079328276 -0.04843834 -0.07455592 -0.06332902 -0.077221885
1326 0.009433283 0.10170341 0.026992222 0.13955015 0.2179619 0.06472227 -0.0040854993 -0.023587137 -0.058847982 -0.0668888 0.16619548 0.2068561 0.010501331 -0.21687667 -0.3128421 0.554669 -0.09412555 0.28262335 0.06478472 -0.2956523 -0.2524069 0.10242402 0.10939678 0.07732825 0.024624879 0.105197065 -0.303471 0.2918284 0.0010425667 -0.04465811 -0.013120695 0.009409897 0.13902384 -0.11399067 0.115656294 0.17107296 -0.37472153 -0.12209589 0.06788513 -0.11683294 -0.119774595 0.036488015 -0.04520578 0.11350139 0.081496805 -0.17017524 -0.057925485 -0.14311492 -0.011171221 -0.16946211 -0.1339319 0.26222643 -0.109922156 -0.105107844 -0.050779145 -0.07064764 0.008904326 0.013797552 0.07507254 -0.16244857 -0.30964822 0.2401942 0.20378746 0.20110352 0.036779955 -0.10937102 -0.2737757 0.4939554 0.03642194 0.15327112 -0.15098758 -0.15660559 0.13267806 0.06539827 -0.023274243 0.10974532 -0.026180906 0.060929213 0.28740007 0.007611844 -0.085816994 -0.168875 -0.26120692 0.042443614 0.0029793794 0.012573035 -0.048215102 0.034173857 -0.086435646 0.023555387 -0.17146865 0.009093429 0.3850417 -0.26703736 0.1290768 0.045167167 0.38375607 -0.2910185 -0.08800718 0.14863597 0.15830179 -0.23177598 0.08440758 0.125647 0.21363126 0.08353618 -0.18560547 0.30963355 -0.20280945 0.04180596 0.3088718 -0.06415238 0.08731622 -0.21429887 -0.064445645 -0.20766695 0.08688304 -0.039269563 -0.18613726 -0.1930446 0.086397 0.26245144 0.10020725 -0.10448135 0.19006501 0.25253385 0.15206416 -0.26066068
593 0.1715573 -0.2140132 0.015474561 -0.08241073 0.20830572 0.26444218 0.013618926 0.23558559 -0.068793915 0.10664664 -0.2104907 0.08103751 0.07696265 -0.008906477 -0.11471275 0.14764188 0.01809364 -0.12677269 0.055241503 0.016303424 -0.2101229 0.017945115 0.25306982 0.10455452 -0.2677504 -0.117141224 -0.012861184 0.020484501 0.052854046 -0.23710915 0.21636453 -0.01793546 0.07414054 -0.036316335 -0.09628003 0.12197431 0.011879395 -0.1057969 -0.0019443199 -0.17816925 0.055661663 0.009051538 -0.12232096 -0.039722994 0.11160322 0.19505273 0.11627907 0.02966437 -0.27643546 -0.22108746 0.10423681 -0.038525715 -0.17339449 0.01579992 0.029609226 0.07917169 -0.091834605 -0.07079301 -0.017358275 -0.0415498 0.041736 0.090215184 -0.1272338 -0.11482542 -0.0938162 0.37781027 -0.24048206 0.01595418 -0.0089227045 -0.025040714 0.076543435 0.086457945 -0.15163873 -0.13304493 -0.11248197 -0.19710688 -0.225906 0.061927542 0.20904286 -0.16312431 -0.18540712 -0.0893076 -0.10696478 0.13383175 0.059066173 -0.039112322 -0.2615475 0.03483913 0.12040152 -0.17494333 0.1691498 -0.33086511 -0.1093422 -0.1474575 -0.09048623 -0.004431518 0.14265886 -0.08603168 0.026631549 0.07795789 0.05822801 -0.01137279 0.07019959 0.13149782 -0.22954093 0.2551761 0.03667817 0.19385788 0.040045332 0.079067975 -0.059492763 0.11959415 0.13195443 -0.10727849 0.051886726 -0.10192262 -0.031744156 0.04534444 -0.08201119 0.24920346 -0.06521089 0.15273945 0.060583983 0.11602423 -0.11777161 -0.036018502 -0.11929722 -0.12494845
