439 128
5135 0.040049195 0.07797022 0.31612653 0.19148944 0.054065492 -0.007633212 0.33115396 0.19134443 0.243969 -0.06294682 0.09213027 0.09238712 -0.14266658 0.03376845 0.109954655 -0.25551686 0.12123228 -0.013319264 0.038124565 0.17620324 -0.113770805 0.051958673 0.06838677 -0.0547941 0.13455488 0.11000992 -0.059022162 0.15188134 -0.056576356 -0.17511193 -0.105070055 -0.035580598 -0.19630225 0.12757833 -0.08246328 -0.14183637 0.056793824 0.03356201 0.11576885 -0.18832833 -0.19400235 0.031938653 0.28639907 0.09933541 0.052357 -0.061711967 -0.13074632 0.17468368 0.14852342 -0.11625955 0.055270456 -0.038149618 -0.25736374 0.044457704 -0.044124126 0.041999865 -0.00034452425 -0.22420228 -0.11742265 -0.020465238 -0.006691985 -0.111308105 0.24425697 -0.07246313 0.18789235 -0.058061175 -0.31577906 -0.01986314 0.19365792 0.006150695 -0.06360581 -0.1326636 -0.044095296 0.10237918 0.10013576 -0.030307522 -0.06855405 -0.15754083 -0.046978284 -0.14375968 -0.12373848 0.09296486 0.20822008 0.039417934 -0.008692716 0.1494354 -0.18184806 -0.03727641 -0.083352275 0.054622278 -0.051977813 -0.033300642 -0.21542136 0.13754481 -0.2260977 -0.08137883 -0.21901502 -0.0018152673 0.12987101 0.042631295 -0.19126607 0.056758776 0.03319362 0.02627722 -0.120109 -0.0096890675 0.29300034 0.146646 0.20570524 0.063330695 0.12877694 0.039675362 -0.24020943 0.17713816 0.013428542 -0.27062735 -0.016084436 0.13198985 0.02728329 -0.019913383 0.017950768 0.1415673 -0.10921179 0.20580827 -0.10705918 -0.025505172 0.03837661 0.04567169
4171 -0.14565131 0.17271614 0.056071017 0.31654754 0.21521126 -0.12055888 0.04948399 0.027433146 0.24908361 0.073403336 -0.2073157 0.02330161 -0.09218144 -0.21368375 0.2694093 -0.15237238 0.16615304 -0.062950194 0.046920713 0.2767467 -0.2261676 -0.043458264 -0.26297197 -0.16189425 0.0025768122 0.14804105 -0.0013835748 -0.086472705 -0.061775252 -0.2681788 -0.14449874 0.06452253 -0.18297331 0.06326453 0.045993052 -0.04581572 -0.064535774 0.15985662 0.058851335 -0.06902921 -0.14238578 0.0015916395 0.17334388 -0.00076622673 0.051579945 -0.0832261 -0.2115835 -0.22461358 0.29076883 -0.040849864 -0.022464652 -0.1681376 -0.02059517 0.06629152 0.16110118 0.26709002 -0.10540291 0.13583185 0.15279903 -0.065600894 0.09473366 -0.19186199 0.27494857 0.14310935 0.08288525 -0.11050841 -0.21058185 -0.12008674 0.14323947 0.16729623 0.03323082 -0.036885615 -0.15124767 0.015200399 -0.015444964 -0.024600053 -0.016303372 0.0768257 0.22235961 -0.12950683 -0.136342 0.02287027 -0.105676115 -0.15047166 0.14243057 0.10414511 -0.12526417 -0.30762345 0.24397004 -0.046225928 -0.06708306 0.08027063 -0.037981864 0.17888056 0.2114879 0.07924614 -0.05448097 0.03854262 0.12431569 0.023390742 -0.16306715 0.16535437 -0.04771931 0.16808414 -0.29552862 0.17219982 0.03358218 -0.071851395 0.08004991 -0.02018082 0.16171543 0.13142028 -0.10718089 0.06095733 -0.16872638 -0.12803829 -0.034096956 0.18614645 -0.06891338 -0.1379417 -0.031757638 0.08136959 -0.09240619 0.17987582 -0.13082156 0.109176114 -0.04597934 0.14607894
3623 0.009334179 -0.07862562 0.14781152 0.26059154 -0.08684708 0.106843434 0.0019560412 -0.04875251 0.13769788 0.0056448802 0.00506901 -0.09116084 -0.16141528 -0.29898658 -0.050599165 0.12002597 0.021898523 0.051701955 0.09657219 0.14231017 0.05505851 0.342591 -0.03373009 -0.2468376 0.01957686 0.0870385 -0.10419527 -0.034461502 0.0048280074 0.12531169 -0.12608194 -0.21342099 -0.15858299 0.045326326 0.039795954 0.0075979456 -0.050596297 -0.031131597 0.04882224 -0.116771735 -0.13469143 0.10080086 0.07840591 0.33232945 -0.08488819 0.12935895 0.019828187 0.033582684 0.24529515 -0.18373501 0.061448436 0.12542303 -0.18240021 0.030245006 0.045445226 -0.022950685 -0.042890806 0.0008813059 0.07227778 0.1942667 0.03361316 -0.37880373 0.19671182 0.031713255 0.11953126 -0.21056545 0.17023858 -0.100629136 0.2945544 0.33016652 -0.25482774 -0.22529706 -0.015737945 0.060824152 0.06727209 -0.08645816 -0.048099615 0.11166294 -0.10829599 -0.07261538 -0.21942113 0.034689207 -0.05690365 -0.09529988 0.17263058 -0.12244671 0.043336257 -0.059820324 0.13341326 0.08036901 -0.07861756 -0.005249686 0.008456435 -0.008978652 0.19093639 -0.110840194 -1.4153344e-05 -0.17118251 0.11115788 -0.09747641 0.032746065 -0.035209075 0.09601503 0.040677786 0.056679785 -0.18281959 0.11623068 -0.10730603 0.038256004 -0.15225501 -0.07028157 0.011547619 0.10664829 0.04611339 -0.05640294 -0.33181474 -0.02569062 -0.11391137 -0.04349078 -0.1093157 -0.124574274 0.21609282 0.13211296 0.06232314 -0.08729501 0.079565965 0.06858599 0.03274642
4854 -0.09424127 0.07702232 0.15804203 0.10897018 0.10718441 -0.011867633 -0.029358909 0.00016938984 0.047970507 -0.043455377 0.038708255 0.12325665 -0.16424158 -0.15945801 0.34998795 -0.07372864 -0.03593926 -0.015935956 -0.21046436 0.16927731 0.08959373 0.1013302 -0.026326694 -0.007619196 0.09005396 0.083909705 -0.099284835 -0.00066360866 0.13921915 0.06520948 -0.101024255 -0.11191433 -0.24536379 -0.12843923 -0.025306517 -0.004986187 -0.1818706 0.1865728 -0.02375701 -0.11615094 0.036225222 0.1040196 -0.18152492 0.14748645 -0.26733655 0.06087419 0.14235128 0.010175627 0.08787251 0.058139205 -0.07210264 0.2336711 -0.13197042 0.0541085 0.100346975 -0.17940895 -0.013254795 0.0815951 -0.100208916 0.04689229 0.1997338 -0.29034093 0.13216129 0.06713576 0.11894034 0.12434052 -0.033984717 -0.15633151 0.20447405 0.063473724 -0.1805568 -0.10579518 -0.004214073 0.08896705 0.145458 0.038234085 -0.15271325 -0.0038557877 -0.0018016978 -0.16773029 -0.08763597 -0.07222055 -0.2009994 0.12136114 0.15425546 0.044839874 0.18725275 0.006071199 0.060244977 -0.26447093 -0.06358913 -0.2534009 -0.019598782 0.014853923 0.18617907 -0.10446944 -0.20001215 0.20709994 -0.22025023 -0.11614619 0.006694146 0.12823357 0.2422963 0.12872095 -0.030759962 -0.008949921 0.12508671 -0.017881287 0.16965693 -0.196857 -0.0440665 0.024361702 0.15879917 0.34817275 -0.015574274 -0.26301622 0.0030772456 -0.10556436 0.03535747 -0.10969165 -0.020144245 0.028829658 0.017749205 0.121690884 0.00965729 0.063622154 -0.12256199 0.01840452
1494 0.0089303525 0.0059860134 -0.0033644598 0.15679687 -0.011658239 0.10773124 -0.31458157 -0.08664366 -0.06799248 -0.010580255 -0.2338543 0.0038369624 -0.24469654 0.13456477 0.15277512 0.08054427 -0.10514983 0.17575815 -0.2392786 -0.026296752 -0.03528394 0.3750083 -0.20697486 -0.13148256 0.25710756 -0.0008929036 -0.11323895 -0.025317937 -0.03857769 -0.17569694 0.03281523 -0.08594384 0.15261324 -0.002377062 -0.123432174 0.07712482 -0.12878087 0.03981913 -0.015027957 -0.17726277 0.19765213 0.23615688 0.032202452 0.16852555 -0.23587123 0.09059722 -0.20107733 0.058328994 0.1897851 -0.020272503 0.04749728 0.18254715 -0.120173976 0.39166808 -0.21950805 -0.009203621 0.049323652 -0.06308223 -0.11088953 0.09483305 -0.15079431 0.08933906 -0.083774045 -0.01660399 0.13076755 0.05335746 -0.25127238 -0.06595961 0.09497255 0.23877016 -0.3017384 0.16211998 0.1255229 0.24438202 0.059447292 -0.05338472 -0.17404263 0.09083074 -0.13682951 0.039036904 -0.24789773 0.018930528 -0.1510236 -0.05266284 0.010880856 0.025157304 0.025168803 -0.027591586 0.10116491 0.09771023 0.0020502373 -0.22770905 -0.18633763 -0.016366303 -0.09491856 -0.15515679 -0.023867872 -0.027108083 -0.19365601 -0.08737734 -0.27405897 0.11458423 -0.055022795 0.10634387 -0.23993257 0.026285892 0.027690781 0.022030905 0.03912421 0.09346217 0.124786906 0.12907943 -0.080141805 0.15513082 0.049098678 0.03418672 -0.04762752 0.14942805 0.34851384 0.03871717 -0.09216223 0.31161425 -0.116379865 -0.09004127 0.0015526793 0.025983758 -0.011816852 0.046124365
5 0.045766335 0.13822961 -0.018142534 0.13411921 -0.22120161 0.048733268 0.06527844 -0.20927691 -0.020434724 -0.28678438 0.1474998 -0.012580042 -0.09524027 -0.030599829 0.18706827 -0.103477076 0.12959588 0.08528206 0.027411515 0.28527457 -0.09194929 0.08507116 -0.28644928 0.24660656 -0.033110276 0.042387795 -0.34018305 -0.017256103 0.12321093 0.07917433 -0.16777955 -0.16579011 -0.038489006 -0.047041852 -0.06403095 0.09745956 -0.06581702 -0.043235738 -0.01648268 -0.13747485 -0.13376643 0.2639801 -0.0005041018 0.5007319 -0.17787477 0.0005680163 0.20467421 0.14841583 0.0030231292 0.10338251 -0.078598276 0.16421296 -0.19646585 0.052836586 0.15932019 0.025198884 -0.1042882 -0.16485164 -0.07722863 0.2542337 0.11777234 -0.2839827 -0.17912309 0.0044573746 0.21158 -0.060564063 -0.11256498 0.034783356 0.180867 0.34108302 -0.16018306 -0.27878398 -0.17112118 0.11097363 0.02080446 -0.11987881 -0.069300234 0.029052945 0.099408984 -0.10321683 -0.25308156 0.18079025 0.22669896 -0.12213578 0.039643575 -0.15439342 0.18502966 -0.023000155 -0.10281598 0.31631917 -0.060332056 -0.15011086 0.02235796 0.041871578 0.11986812 -0.00866039 -0.15684906 -7.361544e-06 -0.12648343 -0.05100589 -0.04837241 0.012299726 -0.19355786 -0.042419393 -0.063088566 0.06419105 -0.05648517 0.03471949 0.32634434 -0.08310048 -0.17929906 0.19593553 -0.14294954 0.055198703 0.038146723 -0.20869638 -0.04071994 -0.051529657 -0.0043627024 -0.0146251675 -0.12717165 0.112071216 0.02425017 -0.04852092 -0.06594475 0.20578003 0.04566155 -0.14240205
1595 -0.0073413905 0.16480944 0.02818976 0.11754314 -0.091555625 0.018510379 -0.15689947 0.08216931 0.16872528 0.07696212 0.07400454 -0.008400826 -0.23754643 0.052998766 0.22124816 0.040469833 0.1664343 0.06302684 0.04784948 0.21035369 0.051471177 0.2618452 -0.04545652 -0.22841556 -0.2174039 0.15821749 -0.09371198 -0.24328585 0.06498379 -0.23348609 0.04629593 -0.0675665 0.057677265 -0.11078432 -0.13079536 -0.074910074 -0.09006991 0.33351618 -0.10559377 -0.27513897 -0.06744488 0.3027188 0.09989327 -0.026466586 -0.06354453 -0.14962152 -0.0063324277 -0.00242089 0.040930472 -0.065863416 -0.23778038 0.27171618 -0.12828566 0.18377568 0.14162241 -0.11805164 -0.09355603 -0.10945477 0.012266414 0.18498759 0.011823684 -0.010998917 0.014934457 -0.04545123 0.097342275 -0.19246736 -0.018943101 -0.04205623 -0.010961205 -0.03210739 -0.06319623 -0.11566896 0.046030644 0.16224091 0.07752995 -0.093080066 0.022159286 -0.20495768 -0.1031857 -0.065465406 -0.04560679 0.37199542 0.079736926 -0.21467626 0.24929006 -0.09598142 -0.05456018 0.1932462 -0.051969647 0.027692689 -0.16659984 0.055172797 0.055706345 0.13770902 0.04079889 0.019072203 -0.05299805 0.117574535 -0.06788478 0.033530712 -0.022094294 0.1288454 0.29588133 0.20119168 0.1559194 -0.15158181 0.064050764 -0.09905711 0.09643812 -0.07395753 0.10505657 -0.0774554 -0.09031045 -0.08101744 0.08071211 -0.10049394 -0.125477 0.12371096 0.30815655 -0.14632522 -0.029063838 0.12934183 -0.1414085 -0.018884094 0.16537465 -0.15336747 -0.049666792 0.17324102
3838 -0.1347678 0.07871137 -0.14982945 0.33853507 -0.05875225 -0.2175899 0.17873909 0.026363717 0.06547061 0.084201254 0.09904554 -0.04224152 -0.23466405 -0.33920205 0.10975911 -0.017702395 0.075248666 0.19935791 -0.07256761 0.1193446 0.043143824 0.2050434 -0.097946055 -0.07560914 -0.14309894 -0.13872086 -0.28644115 0.03366261 0.095155075 -0.04794336 -0.16157882 -0.06582128 -0.05715508 0.029745053 0.13928844 -0.22526552 -0.23751782 0.28583357 -0.14514986 -0.14686953 -0.049854137 0.01605739 0.16499756 -0.14763862 -0.2851825 0.058776833 0.004184477 0.15860297 0.058219522 0.1311805 -0.16115019 0.093833 0.20163812 0.13967144 0.2446507 0.016833216 0.14706129 -0.114640094 -0.103614874 0.043616094 -0.06351971 -0.29330987 -0.026473228 -0.055807456 0.30109397 -0.07050211 0.028993908 -0.20420744 0.18423359 0.15153196 0.11375746 0.049114663 -0.12917182 0.10105295 -0.0076222527 -0.0002465807 0.025333207 0.07911699 0.0011041516 -0.13997084 -0.2801954 -0.021631708 0.03518141 0.094625436 0.11355443 0.0046422877 0.20254967 0.012416743 -0.0016992098 -0.12051658 -0.25054842 -0.12375985 -0.06750914 0.10932112 0.05004902 -0.077104464 -0.26325563 0.056702673 0.031347416 -0.049139116 0.13894239 0.091381446 -0.007459353 0.15495336 -0.1839603 -0.038507182 0.107861765 0.11576944 0.15411843 -0.039624996 0.09856715 0.04603969 -0.10076891 0.24805146 -0.070300266 -0.26319027 0.15910988 -0.25121224 -0.20559387 -0.107348084 -0.016602887 0.30723077 0.017675431 -0.029375544 0.025946666 0.25581437 0.110942535 0.12111046
339 -0.07254106 -0.029773697 0.051996462 0.34362018 -0.2370261 0.3343716 0.021750722 0.15868175 0.041612823 -0.041719466 -0.13493235 0.04962703 0.16984318 -0.41086712 0.30034238 -0.049017664 0.15286419 0.078019276 0.03649198 0.2632875 -0.21105589 0.34874228 -0.16730353 -0.04269662 -0.05812824 0.004656959 0.06231339 -0.12420295 -0.042253528 -0.0228962 0.14816526 0.02069169 -0.13295029 0.10809864 0.08447734 -0.05130823 -0.4868193 0.11254907 0.36076728 0.07955723 -0.03717504 -0.24340664 -0.0011354054 0.14765629 0.10425726 -0.08554977 -0.02234705 0.06072174 -0.031145236 -0.10880026 -0.23488891 0.11167854 0.06787603 0.19081686 -0.038888562 0.078055084 -0.05147422 -0.11623535 0.3080642 0.19427803 0.08034438 -0.23146415 0.28598532 0.015051545 0.0752404 -0.11620909 -0.15416463 -0.21956523 0.16051205 0.1412042 0.006039315 -0.18324193 -0.1596768 0.2570441 0.2413876 -0.03441781 0.1627063 0.17954226 -0.111783415 0.06960571 -0.11532283 -0.115472585 -0.09271064 0.025568794 -0.003047813 0.10257169 -0.09922158 0.109946586 -0.12705883 0.2674721 0.0006822349 -0.11479722 -0.20624818 0.0483959 -0.13965555 0.019056337 -0.13346234 0.14954433 -0.015618307 -0.07620548 0.2140331 -0.18124542 -0.025040006 0.12932025 -0.040493913 -0.0049148225 -0.056451984 0.13500354 -0.04030166 -0.0011252401 0.07047174 0.06811655 0.0043230224 0.15430024 0.033608463 -0.32999036 0.08930711 -0.07605291 0.02476095 -0.20324773 0.023770504 -0.10491383 -0.16234973 -0.024161806 -0.08171526 -0.03396235 -0.03069549 -0.01685183
1049 -0.14858145 -0.0068331873 -0.13601676 0.20545998 0.15547588 -0.16503635 0.106000185 0.107006736 0.07600394 0.16067697 0.20954251 0.100216396 -0.20934336 0.09066018 0.27937284 -0.09181654 0.093439095 0.04963059 -0.13336486 -0.062444918 -0.18433467 0.23889822 -0.1336856 0.25319323 -0.02815931 0.04302097 0.18916072 0.14465547 0.08950603 0.16513439 -0.21820515 0.12358155 0.07252022 -0.024766773 -0.0618036 0.0896513 0.037689142 -0.1703518 -0.014509241 0.07665084 -0.27074724 0.11038451 -0.08967712 -0.10028635 0.007898734 -0.00042089817 -0.068993345 0.04599483 0.119570464 0.12454202 -0.059260923 0.12112751 0.047714107 0.21194947 -0.20538093 -0.0739674 -0.014273725 -0.03537447 0.09720371 0.16126335 0.15066242 0.095780164 0.21303497 -0.14506678 0.034390558 -0.06193327 -0.0424887 -0.1471182 0.08468831 -0.10244199 -0.19907261 0.07947612 0.07196315 0.06410163 0.20426115 0.26180303 -0.16317403 -0.014952465 0.05033934 -0.11744725 -0.2304933 0.20855466 -0.1287219 0.06539809 0.08663407 -0.30028287 -0.065354794 0.15817341 0.09374022 -0.11200517 -0.15436791 -0.08294757 -0.13297121 0.19037612 0.3151723 0.15922527 0.0813502 0.2663426 0.0006713693 -0.17926167 -0.105346285 -0.0959278 0.10012988 0.063086 -0.20702617 0.1882391 0.16243045 0.08122725 0.11789689 0.14642468 -0.30326253 -0.054641325 -0.108378835 0.3753553 0.072574124 -0.17258856 -0.26608142 -0.015301683 0.14100473 0.035840858 0.018032268 0.32426995 -0.21874338 -0.00971808 -0.0013668257 0.09831423 0.09657405 -0.019951683
5020 -0.07191992 0.12986074 -0.03644164 0.07284694 0.026464062 0.017416093 -0.10383796 0.22147293 0.25065112 0.1335294 0.19434911 0.050933868 -0.094426684 -0.17988284 0.0067353104 -0.05912513 0.32148242 0.041224502 -0.06255825 -0.07939948 -0.06856472 0.19789344 -0.09172076 -0.3631773 -0.019076781 -0.13262099 -0.13396037 -0.13419574 0.105914235 -0.05302352 0.040528502 -0.10974051 -0.21504869 0.16078097 -0.36916897 0.046309985 0.11740311 -0.2861881 0.16808729 -0.007002894 -0.20038892 0.120939836 0.086121075 -0.013953922 -0.14359058 -0.12643617 0.074503005 -0.08248423 -0.07618416 -0.057519384 -0.089826904 0.28494418 0.0027787294 0.14250547 -0.018267334 0.08339396 -0.2810432 -0.10181141 0.31473055 0.19496907 -0.09445174 -0.25333104 0.101656765 -0.069491394 0.1530723 0.007077007 0.04687503 -0.19401747 -0.11131954 0.076479435 -0.07248467 0.16239597 -0.1085953 0.2084133 0.06462693 -0.39538762 -0.15032762 0.039120514 -0.20908634 -0.103335306 0.14614964 -0.23014413 0.073982544 0.045189682 0.45133248 0.04569294 -0.017039327 0.112320036 -0.20491607 0.12189607 -0.137635 -0.002048197 0.14295134 0.047270127 0.04505316 0.06766632 0.0762303 0.1173213 -0.21584305 -0.08280586 -0.12691802 -0.12900399 -0.07456151 -0.06322004 -0.033701215 0.1728221 0.18106027 0.1563817 0.012272641 0.1717234 0.1747223 0.051145505 -0.24483396 0.0807118 -0.22916165 0.021517944 -0.25104207 -0.096932 0.00069670676 -0.23822291 -0.2074709 -0.07753644 -0.029263303 -0.15990296 0.0957811 -0.18922445 -0.26943457 -0.03975311
3300 -0.24947518 -0.052661575 -0.018849786 0.14673658 -0.025051873 -0.18901305 0.35430598 0.08345009 -0.011212062 0.2862859 0.17989895 0.047659323 -0.15256977 -0.27321842 -0.009267524 0.15020967 -0.057798136 -0.2078246 -0.05601575 0.2811721 -0.21194045 0.27427685 -0.19667284 -0.17193927 -0.020180916 -0.19588894 -0.0616138 -0.17129982 -0.0625304 -0.078057416 -0.089593805 0.08518779 0.14459269 -0.107413806 -0.07103018 -0.12489853 0.1314569 -0.113492966 0.037505865 -0.040873323 0.03343364 0.15386151 0.14864585 -0.011231788 0.07976578 0.14501837 0.12594473 0.0062725083 0.24542965 -0.17068014 0.1112812 0.23394527 -0.31754413 -0.010205526 0.0013976964 0.047722645 0.09323184 0.19147119 -0.1623478 0.01515146 0.10781214 -0.18224277 -0.037456334 -0.08613775 0.21466805 -0.23612052 -0.10148728 -0.07263904 -0.10760311 0.13560477 0.15866548 -0.031199558 0.23393181 0.11376935 0.022502836 -0.11861803 -0.008953551 0.0206803 -0.06856586 0.10381441 -0.06342377 -0.04447692 -0.093453996 -0.24434878 0.36161524 0.19166586 0.00027073498 -0.07341717 0.036032375 -0.071997754 -0.114923 0.27986965 -0.07429873 0.104601 0.19190708 -0.1599221 -0.13125435 -0.1022544 -0.24241278 -0.24424891 -0.002910609 -0.05377399 -0.145 0.21729988 -0.23153487 -0.25057417 -0.014320986 -0.20482752 0.11885952 0.5684344 -0.041330665 0.16953474 -0.015677497 0.19494832 0.16388136 0.00052451 0.041765735 0.0031259798 0.024909774 -0.09413551 0.24056263 0.040063016 0.101792954 0.09730409 -0.004835186 0.19940107 -0.048737008 -0.06158617
916 -0.3190556 0.37889147 -0.021808911 0.15357232 -0.0053699063 -0.038813736 -0.2288233 -0.12918292 -0.08206512 -0.13343728 0.18140551 -0.095325716 -0.38934928 -0.23610243 -0.04294915 -0.17719865 0.1667411 0.05529558 -0.06519397 0.3367661 -0.1508124 0.20485294 -0.073788054 -0.13301533 0.03884506 -0.18063687 0.06566302 0.21928568 0.33192933 -0.18398686 -0.17545857 -0.108568914 0.03499653 -0.019796534 0.10566704 0.22511844 0.07584682 -0.1568696 0.026604682 0.021863349 -0.10194744 0.15823579 0.40498364 -0.08196357 -0.024205156 0.044327505 -0.14843497 -0.11028359 -0.10181479 -0.114874005 -0.09292489 0.24120441 0.052060384 0.19689105 0.01482388 -0.19989792 0.15907048 0.01829859 -0.2863751 0.20414431 0.12463409 -0.085154384 0.16101319 0.102572516 -0.044627436 -0.3892985 -0.0044225934 0.050464284 0.21557231 0.36673224 -0.024167618 0.0965195 -0.013562906 -0.28423724 0.25406888 0.048262425 -0.01210925 0.08524438 0.09015255 0.19004858 -0.31589043 0.20368053 0.15256827 -0.15339866 0.20100617 0.018261323 -0.111577556 -0.21775752 -0.12878278 -0.116079204 -0.06593758 -0.06549901 -0.02957239 0.21852268 -0.106797084 0.19536106 -0.11961662 -0.06201856 -0.1784221 -0.14898244 0.07004306 -0.01258018 0.24457337 -0.106036946 -0.075656705 0.18696024 0.2541055 0.108057536 0.17192428 0.020869479 0.13735409 0.19316044 -0.123186335 0.18349786 0.016947826 -0.061647803 0.28256732 -0.019961221 -0.042882856 -0.16393478 0.010585578 -0.113734156 -0.07328424 -0.2472476 -0.0050462773 0.17992148 0.10385391 0.025755536
3994 0.07682683 0.030992404 0.039021164 0.22462949 -0.057576347 0.04934622 0.04349978 -0.1807937 0.30270842 0.051079296 0.034262653 -0.2009016 -0.12491042 -0.10557635 0.17796157 -0.12594607 -0.12000163 -0.078389876 -0.3818699 0.19549058 -0.037949692 0.32280904 0.09802487 0.13083178 0.15008272 -0.10552177 -0.18689594 -0.3694081 0.27543315 0.18203573 0.1319426 -0.055634998 -0.109249756 0.17230715 0.2813752 0.15907066 -0.08069261 0.019920006 -0.051629033 -0.21010318 -0.038236715 -0.08352043 0.13451058 0.053173248 -0.080030456 0.08905468 0.40726966 0.07363371 0.11734873 0.0562046 -0.00353252 0.055834062 -0.03768562 0.012081111 0.13722067 0.015240313 -0.113943875 0.073999844 0.13441513 -0.055202454 -0.09602413 -0.07735528 0.39502984 0.26969478 0.14836949 -0.1765723 0.016098527 -0.026571414 0.29309043 -0.008829866 -0.1476599 -0.374821 0.060181655 0.0029152592 0.34574267 -0.0556676 -0.11158002 -0.14436087 -0.15049547 -0.090003595 -0.16778347 0.13946861 -4.310579e-05 0.034523323 0.22503182 -0.06852904 -0.13247865 -0.17211153 -0.059563067 -0.15401147 0.097805575 -0.01524982 0.10028965 0.017940043 0.07803962 -0.08022602 -0.035385728 0.04496792 -0.019731723 0.0021394626 -0.1210034 0.16447175 0.008981153 0.20283729 -0.08831989 -0.020519035 0.005677597 0.15193515 0.29718286 0.30576748 -0.088655844 0.15321259 -0.018610492 -0.031401128 0.10349744 -0.16557227 -0.0459853 -0.057283152 0.031345535 -0.26429182 -0.07613699 0.15946268 0.1471978 0.32039332 0.09546809 -0.050018635 0.10218342 -0.3361531
3818 -0.078914024 0.19865271 0.114297524 0.0238456 -0.051967945 -0.00409221 -0.24511446 0.06588805 0.28086674 -0.10444722 0.19268245 -0.18517464 -0.18924737 -0.08531265 -0.183299 -0.36053947 0.16396685 0.16294126 -0.078732245 0.32496935 0.11660735 0.0083699785 -0.050150257 -0.12029544 0.020625789 -0.026847854 -0.07523569 0.04399238 0.103393525 0.10594117 -0.12563944 0.13362947 0.026592648 0.07533975 0.14299835 0.060117107 0.08003455 0.01984433 0.06678417 0.09292239 -0.17432953 0.041201226 0.08649085 -0.13190903 -0.0089743575 -0.14773512 -0.09776116 -0.044948 -0.013782674 -0.13948563 0.021670558 0.11888551 -0.08742075 0.285037 -0.24940619 0.029535944 0.2728354 0.18463586 0.2674358 0.16210791 -0.07268034 -0.20378076 -0.31220075 0.05758304 0.18921113 -0.19822893 -0.15040931 -0.18590829 0.15228127 0.25629285 -0.18338235 -0.19240794 -0.16792117 0.013554417 0.31892493 -0.07165075 -0.059302025 -0.05743815 -0.09805734 -0.11076309 -0.18268873 -0.14905189 -0.07303434 0.2383728 -0.047308154 0.33948645 -0.24988921 -0.045242693 -0.09975738 -0.11267167 0.059623253 0.1950078 0.10277111 -0.07318798 0.10079492 0.19659704 -0.11566691 -0.087304614 0.30881613 -0.10204535 0.07509466 0.1376448 0.19082914 0.091794714 0.16320904 0.14938824 0.005879974 -0.10452897 0.16641946 0.19420803 0.19264 0.0125510385 -0.041733284 0.15503103 -0.15846957 -0.33944324 0.15339482 0.07531917 0.28075925 -0.10914372 -0.0116027845 0.3844157 0.16392414 0.08829217 -0.03732906 0.23131546 -0.1032628 -0.3384056
4713 -0.16885278 0.08173105 -0.23153605 0.23566891 0.15828583 -0.28531453 -0.0520773 0.23831277 0.46412343 0.11470372 -0.02415081 0.26486412 -0.12529361 -0.36764616 0.13731933 0.06174395 -0.02693712 0.07290779 0.017183935 -0.09738601 0.026946133 0.23285432 0.065040365 -0.13473095 -0.15403949 0.010215769 -0.105329186 0.009688237 0.055883415 -0.055578984 -0.16554506 -0.232881 -0.21638961 0.077176444 -0.115611754 0.09455455 -0.096584395 0.064265914 -0.29232654 -0.36656412 0.013834512 0.36361974 0.043141827 0.17845654 -0.011875508 -0.18756221 0.174908 -0.045560032 -0.09054732 -0.20272502 0.13458186 0.15861723 -0.116694465 -0.09976183 -0.008516003 0.10823241 -0.14185818 -0.16195971 -0.05929791 -0.17157075 0.36409065 -0.118159674 -0.07662914 0.21635403 -0.036718685 -0.1530884 -0.13440879 0.1266323 0.1566292 0.24153426 0.0965364 -0.12869819 -0.0028234224 0.14576395 0.20275748 0.106937125 0.13845138 -0.12812187 0.14296138 0.042220388 -0.19338416 0.03812902 -0.33103293 -0.100869216 -0.007498671 0.051852264 0.10669762 -0.15720206 0.12739784 0.11645222 -0.010772938 0.054650266 -0.21840665 0.05856379 0.18446285 -0.011049484 0.11363718 0.112098455 0.041413687 -0.22864999 -0.019008173 0.14707397 0.06964637 0.19394316 -0.21407823 0.031016978 -0.11827524 0.07623479 0.132205 0.1329359 0.07430123 0.10034372 -0.3263058 0.30617306 -0.26897824 -0.14897136 0.36522934 -0.08290583 0.21622652 -0.011236838 -0.046777394 0.26743084 -0.083619684 -0.1956175 0.038577057 -0.13427252 0.0362807 0.10511058
5463 -0.21945052 -0.06536395 0.033658326 0.102697626 0.21905626 -0.21467613 -0.02288261 0.15246974 0.047079142 0.085707046 0.06570298 -0.15823483 -0.20347296 0.14298429 0.044202123 0.037074026 -0.026973598 0.15336908 -0.21623908 0.11467284 0.01116921 0.031369463 -0.22249849 -0.054978948 0.08355396 0.15248105 0.11409634 0.11832858 0.036340807 0.015385105 0.053556815 -0.08960999 0.0380142 -0.08944073 -0.07445585 -0.17747226 0.2213987 0.023910312 0.0604725 -0.16084635 0.06614387 -0.008875934 -0.04751764 0.2371957 -0.21624383 -0.034102347 -0.059799563 -0.14622752 -0.029557835 -0.13078314 -0.14393754 0.21864769 -0.23627906 -0.0033687647 -0.19322512 -0.1629485 -0.0022091637 -0.044776045 -0.041198097 0.07446548 -0.17584775 -0.22792003 0.07708555 0.027683666 0.07707359 -0.015594731 0.20076309 0.039224003 -0.057319246 0.09865822 -0.07658509 -0.21315329 0.04465282 0.14553797 0.13893966 0.13191336 0.03279602 -0.06943293 0.059476305 0.123157434 -0.22308163 -0.06291726 -0.13732328 0.08287847 0.014821583 -0.09360539 0.07268043 0.11177972 0.06499784 -0.11226332 0.03505599 0.07298897 -0.37115994 0.13387403 -0.0046857414 0.10332852 0.016859492 0.19331655 -0.05838988 -0.067362525 0.08500289 0.13555631 0.12251482 0.15568097 -0.17287448 0.19743115 0.17042777 0.057785235 0.24878538 -0.24357042 -0.020736197 0.12418334 -0.11886392 0.27455077 0.09047194 -0.20887989 -0.109137416 -0.13910839 0.2050505 -0.11105338 -0.27731547 0.2993282 -0.012604409 0.15350302 0.2481428 0.09933798 -0.08276128 -0.038637158
5789 -0.070821986 0.27220568 0.16764536 0.04358757 0.043082885 -0.14567377 0.20787883 0.18523 0.06430743 -0.08843159 0.07125357 0.051973183 -0.10404989 -0.19035023 0.13228586 0.21715409 0.41524774 0.25391665 0.09119949 0.09427461 -0.35969996 0.065206476 -0.06709597 -0.30025485 0.11046562 0.06982078 0.018218122 0.096722 0.059638366 -0.016554713 -0.073145084 -0.06665601 -0.11263638 -0.07120583 -0.04357035 -0.03695324 0.16399233 -0.15751345 -0.06255093 -0.01783392 -0.0922949 0.048437666 0.40739202 -0.123794354 -0.16153811 -0.1354075 0.08198582 0.14072214 0.012672712 -0.27005053 0.109462015 0.19628038 0.20165361 0.12896161 -0.1509744 0.14729583 -0.11462366 -0.18300042 0.2688633 0.12804867 -0.10868981 -0.1328804 0.074349195 -0.02563681 -0.057564244 0.07884956 -0.17952734 0.019924019 -0.018998327 0.15276547 0.04871832 0.097638674 -0.08741756 0.42925587 0.14680564 -0.011520354 -0.08569205 0.09986611 -0.017625913 -0.07577354 -0.17947437 0.032504354 -0.0015108191 -0.012820013 0.16815358 0.06837235 -0.015939454 -0.2589215 0.12827696 0.10952575 0.06160678 -0.26121464 -0.25521734 -0.06426237 0.24868253 0.4511627 -0.1333327 0.07561479 0.063097626 -0.17120771 -0.005693652 0.17221144 0.12188203 0.1579119 0.25702617 0.17607822 0.33615702 -0.14611118 -0.0035641294 0.15580203 -0.0075397855 -0.060091127 -0.1893361 -0.038105328 0.113463864 -0.20039155 0.022207504 0.15312603 -0.03709835 -0.05449224 -0.14400862 -0.1580303 -0.23352987 0.08768829 0.011865679 0.09346276 -0.027945124 -0.10648208
4257 -0.0909802 0.009030069 0.11517982 0.27611753 -0.0075124255 0.17053111 -0.04693306 0.05880153 0.19788116 -0.018188497 -0.062399752 0.2766284 -0.15254793 -0.29665777 0.066629395 0.20853752 0.05498238 -0.051803377 0.04295945 0.2242032 -0.045931432 0.08145684 -0.21045056 0.0023186698 0.060468666 0.1577048 -0.24233697 -0.19895732 0.19043559 0.14413005 -0.05227228 -0.46160007 -0.32293454 0.11795572 0.18600638 -0.032185644 -0.24430512 -0.010687909 0.018869488 -0.0062125586 -0.0003322192 0.23859918 0.080588385 0.23212034 0.14086086 -0.07786101 0.017222067 -0.04689171 -0.11713809 -0.056029867 0.015421314 0.13325186 0.22639057 0.23773156 -0.11504839 0.010629225 0.056462772 0.025562564 -0.029328924 -0.006591447 0.06743859 -0.0745824 0.13342875 0.20857775 0.26148236 -0.016607752 0.24620795 -0.04858076 0.05726999 0.22708946 0.03952601 -0.0321213 0.12113247 0.09510159 0.025581835 0.042543996 -0.10068429 0.309368 -0.05061857 0.035940647 -0.074365675 -0.09009787 0.03051364 -0.037599254 0.2837624 0.11326833 0.31559733 0.26974225 -0.117762126 -0.058128133 -0.16233349 -0.25877583 -0.17356585 0.068824366 -0.02212148 -0.13586497 -0.048713133 0.16776246 0.12129493 0.074728005 -0.04214578 0.24454631 0.09033522 0.15862933 -0.16545193 -0.16794062 0.057072453 0.25313497 0.14857675 0.09754827 -0.11643482 0.059959866 -0.019836936 0.15462013 0.039695594 -0.3045215 0.23062174 -0.05406124 -0.08922802 -0.089474514 0.42656544 0.20359889 0.0031593991 0.043505836 -0.04097646 0.09203446 -0.08623763 0.0082747415
1228 -0.063968986 0.013728949 0.12174051 0.13642439 0.019356806 -0.076600306 0.24427381 0.030661685 0.047164112 -0.25868288 0.01714802 -0.012529472 -0.44723696 -0.39776716 0.029543774 -0.014754944 0.32079604 0.27465683 -0.21192087 0.1506998 -0.13357319 0.15308648 -0.14006142 0.15607369 -0.06338417 -0.057841253 -0.077112205 -0.020395523 0.2633955 -0.034898207 -0.0028023196 0.124076195 -0.037825722 -0.10198256 -0.023270404 -0.018567752 0.065865226 0.07368534 0.18900272 -0.031481564 0.12665907 -0.007068123 0.47855186 0.12933244 0.23571216 -0.07863669 -0.22881566 -0.090734065 0.0265699 -0.061207037 -0.018710101 0.20787166 0.115814626 0.2857349 0.025431853 -0.107834 0.11183975 0.21372975 0.2636312 0.26764378 0.08744301 0.012826175 0.063230254 -0.0030577243 0.009447857 -0.19300438 -0.050578803 -0.102655075 -0.042264376 0.05008245 -0.29795265 -0.053068593 0.05301831 0.08961857 0.30894297 0.16966273 0.016808681 0.21979646 0.04306892 -0.1469623 -0.1815524 -0.07315995 0.1700919 -0.035394114 0.050953317 0.23875554 -0.08678344 -0.22801888 0.0029021474 -0.063842826 0.070652656 0.054811448 -0.0042427457 -0.04156947 -0.05005557 0.064835064 0.13474587 -0.15523775 0.10208967 -0.09669346 -0.08444178 0.23300825 0.19803791 0.057856187 -0.054926317 -0.09084636 0.18114737 0.18886958 0.18137853 0.082613274 0.06520366 0.066436194 -0.1602792 -0.020763585 -0.24120137 -0.19301069 0.1974813 -0.12835531 0.011376775 0.050867386 0.038745318 0.070511036 -0.2621975 0.057739295 -0.18765941 0.049520582 -0.04247895 0.09455399
5345 -0.3311364 0.20081457 -0.02674477 0.13898693 0.032147996 0.15904422 0.07865868 0.21038829 0.14273304 -0.052533943 0.05603567 0.21263316 -0.05061388 -0.12809378 0.03741291 -0.14987361 0.40273172 -0.11499341 -0.06265638 0.20495453 0.039740752 0.37035614 -0.16807124 0.02940514 -0.036835004 -0.10773202 -0.1780468 0.2744024 0.057491474 -0.048460223 0.089913435 0.029989876 -0.18007249 0.17515115 -0.14398508 -0.12637831 0.05785969 -0.063271455 -0.08256045 0.06070953 -0.13492692 -0.117928304 0.15479757 0.10640372 -0.119775884 -0.007965363 0.052353676 -0.16013767 -0.20557666 -0.10929133 0.14909394 0.20289516 -0.13077506 0.28114247 -0.19103457 0.08022994 -0.223192 0.08736658 0.10948014 -0.13637204 -0.036189448 0.008750421 0.1171787 -0.04514178 0.13626513 0.14504601 -0.045865696 -0.06777865 -0.0039606285 0.009698683 -0.07185816 -0.07811264 0.01814978 0.15102996 0.11276564 -0.2779591 0.043476246 0.116081506 -0.13413177 -0.009942024 -0.004360649 -0.18528104 -0.16006605 0.023518132 0.31066778 0.20309499 -0.038192883 -0.21668655 -0.033685327 -0.1405245 0.13019174 -0.1515804 -0.010246101 0.1862154 -0.021762663 0.23024479 -0.18027262 -0.027747529 -0.025964634 0.08785262 0.07338397 -0.19306846 0.09438042 0.05891001 0.105323344 0.37844226 0.28012827 0.048689887 0.38923705 0.0048915856 0.14483638 0.047694605 -0.28799045 -0.012103594 -0.084415294 -0.29139814 0.112147905 0.018283509 0.06016664 0.14191735 -0.10088033 -0.17296375 -0.09528382 0.081745826 -0.20393206 -0.07513758 0.104643874 -0.0110825505
1198 -0.28313473 0.0058285613 -0.058872845 0.029228576 0.019082798 0.0060464786 -0.2538018 0.11256752 -0.115987584 -0.02748592 0.10749441 0.19947854 -0.13655959 -0.29117104 0.014987132 0.17348377 -0.19694433 0.06593513 -0.069750465 0.48166612 0.058605067 0.14033554 -0.30483708 -0.08512563 0.021449018 0.016829222 -0.14898603 0.08693687 0.118166275 -0.11304777 -0.041046176 -0.119730435 -0.021154761 0.21704654 -0.042995594 -0.090944044 0.049490634 0.104013115 0.040170904 -0.07602098 0.038834456 0.021199128 0.25511292 0.39009124 0.22890645 -0.20087309 0.17720437 -0.19020382 -0.24746795 -0.18116617 -0.13462375 0.178892 -0.13927928 0.16447204 0.081417836 0.0033694913 0.15163723 -0.007956599 -0.07443548 0.04795602 0.058994714 -0.17159326 0.08275461 0.11333083 0.19422054 -0.14508316 -0.3711041 0.1817707 0.13791989 0.07999969 0.028833201 0.11806326 0.16204216 -0.043423485 0.18494782 0.11129765 -0.25040716 0.2327201 0.13135341 -0.07070029 -0.10825071 0.03256428 -0.094654396 0.13036706 0.31752747 0.1266426 0.10333409 0.08914424 0.1517038 0.012502244 -0.21772106 -0.062365107 0.022739325 -0.029983388 0.12952004 -0.0032605142 -0.06514932 0.06604935 0.036530882 -0.19910927 -0.23778321 0.059581444 0.29869178 0.15028602 -0.048678093 -0.08025362 0.11611835 0.008608519 0.035154097 -0.028641945 0.028062578 0.13194585 -0.0015119475 0.18578789 0.03178708 -0.07439422 0.16997238 -0.28006694 0.0740681 -0.18891485 0.28075153 0.29241845 -0.008516401 0.11377217 0.17045663 0.20670034 -0.0014880341 -0.06550999
496 0.0030508314 -0.15707406 -0.020701185 -0.21098468 -0.024867125 -0.12419209 -0.2077789 0.06749979 0.09337578 0.04946485 0.053358458 -0.067250624 -0.37473083 0.08797992 -0.024777964 0.10711078 -0.0834195 0.033148546 0.22242574 0.3423415 -0.04229303 0.21176948 -0.17060041 -0.25110346 0.11527481 -0.0043189256 -0.02753282 -0.016619012 0.22849293 -0.054355662 0.030983035 -0.21717334 0.13797066 0.006202008 0.023522943 0.012191431 -0.19523841 0.0053122565 -0.09245101 -0.28857523 -0.005842292 0.075029716 -0.07104421 0.2081184 -0.10691612 -0.062218063 0.08855864 0.07113073 0.13400581 0.24182504 -0.050591428 -0.22701572 0.04420631 0.07535744 0.13291773 -0.16017503 -0.026454188 -0.020217424 0.10874688 0.14707793 -0.12391848 -0.19238655 0.11900084 0.09043395 0.51714313 -0.082749605 -0.31417564 -0.07467888 0.05953573 -0.14438905 -0.049797658 0.068458535 0.18978263 0.26277173 0.26645905 0.2047539 -0.21199411 -0.34198475 0.043329477 -0.21544953 -0.18937616 -0.005028386 -0.14493646 -0.10569058 0.056088217 -0.17169428 0.14871922 -0.01986333 -0.09220149 -0.17967707 -0.16588204 -0.014368503 -0.22688556 0.102309994 0.052823704 -0.01778938 0.08068401 0.08450663 -0.124339394 -0.16639408 0.03939513 0.18732351 0.010549119 0.04491407 -0.3696058 0.14461875 0.07609996 0.060426645 0.1489909 -0.09371547 0.07290077 0.04111992 -0.011486834 0.3317968 0.030323606 -0.31884113 -0.12957606 -0.19319646 0.22039162 -0.015517439 -0.23608552 0.025156261 0.20807351 0.027561698 -0.07303231 -0.02929569 -0.1179659 -0.051933106
1074 -0.09998401 0.072195634 -0.13610081 0.14840476 -0.042863045 -0.040537752 0.057057064 0.1349121 0.19677319 0.08713308 0.10028001 0.0656541 -0.2722661 -0.058328018 0.057797626 -0.06654366 0.08899478 -0.0026523278 0.16186406 -0.026721423 -0.0017083795 0.060246915 -0.16445215 -0.28619534 0.07555278 0.24276376 0.25187016 0.11305765 0.026382083 0.106856406 0.09856007 0.1260076 0.10119561 0.096433684 0.23931699 -0.19480315 0.095940284 0.005210564 -0.10011571 0.017219521 -0.031531673 0.05769373 0.17231213 0.18218675 -0.22468448 -0.077561736 0.036869727 -0.12625867 0.12540464 -0.21971986 -0.21868497 0.089030236 -0.24059215 0.08595187 0.32740232 0.22013071 0.17543806 0.0910528 -0.08550527 -0.06683504 0.17978096 -0.09191336 0.020126807 0.008584949 0.1899289 -0.0323965 0.05456147 -0.22197466 0.1380311 0.0538345 -0.07771029 -0.26543373 -0.276201 0.005318212 0.33377266 -0.12856582 -0.18422407 -0.07262065 -0.08589781 0.07821398 -0.28060848 -0.024700863 0.37308192 -0.14508747 0.08973694 0.11822476 -0.14122376 -0.3391208 -0.027135262 -0.2683339 -0.1470393 -0.092795424 -0.07708346 0.24864617 -0.02249331 -0.08139656 0.017104072 0.20848602 0.2904247 -0.12156263 -0.23565644 -0.070623845 0.059358638 0.015829694 -0.1825573 0.123272285 0.075728714 0.12997791 0.2449716 0.16815314 -0.10178229 0.16602002 -0.23212263 0.014052419 -0.24032351 -0.034781527 0.102683544 0.03091247 -0.032811355 -0.17589247 0.13244294 0.18391865 -0.26489317 0.113880135 -0.13945653 0.06345772 -0.28281093 -0.14325331
16 -0.059709404 -0.13042249 0.053973805 0.3701097 -0.10423606 -0.030257348 -0.055150636 0.04300045 0.25654298 0.107121244 0.25245368 0.13918152 -0.3140852 -0.4516761 0.21952125 -0.19743864 -0.16599819 0.2079112 0.2880888 0.08734712 0.060555976 0.05853932 0.15310913 -0.07276688 -0.03765839 -0.1804351 -0.34310493 -0.2230199 0.02682673 0.27728763 -0.15498951 -0.0265715 0.014217487 0.0897494 -0.15853004 0.08092379 -0.03949434 0.0781887 -0.07833566 -0.27885377 -0.055230346 0.20041864 -0.046047315 0.056469616 -0.27626723 0.039559584 0.23920952 -0.3300447 0.11996203 0.038252782 0.06948528 0.3037758 0.13635238 0.08563545 -0.061904564 -0.0732712 -0.116634876 -0.16098309 -0.1304777 0.0838576 0.19155596 -0.017817225 0.23470739 0.08492078 0.07347935 -0.09766838 -0.19665615 0.21946307 0.061559293 0.2906444 -0.021293182 -0.14537129 0.049202815 0.10363695 0.15701787 -0.03002973 -0.025775852 0.2479537 -0.045444902 -0.21106392 -0.15291248 -0.11892877 -0.08479184 -0.08232174 0.06321343 0.054287266 0.027601326 -0.42278016 0.051097464 0.0033927392 0.049449883 -0.061768252 -0.15942805 0.25050068 0.2990746 -0.20802958 -0.08033851 0.19317152 0.15224244 -0.25278282 0.045332436 0.12210787 -0.060468696 0.371652 -0.06314293 0.2822646 -0.28124323 0.15435539 0.20079948 -0.09490418 0.041422777 0.49617225 -0.13063528 0.19414476 0.11181682 -0.016305102 0.07034519 -0.17272457 0.12358792 -0.15260296 0.05021631 0.23737021 -0.06744071 -0.07688805 0.00064556976 0.020579915 -0.07253831 0.060514707
4321 -0.123169094 0.08507073 0.07034903 -0.14944321 0.14694507 -0.1261423 -0.18131654 0.2707789 0.084296405 -0.025644632 0.049652904 -0.06978309 -0.017523898 -0.017732553 0.17245989 0.18589295 -0.12652278 0.24677688 0.18513362 0.16987026 -0.1259265 0.13576867 -0.058485363 0.020500166 -0.002406559 -0.018546162 -0.18164936 0.04366271 0.052383408 0.076575406 0.15400425 -0.02929614 -0.21900484 -0.026842212 -0.17303734 -0.13488883 -0.3071516 -0.060244635 -0.026181748 -0.29555622 0.1012264 0.12974057 0.101031266 0.16638434 -0.030512566 0.04304954 -0.056925654 -0.19785498 0.07626672 0.18430498 -0.02044136 0.004962319 -0.13238446 0.17962646 0.075508885 -0.17854255 -0.020015689 0.038571186 0.023896948 -0.14995359 0.02666537 -0.19109428 0.046978552 0.010576502 0.33177 -0.07845497 -0.26342455 -0.19065334 0.036278743 0.18304501 0.024018781 0.00033548253 0.075024396 0.024015259 0.22554344 0.090758145 -0.28922793 -0.17570338 -0.033790775 -0.022297688 -0.17608045 0.046579193 -0.061882243 0.05697076 0.30623063 -0.04633639 0.004813597 -0.041878305 0.20642324 -0.34722695 -0.43022904 -0.004949893 -0.13804808 0.084885865 0.1377046 0.13816054 -0.09434027 0.1511719 -0.12967233 -0.065518744 -0.09804461 0.19794698 -0.0020645105 0.03354471 -0.24510318 -0.066933535 0.10752977 -0.0051450534 0.34487164 -0.1725145 0.012318261 0.23612382 -0.059403546 0.3608273 0.26004115 -0.15755878 0.16827507 -0.22480336 0.10945468 -0.108552225 -0.3299627 -0.019273026 0.22571826 0.10361524 0.104685515 0.076125644 0.058412056 0.121198274
4012 -0.1863759 0.03081361 -0.060706053 -0.009194286 -0.04940125 0.22489893 0.16029654 -0.055961072 0.098550595 -0.0036509656 -0.1991229 0.11454069 -0.38553888 -0.10049414 0.14117144 0.14586544 0.097303085 0.34806466 0.02613083 0.11902354 -0.2187154 0.22657701 0.23543327 -0.18475124 -0.11519298 0.032307316 -0.2095627 0.19655977 0.20179893 -0.02440482 0.12119275 0.043824065 -0.049732808 -0.008827274 0.13275285 -0.25614956 0.04747742 -0.19053881 0.031370923 -0.14125411 -0.15375955 -0.042292714 0.069515295 0.038062446 0.07620221 0.04735028 0.19746543 -0.10142206 -0.18157233 0.100845695 0.03755774 0.15234728 -0.16296595 0.25926808 -0.13888265 0.003542207 0.051200006 -0.17544772 0.10946154 0.1711131 0.10191477 -0.24168266 0.13537982 0.22967051 -0.027839575 -0.088653885 -0.025342464 -0.24851073 0.23390837 0.24234633 0.040711004 -0.05300733 -0.0686561 0.013034015 0.1968943 -0.26561823 0.067148685 -0.23978797 -0.035206202 -0.026296554 -0.13395679 0.037775535 0.12554546 -0.106016405 0.11027285 -0.09041862 0.11214829 -0.09794142 0.057494313 -0.011268535 -0.1609976 -0.1022659 -0.103370935 -0.07592604 0.041130345 -0.3513586 -0.27055505 -0.18240023 0.17055477 0.15492712 0.0705221 -0.17693791 0.016174342 0.13334264 -0.1364857 -0.11602365 0.26530582 0.26640105 0.0059254346 -0.049502637 -0.047254667 0.09809323 -0.09590176 -0.010110051 -0.046748307 -0.42574126 0.18131617 -0.045655336 -0.06970312 -0.3285483 0.07596869 0.2644578 -0.0020899938 0.16409755 -0.09950624 0.23118174 -0.0011722274 0.23902072
813 0.04861883 -0.008998228 -0.07018256 0.064494684 0.051104065 0.07746139 -0.0048293676 0.10212474 0.14350002 0.17266645 -0.16928604 0.13186517 -0.32374778 -0.34961823 0.1669539 -0.026291922 0.06866751 0.26445672 -0.03179255 0.10535103 0.017134652 0.22346915 0.054223783 -0.056402445 -0.036297254 0.08002699 -0.2599394 0.10572628 0.108895816 0.26638258 -0.019140013 0.09790783 -0.17911327 0.06702348 0.00094051595 -0.15468377 0.16384937 0.030987399 0.138851 -0.02557088 -0.11207224 0.08299565 -0.0009756107 -0.0071200086 0.045213994 -0.02233336 0.11316116 0.10670785 -0.07177799 0.06442357 -0.032817144 0.22019847 -0.042994827 0.020418681 -0.19389671 0.10285557 0.04353404 0.13702609 0.15163231 0.006900971 0.15981947 -0.05341812 0.001809389 0.1556733 0.18459757 0.21089323 -0.0032511838 0.13508129 0.23227961 0.19171679 0.124540865 -0.2089646 0.11731251 -0.16342087 0.33370626 -0.32068843 -0.09814493 -0.11941037 -0.043337736 0.1331434 0.0042560394 0.011970222 0.07367098 -0.29794553 0.010789785 0.08495954 0.29676867 0.011277379 -0.18412907 0.076098725 -0.28017792 -0.043140296 -0.16951266 0.03812408 0.20900083 -0.010272607 -0.20173554 -0.009893344 -0.33012018 -0.01627522 0.15827015 0.06942697 0.025252527 0.2148635 -0.07354602 0.1057744 -0.052417863 0.23135056 0.12334854 0.119904794 0.03330088 0.09603733 -0.051844884 -0.06601905 -0.033406436 -0.32938522 0.17302483 -0.11359284 -0.016839124 -0.18084456 -0.023258658 -0.18355282 0.13350284 0.008209484 -0.07701565 0.08081379 0.07030048 -0.0501126
56 -0.084193006 0.32643297 -0.10001269 0.22139695 0.2091761 0.06536915 0.07700627 0.04696768 0.17707387 -0.09598703 0.003941591 0.1928534 -0.18117237 -0.6514887 0.24812846 -0.041352727 0.1161442 -0.13781495 0.16688164 0.14594251 -0.23603204 0.31737235 -0.07023954 0.12462894 0.21555491 0.18579178 0.087600105 0.003465757 0.21715966 0.1835941 0.2055289 -0.00046979432 0.17655796 -0.07015574 -0.16605176 0.070809625 -0.16200319 0.12486706 0.031813137 0.05088935 0.09938414 -0.012413173 -0.006437595 0.075904936 0.0664965 -0.023392498 -0.02802536 0.07140909 0.062791 -0.10082074 0.03541279 0.03169498 0.007154371 0.31103554 0.10687889 -0.053109378 -0.31827164 0.019601023 0.42828742 -0.014114741 -0.17353468 -0.05253111 0.15862034 0.04264427 -0.08399802 0.115455315 -0.0695943 0.18843919 0.32280898 0.06943575 0.10303183 -0.33399624 -0.16598986 0.38803053 0.004862034 -0.2554094 0.46670288 0.1775017 -0.16208906 0.018608155 0.04780899 -0.060311206 0.12002311 0.16754517 -0.054967564 0.21502234 -0.06528354 -0.111627616 -0.022624517 0.017255291 -0.131057 0.041912515 -0.17915326 0.08142829 -0.16669218 -0.05368108 -0.16095534 -0.07533686 -0.305402 -0.07219516 -0.14254531 -0.13240181 0.09044985 0.22605671 -0.27855334 0.23297074 0.094352014 0.051954247 -0.013879881 -0.037852436 0.13170123 0.17996298 -0.025713643 0.23113288 0.12990841 0.021067793 -0.016883403 0.038105443 -0.026765984 0.0025215468 0.01613832 0.067674674 -0.12550832 0.20305057 -0.0826634 -0.092596695 0.15951464 0.2349623
3337 -0.4363235 0.06258482 0.18576205 0.10367526 0.12257402 -0.18023977 -0.07026944 0.12297333 0.017545447 0.044230655 -0.21460429 0.030340383 -0.17274402 -0.14976722 0.19237718 -0.1914207 0.021345073 0.07949983 -0.05779025 0.27101788 -0.16498455 0.17698051 -0.08295739 -0.17262346 -0.11486889 0.12082363 -0.14609873 0.11397504 0.10612645 0.0730441 -0.19540371 -0.012286172 -0.014933124 0.0032293177 -0.25062522 0.13129865 0.06107058 0.28864887 0.30473316 0.25758973 -0.10553525 0.10280189 0.45840192 -0.05776809 -0.07408282 -0.09418017 -0.29438093 0.0918439 0.12487218 0.34971425 -0.002882873 0.22056304 0.098125644 0.08822436 -0.16408151 -0.17565706 0.091625236 -0.07770644 0.176199 -0.046258535 0.08631664 -0.11415286 -0.031391896 -0.040394552 0.16083978 -0.27483356 -0.16157328 0.1517015 -0.008978538 0.3227667 -0.255658 0.014126575 -0.02491387 -0.156098 0.22838894 0.1644357 -0.03885741 0.0093724895 0.15380596 0.14346723 -0.064324334 0.07940101 0.2402494 -0.038132478 0.32564262 0.28024483 -0.10957201 -0.25586066 0.0075372 0.06680666 -0.014368434 -0.04391176 -0.19501328 -0.061909888 -0.04009534 0.03873715 -0.24273393 -0.3738818 0.114563555 -0.050384305 -0.00721455 0.09914762 0.118127376 0.14331576 -0.14291881 0.28008398 -0.029749533 0.1948273 0.14464363 0.30141637 0.08653571 0.08063483 -0.25725305 0.045695983 -0.18337111 -0.15387297 -0.07955794 -0.053318072 0.1410998 0.113262884 -0.05969103 0.10073391 -0.113843285 -0.16744842 0.10181811 0.18554305 0.25333267 -0.14316337
5119 -0.016150832 0.007855182 0.15389775 0.15732767 0.18772946 0.10496789 0.035558417 0.09310913 0.059992325 0.38865063 0.11945653 0.21358447 0.17388451 -0.3407544 0.21355356 0.06901676 -0.11829781 0.16536419 0.11800808 0.14766048 -0.2700822 0.110104494 -0.16710547 -0.15684833 -0.00894005 -0.010530296 0.044575453 -0.056508057 0.47386247 0.13405955 -0.08625686 0.018017132 -0.013573991 0.28582728 0.05261041 -0.18999258 0.15076 -0.06576889 0.19039032 -0.02093941 0.04372624 -0.21819247 0.29339448 -0.12643586 -0.15510556 -0.17267595 0.086309604 -0.0632915 -0.0906934 -0.09421927 -0.12570861 0.14386827 -0.25228775 0.17413625 0.016642695 0.01921125 0.101916015 -0.10019776 -0.08000466 -0.12880027 -0.088465184 -0.1609665 0.03882512 0.11389878 0.47420168 -0.082062475 -0.23109454 0.03702892 -0.13510478 0.41077158 -0.25258237 -0.05202207 0.28751686 0.09227234 0.04231735 -0.19743821 -0.03507465 0.05493401 -0.04948984 -0.017097617 0.15591346 0.089354865 0.13508278 0.0123375915 0.10261611 0.25276932 0.28080466 -0.010754813 0.038052075 -0.009087353 -0.17016049 0.20093945 0.029422829 -0.16597319 -0.10177978 0.12196179 -0.08249967 0.1716264 -0.033202045 -0.16895138 0.010783693 -0.04271626 -0.015119598 0.43099442 -0.05683249 0.10976805 0.2234323 0.28615215 0.031094262 0.2389527 0.029572535 -0.03001463 0.08530715 0.27934164 -0.001281236 -0.15855062 -0.035653163 -0.042109367 -0.021355692 -0.042124618 -0.06970151 0.15156907 -0.3048617 -0.012340403 -0.026846113 -0.01506847 0.03739066 0.10833194
4572 0.012113091 0.11003806 0.16074766 -0.14978424 0.14225556 0.03776378 0.083716385 0.02579132 0.2681635 0.18356764 -0.11063812 0.12920287 -0.11839078 -0.26408565 0.029775511 -0.23407702 0.07703392 0.11912155 0.17082253 -0.062311802 -0.107109606 0.1459381 -0.29714507 -0.12119946 -0.18961473 0.1770285 -0.16425517 0.029947588 0.037172873 -0.2216727 -0.27664748 -0.015879512 0.15640746 0.17110097 -0.2948754 -0.15145022 0.13103475 -0.12674053 -0.0019557644 -0.05457223 0.1926135 0.03317279 0.10042299 0.10346849 -0.52267915 -0.18624498 0.05336379 -0.09262152 -0.26444447 -0.12222725 0.120321505 0.30085957 -0.14007038 0.13524435 0.029594187 -0.13289581 0.002501005 0.24716644 0.19716941 0.18166536 0.10197675 0.05499193 0.011937062 0.069279954 0.014985136 0.008224123 0.009788259 -0.043484215 -0.04496868 0.38079473 0.13520485 -0.121780775 -0.19958574 -0.3252676 0.06979005 0.23718633 -0.14062734 -0.12790485 -0.09222919 -0.20101173 0.14890726 0.28325805 -0.046907425 -0.14597338 -0.24054381 0.08855441 -0.20066056 0.13023753 -0.3418441 -0.22018532 0.3070991 -0.09672485 -0.13827202 0.24888402 0.16864197 -0.060938634 -0.031812515 0.2775284 -0.19226259 -0.011677283 -0.005098876 -0.13610739 -0.19790788 0.07337924 -0.16163906 -0.26844412 0.03792594 -0.22217262 0.30726182 -0.01891746 0.0102224685 -0.14977737 -0.15130368 0.14221978 0.0014709502 -0.088679954 0.024439864 -0.050776917 0.1546926 0.16126426 0.16301456 0.3428869 0.09380534 0.036373943 0.27110726 0.07948923 -0.03753518 -0.13406117
3737 0.029566927 -0.511898 -0.014563391 -0.046199396 0.11635324 0.13586077 0.1031326 0.29583216 0.23075034 0.20203382 -0.10020422 0.14504853 -0.036026474 -0.34955627 0.21515714 -0.042316586 0.23838481 0.2619532 -0.08315988 0.25866327 0.017815083 0.3682028 -0.3230158 -0.07339304 0.19047557 -0.23490569 -0.24348035 0.1307534 0.19729538 0.16203488 0.051451612 0.20429628 0.25404173 -0.093163475 -0.14932655 -0.029708786 0.12106087 -0.18522108 0.008879284 -0.07314591 0.2669091 -0.045549102 -0.049005635 -0.08592882 -0.37827152 -0.14914832 -0.06643044 -0.14445725 -0.09253912 -0.2140738 0.05221019 0.13056393 -0.09598578 -0.07143497 0.1215668 -0.029871065 0.1581213 -0.10701494 0.09672675 0.10413306 -0.10881095 0.20250024 0.1152741 0.07851551 -0.01600117 -0.017590119 0.055192012 0.059369925 0.24728505 0.11331389 0.43005615 -0.27695104 -0.035624046 -0.19584464 0.026456632 -0.17575242 0.011263268 0.03463165 -0.013156374 0.07102317 -0.13912347 0.03898984 -0.0720062 -0.095327355 -0.121186286 0.19686523 0.11713157 0.05550266 -0.18266658 0.0013101598 -0.119145796 0.0009497335 -0.07202551 0.2812079 -0.06547448 -0.08095671 -0.12802567 -0.045221027 -0.26419353 0.3812528 0.045000814 0.09023535 0.2275911 0.085484914 -0.05357755 0.1489064 -0.028094433 -0.1264167 -0.024612064 -0.18447836 0.092302166 0.098253384 -0.2229086 0.023484126 0.313415 0.13452145 -0.17413878 0.13475563 -0.09236126 0.12011878 0.19907199 0.38178927 0.35477203 -0.11751237 -0.058726873 0.45102334 -0.019590368 -0.17787175
1674 0.30773795 -0.047376826 0.26584378 -0.12942977 -0.032045446 0.27950224 -0.022653885 0.10618303 -0.12602592 0.17064519 0.17131327 0.107906416 -0.0911201 -0.24908017 0.21673776 -0.013470582 0.28441817 0.11044071 0.06834511 0.120988004 0.14633124 0.1150816 -0.18634464 0.11668668 0.1567365 -0.0058510983 -0.07421017 -0.21215364 0.38045555 0.07636884 -0.23618542 -0.30140895 -0.113497004 0.26508927 -0.04903254 -0.09535282 0.03878406 -0.05807797 -0.19519126 0.02823596 -0.03560586 -0.02857279 -0.017284447 0.0018232446 -0.41292915 -0.12373214 0.021950947 -0.05565947 -0.0656697 0.049618766 -0.050899114 0.16799368 0.010269347 0.2322302 0.004562282 -0.07367043 0.014318625 -0.095005184 0.088726684 0.18587054 -0.22856678 -0.061704073 -0.07084874 0.35084903 0.08847846 -0.3799344 -0.2018477 0.1351945 -0.14183785 0.23816541 -0.042381328 -0.20040572 0.14096995 0.12708738 0.027503796 -0.20655657 -0.0021442373 -0.0064725303 0.12109433 0.07077404 -0.08038994 -0.22551998 -0.17507988 -0.18795708 0.20771341 0.38616738 0.16042937 -0.174652 0.25268885 0.078496754 -0.09475902 0.003728651 -0.20539084 0.2260416 0.23103003 0.17496659 -0.41609386 0.16159713 -0.111609384 -0.28601345 0.054059837 -0.16842106 0.10217467 0.18504782 0.08989191 0.39880258 0.18901213 0.34251887 -0.03893648 0.10496615 -0.017131757 0.033488795 -0.22870457 0.14619179 -0.52450097 -0.113586634 -0.017745242 -0.16997193 -0.07488238 -0.07428771 0.06429457 0.22166157 0.09696613 0.111915514 0.27724865 0.061295446 -0.18519504 0.1839928
20 -0.15578704 0.17726886 0.24910606 -0.01183026 0.023462407 -0.117729895 0.06195759 -0.11450881 0.12525086 -0.013860736 0.17247485 -0.15489754 -0.29534638 -0.38912153 -0.01180673 -0.24128954 -0.13924661 0.13771144 -0.059658803 0.3048057 -0.10394395 0.14972311 -0.19941969 -0.04142544 0.070431866 0.18789065 -0.1603499 -0.05919041 0.11234807 0.111856095 -0.07549222 -0.13159183 -0.1756332 -0.09011121 -0.011158539 0.021785468 0.07727229 0.06386214 -0.021478746 0.20350602 0.017358031 -0.13889638 0.1835808 -0.30678302 -0.014663592 0.033563353 -0.14646383 -0.18744484 -0.086747214 -0.10134054 -0.11713758 0.20723407 -0.11027 0.18389533 -0.29213083 -0.14099446 0.1833233 -0.23827244 0.0154478885 0.270329 -0.08259308 -0.12992904 0.122708105 0.24526958 0.024278454 -0.21767588 -0.15351345 -0.015540821 0.21684885 0.17121908 -0.16022985 0.034525782 -0.04491287 0.01606101 0.21457279 -0.020881878 -0.014253903 -0.12894067 0.020377396 -0.033407707 -0.33494884 -0.04438992 0.08954974 -0.034477454 0.1576969 0.08117723 -0.15010361 0.061755255 -0.25342685 -0.06678339 -0.2264584 -0.04419846 0.058393773 0.2004599 0.05747171 -0.17128047 -0.09484747 -0.2049582 -0.008686813 -0.07515523 0.032508694 -0.03338941 0.1018462 0.10074616 -0.098849304 0.22301775 0.17213695 0.33139443 0.093396135 -0.025796015 0.1156755 0.11083546 -0.23367952 -0.01805759 -0.10369201 -0.16868539 0.15197851 -0.014389294 -0.0533638 -0.16195594 0.15173726 0.09257489 0.21018422 -0.079321735 0.112259224 0.3445766 0.07968318 0.06497552
3872 0.13176037 -0.068249024 -0.057790045 0.084744334 -0.12243832 -0.0917776 0.000961649 -0.12987265 0.2643602 0.28980428 0.06576112 0.06918873 -0.2678052 0.025053982 0.12700385 0.04087906 -0.009694735 0.2506431 -0.10392557 0.14043117 0.24592061 0.1830593 0.1509692 -0.111275464 0.05176286 -0.23914249 -0.5376189 -0.098394416 0.03584036 0.006066641 0.06807271 -0.14626259 -0.008816274 0.053155817 -0.05025062 -0.41102788 -0.021594763 0.07911275 0.111638956 0.15737075 -0.09303276 0.18773392 0.06746558 -0.0124235395 0.03733574 -0.27336964 -0.14967741 0.34053162 0.10628394 -0.0009890889 -0.12597504 0.02947277 -0.22687447 0.27610523 0.28127056 0.06831705 0.019496549 -0.28737772 -0.007026037 -0.08995281 0.16168794 0.17571674 0.07258099 0.47007462 0.01653618 -0.12216167 -0.055929054 -0.15212555 0.12903322 0.47389835 0.048882138 -0.116284996 0.1765548 -0.014156922 0.13109459 0.103028625 -0.12634806 0.36177233 0.09377565 0.07457057 0.061761327 0.04954801 -0.0542077 -0.1698078 0.14481515 0.09935412 0.30056205 0.0866857 -0.1728677 -0.066185966 -0.1146129 -0.061728947 -0.20559129 -0.016109217 0.022549592 0.17490637 -0.0077963304 -0.21294716 0.07742679 -0.5348334 -0.060880583 -0.053018253 0.051344667 0.03751061 -0.090910606 0.10127113 0.402368 0.02311313 0.2672508 -0.17305005 -0.16697323 0.29384157 -0.13165 0.20339935 0.04215818 -0.30774933 0.06604157 -0.1434462 -0.2711336 0.011019031 0.17032722 -0.09399775 -0.19622084 0.30096877 0.04934937 0.11164087 -0.20256704 0.14289877
1315 -0.07378801 0.09687379 0.03422666 0.29378372 -0.13084131 -0.14580004 0.027874392 -0.13242355 0.10631378 0.06640109 -0.15126947 -0.043697532 -0.29108876 -0.2665687 -0.059108414 0.09102855 0.039285474 0.054935332 -0.19684967 -0.03874233 -0.21444324 0.19799547 -0.16798197 0.15487272 0.18912604 0.23794954 -0.25966814 0.06989971 0.1880266 -0.0103654545 -0.00015317026 -0.30091152 -0.22070336 0.025472734 0.24076994 0.30565634 -0.22673285 -0.1891162 -0.285766 0.18807074 -0.09105446 -0.041431624 0.106591664 -0.10929863 -0.27628717 -0.044814933 0.17061311 -0.08429465 0.2227765 0.40000507 0.026835984 0.219764 -0.2475402 0.07401272 -0.07470091 -0.26126462 -0.11120148 0.030493788 -0.030832512 -0.0061998116 -0.08804967 -0.0070872195 0.17233837 0.037994053 0.20956628 -0.12194379 -0.225882 -0.064174645 0.09553107 0.24449253 0.15150578 0.04118679 0.112051554 -0.088581175 -0.033650335 -0.09877423 0.018363321 -0.11765924 -0.014780722 -0.10295808 -0.13965379 -0.050007712 -0.06248317 0.048148155 0.016751155 -0.044860817 -0.1045742 -0.009812668 0.12605032 0.107522525 -0.019469874 0.13878886 0.0089281015 0.17538007 0.04747541 -0.1348233 0.044208106 0.05174078 -0.26333973 -0.0047290036 -0.04639477 -0.06475305 0.017737905 0.2303155 0.06951275 0.06246128 0.16421226 0.09030288 0.21583502 0.15199654 -0.046141203 0.06718409 -0.06553486 0.020854032 0.05094029 -0.02010465 -0.03215928 0.014687452 -0.1812146 -0.15726574 -0.068975255 0.06070379 -0.24960661 0.029190786 -0.073665135 -0.0596208 0.03689781 -0.017550021
2727 -0.09506701 -0.0029859475 -0.23419374 -0.024602367 0.094016925 -0.093235604 -0.11470743 0.0652206 -0.04004125 -0.071348995 -0.091065206 -0.093338005 -0.24427152 0.079535104 0.08295531 -0.0037833361 0.089010574 0.15878978 -0.16228656 0.39792085 -0.131194 0.11887032 -0.14310712 -0.15726009 -0.29369533 -0.03451081 -0.03726489 0.20918019 0.23906821 -0.088207334 -0.11180126 -0.044062145 -0.13878363 0.071509294 -0.23190036 0.17469586 0.05922011 0.0632395 0.013832456 0.16906884 0.18624687 0.32142523 0.42988464 -0.008486208 -0.22850408 -0.021721156 0.04349282 0.043747146 -0.026293382 -0.010425322 0.007048201 0.2362174 -0.1084702 0.074800484 -0.14328463 -0.33673918 0.049528748 0.013481571 0.18735074 0.16745436 -0.06560186 -0.20124175 0.07877806 -0.06258945 -0.058246937 -0.10164216 0.17583688 -0.0153244855 0.10035848 0.5446511 0.0939664 -0.14041555 0.062034473 0.1085968 0.4626672 -0.06329571 -0.033324204 0.13839567 0.10828924 0.15013582 -0.23559807 0.15612938 -0.1311916 0.0091368025 -0.00495537 0.15186632 -0.13774668 -0.16531649 0.061541695 0.10381185 -0.09455957 0.077301964 -0.16147411 -0.086684234 0.006522804 -0.1539045 0.12351443 -0.04513107 0.2317607 0.030666748 -0.14423415 0.063175224 -0.13577463 0.30148348 -0.009206261 0.27844623 -0.013745298 0.17429192 0.130823 -0.032327026 0.17217007 0.088731505 -0.10001381 0.06765672 -0.24843183 -0.06639682 0.19440953 0.123549394 0.26865757 -0.0068481625 0.21510698 -0.22018036 0.02414329 0.0073139095 -0.15438712 0.2883527 0.19706222 0.09160129
773 -0.02946615 0.12682799 0.04413104 0.12735757 -0.021819782 0.23937386 0.07451444 0.10183839 -0.023830365 0.19864726 0.065082364 0.18417346 0.15868194 -0.24144103 0.08991491 -0.007883256 -0.2174309 -0.0877408 0.33623937 0.3999516 -0.39371154 0.097064175 -0.27548817 -0.07835719 -0.16207446 0.20646171 -0.2473802 0.026894297 0.30131873 0.31316552 -0.07067105 -0.11964539 -0.049846333 0.08446102 0.18834165 -0.29012957 0.014407808 -0.3496545 -0.050843235 0.029390639 -0.0040546474 0.09392664 0.2604523 -0.17797321 0.102448665 -0.16555515 0.06830972 -0.12948449 0.24483304 -0.0063010473 -0.08966002 0.052247904 -0.4668516 0.054161947 0.24490309 0.07092066 0.16204306 -0.051206235 -0.08065346 0.0613181 0.012391423 0.06976059 -0.015437432 -0.059464443 0.27421555 -0.28215107 0.07692993 0.012435439 -0.02769875 -0.014907076 -0.17347334 -0.06446147 0.14587158 -0.008015753 0.05950769 0.095636286 -0.23670758 -0.093114465 0.07142301 -0.065691404 -0.080753304 0.14565115 -0.00054857077 -0.06591133 0.14006767 0.3324685 -0.08755671 0.10074516 0.062485818 -0.32802102 -0.075523265 0.077676125 0.12032961 -0.091262616 0.08293227 -0.042319275 0.24876027 0.14899985 -0.0071349125 -0.038089164 0.061371785 -0.14934179 -0.15233491 0.23987879 -0.10583861 0.23312399 -0.020401556 -0.007824895 0.30558687 0.11238223 0.1296549 0.0047381083 -0.1004442 0.41211545 0.09086382 0.087310635 0.045611072 0.05736119 0.055822544 -0.3763781 0.033142563 0.23313247 -0.08735409 0.1047758 -0.18694973 -0.026976252 -0.086405866 -0.089616
5785 0.14855713 0.08011665 -0.12841092 0.31480184 -0.13459426 -0.07708718 -0.012359852 0.058988508 0.2834708 0.009828773 -0.16442776 0.13219945 -0.12663904 -0.24620345 0.2662528 -0.08775697 0.14273968 0.099501535 -0.046915613 -0.049336992 -0.09913125 0.0784471 0.038930025 -0.060905766 0.10344216 -0.089710414 -0.059386358 0.20542713 0.017375449 0.0420808 -0.041146696 -0.20398669 -0.3455042 0.05941743 0.06805302 -0.1707205 0.011627028 0.09274191 -0.27063352 -0.014688698 -0.06901933 0.101288676 0.012164977 0.03176589 -0.13884799 0.020006733 0.24134998 -0.04551055 0.025974572 -0.03951512 -0.06810646 -0.032016426 -0.047644258 0.101786315 -0.018989442 -0.022000402 0.088576004 -0.07307523 0.12388745 0.04755296 0.052583233 -0.17167854 0.2920842 0.041069906 -0.0077524697 0.107889906 -0.13256659 0.08503328 -0.075774774 0.24251027 0.21514556 0.09016566 0.05721507 -0.18784067 0.2521487 -0.15907536 -0.09425319 0.022673173 -0.15866336 -0.20474897 -0.25046322 0.0060657375 0.191374 -0.2930508 0.19452918 0.17960994 -0.07879772 -0.13866897 0.060364533 0.036436137 0.15515578 0.08438867 0.081315316 0.0682215 -0.23084676 -0.077848 -0.11077577 0.15405548 -0.08165723 -0.32628718 -0.043799736 0.0067818896 0.08387272 0.1449734 -0.2362497 0.11359208 0.03144482 0.06162995 0.040312666 0.192675 0.08802088 0.40090692 -0.14132638 0.218467 0.13596353 -0.12665652 -0.03167255 -0.08426344 0.26575762 -0.17594324 -0.1318237 0.01472872 -0.101632215 0.037025858 -0.23149921 0.013777584 -0.06700007 0.0045761378
2889 0.03509479 -0.070015706 -0.06387232 0.040966477 0.025348533 -0.0736246 0.047607888 -0.07467903 -0.003572559 0.037154224 -0.096612975 0.011742395 -0.41880044 -0.24440108 0.3070919 -0.018689465 0.17730953 0.19459921 -0.06868294 0.31166765 -0.062966056 0.32447836 -0.07970375 -0.2803207 -0.11866515 -0.11512743 -0.33244804 -0.043252844 0.1579884 0.04902598 -0.0033765086 -0.052050624 -0.14837834 0.18373981 -0.13370919 -0.20063953 -0.20128804 0.049903348 -0.1817365 0.014253327 0.07391427 0.0913136 0.008713092 0.15863362 -0.29711545 -0.18995348 0.16652963 -0.08594985 0.22748515 -0.08599666 -0.26000422 -0.092109285 0.0027738847 0.1924192 -0.015016089 0.115681544 -0.08313202 -0.13967684 0.21802406 -0.27253377 0.069566056 -0.24614096 0.031151999 -0.0641778 0.2997928 -0.25083247 0.0428897 -0.1385464 0.15297295 0.043484557 -0.233372 0.13393395 -0.09396522 -0.020169886 0.012950554 0.10752795 0.2337324 0.19178864 0.15058437 0.06130273 -0.43282834 0.055327386 0.12572876 -0.13993329 -0.279974 -0.03461172 0.03293787 -0.027587285 -0.14078946 -0.20338224 -0.37479624 0.063908644 0.05554608 0.080841534 0.26380324 -0.20558362 -0.07009832 -0.035154454 -0.14768371 -0.034051493 0.19894192 -0.3317993 -0.05754064 0.08206459 -0.035881255 0.08573889 0.18021443 0.21922705 0.19775036 0.0076166415 -0.09005454 -0.033791896 -0.089899175 -0.07285172 0.08675068 -0.42376783 0.32948196 0.22723287 -0.22408888 -0.19191568 -0.0055480045 0.18614505 0.016029308 -0.070527144 0.15514302 0.21488121 0.06869617 0.06600971
1155 0.12915273 -0.0018923905 0.10144843 0.41551775 -0.23279564 -0.028040221 0.06591901 -0.023057982 -0.014316387 0.07954308 -0.12341095 0.17421044 0.010225308 -0.2204292 -0.18959726 0.072213925 0.3184573 0.16082868 0.11105782 0.1167081 -0.33322197 0.29500076 0.09825999 -0.08164804 0.31755975 0.21557277 -0.13456222 0.008437169 0.082346 0.09117557 -0.0626109 0.052753337 -0.05907107 0.09283111 0.066148095 -0.4321251 0.18023121 0.22386408 0.014767973 0.117538705 -0.16882993 0.16612673 0.23279874 0.052370027 -0.11872927 -0.051332437 0.026805103 -0.15074827 0.29876915 -0.0648881 -0.3856966 0.060349908 -0.22155173 -0.04887244 0.19174229 0.18506338 -0.0058665965 -0.09594761 -0.26983124 0.08927861 0.0149720535 -0.24159853 0.017788455 0.2367917 0.23881745 0.07245447 0.1167746 -0.07152516 0.14749254 -0.18686394 0.06269506 -0.20256682 -0.22146027 -0.15833212 0.26061228 -0.016368467 -0.08395807 -0.09737944 0.012372583 0.010621709 -0.005631872 0.14746043 0.23040263 -0.2962732 -0.004233539 0.13231505 -0.10985244 -0.09004444 -0.040031653 -0.17652728 -0.06634465 0.09095498 -0.063185714 -0.024896806 0.07897098 -0.052258514 -0.06820866 0.11050433 0.11150746 -0.25321072 -0.035071276 0.111295536 0.06635837 0.01836313 -0.2259431 -0.05248252 0.14957683 0.1869683 0.17077574 0.07085461 0.19946472 -0.049176086 -0.49317378 0.2609813 -0.030451188 -0.2223292 0.125358 0.15973413 -0.007260874 0.06492567 0.32412595 0.1006529 -0.085003756 0.088308565 -0.08956576 0.04374664 -0.18619241 -0.027576244
220 0.020202162 0.045686718 -0.18000725 0.1715022 0.052786272 0.043707624 0.18319152 -0.073413126 0.0650523 0.13331053 0.09806831 0.16210596 -0.123254135 -0.24031156 0.08863236 0.0682568 -0.1418942 0.14551869 -0.10165346 0.20836753 -0.25036225 0.07156051 -0.3071976 -0.28704637 0.14442323 0.21736762 -0.13143495 -0.25466305 0.10351918 -0.24967225 0.18244278 -0.037665457 -0.016204225 0.20640951 -0.04174361 -0.0008870752 0.3096955 -0.06740883 -0.04659447 -0.13930483 0.07947259 -0.060104962 0.15478107 0.009562418 -0.13142699 -0.08443707 0.056513965 -0.100873366 0.10063139 -0.18938266 -0.25663054 -0.00072601635 -0.20413056 0.022656903 -0.363003 0.1359637 0.2731811 -0.0031635594 -0.015892157 0.23748632 0.21233566 0.04413834 0.03467339 0.30987805 0.26990306 -0.055401113 -0.0339896 -0.35895133 0.380325 -0.105464265 0.06711311 -0.17530714 0.25054052 -0.15029578 0.25890362 -0.24128471 0.037126295 -0.028877087 -0.023074402 0.0116111385 -0.053807553 0.13599038 0.2591233 0.011038293 0.041967284 0.11527398 -0.06953567 -0.10374918 0.052210387 0.019910913 -0.24834011 -0.12129993 0.14983764 0.2092631 0.049850885 0.00028633745 -0.14950547 -0.004194412 0.048828293 -0.30079225 -0.25734589 -0.14989428 0.29129672 0.14050929 0.043310635 0.04949314 -0.029701 0.30389 0.10498903 0.08446219 -0.040811364 0.1671595 -0.047676504 0.09904671 -0.15059665 -0.20581222 0.25383276 0.05916514 0.023248833 -0.06318536 0.026894387 0.23773411 -0.0076894322 0.31399748 0.05785241 0.08832396 -0.022328708 0.23981069
3123 0.14523616 -0.19059353 -0.17246355 -0.07933579 0.32856944 -0.10166549 0.09079871 0.33548474 0.028816732 0.12391828 -0.053747892 -0.25621775 -0.18985602 -0.48236448 -0.090962015 0.16366118 0.11310979 0.05997332 -0.2629129 0.11625564 0.102070354 0.059676163 -0.17347673 -0.076180294 0.029141124 0.33781782 -0.112485 0.20287082 0.046052463 0.30247253 -0.12004054 -0.02374319 0.14989571 0.11101892 -0.09610172 0.13397208 -0.12336494 -0.20074727 0.12885977 -0.06450843 -0.057533648 0.077251546 -0.07270183 -0.22597745 -0.318487 -0.06512231 0.030991422 -0.17961529 -0.035899322 0.13726243 0.026175493 0.10896872 -0.14334185 0.15959944 0.22283313 -0.25192985 -0.16479717 -0.12819563 -0.13965857 0.12623478 0.07340115 -0.008871368 -0.007060247 0.17538022 -0.035958778 -0.20364706 -0.07626624 -0.21623532 0.02789527 -0.003602681 0.018007731 -0.17309228 -0.05903698 0.03487603 0.21107504 0.29703724 -0.14618276 0.18749514 0.07011652 0.12175179 -0.16104789 0.31507397 0.15716177 0.20874602 -0.14321333 -0.05904828 -0.04566358 0.11371654 -0.16304487 0.13875973 0.19820438 0.14760984 0.16463275 0.36478317 0.1631618 -0.04275864 0.015593967 0.24540587 -0.074218966 0.1688666 -0.20706594 -0.19578138 -0.07472846 0.38921574 -0.31190297 0.021250019 -0.055830423 -0.07243006 0.08414862 -0.039689317 0.07988873 0.212398 -0.2603141 0.15296471 0.26176554 -0.06466859 -0.18236221 -0.06583822 -0.048286837 0.22542444 0.0970781 0.08026166 0.21494271 0.45961025 -0.14907013 -0.06736503 -0.15776655 -0.35654286
2121 -0.20691639 0.20690694 0.114767775 0.22921033 0.22545777 -0.0605872 0.15107675 0.03882058 -0.15584427 -0.06703063 0.24667186 -0.027916228 -0.2724245 -0.14410652 -0.13170291 0.112395175 0.27038968 -0.037805427 -0.09480347 0.3324424 -0.18839674 0.19462165 -0.21209903 0.047277763 -0.10991744 -0.21141869 -0.01532873 -0.03484969 0.26884776 0.22455496 0.11406598 0.14847264 -0.17056966 0.23674363 -0.1235767 -0.060477924 0.0033387993 -0.09477711 -0.010846894 -0.09844564 -0.20671163 0.26796433 0.08807099 -0.047776923 -0.15686437 -0.020839019 -0.032660775 -0.091770835 0.088989295 -0.11207443 -0.0364989 0.20691606 -0.0028415099 -0.040443465 0.038239315 0.1551834 -0.18380731 -0.103065476 0.28519118 0.36438495 -0.0035224503 -0.07160255 0.031919345 -0.11441034 0.25196898 0.05587478 -0.047290437 -0.12933797 -0.08573635 0.20621708 0.09258562 0.052124746 0.1892468 0.07066647 0.060317002 -0.1472501 0.050862428 -0.17823867 0.0085913 0.21060605 -0.059898254 0.36349982 -0.03819359 -0.055991426 0.081550494 0.05839209 0.018697364 -0.09551259 -0.10244902 0.033106953 0.12933941 -0.1242855 -0.08803127 -0.068776324 0.16322277 0.107041426 0.17706816 -0.011591445 0.09554137 0.014268196 -0.117699355 0.025408072 0.27663475 0.17258032 -0.026625097 0.112259395 0.1256439 0.016886558 0.308748 0.132464 0.17475325 0.027037045 -0.16289848 -0.15255935 0.14471655 -0.14791018 0.020302594 0.1448082 -0.008993132 0.11981457 -0.19994622 0.08951422 -0.3815181 0.00060492795 0.107283816 0.0024384973 -0.015611727 0.09155344
3087 -0.27087027 0.18488759 -0.13494065 -0.01376436 0.13527474 -0.26883313 0.12236443 0.20001073 0.31284544 0.14349231 -0.31120515 0.14552975 0.09763839 -0.2801162 0.23481189 -0.20955788 -0.25913477 -0.022493485 0.14964135 0.32068416 0.11374666 0.5057458 -0.19795816 0.11656045 0.39434892 -0.08087239 0.17783259 -0.1637641 0.09355522 -0.22146687 -0.05701199 0.031820122 0.099981286 -0.1447278 -0.12680295 0.07296001 -0.07938067 0.11934962 -0.0008067047 -0.02568875 0.081603736 0.12936108 0.21523958 0.050156593 0.109528616 -0.14411777 0.16430847 0.30950904 0.050934944 0.094670266 0.105972305 0.2225662 -0.23967853 0.21418393 -0.111905254 0.1890595 0.0520417 0.014816014 -0.0874714 0.34364253 0.085492186 -0.17415985 -0.045247376 0.32682082 0.061571393 -0.23004377 0.047944363 -0.12469586 0.31577992 0.024799675 0.21987496 0.17299339 -0.054557726 -0.02854061 0.08416281 -0.20439093 0.021452185 -0.13173038 0.17765981 0.033355456 -0.33244807 -0.07189081 -0.26584473 0.073301114 0.060129028 0.22859716 0.29506043 -0.08950869 0.11218195 0.03453596 -0.007698713 -0.027592428 0.044521354 -0.05101446 0.0805206 0.06145289 0.11700898 0.09905064 0.2136636 -0.15764138 -0.17589267 -0.12187893 -0.1613282 -0.0067920364 -0.07725121 -0.26079854 -0.21599679 0.034858063 0.34033555 0.19383737 -0.047597263 0.19337887 -0.12493514 0.2804124 0.17029364 -0.07413199 -0.02720106 0.25252497 0.16868973 0.03138475 0.09676638 -0.123565935 -0.0698018 0.05899008 0.1765232 0.38646096 -0.1396673 -0.032143906
593 0.15195325 0.00428246 0.17467299 0.17598651 -0.07154239 -0.16261132 0.19602427 -0.06305477 -0.030331975 0.17795174 -0.016397966 -0.037338454 -0.112269364 -0.19162284 0.06297064 -0.011500256 0.15774621 0.20537342 0.13431846 0.21723358 0.026089523 0.1360943 -0.11373074 -0.15203048 -0.077366166 0.07702234 -0.10618979 -0.1414015 -0.0444817 -0.024772875 -0.044308133 -0.036118723 -0.23894607 -0.102600776 0.07763815 -0.2448804 0.12431493 -0.121663705 -0.12082968 -0.0492442 0.14374807 0.22677316 0.11415891 0.018477915 -0.04756538 0.0484901 0.05139307 -0.1051094 -0.2628558 -0.0044451333 -0.08058486 0.057570416 -0.06996294 0.31927356 0.056088716 0.032700688 0.09671981 0.01904447 0.13404678 -0.0012433497 0.09026538 -0.03478115 -0.094111234 0.059690744 0.0048141093 0.03208788 0.03546275 -0.08990959 0.1432819 0.21695049 0.012367163 -0.14656454 -0.020108202 0.21838321 0.15664409 -0.11800269 -0.1763506 0.15233359 0.06390198 0.044815116 -0.21234354 -0.1389419 0.029554259 -0.027060963 0.1914252 0.18994613 -0.09889713 -0.15809128 -0.1889474 0.071943395 -0.14981638 -0.17738007 0.12251958 -0.07372996 0.14522745 0.2313875 0.18129522 -0.04046605 -0.22045551 -0.1003754 0.13031088 0.21491803 -0.10681569 -0.05519739 0.16930774 0.13201006 0.26627105 -0.12732856 0.14231597 0.12301548 0.17363936 0.080952674 -0.19331597 -0.08270162 0.12773311 -0.095418945 -0.22416091 0.14977641 0.21426369 0.00919781 0.07373161 0.12103285 -0.19308783 0.045028947 0.027922407 0.028300384 0.19036882 0.22871281
4409 -0.2790608 0.052891217 0.03084376 0.17821002 0.02427759 -0.08391628 0.47824934 0.116992906 -0.07193114 0.18130904 0.10533382 -0.2339424 0.08588704 -0.31680915 -0.017985072 0.10148975 -0.057950098 0.23147774 -0.055141356 0.21684557 -0.022795549 0.33390653 -0.23990636 -0.18296981 -0.06863346 -0.10975163 -0.048367158 -0.2343161 0.11100695 0.04310575 -0.20036069 0.0039154044 0.011609219 -0.16906242 0.029943943 -0.4453325 -0.06876233 -0.089311495 -0.0033731163 -0.03921478 0.09450685 0.29705167 0.10719145 0.049349815 -0.16111252 0.016298192 -0.029808259 0.0857174 0.15281409 -0.05042058 0.0036560672 -0.08272388 -0.19698521 0.050122697 0.050950013 -0.20560864 0.33375978 0.12702434 0.16979738 0.048522808 -0.19052413 -0.20240119 -0.07370295 0.13291146 0.31504393 -0.15307803 0.00714872 0.18049912 0.01077875 0.23670387 -0.013737168 -0.035031866 0.17105293 -0.052861225 0.17238414 -0.28011847 -0.10099098 0.023202807 -0.094906256 0.24522813 0.19765069 0.0025429383 -0.17156413 -0.13309653 0.3316555 0.22130601 0.02664089 -0.2600552 -0.16518234 0.09608031 -0.14356758 0.17822857 0.2152524 0.29731458 0.5104501 -0.0407791 -0.027763648 0.13413145 0.2030774 -0.15011714 -0.03477987 -0.0730405 -0.031812876 0.13279693 -0.28145546 -0.16191188 -0.06440215 -0.0236283 0.09766462 0.4057644 -0.029456962 0.052625943 0.3584907 0.17681299 0.14710993 0.1418357 -0.19269179 0.02498112 -0.0887989 0.013862081 0.072746485 -0.034629647 -0.092482924 -0.12320459 0.054900255 -0.006451287 0.0178432 -0.020988751
6136 -0.10246113 0.094891556 -0.050620284 0.15777318 -0.11489524 -0.25921074 0.12029442 -0.031823188 0.13750178 0.026750822 -0.07541412 -0.2429538 -0.341452 -0.25945666 0.22471811 -0.0196417 -0.08668339 0.3491525 -0.006554405 0.2836233 -0.17758226 0.101444155 -0.11624068 -0.18038985 0.036617603 -0.017473001 -0.40078127 0.067078106 -0.011111281 -0.071258776 0.0017412886 0.031944513 -0.09728899 0.1420116 0.08631022 -0.14180526 0.20450285 -0.07679713 0.063306265 -0.21401618 0.0041678813 0.17497005 -0.11571844 -0.016094882 -0.049002584 0.030358942 0.1758406 0.0934425 -0.07477229 -0.10206104 -0.35736793 0.1861345 0.09580758 -0.06597003 -0.056322247 0.037858974 -0.073606886 -0.13916133 0.11786122 -0.021239305 0.044959854 -0.38481036 -0.073414005 0.16069755 0.19802402 -0.2992891 -0.11318867 -0.15722871 0.27016908 0.16470347 -0.089003034 0.03949175 -0.027577123 -0.0021728564 0.13682833 -0.33481014 0.074932426 -0.051647287 0.2571604 -0.006567008 -0.20956829 -0.009746393 0.12275527 -0.034617938 0.14508331 0.0701541 0.10016877 0.12153218 -0.24983202 -0.11485844 -0.21490991 -0.11958878 -0.060621202 0.22722515 0.22467062 -0.2865661 -0.058499023 0.09586927 -0.21114849 0.15424693 0.27106804 0.01283931 -0.06851444 0.16204427 0.071837254 0.041932356 0.12901555 0.41950133 0.23414867 0.04621081 0.07429618 0.015085584 -0.20333846 -0.018728308 -0.03094038 0.026443692 0.1834248 -0.23638517 -0.07870274 -0.20523632 0.22290462 0.073318645 0.06278445 0.054236043 -0.010000424 0.10303557 -0.1304544 0.13214101
3168 -0.29049718 0.3208052 0.18161346 0.23457661 0.0009654729 -0.2749089 -0.09644056 -0.19960004 -0.026737334 0.12902254 -0.06890759 0.05546023 -0.16269511 -0.08892116 0.19304425 0.0508645 -0.0013558837 -0.15970246 -0.19688587 0.21296528 -0.16831079 0.16116197 -0.13138051 0.15624554 0.13766837 0.012682614 -0.13632269 -0.09248282 0.19621326 0.12199399 -0.13549052 -0.29959235 -0.11840867 -0.032485817 0.034165017 0.024281891 -0.11545149 -0.06580971 0.07810701 -0.027270429 -0.19791494 -0.18565854 0.18418935 0.20437118 -0.14411537 -0.052911863 0.1870041 -0.026205292 0.116528116 0.15020582 0.21376133 0.16130872 -0.21555683 0.014686562 0.45702246 0.18224873 -0.2567964 -0.14778325 -0.033981144 -0.02919011 -0.07898474 0.08777866 0.30642772 0.06567437 0.025450686 -0.061067004 -0.18402769 -0.33909896 0.34844285 0.18494263 -0.09024892 -0.30422896 0.101992354 0.13879491 0.22949938 -0.13990715 0.063333586 -0.062003512 0.068402 -0.07689443 -0.08958333 0.10466981 0.050613206 0.032695856 -0.05316982 -0.0611251 0.027056094 -0.26375327 0.16985871 0.06930402 0.083283186 -0.04520302 0.12085904 -0.027954355 0.05981065 -0.21053734 0.036751434 0.36723104 0.13935524 -0.1184387 -0.07560851 0.0016356789 0.21837384 0.19646646 0.088702075 -0.12532476 -0.07388336 -0.07143834 0.19838718 0.05902916 0.18295485 -0.12081855 -0.050001927 -0.032517254 0.16307673 -0.17712253 0.090047956 -0.17692725 0.008686947 -0.3279722 -0.13510382 0.13713883 0.097040035 0.04896762 0.131229 -0.03644899 0.16373241 -0.13705392
1628 -0.014296897 0.027228521 0.031199861 0.1517986 -0.062139075 0.120156325 0.029385865 -0.066431604 0.094861776 0.11338225 0.006613612 -0.08046874 -0.24736384 0.034405902 0.25391898 -0.1892094 0.06109878 0.15765451 -0.12596937 0.10376263 0.07906106 0.23239222 -0.014262253 0.10986324 0.055521294 0.13599977 -0.10397532 0.20755449 0.0027829767 0.117062 -0.19381382 0.030658973 -0.12996686 0.05068756 -0.06081582 0.058019415 0.10320304 0.02630819 -0.064440526 -0.012937705 -0.055470396 0.20806342 -0.015661469 0.21196532 -0.2129107 -0.027943995 0.12572326 -0.12886712 0.036912695 0.102644056 -0.097398974 0.22225964 -0.043165587 -0.097824916 -0.073581874 -0.046870194 -0.016855584 -0.22905532 -0.04473691 0.18965185 -0.0030900391 -0.1461691 0.17369066 0.061236303 -0.025806086 -0.022085564 -0.09864443 -0.29153305 0.35512814 -0.03246932 -0.1323385 0.13204964 0.18637353 0.19024046 0.16968784 0.02963707 -0.037096515 0.064100884 0.04879044 0.045686737 -0.010863633 0.056544404 -0.07654604 0.094000585 -0.015114492 -0.06225341 -0.017158614 -0.05259679 0.07120612 -0.12173743 -0.102214165 0.095746025 -0.0639056 0.19810787 -0.06609943 -0.044324186 0.027177282 0.32159036 -0.118905105 -0.14173985 -0.011264751 -0.060211226 -0.11169047 0.013132775 0.09770176 -0.04785088 0.02186546 -0.10366179 0.19718437 0.23688473 0.07140251 -0.114270605 -0.104565986 0.1501347 -0.07940532 -0.21558796 -0.11320955 -0.13112365 -0.1508422 -0.12124478 -0.14975075 -0.010973883 -0.13962452 0.11609734 0.3589915 -0.25523674 0.18970338 -0.08010436
1326 0.0054285345 -0.03483823 -0.21335523 0.32198775 -0.21135604 0.08750597 0.039701752 -0.042082883 0.17354083 -0.023503754 0.1310586 -0.008131254 -0.3582293 -0.18352072 0.04468247 -0.19187506 -0.332516 -0.12822473 -0.15434024 0.2455202 -0.071236834 0.3797077 -0.020056237 0.23347032 -0.07062705 -0.12795162 -0.27841806 0.11824825 0.22261828 0.120367646 -0.05821483 -0.3322294 -0.17208028 0.081509344 -0.15245123 0.028918115 -0.20681705 0.09307846 -0.18365435 -0.30525213 -0.029802164 -0.13633266 0.26499587 0.061309714 -0.22637138 -0.13848794 0.26368678 -0.015030422 0.11216257 0.06040572 0.03800039 0.096215546 0.051237322 -0.06408385 -0.093478784 -0.1346288 -0.04815753 -0.00062146323 -0.046907064 -0.13977382 0.0440408 -0.10868854 0.049110215 0.2263715 0.10848455 0.18896753 -0.013799151 -0.035324343 0.3246319 0.36052832 -0.07341025 -0.11195835 -0.20434996 0.12793614 0.055075854 -0.047637776 0.049452018 0.01985282 0.047926616 0.03530461 -0.10488541 -0.0054454147 -0.06233463 -0.11354515 0.23319896 0.26948887 -0.16377419 0.025958704 0.110506676 0.12767887 0.24152091 -0.15681353 -0.14362535 0.08911663 0.15352927 -0.07627778 -0.08056893 0.09684612 -0.010267419 -0.12632681 0.42081282 0.1304266 0.08458245 0.08664762 -0.05217744 -0.13117781 -0.2086777 0.26066226 0.05619142 0.088683076 -0.19636114 0.09433747 -0.12371776 0.26629373 0.2214773 -0.29945984 -0.21088819 0.09729061 -0.06751863 -0.30571738 -0.16168223 0.10913414 0.026100056 -0.07036976 0.04327885 -0.5593395 0.08489283 -0.0984603
335 0.13167411 -0.015207648 -0.10312895 0.26753134 -0.19790728 0.1834456 0.122689486 0.16195929 0.1278305 0.0779625 0.0116351135 0.020329738 -0.023457691 -0.123875625 0.06471825 0.1758369 0.07647293 0.1458 -0.010056533 0.08343362 -0.13920385 0.16403984 0.052494954 -0.27545086 -0.09823899 0.18685843 -0.104173236 0.13906676 0.16839714 0.002257707 -0.04911169 0.057919122 -0.20914914 0.01472046 0.13862973 -0.21134464 0.1035601 -0.02887253 -0.05195847 0.08226939 -0.04977894 0.052261595 0.12426859 -0.0052555134 -0.086006105 -0.038513415 -0.12018741 -0.18277329 0.15873605 -0.3345148 -0.21732557 0.05292903 -0.38700625 0.23693547 0.08674524 -0.0026168393 -0.041979063 0.070214145 -0.40636218 0.08941525 0.21967262 0.10366221 0.14318284 0.02875419 0.30456397 0.2284421 -0.26277733 -0.10589494 0.17127341 -0.15918902 0.03833363 -0.15031591 -0.21351683 0.20228152 0.0005499745 -0.024702393 -0.11590627 -0.08092886 -0.12584864 0.26248732 -0.28442746 0.32644826 0.33184612 -0.018474516 0.062026244 0.23000184 -0.22528568 -0.2980953 -0.04341836 -0.11437192 0.06871657 -0.04469571 -0.07932285 0.116585545 -0.11826881 -0.027014334 -0.032970086 0.040652927 0.3480451 -0.31954214 -0.04824508 0.22100863 -0.0040918365 0.08399993 -0.32410836 0.14357291 0.12874494 0.0181283 0.29366547 0.13639596 -0.10610872 0.13168281 -0.22953369 -0.038025733 -0.14586268 0.03948311 0.039842486 0.115516946 -0.17389712 -0.2530207 0.1643078 0.26190376 -0.028808711 0.013631156 -0.028378328 -0.035397176 -0.1813901 0.069935195
3307 -0.16323198 -0.27058527 0.09659504 -0.09760491 0.18085235 -0.02920562 0.15144609 0.08010604 0.3985903 -0.07604759 -0.3894416 -0.077388264 0.07559392 0.006730246 -0.042164132 0.19000861 0.028276775 0.3683415 0.27747467 0.09864162 -0.13428514 0.47064286 -0.22072068 -0.46116534 0.08845746 -0.111821875 -0.22161688 -0.060660537 0.21698661 0.05332757 -0.07983522 -0.11800381 -0.32197207 -0.14492022 -0.16271996 0.26994777 0.0092612 0.07674747 -0.14292659 -0.0771406 0.17931958 -0.030976558 0.04897826 -0.06816023 -0.3409404 -0.41512844 -0.1529316 -0.09859212 -0.38826272 -0.03734094 -0.039396867 0.13761683 0.00040250144 0.16384442 0.21438202 -0.012961085 0.062704526 -0.00839872 -0.16597208 0.31942123 0.13150051 0.11330222 0.18643734 -0.0045886845 -0.3738291 0.00021576809 -0.0675636 0.00014023489 0.06233635 -0.12538104 -0.04958929 -0.30778643 0.35622862 -0.035763327 0.008421894 -0.19954507 0.030061606 0.0818268 -0.02664779 0.17005539 -0.10867027 0.103718854 0.14544016 -0.1069908 -0.18725501 0.17707093 -0.072579965 0.085089244 0.13740546 0.005405749 -0.43167597 0.28990898 -0.17144026 0.03424126 -0.11191343 -0.09879004 -0.16623743 0.10033546 -0.208852 0.0040145554 -0.17231885 0.29601854 -0.0930267 -0.2949187 -0.23748253 -0.07115784 -0.22030786 0.031414267 0.22724581 -0.14087844 0.09436087 0.037272453 -0.116072655 0.2280979 0.21383384 -0.080753155 -0.033410694 -0.026989581 0.27935314 0.105895326 0.12727387 0.40219215 0.031104023 -0.018059345 0.2985772 0.124806546 0.04961433 -0.111922145
1550 -0.13232507 0.09885876 -0.0042354558 -0.079975754 0.09572019 -0.13369334 0.2876838 0.040478643 0.05189317 0.27134827 0.16463535 0.005860044 -0.10195831 -0.22673514 0.096183665 0.1215373 0.09379819 0.006591005 -0.31004098 0.34262338 0.101904966 0.16512148 -0.0886728 0.103312366 0.14020368 -0.12311148 0.079891674 -0.39146236 0.22229663 0.12732749 -0.23796916 -0.12955104 0.07424121 -0.30114993 -0.080927595 -0.2734587 0.08134904 -0.07088231 0.13609114 -0.14751817 -0.2410952 0.34768257 0.18694817 0.059782915 -0.19084531 -0.11731748 0.10542823 0.32710359 0.11338167 0.031213658 0.052407835 -0.0017347531 -0.33140516 0.0880606 -0.15388976 0.003693744 0.11356375 0.25444204 -0.092875294 0.341017 -0.09554833 -0.08382412 0.32582983 0.15667413 0.28398535 0.013133284 -0.25040412 -0.13223426 0.33411527 0.16038089 -0.0180764 0.23027799 -0.031354718 0.027718225 0.15674895 -0.2973722 0.011730402 -0.14372964 0.18824938 0.07656632 -0.13410729 0.06056211 -0.24068181 -0.10745003 0.0734239 0.032346036 -0.37585625 0.14661595 -0.017589971 -0.04420215 -0.29964846 -0.027349802 0.41459137 0.056927405 0.08968938 -0.12025449 -0.023819832 -0.018256325 0.07119902 0.18420945 -0.09855502 0.14581369 -0.13163239 0.10902204 0.040305495 -0.14512607 0.06963488 -0.026768692 0.117865644 0.26498806 -0.29303083 0.3554297 0.081833184 0.038365804 -0.20433727 0.19071242 0.13699907 0.27561843 0.2746046 0.04797484 -0.11477646 -0.059982214 -0.14013249 -0.04984625 0.19978802 0.045313485 -0.07328465 -0.03140302
5703 0.024426034 0.004442875 -0.027910596 0.24038173 -0.3047223 -0.0031084039 0.0794144 0.09524383 0.2716398 -0.0873822 0.121594645 0.051687703 -0.022712687 -0.07360065 0.22574799 0.022447465 0.06505955 -0.13645351 0.11066812 0.07579963 -0.20996617 0.22108614 -0.05355589 -0.3648087 0.10302301 0.13269544 0.1234717 -0.10315708 -0.037171226 0.077317104 0.13475305 -0.106030904 -0.094601415 0.11043688 0.08887026 -0.17066659 0.0047220616 -0.024139142 -0.058950137 0.18070352 -0.13620137 0.15117021 0.047423597 -0.0737935 0.13932142 -0.08901297 -0.078668274 -0.028498653 0.33285227 -0.45814463 -0.07816655 0.21541727 -0.43591553 0.08792955 0.22881831 -0.046863843 -0.010838057 0.092000596 0.021688895 0.036873624 0.40994412 0.08283975 0.06301166 0.052852582 0.30158716 0.07495821 -0.15869446 -0.2643553 0.23872304 -0.25740975 0.13912322 -0.107576564 -0.27716458 -0.045706064 0.37165728 -0.017687397 -0.13647312 -0.03146518 0.16802187 0.16767171 -0.27830857 0.130307 0.28747764 -0.15052536 0.1651495 0.120140195 -0.015887132 -0.29877707 -0.12590504 -0.03816707 -0.1030007 -0.019946313 -0.026268387 0.11668424 -0.04685399 0.092504725 -0.13465098 0.16627505 0.17895515 -0.11626129 -0.3146912 0.106656216 0.12544976 0.07903575 0.011841618 0.23302369 0.038861632 0.24650201 0.1836953 0.06046798 -0.029968556 0.19967319 -0.29334193 -0.06946454 -0.14101563 0.028951807 0.013421293 -0.021323273 -0.06436584 -0.1733037 0.16157983 0.33172423 0.03308657 0.17166407 -0.06486072 0.18565598 -0.13695137 0.08282914
3348 0.07957196 -0.03140468 0.033642143 0.26269796 -0.08045478 0.048721474 0.019288301 0.11642273 0.38379347 -0.09914493 -0.0968848 0.08976667 -0.18451515 -0.28757274 0.07375673 0.03763867 0.25402412 0.026336538 0.13172482 0.25824115 0.07518774 0.14796041 -0.104949914 -0.10468871 -0.12383981 -0.019777237 0.03262151 -0.20892917 0.03646359 0.08674284 0.017570417 0.27078113 -0.120565355 0.13564467 0.17100835 -0.16637893 0.112523705 -0.09556184 -0.12388389 -0.03390072 0.041609876 0.30041552 0.20550305 0.20276837 -0.18045317 -0.10772259 0.00068222906 -0.026079662 0.21397279 -0.06551105 -0.20036702 -0.18253268 -0.12465492 0.077743635 0.11241921 0.025290668 0.042060282 0.09107621 -0.10553135 0.11005577 0.28118896 -0.15860365 0.037823237 0.10121671 0.07392006 0.014766022 0.02156503 -0.20093864 0.12775075 -0.10146721 0.024346132 -0.07966616 0.16749632 -0.04487678 0.02131001 0.026743013 -0.045847766 -0.082837924 -0.17899658 -0.007251386 -0.19679774 -0.07245825 0.03529615 -0.050484315 0.15781532 0.118777275 -0.20058891 -0.020539178 -0.0827616 0.020687118 0.13890049 -0.1298231 -0.01571901 0.063279316 -0.115311086 -0.032933544 -0.1738038 0.115458496 0.14438254 -0.106834576 -0.13788024 0.07348011 0.23652747 0.14478381 0.01395125 0.057469554 0.21892971 -0.0568589 0.26188684 0.104791075 -0.16321518 0.18405953 -0.12865496 0.09970441 -0.04824173 -0.03727039 0.048510954 -0.018494228 -0.05514126 -0.2402383 0.14756757 0.0059582703 0.12944455 0.15939775 -0.11252301 0.2463925 -0.03575356 0.2829849
3886 -0.013155994 -0.026330719 -0.35384288 0.07617685 0.32758212 0.041486695 -0.0011068423 0.2982935 0.07603916 -0.0058934917 0.09955241 -0.48666742 -0.2750678 -0.20443189 0.059372567 -0.14275725 0.14630955 0.09103044 0.01445686 -0.1545444 0.0984446 0.02468703 -0.14812969 0.0724545 0.33128938 -0.08095674 -0.025314078 0.1770495 -0.13729207 0.041152287 -0.14849722 -0.28766075 0.23212688 0.020998107 -0.12364713 -0.027713712 0.012227991 -0.1741558 -0.20957226 -0.22518454 0.025481772 -0.08223715 -0.062982745 0.09590161 0.011607372 -0.28678602 -0.24052328 0.01661561 0.14697267 0.4060255 -0.12238078 0.2835769 0.003933503 -0.010205186 -0.13263832 -0.33843997 -0.06890424 0.0045321025 0.03787565 0.11298514 0.002492041 -0.1563058 0.1977592 0.11944022 0.084471345 -0.05487647 -0.11195716 -0.2617902 0.01528391 -0.0052695847 -0.17580213 -0.037344314 0.19293858 0.1348596 0.008977396 0.083115265 -0.3267799 0.20192371 0.16944303 -0.07482373 -0.11780213 0.18135883 -0.10742167 -0.023345688 -0.23784141 -0.1468245 -0.13988167 0.24310291 -0.090551175 -0.054155435 -0.012958673 -0.18298866 -0.1746456 0.1466624 0.13510166 0.13456176 0.11115967 0.19913328 -0.036223564 0.06046499 -0.17698115 0.21148673 0.097128436 0.21292888 -0.105510056 0.06371466 0.30509627 -0.042102076 0.029481864 0.015220779 0.16630805 -0.22760673 -0.16383679 0.19022918 0.2146988 0.063783154 -0.24944456 0.080012806 0.29879087 -0.33089507 -0.040065996 0.28794283 0.11730539 0.26382837 -0.018819705 0.05617237 0.086503334 0.029061431
4985 0.18566748 -0.11377782 0.11012735 0.2900666 -0.110303394 -0.037946362 0.25284907 0.14166735 0.25408524 0.007394519 0.12645717 0.07547832 -0.089945704 -0.1501189 0.12277072 0.10911235 0.08926088 0.15468986 0.08245473 0.2407226 0.04556136 0.055718195 -0.16445911 -0.070093684 -0.024567598 0.10599072 0.037914846 0.040488012 0.06895119 0.08004251 0.11254808 -0.03682954 -0.05622761 0.045093413 -0.018202404 -0.036702678 0.026572008 0.07789663 -0.15905775 -0.14266244 -0.059591457 0.1557769 0.10059506 -0.13875706 0.0038821052 -0.08271565 -0.041922387 0.05574445 -0.13848864 -0.22959952 -0.07323962 0.115585946 -0.39039734 0.2361105 0.06805734 0.17135572 -0.12652813 0.0030441638 -0.044474334 0.01621791 0.07975245 -0.07912047 0.09293658 0.009160211 0.05934408 -0.0045187552 -0.026842229 0.045718454 0.07026968 0.1489866 0.03463399 -0.27905276 0.036059715 0.05043541 0.11066058 -0.1153009 -0.13395779 0.1049059 -0.03043679 -0.15001802 -0.22802888 -0.056953702 0.10389553 -0.12244427 -0.057150774 0.23384726 -0.21041915 0.04194933 -0.05889029 -0.058366746 0.02793074 -0.056415487 -0.23954025 0.18956651 0.04040228 0.045106802 0.12110531 -0.07588495 0.14282559 -0.13663301 -0.05529993 0.049611773 0.03911317 -0.046334986 -0.15699877 0.21449868 -0.03637426 0.018352333 -0.04152199 -0.061477102 0.30289373 0.068381384 -0.13715495 -0.1329905 -0.23729073 -0.04868949 -0.13021305 -0.18065582 -0.039013244 -0.26562756 0.06106266 -0.11143 -0.057231035 0.15768756 -0.085750714 0.0053664236 -0.10825966 -0.11769032
3073 0.12056782 0.06931988 0.010449312 -0.14482965 -0.13979016 -0.17042251 0.020774696 0.04437571 -0.07551987 -0.09650941 0.039858647 0.07522684 -0.40047893 0.0014459589 0.32327604 0.12815323 0.20810212 0.08708047 -0.032997254 0.20383453 -0.07054781 0.23736101 -0.05622631 -0.062024508 -0.013805319 -0.28088588 0.09082644 -0.24568415 -0.08785518 -0.3679791 -0.09408044 0.055885505 -0.28911608 0.019076508 -0.32314697 0.18889453 -0.09823562 0.03092446 0.20921035 -0.054275166 -0.014897041 0.021502383 0.23939475 0.10106348 -0.15919621 0.1669039 0.1257329 -0.20173116 0.25371438 0.08810728 0.11815953 0.12154228 -0.18153359 0.3305669 -0.25389862 -0.042461924 0.054554675 0.10091666 -0.03631896 -0.35751668 -0.27391687 -0.020347355 -0.023812164 0.15113011 0.11199622 -0.24161169 0.011159453 -0.15818682 0.08497391 -0.14455727 -0.16251393 0.27072218 0.13630044 0.14329477 0.22449274 -0.0003986543 -0.09079705 -0.04709671 -0.0028843386 -0.07905906 -0.089654274 0.076676935 -0.024331184 -0.03527004 -0.09986661 0.064438924 -0.034168277 -0.071894854 0.20499861 -0.3202108 -0.07625262 -0.1747152 -0.2528075 0.173776 -0.059007395 0.1815572 -0.0515952 0.08868524 -0.19798708 0.16105093 0.032503244 0.23385718 -0.02283086 0.21985349 -0.39987826 0.07851157 -0.0904862 -0.013791093 0.24156472 0.29403245 0.13027914 0.056896914 -0.07118972 0.15982896 0.21847774 0.021564638 -0.04304264 -0.25201747 -0.030884514 -0.16725218 -0.087974034 0.2828179 -0.0034654432 0.1813508 0.2070304 0.011320765 -0.0909966 0.19583964
4058 -0.34106582 -0.34912002 0.055097573 0.2930574 0.05574075 -0.008471536 -0.1472471 0.15886171 0.20493044 -0.08264099 -0.06818929 -0.09597035 -0.19405912 -0.0091672605 0.20105132 0.023898728 0.08008918 0.082615316 0.32844502 0.13609989 -0.02382175 0.12859513 -0.12038384 0.022909475 0.058159746 -0.23042187 -0.061818857 -0.0337059 0.2717136 -0.25391716 0.10869508 -0.270613 -0.12602854 -0.080086865 -0.09684735 -0.07577035 0.27011773 -0.035399135 -0.07334186 0.046436626 0.21013223 0.113559976 0.19304468 -0.12280641 -0.31453678 -0.183563 -0.06825142 0.11571635 -0.22137783 -0.15149054 0.19059005 0.22083156 -0.18939334 0.09495955 0.20026411 0.030893482 -0.037239604 0.0931937 -0.10959794 0.4672786 0.33482572 -0.20405948 0.1712072 0.35052946 -0.06652671 -0.008261191 -0.019777343 -0.034087412 -0.11389199 0.08243757 0.2728822 -0.16446593 0.028650325 -0.16217436 0.11757855 -0.1608905 0.113920875 0.021587536 0.018938094 -0.021815322 -0.19587463 0.0627682 -0.071962476 0.17572664 -0.026369406 -0.11670818 -0.12167787 0.18944316 0.3844443 0.02296319 -0.19339731 0.529514 -0.21903808 0.047847938 0.063675664 -0.14430903 0.210251 0.21345831 -0.29667652 -0.041195437 -0.012869276 0.1408367 -0.2526397 0.0077023096 -0.08307127 -0.122811645 -0.2301705 -0.12131765 0.040881842 0.2268554 0.18171695 0.25235012 -0.17183298 0.049554165 0.24568416 -0.19630967 0.029183814 -0.0015524521 -0.07925289 0.011110376 0.16574632 0.2457246 0.012154013 -0.1735631 0.437194 0.013590005 0.003063486 0.009850073
2946 -0.12103503 0.10811217 0.09263477 0.31395954 0.049624063 0.027254166 0.270327 0.10324021 0.19102325 0.21157005 0.011312928 0.16822188 -0.30330664 -0.27436742 0.12004909 0.070773005 0.09358651 0.15011038 0.005940602 0.27116817 -0.006265583 0.32273862 0.011378055 -0.018553324 0.1192646 -0.06354293 -0.25790867 -0.06455066 0.102825016 0.15330945 -0.15520449 -0.2345809 0.05370603 0.16824564 -0.35790113 0.023270942 0.18200102 -0.030901002 0.023572037 -0.08907929 0.16996583 0.19884816 0.021050166 -0.06362896 -0.07545706 0.051770106 0.07337219 0.15771769 -0.18208379 0.12689199 -0.3181168 0.10334604 -0.06999694 0.18881845 -0.3857159 0.057189863 0.17916827 -0.15827653 0.14054771 -0.047343124 0.14730911 -0.13908616 0.07776225 0.09820523 -0.022978779 0.018761454 -0.0024260702 -0.12065686 0.31612277 0.15621188 -0.053018693 -0.371389 0.15865168 0.097046465 0.024810657 -0.26840186 0.0068068304 -0.08102295 -0.17877983 -0.4151351 -0.04849084 -0.042462356 0.07007206 -0.11305423 0.18558352 0.18928547 0.1513734 -0.41661802 -0.09564633 -0.03626617 0.00037349737 0.03506277 0.13377063 0.35191318 0.23275697 -0.13730128 -0.23414095 0.05137483 0.037530463 0.045190733 0.06357532 -0.09109661 0.026728053 0.21727623 -0.27976942 0.36749032 -0.16341577 0.05955623 0.19582154 0.047978234 -0.085938916 0.11729698 -0.07062054 -0.0645284 -0.08533345 -0.041157153 0.13880706 0.06391669 -0.12965798 -0.27960858 0.11368838 -0.011535444 0.2375979 -0.09734033 0.35790107 0.24969223 0.16043451 -0.20879218
3634 0.0074267467 0.006145136 0.04361444 0.25843772 0.09419638 -0.19491658 -0.043386098 0.0028683748 0.23098376 0.05863974 -0.044790376 -0.029645586 -0.2411372 -0.15853076 0.30010927 0.0028739155 -0.014061702 -0.014400583 0.06848744 0.109501906 -0.05358362 -0.23853102 -0.08492171 -0.12120607 0.18254575 -0.031362228 -0.21868089 0.03581397 0.09034764 -0.13171268 -0.18936005 0.04505105 -0.22839783 0.15596157 0.049625188 0.095950186 0.015216852 0.08337028 -0.15866347 -0.018345509 -0.086335555 0.07937366 0.006872902 -0.031765107 0.049618162 0.23726897 -0.046154708 -0.08704752 0.1595907 0.006583299 -0.2083945 0.13919906 -0.1441097 0.14945233 -0.120033786 -0.058045626 -0.072897695 0.062406134 0.19111972 0.006280088 -0.054740515 0.052228965 0.06591666 0.05809913 0.34515935 -0.0803104 -0.05476132 -0.039097875 0.17332393 -0.008968001 0.18533914 -0.16149694 0.13203913 0.05904472 0.21441504 0.07421546 -0.09075082 0.010689164 -0.02002473 0.029089143 -0.22818567 0.07610657 0.106751055 0.13969682 -0.06874921 0.17109253 -0.047412414 -0.24638987 -0.044777773 -0.115242794 -0.056788955 0.07338114 -0.20202374 0.0036650412 0.022150993 0.20467252 0.016137507 0.15633564 -0.032292165 -0.043395106 0.028971324 0.018597366 0.015642973 0.10813428 -0.158368 0.21134564 0.035657242 0.24147005 0.28707442 0.011457984 -0.120531246 0.14101847 -0.03096545 -0.05120783 0.10030448 -0.12454219 0.023127334 -0.08890043 0.1112152 -0.19261062 0.25266173 0.023793835 0.056762222 0.014318023 -0.002651763 0.14299393 -0.022387674 -0.04825969
5473 -0.16043967 0.011478319 0.020721141 0.258105 0.09904898 0.05489511 -0.15491128 -0.3085343 0.12841457 0.3197707 0.0377828 0.20844987 -0.25219133 -0.1509514 0.09696088 -0.045608312 -0.01986094 0.022512361 -0.070621125 0.25612497 -0.06441769 0.07742885 -0.34444168 -0.10778539 0.15789549 0.22936347 0.012045702 -0.062380366 0.1253747 0.15885854 0.023123004 -0.12745032 -0.24124011 0.20448633 0.09480466 -0.13291374 -0.014266601 0.05560315 -0.0689489 -0.08831256 -0.038055945 0.10584327 -0.06697675 0.11887931 -0.23493312 0.12044584 0.107993655 0.049451858 0.18397912 -0.11328699 -0.16281423 -0.08388355 -0.20161085 -0.018345902 0.37924463 -0.026740229 -0.14740703 0.07937484 -0.08480852 -0.021700049 0.029118266 -0.096537046 0.09811812 0.13102464 -0.03472186 0.13340466 -0.25748616 -0.26104543 0.30060083 0.14050472 0.041411754 -0.12239285 0.14870791 0.058303915 0.170664 0.0733404 0.070726454 0.08964526 -0.066720255 0.051129524 -0.30940393 -0.14181304 0.17051347 0.035870112 0.14027926 0.18809223 0.07489265 -0.10191443 -0.0017898139 -0.22401562 0.019622313 -0.06355884 0.068942584 0.015294706 0.0012329917 0.14696509 0.07242455 0.23808283 0.25103956 -0.100877985 -0.08553809 0.08022053 0.105144754 0.018309887 -0.07863004 -0.27155393 0.16067229 0.084781 0.06589736 0.04902204 -0.050707527 0.20020205 0.054776076 0.020605529 0.0753378 -0.06757355 -0.04366682 -0.0042554843 -0.087825775 -0.16168752 -0.08549526 0.21528448 -0.09781225 0.055821266 -0.04742287 0.17994538 0.044500973 0.028413787
4812 -0.053962417 -0.14456774 0.0015988827 -0.00014596601 0.11446024 0.14173055 -0.053241365 0.2333688 0.26057035 -0.03884476 0.070905164 -0.035646453 -0.016864693 -0.07659389 0.06850885 -0.0149161 -0.017522413 0.097687185 -0.029670002 0.082585275 -0.12919156 0.16687758 0.09335673 -0.1617295 -0.029306427 -0.007852576 -0.20972073 -0.0017950054 0.14132982 -0.065596476 -0.00037770983 -0.041433588 -0.120876536 -0.15200044 0.039576877 -0.37842324 0.080762915 -0.17725524 -0.04865688 -0.062202826 0.07457027 0.26486245 0.03403301 0.10220746 -0.22540283 -0.12463548 -0.13761514 -0.20152853 0.014591049 0.05306819 -0.07080324 0.25977144 -0.08264607 0.12454875 -0.116495155 0.0038002161 0.090894036 -0.20838487 -0.08237282 -0.008553682 -0.07552477 -0.20268062 0.2853911 -0.029615555 0.22942978 -0.23563491 -0.16638215 -0.04348301 0.071125254 0.23234366 -0.027513232 -0.0651407 -0.026420781 0.13123013 0.19656065 -0.0045627113 -0.1053092 -0.07323279 0.068760954 -0.17212573 -0.11739067 -0.14630918 0.012449192 -0.12512967 -0.08793989 -0.09634385 0.105049156 -0.14448632 -0.0013597364 -0.40137956 -0.09176323 -0.16697688 -0.19050781 -0.030614533 0.039215058 0.07300834 -0.32811838 0.13112918 -0.13300924 -0.12540571 -0.004766648 0.14133018 0.01510551 0.342574 -0.096968524 -0.10781085 -0.076819316 0.28189117 -0.06363592 -0.033550985 0.059292242 0.17425884 0.2361463 0.1956342 0.09961727 -0.008907792 -0.027587732 0.029226176 0.04945785 -0.13143645 -0.049670935 -0.11079962 0.062360033 0.001120193 0.1322287 0.07784891 0.0673967 -0.04612196
5390 -0.048468053 0.16294362 0.11213306 0.04846469 0.013721199 -0.104998395 -0.03478794 0.046473607 0.14087993 -0.054977063 0.3371862 -0.16225897 -0.5618742 -0.5099324 0.08171384 -0.12553784 0.34083903 0.23083293 -0.18640938 0.36969247 -0.073730074 0.17093003 -0.18872395 6.2358376e-06 -0.25385258 0.04055517 -0.22889782 -0.14007463 -0.06880644 -0.03938873 -0.11075444 -0.10854984 -0.19311191 0.15077938 -0.22537984 -0.074885994 -0.02556942 0.13504401 -0.091588095 -0.021591753 0.025453916 0.030629722 -0.04271972 -0.16778903 -0.27728167 -0.16381267 -0.030171163 -0.094431095 0.0022307537 0.14018425 -0.04630222 0.19601019 -0.12540643 0.11014148 -0.02684544 0.08918393 0.25913075 -0.10790302 0.2509708 0.16130728 -0.23909439 -0.22257392 0.111695655 0.11614811 0.051930346 -0.19272345 -0.14351666 0.28201145 0.125816 0.04301465 -0.21925612 0.0681354 0.080375895 -0.10702851 0.1527812 -0.0859531 0.20743121 0.18102188 -0.019247293 0.17122546 -0.40098903 0.2105699 0.09489643 0.018216154 0.03590352 0.10626385 -0.029565953 -0.21039344 0.012132791 -0.22427224 -0.36458197 -0.0076240283 -0.089366324 -0.17436522 0.046173777 -0.15246737 -0.12833545 -0.04036885 -0.037070855 -0.19974042 0.17059493 0.12374679 -0.06244683 -0.099524766 -0.17559358 0.20189287 -0.09233996 0.2287267 0.040445223 -0.005317644 -0.071849175 -0.05963183 -0.16048129 0.2584936 -0.08276479 -0.123029366 0.43219942 -0.08353745 0.044136398 -0.26585966 0.07752399 -0.009798492 -0.026570166 -0.036095373 0.048994925 0.30918297 0.0046728007 0.04711991
