439 128
1494 -0.27597374 -0.060126133 0.023620527 0.07558046 0.088058226 -0.114018105 -0.2064077 0.0351349 -0.2206146 -0.067952275 0.12563093 -0.05802558 0.23347445 0.16700669 -0.25748244 0.30469865 -0.0026804325 0.14667688 -0.12121179 0.08761167 0.13985005 -0.02815533 0.02947861 -0.26538792 -0.057972122 -0.054341566 0.18270801 0.12108658 -0.27906182 -0.059061658 0.23204002 0.05544893 0.039537527 -0.27152902 0.19039738 -0.07892336 0.18791415 -0.081741974 -0.08679596 -0.27309462 0.045678314 -0.03881768 -0.3007577 -0.18634678 -0.10138345 -0.3827029 0.01917551 -0.26748234 0.056488317 -0.11016885 -0.021566179 0.14168026 -0.2245852 -0.19880046 0.3001256 -0.060415003 -0.23713437 0.015090964 0.14374004 -0.107976325 0.062491205 -0.05875046 0.070746675 -0.056029674 0.20103072 -0.12531902 -0.30287024 -0.27424702 -0.0630371 -0.1628563 -0.12087065 0.2013809 -0.058904 -0.03052191 0.19287542 0.21466477 -0.1372443 -0.09308761 -0.033981975 0.039597444 0.23018672 -0.0977182 -0.0960579 -0.10069653 0.027140725 0.20857982 -0.03672251 0.11100993 0.123216935 0.056293722 -0.21787381 -0.22076115 0.41854784 0.03565761 -0.008907973 0.07747078 -0.040687982 0.0014286035 0.18183589 -0.12958372 -0.24057196 0.13662829 0.2857094 -0.021261485 -0.15180753 -0.04106115 0.17722668 -0.15015239 -0.045786895 0.032253474 -0.048051596 0.090085186 0.0037347781 0.21916813 -0.055887442 -0.044882484 -0.017829306 -0.37714994 0.008787544 0.060414135 0.026954656 0.122076295 -0.03088802 -0.17423332 0.14168127 0.33252764 0.20343903 0.02794817
339 -0.14626577 -0.20091905 -0.20145503 -0.033425122 0.3493881 0.21983391 -0.102905646 -0.15155026 -0.20857288 0.0064459746 -0.063661225 -0.16215582 -0.07281181 -0.003658692 -0.21614486 0.026639448 -0.029800927 -0.09917156 -0.06994742 0.045440674 0.017583923 0.19004585 -0.08814607 -0.016911943 0.13701408 -0.11944593 -0.29904345 0.3820556 0.03309223 0.43098545 -0.1433764 0.11911602 0.049068764 -0.055861663 0.11922546 -0.05384784 0.1825738 0.06794987 0.014080794 -0.28288862 0.27505392 0.07239425 -0.025630515 -0.30587575 0.0017470473 0.27012506 0.040109064 0.023506066 -0.11686149 -0.005235019 0.1418892 0.16745977 -0.15877819 -0.22193266 -0.107746795 -0.12702265 -0.049629718 -0.11778187 -0.14214909 -0.19857939 -0.23959579 -0.2750284 0.09373348 0.07883855 -0.15051132 -0.35595697 -0.27026883 -0.0590214 0.20695898 -0.07838521 0.14491487 0.020344388 0.17878114 -0.13555337 -0.22822703 -0.047732916 -0.044674817 0.25088614 -0.3109377 -0.030866807 -0.09657295 0.019829705 0.0742336 -0.033773277 0.31470403 0.16548195 -0.074677065 -0.17055772 -0.33138895 -0.0756589 0.084939145 -0.22507246 0.19586481 0.034177896 -0.24623536 0.09410417 0.06671288 0.20050691 -0.17902389 -0.09048585 0.026315454 -0.15292804 0.16831775 0.0028442573 -0.3314972 -0.21813251 -0.21336083 -0.026262676 0.10133524 0.14006197 0.33613282 0.017413264 -0.18202977 0.18099362 -0.12000179 0.13188605 0.12733024 -0.12027515 0.29136083 -0.00459245 -0.06307512 -0.01849482 -0.079666086 0.15998097 0.06115969 0.19664076 0.11065603 0.19519278
4171 -0.5373084 0.2122163 -0.08859147 -0.08574885 -0.08449375 0.07552743 -0.35631576 -0.011078993 -0.07467197 0.01500424 0.31421748 -0.06584195 0.20947693 -0.029417718 0.24038935 0.21065369 0.41611823 0.14116487 -0.15000555 0.18661241 0.096183866 0.29494482 0.15613991 0.14212544 -0.20460606 -0.5270447 0.12214779 -0.13035296 0.12310693 -0.036363173 0.10451476 0.045938604 0.018264646 0.0100194095 0.1486771 -0.101443775 0.059183568 -0.120381996 0.11924218 -0.32316142 0.013022571 -0.2284425 0.22442493 -0.25954372 0.028706485 0.29159623 -0.2583495 0.29941294 -0.080378994 -0.25238907 -0.12886198 -0.011624826 0.12855785 -0.05580048 0.07480975 0.00014522427 -0.07831341 -0.093056545 -0.19340977 -0.29396033 0.065925844 0.13020617 -0.04085016 0.1769792 0.09443272 -0.10224738 0.07326765 0.1312241 0.124274775 -0.07029841 -0.041271582 0.2141101 -0.03687738 0.1877415 0.17573951 -0.14437386 0.3221399 0.19572961 0.15042552 0.27511674 -0.036646497 0.12326491 0.1585545 0.18456541 -0.12504815 0.056466576 0.03912415 -0.029310975 -0.018610645 -0.24157642 0.0106733125 -0.19261278 0.16485481 0.082179055 -0.19180052 0.10079257 0.0052491673 -0.051842455 -0.1789096 -0.16135558 0.01780495 0.40150878 -0.03933677 -0.11513479 0.2957768 -0.07778615 -0.012962677 0.16388087 -0.18977568 0.07007094 -0.014507373 0.19031851 -0.14978112 0.21549712 0.20764525 -0.22713204 0.0504407 0.15920584 0.06784952 -0.0545075 0.0018590527 -0.23029603 -0.21337698 0.33664078 -0.019294772 0.33141467 0.3190794 0.031349536
4854 -0.21413158 0.0746728 0.0049967193 0.20827204 -0.25127634 -0.24348068 -0.31803045 -0.09460247 -0.14669703 -0.026176594 0.12260018 -0.0399912 -0.24105771 -0.26719537 -0.07376144 0.3064066 0.023613418 -0.105340384 0.06956681 -0.11681705 -0.25751165 -0.014384494 0.02118003 0.11050262 0.12014882 0.037983242 -0.05863344 0.060293242 -0.1529745 0.05368735 0.11583092 0.11136124 0.17643648 -0.15370484 0.029850721 0.23217952 0.0072981697 -0.35526052 -0.06907698 -0.15893029 0.04080141 -0.23711623 0.07150358 -0.3870921 0.08960083 0.2657048 0.09273064 0.07315159 -0.09744707 0.081252016 -0.14722933 0.014629773 0.06928419 -0.07040898 0.14882347 0.042600527 -0.23952541 0.038839135 -0.1942422 0.060237873 -0.17096514 -0.2427774 0.21946901 -0.10195259 0.28271165 0.15614311 -0.25558764 -0.08656378 -0.021719903 -0.077761434 -0.11646628 0.014042794 0.014743901 -0.21940237 -0.050114743 -0.025109775 -0.04522857 0.453374 0.036054518 0.273816 0.17823675 0.04289833 0.15100187 0.18010958 0.075852945 0.1313446 0.105753325 0.28405076 -0.029759364 0.030286402 0.29678404 0.1594116 0.15582548 0.1829319 0.089309685 0.19699603 0.03513257 0.12148067 0.115085304 -0.09775503 -0.34395432 0.05222269 0.15794991 -0.009514878 0.115126684 -0.08808832 -0.25180966 0.06875707 -0.012157118 -0.054229643 0.05958146 0.065386124 -0.048596952 -0.16024408 0.17091078 0.24928062 0.023974735 -0.06199823 0.075563386 0.03439032 -0.14169972 -0.18011403 0.06241128 0.011856883 -0.08898267 0.10766861 0.14993636 -0.17046799
5135 -0.11874266 0.2111135 0.32050475 0.10839108 0.118404664 -0.32182863 -0.08754851 0.04397549 0.02802119 -0.01987853 0.1925784 -0.16993001 -0.029420756 0.06415048 -0.106355555 0.12228356 0.20990385 0.07601358 -0.047822453 0.01437865 -0.21374726 -0.22467862 -0.055598166 0.051808387 0.08642083 0.027416844 0.18007787 0.37230977 -0.052583143 0.017147467 0.12119686 -0.032755304 -0.22818908 0.0098981 -0.18132226 -0.08309215 0.2339545 -0.066395685 -0.068341896 -0.5105688 0.10965443 0.11216421 -0.13555948 0.0008768556 0.023585869 -0.28543228 -0.21129718 -0.06958976 -0.2452957 -0.083945744 -0.045735076 -0.01226707 -0.022181105 -0.056094132 0.0012081694 -0.01991984 -0.05526878 -0.17160933 -0.06733836 -0.3082005 0.1915019 0.021302518 -0.13226917 -0.07504515 -0.10811295 0.10769583 0.23638242 -0.32203045 0.37150162 -0.1534758 0.065293565 -0.1963914 -0.1233279 0.19314383 -0.007772819 -0.082502715 0.17530468 0.11383951 -0.0035100426 0.24308242 -0.23854846 0.19808319 0.03495245 0.21620364 0.2979834 -0.1566022 -0.22766823 -0.17360471 0.14569993 -0.099147104 -0.19322705 -0.25053456 0.12875962 0.2702639 -0.13793977 0.078476 -0.4128872 -0.08432382 -0.21830758 -0.21551093 -0.14869054 0.027155502 -0.041601375 -0.013638229 0.01465975 0.13282847 -0.18299992 -0.026524466 -0.13234714 -0.14910223 0.11225696 0.16101594 -0.22253077 0.19810066 0.0013052765 0.19831477 -0.12318826 0.2518017 -0.094902635 0.062849864 0.026062436 -0.17565587 -0.019824602 -0.06754143 0.14548936 0.2497943 0.32824576 0.11274367
3623 -0.38169485 -0.0042641694 -0.15609239 0.08376938 0.13555926 0.03619249 -0.30450267 -0.08125784 -0.049917493 -0.12783541 -0.15426713 -0.20500658 0.07595786 -0.24504715 0.12482987 0.31670028 0.038673136 -0.20947732 -0.17573081 -0.13279216 -0.12331925 -0.17698665 0.028836567 -0.105977625 -0.021305451 0.008104398 -0.049126577 0.1253112 0.045792215 0.2439436 0.10455284 0.047716644 -0.18876764 -0.04661216 -0.117874846 -0.13579388 0.11604083 0.15438645 -0.025756668 -0.022960724 -0.02472961 -0.06553214 -0.1808747 -0.15503515 0.19003476 0.08431805 0.107312724 0.22856422 0.17836498 0.11144666 -0.012085909 -0.16589445 0.056242935 -0.06720494 0.20911738 -0.4241304 -0.09197336 0.039086618 -0.14914459 -0.12728557 0.1769991 -0.07239014 -0.0026718036 0.085301876 -0.008342831 -0.10525836 -0.12929776 -0.024404926 0.23522273 -0.23081101 0.12521832 0.18617487 -0.264411 -0.005594671 0.0046108565 -0.1787442 -0.07884755 0.20723952 0.05816684 0.18026716 0.22683586 0.056705512 0.038715683 0.08871496 0.09610147 0.23263353 -0.149026 -0.010612856 0.24424697 0.094417 0.17926912 -0.09927813 0.037832808 -0.06417336 -0.197075 -0.063404925 0.10882066 -0.110416934 -0.17104565 0.1364773 -0.17329851 0.13502681 -0.3747505 0.15937008 -0.12820362 0.19203974 -0.32632947 0.08869506 0.38021255 0.111509405 0.048839107 0.19267297 0.021824395 0.038998324 -0.008444997 -0.043815363 0.09343881 0.04864946 0.17072932 -0.05739702 -0.13874586 -0.18361717 0.017614152 -0.030972928 0.10865978 0.09458704 0.06338697 0.5067947
5 -0.040323257 0.0598665 -0.11122688 -0.081154995 0.50871336 -0.022038694 0.15766709 -0.19061466 0.14607058 -0.01411841 -0.21405376 -0.46394303 -0.34155363 -0.16798532 -0.40056634 0.116968036 -0.21027425 -0.21408077 -0.0028885033 0.14901808 -0.12069322 0.0462625 -0.006420228 -0.31645393 0.2389839 -0.042816754 -0.16657645 0.12608135 0.06740039 0.36449748 -0.15243445 -0.06797566 0.10074912 0.022810096 0.03712111 -0.26354215 0.06183311 -0.2794439 0.07439473 -0.5553685 -0.03371493 0.035043083 0.15936838 0.0530132 -0.0023101184 0.13710812 0.0018290603 -0.09345142 0.050248817 0.060141332 -0.018936332 -0.16513284 -0.20436667 -0.09900929 0.03292123 -0.17936523 -0.25049138 0.05178731 -0.011849681 0.013389596 0.07758998 -0.17242326 0.18487687 -0.062864624 -0.26147944 0.0037643367 0.02434388 0.13757814 0.13522513 -0.3529073 0.036544684 0.17806767 -0.24531975 -0.24659294 -0.048444923 -0.15009756 -0.046120677 0.22783497 0.11027514 0.17771879 0.0615736 0.18858404 0.29190975 -0.26326343 -0.0140995355 0.08983069 0.26943436 0.12992418 -0.19910672 -0.09279717 0.11853176 -0.09154018 0.019060507 0.3971093 0.15167615 0.0696113 0.0048599713 -0.05321905 -0.14913943 0.04447228 0.06592752 -0.09968235 -0.12192023 -0.38357374 0.35509953 -0.061191104 0.0059279483 -0.34057966 0.05501747 -0.13826185 -0.038987253 -0.048151556 -0.08315494 0.06366599 0.07965778 -0.3151171 -0.13729195 -0.008160771 0.28023925 -0.07639807 -0.12482735 -0.04709076 -0.18057832 0.14934526 -0.054874633 0.11636794 0.18070273 0.12205963
3838 -0.08399299 0.25091544 -0.29263663 -0.000397815 0.06185089 0.09870973 -0.012784994 0.0532545 -0.0473179 -0.26575232 0.05312412 0.16142316 -0.08879313 -0.07996453 -0.056117225 0.1413816 0.05714256 0.13098206 0.045486975 0.08856033 0.006101441 0.2177792 0.31002286 0.08306789 0.04338078 -0.09579722 -0.18910939 0.03805647 -0.28392315 0.19174474 -0.070935495 0.036974136 -0.28897053 0.08570258 0.061889548 0.08196896 0.13106813 -0.2634682 -0.01033286 -0.3800737 -0.19850534 -0.05711431 -0.06596458 -0.26870447 0.11922388 0.079053916 0.21507688 0.041831844 -0.012708961 -0.20960163 0.22881556 0.13404296 -0.014138525 0.097367495 -0.21239536 -0.011976997 -0.010931182 -0.023757398 -0.29014727 -0.19930606 -0.08304745 0.41324544 0.1914619 0.017358292 0.33197075 -0.023549048 0.09747155 -0.40476975 0.1875006 -0.036452986 -0.26040673 0.05991689 -0.3540568 0.015330403 0.16841468 -0.12547447 -0.040713646 0.19537425 -0.012031839 0.13198984 0.009214669 0.1137838 0.08254553 0.14781143 -0.10859923 0.15788159 0.15614218 -0.07158472 -0.114054814 0.02037023 0.21925709 -0.153673 0.36719713 0.15797523 -0.0074779815 0.50664467 0.23175602 -0.03790003 0.046245266 -0.16517656 -0.25220576 0.13465329 -0.19961767 0.11780073 0.26362035 -0.04141951 -0.078946024 -0.1573867 -0.11741186 0.07912584 0.062024977 0.29080188 -0.4066578 -0.054130472 -0.31567124 0.23974204 0.035038717 0.01597723 0.07262032 -0.13011928 -0.14946604 0.122454256 0.05144209 -0.07251144 -0.11567494 0.28691533 0.24189834 0.03131743
1595 -0.18743996 -0.015553494 -0.07255202 0.38432285 0.11151947 -0.09095443 -0.099841245 0.2885861 0.10845844 -0.026886508 -0.23612022 -0.2190127 -0.03912797 0.1368786 -0.4115054 0.16158639 0.19983402 0.040077645 -0.2448998 -0.2373311 -0.054550048 -0.14746696 0.26456368 -0.18860298 -0.19726431 0.03376933 -0.11443283 -0.020243317 0.10859963 -0.003765343 -0.091752715 0.12542951 -0.18645741 -0.057888363 0.01710369 -0.04845851 -0.18295114 -0.12397299 0.101297125 -0.21199876 -0.014425193 -0.30027837 -0.025113577 -0.041182946 -0.007232626 0.16642003 0.24730013 -0.10905537 -0.0113487365 -0.23589508 0.10007551 -0.18125692 -0.08866638 -0.5919023 -0.011815482 -0.15056936 0.1672228 -0.07448088 -0.120550245 -0.057399288 0.0184329 -0.052758064 0.08984735 -0.13778827 -0.0378112 0.05138566 -0.010652553 -0.3075096 0.25422576 -0.0023353137 -0.29831773 0.28147504 -0.1799218 -0.05068829 0.008390682 -0.12054826 0.2231176 -0.068294056 -0.03885302 -0.020527719 0.23868828 0.22727488 -0.028368162 0.21932845 -0.12774913 0.10082368 -0.08910287 0.2820335 0.05177831 -0.26803252 0.1764771 -0.13767947 0.12290288 0.20761329 -0.04802217 0.2632843 -0.029976942 0.10007238 0.24987802 0.26873672 -0.1904654 -0.16147938 -0.03196403 0.1352579 -0.13835713 -0.040435508 -0.08569236 0.09831441 0.20850088 -0.050353624 -0.0678272 -0.059089746 -0.020317389 0.0784049 0.31696796 0.074514754 0.13449024 -0.057877686 0.06727136 0.06934326 -0.19073085 -0.2548721 0.033789277 -0.30860138 0.14452 0.17468452 0.02773802 -0.001894351
5020 -0.14232694 0.14781594 0.09016976 -0.019450486 0.06394285 -0.00034002215 -0.104928784 -0.05902999 0.3052408 0.2720415 0.05960744 0.19335619 0.18755007 -0.14980201 -0.23419602 0.37336376 0.43952614 0.17374401 -0.26786682 -0.194103 -0.08807967 0.2516383 -0.1664894 -0.30855978 0.24218896 -0.17343208 0.06920029 0.06560726 0.069283895 0.22701567 -0.0027509856 0.13975352 -0.053290375 -0.13806021 0.18538783 -0.06808316 -0.030799992 -0.25143206 0.15233426 -0.3904771 0.07182358 -0.23218744 0.039444704 -0.03683447 -0.12956421 0.16013373 0.09982393 -0.1730119 -0.07676568 0.074136965 0.1588902 -0.20168445 0.05357731 -0.17527843 -0.0105327 -0.18839443 0.08942473 -0.026432568 -0.19927694 -0.10177134 -0.22840355 -0.032837704 -0.34001112 0.2851761 0.0770067 0.1424514 -0.12180621 -0.086526126 0.25702903 0.42069855 0.08600826 0.042404678 -0.12366063 -0.3507661 0.11036143 0.11075835 -0.115322284 -0.37077853 -0.33005124 -0.24318284 -0.23121008 0.14137845 0.22287048 -0.15505889 0.27911806 0.04999004 -0.11062875 0.15930742 0.22107238 0.20243587 0.06847329 -0.016475478 0.16967422 0.10616968 0.24530129 -0.055657707 0.04325803 -0.025031652 -0.18537554 -0.06653841 -0.054316577 -0.19565117 -0.10088526 0.12855332 0.13648607 -0.3164573 0.039131854 0.11797405 -0.13125949 -0.01755868 0.13816258 0.053988878 -0.04186582 0.22236381 0.06196303 -0.14368531 -0.32183078 -0.1571833 0.15678045 -0.05929683 -0.09526805 -0.1515883 -0.07221492 -0.023077091 -0.34982178 0.156811 -0.052663106 0.085500285
16 -0.4387008 0.050950244 -0.12922138 0.112586096 0.5034632 -0.19997121 -0.05205574 -0.076045714 -0.15425824 0.45716596 0.10518414 0.27054256 0.020816725 -0.050178077 0.0464738 0.12033887 0.03334679 0.044946592 0.033197135 0.0575805 -0.20797214 0.16431002 0.14042436 -0.18837279 -0.073537596 -0.4977235 -0.14032751 0.16900961 -0.040074077 -0.16212088 -0.026484918 -0.20856716 -0.31233233 0.17771633 0.11747847 0.058958463 0.061129462 -0.30243355 0.047306783 -0.4054475 0.0029532735 -0.15405163 0.0899988 0.007864023 0.09812288 0.12324846 -0.04180638 -0.021873342 -0.2581945 0.052851867 0.1148913 0.03536861 0.0029048075 0.13899814 0.10662195 0.06316885 -0.13433616 -0.05916517 -0.10886412 0.06266555 -0.10543695 -0.14204434 -0.0057619317 -0.24354152 0.25357214 0.011409857 -0.15731828 -0.08240018 0.0498924 -0.07046174 -0.11538463 0.36087683 -0.25776887 -0.099786974 0.64536834 0.0031252052 -0.26540747 0.1904755 -0.21779965 0.13100204 0.13836941 0.27952617 -0.059356388 0.30212927 -0.0319036 0.3513614 0.28345767 -0.31053948 -0.15562114 0.11923528 0.3976629 0.0064448942 0.002011073 0.051946066 -0.12519681 0.15251566 -0.02312995 -0.17708342 -0.27661508 0.15252136 -0.16734219 0.18875031 -0.3409703 0.09002252 0.273676 0.21889701 0.03326515 -0.06976877 0.11601332 0.20010406 0.030665373 0.2731146 -0.34359163 -0.051710267 -0.05610796 -0.20920673 -0.04717363 -0.18454348 0.02938096 0.1035811 0.21374597 0.21225914 -0.122169286 0.1746906 0.02187249 0.2940068 0.05998106 0.047548037
916 -0.445299 0.08084526 -0.34789997 0.020952756 0.37747312 -0.32403827 -0.25459284 -0.25543508 0.1998325 -0.08983731 0.073364526 0.07609638 0.202933 -0.20895518 -0.03319714 0.08263176 0.17747964 0.16021372 0.10754296 0.30393794 -0.34931782 0.010495289 -0.058275808 -0.090660185 0.2765688 0.12467383 0.041723423 0.10629073 0.21677649 0.030754024 -0.35662055 0.2833422 -0.103581145 -0.0039033934 -0.082129605 0.298602 0.08278594 -0.01219458 -0.062486466 -0.1685503 0.0051337387 0.034250226 -0.014522994 -0.14885733 0.11812643 -0.16455334 -0.02339583 0.48950294 -0.08304072 0.041039515 0.19113086 0.17562391 -0.13407038 -0.10794039 -0.026388546 0.04028604 0.14588325 -0.1369169 0.062093128 -0.04055958 -0.15906237 -0.21944876 0.10500362 -0.08531037 -0.009741474 0.12047989 -0.023084015 -0.06840723 0.3642441 0.15381606 -0.04349512 0.10372003 0.07551362 -0.03915301 0.26642302 0.22508892 -0.16318429 0.06181238 0.12785026 -0.2140862 -0.24332516 0.24263196 0.0064980797 0.40705138 0.14987792 0.25589186 0.19327036 0.34700015 0.11039866 0.010718101 -0.0017371024 -0.018442387 -0.045493636 -0.20416673 -0.024077678 0.11868027 0.16133705 -0.02390617 -0.069825165 -0.13104793 -0.30439165 -0.19132513 0.09001756 -0.019811464 -0.20143406 -0.14431626 -0.08705675 -0.25385156 -0.16304071 -0.031307716 -0.37939858 0.3157672 0.13412258 -0.23004434 0.13178694 -0.30365467 -0.12730747 -0.03575686 -0.27924934 0.06882187 -0.043245696 0.012945767 0.18966691 0.17824091 -0.054714456 0.13959551 0.06868087 0.3496448
1049 -0.17610179 0.11178904 -0.37000948 0.0016884102 0.28683165 -0.18473001 -0.03867375 0.14301078 0.00070035 0.05026484 -0.118590966 -0.28210965 0.2962714 -0.085913986 -0.009423578 0.20655651 0.22248445 0.0023985847 -0.082314 -0.13610679 -0.12552378 0.142216 0.0588769 -0.034538805 0.44212216 -0.071068905 0.1952726 -0.06649114 0.04314958 -0.17688896 0.20786344 -0.06652691 0.14990205 0.032979537 -0.1876953 -0.05245785 0.15790416 -0.40831953 0.18708278 -0.36690894 0.40307236 -0.009426544 0.022709925 -0.054340098 0.29870525 -0.20175725 0.056863453 -0.21127373 -0.06558153 0.036569584 -0.11678275 -0.062880464 0.1555983 0.098376006 -0.11666993 -0.04116394 0.08596063 -0.027718075 0.14019102 0.078653716 -0.08797806 -0.048570678 0.2861157 -0.12414777 -0.052435946 -0.2518168 -0.32865417 0.06932702 -0.01307573 -0.12841636 0.10536995 0.13059294 -0.11663019 -0.21920407 0.24622734 -0.22864789 0.010010958 -0.19355148 0.18269445 0.37013635 -0.4885256 -0.056245316 0.20753762 0.14665388 -0.14550892 -0.005039113 0.18263467 0.21699123 -0.07953269 0.04565117 0.15384507 -0.103162326 -0.07839671 0.017411567 0.21523468 0.13391137 0.22965527 0.3403149 0.19228387 -0.079630405 -0.19665563 -0.009730989 -0.018472722 0.1828426 -0.12552014 -0.29194033 -0.17012621 -0.14799736 -0.24601364 -0.10974472 -0.09546808 0.0201524 -0.17833029 0.20862857 -0.05727744 0.23723185 -0.1249115 -0.1064719 -0.16602112 -0.07392615 0.03461219 0.3036336 0.12211508 -0.11019396 0.008851167 -0.13700838 -0.09089575 0.15736882
2016 -0.23791148 -0.027435431 -0.11586783 0.22667946 0.25367457 0.11386646 -0.17602919 -0.02395359 0.011543034 -0.041539446 -0.16370338 -0.1374592 0.05786311 -0.2214654 -0.49760583 0.1881706 0.13355118 -0.20179382 0.0039305463 -0.12135314 -0.27878386 -0.26710734 0.08343004 0.012701072 0.019743681 0.099460974 0.26198485 0.002969739 0.002578423 0.23986627 -0.1345583 0.13594855 0.2689833 -0.14550492 -0.036816098 -0.22090767 -0.03398102 -0.422785 0.08843944 -0.24956462 -0.07898314 -0.1185722 -0.05136507 -0.0161405 0.12281289 0.17328492 -0.18136783 0.20894776 0.0473878 0.09433158 0.234706 -0.2989854 0.19548607 -0.1739136 -0.15121603 0.032405753 0.2002254 0.5115684 -0.0112853665 -0.34234428 -0.04294399 -0.07758899 0.18199997 0.057569735 0.18768588 -0.24998772 0.301581 -0.19389224 0.036563214 -0.041263446 -0.13355571 -0.16444956 -0.19235402 0.123546325 0.4534737 0.20048879 -0.1391693 0.145573 0.19321354 0.15770712 0.32637548 0.14715146 0.063568816 -0.19105673 -0.06519345 0.0060437783 0.094314225 0.0137156835 -0.05767869 -0.3164582 -0.23149328 0.09473659 0.095070034 0.046228323 -0.2073626 0.16329317 -0.15902048 -0.008542257 -0.09918191 0.028966367 0.041263778 0.21711263 -0.2093426 -0.038851563 -0.20425753 0.08463274 -0.43252265 -0.021294259 -0.017241906 0.22444144 0.14826421 -0.14020163 -0.19666944 0.22242045 -0.22374186 0.02398977 -0.1078356 -0.06770754 -0.094849095 0.4645509 0.03320744 -0.096927725 0.36554748 -0.046533335 0.013599068 0.20442164 0.05376808 0.026830548
3818 0.05666395 -0.23640183 0.1361106 0.10927983 0.17119035 -0.27930382 -0.36217922 -0.071704365 0.3309164 -0.017538276 -0.02020117 -0.01236227 0.23336734 0.060256813 -0.039169293 0.29908946 -0.10277228 0.18466038 0.011603376 -0.02120404 0.24429119 0.12174816 -0.3108564 -0.09574379 0.04572656 -0.14271796 -0.041020263 0.1843756 0.04509159 0.24800138 -0.24621041 -0.19313605 0.09145347 -0.09054135 -0.27696285 0.098304376 -0.06758379 -0.13061875 0.026279759 -0.35272455 -0.020498136 -0.13900827 0.27447626 -0.08805108 -0.0034534784 0.3142681 0.037860725 0.10642913 0.13850407 -0.0068909302 0.17773935 0.13476932 0.43146056 0.2343929 -0.06790783 0.18045025 0.0057991687 -0.29778835 0.13226259 -0.19079936 0.07992071 -0.11934797 0.26946396 -0.1006497 0.022271264 -0.11860178 -0.015776932 -0.31644312 0.26377574 -0.09987068 0.2556249 0.15067358 -0.02883036 0.13862354 -0.036944386 -0.033004988 -0.3332524 0.12631369 0.1738527 -0.04332469 -0.03879209 0.25331163 0.32439378 0.3794712 -0.006189659 0.3920726 -0.19312185 0.08287101 -0.028554121 -0.21158127 -0.057462424 -0.09518121 0.33817887 0.3357629 -0.1290493 0.32917938 0.12628132 -0.14814936 -0.22573628 -0.1288011 -0.05387817 0.3333158 0.037222013 -0.14157924 -0.07249792 -0.033361726 -0.10281412 -0.07372022 0.08406684 0.18716319 -0.26984957 0.20009352 -0.13997546 0.2758304 -0.09687606 -0.28746784 0.10093587 -0.10624374 -0.12791868 0.22450216 0.17164353 -0.17753744 0.2607058 0.0919538 0.17007466 -0.17993437 -0.003180243 0.3018883
3300 -0.22779483 0.25759244 0.012271482 0.08370059 -0.105813496 0.14793776 0.16661358 -0.05954543 0.12733433 -0.052864652 -0.3086154 -0.13117963 0.071516514 0.24470133 -0.10794439 0.32011527 0.014770022 0.13596909 0.005256639 0.08225995 -0.051461883 -0.17025335 -0.27572176 -0.1845688 0.122036874 0.04056376 -0.07896473 0.06413589 0.012516636 -0.05146809 -0.12361749 0.17118901 0.1272475 0.18729421 -0.14733177 -0.3531445 0.14213204 -0.067205034 0.116958134 -0.22584912 -0.23753291 -0.19563816 -0.14047298 0.2595293 0.098295845 -0.093577616 0.010556916 0.12791348 -0.033428326 0.010044472 -0.27258915 0.044875447 -0.0392623 0.20889904 0.06780421 0.07043797 0.0891489 0.11730184 0.007411946 0.060447637 -0.42029285 0.28757086 0.23519781 0.13518178 0.06751262 -0.07547872 -0.02221003 -0.2598865 0.035876732 -0.0009079519 0.21746136 -0.138985 -0.3974037 -0.02127431 0.3088403 -0.033100706 -0.29884726 0.17208457 0.06504002 0.06908682 0.15241712 0.19031633 0.12181471 -0.05055899 0.16688001 0.19543292 0.27523237 -0.020946389 0.21998814 -0.23945172 0.017910928 0.22359447 0.1025745 0.17553848 -0.4668431 -0.06962387 -0.032998633 0.12193581 -0.017797068 0.24776061 -0.113762364 -0.00292883 -0.056373686 0.024711834 -0.211124 0.07980155 -0.21362825 -0.22519451 -0.10272833 -0.059535176 0.4770739 0.0020621566 -0.089165986 0.1310556 0.31712058 -0.032834254 0.013149094 -0.077846974 -0.06087384 -0.13349405 0.09106417 -0.0061740754 0.17701773 -0.04022913 0.07199913 0.25390077 0.1729828 0.26655567
20 -0.18539862 0.20922796 -0.10485916 0.16090424 0.17547986 -0.2868736 -0.06944577 -0.30960295 0.14742832 -0.23649777 0.46859685 -0.045370497 0.1002061 -0.18842144 -0.021577539 0.18505643 0.077520296 0.04100076 0.049572356 -0.024717964 0.13490686 0.009072052 0.038611416 -0.18418382 -0.08711296 0.063480206 -0.08417711 0.09326574 0.23386997 -0.16467865 -0.07893146 -0.25522092 -0.07900117 0.15349704 -0.18356052 -0.038208805 0.037345763 -0.13353688 -0.09325725 -0.07230949 -0.21425085 -0.07891049 0.16666068 0.074305974 -0.060544826 0.21473013 -0.14253919 0.35017917 -0.017082278 -0.08456189 -0.05726248 -0.06496765 -0.07941512 -0.0834448 -0.090686165 -0.19334245 -0.07343782 -0.10348446 0.022086944 0.018033352 -0.065965235 0.17432375 -0.24719757 0.094583884 0.051042598 -0.30343086 -0.28928706 -0.36927095 0.38388446 -0.19781399 0.112896584 0.102734886 -0.19116822 -0.2050781 0.37129804 0.3138677 -0.10314041 -0.0075968304 0.12880585 -0.037390567 0.007337595 0.070163384 0.34207302 0.26660275 0.40661752 0.12170137 0.14790002 0.036426544 0.087166525 0.03747235 0.32540327 -0.09551674 0.33712465 0.19893831 -0.0738704 0.2528057 0.07671171 0.056404386 -0.112048514 -0.23434046 0.093525216 -0.021306558 0.013856445 -0.005987351 -0.027964221 -0.11673058 -0.15938959 -0.18120137 0.14846618 0.2200642 -0.25382328 0.12246201 -0.24439332 0.056721557 -0.13713904 -0.060654085 -0.07870581 -0.049318235 0.031007638 0.19766395 -0.10954147 0.078170665 -0.08433974 0.005514373 -0.049676657 0.08760038 -0.026757047 0.22413272
1074 -0.51318 0.14200366 0.017134205 0.18389584 0.04894834 -0.061728805 -0.3121155 -0.03950361 0.21208985 -0.28532356 -0.3341423 0.18774159 -0.028358556 -0.15174255 0.19871312 0.13936399 0.07308892 -0.31573117 0.22674975 -0.118098564 0.028582575 0.03870774 -0.22396313 0.10361271 -0.11227245 -0.23612982 0.06587062 0.08721168 -0.14660488 0.054678343 0.30756992 -0.34320024 -0.062347636 -0.054348122 0.17410675 -0.18284431 0.39325994 -0.030056987 0.071097925 -0.06847991 -0.005139854 -0.1138785 0.1175832 -0.13648959 0.06069496 0.23747817 -0.21425416 0.33826664 -0.00784947 -0.092512056 -0.3562708 -0.14171284 -0.030676862 -0.15083878 -0.07021848 -0.08323511 -0.079018906 -0.06631025 0.014816789 0.0037817478 0.051616676 0.19614819 0.088214435 -0.0900885 -0.10026705 -0.08840045 0.2520862 -0.13081147 0.43276373 -0.1560619 -0.24833326 -0.15163392 -0.1292042 0.08011733 0.075156406 0.0031618685 -0.109235875 -0.05066964 0.052359432 0.012488545 -0.103999466 0.043949112 -0.1662662 0.087242864 -0.18657078 0.094297886 0.16374962 0.08821775 0.15005729 0.11373748 0.099571206 0.03501535 0.21542887 0.4142985 -0.19678362 0.15974173 0.046903536 0.25859207 -0.250935 0.035086025 -0.30569515 -0.19808497 -0.01528842 0.22986165 0.020673694 -0.11914541 -0.012875308 -0.118903354 -0.32972324 0.017592842 -0.20759453 0.011030281 -0.19383474 0.07068633 0.17509384 -0.26790968 -0.2710596 0.098869786 0.13886769 0.29513633 0.28700164 0.1653225 -0.31116664 -0.0051215985 -0.004987643 0.3198229 0.23307514 0.18403137
1228 -0.3074142 -0.01979036 0.042508442 0.0596612 0.115698166 -0.10654689 -0.106578276 -0.23578823 0.0928836 0.014865254 0.034867626 -0.18419519 -0.00698279 -0.18823172 -0.054962102 0.32725236 0.17610744 -0.17359082 0.23603885 -0.0017462592 -0.24998644 -0.007769472 -0.29968885 0.27352425 -0.0779038 -0.22662237 0.08291131 0.26616943 0.16890848 0.051681038 -0.29750916 -0.39601162 0.1505598 0.008847465 -0.2640466 0.09491762 0.2039649 -0.18542638 -0.24320216 -0.32090297 0.00730706 -0.010399555 -0.0111969095 -0.12290101 0.00013504337 0.058689456 -0.19399968 0.31442016 0.06376057 -0.15269384 0.39097616 -0.26129714 0.007070488 -0.01640776 0.18503566 0.30344036 0.084906444 -0.3051665 -0.40819144 -0.18807086 0.16259512 0.06477407 -0.040149998 -0.018874552 0.26294622 -0.07478865 -0.040459335 -0.12510984 0.2230306 -0.15849029 0.000106112675 0.1580832 -0.03223068 0.14164762 0.09940189 -0.16140166 -0.04180471 -0.27818328 0.053781793 -0.2042005 -0.04636156 -0.054816052 0.026795782 0.3330302 0.25617835 0.022108875 0.15110964 0.23652248 -0.230461 0.06892288 -0.024910763 -0.14835744 0.17771092 0.20385347 0.004774486 -0.016409453 0.025165306 0.063668594 -0.138997 0.017287906 -0.12032677 0.08951182 0.044793487 -0.29143164 -0.25063393 -0.039536472 -0.21269076 -0.18251535 -0.10682052 0.09950137 0.14825858 0.25468153 -0.20403288 -0.0218123 -0.20950678 0.05766406 0.00511846 -0.4295426 -0.15897638 0.1238485 -0.22357145 0.0004861667 0.01043201 -0.120966256 -0.14192878 0.061629742 -0.034044348 0.24757391
3994 -0.40958756 -0.048143122 0.12653178 0.042962804 0.14318873 0.042240784 0.059669793 -0.07940071 -0.0821384 0.00031055044 -0.054039676 -0.25194877 -0.18260296 -0.10562637 -0.08482304 0.36593276 0.14569192 0.12378724 0.28126913 -0.021323256 -0.20042512 0.13835534 -0.19672371 -0.08251183 0.06539958 0.25668773 -0.014850851 0.047358613 -0.1045728 -0.00027259384 0.21532746 0.1482067 -0.06887326 -0.19381464 -0.42443922 -0.17070435 -0.13430996 0.05360043 0.2630078 -0.07722721 0.0026490765 -0.26986063 -0.076349065 -0.14413899 0.2085138 0.03663538 -0.07290716 0.41268843 -0.025372004 -0.21047775 0.15854791 0.055315558 0.38337424 -0.010929245 0.17296033 -0.068475775 -0.16321173 0.15763761 -0.16685203 -0.069824636 0.09059201 -0.032466937 0.115169466 0.016454436 0.11519932 0.08001681 -0.19304916 -0.16085128 0.19429244 0.0016758869 0.097442925 -0.14781795 -0.050945494 0.06305903 -0.02895348 -0.04618608 -0.17832123 -0.19512461 -0.049391948 0.18150128 0.11900741 -0.09701848 -0.120728366 0.35071257 0.20070724 0.2618979 -0.06872557 0.05937384 -0.25644526 -0.039434202 0.34382784 -0.14011921 -0.018433236 -0.060109437 0.44145304 0.03780946 -0.05851736 0.14502476 -0.09217705 -0.041589223 -0.4194189 0.19387686 -0.12040174 0.112872064 0.21579817 -0.1823323 -0.07675279 -0.018690402 -0.09215776 -0.19960994 0.11561761 -0.24283093 -0.42233568 0.045543183 0.018041458 0.08753804 -0.11414609 0.12943172 -0.24506095 0.0840809 0.05633123 -0.3340926 -0.16600306 -0.0021362545 0.14609838 -0.0193348 -0.101891845 0.38652617
813 -0.19580364 0.18829471 -0.13450852 0.078566864 0.1729593 -0.21653266 0.05400632 -0.11800418 -0.21210808 0.17898768 0.027214263 -0.1395215 0.11072936 -0.41459402 0.11531156 0.09033616 -0.055224616 0.20198834 -0.09750173 -0.109690346 -0.085880995 0.14942038 0.26406103 -0.19533285 -0.13536723 0.18049173 -0.09740792 0.016809665 0.10280315 -0.08188495 -0.0551941 0.10970502 -0.29773712 0.052779354 -0.05819486 -0.14124806 0.24371454 -0.115712695 -0.19973835 -0.27981696 -0.050872814 -0.2034007 0.0433095 -0.06788463 0.017033927 0.23113258 -0.03158906 0.20713617 -0.009153913 0.10658373 0.21395767 -0.10904481 -0.062864795 -0.14391804 -0.10622309 -0.104273796 -0.115921706 -0.050832946 -0.023075888 0.17144333 -0.10285232 0.21004343 -0.11350735 0.06583173 0.025856907 -0.31194508 -0.15568128 -0.4831823 0.23309198 -0.1604885 0.08663084 -0.10874865 -0.24335365 -0.25040162 -0.098621204 0.15440415 -0.050103188 0.084686935 -0.20906249 0.03614894 -0.13029529 0.09403236 0.30597046 0.25057644 0.045556094 0.14103839 0.23538272 0.24021618 -0.13532487 0.059000812 0.046563707 0.19309258 0.009558086 0.15197685 -0.1426088 0.18801409 -0.062288143 0.107546 -0.2949494 0.008425696 0.040352874 0.020345801 -0.27534613 -0.1850748 0.11783096 0.13215734 -0.0151856085 -0.1014137 0.19835621 0.0012443335 0.093850456 0.24402486 -0.15364084 -0.019711472 -0.08421061 -0.070169374 -0.021503428 -0.13327926 0.45974037 0.027471747 0.16030088 0.029974267 -0.09338425 0.048559364 -0.042482357 0.11001671 0.108038574 0.20063594
5789 -0.2867832 0.16110851 -0.0162885 -0.12125457 0.22142173 -0.115606606 -0.29232112 -0.24602188 -0.009110836 -0.060305078 0.11382095 -0.039902925 0.03614857 -0.055522 0.001578588 0.033969942 -0.22088203 0.12367322 0.1909789 -0.11111517 -0.20339298 0.04280808 -0.18089671 -0.13001919 -0.13543262 -0.25803906 0.046653505 0.032335103 0.46805194 0.19456369 0.06782427 0.43970183 -0.19129601 0.06875501 -0.13725626 -0.13414527 0.15783685 -0.2621568 -0.2530015 -0.1197884 0.23785865 -0.16944508 0.15105358 -0.11859423 -0.08521019 -0.05832825 -0.13665558 -0.27624702 0.28013358 -0.30267635 -0.018455252 -0.057439607 -0.44051844 -0.2611606 0.2185 0.09123176 0.044893857 -0.14912869 -0.12287828 -0.057153497 -0.022236165 0.052234996 0.10782682 -0.2391139 -0.091655284 -0.048947748 -0.19126636 -0.19849963 0.27899066 0.20972386 -0.0032057248 -0.12597078 -0.041188944 -0.02829524 -0.1622867 0.027902398 0.05503924 0.29723638 0.23422769 -0.076834165 -0.19018821 0.30363977 0.19698152 -0.3426156 0.49096122 -0.10468275 -0.32946122 0.027297584 -0.031793054 -0.0042506256 -0.25316614 -0.20052539 -0.017531728 0.115712285 -0.05705752 0.5132744 0.3324706 0.0116554 0.026328431 0.37264398 -0.13168544 -0.009664143 -0.085625656 0.21969478 -0.011582206 -0.3181117 -0.11291039 0.050992265 -0.18868575 -0.06738983 -0.10765648 0.05863834 -0.3365737 0.015189138 -0.10036873 -0.0062671565 -0.024972618 -0.041418348 0.03306028 0.022484813 -0.0381889 -0.024040414 0.032362763 0.00044258984 -0.16021185 0.3774658 -0.16779362 0.22379486
4257 -0.06599766 0.2800545 -0.16389789 0.1485769 0.52941793 -0.018231371 -0.20336904 -0.24816324 0.03741836 -0.14832154 0.15605113 -0.3265222 0.12760489 0.006910939 -0.0046707587 0.115527935 -0.07479131 -0.21775798 0.27444696 0.19046822 0.12990351 0.0018063972 -0.16215056 0.1482781 -0.1757008 -0.045685288 0.011157747 0.17647627 0.19855642 0.22345313 0.010095921 -0.29596922 -0.14619428 -0.016172895 0.10555654 -0.06949658 0.16783445 -0.41161743 -0.030640304 -0.34630308 0.17085697 -0.13720472 0.09426355 -0.008869945 -0.17024867 0.098013856 0.01631574 0.05113135 -0.18336047 -0.10623659 -0.17047636 -0.024811212 0.06280079 0.18611659 0.16305041 0.1270414 0.233535 0.050610196 -0.11190659 0.38131362 0.010792073 0.055010978 -0.036924515 0.15102156 0.10024925 0.096610725 -0.18642229 -0.10151378 7.5947246e-05 -0.05961724 -0.13730322 0.22791298 0.05103244 0.35584974 0.21341674 -0.05456763 0.014364511 0.1779012 -0.3864168 0.2927924 0.20693564 0.093399756 0.10606078 0.24318758 -0.14295655 0.31155434 0.3494513 0.290101 -0.21035661 0.26178205 -0.09768352 0.21195461 0.0621716 0.05623716 0.012410814 0.104803525 0.2211958 -0.11269119 -0.32416672 0.04764482 -0.041302882 0.105320856 0.048927132 0.11938661 -0.0073002516 0.11173306 -0.007861065 0.2441639 -0.023354271 -0.048806217 0.3052634 -0.052531302 -0.4034458 0.017494995 -0.05250596 -0.120920576 0.15579599 0.03972037 0.12688714 -0.18478422 -0.17604859 -0.03203735 -0.42277205 -0.18983988 -0.20153901 0.2790641 0.13194284 0.42050627
335 -0.38604495 0.03895032 0.21595767 0.24151933 0.13033885 -0.1559531 -0.38345265 -0.00186978 0.038486473 0.22052318 -0.0353512 0.016453687 0.16981575 -0.08879939 0.15547802 0.26410943 -0.18483405 -0.0042969924 0.32608822 -0.11404078 -0.4088979 -0.25006437 -0.086768195 -0.06438919 -0.119063035 -0.06314598 -0.019261671 0.14191744 0.024293967 0.029048584 0.07262269 0.08319799 0.009121959 -0.039445084 0.13520828 0.26889396 0.24780025 -0.13166673 0.24955887 -0.24678116 0.0013613896 -0.18992168 -0.12496903 0.009848819 0.024010628 0.104313985 -0.19276148 0.11129356 -0.15765934 -0.37528008 0.017317848 -0.36273074 -0.51449275 -0.010492647 -0.08119323 0.024289915 -0.001445764 -0.05596792 -0.026180802 0.07476311 0.14647466 0.06233904 0.043419745 0.24541783 -0.018348774 -0.0051422785 0.3350094 -0.04977294 0.25106058 -0.28442344 -0.15733613 -0.15109743 -0.30529052 -0.034083795 0.19817655 0.24237065 -0.2075761 -0.12747064 0.06513606 0.10459611 0.0012474159 0.082357556 0.08667983 0.053343225 -0.17684163 -0.13946533 0.26148096 -0.054028135 -0.18902235 -0.030060604 0.055594757 -0.18246835 0.36567667 0.29668248 -0.2018471 0.20247552 -0.1694981 0.15829836 -0.1682734 -0.01702501 0.07267581 0.20280506 -0.0623967 0.24907307 0.02405707 -0.033396494 0.015824364 -0.030649006 -0.2184344 -0.08920377 0.12625822 -0.148749 -0.0076224357 0.13930418 0.21378712 0.042061582 0.09249497 0.06518053 -0.20647112 0.38654667 0.1658917 -0.29223707 -0.26434118 0.18323895 -0.07719114 0.1494396 0.0962371 0.13134843
56 -0.49804762 0.28669804 0.23567428 -0.30824837 0.1314356 -0.23202422 -0.07377958 -0.18924512 -0.16576253 -0.15050882 0.039821163 -0.020980665 -0.10053172 0.10976032 -0.1858541 -0.19808231 0.091544874 -0.1983009 -0.04453358 0.24692315 0.10984757 0.14764719 -0.05569107 -0.30367967 0.09027913 -0.32178968 0.05968093 -0.05592526 0.015727483 0.31834498 0.25199184 0.12517636 -0.38520703 -0.08567455 0.004183057 0.10659108 0.32868668 -0.3511878 0.19101006 -0.3485848 0.14682944 -0.120996766 -0.028509323 -0.16273701 -0.19074869 -0.053646404 -0.053938735 0.15237081 -0.121312544 0.031760886 -0.13325073 -0.16627932 -0.11092819 -0.040464398 0.07614478 0.24635658 -0.17721061 -0.07585964 -0.018540073 0.2559276 -0.16342816 0.06875228 -0.2148619 -0.16002633 0.054389652 -0.3579711 -0.14125381 -0.14207052 0.13968632 0.07596639 0.23113468 0.11747774 0.02870188 -0.13996936 -0.19996443 -0.057537314 -0.06426165 -0.19546634 -0.12466116 0.19163598 -0.009476176 0.03940338 0.19705312 0.21587317 0.10060322 -0.026354752 -0.22436365 -0.16100483 0.016707119 0.086262755 -0.026103813 -0.12412423 -0.03413355 -0.10825636 -0.2676081 0.25903782 -0.04942097 0.12697323 0.2860688 0.07945394 0.04530257 0.08006333 -0.035603885 -0.3822225 -0.19938375 -0.03674798 0.017258044 0.0002217534 -0.28069815 0.118012615 0.22315381 0.05218065 0.062142875 0.4690623 0.07136832 -0.04392715 0.00071377447 -0.20877579 -0.13848247 0.32276812 -0.28050652 -0.20930724 -0.12965858 0.23592374 0.15643194 0.24557398 0.20074113 0.082877025
2289 -0.26202473 0.28256086 0.29157662 -0.22428314 -0.08168168 -0.27572837 -0.23800607 0.31310984 0.029946111 -0.13951841 0.16746277 -0.11490835 -0.0970515 -0.06441884 -0.09692692 0.28342587 -0.080599524 -0.22946875 -0.07794547 -0.042572994 -0.06883244 0.13812597 0.10572458 -0.1088259 -0.049541406 0.14432958 0.23829766 0.41427997 -0.0730592 -0.2493698 0.09553778 0.046940707 -3.4624107e-05 -0.16533817 -0.17471522 0.2062968 -0.038440928 -0.09355661 -0.27702487 -0.24401513 0.078078546 -0.16049281 -0.09623035 -0.41133967 0.02236574 -0.21999732 -0.026258502 -0.24342513 -0.03311065 0.21775773 -0.11137557 0.17659515 0.014512719 0.07693958 -0.04737099 -0.15143381 0.034035105 0.05198717 -0.104476064 0.056018755 -0.10110647 -0.17599665 0.2821034 0.08423572 0.08702834 -0.23446411 0.22443417 -0.24286667 0.11858286 0.0833207 -0.1642751 0.32950866 -0.36702615 -0.29186097 0.250693 -0.2297556 0.0269362 0.3623199 -0.08026681 -0.07191756 0.14685725 -0.02911757 0.29002634 0.18679337 -0.03260391 -0.08877985 0.029915381 0.091498 -0.27234402 -0.02250862 0.023213312 0.12207099 0.1923706 -0.24668586 0.08567588 -0.09175353 0.322006 0.27133313 0.34364894 0.118300445 -0.13136363 0.101967655 0.614755 0.19024965 0.09894361 -0.13824254 0.05713913 -0.039173402 -0.065902255 -0.12124392 0.09420201 0.1366089 -0.12623183 0.14677547 -0.04996857 -0.09140216 0.034323912 -0.34104693 0.31655034 0.20233198 -0.22208866 0.12739447 0.028048659 -0.25275803 -0.18547831 0.061374076 0.09857943 0.02313994
4321 -0.0970186 0.22046965 0.07388088 0.0124216415 -0.14245367 -0.28257725 -0.19703387 0.18019578 -0.24144608 -0.20638035 -0.06651394 0.24903437 -0.04991725 -0.26778603 0.23258099 0.20799606 -0.12484006 -0.12555046 0.12321618 0.2760348 -0.09992083 0.321287 -0.46297252 -0.06886749 -0.30313092 -0.09284908 0.0775929 0.08461725 -0.18031882 0.019605171 -0.041461125 0.1378175 -0.1730179 0.12801702 -0.1300328 0.04857935 -0.27430058 0.040237878 -0.08213124 -0.3688059 0.36449784 -0.18191019 -0.10635444 -0.1548936 0.39150214 0.14413807 -0.23238416 0.15754266 -0.10911785 0.113636665 -0.097176194 -0.10727804 0.22932602 -0.10253777 0.071969524 -0.025547646 0.019898582 -0.17175542 0.028746024 0.1840331 0.008384211 -0.21449722 0.30161616 -0.09728148 0.12630163 0.037668258 -0.016799347 -0.11225539 -0.1183617 -0.18480538 -0.12043751 0.107722245 -0.0107650515 -0.29463977 0.21196899 0.2657908 -0.22850868 0.24061464 -0.23147817 0.23997231 0.21271724 0.4062784 0.22702381 -0.038334228 0.2416703 0.099024504 0.09069399 -0.09457166 0.051657654 -0.0066190446 0.19677131 -0.01193279 0.23918684 -0.037595507 0.0075100497 -0.04742921 -0.25804564 0.09848587 0.12387276 -0.2562547 -0.070299365 -0.0069963867 0.058767103 0.18257643 -0.096495464 -2.6931319e-05 0.1654477 0.0660156 -0.058917552 -0.10460463 -0.08535771 0.16423377 -0.30226943 0.014974833 0.16850941 0.036425542 -0.13002858 -0.3025568 -0.026636563 -0.15125585 -0.34456694 -0.10543797 0.07524136 -0.2824443 0.07054166 0.18989447 0.04797796 0.103563614
3337 0.0886955 0.13544661 -0.13460246 -0.109941654 0.13176875 -0.08874331 0.11709188 -0.19212623 0.13971779 0.023997031 -0.00014816904 -0.06965848 0.21503185 0.15930611 -0.24751341 0.079269744 0.15573472 0.000785782 -0.15881553 0.06888504 0.12396033 -0.039491467 -0.01986213 -0.030602857 0.17236549 -0.061728913 0.28808573 0.104057916 0.111780226 0.1539852 -0.10490804 0.085654184 -0.23671018 0.08898185 -0.43990263 -0.20724809 -0.10008581 0.020203197 -0.06846662 -0.41960335 0.06816616 -0.02554311 0.009775895 -0.029073 0.05834941 0.14558074 -0.0098081315 -0.21166706 -0.2041055 -0.2111716 -0.52721334 -0.053078465 -0.013338402 -0.037360746 -0.062080722 0.17890874 0.025407404 -0.3232492 -0.17174983 -0.2508042 -0.23414543 -0.4399514 0.11824083 -0.05658461 0.3316104 -0.28205255 0.17953953 -0.17464425 0.35524794 -0.12077982 0.03470712 0.40600175 -0.010814394 0.4552284 0.21264021 0.0611123 -0.45989487 -0.11878898 0.41365603 0.11034433 -0.13661233 0.0013247965 -0.10552572 0.46225342 0.015358707 -0.014437838 0.056718763 0.16560285 -0.052191135 0.151754 -0.17568724 -0.06576839 0.2537651 0.08900495 0.25392374 0.19023016 0.14091548 0.076517045 -0.007080148 -0.16727354 -0.21452224 -0.037885465 0.08801538 -0.22370504 -0.07401384 0.067234546 0.08187334 -0.026345886 -0.054869685 0.10775327 -0.20473397 0.5063681 -0.27287853 -0.34604028 -0.16319656 -0.03529917 0.08436793 -0.18466835 -0.17411971 0.25156036 0.018744435 -0.21969429 0.09450233 0.2632788 0.12956554 0.08317386 0.34563458 0.16411364
3737 -0.2886444 0.05882381 -0.38073063 0.15111345 0.6095014 0.10801009 -0.084889814 -0.077670924 0.1299124 0.13396813 -0.013443803 -0.24271193 -0.4637684 -0.04072523 0.0021250637 0.16927862 -0.23294349 -0.02865457 -0.10898103 -0.037824485 -0.03539883 -0.022012966 0.28825322 -0.064075194 -0.16244996 -0.18950842 0.21529528 0.049686115 0.030320477 -0.03863843 0.085723795 -0.07250408 -0.24889554 0.15025936 0.15875626 0.18346985 -0.044219118 0.1761624 0.085496515 0.10637844 -0.00046261947 -0.4808238 -0.5152547 0.2612514 -0.08596848 0.10203811 0.18627127 0.18961632 0.021872027 0.35879102 -0.08974255 0.14461635 -0.2851863 -0.086781666 0.021502076 0.05581305 -0.06490653 -0.3749722 0.08425049 -0.14281647 -0.33958673 0.13513498 0.09979582 0.20205678 -0.27950495 -0.23519897 -0.06465138 -0.5889226 -0.007804532 0.05291714 0.23557562 -0.18835936 0.2934403 0.11864521 0.17548008 0.016148767 -0.128774 0.0774453 -0.028895972 -0.12842135 -0.08954201 0.061590064 0.3435929 0.25113577 0.06581216 0.14561605 0.055658028 0.2307849 -0.017994514 0.060835015 0.15985866 0.16184688 0.53024286 0.23140828 0.032697532 0.04682538 -0.04103954 -0.10869481 -0.1199801 -0.010490176 -0.1881049 0.11006317 -0.10547375 0.027908407 -0.0021115602 0.060669288 0.12587453 0.112926364 0.26191574 0.1001925 0.12711683 -0.052906275 0.073375694 0.1407345 0.064948626 0.26530594 -0.17892043 -0.12822427 0.35031146 0.22089446 -0.24501905 0.26463214 0.07187637 0.38097456 0.07673114 -0.12748201 0.1848967 0.17356046
5345 -0.24203168 0.26210338 0.044349916 0.2669216 -0.15397456 -0.21353593 -0.39585572 -0.14299907 -0.1380127 0.0030373472 0.021188507 0.047091708 0.12700196 -0.03378953 -0.3082873 0.43652838 0.10219145 -0.3172388 0.040200744 0.2847734 0.2008388 0.40412825 -0.32035366 0.014677655 0.055682864 -0.07952112 -0.18133616 0.31515464 0.0137100415 0.14599547 0.040906217 -0.010089847 -0.0010241464 0.0768746 -0.1597235 0.37570822 -0.025483867 -0.2282931 -0.21616396 -0.2767837 0.15587978 0.06315542 0.0880933 -0.28660214 0.10811819 -0.046826284 -0.1299378 -0.10871069 -0.18625964 0.15887718 -0.015384476 -0.27550456 -0.10189548 -0.0016548032 -0.059681404 -0.18559867 -0.22362098 0.10820482 -0.31789267 -0.3128823 -0.34254956 -0.0038310352 -0.1562255 0.038742952 -0.18253066 0.0698141 -0.08685446 0.0070282225 0.41588953 0.3325186 0.2530456 -0.033622295 0.27613568 -0.07086898 0.14342715 0.035456657 -0.09120988 -0.5177242 -0.09462844 -0.01821323 -0.02383826 0.192908 0.33865264 0.12839507 0.0497713 0.011456198 -0.0154742105 0.01203104 0.14401801 -0.09347002 -0.050877526 -0.13265322 0.17109263 0.25388297 -0.2247124 0.07889629 -0.10857465 -0.05915124 -0.08084119 0.15972587 -0.059839536 -0.26778436 -0.07882293 0.0780995 0.033758104 -0.21538973 0.25204715 0.04050948 0.07289911 -0.10940256 0.28643897 0.14214467 0.016871028 0.070786454 -0.2022341 -0.21939944 -0.11045401 0.17283778 -0.1531282 0.2768267 0.11856427 0.095413014 0.13428415 0.246851 0.0026911122 0.29102504 0.08004262 0.1296353
5703 -0.18716477 -0.037599545 -0.18885556 0.26074964 0.061110478 -0.11729262 0.23629633 0.050036844 -0.015070456 0.18476707 -0.26850572 -0.3451249 0.1762009 -0.07050623 0.06772723 0.26462334 -0.10921108 0.13018727 0.089885175 -0.035621077 -0.18916468 0.00029596582 -0.32323915 0.18715392 -0.15827018 -0.0765267 -0.022435524 -0.024408419 0.25735807 0.31973815 0.16945037 0.11224277 -0.079140924 -0.16129923 -0.17508481 0.12908696 0.13090605 0.048008185 0.17356727 -0.41361547 -0.012379486 -0.29855227 0.116525315 -0.065550305 0.12304177 0.22914743 -0.407085 0.08433101 -0.16177693 -0.37728083 -0.03409325 -0.21143392 -0.15979797 0.010004283 -0.06421039 -0.120727055 -0.058367837 -0.036739253 -0.34620216 0.12071347 0.09903155 0.014090084 0.025188372 0.20670137 -0.1107796 -0.18217489 0.25491315 -0.040899668 0.15933256 -0.11823363 -0.41742706 -0.07075642 -0.37016857 0.0050533805 0.18749475 0.047763996 -0.35299462 -0.029916419 0.071480244 0.24373326 -0.09036683 0.1534279 -0.016958414 0.26728156 0.040239457 0.029678829 -0.12765875 -0.07962491 0.34026784 0.2588073 -0.0032679988 0.029066755 0.50809866 0.2515947 -0.12193612 0.10595029 -0.040569577 0.24075058 -0.2210399 -0.48430353 -0.20860454 -0.01722708 0.0731776 0.1654593 -0.17636678 -0.062064294 -0.14416346 0.12642696 -0.25340754 0.19647227 -0.0043157456 -0.25648993 -0.13254842 0.13153757 0.24703199 -0.15039453 -0.18435669 0.3863018 0.04567581 0.44726038 0.2207962 -0.027217047 -0.47068056 0.061880995 -0.14465837 0.18643178 0.09310517 -0.052505217
3348 -0.18061039 0.08755264 0.12971875 -0.08319101 0.13087979 -0.1345417 -0.11289298 -0.20680374 0.007527548 0.103500545 -0.014213127 -0.27798006 0.056077648 -0.011942943 0.1382039 0.12147157 0.1248777 -0.16524006 -0.0013741624 -0.096369505 -0.05097821 -0.07882833 0.0008111408 0.19145738 -0.16528928 -0.039899345 -0.059943482 0.1607579 0.13234742 0.20187303 -0.031967115 -0.005900042 -0.055664897 0.15072492 0.02306944 0.0051892297 0.085582264 -0.06086565 0.009975597 -0.2584818 0.029742781 -0.14414898 -0.0035513577 -0.025451984 0.16707636 0.14824441 -0.033203784 0.2494291 0.029275427 -0.03390885 0.14893797 -0.14992584 -0.015361035 -0.09578235 0.14209424 0.06571199 -0.034419097 0.18223917 0.082952194 0.042878687 0.22520593 0.0937363 -0.011595815 0.036116205 0.14534754 -0.0035291698 -0.08949632 -0.38621557 0.11895356 -0.08760499 -0.2692131 -0.15266065 -0.11910302 -0.11237253 0.2773926 -0.15112711 0.07737416 -0.012087549 0.13387103 0.16610996 -0.0076877153 -0.012088382 0.10184197 0.15184353 -0.024012372 0.13983805 0.103392765 0.1605531 0.12439986 -0.07977593 0.033940867 -0.18922529 0.19237766 0.12367923 0.0019055381 0.101747446 -0.1549569 0.109974705 -0.13360426 -0.08206301 0.09367304 0.05945905 0.008112245 0.29313803 -0.08439789 -0.11285851 -0.07495577 0.032242738 -0.15160917 0.1307294 0.10482284 0.07272852 -0.21889336 -0.11026357 0.09105854 0.06749642 -0.08346963 0.21809594 0.14787118 0.32049158 0.012851015 -0.0819408 0.00874984 0.1119678 -0.06889371 0.24823307 0.13953218 0.18222536
4572 0.09710558 0.052008715 0.06898665 0.19775444 0.43741143 0.2633836 0.021735884 0.18681502 0.2703798 0.1756162 -0.033122517 -0.1737863 0.026367227 -0.19986275 -0.10762817 0.04889548 0.47502428 0.3578689 0.11775054 -0.21227442 -0.13125637 -0.12073426 -0.043509703 -0.0074955486 -0.24623854 0.055008046 0.23371528 -0.2000405 0.163223 0.0824694 0.07840184 -0.40958992 0.09023838 -0.36323744 0.10761373 0.3097766 -0.031848773 -0.2701573 0.091104664 -0.20066793 -0.106523864 -0.13415304 -0.44908798 -0.18335085 -0.012500263 0.03552364 -0.15343584 0.11624512 -0.1802194 0.22959825 0.3385991 -0.060999777 -0.22673512 -0.19412261 0.043350182 0.06570601 -0.14277297 -0.24198966 0.33824497 -0.16754895 -0.2717366 -0.0979082 0.13891618 0.10907208 -0.096623085 0.15068999 -0.13366675 -0.22913277 -0.054965004 -0.15569097 0.024643464 0.14754672 -0.33811378 0.15731725 0.28009236 -0.25412944 -0.20589025 0.36846265 0.11450362 0.20502008 0.112481885 -0.0044414136 0.45814463 -0.2104406 -0.06745047 -0.016692773 -0.23513715 -0.085651696 -0.108967915 0.13612689 -0.08320043 -0.15753904 0.07274377 0.17139155 0.08706124 0.22874196 -0.14937395 0.23735651 0.14906691 0.24947557 -0.14504974 -0.23824033 -0.024487864 0.06743898 0.10579098 -0.24680565 0.07272178 -0.27500886 -0.021074422 -0.07259537 -0.32669523 0.29182932 0.05916695 -0.12916906 -0.21865894 -0.09613148 -0.05238849 -0.18920171 0.14471403 -0.11031377 0.02929506 -0.2022684 -0.14591575 0.1340401 0.11935186 0.3843303 0.16871297 -0.0674282
3872 -0.11903648 -0.137715 0.25864235 -0.010252235 0.45191273 -0.32894304 0.09242763 -0.045793224 -0.0285979 -0.051235057 -0.17559534 -0.22681452 -0.10257105 -0.25963858 0.007871879 -0.120493814 0.10147458 0.01520109 -0.17395958 -0.001621067 0.1425769 -0.31728864 -0.07151824 0.016781494 -0.090098 -0.03644657 0.10913895 0.021848781 0.25081417 -0.03249796 -0.1119879 0.32880622 -0.00036485816 -0.09594112 -0.29180592 0.05436276 0.07877719 -0.11743964 0.2097704 -0.20007315 0.13128687 0.14312597 0.058823485 -0.20410387 0.15706833 0.14814603 -0.06581185 -0.15977807 -0.043487664 -0.1941808 0.28866652 -0.18420427 -0.04918517 -0.21812461 0.06214927 -0.38943142 -0.17429766 -0.18172789 -0.029084858 0.20010708 -0.41148764 0.32329914 -0.30238688 -0.066704325 -0.094472 -0.13493875 0.09833084 -0.35232794 0.03742248 -0.21034227 -0.4781191 -0.045514185 0.17537606 0.14237635 0.40742823 0.11745944 0.17950878 -0.02472086 -0.014149545 0.17801273 0.22109771 -0.25613514 -0.002434365 0.20223899 -0.16153926 0.1285453 0.36071795 0.06848178 -0.071638145 -0.21026091 -0.030109834 -0.036576506 0.49831218 0.17978984 -0.1246516 -0.2665817 -0.044533905 0.0501064 -0.1824822 -0.034263548 -0.4382946 0.2586354 -0.11793791 0.2768354 0.24748462 0.22544307 -0.2615765 -0.24563746 -0.09100867 -0.20370737 -0.04294938 -0.0060422895 -0.23635139 0.20279565 0.11016701 0.046326306 0.035622533 -0.15432699 0.15401582 0.10426411 0.30084237 -0.3316035 0.10391983 -0.050456695 -0.006704632 0.17895167 0.23734193 0.3181015
5390 -0.29396927 -0.1209213 -0.17158754 0.27706376 -0.06199499 -0.20747116 -0.19774367 -0.27042457 0.05907414 0.09137075 -0.030413494 0.1398422 0.0848158 0.08977207 -0.16886023 -0.038972657 0.10828911 -0.11991091 0.010540815 0.11969767 -0.021968279 -0.11926564 0.110222794 -0.18423337 0.25294226 -0.2154829 -0.043251663 0.0333951 0.3684087 0.17471859 -0.08976004 0.028928261 -0.22284569 -0.18755847 -0.43761566 0.24911748 0.075741366 -0.37017193 -0.14888015 -0.48482236 -0.19902933 0.23050426 -0.024005193 0.11985705 0.08523063 0.267261 0.089430444 0.21534504 -0.07429781 0.11909275 -0.03744248 0.0017088308 0.10386644 -0.09540466 -0.23653539 0.070612706 0.3397961 -0.19003907 0.005393076 -0.042355023 0.07850898 0.17763454 0.24400243 0.26988912 0.23688598 -0.25382125 -0.456025 -0.20937867 0.4597374 -0.24882177 0.054087613 0.056163017 -0.15776019 -0.095133886 0.4275372 0.12876004 -0.07747513 -0.13636236 -0.14095047 -0.07597703 0.0030279465 0.12681156 0.07459195 0.13549376 0.115797326 0.07284448 0.00028032268 0.13422033 0.25759107 0.103884436 0.30382687 -0.2071012 0.2851148 0.07605497 0.18081193 0.25558686 -0.029352836 0.015737362 -0.2349231 -0.3003771 -0.2361554 0.11748832 0.17627096 -0.036492065 0.35559377 0.16264725 -0.20281805 -0.028138671 -0.06846247 0.12165919 -0.11558885 0.20900998 -0.20165908 0.059487898 -0.018940926 -0.06350926 0.049309056 -0.2894291 0.02434644 0.022841435 -0.27348667 0.03571346 0.19622123 0.04854733 -0.06976289 0.26837817 0.08652736 0.14301373
496 -0.06686489 0.074996136 0.096964255 0.07421397 0.00908763 -0.052355234 0.08606711 0.45549488 -0.1405751 -0.18922669 -0.035969265 0.17865694 -0.24744043 -0.06276353 0.24123234 0.111018576 -0.02677788 -0.13255358 -0.027555425 -0.083953895 -0.23508538 0.16743408 0.052681543 -0.19897518 0.015233954 -0.17465006 0.19763546 0.51049066 -0.018520758 0.025021253 0.24942586 -0.07342471 -0.21890204 0.18863177 -0.04354262 0.019386638 -0.010491238 -0.2767864 -0.25195193 -0.44256783 0.038357235 0.08801136 -0.21689194 -0.26236328 0.13624357 0.28812784 -0.21640415 0.051037118 -0.022567071 -0.09052976 0.008324949 -0.24551575 0.22093737 -0.1971906 0.12461494 -0.04596612 -0.087153345 -0.15867938 0.0033028005 0.20334156 -0.3020804 -0.101512626 -0.09115141 -0.19351824 0.27611855 0.0067427047 -0.08187436 -0.15150988 -0.08720781 0.22056131 -0.16812642 0.03704926 0.18656029 -0.085871905 -0.11550573 0.12313397 -0.13044734 0.4071851 -0.112404615 0.18835863 -0.06125187 0.17959121 0.08450653 0.12832497 0.21595652 0.12900288 0.116414435 0.15150549 0.010314812 0.046280444 0.21397685 0.30213967 0.5493194 0.0063562696 -0.02711018 0.1546265 -0.21634603 0.066595696 0.063962854 -0.028124807 -0.12971589 0.055776358 0.019185452 0.2584319 0.12977965 0.1798989 0.007826673 0.09721291 -0.2685696 0.1673919 -0.008510515 0.07606296 -0.4211468 0.06111079 0.09105606 0.06936261 -0.11277813 -0.18344498 -0.3559442 -0.2996984 0.07938808 -0.11994004 -0.114039004 -0.02135169 -0.104595795 -0.039426748 0.10541282 -0.10646785
4713 -0.4762436 -0.032664254 -0.013907097 0.030970313 0.07936581 -0.16476177 -0.25181317 -0.1882374 0.3501015 -0.013436893 0.079522796 0.008775396 -0.044111803 0.18682635 -0.19771788 -0.0963682 -0.20123298 0.0131089 -0.21193978 0.29190972 -0.55641866 0.3134874 0.058548156 0.31676957 -0.15952952 -0.49971142 0.16421622 0.19857419 0.18640958 -0.3510884 0.09843003 -0.197493 -0.2894845 0.2430425 0.06832112 -0.312531 0.17604887 -0.11524502 0.10364879 -0.083421655 -0.17709091 0.10624912 0.14595947 -0.12262836 0.3151335 -0.0919627 0.010684199 -0.12140934 -0.5693707 -0.1294969 0.20540631 -0.3659489 -0.042539153 -0.06411721 -0.025205795 -0.083296224 -0.15398835 0.09058502 -0.19078271 0.008116498 -0.29045406 -0.011835571 0.0134493895 0.2710577 -0.1509411 -0.29077455 -0.49514344 -0.36236402 -0.19844863 -0.28801176 0.23937069 0.34642455 -0.18556404 0.25293362 0.32443509 -0.073663175 -0.26765034 0.24967651 -0.36585635 0.233936 0.011098382 -0.082949944 -0.25145993 0.031869054 -0.04263969 -0.022346389 0.04604215 0.04784693 -0.2205213 0.09558023 -0.18653718 -0.049875803 0.23720266 0.17984329 -0.02786296 0.27524576 0.29072702 -0.051277485 -0.16759534 0.034655325 -0.033058614 -0.005338671 0.024513615 0.040567517 0.13120219 0.22266679 -0.10160351 -0.02141581 -0.09829324 0.0030285507 -0.09212018 -0.1274603 -0.43401873 0.086081445 0.107799515 -0.08271495 -0.14267994 -0.000107924716 -0.056496907 0.16263807 -0.091980405 0.024772217 -0.106256895 0.11659961 -0.25445908 0.22576179 0.16816442 0.32966763
3123 -0.18262465 0.062032685 0.027732043 0.08245132 0.16690524 0.20775235 -0.023458911 0.032838546 0.082529016 -0.061063077 -0.030427957 -0.19180572 0.014676413 -0.20907699 -0.11555467 0.33119884 0.3052707 -0.12156933 -0.0663219 0.028009294 -0.17001821 -0.10329948 0.18432008 -0.22472917 -0.14897732 -0.46112263 -0.044825602 -0.2505363 -0.21513125 0.23191936 0.34021688 -0.14994957 0.33245125 0.065275475 -0.20468704 -0.009374322 -0.19084066 -0.060756266 0.006975732 -0.5737355 -0.050732065 -0.17089948 -0.3902723 0.025801672 0.05602797 0.26655942 -0.08417255 0.11510055 -0.14254287 -0.080664776 0.22363706 0.052597597 -0.34987855 0.01703132 0.3654784 0.05701424 0.06663065 -0.35813746 0.39675725 0.13211574 -0.40211633 -0.2441185 0.06148892 -0.18456915 0.03714788 -0.393801 0.07989026 -0.2844805 0.30877128 0.2542024 0.2683138 0.07892954 -0.1892113 -0.22362943 0.12100774 -0.094615325 0.15206754 -0.32413247 0.22872873 0.29557794 -0.23909165 -0.4377147 -0.022122117 0.15112793 0.18241641 -0.11456728 0.08439109 -0.45472175 0.06130092 0.010488717 0.06200483 0.30187038 0.11498716 0.03850111 0.24051864 0.062336072 -0.0010509953 -0.27690238 -0.11722843 0.030052025 0.09266714 -0.0881728 0.24913134 -0.15672614 -0.046919532 0.08372972 -0.14463313 0.12357973 -0.13659798 0.06363523 -0.11192102 0.046681013 0.0006349467 0.5254306 0.081698135 0.14045241 -0.03408997 0.16568553 -0.25184214 -0.12497237 0.012569527 -0.2789617 0.15481028 0.2229894 -0.16962852 0.38330585 0.024381906 -0.10058681
593 -0.19728856 0.10706903 0.00014831484 0.21091418 0.2237057 -0.12543014 -0.18651915 -0.11621209 0.10933055 -0.14164229 -0.07156537 -0.12539175 0.19109973 0.18771619 -0.042814754 0.27039823 0.020545581 -0.08475599 -0.17262095 0.036854804 0.08075518 0.032990098 -0.089573644 -0.030354526 -0.03905598 -0.0038367072 -0.027113458 -0.22634512 0.15808284 -0.0493536 -0.00019145253 -0.0032324987 -0.060595687 0.1955083 -0.09191042 -0.13487297 0.01498715 -0.001139336 -0.12843817 -0.26725334 0.10690791 -0.08872266 -0.12533958 -0.14953025 -0.0319009 0.08544578 -0.18206468 0.29447547 0.02546442 0.19240348 0.14026107 -0.201203 -0.33835545 -0.12247497 -0.08081976 0.08851439 -0.13604291 0.22773743 0.045117583 -0.15944196 -0.20061576 -0.24764992 0.026750026 0.0068575596 0.012347475 0.23235697 0.14070763 -0.18817675 0.2781934 -0.0009524434 -0.20725341 0.14801462 -0.14621672 0.003647691 -0.06738136 0.12333575 -0.07143389 -0.09408549 -0.025226211 -0.11562818 0.09783246 0.25229296 0.12264864 -0.041098867 0.06195634 -0.21926306 -0.053774923 0.06366296 -0.021851856 -0.07239278 0.2942839 -0.12587696 0.21560983 0.18235916 0.032067705 0.1573572 0.2099207 0.118407205 -0.2518047 0.20444503 -0.09001802 0.020718554 -0.026782593 0.21301459 -0.011106821 0.036694642 -0.09993195 -0.10162109 -0.3652616 0.12530266 -0.11679375 -0.09646803 0.16308893 0.018388754 -0.08741801 0.083705194 -0.07096453 -0.09873707 -0.16890436 0.064536475 -0.0050610523 -0.0935764 0.04433799 -0.07686198 0.032544713 0.08351003 -0.037878886 0.392652
1315 -0.4000272 0.10836772 -0.27803206 0.20101148 0.27621382 -0.0277943 0.061890986 -0.10283428 0.21553919 -0.17963772 0.12670198 -0.21533526 0.056264974 -0.1616361 -0.07134695 0.1933405 -0.06665167 -0.09413566 -0.13039954 0.1390317 0.1400795 0.027239544 0.10446657 0.20939185 0.026088128 0.06728482 -0.12356145 -0.0537314 -0.13288517 0.096227095 0.2150862 0.2108933 -0.0035215875 -0.16533308 -0.16264506 -0.0355712 -0.17487176 -0.34276178 0.114845194 -0.21013941 -0.13975602 0.03205983 -0.14603831 0.09874239 0.1452918 0.087726206 -0.0062394594 0.19711278 -0.18650353 -0.27652717 0.1822685 0.08613864 0.09868284 -0.1254477 0.1662467 0.12491135 -0.06615818 -0.04007664 0.22611289 0.20023826 -0.09854163 -0.008691581 0.09054792 -0.12320817 0.14923427 -0.26385623 0.00039103747 0.120975465 0.32003996 -0.083190925 0.13934599 0.15423809 0.04923887 -0.035458036 0.16190574 -0.12110813 -0.031469557 -0.15874155 0.09110597 -0.04148121 -0.07096821 -0.10367463 -0.07910556 0.031024368 0.35774806 -0.16626893 -0.21624209 -0.06615051 0.3352525 -0.16811045 0.11403145 -0.07560807 0.035572294 0.110203445 0.04278954 -0.026579604 -0.10389693 0.27484578 0.16343872 -0.1010085 -0.2187371 0.14083575 0.21819443 -0.08061231 0.31342304 0.08360057 -0.1569008 0.1576049 0.16055733 -0.37320957 0.22892848 0.22114576 -0.09760247 0.18262075 -0.048779126 -0.022477355 -0.20915872 -0.044990785 0.14075914 -0.031811744 0.16951065 0.115381524 -0.18728834 0.0412065 -0.12536703 0.08922143 0.034033444 0.28624725
4812 0.013166184 0.23498279 0.0335598 -0.031075485 0.06675494 -0.12725905 -0.21992294 0.043966338 -0.08107436 0.09245148 -0.1336346 0.015997231 -0.12049505 0.06811714 -0.028502082 0.12781937 0.046550076 -0.14119188 -0.11536505 -0.0059089684 -0.14783204 0.10795567 0.053381506 -0.341652 -0.0026494793 -2.1273818e-05 0.051769804 0.077403195 0.017871894 -0.18419462 -0.00015225683 -0.068365626 -0.4987209 -0.22524343 -0.10813736 -0.1411346 0.27191034 0.042567138 0.02006916 -0.34918505 -0.08931349 -0.17959076 0.06409446 -0.070316136 0.108632915 -0.028965423 -0.25506997 -0.14448377 -0.22364496 0.15546957 0.13740805 0.07843775 0.048054606 0.0053399517 -0.04222332 -0.022287372 0.1584379 -0.18843928 -0.15391402 0.043919504 -0.34993264 0.0879052 0.10339454 0.09212933 0.20680419 0.010806138 -0.0062467908 0.08117976 0.09226798 -0.019428868 -0.18373454 0.0927389 0.017693434 -0.18902409 0.3138157 0.15773265 -0.20584229 0.43384254 -0.14630996 0.037243925 0.17839026 -0.17893058 0.05871525 0.065287955 0.21643792 0.18871504 0.2528011 -0.025555404 -0.12583235 0.022149215 -0.011765669 0.16874033 0.24910256 0.09498621 -0.037802868 0.004680893 0.06735258 0.056199793 0.1523648 -0.38842803 -0.1899289 -0.019296367 0.102645755 -0.031219421 0.06660446 -0.06680344 0.23351525 -0.06031512 0.08750507 0.04088383 -0.16041504 0.42500892 -0.25287268 0.033916127 0.0035989075 0.27295148 -0.046317883 -0.0099918 0.05009069 0.16578092 0.17988057 -0.09295969 0.18700133 -0.25831315 -0.023409888 0.2783366 -0.17026588 0.19096446
5757 -0.03273514 0.079491585 -0.20279947 0.07237284 -0.048052266 -0.116082154 -0.14149185 0.03307438 -0.08313641 -0.14486209 -0.35279077 -0.17197989 -0.044351578 0.1972695 0.085457034 0.0487492 -0.08795217 -0.08095917 -0.15440762 0.10045103 0.13548143 -0.05733779 -0.08077111 -0.22561668 -0.14635722 -0.1823826 0.1211383 0.054651696 -0.23786491 -0.05297209 0.059843484 0.057112306 -0.034035895 0.07733111 -0.08596348 -0.209792 0.12913297 0.124235705 0.24653973 -0.045895293 0.062733084 -0.14239901 -0.24531795 0.11752682 0.19774278 0.02929045 0.04580599 0.4635476 -0.1128444 0.13385987 0.1680364 -0.11812117 0.15935992 0.2426965 0.33189997 -0.0068765725 0.25766805 -0.20934166 -0.16471756 0.13378246 -0.006334987 -0.15522246 0.29783756 0.062424015 -0.038826082 -0.0028650071 -0.08577117 -0.15371183 0.040020846 -0.011440629 0.1434663 -0.16925997 -0.34148422 0.022341577 0.3825532 0.20170207 -0.39268932 0.29302138 -0.1771907 0.11581125 -0.15163971 0.38082114 0.34714726 -0.19680175 0.012218958 0.031413935 0.16871028 -0.0035943454 0.17300473 -0.11601724 0.14049108 0.10174634 0.26604447 0.044948965 -0.015018856 -0.18708225 0.06695086 0.25419486 0.051509794 -0.1958 -0.37343395 -0.11695217 -0.2417074 0.009792283 -0.09754986 0.09381557 0.005796144 0.12026691 -0.00694506 -0.26170805 0.2268869 0.10981452 -0.22914076 -0.041488033 0.031145964 -0.06832207 0.12512878 0.06444551 -0.002781273 0.02749277 -0.0068901516 -0.321488 0.16327521 -0.25114095 -0.0013199938 0.24492608 0.19340807 0.07125922
6136 -0.100413516 -0.041327324 -0.03240262 0.18666941 0.15291148 -0.23160103 -0.101726 -0.2808111 0.30512285 0.16497453 -0.0140724825 0.068002805 0.07825569 -0.5098728 0.0700382 0.0845004 0.12454444 0.101045296 0.053916015 0.14248063 0.2697885 0.20377223 0.23598883 -0.28587335 0.06444144 0.09323977 -0.007192927 0.13421372 0.18085307 0.13140702 -0.09933898 -0.08233063 -0.17774941 -0.19633561 0.1815966 -0.27192593 0.19713412 0.065881304 -0.26793033 -0.59358346 -0.106827825 -0.14120921 -0.06974975 0.2582697 -0.053377345 0.058924053 -0.04127369 -0.1559919 0.13943963 0.025479067 0.113246866 -0.08269406 -0.12412597 -0.28750128 -0.087045446 -0.13073355 0.109696686 0.017889619 -0.26662162 0.15491422 -0.27626523 0.16159463 0.03219843 0.12903985 0.07201407 0.035754282 -0.35892105 -0.10568226 0.09920572 0.11421812 0.13898812 0.18625702 -0.18339697 0.10996362 0.4729383 0.026026046 -0.0023526764 0.018255327 -0.09719266 -0.08453424 -0.319174 0.31205574 0.3156882 0.307064 0.2784372 0.22065331 0.39195704 0.01465426 0.08530221 -0.09891389 0.35288918 0.20509352 0.22609209 -0.19122554 0.14755142 0.20411941 0.077594526 0.14440642 0.040457714 0.030393194 0.0019657104 -0.0025276928 -0.20776439 0.041653723 0.18192485 -0.031171072 0.15978917 0.030528845 0.124072105 -0.010952269 -0.31531882 -0.004554808 -0.2775577 0.16317032 -0.29791397 0.06248313 -0.14505737 -0.075349554 0.20465447 0.13733058 0.094585374 0.12923884 -0.08782622 -0.10163029 -0.35013208 0.2362526 0.25450286 0.17916447
2053 -0.43322077 0.023632994 -0.35637802 0.17969313 0.09630123 -0.07336155 -0.46705243 -0.274465 0.06293212 0.056239087 -0.046241734 -0.03836918 -0.01784807 0.073002584 -0.3916004 -0.033575147 -0.18463507 0.07968636 0.28217417 0.18113111 -0.12378495 0.14128655 0.10193835 0.032028273 0.03512335 -0.41029754 -0.15598616 -0.0045843907 0.040157396 -0.07618825 -0.30212954 -0.16685997 -0.01283252 -0.34526882 -0.044951312 -0.11599296 -0.091345415 -0.29590467 -0.20773141 -0.35298255 -0.20428424 0.25289145 0.2662754 -0.0073094275 0.08172247 0.041398965 -0.05499916 0.15044375 -0.1483873 0.16243783 -0.0024435984 0.18450375 0.037149817 -0.31068513 0.027454728 -0.19441295 0.0009931043 0.054950476 -0.17846325 0.040481307 -0.13690676 0.30626404 0.29955423 0.34817857 0.07794398 -0.06925253 -0.3396191 -0.57430655 0.25378415 -0.347744 -0.09603336 -0.06114607 0.120697014 -0.06670139 0.3425618 0.019098371 -0.2322996 -0.19714162 -0.14587235 0.28837168 0.22535625 0.20871474 -0.011107611 0.21585965 0.26953202 -0.010622145 0.22985297 0.08927386 0.21344954 0.27264395 0.17577028 -0.041704554 0.4112189 0.15799025 0.21105264 0.18906978 -0.048109178 -0.08030898 -0.010548827 -0.11253421 0.079045676 0.12198852 -0.13246785 0.17858271 0.28734407 0.03419738 -0.028231012 0.06426672 -0.11530145 0.070799306 -0.10719883 0.36009648 -0.31640524 0.17923807 0.06542516 -0.22882853 0.022435687 -0.009261213 -0.13165236 0.37986627 -0.23625802 0.1597483 0.096933715 0.02503894 -0.17329471 0.25775522 0.11773946 0.27457792
1674 -0.15092415 -0.31104347 -0.2401879 0.17647532 0.13935956 0.0030755026 -0.4655948 -0.14165124 -0.14622399 0.13410981 0.0026667507 0.20467706 -0.24643765 0.3280043 -0.027283402 0.3456426 0.05386907 0.13655621 -0.14007728 0.12006395 -0.10664494 0.18930948 -0.06795079 -0.15668769 -0.06777309 -0.04495255 0.13344222 0.03954975 0.4592464 0.116280384 -0.0378884 0.018549642 -0.15761806 0.015759462 0.13509217 -0.019957408 0.26555118 -0.088537626 -0.31235537 -0.44085684 -0.29675785 -0.08161771 0.36069894 0.19296275 -0.08642489 0.2163096 0.19311422 0.09918617 0.08732151 0.12903629 0.08572269 0.122305274 -0.18949273 0.18320335 0.05254332 0.13704911 -0.043307185 -0.05797293 0.067884706 0.058941893 -0.28652403 -0.4494752 -0.050114308 -0.020402193 -0.14071748 -0.17152174 -0.10296738 -0.2568639 0.11541955 -0.40682244 -0.19889879 0.5569872 -0.22151926 0.034985058 0.048657518 0.11594783 -0.2074154 -0.15143105 0.21472117 -0.1081355 -0.05431243 0.45208317 0.13201596 0.09145473 -0.28361902 0.43712014 -0.16786733 0.21803962 -0.32977274 -0.11072531 0.054655973 -0.07949499 -0.1115378 0.13639615 -0.49774703 -0.03913285 -0.3811871 0.1917814 -0.0713584 -0.34873426 -0.16767707 -0.053093266 0.20009325 0.42635608 0.31017292 -0.0429452 0.29549626 -0.17992048 0.19816111 -0.13460656 0.04139712 0.123505294 -0.354677 0.33991647 -0.32015234 0.11955294 0.041078933 0.0029382599 0.105112866 -0.118242554 -0.084242366 -0.34078097 -0.12168001 -0.021249486 -0.20880032 0.16374445 0.21474959 -0.13626869
6109 -0.17910811 0.023540962 -0.0011588883 0.07433816 0.39088646 -0.18791896 -0.14282724 -0.084831744 -0.26254702 -0.026609253 0.18668 0.15748823 0.13871476 0.09464372 -0.1727948 0.01394808 0.3181171 0.04786144 -0.008098287 0.050300505 -0.13222314 0.19307347 -0.091967665 0.019548845 0.29864395 -0.0950292 -0.074776 0.25019354 0.2562596 0.17692885 -0.03290094 -0.1543037 0.08105432 0.064985566 -0.28409004 -0.2174108 -0.14689301 -0.2029571 -0.060600135 -0.23507793 0.09164264 0.07796077 0.020226438 0.036597066 -0.07351989 0.099714436 -0.036680255 0.1857048 0.008425812 -0.16794828 -0.01751854 -0.029756192 0.049269322 0.20149659 -0.062561855 -0.050300796 -0.24110009 -0.21183714 -0.10541046 -0.11826595 -0.17480566 0.023634778 0.014106512 -0.08936378 0.061541025 -0.19151257 0.038361527 -0.101695836 0.2462767 0.043647565 0.018875172 0.2747511 -0.17988946 0.10202569 -0.1052802 0.17157497 -0.08966843 -0.26499718 0.19802168 0.0695738 -0.06410936 -0.19126734 0.2950484 0.13126768 0.13085249 -0.060106374 0.054963265 0.13029836 0.34754404 0.07029632 0.2770387 -0.22210245 0.21070132 0.016862145 -0.04126418 0.31249064 0.09824303 -0.03544054 0.06602637 -0.10296667 -0.011645923 -0.18498826 0.12165991 0.106368236 -0.024886448 0.01614574 0.09258931 -0.040066034 -0.06907699 0.06325684 0.009626 0.120908536 4.602704e-05 -0.12168903 0.15929398 -0.045203913 -0.08799684 -0.13283901 0.07703913 0.36754453 -0.14814809 -0.04585478 0.12856218 -0.0022495596 -0.06325478 0.19089146 0.079039685 0.3625322
3683 -0.056557156 -0.16216406 0.007104141 0.05351882 0.25445214 -0.18162867 -0.13685815 -0.23781279 0.027126644 -0.08578944 -0.2900606 -0.43724158 0.009672329 0.124423705 -0.065442555 0.017196042 -0.14479317 0.0041284175 -0.09432877 -0.19251971 -0.17379925 0.13633586 -0.18901671 -0.17763025 -0.044340335 0.07691212 0.02248321 0.024058137 0.11245272 0.06451571 0.0196341 0.22406588 0.024789302 0.11218929 0.0018400212 0.013005847 0.09213617 0.0037118786 0.08128538 -0.32270142 0.055323627 -0.34442526 -0.18809703 0.01637251 0.26883966 0.03792428 -0.058639675 0.212928 0.05381632 -0.03228821 0.0718095 -0.1780621 0.0020978602 -0.1293636 0.019538475 -0.14372747 -0.0331874 0.1741057 -0.083744444 -0.18284418 0.019299114 0.21632878 0.0989807 0.13825284 0.18900242 -0.15775992 0.026119124 -0.115219906 0.033609696 0.032241948 -0.122302026 0.061577316 -0.18010561 0.03734383 0.14046277 -0.0952825 0.03460586 -0.07837711 0.055870272 0.15807426 0.19105114 0.08796513 -0.12691389 -0.053720504 -0.079483934 -0.019821897 0.16475433 0.13878474 -0.006067653 -0.14783642 0.0042480966 -0.20159692 0.16603796 0.09616484 0.116416864 0.11945069 -0.2498828 0.08695983 -0.17765687 0.15475874 -0.0069041336 0.0007202666 0.04779913 0.04428822 0.083858185 0.15684678 -0.22975102 -0.08485932 -0.0024101292 -0.07473837 0.1799805 0.22033814 0.004890003 0.062375624 0.003461647 0.07664558 -0.19553673 0.20277897 -0.035013698 -0.053003024 0.18533261 -0.27276763 0.11377247 0.064447045 0.019144138 0.07081812 0.22036421 0.13523734
5785 -0.29922906 -0.03319876 0.10033082 -0.010131201 0.11970828 -0.050037485 -0.0077639907 -0.103024915 0.1200393 0.15918283 0.28219903 0.048334464 0.18702146 0.071646385 0.007038094 0.28582728 -0.2198512 0.005841371 -0.026428519 -0.10657472 -0.33391452 0.15346296 -0.029843612 -0.065916926 -0.13788871 -0.17443621 0.07840518 0.1492994 -0.10815164 -0.035408083 0.108161055 -0.0013787072 -0.08045086 0.15067273 -0.03728151 -0.2595318 0.08817832 -0.31995043 0.096420705 -0.25741646 -0.024471236 0.10477203 -0.012790473 -0.07491024 -0.14543849 0.1547591 -0.22114344 -0.013608094 -0.010548786 0.07735774 0.14753266 0.15641001 -0.11561416 -0.29865694 -0.088641755 0.13665977 -0.09772075 -0.07155782 -0.19819145 0.15724371 -0.1544784 0.096351266 -0.021437285 -0.16677013 0.1437005 -0.19323719 -0.20480534 -0.111071706 0.26909277 -0.16305827 -0.010239938 0.15591061 0.042364303 -0.12465445 0.4342512 0.09473767 0.14741996 0.0368178 -0.087338075 0.11667651 0.005973178 0.2596291 0.120868936 0.053808797 -0.017552383 0.053487096 -0.17660403 0.03387771 0.05422429 0.06433401 -0.054591287 -0.05308629 -0.044530585 0.27371752 -0.096982636 0.20205677 0.21502359 0.09430365 -0.2941519 0.060969055 0.008675657 -0.11800247 -0.07474322 0.00906334 -0.13049674 0.017263569 -0.05394436 -0.13930847 -0.17726812 0.03653216 0.3608637 0.11740348 -0.22922754 0.019587258 -0.06403348 -0.16279425 0.0014585437 -0.045440335 0.1617849 0.44539896 0.18527071 -0.14483476 -0.46998248 -0.012497655 -0.043495655 0.03230101 0.23151097 0.122117005
1198 -0.20305178 0.3396068 0.17503427 0.54440355 0.14737578 -0.022152701 -0.15182789 0.021753045 -0.3765127 0.014134433 0.097169615 -0.15079156 0.11707383 -0.13653898 0.28237545 -0.027870389 -0.38148132 -0.14454871 -0.41320786 0.33880362 -0.074695885 -0.3003013 -0.2939738 -0.046387784 0.07209532 0.038699772 0.08318401 0.2218586 0.11287812 0.20042273 -0.033042166 -0.19274352 0.043724567 0.033213474 -0.26320258 0.039237976 0.10214294 -0.27257416 -0.15632974 -0.098657295 -0.081002414 -0.0056219 -9.620606e-05 -0.11647188 -0.18053484 0.30286568 -0.36292422 0.25405547 -0.19433337 -0.17210828 -0.057221197 -0.11941585 0.32588622 0.06405598 0.02512941 -0.02170627 -0.13067067 -0.11420316 -0.0067631006 0.15065849 0.0024263994 -0.15667243 0.2786437 0.27473462 0.22789009 0.036081094 -0.18289438 0.13330697 -0.14664273 0.04773202 -0.03106422 0.13832444 -0.0473022 0.22437371 0.1618 -0.09168642 0.064973466 -0.047230046 -0.043764595 0.26045027 -0.0650678 0.5132102 0.12190152 0.19081128 -0.10650985 0.23532698 0.2116909 -0.014392195 -0.0866417 0.0673072 0.029618757 -0.12977487 0.3397198 0.010482812 -0.08566949 -0.027875002 -0.0050471015 -0.289369 -0.17625247 -0.07795083 -0.30168664 -0.0139947375 -0.28696647 -0.140865 -0.16640429 -0.31083626 0.013107346 -0.074433856 0.14854422 -0.034118894 0.028406756 0.1867789 -0.2612041 -0.1807001 -0.03949038 0.01605867 -0.34936824 0.080129646 0.034885783 0.33886626 -0.21114512 -0.15777259 0.24230824 -0.12264715 -0.13881835 0.1649516 0.015989628 0.26236773
4012 -0.1747751 0.24593256 -0.05309142 -0.19554383 0.22423276 0.11346529 -0.21240063 -0.15647578 0.0323564 -0.1399065 -0.04815295 -0.1714188 -0.16592506 -0.34592864 -0.10722383 0.17799906 -0.25511095 0.27577814 0.2866679 0.029884044 -0.031407855 0.07678799 0.3057823 -0.07918916 -0.01475688 0.09934867 0.1071628 -0.07799682 -0.19102739 0.11840223 -0.16933516 0.011399468 0.060928177 0.08304649 -0.19692498 0.0479552 -0.072547644 -0.16148691 0.008211453 -0.20452653 -0.35880503 -0.38139427 -0.02985021 -0.19942817 -0.21754625 -0.099304385 -0.34695312 -0.10533251 -0.2525588 0.09851035 -0.21490599 -0.197615 -0.11592576 -0.16817783 -0.30690217 -0.24476753 -0.14761035 -0.09949487 -0.0094714975 -0.0034541048 -0.03365084 0.0043120002 -0.12122498 -0.28260475 0.13490745 0.05801561 0.07535351 -0.091956384 0.28149477 -0.62331355 -0.112930804 -0.055847257 -0.12654392 0.049860876 0.071024224 -0.090261854 -0.19581184 0.027095199 -0.14009711 0.11147835 -0.14638004 0.34193668 0.2567719 0.01460918 0.41005653 0.27716175 0.18821254 0.50642663 -0.06456121 -0.16317204 0.035572093 -0.08052269 0.29810345 -0.06385979 -0.0069833314 -0.11452495 0.07493912 0.119355366 -0.2602319 0.052526053 -0.17891632 -0.22399417 -0.06884819 0.19014813 -0.10665292 0.2947477 -0.06035423 0.17254522 0.038659155 0.20091294 0.0155508835 0.14547728 0.32730782 0.02763909 -0.31900698 -0.08481038 0.031224882 0.036516085 -0.12010922 0.2764344 -0.27202365 -0.03892251 0.49715853 0.065344796 -0.022784831 -0.008040559 0.04228877 0.49057168
5463 -0.093618765 0.10003289 -0.12216134 0.21931307 0.07737819 -0.10869366 -0.45228592 -0.017796455 -0.06858774 0.13784024 0.20580322 -0.24307144 -0.09913818 -0.18346916 0.07214094 0.31031495 0.070164904 -0.09177343 -0.06779582 -0.029925996 0.12361019 0.3514639 -0.29402584 0.10194829 0.09577517 0.05128481 0.20563996 0.3228543 -0.28457117 -0.31449333 -0.16482444 0.27739254 -0.13877285 -0.046032555 0.044938162 0.08568707 0.2056946 0.2097537 -0.009299169 -0.23788865 0.25294048 -0.051279083 0.12046395 -0.08714738 -0.059176967 -0.07316138 -0.1727353 -0.15033598 -0.14274976 0.075541705 -0.016844254 0.044444606 -0.058103032 -0.30257466 -0.04139071 -0.1939277 -0.20183603 -0.31134835 0.30180046 -0.20264706 -0.14446303 -0.062901676 0.113159254 -0.35844967 0.33576584 -0.15900011 0.2008695 -0.2224931 0.16129151 0.009646944 -0.19861303 0.12872383 0.033899195 -0.161789 0.24329112 -0.030339047 -0.09644596 0.10701388 -0.0073749144 0.05233763 0.2529916 0.14425458 0.2745178 0.1365653 0.059234146 -0.069200836 -0.043472018 -0.08025274 -0.029689545 0.2740751 0.067163326 0.15735137 0.08988311 -0.3409146 -0.118800364 0.04875554 0.24366643 0.2529453 0.5197474 -0.11310285 -0.08888888 -0.11012699 0.16604412 -0.13110305 0.314868 0.22572424 0.2984315 -0.08979498 -0.15947089 0.07000318 0.007442127 -0.13391945 -0.39289182 0.13967004 0.053913094 0.24742298 0.01775589 -0.31979316 0.19177806 -0.0015601945 0.024566127 -0.0453255 0.2595798 -0.020393634 0.027022857 0.18520705 0.18100305 -0.06748264
773 -0.05305076 0.26505592 0.16573077 -0.00094229536 0.16579744 -0.21186832 -0.12446942 0.36987612 -0.122794494 -0.039936796 -0.28584847 -0.040168546 0.038200166 0.09382847 0.2601457 -0.031182008 -0.2284633 -0.086952746 0.00018773983 0.5328671 0.027007485 -0.05642418 -0.0784062 -0.2791567 -0.11766881 0.007456477 0.00089169835 0.2704732 -0.06905117 0.09079955 0.055345427 0.022110827 0.23411876 0.2156048 0.0072430857 -0.10526896 -0.024300521 -0.25360057 0.3956703 -0.21928668 0.4444399 0.035744894 -0.14670262 0.026686821 0.115206316 0.04543721 0.074762225 0.23298228 0.028666647 -0.018846124 0.16401684 -0.17126006 0.3030266 0.058961995 0.21167742 -0.33541256 0.24326874 -0.26487252 0.21143518 0.16196382 -0.11916818 -0.47538754 0.58223933 0.21122088 0.025488771 0.20685749 -0.24188632 -0.14110467 0.39450178 0.028126283 -0.120894134 0.023106715 -0.36595336 0.26654458 0.33943808 -0.01365728 -0.36068037 0.19853765 -0.050667826 -0.1896159 -0.003235533 -0.012034919 0.13330166 0.011663758 0.18821187 -0.068445995 0.06359225 0.10722989 0.24216114 0.05698423 0.33705363 -0.0067048627 -0.040507235 0.329527 -0.28471142 0.029444667 -0.03237123 -0.034536116 -0.14905693 -0.2572455 -0.080153875 0.14967206 -0.21891482 -0.19691288 -0.31009117 -0.14589128 0.07833839 0.092409216 0.029163137 0.064468116 0.3712572 0.051608413 -0.4213837 0.08765269 -0.144115 0.07792217 -0.1570067 0.136942 -0.025356611 0.24503781 0.008428582 0.0046944655 0.21590978 0.09614071 0.010048377 0.08605018 0.10984464 -0.073573895
2727 0.009689075 0.050055083 -0.16501975 0.24824566 0.15349644 -0.013333002 -0.21976714 -0.2773139 0.2238053 0.011587951 0.023750715 -0.27390683 0.24853912 0.19524495 -0.011227569 0.2993454 0.22665621 0.017590992 -0.16523951 0.34874025 -0.11089065 0.12466753 -0.060758214 -0.216902 0.060410608 -0.25180236 -0.22302857 0.5068452 -0.05939904 0.3165181 0.26514426 -0.079395555 0.029647617 0.0011268965 -0.42725405 -0.06377939 -0.048843678 -0.26137105 0.22156009 -0.21736516 0.07529973 0.08031897 0.24050035 -0.17573342 0.005800448 -0.09684986 -0.009033692 0.13396299 -0.23117232 -0.14105707 0.041474704 -0.007357053 -0.41011253 -0.04433958 0.16503328 0.18132551 -0.023704361 -0.10232834 0.06551046 -0.17115952 -0.22659655 0.21850371 0.07890055 -0.1266146 0.30937263 -0.4456087 -0.22787894 -0.05983316 0.6329569 -0.07200513 -0.053976055 0.18127458 -0.1403002 0.27005148 0.19857252 0.46369198 -0.10675883 0.059956156 -0.10682765 -0.065527685 -0.13002008 0.09006057 -0.0427659 0.18245444 0.15384188 0.13176174 0.1422406 0.01771534 0.08819207 -0.12521404 0.15312293 -0.17435916 0.0022983747 -0.22917154 0.014256698 0.022104058 0.12824337 0.13254707 -0.2627947 0.051811304 0.024300937 -0.041937213 0.07606117 -0.1734418 0.24623924 0.2752163 -0.26905057 -0.07766584 0.03378632 0.024312256 -0.32555592 0.22305495 0.09842667 0.044964388 -0.08257495 -0.20541729 -0.09268289 0.12319072 -0.23599142 0.18601269 -0.3694134 0.0010931944 -0.084453665 0.13457404 -0.020847691 -0.084204495 -0.31264493 0.23013103
5473 -0.46985173 0.011971142 0.16942188 0.24719983 0.062365733 -0.18136345 -0.23755519 -0.29583454 0.09230932 -0.03276247 0.026824877 -0.19824626 -0.09441806 -0.08904711 0.053465635 0.011315038 -0.10061445 0.0021360014 0.20765899 0.09794139 0.07465194 -0.11857875 0.010103941 0.084485404 -0.1414668 -0.26407695 -0.13628824 0.19500916 -0.11814381 0.20839414 0.5976264 0.020190576 -0.025536325 0.13729776 0.0072960444 -0.10882785 -0.10070682 0.015178924 -0.044280313 -0.09321847 -0.10630579 0.09723529 0.002852216 0.031683914 -0.033895593 0.28926325 0.08813203 0.14076081 -0.26660022 -0.03216772 0.02866644 -0.2161159 0.3417665 0.021167995 0.1574271 -0.058044117 -0.07333626 -0.10472336 0.19142318 -0.01959645 0.20651062 -0.2541883 0.0038263223 0.16359515 0.2390758 0.13056418 0.05899996 -0.12595278 0.1941848 -0.07161767 -0.14007516 -0.06365323 -0.20077354 0.048349153 0.13670103 -0.32653788 -0.01778914 0.13236633 -0.011574757 0.14254937 -0.13051158 0.17896192 0.00938532 0.1684697 -0.010629805 0.083777905 0.1296437 0.19158655 0.19269224 -0.05789678 0.12821516 -0.3185767 0.14764775 0.076189645 0.03632718 -0.12148747 0.0054103713 0.29402065 0.1763677 -0.11473977 -0.11568109 0.16754039 -0.029688196 -0.06489447 -0.15458137 0.015089176 -0.005835209 -0.14900628 -0.06720644 -0.12657313 0.11575549 -0.009533898 -0.36637965 -0.0018645753 0.10260707 0.07348785 -0.28867766 0.17722468 0.0029342961 0.08260478 0.09932056 0.10153521 -0.14338578 0.20060758 0.011335236 -0.021415237 -0.06490578 0.24717653
3307 -0.4986932 0.117131375 -0.24056633 -0.031495016 0.17382726 0.12945645 0.13645872 -0.055473007 -0.06039595 0.24695039 -0.040316023 -0.2929058 0.15129343 -0.21674563 -0.13187239 0.031858806 -0.23398915 -0.08147232 -0.0065483735 0.07575115 -0.37322608 -0.08195063 -0.2509009 -0.13135116 -0.10209298 -0.35518813 0.31498975 -0.13691331 0.34981155 0.051278602 0.09371473 -0.025826192 -0.28659314 0.18487483 -0.0052526253 -0.22563608 0.07086226 -0.16135405 -0.17880341 0.15274607 -0.21247602 0.033312924 -0.16887882 -0.18778549 0.07305992 0.47703868 -0.13063647 -0.06450848 -0.33709946 0.090226695 0.07493874 0.08455008 0.24085654 0.07042112 0.10687968 0.08717505 -0.3460835 0.018190425 0.115285195 -0.017445264 -0.09554729 -0.15329932 0.16424768 -0.41021284 -0.56520075 0.15963116 -0.12044308 -0.36929238 0.2639297 -0.3853411 0.3899812 0.039335154 -0.19282027 0.025797414 0.4539563 0.46321818 -0.12569815 0.11607709 -0.31555894 -0.31152424 0.17450562 -0.013504095 0.36958206 0.07845437 0.046455815 -0.10554897 0.10334682 0.19698563 0.07944136 0.104786806 0.40518063 0.026396673 0.32859752 -0.32515523 0.32582438 0.023751272 -0.30157724 0.10350818 -0.18521585 0.16031228 -0.15906145 -0.012009862 0.25582027 0.041258547 -0.1305011 -0.03039168 0.045935716 -0.031855512 0.05578004 0.19311862 0.09631136 0.17766279 -0.18766019 0.3485009 -0.05166097 0.009022573 -0.054057587 -0.0047786743 -0.29622555 -0.3037668 -0.14558081 -0.011465902 0.030520564 0.23503797 -0.06426572 0.2966678 -0.008660787 -0.15262587
4985 -0.34287122 0.091691814 0.07854632 0.23518641 0.21579844 0.04250134 -0.2627551 0.016381271 0.15740298 0.1352037 -0.07797281 -0.074613355 -0.056800127 0.33105364 -0.12877184 0.1502241 0.10949653 0.020418009 -0.0066820285 0.17237167 -0.112266816 -0.040628277 -0.2186055 0.036294587 -0.24770592 -0.07079249 -0.15849538 -0.16972445 0.12829731 0.10153011 0.087394856 -0.17625792 -0.1906763 0.1264942 0.08821199 0.04339655 -0.045412883 -0.13929959 0.057604194 -0.44425845 -0.018521717 0.033666916 -0.20445184 -0.21815547 0.03564055 0.17801067 -0.08534643 0.08198377 0.12700734 0.078249566 -0.0875518 -0.15747026 -0.16090067 -0.13645308 -0.10965551 -0.10970644 -0.20627268 -0.15169239 -0.0048674163 0.044945914 -0.23932235 -0.02304282 -0.136346 0.055880778 -0.04254461 0.12392482 0.17210907 -0.27307355 0.015920442 -0.065532856 -0.04657764 -0.01969895 -0.12617551 0.13059594 -0.0045666043 0.066120274 -0.06580807 -0.14700127 0.15990824 -0.028830864 -0.09323944 0.12831098 0.20325315 0.11116984 0.09958394 -0.16214825 -0.026773928 0.07272315 0.049212944 0.034850962 0.14517416 -0.07222656 0.030429352 -0.15265222 -0.060646214 0.24883357 0.03460742 -0.09430673 -0.108741015 -0.032573156 -0.021299576 0.008077017 0.011927357 0.15644233 -0.052583627 -0.071324535 0.25051922 -0.3298768 -0.13667351 0.12562294 -0.11668549 -0.003693548 0.06665924 0.23735143 0.11452979 0.26708665 0.1020477 -0.08280051 0.23117232 0.29147303 0.018236035 -0.023455571 -0.22714715 -0.04028028 -0.0469515 0.19750215 -0.029558577 0.056201544
1628 -0.15063296 0.14159098 -0.038489357 0.0353393 0.117061354 -0.20157571 -0.20065475 -0.090898335 0.080387175 -0.16218281 -0.13501205 -0.10187781 -0.039438527 -0.09057531 -0.23001802 0.24643867 -0.028322661 -0.18329017 -0.1905972 -0.009369184 0.06172113 0.18952675 0.108573705 -0.11434674 0.19588603 -0.14160618 -0.08369576 -0.043167274 -0.07794359 -0.25946686 0.06761742 0.26832634 -0.055563625 -0.16641207 -0.12782632 -0.090972774 0.082072765 0.045464434 0.021293076 -0.06656766 -0.21900976 0.031385783 -0.33838922 0.06001129 0.18567781 0.273825 -0.24932489 0.06402922 -0.24021228 -0.1302926 0.08500912 -0.13280235 0.016268162 0.076281115 0.115618475 -0.13869283 -0.16099112 0.16268401 -0.08851381 0.035580993 -0.02519883 -0.05846293 0.2808321 -0.17250977 0.09647389 0.18550812 -0.14260192 -0.12856111 0.06339178 0.040889766 -0.13534258 -0.06589998 -0.1425412 0.09684322 0.2151736 -0.27976817 -0.075022094 0.05266934 -0.0815108 0.03361545 -0.083216354 -0.32820702 -0.08279213 0.23812772 0.040587857 0.27372265 -0.16359533 0.03001212 -0.124903984 0.043817982 0.01586858 0.02426733 0.017106285 -0.15231979 -0.22621065 0.06876699 0.16250238 0.2574133 0.057984587 0.00029955767 0.0585463 -0.09547598 0.026848864 0.04296634 0.13419461 -0.2201356 0.008767815 -0.019051658 -0.24321759 -0.14819056 -0.07287621 0.3451 -0.20278332 0.044280946 -0.10131062 0.069034696 -0.11261249 -0.22754672 0.114036284 -0.048371453 -0.20125361 -0.08993162 0.1969981 0.08825557 -0.047832835 -0.043055177 0.081124194 0.1554074
2889 -0.6253499 0.00346259 -0.0629486 0.37648255 -0.0119133005 -0.1653154 -0.26732612 -0.30486017 0.19247092 0.03608307 -0.21748535 0.1495736 -0.117275946 -0.08337784 0.07515271 -0.037020914 -0.17974176 -0.10882614 -0.009063071 0.15362144 0.046837013 -0.2735838 0.1662164 -0.28935614 0.37310743 0.0035407771 -0.13516779 0.12215048 0.16991621 0.062329125 -0.30496278 0.16722566 0.007851502 -0.008769917 -0.02914154 0.15856262 0.033255033 -0.014009694 -0.17195928 -0.5231588 -0.25328892 0.03370805 -0.028846256 0.11156678 -0.0016754072 0.18895797 0.07494361 0.119594224 -0.0035364064 0.21118478 0.25842324 0.3501592 -0.15873107 -0.17338021 -0.08187713 0.028407214 -0.1180278 -0.10028557 -0.0054290695 0.094394095 -0.07495637 0.04357537 0.0037182858 0.21903653 -0.054287102 -0.23126154 -0.21609548 -0.08096973 0.31924888 -0.08457743 0.09146254 0.10013335 -0.335482 0.08814981 0.3415441 0.21825723 0.15604715 0.088024095 -0.07774402 0.28806293 -0.2627999 0.05404424 0.3942287 0.1414097 0.32359272 0.15874644 0.2403932 0.16275178 -0.009957672 0.08817798 0.4073163 -0.0014009698 0.14153585 -0.07546966 0.19181474 0.3003048 -0.09295189 0.19785087 -0.06107097 -0.021185135 -0.09239864 0.070299685 -0.0663819 0.1381676 0.43619853 -0.08997343 -0.25720575 0.25809562 0.014358783 0.18313675 -0.2327074 0.2382391 -0.17940854 0.0850761 -0.48860005 -0.030403733 0.05892378 -0.01913974 0.108363144 0.0014292366 -0.14080119 -0.017573869 0.04158859 -0.13640171 -0.0063073034 0.06782771 0.2544872 0.23866771
4058 -0.1378411 0.24577917 -0.061971493 -0.23765229 0.18804444 0.21532837 -0.1440666 0.19122487 0.3142562 0.36320332 -0.21418862 -0.1131912 0.12333093 -0.2003795 -0.14368084 0.039451387 -0.06940035 -0.24199885 -0.24658571 0.13416317 -0.069286406 0.1599088 -0.3167826 -0.09200259 -0.2630639 -0.19485152 0.12256525 -0.19969289 0.20978099 0.16999291 0.2861808 -0.055228792 -0.017119637 0.021387381 0.20859721 -0.34658277 0.22278705 -0.31613767 -0.0039624576 0.03203717 -0.570604 -0.09162386 -0.14440171 -0.032114733 -0.020861592 0.01883378 0.020007202 -0.14857267 -0.3763607 -0.03353778 0.2592965 0.0012640188 -0.025666768 -0.022981126 0.1756272 -0.37502426 -0.014199599 0.018005174 -0.070100546 0.16574697 -0.24457596 0.14626601 0.2252698 0.029812263 -0.46021456 0.045215204 -0.16855635 -0.14741848 0.088412814 -0.18883829 0.12383928 -0.099398755 -0.067248 0.13390437 0.3249864 0.13071887 -0.33974254 -0.08442563 0.24442756 -0.02289606 0.04058559 0.011735994 0.35971197 0.47897974 0.15598868 -0.1227711 0.032215945 0.34765577 -0.005195868 -0.19562593 0.25585508 -0.15984479 0.111604795 -0.40695703 0.07987047 0.077726625 0.23104575 0.026023876 0.008814164 0.047141887 0.0011352414 -0.10088286 0.17243971 -0.04841057 -0.009441054 0.13218912 -0.37660536 -0.42752612 -0.29146153 -0.07705718 0.22522615 0.19467613 -0.13967484 -0.048243016 0.035435837 0.19528495 -0.3029546 -0.19707908 -0.05945599 -0.63812244 0.17769945 -0.068948865 0.23527244 -0.28177586 0.042939242 0.082741156 0.12376802 0.0070461906
817 -0.20137057 0.06485114 0.067862794 0.30923635 0.06597285 0.016635982 -0.15569 -0.064592175 -0.034987338 -0.1027231 -0.08791172 -0.26998657 0.219636 -0.081878886 -0.2523624 -0.024890542 0.20464602 -0.01142147 -0.187763 0.2580522 0.0057383613 0.07268631 0.026211306 -0.13255161 0.03034765 -0.016398065 0.014176216 -0.035854314 0.17290683 0.031210715 0.021759769 -0.0039056598 -0.11016452 0.2137989 -0.0814456 -0.0029864046 0.07418895 -0.1316611 -0.015465502 -0.11085744 -0.06779936 -0.2578257 -0.06486272 0.12918171 0.17380756 -0.018137468 -0.051382985 0.105261795 0.05818326 0.18931887 0.110241696 -0.1777962 0.12775205 0.0415814 0.31075737 -0.021027362 0.18915893 0.064839065 -0.123812035 -0.115491144 0.023277337 -0.13310198 0.3858068 0.08096685 0.014915387 -0.12369582 0.21109731 -0.08296333 0.037096422 -0.29380715 -0.20153056 0.1498646 -0.06463062 -0.09349145 -0.04482049 -0.08016625 0.0002342531 0.11178241 -0.12365239 0.15068547 0.14108999 0.19220172 0.09221312 -0.082699485 -0.114192426 0.28637752 0.15940283 0.16296804 0.23140736 -0.1653362 -0.007236004 0.097336315 0.29085836 0.030205946 0.05752325 0.19619817 0.18389645 0.041358404 -0.09794762 0.052590996 0.1058119 0.21326484 -0.11727984 -0.12169587 0.020287152 0.042311843 -0.07603034 -0.050362747 -0.14948247 0.08796103 0.066102035 0.063633226 -0.09102692 -0.13104819 -0.05867814 0.26323783 -0.13062191 0.07587364 0.13305579 0.11597102 -0.032489803 -0.17151877 0.012194151 0.07183424 -0.26723778 0.23810473 0.11363604 0.17982732
1048 -0.25142825 0.098335795 -0.20096569 0.23250991 -0.008847784 -0.21136633 -0.20289959 -0.22455174 0.078307696 -0.13466476 0.37445372 -0.044828806 0.071581334 0.014142759 -0.084947474 0.029124312 0.036382858 -0.15606408 -0.07517311 0.28341708 -0.014820997 0.054981247 -0.16514231 -0.03116234 0.16265361 -0.011098089 -0.16098 -0.062191114 0.23396222 0.048947256 -0.1119073 -0.13834628 -0.12887087 -0.14393044 -0.103250585 0.16090088 -0.22836609 -0.044646367 -0.0681035 -0.25987768 -0.0050898804 0.17641547 0.051686104 -0.108172625 -0.26827237 0.108530335 -0.17722683 -0.0053657223 -0.031480152 0.18855056 0.31896833 -0.15414141 -0.008248062 0.028982796 -0.010350612 -0.08029696 0.17112859 0.00745869 -0.13341555 -0.03633893 -0.1716063 -0.084037706 0.31794608 -0.16575627 0.1425605 -0.05413478 0.0055654948 -0.21335922 0.4560358 -0.10889681 0.10998556 0.088450745 -0.21311069 0.06577412 0.222025 0.019831022 0.036806304 0.019999657 0.040233057 0.26829487 -0.0527566 0.06422996 0.22836767 0.31498426 0.26149637 0.28788182 0.1382299 0.068750665 0.10983033 -0.011068036 0.22918539 -0.09967295 0.3217433 0.2142159 -0.10555076 0.32812062 -0.05399579 0.1287781 -0.046594456 -0.15055451 -0.2305824 0.22394279 -0.08279183 0.063751556 0.12685281 0.035540134 -0.103893764 0.061723646 -0.10937263 -0.02169335 -0.12713549 0.15465185 -0.17890103 -0.06931192 0.038155172 -0.13986333 -0.105436005 -0.10776062 -0.046219412 0.17602523 -0.15450765 0.031328414 0.12311714 0.0958026 -0.086395785 0.1351229 -0.12436705 0.071859844
3634 -0.4158518 0.261359 0.0069738 0.049041618 0.046412967 0.17877187 -0.08118277 0.118892334 -0.0066398485 0.01531364 0.16908462 -0.0024617945 -0.09310228 -0.087487385 0.03737129 0.20688838 -0.18446994 0.21891998 -0.0017054228 0.017947473 -0.21923047 0.15182534 -0.30443767 0.07713414 0.16792436 -0.114003524 0.048528817 0.08066384 0.24227583 0.10118025 0.10112029 -0.26538515 -0.19229597 0.13867852 -0.03769562 -0.198805 0.04642278 -0.23611088 0.12120052 -0.30295038 0.06555576 0.004021882 -0.13680694 0.004973864 0.084077775 0.09573835 0.07921355 -0.088826016 -0.048627257 -0.085208535 -0.08079311 -0.013444404 0.19375478 -0.14928131 0.022266109 0.0007682435 0.0907664 -0.16157906 -0.09161869 0.15406263 0.109674275 0.05002843 0.113250956 -0.2804789 0.17557508 -0.18777448 0.0351438 -0.057794586 0.19966747 0.13652407 -0.2138487 0.09087086 0.064476244 0.044811945 0.032523822 -0.12904228 -0.13826653 -0.013556953 0.017737508 0.30350727 -0.082139485 -0.17259297 -0.05159676 0.41818577 0.028534813 0.19987121 0.08955208 -0.041330665 0.123336814 -0.10536232 -0.13089518 -0.081211016 0.20814447 0.012093352 0.09620282 0.17029783 -0.16718525 0.26514694 -0.031080846 -0.25278428 -0.045072686 0.05818366 -0.057621796 0.15566806 0.11256493 -0.047904063 0.008727156 -0.10151132 -0.014713551 0.2190525 0.09807496 0.06466215 -0.1811749 -0.14195302 -0.09640465 -0.158662 -0.13703357 0.07713678 0.0662562 0.4155396 0.032362647 -0.2450068 -0.15769434 -0.06894174 -0.027114322 0.15721527 0.07487212 0.12852697
978 -0.49642006 0.15223703 -0.120111465 0.06756454 0.3458872 -0.09705814 -0.34151107 -0.16082928 -0.2637535 0.25989586 0.110067785 -0.050385952 0.2528161 0.4273799 -0.33998835 -0.13970469 0.13404286 0.05268338 0.065493256 0.13932274 -0.32729584 0.3220177 -0.018853951 -0.04901272 -0.26725844 -0.32765806 -0.1356192 0.18975157 -0.0021666097 -0.15910318 0.22926304 -0.36462632 -0.23384993 0.04210043 0.084813565 0.055250693 0.11123073 -0.30622974 0.2065097 -0.19027539 0.01477501 -0.17934522 -0.031085558 0.15245004 0.06300574 0.059487417 -0.021901796 -0.03306403 -0.19262107 -0.090417065 0.3469704 0.0050321072 -0.05721475 0.2867683 0.107910715 0.0037139533 -0.348132 0.027303852 -0.029715909 0.2614403 -0.14425837 -0.03195398 0.008867789 -0.1674909 0.46305224 -0.09296144 -0.26996994 -0.17138137 0.29090482 -0.09636021 -0.15782642 0.40186414 -0.11149816 -0.33546266 0.58980966 0.011749296 -0.13455047 0.38541818 -0.31276214 0.38462493 -0.05953641 0.3227071 -0.3823459 0.06409957 0.238632 0.32689658 -0.052128747 -0.071422696 -0.075070806 0.15605009 0.12868167 -0.14038934 0.01556943 0.054998793 -0.19372793 0.2723361 0.1772759 -0.15059844 -0.5253432 0.21281393 -0.039238848 0.0075852196 -0.12883854 0.09704106 0.484885 0.40031505 0.0056801084 -0.17999521 0.12057216 0.10229015 0.1024563 0.3105041 -0.156593 -0.00086565793 -0.21575329 -0.357893 -0.25501722 -0.11611036 0.06813977 0.21559426 -0.1357261 0.14465232 -0.13106623 0.06463173 0.22089574 0.46526706 0.23495097 0.24617608
4409 0.13376763 0.3072267 -0.40780115 -0.10655541 -0.16846116 -0.18216592 -0.21424451 0.18850487 -0.19476159 0.17347401 -0.17927487 -0.45495832 0.07239713 -0.10239993 -0.21762691 0.2132227 -0.11814214 0.26702988 -0.2779871 0.025419852 -0.059344336 -0.19937047 -0.18860893 -0.1518232 -0.12694855 -0.07732691 -0.18060833 -0.119025834 -0.051547688 -0.22471873 0.09513687 0.19069465 0.03899768 0.11790189 -0.21140894 -0.08669596 0.24522495 0.18003601 0.048897043 -0.2968203 -0.14722013 -0.11457153 -0.31267738 0.031144295 0.037438657 0.011749686 0.0013311234 0.46478316 0.13510972 0.28849784 0.002204087 0.028822383 0.08938874 0.009709399 0.28996837 0.091367505 0.3162875 -0.11871035 -0.088257805 0.16173273 -0.44356108 0.09938369 0.11912419 0.34920296 -0.114150465 0.16606697 0.18535952 -0.07255227 -0.20545007 -0.043318015 0.335663 -0.10643395 -0.07054931 -0.026730029 0.2056451 -0.15267421 -0.2306942 0.2573979 -0.021342661 0.067643404 0.0054885917 0.13598019 0.23616806 -0.15949151 -0.13942528 0.1403607 0.38053858 -0.107841484 0.17100595 -0.2080707 0.20285456 -0.09722158 0.26245666 -0.0448102 -0.21991177 -0.11440174 0.022935344 0.18083446 0.07740827 0.21454832 -0.16215445 -0.12756495 0.019448016 0.024448829 0.1569538 0.22821914 -0.13268968 -0.2265829 -0.01878584 0.46259665 0.043843195 -0.011230204 -0.419618 0.06858748 -0.14250238 0.17686 -0.17912798 -0.08848189 -0.02140483 0.25381675 0.0871715 -0.11347696 0.06915209 -0.12437282 0.13179173 0.6374523 0.08274473 0.04005027
3886 -0.33106828 0.26477334 0.12679645 0.20196661 0.17185795 -0.17547464 -0.21464604 0.18566094 0.07650415 0.23636903 0.14617889 -0.26761937 -0.10724567 0.07505852 0.29989585 0.36897966 0.39896923 -0.106643364 0.33505243 -0.08841934 0.10158223 0.19151853 -0.15536325 0.0655561 0.4039652 -0.17343993 0.3027019 -0.31616837 -0.5336289 -0.13462615 -0.23690629 0.14025772 -0.18548018 -0.011146377 0.00029156855 -0.09251293 -0.20358261 -0.31252748 0.2442743 -0.11696864 0.083654456 -0.0076119225 -0.17338835 0.17398418 0.22852026 0.0021386552 0.14112382 -0.026686054 0.12035773 -0.21314375 0.063943565 -0.20951526 -0.096160084 0.14298554 0.097345404 -0.30012232 0.10228386 -0.17720763 0.24969088 -0.2067829 -0.1524788 0.08854174 0.06708849 -0.14616726 -0.19971795 -0.28031796 -0.4705253 -0.080391794 0.17786174 0.25318947 -0.037957363 0.45389354 -0.15056407 -0.06857314 0.05982741 0.048469618 0.5142381 -0.16303894 0.117090136 0.0010413983 -0.052480433 0.22975974 0.17488532 -0.2380926 0.08541641 0.11913812 0.185637 0.08991635 0.0078051537 0.028841464 -0.13765962 0.16178654 0.2076368 -0.11122681 0.1318489 0.033221036 0.17478427 0.10219983 0.058175836 -0.18446489 -0.12265124 -0.09910866 -0.12314896 0.32179934 -0.33448988 -0.0544437 -0.04140786 -0.018814327 0.11044833 0.1317217 -0.15818629 0.32254127 -0.01881368 0.047703918 0.04280617 0.41856927 -0.20079193 -0.27063984 0.06474288 -0.07453478 -0.36356786 -0.17471701 -0.06911752 0.101233944 0.020304961 0.2861429 0.05425716 -0.22889337
831 -0.41797876 0.44408852 0.027209317 0.3114733 0.17753986 0.05374013 -0.3013677 0.3309587 -0.12630345 0.11306609 0.05926912 -0.114012316 -0.06271716 0.11415865 -0.2074235 0.118318416 0.19920489 -0.06508967 0.24193227 0.04528949 -0.24448512 0.36154395 -0.3068835 0.09723299 0.25603464 0.24760105 0.35693055 -0.12874527 0.11458416 -0.25590923 0.27976856 0.29119366 0.22791356 -0.19763963 -0.16220231 0.00903761 0.019854754 -0.057948727 -0.21603134 -0.32846022 0.075885 0.010783867 -0.13062996 -0.23855066 0.26912612 -0.10322377 0.094027765 -0.05825323 -0.10773073 0.26103485 0.12823765 -0.11221163 -0.15164647 -0.2217342 0.27082378 -0.25355253 -0.0876959 0.01888905 0.32068777 -0.07051489 -0.12708057 0.15565665 0.118511304 -0.06560872 0.06259513 -0.16434182 -0.068143964 -0.1909489 0.20721637 0.17421447 -0.108357295 0.37175062 -0.22271937 -0.17586845 0.268825 -0.21591896 0.22405815 0.30845433 0.05154921 -0.19305553 -0.021326907 0.116554186 0.15501985 -0.120347954 -0.10049957 0.21774296 -0.07725998 0.029870437 -0.32971466 0.24841464 -0.31728637 -0.05827373 0.12701488 0.08251161 0.26897317 -0.02252661 0.081217594 0.008787438 0.43348652 -0.22534505 -0.32611084 0.044224434 0.5439051 -0.20907588 0.02019194 -0.033511084 0.026365383 -0.009625928 0.035861112 0.20365001 -0.28253907 0.10402292 -0.011063889 -0.0012135261 -0.0025668594 -0.3165127 0.4189925 -0.1614669 0.0928326 0.2990339 -0.13862444 0.20095973 0.019734534 -0.16522911 0.0019228889 0.047827177 0.37198007 -0.11965414
