439 128
1315 0.03468113 0.089828886 0.08072179 0.19714545 0.014029874 0.10353133 0.029277563 0.29845297 0.061767846 0.12999547 0.11468054 -0.1814437 0.08414707 0.1651178 -0.15724769 -0.18218948 0.31508532 -0.24837749 -0.18308593 0.26807767 -0.05379902 -0.32483572 -0.336069 -0.2610477 -0.15966786 0.098360546 0.027564768 -0.35513982 -0.22658704 -0.033298105 -0.0704071 0.28219417 0.04712774 0.13629419 -0.17705874 -0.06790788 0.14687468 -0.36525428 0.06252539 -0.034625694 -0.02050267 -0.10861409 0.025134383 0.032167263 -0.041393943 -0.0505377 -0.019445537 -0.17287219 0.24500021 0.18151377 0.024001874 -0.20252605 0.24523418 0.06296278 -0.028214721 -0.0181226 0.13640468 -0.15859091 -0.0492779 -0.10435728 0.27788034 0.04138058 -0.09854279 0.018464653 -0.013398702 -0.15520574 -0.068822116 -0.09641318 0.0054449253 0.22908297 0.11197831 0.0922163 0.066371664 -0.01182707 -0.061247975 0.030027516 -0.054420248 -0.2084758 -0.008723055 0.048322484 -0.08888184 0.12859093 -0.05428353 0.034841552 0.08859762 0.08868797 0.2230549 0.07691346 0.038427494 0.3511068 -0.13625383 0.10066522 0.18414693 -0.03615964 -0.2190159 -0.19584781 -0.05522731 0.00040251744 0.105812244 -0.023374738 -0.35890722 0.038363077 0.07179381 -0.15779468 -0.19117986 -0.08411891 0.19809234 0.07853278 -0.13795361 0.09410673 0.03639572 0.11892896 -0.2011312 -0.18106554 0.113859676 0.12603411 0.28481755 0.40481105 -0.107039616 -0.19202943 -0.077625014 -0.011998662 0.032917067 -0.12329778 0.16633709 -0.11134527 0.23561974 0.016621828
5234 -0.055986896 0.2896536 -0.16965275 0.013497529 0.027097145 -0.125795 0.15264472 0.16330582 0.1952059 0.24207276 0.2296636 -0.051748443 0.10514323 0.098691136 0.06882165 -0.13458848 0.36963132 0.050262574 -0.07072762 0.15235539 0.15506604 -0.2328787 -0.20836917 -0.37081102 0.03266018 -0.14600626 -0.008807175 -0.07452998 -0.22102024 0.1290113 0.03715566 0.09617994 -0.021855857 -0.13493279 -0.07688416 -0.16962226 0.037124038 -0.32252872 0.03201087 -0.034662742 -0.101350844 0.16181037 0.075775035 0.09194707 -0.049733754 -0.13059044 0.19817686 -0.028849155 0.035463236 0.1258725 0.089245066 -0.043444503 0.20621642 0.006648999 0.088144556 0.1448588 0.08470016 0.0068624252 -0.13086914 0.00014802831 0.15620528 -0.051384374 -0.017402934 -0.03033956 0.0028175267 -0.07949323 -0.1455379 0.023174187 -0.18783368 0.035947863 0.103952974 -0.012396201 -0.14518332 -0.062711574 0.059406243 -0.19081233 -0.0062735216 -0.18864922 0.115121394 -0.022026643 -0.26238868 0.23505428 -0.057123926 0.14976147 0.07117868 0.0829632 0.03857447 -0.016144061 -0.033589922 0.040521182 -0.23502031 0.08057273 0.017390946 -0.08715534 -0.058979657 -0.12313331 0.033998217 0.057917472 -0.036685243 0.099032395 -0.161007 -0.026187563 0.36903647 -0.1500811 -0.11381798 0.039309118 -0.02544163 0.19392288 -0.08226144 -0.20735744 0.045251034 -0.12669133 -0.062187012 -0.10972101 0.18356963 -0.1583225 0.101014756 0.21662065 -0.048166856 -0.03886155 0.010180355 -0.14538313 0.016721684 -0.30526033 -0.117753744 -0.252963 0.37909672 -0.06615656
3634 0.06482648 0.21253714 -0.10082915 0.091479 0.0235634 0.2259684 0.07707148 0.14838186 -0.050582755 0.36146203 0.18688521 0.06702022 0.1704798 0.15495373 0.023176948 -0.059908457 0.25048074 -0.046732534 -0.012293262 0.16463746 0.12193178 -0.15834552 -0.21257424 -0.044306237 -0.24377836 -0.30656555 -0.018926302 -0.42398232 -0.06825521 0.04504846 0.05922709 0.09848698 -0.1962436 0.0048160614 -0.011798027 -0.008318554 -0.06320851 -0.2841896 0.07314662 -0.17876688 -0.2301183 -0.024551589 -0.023316 0.038107764 -0.023157934 -0.1401454 -0.06074154 -0.14022923 0.38291597 -0.06307129 0.0504903 0.11226189 0.11034629 0.09653279 -0.017138885 -0.09840688 0.12377995 -0.0139220925 -0.11522732 0.01278381 0.13834406 -0.09799175 -0.06245595 0.019676087 -0.08185112 -0.056795668 -0.08118147 -0.029770244 -0.15324892 0.17370313 -0.16547516 0.17657958 0.05070563 -0.14316927 0.0020200138 -0.0006898095 -0.03039674 0.037424177 0.058944352 -0.001744452 -0.12072883 0.1229227 -0.13968602 0.19557326 0.15204698 0.01491914 0.121258736 -0.078084596 0.15675434 -0.06803386 -0.21045993 0.18019365 0.08072468 0.06427613 0.006061643 -0.2572785 0.02544923 0.17230389 0.16493496 0.14868253 0.058487456 -0.1932086 0.12681991 -0.020372843 -0.09616456 -0.012261333 0.043039266 0.14230709 -0.074068464 -0.13057972 0.14800145 -0.2067155 -0.31322002 -0.10266595 0.08767599 0.002347878 0.17189549 0.107679434 -0.31837174 0.04367875 0.25299183 -0.056897614 0.25799635 -0.31181607 -0.18021479 -0.138457 0.091929555 -0.031264633
1048 -0.2988008 0.078098975 -0.061152987 -0.13057005 -0.1302327 0.031651564 0.071260415 -0.035447776 0.11903901 0.23050065 0.2956839 0.16151352 0.10466456 -0.122068554 0.19267903 -0.029688042 0.3669267 -0.41619226 -0.03532197 -0.09300868 0.06475713 -0.31706557 -0.035162978 -0.1657367 0.09705235 -0.22130579 0.027487436 -0.27659646 0.083174445 0.32430217 0.22988215 -0.053484097 -0.13795513 -0.026600685 -0.13576628 -0.14095551 -0.0940835 0.001747241 -0.12428734 -0.027226713 -0.2114727 -0.11406754 0.034019664 0.122392975 0.03879861 -0.12871656 -0.047086023 -0.08629886 0.4271204 -0.04663095 0.030192904 -0.18754521 0.21624365 -0.018327834 0.0042089564 -0.018848239 -0.017600965 -0.026415832 -0.08424419 -0.015000046 0.1972197 0.05019663 -0.15878269 0.040289555 0.07894749 -0.18408318 0.03275242 0.016184382 -0.16409835 0.12093814 0.058455598 0.055806197 -0.093428284 0.14314207 -0.09455526 -0.16191038 0.06819102 -0.115989566 -0.11896739 -0.2415289 -0.26795906 -0.1078925 -0.26069248 0.06261264 0.029665716 -0.009805255 0.017065203 0.15709575 0.32812643 -0.07520929 -0.22816114 0.42553198 -0.05873582 -0.23506346 -0.04356147 -0.050740153 -0.10598011 0.0075284885 0.20304918 0.048230264 0.2200952 0.0035591186 0.27836367 0.035111383 0.062042393 0.090867 -0.032456543 -0.052603398 -0.2804579 0.05662599 -0.04790898 0.012480418 -0.34049943 -0.09010921 0.15876548 -0.01596443 -0.036230687 0.12835534 0.2150736 -0.054153766 0.0037652592 -0.004208916 0.10274169 -0.19545136 -0.07931335 -0.14021046 0.11932881 -0.10522346
1335 -0.16855271 0.22417179 0.04751372 0.23211038 0.03754021 0.13970938 0.08773088 0.11235068 0.300428 0.2673625 0.020984333 -0.03993028 0.1799528 0.06299607 0.0021016244 -0.07793707 0.18516636 0.02813157 -0.15223958 -0.02541159 0.0791116 -0.18836114 0.06741196 -0.10163464 -0.10874215 -0.003067347 -0.20730697 -0.15843327 -0.13051404 0.076088056 0.043393165 -0.0023501539 0.00991588 0.18425421 -0.20304984 -0.30396304 -0.0898778 -0.033142414 0.10399586 0.09400039 -0.22767837 0.04455158 -0.07120934 -0.011052838 -0.03844904 -0.16818945 0.10047567 -0.017007666 0.18693303 0.00647389 -0.04781467 0.033325393 0.08560571 -0.014869412 0.03401203 -0.012203682 0.2746904 0.05360313 -0.08086764 0.10325886 0.18490537 -0.104900196 -0.032463487 0.073378526 -0.26322082 -0.095853 -0.05497331 -0.0627606 -0.14153467 0.1867067 0.03358305 0.115365595 -0.07464053 0.119276844 0.12672438 -0.08514611 0.06862067 0.06397894 0.091382116 -0.159705 -0.11635672 0.03794542 0.19651526 0.278811 0.06936293 0.09564375 -0.16960298 0.17124553 0.05517576 0.18463707 -0.29782796 0.14796443 -0.014811771 -0.09191615 0.06958832 0.16606411 -0.20530847 0.048193283 0.07519238 0.04694564 -0.024824353 0.06745821 0.12096037 -0.038623102 0.011596615 -0.058658086 0.036969192 0.09042305 -0.15211017 -0.17660528 0.038767356 -0.2742417 -0.21201281 -0.090065934 0.094024435 -0.05920063 -0.033122607 -0.050861128 -0.07912514 -0.24096891 0.010308876 -0.13862227 -0.025958166 -0.16403331 -0.05677267 -0.13173671 0.18634546 -0.032711107
813 -0.3513705 -0.052594583 -0.23311856 0.22542085 -0.115229726 0.011788812 0.11998692 0.08868639 -0.08847076 0.23065071 0.26885957 0.24835062 0.34225014 0.0072521265 -0.0029304049 0.015109091 0.28515264 -0.08421058 0.016788067 -0.0476052 0.17302817 -0.14804195 -0.23469418 -0.22624429 -0.17147575 -0.14266704 -0.16278587 0.07258191 -0.008028982 0.2477232 0.10714499 0.15956718 -0.18715924 0.24349636 -0.17289533 -0.1855618 -0.039656363 -0.08833679 0.03180747 0.083661176 -0.24564175 0.08916835 0.17925014 0.16493778 0.077891536 0.0967175 0.16641955 -0.11925481 0.45937526 0.14467409 -0.13288698 0.05611447 0.17664428 -0.052071396 -0.06017333 -0.38247702 0.10769596 -0.056017786 0.09193464 0.07749804 0.090735406 -0.11982642 -0.3641143 0.072063796 -0.13285314 -0.1852182 -0.08879504 0.16649249 -0.16817711 0.16728306 -0.15242583 -0.06299008 -0.032480773 -0.16693111 0.16541028 -0.20604545 -0.08590485 -0.0038055324 -0.020675702 -0.06715917 0.0057556033 -0.1254267 0.008909041 0.23014836 0.008746336 -0.030409675 -0.16072085 0.08989055 0.1546474 0.007496666 -0.23963055 0.28869218 0.045545306 -0.15830266 0.21001053 -0.046794154 0.068405285 0.10689968 -0.24347733 0.063098215 -0.12243765 0.03920084 0.117348835 0.022083988 -0.089107834 0.07950382 0.04558754 0.095488265 -0.094545454 0.046774395 -0.08730582 -0.0577662 -0.3165238 -0.25117075 0.016521633 -0.07369677 0.06991977 0.09835588 -0.10263932 0.07666879 -0.115759924 -0.06407101 0.07759507 -0.19655372 -0.07120697 -0.17634785 0.093208715 -0.14350574
5785 -0.09654602 0.33267915 -0.012634765 0.14558654 0.0431477 0.11864602 0.06479541 0.25065795 0.0134934215 0.36123234 0.16765676 -0.00678665 0.21016955 0.036581352 -0.20574719 0.17321175 0.049225092 -0.15583268 -0.13976601 0.17174642 -0.093324326 0.042868406 -0.2610285 -0.05795108 -0.014541734 0.08822506 0.024721289 -0.10113517 0.0072932495 0.045656968 0.30261484 0.07815557 -0.16799697 -0.19433616 -0.15203495 -0.26811385 0.13213184 -0.38569665 -0.11118635 0.17721403 -0.24915761 -0.016956415 0.25116652 0.04761872 0.13572629 0.19686885 -0.0005728786 0.031595584 0.2682717 0.13861132 -0.2105204 0.06848721 0.065664954 0.14127336 -0.090262264 -0.011234819 0.12671964 -0.011251853 -0.036698584 -0.028228737 0.20811136 -0.00400718 -0.17859703 0.2161871 -0.10653873 -0.010343534 0.011643416 -0.12765802 -0.25990278 0.059048057 0.1259353 0.14904441 0.058652956 -0.08113657 -0.30842635 -0.16903532 0.21161391 -0.18209669 -0.053936575 0.013579285 -0.22180621 0.13105068 0.06337943 0.01976587 0.20993116 -0.051525682 0.038844842 0.099595435 0.10941805 0.33111927 -0.11711223 0.14036123 -0.1730826 -0.13585733 -0.11784103 -0.37919232 -0.19022271 -0.0543802 0.018286845 -0.0111385295 -0.072381444 0.2099149 0.15893377 -0.26803702 0.001964478 0.10422677 0.24580483 0.33732778 -0.17330912 0.05277145 0.12373247 0.083741695 -0.23540983 -0.305845 -0.1085442 -0.1730173 0.014604737 0.073496625 -0.046382304 0.067017056 0.17224728 -0.17954001 0.009760742 -0.31341335 -0.24661486 -0.026085682 0.27554953 -0.07666726
20 -0.36729997 0.049350783 0.05210299 0.07140017 0.015924687 -0.20273305 0.099369526 0.14750168 0.24079378 0.32866815 0.22163577 -0.07536423 0.19524476 -0.020841623 0.0076165413 -0.11723309 0.32673246 -0.20818782 0.0069759674 -0.08880459 -0.09184199 -0.258434 -0.05222812 -0.43905008 -0.16055553 -0.37666214 0.039536845 -0.40027854 -0.0026620207 0.035296816 0.34515074 0.27365473 -0.08745777 -0.0050385264 -0.022300303 -0.054774493 0.02550689 0.104117505 -0.15376057 -0.09273563 -0.15657666 0.014140397 0.1624021 0.33763766 -0.049099084 -0.2198117 -0.10405172 -0.24141538 0.16946357 0.14749776 0.144481 -0.18891823 0.2701521 -0.009695033 0.21287635 -0.033278912 0.14292319 0.23861656 -0.048962627 -0.27476397 0.27043834 -0.014770126 -0.0038362092 0.11210324 -0.105985165 0.016545162 0.1077756 -0.13647899 -0.09324314 0.24792573 0.1499859 0.12512621 0.004520073 0.018903518 -0.011255219 -0.020661216 -0.07737378 -0.16370037 -0.091608666 -0.17374668 -0.30304086 0.07032665 0.04711477 0.1452833 -0.14614029 0.05859584 -0.1087433 0.28077927 0.12150177 0.10610451 -0.10797381 0.31131363 -0.13589817 -0.12910944 -0.19468835 0.17150886 0.03201338 -0.04389005 0.08910914 0.3370631 -0.14829613 -0.1538507 -0.0661911 0.07710955 -0.18071687 0.20874316 -0.057962667 0.16623086 -0.23230328 -0.07399412 -0.079270005 0.06476366 -0.17917256 -0.10723303 -0.0674251 -0.0356339 -0.09853786 0.1074721 0.12709837 0.005406181 0.030354725 -0.13488033 -0.015422735 -0.21502501 -0.14672123 -0.2003945 0.04895949 -0.26358557
3449 -0.10928477 0.041721296 -0.09646147 0.06288719 0.1349187 0.11631507 -0.03608344 0.13012226 0.048153818 0.36788943 0.26804757 0.06309083 0.10880734 -0.20344807 0.0068790284 -0.09890342 0.17912018 -0.058310486 -0.113067694 0.31044108 0.099229574 -0.13885173 0.029931284 -0.17821537 0.031405345 -0.24380657 0.085333824 0.06956891 -0.07683649 0.15043826 0.31053692 0.16126812 -0.037671678 0.019504027 -0.10725854 -0.37615746 0.25947148 -0.29781172 -0.14707337 -0.046763532 -0.28033733 0.07468893 0.025940085 0.098071635 -0.21887323 0.02464523 0.27611712 -0.13225731 0.2216904 0.098409414 0.009990598 0.13227154 0.15970863 0.17052239 0.09230879 0.06618573 0.042205345 -0.2722475 -0.19329645 0.10214034 0.19915181 -0.11964573 0.030803556 -0.006838228 0.024113901 -0.08188296 0.048974868 -0.19196069 -0.085715875 0.2358161 0.022620885 0.18455224 -0.1432928 -0.22611535 0.15825473 -0.067107335 -0.10506467 0.092299044 0.07097621 -0.05931086 -0.2719647 0.14212799 0.016531706 0.012994697 -0.098706394 0.16206816 -0.06311676 0.10290035 0.01729361 0.0047551002 -0.1895595 0.19742157 0.17143345 -0.030514583 -0.015887314 -0.31940177 -0.13916765 -0.10043156 0.013030961 -0.014832359 0.04884345 0.07176304 0.085714914 0.07409615 -0.047098335 -0.16162382 -0.029387606 -0.08994578 -0.19428585 -0.17839082 -0.2318522 0.10997023 -0.30985117 -0.2772447 0.0031239986 -0.09966069 -0.24767357 -0.012359302 -0.053580604 -0.038521267 -0.024296826 -0.34219432 0.15231034 -0.23925039 -0.070008345 -0.2930321 -0.030830963 -0.0015379906
4985 0.017683214 0.0821801 -0.035560206 0.14472578 -0.057052463 0.16321519 0.09055566 -0.04766268 -0.06654745 0.20421126 0.11247877 -0.033553988 0.34270447 -0.067356005 -0.088857956 0.05571684 0.31307474 -0.16168167 0.0129047595 0.077523805 0.10423805 0.026037812 0.016684098 -0.17827511 0.032673962 -0.14470579 0.10395822 -0.17148852 0.06904226 -0.045602225 0.20656823 -0.11333759 0.078209125 0.11416744 0.017093614 -0.20014946 0.04264329 -0.10853109 -0.025410915 0.24037997 -0.2869998 -0.05923246 0.14747465 0.16612665 -0.15400285 0.028970152 0.06344148 -0.14549196 0.15106523 -0.020325104 -0.189555 -0.14569163 -0.042463295 -0.046375044 0.115892105 -0.1664891 -0.04254856 0.10208521 -0.074809395 0.1529148 0.117285036 -0.095062874 -0.2295174 -0.17315061 -0.064289436 -0.19332857 -0.21689473 0.27301416 -0.34971324 0.16339688 0.075630434 0.09751681 -0.08552052 0.006839345 0.13654627 -0.09866622 0.23675984 -0.14306363 0.1741167 -0.09529492 -0.29557368 0.003691077 0.059362408 0.2621594 -0.09986043 -0.016164351 -0.027785143 -0.1472598 0.044489946 0.0014774133 -0.03688041 0.08168184 -0.04560023 -0.20466326 -0.19913778 -0.06629398 -0.05189343 0.111737765 0.02097391 0.08926191 -0.076899886 -0.1375407 0.13724972 0.024409432 0.17434646 0.061848704 0.026995555 0.22661637 -0.058397777 -0.0777869 -0.032779377 -0.22789916 -0.22557732 -0.30475 -0.15299654 -0.071780875 0.0106648905 0.044901114 -0.19982277 -0.18754879 0.32263967 0.025484944 0.13854627 -0.20429944 -0.18808495 -0.060601577 0.3430042 -0.19461504
4812 -0.15225847 -0.0010999382 -0.009622892 -0.090305686 0.03950915 -0.07687924 0.09617501 0.050745897 0.023896063 0.3204164 0.24319278 0.08106053 0.234167 -0.059328023 -0.1219249 -0.29078773 0.38939255 -0.04686128 0.14347993 0.19479944 0.19979616 -0.11756754 -0.12482192 -0.07106631 0.07550043 -0.19532387 -0.13627543 -0.09801381 -0.2551608 0.042728394 0.11828506 0.17709884 -0.021576429 -0.041402657 0.00997841 -0.19274488 0.10923182 -0.20535553 0.101702556 0.0024658 -0.27901223 0.22185494 0.20232783 0.037783965 -0.0028175826 -0.17407678 -0.016863622 -0.10829761 0.12077884 0.05328901 -0.09170987 -0.07028285 0.1793842 0.10979888 0.07199202 0.033786964 0.114406176 -0.19004792 -0.073687725 -0.05096679 -0.03732763 -0.30117142 -0.16345356 0.004678879 0.02218818 -0.09225354 -0.023780392 -0.11864256 -0.3197415 0.08944369 0.110087134 0.23507464 -0.07744449 -0.0343286 0.04366479 0.08988529 -0.116432324 0.038804263 0.04541 -0.14874355 -0.29995117 0.19795662 -0.053795267 0.014263252 0.16447082 0.03442435 -0.020167178 0.08927288 -0.011318774 0.029395966 -0.31022376 0.1387562 -0.055897225 0.022448597 0.2049976 -0.14148629 -0.114747524 0.0047558974 0.14495008 0.14432798 -0.014893567 -0.14002429 0.12876077 -0.032580853 0.09674112 -0.15230499 0.2711834 0.3034674 0.015647206 -0.088641286 0.0807713 -0.1196396 -0.24445297 -0.28741243 -0.017487947 0.060603794 -0.27484903 0.0051062927 -0.018975668 0.07543948 -0.095639974 -0.43387997 -0.12897776 -0.17603028 -0.11986746 -0.0717284 -0.0060751275 0.18960181
6109 -0.06327327 0.2752949 -0.15122974 0.11168971 -0.16679072 0.0139591405 -0.025501857 0.26771164 -0.10030655 0.26627868 0.32171705 0.009051633 0.16450232 -0.03645227 -0.10205391 -0.03919183 0.08675584 -0.050285712 0.008981584 -4.766202e-05 0.00615424 -0.39579546 -0.07069067 -0.22202854 0.006990933 0.030547617 0.13620652 -0.23462075 -0.04934808 0.0900591 0.062286746 -0.10807248 -0.13518178 0.033746637 0.1139021 -0.121276096 0.2126714 0.0806109 -0.0019880855 -0.07218484 -0.3566667 -0.07498438 -0.0060508866 0.3355018 -0.057104606 0.0891589 -0.17070816 -0.07352182 0.35844743 0.043465238 0.11499315 -0.017165687 -0.15752606 0.029622516 0.11126123 -0.05928474 0.017576626 -0.16977781 -0.05038021 -0.09443314 0.31252524 0.054403085 -0.077230394 -0.040259484 0.061535228 -0.2427599 -0.010181012 0.02410316 -0.22269884 0.05099998 0.12772885 -0.010326401 -0.06173284 0.060111396 0.13563262 0.048932616 -0.06867971 -0.1327603 -0.1427614 -0.1720684 -0.26187727 0.071356595 -0.008054079 0.21321115 0.17533648 0.024004601 -0.00823387 0.008561043 0.050543547 0.0029639222 -0.1024272 -0.03295442 -0.09768989 0.078582644 0.072245665 0.004204088 -0.35923305 0.11058238 -0.050350286 0.26133835 -0.18176077 -0.18404208 0.24029718 0.036076903 -0.057299327 0.18660831 -0.015511344 -0.09930618 -0.17126942 0.21868998 -0.13798326 -0.053552587 -0.022691853 -0.16268827 -0.04103814 -0.08306103 0.16095895 0.1853529 -0.063155666 -0.04277978 -0.1504164 -0.095286764 0.18285716 -0.15763426 -0.2725484 -0.09065512 0.18634841 -0.008438993
4854 -0.6025156 -0.2848226 0.00675285 0.04114041 0.12361765 -0.069717795 -0.42734933 -0.049503528 0.041943878 0.34258547 -0.19502994 0.07568916 0.39367068 -0.20632775 0.09521293 -0.33845422 -0.34688514 0.3843892 -0.053835265 -0.10388589 -0.15067174 0.3485264 -0.14729992 0.1440486 0.32026434 -0.05114775 0.053535685 -0.42832512 -0.36671877 0.29704884 -0.600433 0.44806716 0.15662326 0.058233988 -0.9238776 0.55301756 0.36811024 -0.039806016 -0.09318058 0.048526272 0.010385244 -0.06890131 0.10876384 -0.07757298 -0.15682171 0.17117031 -0.2807183 0.010415564 0.0891461 -0.30025274 0.11980692 0.2497834 -0.50263524 -0.5185428 0.3552811 0.026601804 -0.39246598 -0.15360673 0.27155092 0.12141073 0.1551621 0.16629578 -0.27864164 -0.1741292 -0.41522828 0.4502124 0.2304885 -0.13682067 -0.030220388 -0.042948693 0.45205075 0.011957185 -0.04078341 -0.39202642 0.26567647 0.16986547 -0.14459236 -0.04560988 0.079995945 0.2500229 -0.119925484 -0.15097086 0.21444039 0.14679593 0.25236005 0.005949353 0.17174311 -0.4333911 -0.008483523 -0.13146377 -0.6166222 -0.045525555 0.2544688 -0.06985224 -0.20402144 -0.26963103 0.35749352 0.0045785047 0.6850352 -0.3136878 0.37199992 0.41573298 0.5423762 0.5527839 0.27033147 0.16048715 0.09254396 0.8073137 -0.061635118 0.0039029885 -0.0034609193 0.5457687 0.23062727 0.51897943 0.14746769 -0.33853513 -0.16795361 0.45252153 -0.1482298 0.12595674 -0.31633464 0.34153426 -0.10078646 0.39586943 -0.4077004 -0.179924 -0.02230509 -0.045978438
5615 0.07037608 0.013534552 0.0976478 0.15371262 0.10845146 0.13276815 0.15066317 0.26838645 -0.020395895 0.015363784 0.2999018 0.22295791 0.35753348 -0.0008394306 -0.082319014 -0.07684435 0.3197323 -0.14741279 -0.1557107 -0.15122393 -0.19416013 -0.30546296 -0.13574415 0.0017694847 0.083759926 -0.20927007 -0.085340925 -0.1372632 0.09728113 -0.02803772 0.28987923 0.15824129 -0.1951142 0.070769005 -0.14023928 -0.04794331 0.08611863 -0.16601115 -0.021672044 0.13670409 -0.09106554 0.028430264 0.28038397 -0.0768564 -0.26984242 0.04131478 -0.15589967 -0.10757459 0.17902018 0.12985598 0.1328162 -0.011250687 0.108416185 0.015159459 0.071342155 -0.04739935 0.2740137 -0.1557977 0.043854702 0.05646382 0.32720423 0.0367084 -0.118581116 -0.017631551 -0.011006816 0.007960758 0.14954466 -0.026750429 -0.026756776 0.052274432 -0.03643237 0.14099649 -0.059269376 0.024185868 0.01992293 -0.091902524 0.075073354 0.10960588 0.030224614 0.009979264 -0.2535703 0.1572709 -0.07780974 0.2999852 0.007743136 0.15011938 -0.041848216 -0.08460288 0.2039938 0.15132762 -0.06493329 -0.02891849 -0.04697329 0.022264535 -0.13819766 -0.12308534 -0.22713006 0.038890723 0.044279404 0.10970913 -0.14112884 -0.04022355 -0.026973462 0.09659469 0.16235086 -0.24670371 0.070846215 0.01819388 0.04409387 0.096452795 -0.08896519 -0.13371 0.037661526 -0.13811545 0.13606489 -0.17401488 0.017655233 0.11723297 0.09219247 -0.22286628 -0.15152024 -0.100849226 -0.03461056 -0.25734624 -0.23345293 -0.13823779 0.15060937 -0.08660334
3939 -0.051172365 0.14365752 -0.16606197 0.16436875 0.16320984 0.16668007 0.14298056 0.25538534 0.18768908 0.14165635 0.08564082 0.14540163 0.21917771 -0.14649424 0.010183444 -0.04224002 0.24885012 -0.0010896223 0.2426828 0.1720041 0.007169393 -0.14341284 -0.18735436 -0.12318625 -0.15945819 -0.10421712 0.032009646 -0.05642997 0.020104263 0.00038792676 0.15150356 -0.036073063 0.15912457 0.103768036 0.029424062 -0.18868814 0.018373251 -0.40252635 0.056102462 -0.08419727 -0.26918212 0.24737157 0.22340675 0.13568363 -0.11071042 -0.06523288 -0.057524245 -0.04542036 0.1097537 0.083730206 -0.2811126 0.10367907 0.10772151 0.07068844 -0.11110986 0.11831848 -0.14254275 0.038030628 -0.3635726 0.057905607 0.0023039584 -0.07583032 -0.21392691 -0.15358694 0.10278188 -0.026767656 -0.12209385 -0.16463922 -0.17347518 0.35280022 0.060687643 0.022730248 0.006570656 -0.29462418 0.07416371 -0.10629764 0.08200567 0.033248793 0.037430286 0.07977292 -0.304591 -0.023494557 -0.07501308 0.24510352 0.07291564 0.030832084 -0.061248932 0.23269513 0.03726647 0.113492295 -0.2965278 0.23957911 0.23035032 -0.019548712 0.0008762326 -0.21631004 -0.004211638 0.024612382 -0.0025337215 0.11556035 0.034972586 -0.03762442 0.25054407 -0.12949009 -0.042447917 -0.042407263 0.34998742 0.35218015 0.26120603 -0.052467067 -0.005735524 -0.090781 -0.065242715 -0.1425425 -0.067947045 -0.0868255 0.14801112 0.29271084 0.05096855 -0.17439245 0.25673676 -0.2751383 0.12853429 -0.46338108 -0.22604507 -0.18593937 0.0057149637 -0.232712
5135 -0.7779696 -0.3500059 0.023718951 -0.18414572 0.28920797 -0.21435274 -0.3758562 -0.3289539 -0.10699338 0.4365889 -0.10429418 -0.06844741 0.11527959 -0.25586694 -0.027868424 -0.037940133 0.08011924 0.21444114 -0.17786767 -0.20656617 -0.12127566 0.3617541 -0.10541568 -0.23777889 0.37620476 0.1919536 0.36178052 -0.517871 -0.4165723 0.036368936 -0.49873987 0.395357 0.14629517 0.09524338 -0.88975865 0.68108064 0.19913794 -0.0008552015 0.16505782 0.0045250515 0.3271771 -0.11565487 0.11708665 -0.1513588 -0.27780008 0.34985343 0.08635268 0.15737633 0.31431615 -0.3297204 0.25746346 0.4679145 -0.2329172 -0.40263918 0.4468187 0.0145406 -0.53598195 -0.2934964 0.5065003 -0.09254721 0.2812091 0.10298111 -0.23463197 -0.32149467 -0.0053544734 0.22253531 0.29588357 -0.0009228149 -0.18712367 -0.034987446 0.32421708 -0.28320348 0.06163885 -0.0828124 0.34044614 0.10699787 -0.22072145 -0.039460674 -0.015760133 0.09470565 -0.5467788 -0.35820085 0.44624954 0.12992418 0.12931678 -0.009493762 0.0067549213 -0.26132166 0.14056784 -0.13866217 -0.22452834 -0.042460363 0.10776771 0.19830859 0.07941872 -0.24634276 0.1791822 0.091877185 0.66248554 -0.20876034 0.43610895 0.4494966 0.26277885 0.43140888 -0.0346651 0.06993597 0.15754113 0.5878906 0.19268702 -0.058917817 -0.11919049 0.4412497 0.18156105 0.15899535 0.5261596 -0.121799015 -0.024553979 0.40029758 -0.25614882 0.1795121 0.30457604 0.10207706 -0.32848945 0.6449962 -0.42312253 0.0075222356 -0.10386645 -0.45486915
3623 -0.3491912 -0.07902779 -0.10643974 -0.27516112 0.21639808 -0.1285255 -0.24423344 0.053368226 -0.02719029 0.37193635 -0.32262716 0.07663151 0.3978846 -0.21461456 -0.026760617 -0.31524864 -0.15632549 0.59727377 0.07273335 -0.06751594 -0.3217994 0.27287155 -0.07348676 0.079024486 0.17411 0.3693073 0.347898 -0.68119866 -0.5637574 0.21988465 -0.61019266 0.5602162 0.112240136 0.028510388 -0.7297159 0.5499536 0.20882474 0.07910054 -0.050338104 0.2132374 0.08378978 0.0892716 -0.037280887 -0.024933035 -0.27709037 -0.03322788 -0.08215753 -0.15863858 0.08981484 -0.43129236 0.19318374 0.18874097 -0.5292667 -0.49108392 0.46218753 0.014829445 -0.5575504 -0.19464596 0.3314287 0.16625084 0.110042974 -0.09590903 -0.30821624 -0.29130945 -0.16614097 0.34397087 0.35279122 -0.07171485 -0.34525058 0.013198224 0.62809616 -0.23579401 0.028816925 -0.25350523 0.10548574 0.04583352 -0.15464507 -0.25840595 -0.08636733 0.027999578 0.0652268 -0.038480535 0.2169105 0.083336085 0.13388073 0.052094802 0.2122504 -0.556575 -0.12932123 -0.07687139 -0.4534048 -0.26802757 0.14817761 -0.037581712 0.17786866 -0.43388918 -0.045120127 -0.04908144 0.53725195 -0.28672457 0.2345362 0.50630105 0.28312588 0.3633764 0.4038779 0.3243876 0.3499365 0.5311624 -0.07623426 -0.059024464 0.06502703 0.35319915 0.21102321 0.5623538 0.4134504 -0.4991378 -0.23589219 0.37728238 -0.2786314 0.22858217 0.056167357 0.5285511 -0.030788837 0.3239681 -0.2522465 -0.18652739 -0.07433458 -0.23192321
2411 -0.13568607 0.122533984 -0.17845635 0.12666044 0.038961314 0.09437876 0.16184601 0.0035539584 0.100191355 0.2055059 0.14429119 0.047028147 0.29373136 -0.14364105 -0.079148136 0.048523445 0.20323138 0.11641205 -0.2822848 -0.07665676 0.14341813 -0.26138014 -0.24785419 -0.16370398 -0.055335943 -0.10774375 -0.06693727 -0.20451681 -0.07573771 0.10451199 0.18496548 -0.080445655 -0.23083016 0.10197932 -0.058955528 -0.19054416 0.24337904 -0.22757521 -0.053232584 -0.21817516 -0.18806362 0.06592967 0.16042359 0.1144984 0.08390977 0.06168495 -0.18674211 -0.3226052 0.2224573 -0.121380724 -0.082440175 0.07249079 0.16448398 -0.0067615397 0.0016876932 -0.110558935 0.043956276 -0.0131196985 -0.14262806 0.25323543 0.22062069 -0.08229195 -0.18684112 0.14614017 -0.046261575 -0.19732149 0.0053005614 0.3214682 -0.09814395 0.14082818 0.1692177 0.07285022 -0.25005004 -0.11454942 0.04139624 -0.07841541 0.16277686 0.1380386 -0.0057036327 -0.08193533 -0.04105682 -0.067271374 0.07561243 0.15955064 0.24104242 0.29215407 -0.1000926 -0.02788193 -0.06285489 0.115867436 -0.058539223 0.14067 -0.020674199 -0.11214962 -0.13211465 -0.12445329 -0.06683381 -0.13516805 -0.20505257 0.22116609 -0.039040577 0.064218804 0.24133582 0.15550661 0.084126815 -0.1196846 -0.07260747 0.22947702 0.019127067 -0.10288206 0.0058532115 -0.1626921 -0.081346855 -0.21076313 0.16006006 0.087371156 -0.00791683 0.060315847 -0.058245175 -0.03330815 -0.19762556 -0.10123403 0.16151327 -0.29408506 -0.11850159 0.038683422 0.091184795 0.0053820037
1628 -0.022765443 0.0018020493 0.11219547 -0.04135051 0.08341991 0.108937785 -0.068913504 0.20203097 0.14835429 0.30605748 0.19899026 0.19348966 0.20917979 -0.07144873 -0.013169629 0.0669475 0.08468149 -0.01199641 -0.15843667 0.068483695 -0.16231592 -0.17733309 -0.14099109 -0.2056418 -0.22569194 -0.09968653 -0.22287235 -0.13155976 -0.18557245 -0.026108567 0.34016803 -0.013645908 0.028165597 0.11151169 -0.19895372 -0.23517132 0.2122377 -0.11985209 0.06701298 -0.10187638 -0.32442173 -0.040631726 -0.05541886 -0.10669479 -0.03890767 -0.018398203 -0.022785237 -0.055891097 0.24785793 0.24173774 -0.07009106 -0.06455827 0.20145033 -0.022999652 0.020765439 -0.2128114 0.16544686 -0.12560882 -0.07468868 -0.05720762 0.14262715 0.14984068 -0.11819218 0.09972556 0.10495609 -0.053604167 0.14271858 -0.10808214 -0.19012873 0.1312803 0.06066291 0.0006388545 0.014863515 0.14018294 0.17312242 -0.131391 0.08576864 0.02586906 -0.20782393 -0.06910221 -0.10382758 0.23868605 0.015106623 0.20033248 0.09557637 -0.30335626 -0.101976946 -0.2580358 -0.2842071 0.044400502 -0.15619619 0.11058957 0.08184175 0.10443023 -0.17497928 -0.040236026 -0.06141611 -0.17533416 0.06265942 0.04276192 -0.34439492 -0.05906743 0.17032175 0.20671117 -0.067918055 -0.16543572 0.23658203 -0.0010177124 -0.10373237 -0.051140048 -0.04360506 0.050781976 -0.12828216 -0.15002693 0.070776604 -0.2979211 -0.06582548 0.11463927 0.06439587 -0.0248131 0.110501334 -0.2602556 0.118649386 -0.27449223 -0.0016149075 0.20377576 0.06639965 -0.09496041
1625 0.0076001245 -0.021151595 0.15769123 0.11179436 0.07596053 0.280803 0.122527756 0.047539383 0.064006686 0.15809079 0.2516034 -0.16309817 0.17563075 0.008367619 -0.06493468 -0.030355705 0.33127812 -0.08095009 -0.09620407 0.2349706 -0.09844539 -0.20337375 -0.14303072 -0.106638834 0.14035508 -0.2169748 -0.09387735 -0.195717 -0.0005783799 0.14131828 0.045681372 -0.12604855 -0.038365915 0.008274414 -0.2481556 -0.42322332 0.14699325 -0.2361659 0.032460935 0.115426935 -0.17484756 0.019872012 0.06974183 0.14357474 -0.066971175 -0.19782707 -0.04416775 -0.02403361 0.474199 0.038737647 -0.042266794 -0.07112144 -0.11680141 -0.19507867 -0.07191048 -0.08857598 0.15178494 0.20501299 0.17396618 -0.14360523 -0.09942415 -0.16130412 -0.31118244 -0.033733547 -0.038385168 -0.183373 -0.11645915 0.14889611 -0.00960469 0.41889572 0.020573432 0.08596713 -0.07320596 -0.1692971 0.0035583498 -0.019304112 0.087677374 -0.075033225 -0.07700429 0.04278326 -0.23902357 0.25694048 0.08161273 0.1743393 -0.0097424295 0.24485284 -0.10588693 -0.11161271 -0.011989324 0.036031518 -0.06691866 -0.16355185 0.27057385 0.03619334 -0.07336293 -0.22432315 -0.14031047 0.1681414 -0.023842817 -0.09700463 -0.0980791 -0.17805272 0.0060285428 -0.08021991 -0.08082582 0.11687571 -0.00094339065 -0.045879386 -0.21181202 0.10694571 -0.19259857 -0.025892504 -0.1799403 -0.16726708 0.027963689 0.05331717 -0.13469356 0.22671697 -0.06466815 -0.2165325 -0.008457693 -0.04680185 -0.05150512 -0.28439838 -0.08507616 -0.013109538 0.1742692 -0.049969934
1595 -0.58763105 -0.50844043 0.14955607 0.12879966 0.33109173 0.1334903 -0.59684354 -0.12398436 -0.09005928 0.408255 -0.41223902 -0.10550376 0.19945292 -0.43814245 -0.09191481 -0.064225055 -0.057959467 0.3016715 -0.03515254 -0.34961018 -0.4421179 0.2310508 -0.31486002 -0.13628691 0.39340773 -0.124955304 0.18728235 -0.5379502 -0.19648206 0.0318281 -0.5450247 0.16274074 0.04912805 0.0050802208 -0.7534432 0.56244725 0.36274916 0.020390492 0.054237876 0.1357337 0.08332116 0.014636877 0.032474846 -0.08549213 -0.023103539 0.15044278 0.14270343 0.24776761 0.19619288 -0.296276 0.35758594 0.25201333 -0.37862578 -0.37260762 0.41639107 0.00599673 -0.3915183 -0.29218286 0.29087716 0.19246775 0.45986688 0.03476313 -0.2971162 -0.20717077 -0.011704715 0.5531944 0.036849093 -0.16832665 -0.11813059 0.14974017 0.56067854 -0.055360366 0.2360725 0.09757915 0.34850028 -0.0791529 -0.3977778 -0.08365606 -0.04315382 -0.13678658 -0.39785132 -0.056008298 0.39239964 0.13573173 0.21496786 0.0722082 0.2539353 -0.31852028 -0.08206137 0.095868275 -0.6853748 -0.10969354 0.20275716 0.02380245 -0.045437347 0.046769243 0.15889975 0.0060459306 0.43472308 -0.3047613 0.39639136 0.07383775 0.25000146 0.22396415 0.025366902 0.12320602 0.20224187 0.6810871 0.068116896 0.16641508 0.16246852 0.3655503 0.39857644 0.7155281 0.21930562 -0.17127454 -0.42981553 0.70026946 -0.3729516 0.39357048 -0.077494636 0.021071201 -0.21328591 0.7317193 -0.41539422 -0.2631288 -0.10988365 -0.34227386
3259 0.05200361 0.07656321 -0.10899465 0.08389395 0.008491769 0.12273796 0.23012891 0.1168397 0.09675481 0.37109774 0.26714414 0.1173077 0.286125 -0.03324848 -0.12838769 -0.08687727 0.31302595 -0.06355952 0.01848844 0.2801756 0.13198349 -0.27982408 -0.25326407 -0.09344441 -0.14344013 0.036473095 -0.024250852 -0.24210075 0.10710928 0.10726249 0.1892157 0.18801855 -0.018088078 0.120558955 -0.069174856 -0.13118123 -0.20580691 -0.2121345 0.15104523 -0.045619655 -0.19562377 0.11530033 -0.02797891 0.072986506 -0.15981685 -0.17088905 0.24416919 -0.050170958 0.25960585 0.044734873 0.029517611 -0.08629159 0.04866489 0.18173662 -0.20632713 0.008332959 0.18775281 0.2590591 0.08833504 0.104649775 0.16964072 -0.21461947 -0.27063194 0.12701504 0.115656585 -0.1357379 -0.084798746 -0.21843281 -0.072758414 0.16279653 0.008626336 0.1306387 -0.0968251 -0.119807646 -0.094801314 -0.2826498 -0.04104265 0.34440857 0.06846555 -0.19575007 -0.15506613 0.043776475 -0.0035576168 -0.0063016294 0.23377089 0.11372277 -0.11165187 0.23257625 0.14074036 -0.032046877 -0.18096645 0.112989046 0.19175161 -0.06706502 0.15879266 -0.14532565 -0.057747357 0.21862575 0.0752544 0.06240728 -0.024101047 -0.022041127 0.13409427 0.23067793 -0.1640978 -0.034392875 0.041516006 0.12794387 -0.07087989 -0.09310516 0.17717321 0.14249292 -0.13282672 -0.17850924 0.16311142 -0.21156588 0.028880272 0.25530788 0.041588772 -0.005865801 0.10561441 0.018295566 -0.000994838 -0.15341829 -0.21617362 0.015066902 0.087677345 0.0696945
605 -0.20373267 -0.013644383 -0.16076528 0.057243086 0.073810466 -0.021257097 0.10364559 0.053947467 0.093041725 0.4258881 0.08896624 0.0044090273 0.2765015 0.083168484 -0.0016161074 -0.03312843 0.33070436 -0.36216018 -0.019065576 -0.056317702 0.07153744 -0.44601682 -0.21255153 -0.28151375 -0.0689521 -0.30150595 0.16990736 -0.18299124 -0.02630542 0.018714119 0.073222436 -0.05372091 0.07373921 0.09658159 -0.093650386 -0.18858923 -0.031406853 -0.33587158 0.12068435 -0.039940868 -0.122145236 0.00088596245 -0.017411545 0.026122328 -0.3968072 0.2080981 0.010761654 -0.1331526 0.23003419 -0.1842732 -0.033536512 0.043353934 0.31443983 0.036594294 0.21505556 0.11803085 -0.021956742 0.32212865 -0.24380091 0.09185971 0.07377677 0.1940268 -0.23890953 0.21562766 0.13126291 -0.11023505 0.102216125 -0.06750686 -0.029422356 0.14533961 0.09848148 -0.037892908 -0.032706335 -0.11492369 -0.1141053 -0.12658066 -0.30397698 0.02166859 -0.32599634 -0.106126755 -0.14511639 -0.08578165 0.11913718 9.03748e-05 -0.08389459 0.22585505 -0.03517355 0.052663155 0.09637628 -0.047189172 -0.09124945 -0.02854117 -0.13202357 0.04528796 0.06709952 0.2634943 -0.10640163 0.019627525 0.119050704 0.1405563 -0.09576769 0.0586192 0.06668942 -0.08623133 0.019112745 -0.041634243 0.16808866 -0.08785743 -0.3616645 0.12437921 0.030676166 0.10673049 -0.03614473 -0.2101383 -0.043073103 0.051381055 -0.08800543 0.27749398 0.24283625 -0.1282701 0.14393006 -0.07738853 0.01685752 -0.36637765 -0.16127579 -0.43330336 0.19780943 -0.030477384
4171 -0.85051745 -0.22055109 0.07647664 -0.12155349 0.03462942 -0.20584145 -0.510959 -0.2967251 -0.2354339 0.3325672 -0.31395438 -0.33839718 0.24762593 -0.39271167 -0.31226927 -0.10416607 0.03969874 0.5651032 -0.105996765 -0.2045892 -0.22133848 0.41731563 -0.37560654 0.072692685 0.4339404 0.20304017 0.105880514 -0.6274524 -0.26413956 0.016711459 -0.5840995 0.36206242 0.13931683 0.13795128 -0.7684119 0.5529077 0.37935904 0.092072174 0.21590596 0.08374806 0.17559241 0.33055168 0.201747 -0.18459137 -0.10194882 0.25638217 0.059975605 0.04556491 0.30361962 -0.4106517 0.13497835 0.5181592 -0.27222127 -0.34559575 0.5382548 0.111114986 -0.6335904 -0.33413416 0.23051566 -0.011587768 0.41718554 0.21101522 -0.29064777 -0.33584082 0.09229455 0.33581975 0.22154726 -0.205042 -0.41226867 -0.072657295 0.4004843 -0.24201524 0.16978212 -0.12439283 -0.049125887 0.082685225 -0.19523394 -0.022953423 -0.13327152 0.009732019 -0.15135992 -0.40183988 0.62373704 -0.06515133 -0.10800238 0.09595353 0.14440429 0.009332017 0.041285224 -0.0917925 -0.41775686 0.103370264 -0.025831493 0.13424726 0.1031883 -0.3693566 0.12536058 0.2728924 0.50962 -0.06028016 0.4191384 0.415906 0.29104632 0.4963142 0.00050615903 0.093838595 0.14429426 0.44134516 -0.06447324 -0.2813046 -0.11050659 0.27896252 0.16779785 0.45536384 0.33667305 -0.2715019 0.01829185 0.036771294 -0.11187464 -0.2838047 0.06360195 0.20124584 -0.0051212516 0.25576591 -0.5112709 0.26598883 -0.16961221 -0.6170527
5473 -0.06481523 0.3560588 0.017464189 -0.0074968045 0.044608817 0.3371835 0.059541192 0.097807735 -0.05991547 0.36383206 0.25389883 0.09840967 0.16508274 0.069367826 0.009992315 -0.12897584 -0.107025795 -0.20096944 -0.12330131 0.1905521 -0.016978264 -0.18237612 -0.18030117 -0.004900249 -0.16639504 -0.17940232 -0.2601905 -0.12060507 -0.19949093 -0.055124592 0.05866248 0.07719748 -0.15175398 -0.029268429 -0.09307329 -0.15153389 0.03867468 -0.45049247 0.024072364 0.053619064 -0.29925194 0.096366726 0.13724156 0.2568411 0.120189056 -0.08548524 -0.050786145 0.01712137 0.4664103 0.08486798 -0.08458437 0.08244745 0.2977944 -0.3540144 -0.13161297 0.07604225 -0.05866618 -0.010863382 -0.19754846 -0.058376558 0.15496647 -0.23511696 -0.20587577 0.13015494 0.26345724 -0.25232327 -0.2017449 -0.14411834 -0.29925093 0.1816282 -0.107244484 0.058768086 -0.008174599 0.19768666 0.104859434 -0.044349153 0.1261195 0.04661351 0.14758272 -0.06940248 -0.12974164 -0.004370759 0.06968538 0.037030075 -0.13336346 0.27301848 0.078776814 -0.020334877 -0.07403026 0.036106016 0.04837281 0.15935275 0.06234982 0.08780064 -0.11766772 -0.3492673 -0.19312686 -0.096205525 0.1842456 0.15166603 -0.29443708 -0.06893041 0.24127793 -0.054293394 0.11914653 -0.11922973 0.20923553 0.27065754 0.21510158 -0.19723772 0.11856135 -0.08522547 0.008105559 -0.13986026 -0.060405646 -0.060249843 -0.009253923 0.20924209 0.1054651 -0.17617421 0.21567607 -0.07635863 -0.09700559 -0.25009462 -0.09157239 -0.17173289 0.102128625 -0.047838166
4980 0.13432683 0.21476081 -0.04808457 0.12989482 0.3207865 0.04117133 0.10200241 0.13164432 -0.0039453483 0.20939714 0.20270196 0.00992755 0.084499985 0.08382351 -0.18300366 0.03459314 0.2152679 -0.10678347 0.04407041 -0.04581932 -0.059834905 -0.16221748 -0.1014162 -0.052992493 -0.005002506 -0.43106964 0.03809731 -0.21571177 -0.08852245 0.27805588 0.27991626 -0.009045603 0.22144729 0.14375496 -0.03645988 -0.112429895 0.06902811 -0.117796004 -0.08602331 0.15022264 -0.20626524 -0.21579635 0.07791578 0.13094036 0.3149582 0.046523537 0.2933056 -0.20672528 0.19198911 0.09712205 -0.18441406 0.07280409 -0.09769176 -0.07688834 0.042199392 0.027251966 0.34531492 0.10055414 0.027668612 0.21204352 0.138896 -0.2218688 -0.17743684 -0.019792711 0.011573167 -0.09928046 -0.23082182 0.12040956 -0.21695997 0.26541188 0.012143616 -0.01820102 -0.19425216 -0.0426529 0.12338012 -0.046175145 0.083861545 -0.057692345 -0.13139246 -0.17773104 0.02619981 -0.120545 0.08654072 0.32513726 0.092471905 0.32157585 0.12127086 0.047528222 0.00049749087 -0.032354828 -0.12947418 0.28985655 -0.16427068 -0.04413294 -0.02343156 -0.128638 0.09113353 -0.03281366 -0.027862832 0.16673894 0.12557837 0.08823447 0.1460226 0.06292457 -0.091539405 -0.21872129 -0.021407194 0.21751207 -0.008170557 -0.1262178 -0.029420864 0.07318124 -0.16661623 -0.25532073 -0.043600436 -0.015012038 0.062836014 0.33235067 -0.21245606 -0.25477818 0.029863441 0.059031837 -0.04785502 -0.29786173 0.16739717 -0.054503985 0.18670088 0.024817614
2333 -0.11420021 0.06433624 -0.034000248 0.2652716 -0.045875717 0.11842944 -0.22367884 -0.034359973 0.24017614 0.45839804 0.24521394 0.24718088 0.30185923 0.1627867 -0.048729558 -0.14964677 0.1062963 -0.28660157 -0.030514307 0.29551482 0.013451932 -0.52769005 -0.0745687 0.05817954 0.073310986 -0.01881037 -0.082763225 -0.22460037 -0.12534684 -0.012796355 0.35545582 0.045813173 0.009066057 0.08632388 0.020308804 -0.4270556 0.15569285 -0.12286049 0.10418622 -0.033337727 -0.26472133 0.063038364 0.012039876 0.09198559 0.11257885 0.113771014 -0.024822751 -0.04870781 0.17943586 0.019509898 -0.09003948 -0.006951955 0.018709928 -0.17157878 -0.025935104 -0.04901393 0.11179492 -0.012335659 0.18869525 0.02366575 0.1996734 0.18172614 0.022418797 -0.04378626 0.29019913 -0.028511401 0.0873521 -0.29743552 -0.34155855 0.20258667 0.017594047 0.21363562 -0.09003993 0.19659476 0.037955135 -0.08598879 -0.03527459 0.015004879 0.26435483 0.22453836 -0.057869095 -0.06829634 -0.1509917 -0.033586834 -0.07713028 -0.069832966 -0.19636968 -0.23540685 -0.02202824 0.07850182 -0.06611698 0.30124098 -0.054909214 -0.0665087 0.1649606 -0.16151962 -0.23492192 -0.20431551 -0.19231498 0.084109016 -0.2040361 0.22758429 -0.008803096 0.19591011 -0.15838788 0.01442197 0.20953245 -0.026270978 0.18159351 -0.042886864 -0.033895854 0.07137728 0.024273925 -0.07167993 -0.12115933 -0.1236434 -0.22325625 0.27844992 -0.0505273 -0.25820503 0.10165185 -0.09143121 -0.052510545 -0.009969759 0.086497135 -0.16784123 0.19529165 -0.047716625
1424 -0.15470737 0.0172754 -0.030250465 0.06714748 0.12758675 -0.23680276 -0.0066547794 0.23622255 0.08953904 0.44388598 0.21907037 0.047469433 0.32040575 -0.29124478 0.04235292 -0.07401229 0.23415321 0.060812656 0.11606246 0.41496444 0.037269432 -0.13744093 -0.1886328 -0.0582945 -0.02851768 -0.033182282 -0.23624639 0.21331495 -0.026191752 0.12496213 0.1338309 0.00036934158 -0.10583712 0.25181213 -0.08490474 -0.3171789 0.028532572 -0.25474817 -0.20645213 -0.004366609 -0.412558 0.07501844 -0.06413507 0.080080405 0.038516205 -0.043696217 0.12860906 -0.23392025 0.32736287 0.03552501 -0.106361926 -0.06937503 0.061480243 0.119265966 0.18787666 -0.11927807 0.07563696 -0.214698 -0.027760658 0.038364206 0.15573768 -0.011289609 -0.08942359 -0.07413189 -0.07208973 -0.033648863 -0.09281324 -0.22058839 -0.06595836 0.124874085 0.05259742 0.1696888 -0.29374987 -0.02595799 0.17832826 -0.10051696 0.08632352 0.07456766 0.059798457 -0.016037928 -0.31862333 0.32716063 -0.021629635 0.069687955 0.18716723 -0.106780775 0.034044623 0.098450005 0.07420238 -0.025560379 -0.23953827 -0.12572595 0.018524365 0.16805644 0.05607896 -0.08276896 0.05201704 -0.04390992 0.13705131 0.10535063 -0.0075200284 -0.13860232 0.06071375 -0.11615628 -0.06905041 -0.15469986 -0.00025749416 0.16443188 -0.43279105 -0.06534352 -0.15465423 -0.0023075987 -0.2800527 -0.35274282 0.013441988 0.02433536 -0.18311968 0.18808816 -0.16578534 0.031183457 0.045229506 -0.04957324 0.028021416 -0.16526462 -0.21535985 -0.047522217 -0.10737696 0.060376428
593 -0.07551094 0.095650755 -0.15652059 0.1020679 0.018412074 -0.054826923 0.05085042 -0.016629815 0.09413957 0.11678041 0.17898276 0.1343993 0.2693473 0.11251945 -0.1823378 0.18591361 0.2089347 0.16536586 -0.09639401 -0.0073856143 0.076615095 -0.1880236 -0.075188935 -0.04943611 0.023739249 -0.12814021 -0.0032882057 -0.15268147 -0.0071576284 0.10367996 0.23221864 -0.084163316 -0.22704358 0.17249487 -0.16266623 -0.16207312 0.049851082 -0.20079288 -0.07138008 -0.26131257 -0.2658141 0.13405949 0.20302515 -0.15597273 0.21939307 0.0067287786 0.07538057 -0.2526129 0.22698803 0.082434796 -0.072318465 0.08857056 0.24960528 0.03856347 -0.11625727 -0.15237515 0.117138915 -0.20716652 -0.14263487 -0.053155836 0.13848521 -0.024895437 -0.19206679 -0.23215346 -0.012302205 0.0447127 -0.017294312 0.04729081 -0.2148895 0.16712968 0.13136114 0.09557634 -0.06273846 -0.15100728 0.29013768 -0.036016345 0.20498599 0.05217464 0.19116662 -0.19751255 -0.2437152 -0.0131500745 0.1300497 0.1194276 0.09283414 0.0046204175 -0.12570234 -0.061354645 0.074519806 0.11123133 -0.15287422 0.07139412 0.044720307 -0.2225392 -0.26901385 -0.3202794 -0.2768783 -0.20990145 -0.2585853 0.26891363 -0.089399256 0.044644352 0.28879845 0.069137804 0.07987146 -0.19718246 -0.0765156 0.26254833 0.02505106 0.08184131 0.00021976056 -0.18484293 -0.19110665 -0.25385767 0.26035035 -0.013130275 0.005880608 0.096314594 0.050600395 0.032460228 -0.09493455 0.14815684 0.037857674 -0.31986693 -0.05803599 -0.123156406 0.19296843 0.015127572
1897 0.020997744 0.28607404 0.13676089 -0.06001935 -0.061627883 0.13261025 0.1909711 0.2313256 0.13490956 0.23968068 0.09772689 0.13832653 -0.021203883 -0.2641081 0.17050235 0.17479396 0.15424666 -0.08557857 0.1891787 0.03414971 -0.04659374 -0.119839475 -0.20989595 -0.18148059 0.009838872 -0.1047353 -0.123752914 -0.024894154 -0.11785601 -0.2051404 0.2890012 -0.084606715 -0.15733032 -0.08681956 -0.036841705 -0.22660579 0.1745564 -0.08944155 -0.030526996 -0.0074182386 -0.03717179 0.006810192 -0.11832185 0.118754655 -0.023327345 -0.039187524 -0.13129608 0.04667164 0.1172851 0.032422286 -0.03353004 0.14922489 0.15308563 -0.070804685 0.10242892 -0.39246294 0.12825881 -0.047532685 -0.24639902 -0.04373718 0.028780475 -0.004458422 -0.109642416 -0.1260979 0.03892358 0.0104323365 -0.15222886 0.20527793 -0.47819176 0.3345983 0.31276685 0.12388889 0.0018506595 -0.08545893 -0.07502705 -0.2687119 -0.032873068 -0.20641418 0.16591528 -0.2993547 -0.28317374 -0.08452745 0.12901577 0.14403172 0.13045311 0.14031827 -0.23097712 0.06531238 0.10403895 -0.1333266 -0.25665334 0.058451656 -0.06977303 -0.07315119 0.045019716 -0.054208543 -0.097770594 -0.14755237 0.06590612 0.15065254 -0.037396487 -0.14487365 0.09171852 0.026721643 0.15379395 -0.22023024 0.21922238 0.36092174 -0.20828502 0.013731905 0.042296298 -0.024823686 -0.197681 -0.26920748 -0.0119849555 -0.25911966 0.17986397 0.26590928 -0.08602988 -0.19763464 0.23612121 -0.0803614 -0.0020424535 -0.09617031 0.008059106 0.024492465 0.37120458 0.013494289
5 -0.37058333 -0.32941568 0.11403615 -0.0078597125 0.26417354 -0.05803122 -0.33929345 0.22413911 -0.049100026 0.45298156 -0.43962237 -0.0020056644 0.48909298 -0.26890364 0.22063302 -0.17166421 -0.03740339 0.6382943 0.031722903 -0.06840539 -0.36276537 0.29204643 -0.34624085 0.07272303 0.1921102 0.083247095 0.3994185 -0.481433 -0.64063954 0.15404102 -0.5439536 0.45165816 0.11804497 -0.002782981 -0.7742733 0.6569788 0.26625076 0.096292734 -0.15009645 0.23169804 -0.10102333 0.03697929 0.111764476 -0.1380617 -0.18860967 0.44603387 -0.06554051 0.18953073 -0.074028194 -0.121721126 0.15564135 0.20879546 -0.42180058 -0.063820325 0.3994808 0.20740229 -0.74533844 -0.2006029 0.3930405 0.047952402 0.118313186 0.10383959 -0.23633808 -0.13621336 -0.21513036 0.21953276 0.34676495 -0.21856913 -0.18283643 -0.08771897 0.64261544 -0.3226775 -0.11273838 -0.16499312 0.16355893 -0.0004485906 -0.16429 -0.08369373 0.088563785 0.02693037 -0.3755448 -0.35145172 0.17129621 0.04615612 0.1121846 0.023418281 0.001638175 -0.49887276 -0.30944273 -0.15245071 -0.53532094 -0.19868155 0.090018496 -0.048895657 0.17382345 -0.5750869 0.069371216 -0.1860107 0.5771282 -0.14007919 0.21128172 0.5112753 0.21302232 0.50480413 0.17691302 0.17511605 0.19103618 0.5789937 0.07983706 -0.07870174 -0.08159069 0.2786917 0.27407247 0.880924 0.337596 -0.51391053 -0.031851623 0.46339694 -0.06927494 0.15904917 0.032218475 0.5074606 -0.06678688 0.27527574 -0.050412927 -0.1880033 0.06554878 -0.26967695
3348 0.11094494 0.060960855 0.102700196 0.22176498 0.17010483 0.00792897 0.0042376677 0.18524362 0.043324154 0.25634924 0.24138246 0.18573394 0.092512205 -0.16426778 -0.18881647 0.12178533 0.19236012 -0.0741938 -0.14162415 -0.053598896 -0.02546809 -0.24436527 -0.10133539 0.11195761 -0.017499812 0.09610977 0.18768644 -0.121285655 -0.2257821 0.0453035 0.3179076 -0.07851608 0.049634762 -0.082512274 0.13069388 -0.14589413 0.27461633 -0.101190306 -0.17843889 0.13627037 -0.29104853 -0.10542868 0.20119074 0.18587662 0.12339617 0.039241012 0.06800852 -0.03890381 0.046135545 0.03146526 -0.11693761 0.16035928 0.15794031 -0.10805324 0.04525457 -0.11750395 0.2260857 0.043069102 -0.28010118 0.15027447 0.09360035 -0.1428287 -0.23038247 0.14045613 -0.058450866 -0.20791407 -0.3524003 0.005519876 -0.43925786 0.3542694 0.017222943 0.14300466 -0.46488446 0.25310647 0.011111741 -0.03977709 0.18500124 -0.083458096 0.10480674 0.11817343 -0.1701834 -0.037508175 -0.051648933 -0.0059483484 0.063045435 0.20272781 -0.078882605 -0.032929275 -0.08643888 0.30718672 -0.029073745 0.26087883 0.15486117 -0.13552113 -0.0028221519 -0.20391198 0.022700988 -0.021259515 0.22402951 0.06386769 0.24293715 -0.05062455 0.19193709 -0.020557348 0.081946746 -0.27759784 0.14195707 0.4887577 0.107130766 -0.060079783 -0.074732855 -0.11234601 -0.11789614 -0.13810708 -0.034982305 0.20544827 -0.026213715 0.18687367 -0.27451333 -0.22104348 0.067583695 -0.11030098 0.068854555 -0.4606312 -0.0961843 -0.12969433 0.16407028 -0.005273277
817 0.0039035568 0.119767666 -0.16123202 -0.099981956 0.27459058 -0.012517621 0.07177663 -0.10425158 0.14630815 0.03886053 0.29747775 0.24822305 0.23524216 -0.06419349 0.1367323 0.06421504 0.1346447 -0.054393582 -0.04903263 0.09865644 -0.046272695 -0.22549997 -0.28891733 -0.2790586 0.12178989 -0.21803778 0.017276553 -0.18684135 -0.105062075 0.076463655 0.2576185 0.12834243 -0.068295956 0.109637134 0.09855328 -0.35675284 -0.025005635 -0.24790348 -0.055517968 0.029777868 -0.15047368 0.05078852 0.19182189 0.08313581 0.04145436 -0.055290997 0.057515673 -0.13292517 0.27421188 0.067582354 -0.15121576 -0.31349733 0.089878246 -0.1604234 -0.018201886 -0.21184693 0.3850845 0.16384539 0.24988261 0.103066765 0.26757023 -0.26969048 -0.24829991 -0.029798979 0.08210688 -0.13253942 -0.12439525 0.0029983749 -0.023854049 0.3149481 0.009086518 0.04923063 -0.07696616 -0.21891488 -0.20031263 -0.16919985 0.17580143 0.02552451 -0.21010719 -0.21712673 -0.030545468 -0.004786126 0.17764671 0.20979315 0.103977755 0.30808955 -0.113467954 0.07741287 0.34275603 -0.115124695 -0.32601437 0.1758877 0.05300454 -0.06481343 -0.05565472 -0.21051209 0.015685491 -0.11460371 -0.0045948913 0.23932858 0.24165468 0.04164448 0.16999349 0.106891565 -0.14934622 0.14479607 0.009137297 -0.06387003 -0.23036051 0.07098676 -0.03686828 -0.080074444 -0.21871018 -0.0477602 0.10003668 0.042292334 -0.061046205 0.27432773 -0.15521869 0.0032159844 -0.24217634 0.16943304 0.03558663 -0.27237323 -0.24622929 -0.08725009 -0.016851872 0.05863272
677 -0.21888162 0.20230612 -0.09066602 0.30679858 -0.09780595 0.09898622 0.10309284 0.18908477 0.07816168 0.11233521 0.20767982 -0.059888832 0.38150877 -0.122191116 -0.06040059 -0.16622002 0.24740827 0.04615138 -0.01714215 0.09026913 0.043640956 -0.23633832 -0.16408835 -0.22712055 -0.08716255 -0.14711145 0.04135614 -0.452276 0.13473713 -0.08791682 0.2617215 -0.06918654 -0.06310685 0.012035467 0.09400112 -0.20563677 -0.08540701 -0.231129 -0.1809891 -0.04259649 -0.020560747 -0.27426398 0.049187094 0.10598543 -0.05866646 -0.07465545 0.16318561 -0.015347659 0.2624512 -0.21173541 0.06723385 0.23265766 0.030305507 0.15696815 -0.043313507 -0.08959984 0.14581157 -0.12856174 0.06572699 -0.066517964 0.17023478 -0.31085348 -0.017303713 0.030926455 0.020377293 -0.16975461 0.03622114 0.14700843 -0.046245992 0.097666785 0.051997162 -0.01331048 -0.086771734 0.043244224 -0.018154094 0.15661715 -0.11668406 -0.22327359 0.012424715 -0.089455605 -0.04746825 -0.10688172 0.10348904 0.17123696 -0.032778192 -0.04251224 -0.08041865 0.18779135 0.15045822 0.30847493 -0.14488305 0.13422284 -0.13623121 -0.21468453 -0.13709511 -0.113230735 -0.08700372 -0.03710056 -0.03763587 0.049371373 -0.042893924 0.018404283 0.16323037 0.11296764 -0.111885615 -0.12546845 -0.026231123 0.06495493 -0.094565146 0.02059206 -0.15279333 0.016991999 -0.18516287 -0.19455782 0.0322379 -0.042617146 -0.14902958 0.06439864 0.15510787 -0.08505559 -0.08079967 0.06378782 0.27821365 -0.31064633 -0.18166454 -0.18149461 0.09949285 -0.097794734
2216 -0.21609782 0.20773709 -0.08859125 0.061119758 -0.2341227 -0.13520251 0.23305333 0.1545069 0.19096713 0.2694433 0.31060353 0.015428415 0.2110668 -0.1304484 -0.03558616 0.074868165 0.1632799 -0.32345355 -0.16236773 -0.035436634 0.17594053 -0.36306933 0.04047018 -0.28206536 0.040000044 -0.16872673 0.07194297 -0.34664264 -0.12493999 0.03960244 0.12095404 0.006286379 -0.002090051 -0.07836963 0.09768424 -0.30920944 -0.02324999 0.0036383744 0.051377863 0.14609645 0.035855196 -0.07916022 -0.08248234 0.26398236 -0.09741883 0.122102365 0.067394145 -0.07805164 0.09684765 -0.007458476 0.06369904 -0.067542374 -0.0037779973 -0.14576043 -0.037841294 -0.06103526 -0.0006237282 -0.016935278 0.028586557 -0.05648496 0.24142979 -0.020440858 -0.55152255 0.16274732 0.08786727 -0.07880827 0.15696025 0.15286525 -0.16084544 0.21881579 0.040672034 0.20080067 -0.024486639 0.14479014 -0.11316005 -0.072512895 -0.18028131 -0.120015554 -0.024000786 -0.18933405 -0.26953346 0.00811461 -0.23223859 0.2845982 -0.06860727 -0.0375243 0.018555256 0.33474776 0.06921024 -0.012611684 -0.22170426 0.041886903 -0.1390184 -0.057605524 -0.14638862 0.03570953 0.011225892 0.09535562 -0.097665824 0.24335995 -0.13950491 -0.018386295 0.2944976 -0.080122866 0.0054534236 -0.007276268 0.094560236 0.044949833 -0.18086083 -0.0100748725 -0.13863212 0.061486773 -0.1981502 -0.01334191 0.16487883 -0.19837235 0.09469758 0.14461426 0.10399401 0.009879392 -0.08899253 0.0129992375 -7.797413e-05 -0.25741386 -0.46648273 -0.08522469 0.029876495 -0.11721651
2234 0.23383062 0.09227324 0.0036586693 0.0744997 0.21028373 0.026213108 0.08674043 0.078225866 0.070595086 0.2523599 0.34504843 0.0971806 0.30189243 0.026241865 0.20664342 -0.20462108 0.34682167 -0.118688196 -0.15119015 0.22541748 -0.016467327 -0.34046906 -0.17725737 -0.23758888 -0.13444658 -0.22127035 0.094904035 -0.25185123 -0.09006486 0.31596372 0.0005465898 0.066829845 -0.037107628 0.068975106 -0.17743775 -0.21069261 0.051721226 -0.20324643 -0.0050718007 -0.11017351 -0.35338646 0.026548805 0.12795794 0.05736461 0.16492252 -0.49003917 -0.067564696 -0.029888896 0.4019261 -0.14980584 0.012966308 -0.13948433 0.28341287 0.13515499 0.23507735 -0.120856114 0.010050704 0.014091205 -0.041509558 -0.014065316 0.33054715 0.053059462 0.07822495 -0.056486055 -0.1919455 0.11151676 -0.11831338 -0.043080978 -0.17714736 0.034270633 -0.1512573 0.27173492 -0.10311279 0.008841372 -0.053762354 -0.09115283 -0.10395758 -0.034521986 0.11549287 -0.17825653 -0.15494196 0.20195098 0.10992233 0.10565289 0.1354772 -0.1094948 0.07471083 0.17999212 0.13337414 0.06319367 -0.08174502 0.044830084 -0.05576103 -0.0981827 -0.12633227 0.23259114 0.07369067 0.1718008 0.36798462 0.025679234 -0.31609702 0.060922462 0.03759841 -0.016740227 0.072423615 0.20643532 0.100281075 0.12773736 0.056203254 -0.26642364 0.09363482 0.063509874 -0.21875665 -0.029686032 -0.04721085 -0.045517676 0.19224848 0.1818786 0.07293381 -0.07242819 -0.0035172303 -0.11216371 -0.12564635 -0.15871222 -0.14365885 -0.08810192 0.116140135 0.058762405
4621 0.1860852 0.21936703 -0.18377036 0.12301527 0.21690741 -0.06340746 0.08187117 -0.028597383 0.047312465 0.65580654 0.18210463 0.063587315 0.22930709 -0.067308135 0.08648043 -0.08532607 0.46054265 -0.13744976 0.08993696 0.27063096 0.12207606 -0.276913 0.07375198 -0.34809875 -0.023165913 -0.31313616 0.06560397 -0.24528664 -0.22459535 0.051181447 -0.12986575 0.16636702 0.1103891 0.18717164 -0.034621105 -0.014890439 -0.0026827236 -0.20808145 -0.04909746 -0.32804656 -0.15138815 -0.016081957 -0.06161399 0.029524546 0.15586469 -0.23361191 -0.06962591 -0.034378175 0.44274336 -0.11263544 0.078564666 -0.07747212 0.19526811 0.07508309 0.212995 -0.13099983 0.10605579 -0.034941606 -0.01598414 0.1057807 0.36110216 0.13819145 -0.021948794 0.0686578 0.080514 -0.086973906 0.041541997 -0.153251 0.03957269 0.084350966 -0.042289943 0.22457023 -0.31059164 0.03179251 -0.09123016 0.025680866 0.13012691 0.055816773 -0.03317393 -0.1347221 -0.02216501 0.24551846 0.03481131 0.09658601 0.2979511 -0.12173776 -0.19406594 0.12960799 0.13679309 -0.027090853 -0.03292058 0.10332346 0.09870393 -0.25138786 -0.12692341 0.004798165 0.25108886 0.04848469 0.15522315 0.093537964 -0.20730084 0.017663695 0.07963211 0.009103721 0.068598665 0.115660846 0.09672195 0.18271814 -0.17187968 -0.19812234 -0.08158543 0.05535877 -0.20411867 -0.26472542 -0.04534073 -0.049930267 0.25669873 0.29172963 0.09199091 0.083697096 0.055772673 -0.24013264 -0.14269087 -0.24650846 -0.111935966 -0.090808615 0.19947723 -0.023417205
3838 -0.59061515 -0.24816884 0.18631813 0.07897901 0.14369386 0.23222588 -0.20416382 -0.15105204 -0.20227462 0.3560204 -0.12743494 -0.2106863 0.48426166 -0.39105275 -0.013410301 -0.3153256 -0.3761198 0.27831766 0.053649534 -0.08054626 -0.4099366 0.221141 -0.15834801 -0.01100933 0.17128354 0.20611301 0.1974518 -0.58836025 -0.48716402 0.112447545 -0.6065635 0.36284775 0.09697653 0.06895612 -0.71707684 0.48981252 0.042051356 0.19042854 -0.13495407 0.051675066 0.14504097 0.046019662 0.15626834 -0.07945803 -0.24312511 0.11484568 0.017779341 0.055643015 0.10030962 -0.35855386 0.2392379 0.25713673 -0.34984514 -0.14387757 0.3623821 0.2223461 -0.63064027 -0.23257263 0.09172328 0.13027012 0.27315545 -0.24037838 -0.43323192 -0.41073146 -0.15378799 0.575234 0.39135036 -0.29992637 -0.3489116 -0.013678207 0.35857555 -0.19787122 -0.03900468 -0.29184186 0.10983952 0.10356696 -0.04705962 -0.069785245 -0.08008253 0.41093823 -0.0808984 0.17240305 0.291377 0.0041794167 0.20549043 0.069239676 -0.14419772 -0.499868 -0.092649624 -0.35689613 -0.73668355 -0.06762995 0.01596068 -0.047918595 0.2530694 -0.1263301 0.024679638 -0.17132029 0.6305834 0.0029088699 0.3972471 0.56829673 0.25827292 0.55340683 0.6084692 0.2934209 0.17468911 0.81920844 -0.016542463 -0.02091183 -0.10342629 0.82158613 0.40573737 0.430284 0.24202298 -0.244132 0.04847296 0.17482698 -0.07240609 -0.023992151 -0.15146631 0.5266244 0.01851838 0.06611966 -0.1396068 -0.0808875 0.015135181 -0.29816583
4436 -0.052980445 0.16069187 0.12214645 0.34495828 -0.04690299 0.10523087 -0.03266423 0.3689112 0.004620958 0.22272302 0.24699795 0.09788585 0.2500077 -0.16861105 0.02870213 -0.0371325 0.30914417 -0.04577376 -0.11723445 0.32123664 -0.11948322 -0.14159736 -0.06510903 0.06206983 -0.12723877 -0.091405205 -0.10456683 -0.25173247 0.09171875 0.031707697 0.1994861 0.06878618 -0.12022047 -0.16928183 0.08139184 -0.30599293 0.15093109 -0.104716025 0.34532753 0.04262399 -0.059761137 -0.035227258 0.22295703 0.045056827 0.04760948 0.0018146319 0.027426643 -0.0048989123 0.1398303 0.1672256 -0.05760485 0.10520949 -0.012942228 -0.010397437 0.4080996 -0.16534202 0.017930938 -0.08390272 -0.043624595 0.008581045 0.048487116 -0.15591638 -0.21493053 -0.112654924 -0.06101703 -0.23478812 -0.11060601 -0.11680464 -0.063008234 0.11610573 0.25423625 0.0268936 0.0054700174 -0.26762867 -0.06940554 -0.031567402 -0.17754765 -0.08559398 0.00088835054 -0.1966362 -0.37206125 0.081793 -0.034560136 0.005192344 -0.012067732 0.1686176 0.15853868 -0.17361353 0.087455824 0.13860273 0.0384168 0.12355932 0.101176746 -0.09011769 -0.16410987 -0.28567556 -0.025200265 -0.0055639786 -0.0010992415 -0.16848865 -0.34659898 0.0061658667 0.1661803 0.054487757 -0.12617312 -0.16403471 0.038733758 0.034030415 -0.14590617 0.2032896 -0.08126077 0.010049947 -0.2074566 -0.2215864 0.13934255 -0.15979305 0.08685533 0.09521728 0.10963579 -0.29330984 0.062284615 -0.2204649 0.108897924 -0.046963453 -0.0062740566 -0.026487434 0.3573018 -0.010380973
927 0.059089202 0.30084142 -0.0043294895 0.1467372 0.28828678 -0.08477605 0.10533361 0.06901291 0.06391994 0.1764106 0.24248548 -0.040005274 0.15191342 -0.045085825 0.07889281 -0.47875947 0.25250536 -0.095672 0.09937603 0.27745855 0.32883903 -0.17966133 -0.075543344 -0.46586782 -0.20685165 -0.27541304 -0.024547847 -0.20849517 -0.1775747 0.087721504 0.13457248 0.12087681 -0.008078646 0.19688508 -0.2591176 -0.09902433 -0.01624431 -0.15276447 0.29122382 -0.095786825 -0.10196008 -0.2637761 0.0332538 0.23198259 0.068618245 -0.20361894 0.18543918 -0.09630165 0.3860888 0.06944 0.076600015 -0.16930863 0.28034613 0.05378569 0.0114095835 0.06389862 -0.09440555 0.11238635 -0.15828437 -0.19596145 0.36829138 -0.105214216 -0.05532987 0.04894181 -0.25841275 0.1620281 0.039566316 -0.053322293 -0.14986664 0.08190062 -0.02400987 0.094020724 -0.11349105 -0.05239732 -0.099036835 -0.20413995 0.046431668 0.19405006 0.12637164 0.019348128 -0.27609953 -0.038637556 0.2092262 0.20163958 0.030357767 -0.02567821 -0.21137106 0.028114127 0.04903587 0.09015463 -0.027848996 0.3503191 0.15878198 -0.049838945 -0.059121504 -0.09845873 -0.069587484 0.18468472 0.23676942 0.19305424 0.096526 -0.067231715 0.18665062 0.048593473 0.19533384 0.006202295 -0.04771003 0.044238474 -0.07151363 -0.16224155 -0.178272 -0.0781557 -0.49105793 -0.049666587 0.11101924 0.02768374 0.1434711 0.13105278 0.12697904 0.045586254 -0.18593164 -0.44039565 -0.15977842 -0.21337262 -0.14089432 -0.15417767 0.08752939 0.028538197
1494 -0.5788158 -0.4021627 0.32631755 0.21717104 0.36798155 -0.04191411 -0.2699086 -0.34008202 0.06372114 0.70944244 -0.3640154 -0.11555402 -0.020384008 -0.17535312 -0.04872556 -0.14962292 -0.096036956 0.46471876 -0.011337408 -0.4121624 -0.28543836 0.45792106 -0.45943004 0.13759246 0.29297414 0.031688616 0.041481134 -0.4888955 -0.33047783 0.22735342 -0.712738 0.5354196 0.41515595 0.049697388 -0.42577213 0.40494454 0.35644922 -0.067599796 0.031324696 -0.104021594 -0.1242666 0.09454899 -0.18541919 0.05752913 -0.5444265 0.26515692 -0.073354535 0.3343833 0.13447708 -0.3145362 0.109981045 0.20732233 -0.62794787 -0.072592996 0.41917938 -0.006977184 -0.10857743 -0.24278747 0.62999874 -0.114612095 0.13858017 0.17815061 -0.055964034 -0.2770787 -0.22398348 0.4573088 0.21205966 -0.010230739 -0.12795526 0.146648 0.41293126 -0.18889518 0.06581023 -0.11555269 0.14314677 -0.12561546 -0.22412021 -0.005988156 0.21300822 0.0611697 -0.7220104 -0.38924614 0.33686653 0.17264313 0.32439896 -0.008908564 0.022372428 -0.08106434 -0.1106969 0.0060312585 -0.5750112 -0.06259518 0.4324478 -0.24980247 -0.09413635 -0.44035304 0.33656257 -0.15102684 0.51393193 -0.29061005 0.38514915 0.44055265 0.37229872 0.3009496 0.21627718 0.164265 0.28403693 0.7983207 0.27960443 -0.11881002 -0.12262244 0.47013447 0.3312799 0.6601094 0.10584644 -0.11075889 -0.06601276 0.5616335 -0.49961132 0.22269864 0.090640135 0.15033542 0.106421195 0.38859418 -0.22078958 0.07218729 -0.0774637 -0.012203942
4036 -0.073397994 0.11736406 0.038416516 0.004993231 0.0072988477 -0.05579082 -0.023199052 0.04516454 -0.041438453 0.48813358 0.051378023 -0.07266021 0.2731328 -0.010166075 -0.03291251 -0.09663077 0.30383506 -0.35680395 -0.038165577 0.040642478 -0.17866607 -0.4753494 -0.13777088 -0.29226488 -0.039231118 0.029556993 0.046892364 -0.03339348 0.1472072 0.09093003 0.13244294 -0.07951874 -0.012702757 0.21995646 -0.06531621 -0.077998094 -0.056459766 -0.18554568 0.002868481 -0.07667825 -0.11706964 -0.13271293 0.21381333 0.13517945 -0.029326586 -0.5350538 -0.07545454 -0.1072112 0.33375695 0.098744415 -0.18344785 -0.04755082 0.32836413 0.25804913 0.06367353 -0.3312384 0.08250996 0.008513857 0.08814989 -0.038398165 0.18900836 -0.026538847 -0.033257496 0.28789505 -0.09413301 0.08559315 0.27956188 0.0828791 -0.3092782 0.031661257 0.17033035 5.098334e-05 -0.29287395 0.23389803 -0.08256962 0.037583742 0.12673378 0.061314046 -0.22583087 -0.21618208 -0.45316544 0.09962991 -0.09899709 0.19565152 0.023656927 0.2149247 -0.19593842 0.08252592 -0.1093519 -0.0634508 -0.21525508 0.311758 0.037522927 -0.19898547 -0.022401098 0.15631075 0.01290499 0.16069292 0.19977263 0.12906574 0.10036336 -0.09546109 0.18068331 0.015318019 -0.011174736 0.022951664 0.13282707 -0.0069434196 -0.021689616 -0.057466414 0.20095798 0.16715215 -0.23272558 -0.089133695 -0.096230194 -0.42587283 0.06606523 0.12912582 0.285557 -0.09595774 0.026917363 -0.26833558 -0.10293032 -0.15197866 -0.082546875 -0.29318115 0.19355133 -0.05577014
3782 -0.061810642 0.09750568 -0.066523135 0.2692466 -0.0690343 0.04226156 0.01937009 -0.19652013 0.01927509 0.25116706 0.26969814 0.09439191 0.21607164 -0.17063309 -0.063637726 0.1467247 0.20866384 0.014914381 0.019968936 -0.03411495 0.034893457 -0.34906134 0.011812454 -0.14647935 0.021820147 -0.23677616 0.04695883 -0.33150822 -0.059417326 0.21760835 0.20179285 0.1804867 -0.17957465 0.26578626 0.044860248 -0.233424 -0.02310814 -0.124696136 0.059069037 0.028993962 -0.3089445 0.077005826 0.2688472 0.13330665 0.15891226 0.1478304 0.24220553 -0.04618525 0.22271208 0.19724992 -0.10067263 -0.05813356 0.06031105 0.005442428 0.008006282 0.09044782 0.23474334 0.03639893 -0.2034164 -0.009151132 0.34487736 -0.06650204 -0.3458372 -0.007102324 -0.22889923 -0.099501215 -0.29197446 0.07406883 -0.0052032676 0.020647481 -0.053250384 -0.07768995 -0.1445019 -0.0251158 -0.018039962 -0.08349574 0.18781517 0.35293326 -0.027585905 0.026161928 -0.15546116 0.095345974 0.13886443 0.16927533 -0.024163358 0.13659501 -0.060658354 0.0034890836 0.20157996 0.0001168916 -0.14449489 0.16405235 -0.025859287 -0.1927979 0.009732943 -0.20204653 -0.16310124 0.19505481 -0.30757007 0.28706524 0.15936959 0.09897499 0.008420776 -0.14467943 0.03347279 -0.26197928 -0.1822553 0.16402136 -0.2494496 -0.16072361 0.034976214 0.01602314 -0.20182827 -0.121577896 0.053871423 -0.12238656 0.00069225533 0.51578456 0.095813885 -0.001264154 -0.0792663 0.20843962 0.1388449 -0.23208328 -0.026124578 -0.03848348 0.018824294 0.13577461
586 -0.07329308 0.13810709 0.010842687 -0.035099775 -0.15142089 -0.14124969 -0.008038294 -0.021735428 -0.07158594 0.22913265 -0.046376567 0.08687385 0.32984987 -0.0333163 0.14981642 0.04612874 0.31034753 -0.082419895 -0.053507835 0.076829664 -0.19725938 -0.16575487 -0.18938361 -0.03851147 -0.12531978 -0.1822853 -0.17723954 0.030936033 -0.10931207 0.34800678 0.04038781 -0.038775366 -0.011311928 0.19300134 -0.091752574 -0.4891543 0.1612098 -0.25215507 -0.13059886 -0.16042633 -0.49634638 0.1721827 -0.018322593 -0.021227589 -0.04463289 0.08729557 -0.052620165 -0.17474347 0.10212587 0.25676355 -0.2144434 0.030808697 0.063310295 0.17986575 0.22261155 -0.14404777 -0.21537668 -0.15817343 -0.14692903 -0.13910504 0.1486128 0.21705551 -0.5436057 -0.14030349 0.109377116 -0.08609844 -0.074105255 -0.092300095 -0.142473 0.27130926 -0.032141287 -0.050728552 -0.1540091 -0.03287974 0.025838245 -0.015017061 0.03181153 -0.24630764 0.033625185 -0.21599017 -0.21815594 0.23830748 -0.06801769 0.036415026 0.15172897 0.09012065 0.008496807 -0.027860878 0.018122727 -0.2938796 -0.2743691 0.15712525 0.054586742 -0.1775105 0.015076751 0.08492756 -0.15960586 0.020523831 -0.09110969 -0.05023326 -0.2699886 -0.053848535 0.22371143 -0.07779993 0.047190856 -0.13435864 -0.09080915 0.298677 -0.22444345 -0.23087843 -0.15902232 0.069236666 -0.27807793 -0.19630627 0.019697517 -0.092047855 -0.18593135 -0.09417353 0.08056511 -0.052327026 -0.01775737 -0.1516895 0.09228476 -0.22843662 0.07087346 0.017444903 -0.043591663 0.04038988
3292 -0.03008406 0.40870094 -0.109479755 0.03357044 -0.26416573 -0.0019819334 -0.057884883 0.1532209 0.25159043 0.13808914 0.14893036 0.05235824 0.09497787 -0.011209725 0.042682756 0.006796529 0.22991067 0.047483828 0.18304734 -0.10264936 0.06479503 -0.1552315 0.13932168 -0.21118502 0.025208497 -0.10630915 -0.051210105 -0.34194812 -0.027442707 0.051414974 0.015872536 0.117551796 -0.13125136 0.12716044 0.12278318 -0.22186124 0.29448575 -0.023435283 -0.24539162 -0.05449629 -0.05164074 0.05371892 -0.11795429 0.12808116 -0.15110724 -0.124021955 0.14156449 -0.27831897 0.33413333 0.022072712 0.25122863 0.104636975 0.20931214 0.1413669 -0.023537474 -0.23605527 0.3033315 0.15949894 -0.1347933 0.034103047 0.13735226 -0.0013109102 -0.10683942 -0.0147966 0.0785526 -0.2562244 -0.009326968 0.1578801 -0.3487315 0.053453896 0.15484163 -0.04980695 -0.15611312 0.090667464 -0.049094666 0.08445338 -0.03741558 -0.037808746 0.036623504 -0.17663257 -0.33005202 0.014617332 0.06623899 0.2151411 -0.18505758 0.15929264 -0.25853026 0.06662792 -0.0337487 0.23702505 -0.045715578 -0.025734441 -0.1518944 -0.16623327 0.13170055 -0.13826312 -0.049781874 0.17399791 0.14242089 0.11041823 -0.02886996 0.20080039 0.24553494 -0.085956275 -0.08776682 0.2501017 0.12359548 0.06826011 0.0849922 0.1294426 0.01692385 0.06842686 -0.043092564 -0.10474883 0.38588217 -0.15963739 -0.09811552 0.09239385 0.10896413 -0.18214563 0.08357103 -0.16871215 0.0048634917 -0.40594777 -0.14341879 -0.29230395 0.047372673 0.22864442
5351 0.0015558964 0.011062657 -0.06515831 0.07841786 -0.02870495 0.024984203 0.099263184 0.018273093 0.24478745 0.24586917 -0.011610962 0.09258683 0.29458678 0.09028935 -0.15993792 -0.075791 0.1706503 -0.14762574 -0.034084845 0.13272552 0.014309616 -0.3221917 0.023965662 -0.04417237 -0.07815309 0.15867142 0.01572137 -0.16142191 -0.0065967655 0.15276666 0.12582329 0.09667723 -0.122461826 -0.300305 0.064860426 -0.29355356 0.13287416 -0.23035379 -0.014172272 -0.04874399 -0.47875732 0.2726837 -0.06927892 0.04427506 0.0119713005 -0.27662417 0.10280632 -0.12715983 0.3280015 -0.040263254 0.11029514 0.18652558 0.042950943 -0.03491709 -0.030024122 -0.01677834 0.09738896 0.099259555 -0.25332552 -0.24517654 0.22798812 0.036481507 -0.23574992 0.013880643 0.088088565 -0.1861058 -0.040369064 0.054314796 -0.30091095 0.22483756 0.00052836485 0.12594832 -0.1208137 0.12671009 -0.0066710203 0.009339055 0.013365477 0.13455881 -0.043956008 0.07376654 -0.11615654 -0.063033536 -0.04443188 0.2872992 -0.06304863 0.04322606 -0.2728383 0.13992721 -0.054800875 0.12603197 -0.3619736 -0.0098113 -0.18759328 9.711605e-05 0.17977515 0.016631149 -0.08406257 -0.28090975 -0.21750264 0.017693397 -0.11737105 0.005466599 0.14584881 0.028453674 0.033330306 0.042589027 -0.038893864 0.08564599 0.13669653 0.063966185 -0.011253353 0.1470044 -0.12620613 -0.05864111 -0.16713469 -0.107813165 -0.20187907 0.43019363 -0.0500864 -0.09554473 0.14274521 0.13360772 -0.12541218 -0.17237462 -0.057926744 -0.17315522 0.111687 -0.021000441
5306 0.0019441359 -0.06657311 0.2174684 0.15423983 0.11606839 0.12433545 -0.08664202 0.21005528 -0.06327188 0.35555002 0.072005674 0.3161209 0.28296667 0.14298002 -0.13394262 -0.1414809 0.13225089 -0.018257832 -0.0029587494 0.15430748 -0.18504336 -0.057800233 0.07789776 -0.1785202 -0.3042497 -0.2507355 -0.08622544 -0.22717081 -0.12010046 0.16408207 0.12629528 0.17722476 0.06686299 -0.06324528 -0.12178638 -0.3961255 0.16522942 -0.17474642 0.13271652 -0.11177853 -0.06550137 -0.10270084 0.009392904 -0.019623611 -0.10890949 -0.035018094 0.07001004 -0.105497725 0.05151318 0.05036994 -0.34715384 -0.039466083 0.06862985 0.06785584 0.11722554 -0.13426113 0.05556047 -0.22020732 -0.35175124 -0.17931795 0.030406602 0.17813954 -0.07750588 -0.038907856 0.123615965 -0.23526965 -0.34275773 -0.039178528 -0.29592627 0.16648859 0.30119836 0.20330346 -0.09759078 -0.016900763 -0.04619285 0.06913852 -0.16498448 -0.11234189 -0.19674441 0.091736354 -0.18666115 0.29849857 -0.05690259 0.22153768 -0.03833938 -0.11732921 0.00982001 -0.162602 0.14220256 -0.1873775 -0.06839 0.1037864 -0.04555874 -0.028835557 0.095575966 -0.06388555 -0.13456263 -0.02340403 0.025680047 0.24159767 0.13556845 -0.32943755 0.08034664 0.21338208 -0.022744576 -0.1345468 0.22673798 0.1332923 -0.09750689 0.05730171 -0.00073995505 0.01824582 -0.2282032 -0.35981765 0.27114475 0.079881966 -0.080251366 0.021298692 -0.13623895 0.046275184 -0.050525203 -0.027169773 0.16050886 -0.3142148 -0.1898988 -0.09315076 -0.01380711 0.17343192
4449 -0.12616874 0.20074435 -0.046112828 0.20635311 0.3544828 0.18976736 0.04655934 0.027523622 0.072215326 0.20162244 0.32969138 0.032854293 0.2850861 0.07778068 0.12294554 -0.070589356 0.23259926 0.0011575172 -0.02944147 0.2537957 0.030708073 -0.0046104756 0.050032776 -0.30372 -0.04326544 -0.2092045 0.040020294 -0.1581061 -0.097493395 0.07816174 0.31406754 0.19907728 -0.2805813 -0.07520074 -0.018220246 -0.21435282 0.14850326 -0.30790922 -0.15013792 -0.16078445 -0.3684779 0.007874301 0.09244171 0.23138933 -0.02371024 0.110451795 -0.06723292 -0.0295669 0.22722183 0.01468728 -0.0325345 -0.40979147 0.19508873 0.14988522 -0.22493738 -0.16524467 0.28985563 0.00088735647 -0.05809265 -0.063398525 0.32130012 -0.10264048 -0.20378485 -0.050026275 -0.075785525 -0.09060858 -0.08279474 0.09625867 -0.2028075 0.1250946 0.09826129 0.011569996 -0.22699073 -0.043270897 0.14038569 -0.04959187 0.02189456 0.2667794 -0.04508472 -0.10744412 -0.29823038 0.02686917 -0.109334394 0.15957144 -0.04104236 0.27808478 -0.18115923 0.055334266 0.17122865 -0.05119159 -0.17880827 0.11481485 0.22765525 0.22416139 -0.3718951 -0.16703446 -0.2696537 -0.12184767 0.11969324 0.030645723 0.05207344 -0.012586351 0.32417914 -0.22987513 0.027936801 -0.0074817752 -0.010801739 0.10447614 -0.048848134 -0.08512542 -0.25585213 -0.24674739 0.111812815 0.015812341 0.16979325 0.047545653 0.056760874 0.23215947 0.084275 -0.002998825 0.07750159 0.035072666 -0.091745816 -0.08984807 -0.21108681 -0.243034 -0.10287601 -0.036612794
947 0.15197009 -0.027759003 0.16719787 -0.068001166 0.1668838 -0.116579935 0.12461556 -0.038494013 0.033081856 0.17145953 0.15901077 0.06645579 0.31355676 -0.10789956 0.06660273 -0.023618525 -0.15206024 -0.099405706 -0.045960363 0.25834215 -0.023695359 -0.29732746 -0.061185397 -0.040703062 -0.14523806 -0.16501169 -0.09212314 -0.25196424 -0.100299574 0.25272402 0.06291047 -0.08224513 -0.05746305 0.26210278 -0.23789442 -0.18250342 0.22529756 -0.21487883 -0.11667765 0.10457758 -0.21918218 -0.08974904 0.03640466 0.005921941 -0.014411868 -0.021998262 0.099569425 -0.11089755 0.124320455 0.1913082 -0.10663805 0.12064604 0.056951854 0.32810903 0.24529691 0.12032646 0.42463 -0.1887694 -0.3529056 -0.13666846 0.16333073 0.103686176 -0.12586005 0.17360672 0.15933578 -0.26123568 -0.032840196 -0.020302966 -0.27991757 0.31324095 -0.016763775 0.12794423 -0.08565438 -0.14390114 -0.059938658 -0.077811524 0.15839271 -0.04241949 -0.12517828 -0.14897099 -0.21328045 0.20088404 0.087794006 0.10256664 0.3657251 -0.050962277 -0.24343586 -0.20652343 -0.08624679 -0.051740445 0.023339896 0.01713471 -0.18257552 0.039496303 0.22134086 0.079841495 0.03410237 0.09527243 -0.24188985 0.099415 0.15755808 0.14326406 0.18007423 0.1994173 -0.00901351 -0.3103738 0.22414325 0.07048931 -0.28897202 -0.021201756 0.29617432 0.048417877 -0.342268 0.07522971 0.1216247 0.002039389 -0.23958743 0.18561926 0.09035088 -0.18447901 -0.16226351 -0.21743463 0.3408875 -0.19791035 -0.18424012 -0.13108368 0.006193017 0.03712951
2113 0.11259481 0.2365282 -0.14580764 0.19052942 0.22434036 0.17164811 0.18621165 -0.0053461655 0.15806836 0.26063764 0.5088972 0.061134133 0.15868329 -0.027867388 -0.11724195 -0.41406068 0.27607754 -0.04800683 0.1479933 0.19854645 0.014439853 -0.29064035 -0.05872308 -0.12732929 -0.07610415 -0.2303712 0.1262029 -0.02970735 -0.12861268 0.034903895 -0.11948566 0.1975363 -0.23856658 0.09229389 0.023625856 0.0044294787 0.12973705 -0.43354478 0.025078302 -0.08209526 -0.38491622 0.21070449 -0.030783229 0.09975802 -0.03750726 -0.04486265 0.15754162 -0.12469128 0.2277751 0.030134354 0.022220723 0.0790523 0.109384894 -0.05460597 0.039197795 0.06873259 0.10792103 0.009361429 -0.18248746 0.23690353 0.049500015 -0.043621987 -0.0346059 0.048395187 0.07125406 -0.08903745 -0.016799306 -0.1374366 -0.22031444 0.102041155 0.069709376 0.20479776 0.009185032 -0.16870436 0.124915816 -0.18440023 0.11948561 0.050285686 0.13005717 -0.17830847 -0.33157822 0.29383835 -0.058798872 0.079267256 -0.0021888195 -0.087662905 -0.017715981 0.10090656 0.27757683 0.1690928 -0.16552062 0.26133484 0.23844886 0.1669182 0.01849734 -0.045118235 0.1294123 0.0025726391 0.12352721 -0.031741787 0.0006793813 0.038726095 0.21437104 0.15788312 0.018471345 -0.036334552 0.17323124 0.21858184 0.012586683 -0.23308422 0.098006904 -0.28461498 -0.25837043 -0.15149385 0.14599326 -0.13539019 0.09240484 0.089348905 -0.13590959 -0.27819002 0.18987022 -0.0515534 -0.034956507 -0.23614566 0.04736337 -0.106868036 0.24819484 -0.07440344
5834 -0.03370556 -0.038715646 -0.012862469 0.3577178 0.027364762 -0.0416582 0.122949995 -0.0076238695 0.22723666 0.09312497 0.3092198 -0.10121525 0.11355591 0.075871594 -0.15350097 0.14533034 0.10800197 0.13452819 -0.2783226 0.05812289 0.025339969 -0.20414223 -0.025833795 -0.2639782 0.053190824 0.032376427 -0.04111748 -0.21442969 -0.043544944 0.065084964 0.12971807 -0.123157896 -0.0071121627 0.106079355 -0.17774233 -0.34473476 0.12715758 -0.12960276 -0.256816 0.042929377 -0.3433028 -0.1742945 0.21488442 -0.0656922 0.0007463367 0.079849504 0.026592856 -0.30713722 0.11371514 -0.1427164 0.044728193 0.13991438 -0.060689434 4.1488358e-05 -0.059872366 0.098075025 0.19997771 -0.0990099 -0.17688686 0.23902047 0.3365422 0.005575774 -0.33052608 -0.5026003 -0.10586744 -0.39165348 -0.09411642 0.15599956 -0.1293973 0.0193256 0.19746621 -0.00050963194 -0.29745492 -0.105814174 0.2690338 -0.087252855 0.2599497 -0.092865855 0.020552482 -0.25473523 -0.10382007 -0.00069971115 -0.077439934 -0.025305042 0.034024034 -0.02274046 -0.17808925 0.08069725 -0.048439585 0.25176182 -0.33929557 -0.017453317 0.021979071 -0.31793836 -0.32882547 -0.052552383 -0.17940696 0.015735285 0.041459892 0.2459207 -0.20948741 -0.05506472 0.078600876 0.13208811 -0.08613823 -0.24329962 0.048733264 0.031179829 -0.056334466 0.017468266 0.057880487 -0.38580328 -0.15289411 -0.11868763 0.15433054 0.04608321 -0.06688071 0.08775207 -0.050916158 -0.26634297 0.0070859496 -0.008455937 0.10469635 -0.18913884 -0.10617918 -0.13406253 0.10856321 0.081052504
3051 0.0036430205 -0.07649041 0.029228369 0.18881604 0.20594445 0.0012576795 0.32511643 0.073088445 0.08921595 0.13902967 0.030478435 0.36084026 0.10605301 0.2336111 -0.10096705 -0.0672602 0.284793 -0.30784196 -0.14267308 0.10721996 -0.24139932 -0.028069735 -0.40386337 -0.025741357 -0.025984723 0.022699324 -0.19359252 -0.022267316 -0.066059366 0.21570219 0.15204348 -0.18085901 -0.21866271 -0.12961942 -0.21505941 -0.3575932 0.32261464 -0.18469852 -0.082499504 0.26304367 -0.08609725 -0.017115911 0.33190688 -0.018944941 -0.07306666 -0.16831633 0.028454626 0.019783668 0.34996024 -0.022699554 -0.103268795 0.14021695 0.09605228 -0.02037779 0.07426688 -0.11636224 0.12826383 0.12919159 -0.10060462 0.0257757 0.2113045 0.066038564 -0.2214657 0.22042167 0.16160907 0.024291912 0.059998773 -0.36408913 -0.037783418 0.16374275 0.081631176 0.17820972 -0.25488812 -0.21302153 -0.06325805 -0.02439632 0.1374163 -0.13632776 -0.012812348 -0.24914317 -0.21682936 0.15156478 -0.0314304 0.080191776 0.08176559 0.017796787 -0.11333853 0.035348002 0.3187868 0.11718702 -0.1037221 0.1162237 -0.21059293 -0.19927348 -0.112368345 -0.37892908 -0.34816995 0.21007435 0.15925367 0.19795251 0.33181792 -0.05809164 0.17714736 -0.14854617 -0.03957539 -0.016262246 0.22581854 0.40830708 0.06790313 0.078338385 0.120119736 0.12951535 -0.20445468 -0.10264409 -0.24976936 -0.14546919 -0.07318699 0.04715695 0.051274154 0.077369586 0.038784802 -0.15951659 -0.058244843 -0.45320782 -0.10281432 -0.3892461 0.38992244 -0.12196854
434 -0.25298473 0.18981375 -0.082954794 0.13005757 0.036798052 0.10354058 0.009631434 0.11355954 0.23760258 0.40352103 0.14772561 -0.06628428 0.15403973 0.12734142 -0.18491592 -0.15634201 0.35033998 -0.15808819 -0.06622565 0.1314974 -0.057055276 -0.13534364 -0.2657044 0.15829177 -0.089931905 -0.251219 0.09259387 -0.12673756 -0.17041023 -0.04351104 0.04083342 -0.09702299 0.02149933 -0.19833238 0.030323358 -0.17839664 -0.07683478 -0.17442027 0.26352522 -0.04288956 -0.4971697 -0.034251552 -0.113420285 0.1113096 -0.031537097 -0.17368254 0.10767721 -0.04452969 0.080941185 -0.049569927 0.06943393 0.108863674 0.21248719 -0.1807989 0.009686947 0.06667058 0.15797271 0.12297138 -0.031140042 0.06252593 0.3475655 0.046664126 0.018765375 0.038815536 -0.116157606 -0.31943995 0.079153955 -0.17089833 -0.3127851 0.049611222 0.06954743 0.015841588 -0.10199444 0.22482537 -0.13876474 0.18348846 -0.09073425 0.025069188 -0.027974583 0.16037038 -0.024637956 -0.025227431 -0.06101861 0.007980453 0.16040695 0.028190805 -0.21076974 -0.028873464 -0.035949588 -0.086763896 -0.2031747 0.18936029 -0.059617203 -0.17129384 0.13728622 -0.05943661 -0.29883924 -0.16685523 -0.1656881 0.050023098 -0.22441415 0.16866799 -0.042625092 0.0024073545 0.0025606854 -0.15275261 0.16901523 0.033828016 0.039676715 0.14255261 0.022007737 0.027287535 -0.09143414 -0.066114224 0.10191787 -0.19176076 -0.055033892 0.26300126 -0.039332572 -0.17090826 0.13846685 0.040715262 -0.019517777 -0.261874 -0.13543583 -0.17445953 -0.010244846 0.0026879702
650 -0.005396161 0.16274647 -0.20318305 0.012937546 0.007244858 0.16233097 0.12412475 0.0012418599 -0.05563694 0.2163193 0.13893493 -0.06725105 0.26219493 -0.27234295 -0.0110040195 0.08658355 0.27968454 -0.10693081 0.1247219 0.19950253 -0.07898485 -0.114204824 0.03188435 -0.012744032 -0.17511989 -0.314753 -0.124536484 -0.26757464 -0.3660256 -0.12622036 0.24186918 0.030676553 -0.14396958 -0.12376169 0.00711699 -0.33036527 -0.039227232 -0.21187533 0.15093307 -0.15473552 -0.42782113 0.04704898 -0.019665577 0.23697442 -0.031114615 -0.11994591 -0.0352331 0.029187249 0.12170357 0.17313386 0.032294307 0.12236837 -0.14140172 -0.24285068 0.039218515 -0.0965408 -0.0998432 0.11078842 -0.30020946 0.19538039 0.036557984 -0.013315978 -0.24278493 -0.025277568 0.17297514 -0.004092148 -0.38594273 -0.16565183 -0.33041364 0.2529822 0.12523934 0.27122143 -0.18256432 -0.058702435 0.14891608 0.018190378 0.22763534 -0.14996314 -0.13527623 -0.18865897 -0.2309191 -0.030353246 0.040870193 0.3183475 0.119728856 0.0074164313 0.036078013 0.038355928 0.2293647 0.036283337 -0.06477379 0.14010936 0.024136698 -0.2752821 -0.0577175 -0.23941278 0.0714604 0.21115547 -0.05770133 -0.049148865 0.1233716 -0.078851506 0.09975311 -0.12311327 0.05346373 -0.25337192 -0.047910336 0.17332126 -0.129447 -0.05082778 -0.18541199 -0.18589018 -0.1919481 -0.08772662 0.12840453 -0.23042932 0.27423972 0.13538654 0.12420602 0.18287544 0.36846614 -0.051133588 0.24307063 -0.3204913 -0.2127434 -0.14177038 0.078559004 -0.15289359
5730 0.1480605 0.33787245 0.13808472 -0.07482114 0.017286735 0.01798037 0.060842253 0.093208395 -0.08096037 0.3681683 0.22251672 0.017212747 0.3066777 -0.23282315 -0.12826921 0.054008655 0.15311174 -0.08849587 0.29749367 0.07818438 -0.24739796 0.03629105 -0.20077911 -0.02376295 0.06085671 0.06713723 -0.14014947 -0.27967277 -0.1997799 -0.007529787 0.2164136 -0.08971037 -0.023579782 0.033134386 -0.04878708 -0.21616936 0.17928131 -0.15060526 0.02158544 0.002886799 -0.29398492 -0.005363578 0.17350215 -0.045264263 -0.10634225 0.03553245 -0.18662834 -0.17691305 0.15155736 -0.00732541 -0.039939955 -0.025526961 0.23897193 0.13591208 -0.03411394 0.04800822 0.018678933 -0.042228956 -0.25134534 0.32636598 0.045983832 -0.057182603 -0.36281025 0.12981528 -0.014401677 -0.15026128 -0.2140826 -0.004384596 0.01445389 0.30893984 0.11496495 -0.06724178 0.016302431 0.010612416 0.20533907 -0.12641285 0.03585553 0.039090343 0.06070432 -0.14923982 -0.19383469 -0.08132518 0.049350053 0.2004796 -0.13432105 -0.011407493 -0.15108441 -0.09146409 0.10018422 0.021432107 0.03071772 -0.020305809 0.052424144 0.056326825 -0.07569851 -0.22003514 0.017574644 -0.12187666 0.15886825 -0.12937456 -0.13710107 -0.13269961 -0.018300291 -0.22130294 -0.027191032 -0.09067737 -0.007883356 0.1958835 -0.0008230305 0.27019387 -0.078918666 -0.21075363 -0.19915536 -0.16444008 -0.09291869 -0.005522352 0.13216206 0.26440078 -0.0009139887 -0.30750096 0.12516645 -0.10330149 0.20844765 -0.13617128 -0.2854652 -0.28621045 0.3532198 -0.12704694
1198 -0.50380254 -0.1531434 0.1678313 0.037077308 0.15472826 0.31724274 -0.3992291 -0.65153384 -0.361271 0.45986524 -0.116970606 -0.20350339 0.36639035 -0.47198713 0.0065431045 0.034024928 -0.3458901 0.4162747 -0.137085 -0.113974825 -0.26678935 0.39827868 -0.27476513 0.007629854 0.113887444 0.21752636 -0.05112173 -0.88286036 -0.22523573 0.092048235 -0.33046532 0.53389394 0.43364888 0.09636144 -0.59035856 0.47966886 0.34574974 0.31785882 -0.41802296 0.13425581 -0.08729826 0.2496211 0.056843538 0.14075972 -0.21772102 -0.09976149 -0.047259286 -0.033141855 0.19920057 -0.60068494 0.08196048 0.23550127 -0.58608896 -0.22474036 0.3358948 0.020229839 -0.42507386 -0.18740366 0.47700068 0.0372642 0.024664612 0.06957648 -0.16293702 -0.019354114 -0.01431658 0.6336713 0.40393627 -0.13695352 -0.19021633 0.05777615 0.5891923 0.029413668 -0.02969763 0.022848696 0.110046335 -0.0024527146 -0.25621855 0.049167786 0.14936055 0.108353764 -0.2985716 0.06710605 0.27590504 -0.08750072 -0.15258583 0.2959925 -0.15935484 -0.52589804 -0.038956385 -0.12959376 -0.716833 -0.16539218 0.09350105 -0.0876985 -0.18028821 -0.17209099 0.16434306 -0.025553262 0.43760884 -0.18211107 0.4916082 0.7171389 0.47160038 0.14190438 0.015734747 0.015433175 0.4093503 0.50323963 0.12736832 0.22023617 -0.22998902 0.47602993 0.42024747 0.32613578 -0.0050636055 -0.3358096 0.14497991 0.30055484 -0.4534154 0.22808166 -0.29112282 0.34672797 0.085737556 0.26888728 -0.48414123 0.078843564 0.00081134104 -0.26677674
754 -0.11197647 -0.012002528 -0.047301643 0.33485618 -0.0073848497 0.5424206 0.114976116 0.030424703 0.03626335 0.5073494 -0.04214967 0.19054124 0.17130145 -0.052739408 -0.09474546 -0.08758744 0.2980354 -0.23072317 -0.12040308 0.369736 -0.32792893 -0.131349 -0.20850405 0.08731034 -0.16142426 0.19555101 -0.032068312 -0.20901735 0.17523353 0.17484817 0.08106263 -0.0483062 0.18875022 0.110149175 -0.45010456 -0.4323454 0.120822385 -0.07886964 0.21757439 0.1661788 -0.32934225 0.24423984 0.16714726 0.11122689 0.054319516 -0.14723699 0.10839346 -0.06675334 0.40275416 0.05012655 0.0033420261 0.1788543 0.18875879 0.14839847 0.19184239 0.14550121 0.27473307 0.22926255 -0.22179925 -0.057557523 0.1567893 -0.07514326 -0.3852777 0.26380455 0.01752664 -0.114680246 0.0050859144 -0.08974523 -0.12642579 0.16802628 0.045597523 0.031772953 -0.06137581 -0.18335775 0.07908114 0.16180174 0.07170077 -0.33959982 -0.0016633027 -0.08715377 -0.2683966 -0.16974972 0.0003092445 0.17780322 -0.031573467 0.11142898 0.053003393 -0.04942552 0.14490446 0.26009595 -0.0006634176 0.18726176 -0.16054 -0.14358997 -0.12085118 -0.022999285 -0.16647738 -0.16244303 0.0073599247 0.0911555 0.20426247 -0.14098577 0.15393473 -0.038636446 -0.10899656 -0.012590537 0.3031778 -0.2771639 -0.22690392 0.13325243 -0.031314857 -0.024468355 -0.02867796 -0.25886643 0.071243465 0.06690203 0.07970977 0.07433406 0.049083073 0.024302768 0.20404088 -0.103763975 -0.1701389 -0.1002937 -0.1210945 0.0007090384 0.3546725 -0.052477296
3994 -0.6521936 -0.40796575 -0.0012202703 -0.53716993 0.056529723 0.0097325975 -0.48307088 -0.14505574 -0.08868397 0.36553317 -0.69098467 0.18418558 0.34999263 -0.21547851 0.0895068 -0.21267985 -0.28164777 0.7050064 -0.14899261 0.13583545 -0.29874954 0.3195968 -0.2559917 0.149197 0.24206622 0.06856331 0.22565718 -0.8664905 -0.6795435 0.09575753 -0.53095824 0.56985027 0.33171487 0.1251388 -0.5637227 0.5909509 0.062255744 0.0951224 -0.17293459 0.22757801 0.09822137 -0.09471306 0.04171553 0.1586268 -0.27569717 0.16647987 0.13257107 0.12054692 -0.06102581 -0.3478097 0.12993951 0.12993847 -0.14634594 -0.23430812 0.28233922 0.13107404 -0.40728042 -0.17766216 0.22142787 0.31762284 -0.29257265 -0.009713598 -0.36956578 -0.4790425 -0.32708672 0.21370998 0.10563701 -0.09801938 -0.29399496 0.45854667 0.44693306 -0.42779392 0.14554775 -0.3084423 0.19944227 0.11906791 -0.11212922 0.16073708 0.21457957 0.12149152 -0.30729786 -0.28635374 0.23179181 0.25674796 0.31263292 0.123195805 0.1780861 -0.5150809 0.09080796 -0.35737687 -0.5771193 0.23800328 0.100749716 -0.16129567 -0.0066420618 -0.34812176 0.16438639 0.12702614 0.86746734 -0.2972868 0.1497867 0.37110972 -0.020172715 0.3718152 0.38716653 -0.0958557 0.23051733 0.4012452 0.1986995 0.12746294 -0.14249416 0.53798854 0.079260975 0.6163507 0.035972726 -0.29874757 -0.19707903 0.21300055 -0.02388582 0.21380231 -0.21888316 0.41728026 -0.16012454 0.14068948 -0.20980076 -0.08302349 0.26473352 -0.43016583
4209 -0.23010111 0.019234553 -0.16021363 0.06921149 -0.09631892 -0.051952343 0.035292838 -0.13480687 0.21659584 0.183604 0.098070726 0.048994444 0.30077428 -0.058191802 -0.12644644 0.12792863 0.3234388 -0.07847246 -0.048707735 0.02259308 0.24738242 -0.3842877 -0.26353538 0.12488613 0.0987468 -0.002720067 0.012726905 -0.31454897 -0.023135101 0.18426931 0.20848618 -0.011947905 -0.17445268 -0.16768143 -0.049992763 -0.21568048 -0.047774404 -0.28986332 0.18633753 -0.010779582 -0.36634615 -0.0026992976 -0.15954025 -0.094712295 0.258972 -0.20951974 0.00093682494 -0.01067875 0.21019518 0.028170392 -0.048650134 0.034336213 0.02085557 0.008020641 0.21102788 -0.1864519 0.38755116 -0.013512738 -0.17134471 0.02692687 0.17511223 -0.020493407 -0.090527385 0.13225132 0.15390158 -0.25750044 -0.15153436 -0.09233553 -0.37596858 0.23986089 0.15421377 -0.08062607 0.045624863 -0.016977975 0.032942593 -0.124779776 0.19100353 0.03982814 0.008086661 0.05506151 -0.14143997 -0.262435 0.09595911 0.16552277 -0.018430818 0.0432202 -0.107959375 -0.18007272 0.17565522 0.08383311 -0.13806774 0.09593437 -0.12303555 -0.11524991 0.14030167 -0.075240016 -0.1447128 -0.013450812 -0.3098283 0.111069985 -0.10555777 -0.042967703 -0.060012706 -0.08253562 0.20327762 0.16128808 0.049873736 0.263788 -0.08243794 -0.0107892705 -0.045736972 0.14502089 -0.16412552 -0.114462405 -0.115749404 -0.24198216 0.18115458 0.16407076 -0.08328559 -0.25922698 -0.0187528 -0.019888794 -0.12396929 -0.07520627 -0.079280734 -0.13159052 0.0064511592 0.19593777
4676 0.0039267917 -0.114104286 -0.09088633 0.16156851 0.10883373 0.13839251 -0.007992013 0.21847469 0.27176112 0.1616441 0.2770721 0.23633866 0.27068198 -0.23739758 -0.042554513 -0.11478569 0.002312785 0.086778685 -0.16890554 0.070636086 0.32026008 -0.11294037 -0.21442737 -0.5204105 -0.07164551 -0.026627839 -0.16474237 -0.12806913 -0.06879108 0.10424485 0.32977006 -0.09941872 -0.27445406 0.081485406 -0.3048968 -0.10491687 -0.1160381 0.06696389 0.16354196 -0.14640516 -0.12695311 -0.004145172 0.16825072 0.06166267 0.0102033205 -0.06391062 0.17308389 -0.22110224 0.35123223 0.027476143 -0.1384543 0.060853027 0.1376626 0.24305986 0.009960395 -0.09485388 -0.04600032 -0.14076965 -0.14494677 -0.06186941 0.30995372 0.1477119 -0.0718518 -0.14474483 -0.080754764 -0.12878498 -0.13233694 0.3449391 -0.07420714 0.3575713 0.061450228 0.003663116 -0.35037452 -0.18539827 -0.026008705 0.09233181 0.007094932 -0.05082974 0.19983387 -0.11213428 -0.30797696 0.01992925 -0.00071529736 0.2898464 -0.011761159 0.37886354 0.034015965 0.008508085 0.104496725 0.31031406 -0.053395823 0.06418036 -0.08905017 -0.23251945 -0.061266363 -0.36058655 -0.16611132 0.112990126 -0.12376317 0.17066322 -0.13172716 0.2739776 -0.059431836 -0.076049544 -0.018987022 -0.19793178 0.20435567 0.056896076 0.01856395 0.08229831 -0.016152916 -0.087711126 0.032052297 -0.27914786 0.009789792 0.036764048 -0.027747214 0.094329394 -0.05642948 -0.13711071 -0.13306683 0.09918411 0.07236296 -0.23994073 -0.26508418 0.16903655 -0.102278 -0.15631574
5463 -0.7237804 -0.32045382 0.24800651 0.2523082 0.31623378 0.0073398245 -0.40633175 -0.1460077 -0.11564893 0.5386885 -0.3010168 -0.27807203 0.43389347 -0.24404195 -0.3278579 -0.36950207 0.040800825 0.44337815 0.017481428 -0.38836756 -0.3745564 0.11917946 -0.108700454 -0.01364841 0.37228552 0.009429319 0.016783215 -0.59702605 -0.08717496 0.14628348 -0.53386796 0.37563145 0.2039639 0.034123395 -0.5829465 0.47786227 0.30194288 -0.038990043 -0.19213688 0.046709806 0.1511562 -0.07466431 0.11086336 -0.07462775 -0.19868515 0.33754727 -0.0071640504 0.36656564 0.13062847 -0.24111778 0.015175813 0.17994675 -0.38313508 -0.502576 0.20282668 0.19194345 -0.32524914 -0.30336332 0.3151454 -0.18267207 -0.009742196 0.1334167 -0.1638411 -0.18733779 -0.22847547 0.32527587 0.14588098 -0.23512582 -0.1180432 0.06581136 0.31157383 -0.0070430487 0.035362057 -0.17382489 0.057066273 -0.061208762 -0.04523736 -0.102962844 0.19021207 -0.1413274 -0.42369926 -0.53012073 0.17762424 0.049281236 0.48098132 0.4661522 0.32876033 -0.6366804 -0.10907627 -0.16400343 -0.50799716 -0.20303346 0.3023305 -0.013845049 0.003311607 -0.3699287 0.3590099 -0.18480283 0.69537413 -0.5012734 0.61041653 0.11050381 0.4000893 0.31962064 -0.09428705 0.1485551 0.20258498 0.70012444 0.09323903 -0.2053481 0.28448462 0.30269194 0.23711632 0.7406446 0.11673598 -0.23476718 -0.33112818 0.3660149 -0.36621946 0.45046717 -0.14316906 0.3665583 0.0918646 0.42500344 -0.29486492 -0.14621325 -0.13206817 -0.23809928
3300 -0.4983102 -0.5417147 0.006229898 -0.2817857 -0.059192665 0.053033665 -0.2630283 -0.154584 -0.2735298 0.45629138 -0.519629 -0.04741867 0.014861639 -0.3643415 -0.07219198 -0.19649193 -0.36599323 0.7476193 -0.32005382 -0.30426693 -0.38564757 0.24925794 -0.045185316 -0.04548289 0.026539825 -0.1572122 -0.14097816 -0.83327043 -0.6905856 0.16727944 -0.6004767 0.4951395 0.37292227 -0.0418157 -0.5522218 0.17176189 0.22910406 0.28940198 -0.14245737 0.08793089 0.13150713 0.18156339 0.13106793 0.09956434 -0.4391025 -0.20262685 0.010317915 0.14833497 0.11852506 -0.7771688 0.19654176 0.11072242 -0.32558274 -0.29013363 0.29227206 -0.089175954 -0.39424533 -0.07062612 0.3246072 -0.28943753 0.1598245 -0.3202126 -0.27785826 -0.38317758 0.10371582 0.48812255 0.37571782 -0.22460265 -0.06397331 -0.094834134 0.10503784 -0.36303926 0.111327656 -0.15408106 -0.21915786 -0.0460201 -0.0333429 -0.017674033 -0.05283261 0.011131277 -0.5455255 -0.39823464 0.3482686 -0.08079487 0.17558159 0.2667298 0.084020086 -0.12868167 0.13612741 -0.11119953 -0.69136727 0.06939396 0.31791872 -0.00629259 -0.15138127 -0.07843793 0.37580138 0.0605028 0.38053647 -0.41076133 0.29865092 0.43401778 0.06674088 0.18176545 0.17670496 -0.20924631 0.12073685 0.871486 0.08169036 -0.11308996 -0.041075543 0.6171218 -0.06814856 0.30472246 0.18058696 -0.34527817 -0.28381062 0.48687688 -0.5246246 0.022547938 -0.2810445 0.14058578 0.2043942 0.5784555 -0.51761794 0.00037837462 0.35287455 -0.22198
655 0.20968023 0.034028888 0.016509477 0.36151385 -0.09931275 0.044263646 0.06275554 0.12266411 0.185119 0.36940476 0.23570482 0.15074883 0.15246496 -0.22073697 -0.07201229 0.050830442 0.184157 -0.10974151 0.15809041 0.085002 -0.19042024 -0.24977015 -0.058363236 -0.08345696 0.044277415 -0.0017727409 -0.2236829 -0.3020609 -0.33810306 0.14606908 0.22247586 0.026464619 -0.1865149 0.061273493 -0.017602319 -0.17326191 -0.00039456048 -0.4088341 -0.056013037 0.015090661 -0.06620664 0.050293785 0.06867452 0.13754953 -0.06299011 0.00787557 -0.076975256 -0.24490385 0.083480336 0.11507212 -0.11384281 0.13138974 0.033543304 0.06762273 -0.103237316 0.12546451 0.042563573 0.1518559 -0.37160328 0.13172825 0.10824307 -0.08586368 -0.074878424 0.03925718 0.10982885 -0.2734926 -0.19593002 -0.033689983 -0.08594705 0.26825562 -0.03822329 0.22483963 0.16031566 -0.09246466 0.053253315 -0.035733044 0.3272455 -0.13703741 -0.052183326 -0.029522695 -0.26479667 -0.1790689 -0.0707127 0.24978922 -0.24004668 0.20885922 -0.22426681 0.11704417 0.095837764 -0.034714743 -0.14992614 0.026503826 0.060045805 -0.08934328 -0.22278063 -0.4700554 -0.12638375 0.097925924 0.29073575 0.018752538 -0.18856432 -0.10253941 0.31863445 -0.13166162 0.08200753 -0.13821381 0.052398328 0.29416472 0.053728715 -0.15256533 -0.15501828 -0.3607097 0.15909861 -0.28915355 0.09909264 -0.15407379 0.20502909 0.27412835 -0.19501927 -0.10696765 0.24924392 -0.20592448 -0.21547078 -0.09556817 -0.35123634 -0.15879844 0.01684853 -0.1346416
2730 -0.353507 0.26064435 -0.26490098 -0.06043859 -0.100438625 0.08828709 0.22389345 0.06632936 0.13104619 0.27877262 0.24523817 0.09942024 0.15766306 -0.071834475 -0.068637185 0.06843266 0.18219733 -0.21426459 -0.13682592 0.044201426 0.13718098 -0.33034563 0.020393228 -0.14375499 -0.07879216 -0.2088046 0.051038288 -0.29795936 0.003716083 0.06721631 0.17807296 0.008855185 -0.31660792 -0.08130022 -0.088575214 -0.053534195 0.016003553 0.04186953 -0.05196057 0.24581021 -0.14272198 -0.034875125 -0.1263193 0.16299872 -0.06040703 0.0041812616 0.03904516 -0.12126925 0.34977156 -0.040487904 0.22390121 0.022631707 -0.015658107 -0.066043444 0.023069557 -0.078239284 0.075732544 0.008045428 -0.260629 0.08849921 0.30406773 0.13664551 -0.2637259 0.11665807 0.05298289 -0.26823142 -0.09192224 -0.23552795 -0.1571229 0.1418784 0.17446901 -0.13383275 0.0887893 0.0014814846 -0.23042029 0.041132145 -0.011338012 -0.045117006 0.017257266 -0.049122237 -0.25310495 0.16002654 -0.031293217 0.086235486 -0.06140205 0.21776886 0.09514385 0.07330342 0.22647029 -0.11042693 -0.07523303 0.29401898 -0.18974794 -0.18047404 0.051447306 -0.07884245 0.03372308 -0.003988443 0.076370895 0.23422456 -0.0007245834 -0.09444737 0.098806396 0.09425279 -0.034839217 -0.042640734 0.13646014 0.16444261 -0.12605633 -0.02148466 -0.14458542 -0.000802621 -0.18848848 -0.16029835 0.17316625 0.119128495 0.25522625 0.17519969 0.11420129 0.0551034 0.061054505 -0.3417833 0.11783666 -0.27220345 -0.09634698 -0.23825687 0.020994872 -0.09353983
3825 0.30313513 0.3207013 -0.26859435 0.14529318 0.07786295 0.08023579 -0.04568626 0.14091137 -0.0022004102 0.20243128 0.03857745 0.0010019853 0.12414184 -0.26266146 0.008684196 0.021635788 0.26464754 -0.11174724 0.40672466 0.042792432 0.03681075 -0.09801101 -0.35500646 -0.21065213 -0.050033428 -0.17877251 -0.23282175 -0.15032151 -0.22915106 -0.017077653 0.17834109 -0.031817976 0.104603015 -0.008064254 0.13700536 -0.19358647 0.06851994 -0.21183632 0.10963599 0.20053963 -0.31796205 0.0044026645 0.038899325 0.20033498 -0.0955764 0.012972301 -0.18664081 -0.16129959 0.16723615 -0.116500705 -0.029356066 -0.010906598 0.15039 0.024003409 -0.032169428 -0.012583454 -0.051545776 0.022851652 -0.20543481 0.21263772 -0.0018698876 -0.0252397 -0.12974714 -0.11023057 0.07876429 0.092320666 -0.24854678 0.16045038 -0.24064521 0.16892502 0.059215423 -0.03248801 -0.110427685 -0.074286446 0.14130272 -0.088178165 0.1427724 -0.10342827 0.042099074 -0.056937214 -0.27913442 0.03945111 0.015874548 0.14459485 0.18273462 0.13575274 -0.19641507 0.14173879 0.15356295 0.11246458 -0.13544935 0.081575714 -0.02876705 -0.20310079 -0.030687261 -0.28865317 -0.0034857392 -0.09333368 0.11035521 0.06880507 -0.04929143 -0.1539844 0.088720165 0.0072587174 0.06649444 -0.21932574 0.3177653 0.21412577 -0.13258004 -0.057593748 -0.12429822 -0.09234001 -0.3045233 -0.13368633 0.100748144 0.034593433 0.1504435 0.31032607 -0.041737635 -0.13575393 0.27072108 0.014228667 0.05469775 -0.20192896 -0.13390619 -0.24785778 0.24705762 -0.22250658
5119 -0.6398185 -0.067053355 -0.099992245 -0.13318002 0.26459205 -1.5861413e-05 -0.41328385 -0.1922774 -0.283184 0.31513363 -0.50207514 0.19893156 0.15428263 -0.587141 -0.091538586 -0.087231666 -0.06822268 0.45787084 -0.055211756 -0.06427709 -0.1752585 0.11698802 0.21131817 -0.004106349 0.22747895 -0.049045265 0.03168667 -0.6659782 -0.3646091 0.33652306 -0.370537 0.419836 0.44609928 0.07272843 -0.61696887 0.71131337 0.16081645 -0.0605344 0.056188583 -0.10057249 -0.11201503 -0.043126933 0.26885894 -0.22418137 -0.2556974 -0.34484392 -0.2753214 -0.27765024 0.12880841 -0.4785625 0.14578398 0.4568194 -0.46521518 -0.32820776 0.25433508 0.1616541 -0.41144738 -0.061452024 0.17401494 0.0131261265 0.1707643 -0.28329822 -0.239432 -0.57898843 -0.06050247 0.4924167 0.39714938 -0.011858464 -0.22526166 0.07356366 0.11646134 -0.5150234 0.32872638 0.17111515 -0.1594134 -0.29605055 -0.11882256 0.13794594 -0.1543299 0.17484497 -0.12257233 0.15106612 0.32667392 -0.0086483825 0.049199473 0.35970393 -0.07807616 -0.33260268 -0.02291196 0.0138213895 -0.58421516 -0.20276296 0.17012525 -0.085522264 0.13798054 -0.11465049 0.37422886 0.15245067 0.51618207 -0.11448798 0.41843465 0.45384714 0.17605932 0.40789765 0.11941907 -0.023953525 0.16086373 0.6154824 0.27124316 0.12289326 -0.15851134 0.7412534 0.30800152 0.31947687 -0.02540084 -0.37963957 -0.27715892 0.22590758 -0.522076 0.099976525 -0.14987898 0.03917515 -0.021657065 0.47138926 -0.44332626 -0.2143081 -0.032532327 -0.57039714
