497 32
387 0.5822185 -0.07820789 -0.422511 -0.61209714 -0.4264897 -0.51349086 0.17270373 -0.32388398 0.3865683 -0.17869185 -0.7702848 0.10095935 0.43275037 -0.17242758 0.5525628 0.10688998 -0.2217615 -0.6699808 -0.032419834 0.017767314 0.157998 0.057014868 -0.07873693 -0.15743224 -0.43509603 0.1475372 0.23629406 -0.14705892 -0.0948881 -0.1228308 0.22333361 0.43692353
230 0.70503694 -0.617954 -0.2890326 -0.33543822 -0.010662261 -0.6510336 0.34879532 0.03637488 -1.0264379 -0.16646849 -0.50769687 -0.39190218 0.36585817 0.16267335 0.24406329 0.8384338 0.241654 -0.28407896 -0.6074327 -0.11310627 -0.105294555 0.43673414 0.29292637 0.4661939 -0.44477254 -0.43109846 0.23028027 -0.55200356 -0.26358137 -0.6534643 0.30597702 0.59380126
4 0.018100176 -0.6904873 -0.21504577 0.108470485 0.46477315 -0.67801905 -0.25941816 -0.49705967 -0.08395047 -0.6854944 -0.1783364 0.22811182 -0.5968391 0.08244879 0.08202891 0.46599957 -0.51216185 -0.0006483134 -0.0861627 0.96726894 -0.25085112 -0.0447063 -0.808805 0.3301682 -0.4285885 0.3413974 -0.18752852 0.28728452 -0.12501515 -0.30001736 0.04107404 0.55547166
290 0.6487981 -0.5857768 -0.2854876 -0.26695475 -0.011521548 -0.6542254 0.27179602 0.055537816 -1.0190214 -0.18483974 -0.49335486 -0.4802183 0.40280512 0.10965721 0.21794523 0.96526307 0.16447636 -0.3077431 -0.6657246 -0.098810494 0.038521647 0.5441241 0.2455678 0.5570131 -0.4186949 -0.38358662 0.17790233 -0.5394025 -0.3521118 -0.6956131 0.34017602 0.522027
358 0.23593557 -0.60413367 0.045136947 0.60535806 0.17675714 -0.77765137 -0.05389981 0.17873488 -0.14205456 -0.30531234 -0.35652918 -0.67233866 0.8781634 0.26469812 0.5821098 0.6106093 0.24255784 0.14138435 -0.38566995 -0.048653807 0.13303177 0.20836093 0.099994406 0.69755155 -0.53458697 0.022414891 -0.042974383 -0.26475248 -0.3358523 -0.6103694 0.2377655 -0.078441925
333 0.7696227 0.07438558 0.29240915 -0.43097454 -0.4182253 -0.014379379 0.23605786 -0.056411482 0.5092397 -0.15369242 -0.57471603 0.09574643 0.8289157 -0.09018322 0.5332999 0.7826222 -0.100682594 -0.57400113 0.18417381 0.2522227 -0.07437976 -0.5287987 0.255068 0.35825732 -0.3640924 0.32187676 0.8351566 0.18676123 -0.41993332 0.008787456 0.14082024 0.30148375
436 0.1626491 -1.396541 0.19643395 -0.046696518 -0.5458364 0.24931182 -0.41835722 -0.13097477 -0.5046601 0.012429868 0.068205565 -0.44053608 -0.30292952 -0.50275254 0.7181109 0.11113326 -0.4844442 -0.216288 0.56533855 0.5654386 0.25402838 0.11360125 -0.0005197467 -0.3127806 0.19885515 0.30935645 -0.37584853 -0.7214989 -0.23561907 0.15272999 -0.21084282 0.10642622
481 -0.21776368 -0.8656476 -0.056084782 -0.5491378 0.9504346 -0.10325988 0.31227675 -0.24108018 0.28912252 -0.48581684 0.75107884 0.025833288 0.38791248 0.32917973 0.50025517 0.37370434 -0.023133494 0.65034825 0.26443228 0.6965535 -0.22824548 0.12204586 -0.06680165 -0.70230496 0.095084935 0.7200283 0.8887682 -0.06947979 -0.33316296 0.20921431 0.08060976 0.86395407
117 -0.05813026 -1.5031456 -0.296378 0.26482406 -0.36738452 0.4477491 0.64173985 -0.044481803 -0.020424744 -0.5977899 -0.3817034 -0.7564923 -0.07638894 0.33094904 0.48998293 -0.053300407 -0.30440357 0.3012461 0.4428778 0.069244094 -0.02075655 0.2332823 0.08676572 -0.13467555 -0.06353988 0.1690149 -0.3104306 0.028829452 -0.38485667 0.5896744 0.6834964 0.16400844
180 0.12231663 -0.7253075 -0.21599814 0.11204388 0.5461647 -0.53814477 -0.27948678 -0.4570204 -0.12169782 -0.66376865 -0.118485264 0.32721105 -0.64262223 0.08093382 0.01432761 0.46114185 -0.48035055 0.08727868 0.037926 0.9914056 -0.14412704 0.014550688 -0.7462695 0.31940168 -0.4693628 0.37106013 -0.1326215 0.21248071 -0.1605441 -0.30771476 0.1205643 0.60374177
475 0.7812558 -0.20501262 -0.52277905 -0.66824967 -0.3476783 -0.59690803 0.23179996 -0.21552958 0.3667597 -0.19900282 -0.8201973 0.17458539 0.35716993 -0.10941713 0.4625674 0.15116917 -0.34350896 -0.6650945 0.018345082 -0.059996787 0.10069534 0.18689133 0.012642942 -0.29535428 -0.37952656 0.058176238 0.21374217 -0.20139116 -0.1606834 -0.21246707 0.20417336 0.46580803
388 -0.26725885 -0.9085042 -0.058853 -0.600563 1.0219469 -0.0019170407 0.3736409 -0.253263 0.25329807 -0.65762496 0.8643455 0.053933617 0.32293084 0.41121003 0.61835647 0.36044082 0.011382266 0.689514 0.2805258 0.7644952 -0.124146745 0.1370408 0.08823755 -0.696974 0.10201693 0.81245303 0.8788782 -0.06017421 -0.46684268 0.24972397 -0.0024704037 0.8415706
386 -0.33624545 -1.013631 -0.08735967 -0.123942055 0.92724204 0.08613892 0.31602752 0.55897415 -0.24033916 0.07049285 -0.3484817 0.6255206 -0.062468816 0.10248278 1.2491412 0.12186111 -0.10173085 -0.8580373 0.1832971 0.26070228 -0.40779108 -0.12345719 -0.47759104 0.15642339 0.47673714 0.124930575 -0.30332708 0.4576815 -0.31650168 0.14021127 0.48868212 0.24204113
107 0.75941813 0.01563495 0.32512066 -0.31817174 -0.38788643 -0.028049948 0.21928595 -0.050836943 0.49412426 -0.08185878 -0.49086305 -0.003070089 0.8305675 -0.057224747 0.56733084 0.78550315 -0.055183332 -0.54256386 0.08948694 0.20486674 -0.05446681 -0.5630083 0.2533983 0.40306985 -0.4023748 0.2703465 0.7770085 0.16187601 -0.5226831 -0.07768246 0.17736463 0.21251594
471 0.3020077 -0.597349 0.04573193 0.6465576 0.077013746 -0.614491 -0.20285477 0.121098205 -0.017816484 -0.2504201 -0.17630552 -0.6300402 0.86775637 0.15325855 0.5392985 0.6596666 0.17078456 0.08821626 -0.4338885 -0.025539031 0.11843505 0.014040541 0.13434722 0.681122 -0.55574745 -0.08307957 0.15775082 -0.1321775 -0.39601606 -0.6392472 0.30962762 0.017622469
345 0.51313484 -0.41280434 -0.4419528 0.37253 -0.32200688 -0.3420238 -0.58325565 -0.10668265 0.6063728 -0.1912881 -0.41271666 0.50325906 0.4121235 0.80326486 0.6522355 0.043020193 0.37592328 -0.84557927 -0.41581365 -0.29313096 -0.45204172 -0.041313346 -0.62308955 -0.13531603 0.21590342 -0.12715128 0.29661527 -0.25068286 -0.8765196 -0.36925972 -0.079450406 0.1008924
116 -0.12459405 -0.26796272 -0.23276348 0.03648239 0.9086853 1.1152148 -0.059611164 0.27049896 -0.04893643 -0.20584378 0.08359495 0.15139829 0.3043234 0.5371429 1.2369843 -0.068577744 0.0010707881 -0.3246138 0.30711982 0.9035653 -0.7324817 0.9496062 0.14618044 0.31135383 0.19189459 0.63632876 0.60991174 0.141873 -0.6805539 0.22795604 0.24905635 0.20677507
182 0.5082904 -0.4079567 -0.45205122 0.3493659 -0.18675919 -0.38271624 -0.5675292 -0.054526918 0.6583204 -0.10256126 -0.38155538 0.5029504 0.4801715 0.8284119 0.7273734 0.08529868 0.398737 -0.7432393 -0.4570306 -0.28574422 -0.4505371 -0.096331716 -0.71213776 -0.013912257 0.29092985 -0.10966122 0.26293215 -0.25998828 -0.9622665 -0.3936355 -0.1240521 0.122609295
365 0.6614913 -0.6056554 -0.5570022 -0.617579 -0.27197018 -0.4325024 0.17676632 0.5367742 -1.4063323 0.31743464 0.024090214 -0.2466177 -0.006766553 0.44289455 0.19992273 1.2825395 0.3271201 -0.35929036 -0.13629173 0.17511895 -0.63557076 0.47671798 0.024988258 0.106620096 -0.08922016 -0.2680706 0.57961655 0.069297664 -0.603148 -0.33218592 -0.0375888 0.67799944
132 0.39883736 -0.06637532 -0.32908934 -0.5735072 -0.39993256 0.39937973 -0.354219 -0.78282416 -0.8608509 0.105011374 -0.65357584 -0.7869901 0.1519414 -0.5320204 1.0702785 0.041847873 -0.20841053 -0.7463062 0.027359236 0.29940188 0.1914511 -0.23384586 -0.017589176 -0.35177222 0.15133868 1.0348829 -0.6699717 -0.1274188 -0.071842015 -0.1228787 -0.114684895 0.7474958
438 -0.3424475 -1.0388649 -0.10493919 -0.17899294 0.9118287 0.047858153 0.43021825 0.51365846 -0.14248423 0.18241487 -0.42643404 0.69160205 -0.05992227 0.044714898 1.2368724 0.22182448 -0.029407617 -0.97910124 0.13590425 0.22507049 -0.5153371 -0.123323835 -0.47674322 0.07476877 0.3930444 0.1434861 -0.20112365 0.50353736 -0.4053644 0.11921066 0.43894246 0.17439386
232 0.38313597 -0.19675179 -0.3478403 -0.6581746 -0.40893257 0.4648304 -0.33519757 -0.7726798 -0.917796 0.09401175 -0.48428062 -0.91659707 0.0747399 -0.5682376 1.0292954 0.08641634 -0.26812053 -0.68642324 0.12957668 0.31132442 0.17034811 -0.12923154 0.04862063 -0.33159944 0.21778588 1.1679362 -0.66584367 -0.16347083 -0.060565364 -0.12243953 -0.10239231 0.6239936
382 1.1377153 -0.43991187 -0.67228436 -0.3899637 -0.033787876 0.29087222 -0.46365893 -0.102640346 0.34729403 -0.049856488 -0.34342694 -0.05622037 0.024918616 0.104806 0.85072416 0.23346794 0.8611058 0.47955278 0.09671922 0.75444293 0.15501182 -0.58233947 -0.023830172 0.0915252 -0.3125923 -0.3429019 0.07590377 -0.027900465 0.24703903 0.78892106 -0.2801008 0.38105562
432 0.70883584 -0.38159025 -0.5609906 -0.51519305 -0.5318428 -0.5455599 -0.17322685 -0.54051065 0.1384435 0.012026204 -0.47249115 -0.011038312 0.4340505 -0.06140298 0.3205421 -0.6799635 0.38201597 -0.46929646 -0.25049037 0.37037358 0.09337523 0.0013400469 -0.2839095 0.30469632 -0.43717614 0.3834494 0.34851167 -0.10291861 0.105618104 0.17989393 0.06540073 0.30625197
1 0.004778075 -1.3603711 -0.18666476 0.20652802 -0.26655373 0.29217842 0.53935534 -0.10479269 -0.15334873 -0.55880594 -0.25781465 -0.6724869 -0.19076619 0.336983 0.4921224 -0.016908053 -0.2537446 0.26226303 0.5152121 0.0680517 0.027550451 0.15518376 0.14446512 -0.08596809 -0.016819118 0.26306796 -0.28885075 -0.0805271 -0.35985982 0.56897014 0.7048244 0.057510383
168 -0.24871543 -0.28816864 -0.20927995 0.0649263 0.91308606 1.0838228 -0.15186787 0.1913568 -0.011053062 -0.17065842 0.06505805 0.14712971 0.42372653 0.5813029 1.2159419 -0.05177495 0.01749925 -0.38350582 0.23624273 0.9431548 -0.7712837 1.032307 0.21516035 0.29728815 0.16802445 0.73256814 0.6567499 0.041549966 -0.7299786 0.1830887 0.29556406 0.25305897
397 0.14688 -1.3701947 0.14245155 -0.0049531036 -0.64032245 0.21004249 -0.14299631 -0.23417106 -0.37492898 0.020622537 0.13148452 -0.36703438 -0.22756201 -0.30637997 0.6943663 0.15392187 -0.4053757 -0.09315614 0.57134694 0.52907264 0.30261305 0.09481352 0.04220061 -0.19400209 0.21338262 0.21889031 -0.42691973 -0.67866075 -0.28000337 0.19808461 -0.16315368 0.15088572
246 -0.77715427 -1.3634797 -0.3333827 0.0968459 -0.21429342 0.19365178 0.17084299 0.12668721 -0.6140743 0.37528792 -0.17235008 1.0228208 0.44117662 -0.5167212 0.5449684 0.7384383 0.00454021 -0.31853995 -0.6376076 0.06468988 0.56824577 0.33425194 -0.11095824 -0.2333263 -0.24536906 0.36023164 0.42819753 0.38773307 -0.7611872 0.7659724 0.4689196 0.07295081
405 0.6352044 -0.65292436 -0.5336065 -0.63544923 -0.26937875 -0.29692316 0.1301389 0.6170287 -1.3888029 0.34867853 0.03812433 -0.24320486 0.035429765 0.38053024 0.18782316 1.2462953 0.44014525 -0.4073431 -0.099693365 0.112710536 -0.7273956 0.4513687 -0.031581238 -0.07961406 -0.004446332 -0.2580462 0.51182294 0.16813156 -0.49376822 -0.17481135 -0.085878074 0.64567816
360 0.1275921 -1.2938999 0.22298297 -0.19018681 -0.60999113 0.36440128 -0.32269114 -0.25999692 -0.54315495 0.011617804 0.023052521 -0.45958513 -0.22252971 -0.39892548 0.7901152 0.11700759 -0.36387986 -0.3439493 0.51892906 0.5117507 0.26355746 0.014073534 0.078539126 -0.42364895 0.14726022 0.41215304 -0.41048563 -0.569352 -0.20133676 0.06609967 -0.3529317 0.10483613
379 0.07319472 -0.5791647 -0.31128743 0.30770838 0.14473294 0.09420802 -0.18115732 1.2706923 -0.17027104 -0.40142968 0.5308413 0.20338926 -0.7402849 -0.08261497 0.95236754 1.0925529 0.34490928 -0.25691336 -0.80596966 0.9514469 0.025597936 -0.7920826 -0.4167662 -0.44115368 -0.5822451 0.4221455 0.17894824 -1.1009712 -0.060875025 -0.49035484 0.5432906 0.2463235
392 0.057652 -0.6262291 -0.3270419 0.3304059 0.09649858 0.1388478 -0.23739149 1.3002993 -0.17140451 -0.3667954 0.5008631 0.17261991 -0.7976209 -0.16438022 0.9106964 1.108085 0.1612261 -0.2903664 -0.7766409 1.0330831 0.09603152 -0.65898174 -0.52051294 -0.37640047 -0.52370554 0.38948047 0.23372878 -1.1050031 8.24941e-05 -0.55041194 0.50674605 0.36328188
3 0.48441598 -0.55453223 -0.33292872 -0.5013826 0.34153578 -0.06700905 -0.46308613 -0.32457274 0.16389951 -0.5343634 -0.12235118 -0.08130221 -0.3955525 -0.18990721 1.0888116 0.5714708 0.20310427 0.33861485 -0.23410156 0.28029266 -0.10545176 -0.024533182 0.024613155 -0.21164863 -0.80546916 -0.27199253 0.17772901 -0.25469616 0.2560836 1.3523988 -0.65007323 0.04353225
310 -0.634142 -1.3385301 -0.3616706 0.109761156 -0.20950912 0.23704465 0.16825025 -0.011349131 -0.5592479 0.2404351 -0.13741772 0.92540044 0.44444034 -0.56637883 0.451575 0.74800426 -0.06820081 -0.26583984 -0.6718043 0.020396076 0.6161668 0.53393996 -0.13938425 -0.18548977 -0.20469403 0.43224984 0.37746245 0.38982657 -0.6138905 0.7899383 0.526669 0.048655722
286 0.44933474 -0.51156867 -0.3800379 -0.54361385 0.23305403 -0.046710994 -0.51142776 -0.20966035 -0.009720369 -0.45802724 0.02899181 -0.09084439 -0.40300947 -0.36744064 1.1392897 0.65698284 0.0429253 0.39616656 -0.055702258 0.07572467 -0.14972344 0.12582746 -0.087365866 -0.41636646 -0.6964965 -0.10364871 0.25701305 -0.3707344 0.27515006 1.1579006 -0.63598496 -0.041592784
234 -0.15802619 -1.5455946 -0.29149273 0.2526804 -0.37430698 0.49569178 0.48143077 -0.116700925 0.112005346 -0.58823645 -0.31304938 -0.7145461 0.020744957 0.19263846 0.23768276 0.0063078175 -0.30733272 0.2734426 0.36667418 0.135947 -0.026855405 0.3125559 0.119607694 -0.24051969 -0.025445051 0.22148123 -0.19084595 0.04915433 -0.42323747 0.49826226 0.69548976 0.22777887
370 0.37415007 -0.5335273 0.059208952 0.7483056 0.18634085 -0.6178185 0.050957333 0.40470043 -0.23656993 -0.4339201 -0.42928538 -0.5270145 0.8998849 0.09113909 0.5671298 0.52209425 0.11492953 0.22326656 -0.19460726 0.026836388 0.30233362 0.20680821 0.15115514 0.5362071 -0.23361184 0.1341496 -0.23064373 -0.11385223 -0.4019842 -0.27144182 0.27996826 -0.24562503
22 -0.43408874 -1.8814627 0.41607407 0.579081 -0.56058186 0.15548006 -0.5200898 0.2775041 0.26147416 -0.17447124 -0.8792367 -0.34155264 -0.107913285 0.103815064 0.30711064 0.35676435 -0.06178218 -0.097996935 0.032133907 0.72361284 -0.58155525 0.09916804 0.6971566 -0.6425825 0.27780187 0.44874504 -0.060072497 -0.96072346 0.10916749 0.25344726 0.16976292 0.09311091
449 0.97919846 -0.34153396 -0.7540944 -0.26367387 -0.023030523 0.25032055 -0.5204028 0.03450207 0.34906226 -0.096592724 -0.24680716 0.016487522 0.05892694 -0.09958914 0.8827475 0.20150009 0.91108435 0.5527754 0.13889645 0.8557983 0.021206055 -0.57210416 -0.026775047 0.16349693 -0.16741389 -0.4014613 0.05008875 0.056615893 0.19489479 0.7541519 -0.20321256 0.56141937
367 -1.4805183 -0.64264673 -0.2039183 0.24395582 0.9162087 1.0777395 -0.9835097 -0.38016146 0.29223308 -0.47643182 0.10678177 -0.451243 0.8247251 0.4484193 1.2953637 0.39879945 0.48689705 -0.62614065 0.6329736 1.3896418 -0.77529275 1.118615 0.50599164 0.72060025 0.42659953 0.56619126 1.4028614 -0.27519485 -1.2125138 0.42115578 0.4208315 0.25147653
150 -0.23445791 -1.8487217 0.32224452 0.48443097 -0.5848429 0.31747937 -0.3894036 0.14531247 0.21176203 -0.13986242 -0.7043362 -0.3504582 -0.21618083 0.03850014 0.3884818 0.29234678 -0.11109694 -0.13815485 0.114096895 0.690523 -0.45990634 0.11953173 0.6505455 -0.6147702 0.22862759 0.38785973 -0.23269129 -0.88548815 -0.015007408 0.26128396 0.1121715 0.11150515
199 0.15947457 -0.060765937 -0.21948132 0.30729866 -0.4677748 -0.49098867 -0.2267715 0.396231 -0.21083564 -0.68417114 -0.32547313 0.529766 0.17178652 -0.4799531 0.4080028 0.09164009 1.1200306 0.18197982 0.9047344 1.1209071 0.020913552 -0.24823517 0.0119395675 0.27006248 0.07796477 -0.15605009 0.14401051 -0.04229169 -0.22783744 0.42947784 0.23255458 0.6568843
229 0.16463493 -0.58707166 -0.26424998 0.012852397 0.3741323 -0.6010204 -0.24559794 -0.6304487 -0.08048218 -0.60587204 -0.18618865 0.26468313 -0.5750415 0.09796813 0.07900717 0.34650725 -0.5218788 -0.2269224 -0.3871285 1.1131014 -0.264576 -0.0989099 -0.7800874 0.3341089 0.037434593 0.3505513 -0.40509412 0.36806867 -0.26348746 -0.09995052 0.023916062 0.38685465
485 0.38828596 -0.12957926 -0.328962 -0.6441311 -0.464955 -0.30313882 0.07372457 -0.38982514 0.041310355 -0.09683808 -0.586688 -0.23233491 0.46023226 -0.3484328 0.69439447 0.15066549 -0.30594915 -0.5255186 0.14602472 -0.037593663 0.29610544 0.20406555 -0.16007723 -0.31046593 -0.3378352 0.23605473 -0.026112374 -0.15582389 0.03458493 -0.08351883 0.20204227 0.45414156
357 -0.13414139 -0.8463846 0.19886266 0.0063354773 -0.44233668 0.39822105 0.33675346 -0.9983559 -0.28831297 -0.98180354 0.17113727 0.26809147 0.8542163 -0.31036124 0.5202168 0.84101313 0.76796603 -0.858847 -1.1605167 -0.074592255 0.043413587 0.3223294 -1.033893 -0.0040419055 0.5497046 0.4055165 0.20883074 0.3990312 0.62048006 0.34752268 0.47104976 0.5860964
362 0.81169194 -0.47050408 -0.6719686 -0.4818289 -0.6364331 -0.5590319 -0.1436707 -0.52263916 0.024175301 -0.033795137 -0.39455003 -0.042626187 0.53210956 -0.2910217 0.31610018 -0.8464817 0.35860404 -0.49099326 -0.3204224 0.46466768 0.07701416 -0.08680532 -0.2685728 0.4059405 -0.4094265 0.48290884 0.38103876 -0.11430757 0.07156354 0.3144884 -0.027378498 0.3019057
492 -1.594626 -0.60162663 -0.22086895 0.25285342 0.92324126 1.0514573 -1.0742517 -0.55091673 0.33238283 -0.5642902 0.14258978 -0.39666277 0.8198267 0.50125957 1.3378278 0.50860965 0.55111474 -0.65445685 0.78029 1.5566514 -0.8275576 1.1401469 0.5843745 0.7871585 0.45665792 0.5397409 1.4573793 -0.24571335 -1.1672093 0.48710924 0.42285877 0.32619494
369 0.8808813 0.2607689 0.4583977 0.57988954 0.4314024 -0.28851828 0.020182727 -0.13728906 -0.5685578 -0.40710992 -0.8135988 -0.7927367 1.023665 0.30754137 0.24761297 0.46061674 0.21149206 -0.4632202 -0.61116827 1.1396986 -0.18050763 0.08835109 0.17124054 -0.0655933 0.25569925 0.5741433 -0.3701633 0.50916135 -0.6327371 0.50277734 0.35393548 -0.50412244
404 0.7694023 0.26758504 0.5218699 0.70251805 0.49290803 -0.28064114 0.012763836 -0.20414098 -0.4854762 -0.4177625 -0.80031544 -0.8648645 0.9045884 0.42393386 0.27512676 0.32184473 0.28854966 -0.5671705 -0.6118752 1.2463595 -0.19011752 0.056986857 0.05777251 -0.054762032 0.19007821 0.65467864 -0.4686285 0.36425573 -0.81026506 0.61944985 0.2217621 -0.36213177
376 -0.13737579 -0.8976333 0.38853428 0.034183495 -0.41752142 0.38046315 0.32966593 -1.1160427 -0.27616563 -0.9850315 0.14925377 0.30287433 0.97071326 -0.24718563 0.5177189 0.9523221 0.6692063 -1.0410973 -1.084071 -0.09824236 0.09471787 0.24547364 -1.0262861 0.09640209 0.54049575 0.36010912 0.39443016 0.32245892 0.69774204 0.41667372 0.41730097 0.67892516
363 1.069403 -0.4903145 -0.6791132 -0.30549803 -0.18481119 -0.004250643 -0.48531115 -0.15922137 0.09163736 0.10490503 -0.4934303 -0.012765554 0.20817904 0.34807822 0.62169343 -0.3319368 0.81791204 0.06296351 -0.12501448 0.6439618 0.30680454 -0.22712353 -0.25292125 0.044405423 -0.2114269 -0.16152872 0.4363669 -0.08825275 0.4606536 0.6125638 -0.17282061 0.16220379
408 0.16643183 -0.7787819 -0.4848263 0.39672527 -0.41579142 -0.34977552 0.51631767 0.18895498 0.010077051 -0.5036937 -0.72543085 -0.6205429 0.5637271 -0.2043413 0.60108614 0.12798594 -0.27826726 0.32364342 0.5211705 0.04603378 0.35396883 0.11958873 -0.08775613 0.29101974 -0.08024253 0.18462715 -0.3718116 -0.14402786 -0.12950847 0.05116052 0.2632643 0.023471376
271 0.7553788 0.14899226 0.16732636 -0.38369194 -0.27354836 0.024856485 0.19831116 0.04911758 0.3598035 -0.10211011 -0.7509901 -0.011618051 0.83134323 0.015537732 0.39588648 0.8519923 -0.04818595 -0.28414342 0.100435205 0.53563905 -0.13275197 -0.5178112 0.41774064 0.20768198 -0.112334296 0.36696061 0.8434737 0.3268512 -0.37086728 0.14979807 0.09799982 0.078107536
63 0.04432908 -0.09772593 -0.12431053 0.26935586 -0.5017733 -0.600185 -0.1766621 0.4379839 -0.16701621 -0.74568224 -0.4602994 0.5062026 0.32959014 -0.5184781 0.36086756 0.22981045 1.1658994 0.21813275 0.9597507 1.1382039 0.08867808 -0.2330661 -0.046588127 0.31261197 0.19466864 -0.22492415 0.11982588 -0.12089983 -0.19276439 0.43636537 0.23327342 0.6244274
299 0.4060536 -0.41887045 -0.27676082 -0.14107737 -0.84714746 -0.3908996 -0.1398147 -0.6598264 -0.15136367 -0.6374944 -0.45398813 0.6703206 0.18981549 -0.08404072 0.25635886 -0.11032372 0.2343999 -0.02303683 -0.9375601 0.10866609 -0.076352805 0.26049066 -0.7571737 0.37148002 0.3184679 0.23661104 0.2783254 -0.20587732 -0.29485932 0.05796038 0.434724 0.6793079
11 1.0221349 -1.4349825 -0.79272157 0.27888435 -0.46626613 -0.5352609 0.5312159 -0.33042303 -0.2928623 -0.050866548 0.5835104 0.1150636 0.20997664 -0.7197226 0.60983825 -0.59459496 0.28008205 -0.9678325 -0.22735195 0.33879986 0.13405189 -0.23410147 0.48596394 0.016313314 -0.15606976 0.88696915 1.0742635 -0.21036442 -0.13891949 0.4155918 -1.1017717 -0.07938928
489 0.27316502 -0.5624579 -0.22690275 0.57162285 -0.26416925 -0.4383163 0.3058354 0.37132585 -0.14367506 -0.54481065 -0.5823723 -0.47680935 0.6820658 0.01229061 0.6922875 0.3123832 0.15944315 0.4402359 0.40213323 0.11569899 0.28647622 0.10343214 0.03408254 0.4575122 0.02053146 0.09845531 -0.39122492 -0.101426914 -0.23755687 -0.0327212 0.2815583 -0.07147965
213 0.36236718 -0.56941694 -0.43671912 -0.38987663 0.39435577 -0.17972136 -0.5884147 -0.23880586 -0.13886571 -0.25057742 0.13530204 -0.34307083 -0.32903013 -0.35216263 1.1157708 0.5769257 -0.1747557 0.58823735 0.004376693 -0.073890485 -0.40719655 0.0151068 -0.17495087 -0.6541612 -0.34011796 0.0714628 0.4378423 -0.17835504 0.33330762 1.0246879 -0.37527376 0.070813425
431 -0.44032004 -0.8406422 0.057164535 -0.100785784 0.8468545 0.24647793 0.19889274 0.64873976 -0.08986604 -0.15401039 -0.17508933 0.4702756 0.08728564 0.09806896 1.1675763 -0.080012925 -0.19114049 -0.8585833 0.13261624 0.5122138 -0.516292 0.04411421 -0.32932287 0.12832488 0.458263 0.14191133 -0.1512334 0.34800932 -0.3946539 0.22198911 0.32812753 0.19047862
403 0.5588589 -0.2773833 0.21210001 0.31662655 -0.07489802 -0.115650095 0.03362758 -0.09325389 0.4627533 0.1369003 -0.23655653 -0.4641024 0.9583189 0.27282423 0.64775676 0.4643301 0.16534176 -0.40690646 -0.38261878 0.09543316 -0.030499257 -0.27612764 -0.18148263 0.570884 -0.16902211 -0.29343 0.64470655 -0.29669392 -0.8165069 -0.45284608 0.31705517 0.050067734
54 1.1493438 -1.2817963 -0.8179289 0.22236924 -0.4429143 -0.55648685 0.3688629 -0.23618947 -0.29265675 -0.07717481 0.44555253 0.1312371 0.33405438 -0.8305535 0.54837036 -0.6806748 0.2190787 -0.91751873 -0.17676772 0.33712405 0.22386163 -0.09700941 0.37284747 0.16001812 -0.19303334 0.86474866 0.9760631 -0.24287136 -0.12060473 0.35450202 -0.98309714 -0.13734855
424 0.124428034 -0.90449005 -0.5923169 0.29393348 -0.4868114 0.010846538 0.51947254 0.24225591 0.10152591 -0.48128027 -0.6952508 -0.7299402 0.6298816 -0.11133029 0.5562189 0.14095844 -0.3649071 0.3172037 0.6049521 0.07500973 0.2226944 0.1321003 0.0009685677 0.28990707 -0.037581343 0.20219922 -0.4810608 0.0029407009 -0.16888112 0.18656884 0.43641663 0.032707177
158 0.48956916 -0.6603948 -0.30854794 -0.560279 0.2443129 -0.032928973 -0.54096323 -0.25794652 0.1399572 -0.42375088 -0.07314967 -0.1492053 -0.38968408 -0.09026245 1.1687994 0.4049948 0.3886441 0.2471471 -0.24505696 0.38543338 0.0012671647 -0.06446588 -0.06070093 -0.13710837 -0.7824283 -0.3087592 0.2896606 -0.30604616 0.168176 1.3765968 -0.84804624 -0.030513
92 0.07737552 -0.71416366 -0.11883705 0.45253155 0.33679387 -0.6547232 -0.6442499 -0.07048536 0.09130777 -0.25774264 -0.05070195 -0.014559985 -0.6464192 -0.33899722 0.6435244 0.4214864 1.0132972 0.101184234 0.042447954 0.062479615 -0.16807397 -0.47175115 0.49547958 -0.5865992 -0.19199026 -0.43518633 0.12920731 0.34700245 -0.38251722 0.115066774 0.43582186 1.0857599
18 0.1811465 -0.67996067 -0.16684133 0.3071796 0.42727593 -0.65993595 -0.7600144 -0.078092314 -0.009829729 -0.008812725 -0.123871215 0.027365552 -0.5382901 -0.36951602 0.7859951 0.46426275 0.84616625 0.26164106 0.06492555 -0.14704324 -0.3264738 -0.39519104 0.54089826 -0.6247966 -0.10481852 -0.33391696 0.20207085 0.37128446 -0.21694979 0.30522013 0.45833856 0.8593162
435 0.09969298 -1.1599352 -0.26854095 0.12498148 0.80297744 0.31680307 0.20229512 -0.33213058 0.57690924 -0.692664 0.23845378 -0.2727199 0.027756022 0.35657898 -0.22572206 -0.10615796 -0.3443232 0.060049504 0.20856558 0.83987033 -0.036542855 0.4277441 -0.18418318 -0.46480584 -0.37566948 0.3824408 0.2609217 -0.086564384 -0.60922474 0.050323073 0.3875591 0.68967116
414 0.7246006 -0.14740504 -0.6732197 -0.4432657 -0.30178642 -0.61183834 0.03875244 -0.25276458 0.4697974 -0.20095906 -0.71157604 0.45339888 0.38349026 0.24881014 0.5443418 0.09923789 -0.25736976 -0.73771 -0.11607585 -0.22997522 -0.096087985 0.18415406 0.04528721 -0.4218694 -0.3205073 0.07445331 0.23237139 -0.27060047 -0.26071593 -0.23107493 0.17826504 0.30354658
80 0.3897695 -0.39721078 -0.32792723 0.015817178 0.18612204 -0.28902265 -0.32472095 0.5925041 0.14154111 0.34119046 -0.052270085 0.29407164 -0.2030353 0.39278254 0.7688193 0.5367231 0.6466202 -0.58731 0.20976348 -0.19235818 -1.0427958 -0.37454024 -0.81133854 -0.48844755 0.3049393 0.16005707 0.12623768 0.1414397 -0.85079134 -0.20432661 0.055914715 0.09688362
496 -0.2056418 -0.76168233 0.102715604 0.52338547 -0.12324273 -0.33826235 -0.6142262 0.06965811 0.14198677 -0.5114279 0.14043966 -0.17691292 -0.063591905 -0.19737442 0.50141364 0.45235124 0.52112865 -0.5486954 -0.43023854 0.3480761 -0.14393684 -0.13739488 -0.23797809 -0.1660672 -0.69820935 -0.0750082 -0.33735418 0.5432491 0.19388215 -0.5771241 0.094549134 0.45753762
90 0.455312 -0.5608366 -0.23246565 -0.01091352 0.3939087 -0.45858672 -0.48002788 0.37942868 -0.53798246 0.3528796 0.00056037714 0.00043655332 -0.24726398 -0.1344854 0.5144514 0.46718293 0.35932943 0.12458545 0.21599202 -0.22471027 -0.96157914 -0.15686229 -0.27332762 -0.56420237 0.2053594 -0.08696626 0.41561428 0.14263901 -0.36479524 0.1304062 0.12069898 0.65369505
483 -0.12393479 -0.9122782 -0.10399923 -0.42322057 1.0336965 -0.3578766 0.08488194 0.0118048685 0.13210332 -0.32666203 0.523069 0.030339666 0.23819931 0.16552277 0.39359516 0.37335768 -0.05930294 0.8286234 0.15462644 0.4679777 -0.18038289 0.104880095 -0.43390957 -0.7057264 0.1460151 0.9705767 1.0338917 -0.12943952 -0.31249383 0.06994437 -0.15559353 0.79913676
366 0.7493442 -0.5391227 -0.645181 -0.4436081 -0.026983602 -0.014386529 -0.60084903 0.019220326 -0.0097257225 0.22946328 -0.5173385 -0.25788432 0.10719676 0.46486038 0.62434745 -0.15108219 0.79859704 -0.10009323 -0.2272245 0.6250259 0.47463948 -0.19627374 -0.6526722 -0.057866298 -0.3610177 -0.056059178 0.5362065 -0.037176594 0.6325238 0.86831206 -0.43999395 0.30520105
126 0.45619512 -1.4621074 0.32850438 -0.15522486 1.040668 -1.019941 -0.2514235 -0.033053365 1.0444455 0.21903022 -0.60154974 -0.071083605 -0.80852634 0.5653703 1.0711305 0.59489214 2.1194258 -1.117087 0.010739285 -0.33385518 0.91009825 0.9073451 -0.1364691 0.815189 0.34026042 1.4168348 0.06076377 0.38568243 -1.0828677 -0.053435545 0.61369133 -0.08927765
68 0.58973765 -1.4671004 0.42309147 -0.16921487 1.1188391 -0.9687707 -0.34809896 0.028392745 1.1987759 0.24982333 -0.6059716 0.053590328 -0.7049563 0.7124457 1.1173898 0.78259516 2.0357351 -1.2352926 -0.06535501 -0.36358094 1.0131935 1.0595275 -0.15999642 0.87944144 0.28559184 1.4420257 0.12033071 0.30600598 -1.0331787 0.024375817 0.5851889 -0.12800246
494 0.23813528 -1.3513087 -0.3509333 0.12840238 0.62519133 0.43946913 0.35830104 -0.31180012 0.58175224 -0.71644294 0.045878943 -0.3616199 0.038476683 0.34245592 -0.3070474 -0.23823477 -0.3904842 0.012854667 0.22433074 0.622803 -0.13652222 0.45890343 0.016677203 -0.5452048 -0.47178617 0.28945056 0.031957738 0.041346032 -0.66977614 0.14964113 0.3697444 0.7252451
384 0.5957576 -0.29604858 0.086269274 0.30742443 -0.12107383 -0.19782762 0.06800005 -0.11834404 0.5053167 0.1582668 -0.06509342 -0.22386548 0.8362478 0.6030607 0.7649741 0.57888144 0.36063692 -0.50063413 -0.5384588 0.018330863 0.020008288 -0.4283192 -0.2763951 0.4409279 -0.035989515 -0.37908018 0.47584778 -0.43713626 -0.97997636 -0.40820667 0.20658031 0.04676993
254 0.13873094 -1.024624 -0.0063223466 0.28031886 0.11679171 0.0072317906 0.32053238 0.3749661 -0.41605633 -0.86861414 -0.3129339 0.16257533 -0.13392211 0.5721444 0.68981165 0.024695154 -0.066258706 -0.2723442 0.85328275 0.15514398 0.32264328 -0.049458664 -0.084855884 0.051997602 0.39081478 0.05117985 -0.3084296 0.31593236 -0.25923884 0.33429304 0.44354695 -0.17570351
233 -0.03420077 -0.3030275 -0.029313434 -0.19871962 0.74297583 0.49325705 0.14657049 0.0949766 0.11386714 -0.27046087 0.28802085 0.17683116 0.24096121 0.7074448 0.8067276 0.028419755 0.0018246287 0.06405103 0.406445 0.8492897 -0.54441243 0.6175938 0.25508583 0.025468143 0.007076794 0.67661107 0.55570483 0.111575715 -0.6713754 0.21370476 0.14535837 0.27683905
16 0.24248834 0.0451969 -0.56314456 0.2850996 0.24183145 0.21489559 -0.4122501 0.91481113 -0.6584278 -0.60539544 0.09216288 0.06909812 -0.35136092 -0.122586705 0.64382577 0.463164 0.98084855 -0.42727062 0.05946313 1.066185 -0.5362825 0.044689957 -0.41859266 -0.26071814 -0.5398878 0.34195286 0.12721811 -1.4138594 0.06329347 0.33424658 0.92524534 -0.29010797
6 0.16285238 -0.38002294 0.06253303 -0.058676302 0.50344646 -0.60129815 -0.13592634 -0.7217418 0.014342936 -0.6039075 -0.25804695 0.104159884 -0.44170222 0.08254392 0.14316599 0.5186615 -0.5710098 -0.51133275 -0.42913324 1.2755874 -0.21785074 -0.0331585 -0.67090935 0.28877753 0.054198965 0.19934472 -0.39581886 0.23374431 -0.09422949 0.15335643 -0.04607861 0.29595426
322 0.3369964 -0.7276719 0.15610848 -0.12890336 0.5926927 -0.3219397 -0.66565317 0.10983586 -0.56323636 0.23002768 0.013866452 -0.035808057 -0.017235227 -0.39420906 0.4974018 0.30389294 -0.027351353 0.35504678 0.33845398 -0.18889228 -0.8741849 -0.17231874 -0.42771333 -0.6759256 0.15653461 0.12886219 0.7427627 0.08400436 0.027878063 0.30217314 0.08518575 0.69274867
56 0.3386409 -0.5750243 -0.16441073 -0.11740979 0.33915183 -0.21975105 -0.09966346 0.54865026 0.2982679 0.52645075 -0.16553722 0.50922406 -0.24552469 0.42067188 0.8696799 0.4903176 0.4027672 -0.5558571 0.17045781 -0.19475307 -1.0379637 -0.39093488 -0.70223874 -0.40585002 0.14511193 0.27066848 0.022202186 0.20003235 -0.87656087 -0.10385217 0.24082424 0.15595761
127 0.41398332 -0.78952795 0.04251688 -0.019582039 0.37850854 -0.33712348 -0.61562985 0.066475764 -0.31678015 0.1395999 0.15551777 -0.2565412 -0.4142846 -0.74702424 0.797895 0.3710896 -0.21501052 0.3252508 0.26519012 -0.13838942 -0.41477382 -0.00863774 -0.15995191 -0.7689322 0.123347394 -0.057448123 0.36691168 -0.17007586 -0.024635468 0.76548153 -0.0146062765 0.44277883
398 -0.15410902 -0.73341674 0.10408759 0.3142449 -0.18646587 -0.66822773 -0.5604112 -0.20271303 0.00019769251 -0.6198699 0.22180714 0.058820195 -0.17295107 0.12148797 0.27076107 0.13308014 0.18680684 -0.5751867 -0.19856471 0.7403205 -0.25342974 -0.031296954 -0.4239113 0.14211565 -0.8835834 0.09841013 -0.24281187 0.43668607 0.1310254 -0.44492263 0.11701323 0.35258088
112 0.46434695 -0.45353928 0.78245175 -1.4320914 -0.8782884 -0.3315782 -0.22068256 0.7833465 -0.70916253 0.35267112 0.53089315 -0.2329719 -0.8784459 0.04799875 3.3311572 -0.8347072 -0.11043869 -0.14538556 0.23759733 1.453184 -0.62198347 0.3895599 -0.28468043 0.6866138 0.8238936 -0.64903164 0.5858974 0.72434074 -0.2561281 1.0685751 1.1098992 0.51859975
206 0.4680573 -0.4981884 0.65522194 -1.4638139 -0.94259423 -0.21315026 -0.23736094 0.7753885 -0.68651575 0.2839153 0.568607 -0.26994106 -0.87957084 0.06881525 3.2542245 -0.80698127 -0.043550268 0.02757021 0.22877228 1.3438001 -0.5717872 0.28448784 -0.3561335 0.6329177 0.7867158 -0.60171145 0.53987026 0.6444903 -0.23437668 1.2505525 1.0035954 0.5645554
260 0.7018176 -0.27784234 -0.81406546 0.21044765 -0.63738513 -0.20764238 -0.64930016 1.5476869 -0.6950496 -0.25492454 -0.4028933 -0.78279537 -0.56296253 0.6206984 0.54378223 0.47280207 -0.5291919 -0.69862056 -0.4595655 0.37495628 0.49465856 0.73732597 -0.06423084 0.22152212 0.6104308 -0.078440696 1.4820358 0.46825477 -0.062209934 0.915385 -0.433956 1.4055303
72 0.30965087 -0.42665464 0.23876432 0.5337759 -0.23586805 -0.050170973 -0.16846414 -0.8939789 -0.5145046 -0.33535594 0.6004063 0.563452 0.5694945 0.29653212 0.6031683 1.125732 -0.71248394 -1.2347059 -0.14073418 0.16608503 0.2882436 0.51939905 -0.49297604 0.42506704 0.20680001 0.79587054 -0.09988252 -0.006582068 0.60490453 1.1401669 0.2531203 0.8940462
71 -0.1302178 -1.0433583 0.11332278 0.049349327 0.50395864 0.09912349 0.3879045 0.44066817 -0.56432587 -0.7677254 -0.27640036 0.14920434 -0.06513849 0.36942914 0.8139835 -0.024600187 0.052498948 -0.4501941 0.63724834 0.4342563 0.15447436 -0.22725661 -0.22421598 0.0006034568 0.5120903 -0.0028164252 -0.3302353 0.51029766 -0.2006813 0.26320902 0.45049226 -0.1500932
120 0.74329984 -0.20915586 -0.876598 0.04067489 -0.7968084 -0.23814127 -0.60360193 1.6294359 -0.7546273 -0.28498217 -0.21788146 -0.88448256 -0.490893 0.5917049 0.6109087 0.46805227 -0.5022128 -0.6741858 -0.59905636 0.33009845 0.18968672 0.68196523 -0.09047206 0.19442564 0.6530546 -0.10948009 1.5027565 0.50616866 -0.24899967 0.9896191 -0.48583186 1.4638871
48 0.19951063 -0.45536762 0.22923645 0.8149257 -0.12119832 -0.22504291 -0.18909758 -0.7836872 -0.58135206 -0.40101525 0.57689196 0.4411153 0.41734615 0.39221266 0.68445146 0.98090464 -0.86472106 -1.2116733 -0.04517632 0.25724438 0.24250677 0.48743084 -0.33946133 0.52782017 0.30823854 0.7545393 -0.19151245 -0.06689729 0.6936819 1.1545037 0.082852736 1.0635374
45 0.28122857 -0.41844067 -0.22388203 -0.08712794 -0.6049412 -0.2903511 -0.23882931 -0.38725427 0.15259814 -0.69110304 -0.39730301 0.5950203 0.1168982 0.08102456 0.33176222 -0.1705279 0.030294681 -0.12723365 -0.94290316 0.22151913 -0.2604566 0.099885635 -0.96537346 0.19871856 0.38971788 0.1316084 0.21667337 -0.009955065 -0.5023888 -0.15959147 0.10738117 0.44310343
218 0.9052962 -0.67663985 -0.1263635 0.18307696 -0.14967811 -0.12033905 -1.0954292 -0.23055746 -0.47610223 0.0030924445 -0.48184967 0.5429745 0.23412445 1.3180102 0.7701301 -0.19148001 0.24706788 -0.44796994 0.5174575 0.8263501 1.0292826 -0.15806994 -0.08342994 -0.65022224 0.41362697 -0.17247957 0.99931055 -0.119193435 0.279947 0.0864275 0.70976084 -0.57472837
255 0.2726448 0.25375265 0.57862717 0.7593086 0.107963264 -0.09054669 0.69173145 -0.60394317 -0.92396104 -0.54628694 -1.2782259 -1.1155531 0.21746498 0.7554332 1.3854795 0.008596402 -0.18774417 -0.19292627 -0.90156686 0.8423162 0.5004087 -0.54511756 0.21832316 -0.6760837 -0.3620313 0.7646555 -0.4584429 -0.12635103 -1.4305018 0.30598515 -0.4998684 0.5685786
455 1.1547958 -0.19131759 -0.49765712 -0.3313863 -0.14033781 0.41709095 -0.2522825 -0.096307114 0.44007233 0.055351943 -0.44409207 -0.054212466 0.18742506 0.020775428 0.81047595 0.43265545 0.7172065 0.37399966 0.09602141 0.8243339 0.09428753 -0.47532254 0.015828563 0.3029038 -0.11710597 -0.37596408 0.24610266 0.2606998 0.15981925 0.6391472 -0.18154913 0.2644247
402 0.6861198 -0.37847972 -0.5853781 -0.6005503 -0.27705485 -0.30532148 0.19999084 0.472054 -1.3037728 0.4083245 0.0051280186 -0.28382587 0.15291013 0.41160983 0.21905947 1.420488 0.28952524 -0.24353221 -0.0005356487 0.2461386 -0.7865249 0.4942664 0.24174011 0.20083207 -0.065658465 -0.09417207 0.5254022 0.30041644 -0.505296 -0.33537722 0.0107378205 0.5706773
223 -0.7568783 -0.0075818547 -1.4446448 0.9300242 -0.8823173 0.15164897 1.0948968 -0.37041685 -0.06494041 0.390911 -0.8474464 0.15602736 -0.31447887 0.52133447 1.2988987 1.0916402 0.045608822 0.49775144 0.027715277 0.7986144 0.1824987 0.42067465 -0.39781004 -0.15983106 -0.454874 0.71207523 1.3028932 0.4711687 -0.05893231 0.056883074 0.25347915 0.32092288
406 -0.4093278 -1.0727519 -0.3265204 -0.116643384 0.7977157 0.14292526 0.3423463 0.35078394 -0.26616973 0.5163362 -0.36200088 0.66893345 0.09044149 -0.1709781 1.0287174 0.2690466 0.40604234 -0.71021384 -0.103440024 0.061439436 0.08177903 -0.13318725 -0.6647493 0.1948232 0.44243562 0.3345419 -0.12757908 0.4195213 -0.6452734 0.29485688 0.49146396 0.12204281
473 -0.41423756 -1.0450704 0.0058207596 0.4043942 -0.31406704 -0.526942 -0.79603356 0.13470131 0.43155372 -0.45464292 0.03571491 0.05243923 0.12036752 0.13224618 0.5621114 0.50824904 0.4848071 -0.6222574 -0.5684102 0.35237834 -0.23983105 -0.26084724 0.05143181 -0.4482174 -0.04196219 -0.00024485492 -0.27487662 0.22153531 0.385856 -0.65197647 0.1836844 0.17255826
247 0.5787012 -0.2828519 -0.39166713 -0.58289254 0.059590418 -0.61565006 0.4185046 -0.043405246 -0.34378117 -0.3340464 -0.82248384 0.065855205 0.52921236 -0.033794276 0.28523144 0.32779595 0.014023488 -0.6216396 -0.008562779 -0.18216184 -0.20792834 0.18849185 0.17163873 0.027423833 -0.29260638 -0.24218209 0.27525365 -0.61542773 0.07763631 -0.39179567 -0.00107241 0.67488045
451 -0.4356262 -1.2659383 0.0067557837 0.34857276 -0.29771015 -0.2468349 -0.3129215 0.40109092 0.29577312 -0.29077917 -0.1119381 0.19570646 -0.041476015 0.14789712 0.7343114 0.58339643 0.33365723 -0.5295666 -0.5815361 0.4674825 -0.39393613 -0.15898749 0.44457236 -0.4810524 0.13331878 0.21986778 -0.608186 -0.23797825 0.4389453 -0.15714823 -0.00064779277 -0.025230078
194 0.87284553 0.34437567 0.36528176 -0.17274293 0.051362492 0.012249209 0.2801666 0.21949035 0.13501579 -0.46653152 -0.5591776 -0.19803724 0.7807859 0.1992028 0.22159457 0.58415365 0.11953243 -0.29677597 0.0867354 0.824031 -0.32409132 -0.2911235 0.5231268 0.15630637 -0.023528688 0.6729176 0.4399747 0.46701732 -0.48979202 0.38952172 0.1581987 -0.21361437
344 0.6449387 -0.31752667 -0.584409 -0.57049584 0.03756688 -0.81052935 0.29775086 0.10759449 -0.52828807 -0.17321402 -0.7616021 -0.21828511 0.29872704 0.037778314 0.29932216 0.5872089 -0.05335234 -0.58384055 -0.41741157 -0.0921975 -0.102315195 0.40228564 0.45814663 0.066467844 -0.558475 -0.46308237 -0.016459065 -0.48422298 -0.19922994 -0.38660252 0.23812231 0.611168
497 0.5270703 -0.64137703 -0.49505988 -0.16023304 0.054014936 -0.18848822 -0.41248694 0.57522017 -0.020183567 0.41609913 -0.50544155 -0.30204117 -0.101878785 0.7909054 0.5110698 0.045173876 0.49305624 -0.1491717 -0.3338281 0.7190524 0.91399205 0.3704286 -1.0720229 0.059601083 -0.2408984 0.13668607 0.9914402 -0.20835625 0.76649845 0.79117924 -0.43167323 0.5558506
421 0.46475488 -0.29901668 -0.4286157 -0.25473213 -0.5055726 -0.7139208 -0.45150745 -0.41000587 -0.10254356 -0.030292658 -0.2509234 0.08590627 0.43028876 0.16800219 0.20676735 -0.8473908 0.10202971 -0.42741778 -0.39655408 0.5384219 -0.41123265 -0.0766187 -0.16417678 0.343283 -0.93581134 0.5851652 0.27743948 0.09390041 0.124286436 0.22649916 0.3923655 0.32662052
462 -0.47675285 -0.8856877 0.23565985 0.006412588 -0.43794346 0.32524046 0.11137072 -0.5381006 -0.2732541 -0.6773121 0.18677022 0.40048814 0.58184206 -0.500144 0.47766715 0.69584644 0.5138201 -0.5778946 -0.8470024 -0.12162493 0.24514347 0.22134371 -0.6213498 -0.2833489 -0.06805038 0.23213272 0.3029441 0.5370701 0.24868898 0.21137664 0.38173538 0.40974852
385 -0.16296135 -0.78575385 -0.05520573 -0.15710403 0.9849776 -0.54995453 0.30576602 0.21150944 0.12497151 -0.38669252 0.056062978 0.15344736 -0.015605229 -0.039295528 0.23971528 0.5985595 -0.29027697 0.647984 0.033483576 0.94572926 0.1167488 0.16797313 -0.993249 -0.3587202 0.04086972 0.9799126 1.1876531 -0.205349 0.3052355 0.12885515 -0.2878071 0.6478816
41 0.9500721 -0.70232856 -0.085981466 0.1375806 -0.12999316 -0.08797758 -0.9982293 -0.074338704 -0.6191877 -0.1913106 -0.29235122 0.5581358 0.13914464 1.28078 0.85465205 -0.21092448 -0.068566106 -0.45161358 0.6843042 0.74947655 1.2280731 -0.041843344 -0.10675273 -0.6453074 0.50817615 -0.02540787 0.7915092 -0.07573534 0.19973274 0.21001014 0.91692126 -0.6990441
143 -0.30739948 -2.0479987 0.47139376 0.7118487 -0.55202556 0.07852513 -0.3864677 0.19349314 0.37505332 -0.14108723 -0.9126939 -0.32286325 -0.3530905 0.20960066 0.38128048 0.38636723 -0.04324261 -0.044215273 0.026987862 0.68555385 -0.7040479 0.19195725 0.85724187 -0.75890064 0.31353232 0.391995 -0.13329497 -1.015409 0.034214795 0.27136672 0.15369733 0.26817793
100 0.18490206 0.29169703 -0.59953433 0.32737905 0.12215805 0.21247706 -0.11535053 0.722149 -0.7412957 -0.6550104 -0.08845362 0.15721767 -0.2524606 -0.34157833 0.5227418 0.31646663 1.1051265 -0.51717156 0.33909354 1.1119491 -0.58192384 -0.02476475 -0.27610436 -0.27771038 -0.32236445 0.3480814 0.1503537 -0.9716877 0.026929239 0.3000988 0.7579713 -0.024750965
364 -0.48430783 -1.1330658 0.23018925 -0.03520151 0.11908204 0.10625837 -0.1993986 0.093271814 -0.3521812 -0.010376939 -0.46929404 0.751481 0.06322471 -0.16226599 0.64716023 0.091145016 -0.36530164 -0.5766958 -0.21824339 0.60012925 -0.2278187 -0.058352627 -0.014320168 -0.007935003 0.37635717 0.33008128 -0.47290725 0.0071145496 -0.18474579 0.05739415 -0.05993484 0.06625613
415 0.27124736 -0.25316608 -0.03389738 -0.95516896 -0.41479483 0.074012116 -0.009918809 -0.44438905 0.048560124 -0.266062 -0.57821256 -0.092838466 -0.03195872 -0.80360144 1.013494 0.61489516 0.0070877126 -0.19739708 0.018616458 -0.2108803 0.22678976 0.73708 -0.53980815 -0.22668819 -0.45852068 0.15000033 0.0978506 -0.19037975 0.2834868 0.20769535 -0.44425726 0.054005135
375 0.008402335 -0.69120127 -0.68088865 -0.44148242 0.9646057 0.10059524 -0.23822698 -0.4075176 0.22691613 -0.26595724 0.59063685 -0.21297844 0.2482653 -0.07670092 0.7132207 0.4146802 -0.048163977 0.72647876 -0.13929424 0.6868103 -0.047838524 -0.11285923 0.28026092 -0.333745 0.38574117 0.25191852 0.56859505 -0.3175015 0.19843292 0.66529596 -0.015442548 0.5202592
356 0.36311272 -0.8517153 -0.33269203 -0.17969476 -0.105145 -0.18366818 -0.5725434 0.9802529 -0.25078037 0.43395114 -0.48119694 -0.39610213 0.106580935 1.0233341 0.46229297 -0.060236715 0.64475745 -0.37611854 -0.43672267 0.5825737 0.8302995 0.7205656 -0.90687364 0.40925086 -0.293373 0.010989992 1.1087415 -0.07245653 0.73175794 0.915127 -0.62035286 0.7207644
459 0.20806682 -0.28432247 -0.053356454 -1.1629056 -0.5002455 0.14309591 0.050538264 -0.37204763 0.20293385 -0.47744852 -0.36316368 -0.37685445 -0.17252228 -0.62521887 1.1714015 0.604337 0.0143341925 0.06728022 0.026600765 -0.1933027 -0.07754103 0.63623375 -0.5627549 -0.20539099 -0.41220307 -0.023384197 0.1427046 -0.14738613 0.20623498 0.5849414 -0.5586626 0.088353135
500 -0.009873577 -1.3743403 -0.18265645 0.3514964 -0.7678923 -0.5330786 0.22116761 -0.65898913 0.098319426 0.27094144 0.90425104 0.06900157 0.07656771 -0.028033894 0.85980785 0.3194472 -0.16724728 -0.8658228 0.29764742 0.9181437 0.018804587 0.20137556 0.5267558 -0.043587767 0.26695046 0.43823203 -0.015065899 -0.63200927 0.6689391 0.41271847 -0.45676035 0.35687286
368 -0.1674589 -0.693801 -0.18614008 -0.22361992 0.9870977 -0.7968123 0.09240759 -0.14776486 0.036996588 -0.44018006 -0.092211895 -0.014689843 -0.25101987 0.17831495 0.063135765 0.5706526 -0.11323797 0.6397977 -0.02535972 0.9617252 0.14486705 0.056672793 -0.9784168 0.07534382 -0.0025076382 1.1117532 0.7658325 -0.18676679 0.2441325 0.030713286 -0.1207363 0.5876619
179 0.3494132 0.01748911 -0.5041771 -0.06314414 0.29867247 0.35056463 -0.33817676 0.6546518 -0.7124654 -0.7503188 0.1259391 -0.24241258 -0.43834144 -0.15009753 0.7043239 0.5466178 0.9522719 -0.40536875 -0.08338473 0.82164204 -0.6937878 0.17179407 -0.5259687 -0.5020301 -0.58834255 0.3161744 0.099721394 -1.1096951 0.22415276 0.5649253 0.7650531 -0.55081254
378 0.38658586 -1.4051449 -0.95758146 -0.038595572 -0.49597067 -0.94426423 0.20403504 -0.41203326 0.18100919 0.27196565 1.0189303 -0.052061 -0.02876901 -0.35736802 0.78738135 0.030536074 -0.2722027 -0.89568305 -0.06405959 0.80744123 -0.13397174 0.10915077 0.62500894 -0.335471 0.21354823 1.100307 0.17421335 -0.14425567 0.46264994 0.45900905 -0.5830639 -0.115415074
354 0.32286182 -0.90375835 -0.6798204 -0.5778882 -0.34738153 0.06888419 0.038039997 0.8103103 -1.3411258 0.70326513 0.044309676 -0.045344383 0.115993336 0.21063566 0.0016533012 1.2373937 0.36081246 -0.3331459 -0.13002048 0.22546136 -0.4378487 0.7042001 -0.34558496 0.037093826 -0.29903612 -0.23664254 0.30067402 0.07304606 -0.5662407 0.11555552 0.028879486 0.39667982
53 0.037107278 -0.45522645 -0.058564924 0.26946342 0.052044813 -0.8975256 -0.4481571 0.2441455 -0.13605255 -0.41628847 -0.25741252 0.39635086 -0.3835632 -0.46038622 0.6666986 0.2954932 1.1857743 0.19205135 0.6164718 0.28620148 -0.19693007 -0.38779002 0.4341764 -0.2861996 0.014376744 -0.33004993 0.08578315 0.17111939 -0.2825923 0.33873668 0.6073276 0.82440615
211 0.5346101 0.15389921 0.37617862 0.36630473 -0.011267826 0.15040827 0.4550719 -0.5908032 -0.92244 -0.4908769 -1.1350768 -1.0275544 0.18800403 0.61789536 1.4620262 -0.027710548 -0.34233648 -0.3076897 -0.8646731 0.6616947 0.5151497 -0.81043106 0.32926536 -0.6904757 -0.3117957 0.9433387 -0.6398089 -0.3384522 -1.0219147 0.019895526 -0.59664154 0.5585284
163 -0.5999875 0.23536935 -1.1293577 0.8538903 -0.62989056 0.051276103 0.94785804 -0.18647929 -0.050781183 0.21982482 -0.9696101 -0.041373257 -0.43912145 0.46068594 1.2113637 0.8788649 -0.1659761 0.1758656 -0.005142525 0.5951099 -0.20661032 0.43206665 -0.25152212 -0.26442274 -0.598114 0.51635414 1.4185953 0.50498915 -0.09181808 0.3032034 0.3495181 0.21736833
291 -1.1054214 -1.0348111 -0.88298625 -0.64116055 0.050414167 0.12850519 -0.77637196 -0.4249364 0.2024032 -0.34757555 0.1507276 -1.2420712 0.2273041 -0.47427115 0.0077632023 0.7761381 0.137717 0.11680017 -0.03544424 0.99580425 -0.08245538 -0.12308264 0.7143924 -0.47007015 0.87355214 0.17750098 0.8164827 0.2587453 -0.70974636 0.83071476 0.8928489 0.11106478
154 0.1736899 0.18690799 0.7231096 0.73499924 0.15932515 -0.14147767 0.70220375 -0.5389927 -1.0230147 -0.63683593 -1.3372397 -1.0610341 0.3130394 1.0088075 1.6501874 0.08274395 -0.18253359 -0.09867899 -1.1411529 0.81259394 0.53719765 -0.85886014 0.3468766 -0.6671037 -0.52282923 0.7803146 -0.53298366 -0.3411086 -1.647656 0.37939113 -0.70682144 0.6120161
484 0.019711396 -1.2984092 0.06866182 0.40996048 -0.50222534 -0.4296839 0.4601492 -0.5046309 0.042065877 0.15405732 0.9810592 0.4749376 0.29555663 0.057426017 0.99820566 0.517159 -0.58927107 -0.7530618 0.021991368 0.91577554 0.22397307 0.530784 0.26866463 0.130085 0.5382714 0.57751083 -0.118904606 -0.5456362 0.88049793 0.5616776 -0.4640934 0.7100117
315 -0.24603432 -0.49158856 -0.13025211 -0.047136743 0.038658947 -0.52346987 -0.4115295 0.3304024 -0.21373506 -0.86697364 -0.27700287 0.25861135 -0.18273427 -0.19028749 -0.19051233 0.2625169 0.475328 0.34080186 0.696115 0.8754628 -0.13580725 -0.4032898 -0.38567042 0.4808885 -0.63204294 0.592543 -0.025105169 0.23377192 -0.43250093 0.17218609 -0.20382105 0.82228273
430 -0.14767577 -0.89905787 0.11541455 -0.55057883 0.13977869 -0.32835063 -0.31166962 -0.35012063 -0.51567084 -0.60100317 -0.40619817 0.53775954 -0.27947944 -0.10132469 0.3998254 0.2621197 -0.43113685 -0.30125234 -0.3228949 0.64643985 -0.20878159 0.0018325438 -0.31349638 0.08887024 0.6919621 0.6393658 -0.7304776 0.09494175 -0.34770575 0.14229941 -0.13963416 -0.1339877
282 -1.175488 -0.91816646 -0.93868804 -0.5791371 0.06865325 0.26240915 -0.8671802 -0.35503283 0.21813768 -0.47014502 0.28151432 -1.0050344 0.20540398 -0.28451774 0.10461235 0.8897716 0.3130741 -0.02832153 -0.050061103 0.8995821 0.13933875 8.804956e-05 0.95829475 -0.4064657 0.5684611 0.18904305 0.8311829 0.38532856 -1.0871133 0.80331767 0.7222502 -0.00011620451
285 -0.5044527 -1.1701256 -0.45093966 0.16842417 -0.09042672 0.30678692 0.007917945 0.17625774 -0.5542562 0.35847196 -0.09622109 1.0405985 0.42550236 -0.5681337 0.45670867 0.82706875 -0.30461326 -0.29110622 -0.6464671 0.10064947 0.40068927 0.757978 0.10930618 -0.19029342 -0.14599848 0.56557775 0.5248811 0.494706 -1.006534 0.884192 0.53888214 -0.07822376
222 0.5370789 -0.4291329 -0.045193344 -0.50389713 -0.9574955 -0.3426685 -0.015155581 -0.31716764 -0.5380565 -0.6642764 -0.22322729 0.3490165 0.20889756 0.07596746 0.24722022 0.032344457 0.27663064 0.26041904 -1.2260147 -0.06650127 -0.04310945 0.34873715 -0.6365147 0.59528124 0.21723776 0.04028945 0.3131635 -0.17296192 -0.45201153 -0.044532914 0.3249091 0.8543282
420 0.095097266 -0.5825025 -0.07643708 -0.08605816 -0.361962 -0.82388014 -0.6046244 -0.19369046 -0.16387936 -0.21251081 -0.015157543 0.11572484 0.18808195 0.31342584 0.42292538 -0.63872004 0.20044456 -0.5483409 -0.33452988 0.60158247 -0.42605722 -0.107602775 -0.46003857 0.30388668 -1.1263 0.49772498 -0.14328422 0.60495174 0.3679622 -0.041023027 0.114808924 0.3320925
147 -0.72865605 0.03832965 -1.3685403 0.9889201 -0.9806461 -0.009919831 1.2587279 -0.5570073 0.12534514 0.3727973 -1.0977666 0.09311354 -0.32827076 0.5748468 1.389517 1.225594 0.03668977 0.54090387 0.008199436 0.7655568 0.24930371 0.32536486 -0.47610867 -0.17596239 -0.79123664 0.65395236 1.4035991 0.5959256 -0.13775593 0.108110845 0.3203791 0.33580616
214 0.41021225 -0.006755703 -0.031047119 -0.4430742 -0.46226013 -0.40122837 0.42875963 0.1855204 -0.23523095 0.29030564 -0.34600815 -0.074427 0.8391049 0.21669106 0.141259 0.9739587 0.0368119 -0.20597476 0.10126902 0.5605529 -0.46195206 -0.47705472 0.5896478 0.5439653 -0.10253251 0.42958415 0.8406214 0.33153427 -0.40370804 0.10858269 0.01614947 0.42169648
78 -0.048085585 0.50367475 -0.9638967 0.579912 -0.28947565 0.103224516 0.4203688 -0.027334703 -0.18492867 0.05176695 -0.6357673 -0.04877337 -0.030358985 -0.3174118 0.6111121 0.2671964 0.23411404 -0.54223144 0.2348098 0.4871072 -0.630328 0.37083262 -0.49255854 -0.5389254 -0.54747134 0.10054111 1.0045161 -0.13262527 -0.17133613 0.43715563 0.24936362 0.31770712
450 -0.17674696 -0.5344502 -0.7132762 0.24168742 0.249304 -0.2595928 0.368838 0.4147133 0.13228954 0.17733563 -0.27099547 -0.2105103 -0.16732788 0.6642523 0.5269212 0.51508665 0.1649377 0.45848054 -0.46730018 1.0203242 0.49532592 -0.2242586 -1.2618902 -0.2834985 -0.5313061 0.73610675 1.0845681 -0.51378113 0.8160186 0.16806786 0.07058647 0.3911473
43 0.33482984 -0.2179004 -0.122237265 -0.11237059 -0.97458357 -0.4390368 0.03552734 -0.3586459 -0.23929925 -0.86835885 -0.38716808 0.72426665 0.06348064 -0.18300645 0.3232301 -0.121531375 0.7630343 0.13464016 -0.5712967 0.29677144 0.020380532 0.12697281 -0.65836746 0.5592888 0.6458865 0.06494151 0.09477128 -0.30882695 -0.33492512 0.2571713 0.23164591 0.8865367
381 -0.12895814 -1.1810672 -0.533113 -0.60819304 -0.63890177 -0.10122009 0.012223513 0.7789848 -0.94622403 0.7989691 0.1678361 0.11665318 0.29958168 0.30937928 -0.008454176 1.1796716 0.30932015 -0.3124309 -0.33761573 0.3072555 0.11067529 0.6621972 -0.37994334 -0.07407783 -0.519258 -0.24876998 0.3655722 0.14871584 -0.5291588 0.71744245 -0.22344743 0.15333629
104 -0.19311467 -0.9107565 0.0357916 0.19245143 -0.33722973 -0.18463248 0.22754842 0.30730066 -0.12815458 -0.6115688 0.19668795 -0.8032007 0.38369948 0.6447744 0.14928296 -0.04176489 0.021039525 -0.030970346 0.22154221 -0.32362354 -0.3090339 0.20116577 0.06631388 0.21630381 -0.8100141 0.6589696 -0.37335974 -0.40440735 -0.42796618 0.7894559 0.7625093 0.11945099
248 0.3127236 -0.89830625 0.15108293 0.27283928 0.35718352 -0.22168532 -0.45869556 -0.20133421 -0.49341932 0.044707693 -0.16404048 0.09055596 -0.38044545 -0.16679077 -0.055962816 0.21436712 -0.47914702 0.1011434 0.055032298 0.47391242 -0.61273754 0.080285124 -1.0310656 -0.03855207 -0.7791329 0.3260373 0.3140239 0.61028 -0.20321293 -0.1194638 0.014414343 0.6114097
95 -0.95903635 -0.73958886 -0.16755229 -0.5175388 -0.35092282 -0.30349123 -0.34179655 -0.20078494 -0.4694837 -0.6799076 -0.13982743 0.2815632 0.5464506 0.3340269 -0.14684366 0.20490861 0.2331318 -0.260629 0.8930605 0.32972613 0.064277 -0.12542468 -0.41191906 0.4197353 -1.3525052 0.93613017 -0.24448396 -0.030824559 -0.67231315 0.32514253 -0.55065745 0.5644995
262 0.37126046 -0.5196946 -0.12482795 -0.22894561 -0.9378555 -0.10890398 0.018258277 -0.41050538 -0.2210719 -0.42972356 -0.27156678 0.7595942 0.03224159 -0.26509517 0.27020532 -0.18727562 0.4690226 0.091638476 -0.6104103 0.057251148 0.015535793 0.3661584 -0.85128224 0.28196576 0.36388817 0.12508139 0.2689359 0.14863488 -0.6346709 0.18624216 0.29548037 0.7526175
263 0.36087054 -0.41077214 -0.12197929 -0.35732773 0.709156 -0.24746962 -0.42465216 -0.3873573 -0.0074634277 -0.59003675 -0.10681053 -0.2336016 -0.58106357 -0.32792062 0.49176273 0.533501 -0.031844776 -0.17665826 -0.3684975 1.021894 -0.4114335 -0.15355444 -0.32883543 -0.013966374 -0.37552536 -0.2612127 -0.07181699 0.10685041 -0.033959273 0.7550688 -0.83396816 -0.078198515
108 -0.87320346 -0.6225332 -1.0649037 0.6734276 -0.5862908 0.10590068 0.8762955 -0.09635598 -0.36962214 0.58020973 -0.85100424 0.72496116 -0.09114339 -0.20241855 0.9984627 1.3031013 -0.025067957 0.22903116 -0.38021362 0.39275196 0.2556503 0.56949526 -0.34491816 -0.069927394 -0.3067709 0.44412258 0.8522563 0.41303635 -0.46857014 0.41333538 0.29423353 0.11950245
113 1.1139586 -0.6952645 -0.45855206 0.31714755 -0.3316328 -0.1725127 -0.91801655 -0.1359894 0.060713306 -0.10735538 -0.40887597 0.59202963 0.35905436 1.0362114 0.60846573 -0.13120611 0.21719742 -0.7280306 -0.042667 0.3090349 0.5438938 -0.08516631 -0.32003865 -0.38883856 0.3292848 -0.46768755 0.8930603 -0.11624478 -0.05316022 -0.3336045 0.31577814 -0.48130706
29 -0.17744681 -1.0392537 0.12420286 0.3146624 0.71169734 -0.21021028 0.13898055 0.24650614 -0.41314402 -1.0433888 -0.26107413 0.49360475 -0.45830753 0.4843568 0.4826478 0.12518248 -0.28711897 -0.23686552 0.33814377 0.7034389 0.112673104 -0.19338125 -0.54974014 0.17885898 -0.13213097 0.22851592 -0.2527261 0.6902996 0.046703592 -0.17614286 0.0022020002 0.37421066
36 -0.7050992 -1.2907411 -0.49158782 0.1375572 -0.29433525 0.17079951 0.12593561 0.07540611 -0.6454044 0.2699793 -0.12995717 1.0505029 0.45221964 -0.63914245 0.46018404 0.8737007 -0.06858714 -0.39694673 -0.7609356 0.13526888 0.55377024 0.6016073 -0.111596435 -0.37015557 -0.16295402 0.51085836 0.48395997 0.42533258 -0.69944334 0.6568283 0.47711906 -0.08801036
479 -0.09474549 -0.6604244 0.43858904 -0.7882594 -0.12454526 -0.62889606 0.14088169 0.7697941 -0.25382513 0.022500066 0.3270006 0.102731146 -0.41991866 0.19355349 1.6170328 -0.6289793 -0.25521654 -0.80643165 -0.006561588 0.7715743 -0.67466307 0.39725992 -0.33423463 0.2912878 0.1298371 -0.45287853 0.16514285 0.6587034 0.08323903 0.19621739 0.73709524 0.07324106
373 -0.28752246 -0.7356388 -0.06174924 -0.1855313 -0.5529838 -0.15370467 -0.3208975 -0.39840713 0.23616399 -0.30311263 -0.05783464 -0.21981949 0.29921994 -0.48240584 0.42140114 0.10574737 -0.17584229 -0.70513177 0.03160586 0.18043403 0.1713928 0.1724829 -0.30660704 -0.45268095 -0.6956123 0.26593772 -0.34195623 0.12389667 0.20781413 -0.42311797 0.11523922 0.34389377
99 1.2009101 -1.3971349 -0.9560032 0.37964737 -0.42933682 -0.44638014 0.70585936 -0.12442022 -0.08242603 -0.11372137 0.34275404 0.0139745455 0.21236433 -0.9917125 0.5182938 -0.3330948 0.14912218 -0.88353044 -0.38255793 0.28366366 0.18352914 -0.006479247 0.57254 0.34612903 0.21276894 1.0904096 1.2234107 -0.04024733 -0.25779676 0.20498246 -1.0359308 -0.2638943
477 0.9821497 0.12489491 0.2578332 0.6021669 0.60876894 -0.17050529 0.06632534 -0.0127931945 -0.41271722 -0.47281042 -0.7446852 -1.0270382 1.054226 0.4102512 -0.022029553 0.3843345 0.20027585 -0.46838233 -0.63514966 1.4235762 -0.11553925 0.04603566 0.004923004 -0.0806356 0.36043656 0.7453215 -0.56080276 0.55901587 -0.7745721 0.69732916 0.26573277 -0.36157677
167 0.534043 -0.41319716 -0.17438391 -0.18203917 -1.0178304 -0.28768942 -0.17683041 -0.591403 -0.14255263 -0.8952285 -0.3675195 0.5581264 -0.05729507 -0.00015158096 0.2994461 -0.211297 0.13775423 0.02197858 -1.0122377 0.060989313 -0.06391716 0.24927615 -0.6872139 0.58411396 0.6209384 0.17275238 0.43645114 -0.10350307 -0.52764887 0.10086692 0.33835515 0.7747977
129 0.9088702 -0.2764198 0.29151517 -0.23658974 0.22271286 -0.08674445 0.071659125 0.42110848 0.5723992 0.40695468 -0.08270366 0.34773815 0.10734579 -0.0333359 0.6823711 0.7332637 0.5574255 -0.7848212 0.25394663 -0.2526915 -0.6262737 -0.5828204 -0.18925115 0.06745395 -0.09290215 0.5850713 0.39656463 0.5305635 -0.87682927 -0.035101064 0.25961167 0.20548391
39 -0.09583175 -0.6339055 -0.36003545 -0.36054823 0.10757765 -0.29656637 -0.15807752 0.2010415 -0.34816414 -0.23324794 0.31207216 -0.38827547 0.46423528 0.6447533 0.06769996 -0.58558655 -0.12048834 -0.30735332 0.06418435 0.006881897 -0.3257492 0.25360432 0.36284408 0.4470742 -1.164511 1.0146291 -0.29771763 -0.057378005 -0.48664325 0.8128157 0.9041873 0.2551444
296 0.46959677 -0.34516332 0.32309484 0.9448744 0.38219026 -0.035450775 -0.13346377 -0.5408099 -0.074195795 -0.49450403 0.39257863 0.39760488 0.06383115 0.27251145 0.47590414 0.6798271 -1.1150726 -1.1621182 -0.12788297 0.86600345 -0.06699016 0.18522742 -0.7357432 0.43746528 0.0027519485 0.5208625 -0.45146328 0.27899924 0.26828533 0.7393683 -0.024962017 1.0143504
249 -0.7444176 -1.1250104 -0.66426826 -0.0717572 -0.094529316 -0.1340271 -0.5858576 -0.28083852 0.27521548 -0.42803323 0.041620076 -1.1229991 0.042467073 -0.5386371 0.1284469 0.38870376 0.13944031 0.4283368 0.12085602 0.36399382 0.09893221 -0.19673544 0.6184603 -0.6389634 0.21802679 -0.0020661016 0.598642 0.28516906 -0.7604723 0.4337396 1.0098053 0.21826991
353 0.21165001 -1.6865077 -0.7479963 -0.032122213 -0.6096301 -1.0065677 0.20910615 -0.11250758 0.2804386 0.12762325 1.3623208 -0.001481278 0.0068392735 -0.16443796 0.9703075 0.26953262 -0.11957351 -1.0676117 -0.019379737 0.76194626 -0.18186067 -0.094541565 0.89481324 -0.35367906 -0.12167593 0.88615227 0.11323055 0.020807317 0.34858456 0.48571652 -0.74407846 -0.261854
93 0.80495876 -1.6444448 -0.67394334 0.3655649 -0.5202865 -0.256648 0.722483 0.008723929 -0.35580954 -0.028756877 0.5329891 0.58918667 0.23772195 -0.9660171 0.5112553 -0.43582663 0.4544271 -1.0594295 -0.37077758 0.28267002 0.4019076 -0.112046555 0.3254322 0.3171309 -0.12498125 0.95942014 0.9072135 0.24120471 -0.42996714 0.3730413 -1.0226114 -0.1998781
413 0.6483677 -0.68777585 -0.6834993 -0.62731266 0.16125976 0.031978246 -0.53336275 -0.059284117 0.40153545 -0.22831902 0.31241384 -0.095017076 0.2687648 -0.040309418 0.79045105 0.08397399 0.048048984 1.0524812 -0.048439 0.7535964 0.35013264 -0.45058542 0.30163327 -0.15939562 0.33965352 -0.050835647 -0.19416285 -0.10815081 0.27859545 0.7125881 -0.0730416 0.6301562
52 0.3415537 -0.6868119 0.12799993 0.39368156 0.6506127 -0.7435445 -0.5718273 -0.34683064 0.5156766 -0.2088283 -0.39250648 -0.16426492 -0.77455944 0.12501612 0.8084483 0.2952225 1.6680659 -0.16496691 -0.2936387 -0.35792404 0.34922305 0.023320973 0.14964029 -0.016195625 0.1419854 -0.035054214 0.14275207 0.27138102 -0.9292501 -0.14162828 0.43148446 0.61372066
203 0.5664424 -0.39955825 -0.1311661 -0.2359911 -0.81630826 -0.3067736 -0.29047316 -0.77513075 -0.19459301 -0.56713825 -0.30297136 0.35751525 -0.11858248 -0.16471802 0.3487958 -0.18135908 0.09137257 0.075573266 -0.9307673 0.08018049 -0.18595466 0.32829702 -0.7569288 0.5260564 0.49165255 0.05178079 0.4078465 -0.27637863 -0.36974218 0.29164004 0.24962348 0.73936635
238 0.26749095 -0.013753399 -0.51539683 0.270114 0.3575108 0.21438518 -0.07116562 0.87584454 -0.9869235 -0.8163464 -0.081958026 -0.18740764 -0.44604167 0.0653031 0.69404113 0.3685961 0.9845883 -0.6287565 0.30690637 0.99091595 -0.43771514 0.0026001926 -0.51664144 -0.42390695 -0.17350031 0.32719916 0.1092215 -1.1813213 0.19925562 0.41965768 1.0103698 -0.60368496
452 1.1040212 0.07486185 0.22095717 0.039296493 0.27367648 0.1145764 0.024594616 -0.33075243 0.26577973 -0.08670254 -0.31493524 -0.43845063 0.7873448 0.53418946 0.5808455 0.5553079 0.4619037 -0.16116914 -0.5694237 0.828527 0.03045464 -0.42037952 0.027486669 0.105754524 0.31626707 -0.37501538 0.19495814 -0.1191864 -0.6049246 0.21982738 0.15411317 -0.38041613
205 0.40412247 -0.30210063 -0.46904886 0.35914853 0.16278082 -0.6474022 -0.7421186 -0.15813787 0.5528873 -0.26592013 -0.7111222 0.2744576 0.16852379 0.77139574 0.41470423 0.051083248 -0.046920966 -0.7707558 -0.48418134 0.22680965 -0.49488896 -0.14257936 -0.84595156 0.012806414 0.3314071 0.047704015 0.050494593 0.008830573 -0.7108253 -0.41536126 -0.40214428 -0.021775372
128 -0.1436731 -0.26464868 -0.13214004 -0.024941863 0.9003991 0.9599276 -0.24960667 0.16847736 -0.10085257 -0.14517112 -0.09471971 -0.09699422 0.026240764 0.18835324 1.4140695 -0.027744262 -0.10752789 -0.07899733 0.30508605 0.5284292 -0.50528914 1.0155997 0.06447041 0.01714912 0.00490914 0.601784 0.5821208 -0.1261396 -0.4531962 0.28683376 0.40091524 -0.13415042
490 0.32225877 -0.10181152 -0.17848258 -0.43275347 -0.36725697 -0.04161715 0.014626744 -0.2971391 0.39964685 0.06052249 -0.50834775 -0.18999638 0.7745 -0.048061658 0.89608747 0.23652217 -0.062814064 -0.7876468 -0.08225989 -0.059054106 0.2758077 -0.33025607 -0.21333145 0.1422858 -0.38370606 -0.13321576 0.40367052 -0.5431578 -0.4544896 -0.47248188 0.18587998 0.3132927
338 0.4277563 0.22219576 0.6014447 0.5975202 0.10563469 0.06283505 0.8258224 -0.72314346 -0.87741905 -0.508409 -1.2420613 -0.81839865 0.27022594 0.85039467 1.4578794 0.15139793 -0.032305177 0.012471006 -0.80007756 0.76672083 0.5668569 -0.7448535 0.45533818 -0.6598759 -0.54909986 0.89079106 -0.40297446 -0.17080028 -1.457449 0.10891049 -0.5010863 0.52343816
316 0.46056122 -0.4783768 -0.15606827 -0.063085936 -0.8934715 -0.22671513 -0.16665646 -0.4145164 0.029166138 -0.6747475 -0.2652361 0.6101479 0.17520937 0.10577829 0.36277074 -0.30292365 0.08417538 0.032943927 -1.1138802 0.1588564 -0.10627597 0.16016267 -0.81232846 0.35591376 0.54046726 0.14930391 0.42915908 -0.04441057 -0.5042546 -0.010146601 0.32855237 0.60163295
114 -0.63275516 -0.3143766 -1.4587198 1.0488299 -0.73048556 -0.0022907974 0.9824028 -0.34181118 0.16976683 0.35923922 -0.9551697 -0.11681239 -0.034563422 0.6203755 1.0485305 0.8282031 -0.13262817 0.5127145 0.013801651 0.37810716 0.18072625 0.2137608 -0.4350457 -0.5419758 -0.11125462 0.43543446 1.2649107 0.32893386 -0.13642867 0.07931183 0.22288358 0.25544167
111 0.7885478 -0.67989457 0.0060530957 0.0123495525 0.16036434 -0.22132678 0.18068716 0.40421402 -1.3197827 -0.093264334 -0.5400353 -0.41252264 0.2375569 0.12314319 0.08574335 0.48564506 -0.07556636 -0.2888124 -0.7031368 0.088211805 -0.092559844 0.44108024 0.17222178 0.7056381 -0.9141186 -0.32763293 0.44806197 -0.19196603 -0.27311403 -0.5807365 0.2642618 0.68414724
352 0.18404873 -1.160671 -0.61471033 -0.6341703 -0.3535335 -0.1299533 -0.4186392 1.0230078 -0.5575422 0.9579694 -0.09270126 -0.14851215 0.19260958 0.8678916 0.3019946 0.21834616 0.48967537 -0.51465994 -0.47036335 0.6716672 1.0192769 0.8409847 -0.6824464 0.5487157 -0.36551383 -0.048894998 0.8474696 -0.058162913 0.44795483 0.96298075 -0.112839416 0.5083087
469 0.549356 -1.4877292 0.4838148 -0.16487488 1.2642338 -1.2285672 -0.19429736 0.032596946 1.2211992 0.2692851 -0.63132674 0.03096379 -0.5754921 0.8362428 1.2011803 0.784908 2.136639 -1.2134517 -0.036997546 -0.37521076 0.9762761 0.8649294 -0.036811996 1.0409327 0.14121561 1.3511488 0.35669655 0.38705865 -0.88856727 -0.13051406 0.6563427 -0.09604147
439 -0.0005982577 -1.2869856 0.4064892 -0.43247157 -0.3520689 -0.24732694 -0.4932022 -0.42323345 -0.48330918 -0.34970614 -0.39082664 0.15180342 -0.23324962 -0.3148985 0.0028450198 0.20511684 -0.5781866 -0.33164108 -0.009808501 0.8277843 0.09078217 -0.1256682 -0.2175045 -0.113448486 0.7394036 0.37572014 -0.44543496 -0.47904888 -0.4806987 0.24476728 -0.12206383 -0.09956556
176 0.6258378 -0.44709668 -0.25633758 -0.22965747 -0.87601626 -0.24537821 -0.10618586 -0.4421144 -0.15666272 -0.91104054 -0.35345984 0.4928177 0.043865435 -0.20751207 0.21288888 -0.30656436 0.24173671 0.13111702 -0.9179166 0.025596883 -0.001574514 0.23829286 -0.81994045 0.33085862 0.66700953 0.12278117 0.41464236 0.0073741437 -0.5249229 0.056218624 0.3238554 0.8109177
197 0.70146054 -0.50512254 0.117911704 0.50729024 0.10418751 0.22754431 -0.5847144 -0.08344115 -0.6530868 0.0032570278 -0.39953104 -0.05163986 0.08100809 0.20100506 -0.10120552 -0.0039932737 -0.5415534 -0.30009693 -0.06266715 0.3177216 -0.3177567 0.082642816 -0.21579544 0.50657386 -1.2290717 0.33219472 0.4010367 0.3217936 0.19071501 0.035053067 0.0668248 0.7139024
412 -0.11361175 -0.6959081 -0.11124771 0.39529365 -0.11484014 -0.57367474 -0.86914223 -0.2924088 -0.2563108 -0.475675 0.2267533 -0.14557311 -0.054072674 0.029278059 0.4821319 -0.05651114 0.19666952 -0.65208673 -0.18315537 0.7711936 -0.36559194 -0.16175117 -0.6931943 0.1433834 -0.90315086 0.251146 -0.48174253 0.7330503 0.35452634 -0.5533316 0.12233005 0.4841234
183 0.52114576 -0.35982075 0.48096287 0.18420345 -0.2820914 0.5352936 0.3193932 -0.51142406 -0.16199864 0.17483853 -0.13184673 0.6655843 0.6166288 0.0011875697 0.38582444 0.9517565 -0.3287979 -0.67568713 -0.18751486 0.21372509 0.15553345 0.17140329 0.07906632 0.7439207 -0.895326 0.2386098 0.42104203 0.44104066 -0.012560833 0.21074793 0.53025687 0.39470935
258 1.1319956 -1.6624538 -0.5283176 0.40308395 -0.16984469 -0.4981869 0.7268232 0.017465904 -0.2762925 0.063059665 0.58821017 -0.2317804 0.0041919546 -0.87511677 0.27623126 -0.75686884 0.1555592 -0.50069785 0.2623018 0.0869331 -0.09056062 0.09024168 -0.014062562 -0.28835633 -0.1404791 0.69828117 1.1919324 -0.04368748 -0.027375005 0.31394175 -0.39298892 -0.14867178
461 0.72957385 -0.5399724 -0.51609236 -0.6168914 -0.23519754 -0.25737908 -0.012948486 0.52139294 -1.4086248 0.30602238 0.14072624 -0.33954743 -0.059702538 0.5392039 0.38417003 1.3367069 0.341263 -0.16852692 -0.3047666 0.060698513 -0.74288416 0.62886673 0.24667516 0.0675001 0.06655565 -0.16055362 0.41302678 0.2544324 -0.5147598 -0.28591484 -0.03862536 0.7504207
251 0.12803847 -0.7062673 -0.28669354 0.20368274 0.22229683 -0.37516215 -0.89848626 0.1329915 0.12965798 -0.57381296 -0.29190335 -0.52532315 -0.8308048 -0.30904868 0.5153627 0.5429085 0.5821823 0.034910843 -0.37048018 0.09212019 0.062038943 -0.22260384 0.6353624 -0.4479742 -0.10077054 -0.805309 0.79619724 0.39768538 -0.1433968 0.4766308 0.112648174 0.901747
259 0.46909142 -0.50893205 0.015794657 -0.38858616 -0.1545092 0.16048492 -0.28993416 -1.0167003 0.12869298 -0.6523503 0.45870647 0.13874145 -0.39336336 0.1383459 1.0881064 0.9563591 -0.13563882 -0.09884336 0.06794049 -0.12475327 -0.3425761 0.43045723 0.08091127 0.13906048 -0.9329878 -0.23745762 0.2377304 0.003013281 0.23326139 1.319169 -0.73703855 0.30971208
335 1.1770182 -0.688373 -0.35626757 0.23937191 -0.17995074 -0.18347794 -1.4381236 -0.22246651 -0.61642146 -0.3733765 -0.2335236 0.74643433 0.09678488 1.3542782 0.8273462 -0.29518402 -0.094673365 -0.69981563 0.5912185 0.7065406 1.1745186 0.004939338 -0.04357996 -0.6727407 0.44841477 -0.10870335 1.1625502 -0.14464635 0.18763827 0.10379453 0.9170725 -0.6256832
279 0.078836724 -0.7971454 0.09968773 0.6638682 0.23881568 -0.8785173 -0.7129885 -0.020625515 0.10979156 -0.42054683 -0.16226745 -0.14845452 -0.71194327 -0.17253175 0.7251007 0.14890328 1.0840003 0.13648371 0.0010719964 -0.14297698 -0.21347414 -0.39484483 1.1987433 -0.8060181 -0.29312012 -0.16820467 0.23176493 0.3972205 -0.3086318 0.32113343 0.46845046 1.0973277
24 1.1616029 -0.5311707 -0.115094535 0.29549298 -0.14851953 -0.026959876 -1.3386761 0.12625979 -0.8168648 -0.08057013 -0.4995003 0.3397196 -0.31311664 1.3079611 0.4801869 -0.10913793 -0.2344251 -0.32457727 0.39953768 0.5263075 0.84152836 0.262551 0.16730793 -0.41030434 0.15839045 -0.23330437 1.1632862 0.083198324 0.15003571 -0.09060201 0.64403933 0.1358877
190 0.47334403 0.020294461 -0.24978155 -0.25582528 -0.5325126 0.54803514 -0.29772127 -0.9565976 -0.6858006 0.07124429 -0.28254697 -0.5211986 0.3283432 -0.48405567 0.8461198 0.5490616 -0.32739276 -1.0555326 0.26699528 0.045781814 0.27261063 -0.2243074 0.04486925 -0.0009357701 0.08574001 1.0021846 -0.6353774 0.07392505 0.025101647 0.14192976 0.17990197 1.0592839
476 -0.5966535 -1.3991283 0.16372453 0.22207192 -0.41755247 -0.54283315 0.26452217 -0.6773457 -0.20567223 0.28224355 0.9432556 0.7829192 0.494098 0.36227125 1.1555432 0.58180773 -0.37422556 -0.80062765 0.2090396 1.0771896 0.018440494 0.61428666 0.38397524 0.2874522 0.88636464 0.5438304 -0.3655292 -0.28810063 0.56224537 0.32678807 -0.42436966 0.48325205
220 -0.9354108 -1.068548 -0.49249405 -0.47189438 -0.65525025 -0.10299552 -0.04264053 0.21820863 -0.6107745 -0.023830194 0.027106449 0.9956877 0.50405914 -0.51006156 0.37456357 0.8096338 0.29428154 -0.30778694 -0.16795026 -0.10997397 0.72913206 0.32397497 -0.15048909 0.1435318 -0.507859 0.62643284 0.045305125 0.23818536 -1.1467814 0.73162234 0.108605854 0.21148306
106 0.2518333 -0.6216436 -0.07889616 0.10441041 0.8378012 -0.0051359353 -0.48474112 -0.49292064 -0.09868756 -0.8224081 -0.21372515 -0.13745227 -0.7722242 -0.33780777 0.3850532 0.27637622 -0.10858133 0.09718057 0.072022244 0.94178843 -0.11607887 -0.099089935 -0.3070569 0.24731459 -0.81050426 -0.028662942 0.26346728 -0.052967563 0.25625563 0.03293427 -0.41741046 0.5037288
498 0.48339465 -0.4559626 -0.019368475 0.22395782 -0.27531493 0.80313593 0.12044154 -0.8808288 0.079971686 -0.8037481 0.5372721 0.2121955 0.9088419 0.212016 0.5061572 1.0749682 0.41324186 -1.006618 -1.0087658 -0.05071661 -0.19249211 -0.06685326 -0.6128357 0.3420473 0.762043 0.21315981 0.43186504 0.058167353 0.036148015 -0.018055903 0.30290097 0.31785643
173 0.4073047 -0.55356455 -0.030879902 0.038747724 -0.71391946 -0.51321495 -0.41195455 -0.48816982 0.00024815171 -0.8522695 -0.22276345 0.43165845 -0.50086135 -0.25051117 0.39958078 -0.1890769 0.49611443 0.007132888 -0.83491284 -0.24840821 -0.15758033 0.064000234 -0.49843055 0.20843932 0.35139284 -0.18351495 0.25560567 0.18873523 -0.49575135 0.31027284 0.3887351 1.2104411
101 1.2696898 -0.7358514 -0.16152692 0.2820446 -0.091462836 -0.35006207 -1.2066748 0.026198534 -0.48985285 -0.21089515 -0.33442977 0.89862704 -0.114671536 1.476899 0.6110449 -0.25160655 -0.10853298 -0.54140216 0.52796364 0.8384249 0.8713868 -0.22461884 -0.32089534 -0.68071145 0.28111175 -0.28136894 0.7898678 -0.119022824 0.078660905 0.12875667 0.82037365 -0.4025335
55 -0.9902619 -1.4558772 -0.7000153 -0.15686756 -0.10286817 0.2529074 -0.14942753 0.22718427 -0.50366837 0.112486854 -0.07985352 0.79529285 0.60864824 -0.68616873 0.43560916 0.9116885 -0.088863745 -0.20079282 -0.9097006 0.050399642 0.72091454 0.44372946 0.23171395 0.05528757 0.23671278 0.29046836 0.5216408 0.39809033 -0.95941585 1.0139176 0.55526394 0.12664613
393 -0.14036463 -0.7518694 -0.5690596 -0.357294 0.6716466 -0.39243028 0.021476561 0.3243704 0.42832142 -0.54358685 0.32868695 -0.034738768 -0.005958288 -0.11834143 0.58074087 0.43398649 -0.14110325 0.82316434 -0.3423003 0.94887877 0.46110782 0.066984914 -0.90629596 0.06480387 0.36997193 0.79097956 0.73221505 -0.34603408 0.5673146 0.3069326 -0.4045715 0.6474998
155 0.41521114 -0.43058974 -0.07030899 -0.5166705 -0.34892395 0.7115298 -0.83856016 -0.3364679 -0.9986598 -0.16022044 -0.818361 -1.073863 -0.13448994 -0.5026786 0.26397106 -0.0619256 -0.43679488 -0.95064014 0.24701807 0.22143634 -0.27007267 -0.12441701 0.17953117 -0.3857371 -0.23833495 0.9683451 -0.1361517 0.18916558 -0.13115449 -0.012317761 -0.12967113 0.60531664
320 0.31378886 0.25239307 -0.21925895 0.5111159 -0.04326678 0.1983483 0.27723172 -0.34301403 0.08746473 0.15730295 0.030174673 0.04273617 -0.3794319 -0.54585266 1.0293858 0.6034316 -0.31500116 -0.19877382 -0.0060251863 0.48115727 -0.5777429 0.79814315 -0.5275114 -0.6174054 -0.44732654 -0.1716372 0.75575197 -0.1138031 0.2316071 1.23758 0.093523316 0.5701596
336 0.26816213 0.16925222 -0.50007206 0.5950789 -0.24790072 -0.14495231 0.26513472 0.36259663 -0.13678952 0.30302113 -0.3250279 -0.17363976 -0.29328033 -0.7219867 0.6279165 0.1468441 0.120986655 -0.5007997 0.18331505 0.17376117 -1.0517814 0.42487323 -0.635561 -0.7493564 -0.070296586 -0.142915 1.3288172 -0.029408678 -0.33734685 0.29230705 0.35846052 0.8593817
2 -0.4430423 -1.3678275 -0.0060429694 0.44859466 -0.36013642 0.11488639 -0.65611136 0.5780628 0.27207768 -0.2987205 -1.0796932 -0.4736396 -0.1326505 0.530306 -0.0781888 0.55919963 -0.20335324 -0.02712937 -0.33380172 0.53158236 -0.4035228 -0.31895092 1.223976 -0.5178631 0.79101205 0.27797177 0.3691528 -0.53400904 -0.24253173 0.5561649 -0.02009406 0.7191217
372 0.16149844 -0.3418325 0.27953482 -1.1534106 -0.61412084 -0.15167046 0.1970398 0.04701904 -0.06351166 -0.22311474 -0.42718738 0.1156459 -0.08199676 -0.8681419 1.8420813 0.47195798 -0.20628707 -0.19364214 0.33203632 -0.1429981 -0.01526433 1.0011964 -0.628677 -0.13640216 -0.25913885 0.19874878 0.14991787 -0.14117065 0.48716038 0.39304137 -0.61673045 -0.24940786
79 0.93848354 -1.3168013 -0.85800076 0.5574288 -0.39213046 -0.85040915 0.6435221 0.13527861 -0.21558315 -0.3512622 0.51947105 0.41254738 0.3167367 -1.0561368 0.26392606 -0.5005794 0.5685146 -0.70749676 0.1703108 0.587375 0.2648334 -0.30723545 0.21368939 0.30702993 0.014142161 0.8730761 0.7313958 -0.24141665 -0.06549818 0.32770404 -0.78139144 -0.15765378
399 -0.46478605 -0.8583387 -0.072461516 -0.0432656 -0.105346866 -0.26520163 0.23751931 -0.24734801 0.35653862 0.0076195835 1.1581023 0.24752009 0.85455865 0.28473136 1.1945494 0.3210329 -0.42698255 0.032601826 -0.0702294 1.143685 0.4016501 0.41888544 0.09305379 0.045913905 0.8664539 0.3360518 -0.0545284 -0.6437601 0.7389304 0.66409945 -0.7581277 1.1572974
350 0.5420646 -1.087111 -0.3109356 -0.13361438 -0.13355447 1.1025375 -0.21338636 -1.0260367 -0.372324 -0.2067963 -0.87854767 -0.9219217 -0.48420355 -0.5647116 0.51634973 0.016799686 -0.19242617 0.32017353 0.29324612 -0.10696866 0.34219736 0.65788543 0.07277888 -0.30230588 -0.06910807 1.1812814 -0.3207258 -0.00037936488 -0.106785156 -0.48894814 0.36759233 0.4915265
491 0.13944738 -0.44194752 -0.3827982 -1.0140455 -0.35143664 -0.36012578 0.1026005 0.40964156 -1.6022321 0.22820385 0.04470641 -0.2871905 0.072680645 0.37243193 0.79214853 1.0106992 0.18859619 -0.30135638 -0.2887211 0.048388347 -0.41250306 0.47630957 0.0652632 -0.20829347 -0.023814026 -0.4176651 0.48068827 0.15171191 -0.2643322 -0.33728248 -0.12437386 0.41227356
159 0.64803666 -0.14309408 -0.67289895 -0.31646195 0.07796501 -0.7624209 0.17197932 0.033031154 -0.1525757 -0.67027 -1.3977621 0.43329585 0.12649311 -0.4981992 0.31877112 0.4247026 0.4352066 0.1777141 0.17935804 0.115992695 -0.09788972 0.3286938 0.7477323 0.13108793 -0.10684428 0.12860735 0.0003264273 -0.33511233 0.17882821 -0.4681124 0.09291833 0.52156466
37 -0.35754177 -0.026574457 -0.22563611 -0.026521368 0.8258368 1.1165009 -0.14697617 -0.21770158 -0.21713653 0.11372944 -0.32598978 -0.0035920918 0.48746878 0.439798 1.3941451 -0.4138883 -0.097258195 -0.22309622 0.25394544 0.830634 -0.8084796 0.9964409 0.19384521 0.20833685 0.21720573 0.75159943 0.2928371 -0.09610643 -0.65881747 0.0963253 0.09220316 0.3810573
40 0.44659293 -0.055119425 0.3798256 0.050379395 -0.26623818 -0.26089877 0.11337397 0.188418 0.0062519275 -0.6128655 -0.46170148 0.35749802 0.16986907 -0.2216477 0.32289007 0.50826013 0.91426736 0.28689957 0.98537093 1.1537156 0.030468203 -0.25975055 0.3612679 0.16997983 0.29649588 0.36347046 0.03704579 0.07246197 -0.16668415 0.37727186 0.5904746 -0.08000623
467 -0.55424255 -1.1687552 -0.30971062 0.24094397 -0.36731294 -1.0059392 -0.3358178 0.3693915 0.38227046 -0.23694035 0.42224914 0.12957959 0.22972994 0.1181681 1.0091898 0.026733425 0.4550868 -1.0787187 -0.5733825 0.4549433 -0.8008266 -0.35813105 0.53236777 -0.23662587 -0.19233517 -0.14017107 -0.24040729 0.6669085 0.5250869 -0.23202202 0.090702005 -0.12850836
243 -0.6662366 -1.4321792 -0.29183665 -0.08507345 -0.25586843 0.29942963 0.17503534 0.31640708 -0.61931485 0.25180882 -0.1208994 1.0527903 0.5105161 -0.52253413 0.4479934 0.56322014 -0.10987135 -0.18246979 -0.6895924 0.11452717 0.7089384 0.54921234 -0.16703635 -0.20786485 -0.13220619 0.37277177 0.2360348 0.44788122 -0.95961845 0.8912344 0.3290071 0.17544666
208 0.5278652 -0.8346197 -0.031201154 0.19542646 0.4991057 0.79324424 -0.22377355 -0.5379725 -0.23538089 -0.68423635 -1.3415146 -0.19370684 -0.86005586 -0.79896694 0.15276627 -0.15898328 -0.29639962 0.21065538 0.12644236 0.29284602 0.07946784 0.71313554 0.34304693 0.6220598 -0.16466673 0.5111695 0.08802476 0.04852582 0.15944242 -0.80467623 0.25425386 0.88509756
458 0.6531786 -0.6162684 -1.0192538 -0.2171955 0.23994727 -0.3949331 0.34740207 -0.10822535 0.81208646 -0.76664245 -0.4998776 -0.2999862 0.5604953 0.49642354 -0.24858774 -0.10426056 -0.69503236 -0.28586155 0.039852973 -0.0083239935 -0.073766306 0.2706802 0.29791057 -0.43116558 -0.24794172 0.2963299 0.15738297 -0.1914876 -0.12878735 -0.29859313 0.2695638 0.567519
342 0.2821497 0.13950469 -0.7663507 0.38360885 -0.13912943 -0.75053084 -0.30351776 -0.14199437 0.58134127 -0.23922835 -0.79352474 0.020728601 0.4008258 0.25488597 0.72801155 0.09714522 -0.05632553 -0.9672915 -0.39875087 -0.17860642 -0.26081672 0.2627326 -0.37281513 -0.26794398 0.084310636 -0.22903343 0.66741264 -0.5137608 -0.41612092 -0.3537836 0.22194113 0.22776498
178 0.52437115 -0.83909225 0.03583789 0.34007198 0.51731485 0.108081184 -0.31462872 -0.25125685 -0.10404498 -0.63882905 -0.8251995 0.4000424 -0.6853342 -0.3820698 -0.05622194 0.31437644 -0.6429736 0.43298775 -0.09141576 0.77662987 -0.40140587 0.51439375 -0.42580652 0.320972 -0.8221608 0.78692734 0.36564976 0.38495037 0.09200409 -0.64277136 0.00041829536 0.44360334
148 0.33966887 -0.24658248 0.1024975 0.16780281 -0.60579383 -0.03625858 -0.4561932 -1.0398487 -0.8525038 0.09284094 0.25991878 -0.085784644 0.30088937 0.23247837 1.0118241 0.6467583 -0.7883596 -1.4041963 0.3421531 0.093976736 0.44471756 0.17904693 -0.07099732 0.01846932 0.18029779 1.0925949 -0.62293017 -0.08673961 0.4037618 0.58144414 -0.007815067 1.101111
426 0.14456375 -1.2543781 0.029206455 -0.008657951 0.17194113 0.61165404 0.12648648 -0.21550456 0.62415624 -0.5163415 -0.11548107 -0.46750036 0.27476013 0.20923813 -0.1320416 -0.44125202 -0.46950284 -0.23611742 0.50212324 0.42626852 -0.252987 0.5868858 -0.329975 -0.88960916 -0.6135225 0.21528752 0.2883855 0.12302087 -0.59493303 -0.03444737 0.24787793 0.5697551
152 -1.00046 -0.8886638 -0.25381443 -0.3875217 -0.28922862 -0.37280747 -0.25848457 0.22240621 -0.74524033 -1.0883127 -0.011437101 0.14646077 0.42956012 0.739808 -0.17350855 0.12128365 0.033750445 -0.16305724 0.8018469 0.07487417 0.41000167 -0.2003686 0.13494909 0.33777523 -1.2662586 0.85334635 -0.33014473 -0.35455042 -0.7723358 0.45198184 -0.24613068 0.8651338
25 -0.96739054 -0.6200546 -0.21861498 -0.5312029 -0.21894582 -0.28252986 -0.31065163 -0.0252909 -0.64532685 -0.5497939 0.00065554417 0.056169033 0.646624 0.4849124 -0.13581254 -0.1563786 0.26667854 -0.3228073 0.6582137 0.3708003 0.118582174 -0.11740619 0.13569392 0.25842145 -1.6182177 1.0386446 -0.23855937 -0.13490042 -1.1021239 0.6122338 -0.12816553 0.59193945
209 0.8791574 -0.22697148 -0.28980452 -0.3508233 0.41529694 -0.9266638 0.39321393 0.14415726 -0.5638127 -0.3969111 -0.8453728 -0.39965957 0.22280012 -0.17099944 0.5240023 0.71585023 -0.093011335 -0.5374981 -0.2584637 -0.29455742 -0.116849564 0.5735354 0.50146025 0.14702822 -0.46698594 -0.53972757 0.0036276334 -0.7570346 -0.35282782 -0.4455043 0.17236021 0.41913286
138 0.683908 0.07392706 0.5957718 -0.31204998 0.29898474 -0.07218285 -0.25642112 0.10999295 0.5206262 0.099093825 0.21999106 -0.033877894 0.4456732 -0.030510304 0.7320753 0.7525103 -0.15155879 -0.10117065 0.40298465 -0.11955713 -0.9065343 -0.15796134 0.059584137 0.058092926 -0.4171576 0.6483168 0.57677776 0.40068054 -0.46631166 0.02084869 0.12746239 0.26745242
281 1.074493 -0.5666889 -0.049404293 0.24652626 -0.23001228 -0.15784064 -1.2887503 -0.18895224 -0.50629467 -0.23521012 -0.28032282 0.7304687 0.17465746 1.137686 0.69753987 -0.1738979 0.023512565 -0.6633521 0.6561616 0.84906816 1.1491282 0.15017095 -0.2095805 -0.5697785 0.42416537 -0.25192237 0.9597037 0.11624536 0.040029652 0.075706564 0.801127 -0.5485467
119 0.10541409 -0.5875547 -0.11904445 -0.014854553 0.5748197 -0.20578055 -0.57993495 -0.4738091 -0.11270253 -0.61823666 0.033234257 0.007120876 -0.52171844 -0.3234887 0.5082199 0.49381644 -0.25476864 0.019704696 -0.2566332 0.7619703 -0.26130527 -0.093034536 -0.5582573 0.12723888 -0.79954106 -0.27679467 -0.02037431 -0.07154528 0.23428299 0.35499027 -0.2505494 0.23038635
14 0.53934616 -0.2867073 -0.62622094 -0.11756918 -0.024762774 0.06810898 -0.7100748 0.8431449 -0.24316932 -0.7862671 -0.1872947 -0.8090602 -0.69945425 -0.10827155 0.6362455 0.86268336 -0.5662231 -0.019342996 -0.36909804 -0.12948078 -0.22086312 0.5685644 -0.19315317 -0.26873755 0.20878784 -0.16393279 1.0541315 0.03722199 0.20398693 1.047947 -0.7007431 0.7249799
157 -0.29423773 -2.084871 0.605859 0.65741175 -0.58921903 0.26459858 -0.42830658 0.24402389 0.33334842 -0.06992195 -0.9491446 -0.16169678 0.008778337 0.16598307 0.33453232 0.17927265 -0.07870222 -0.07779418 -0.12614465 0.76241046 -0.66353905 0.06337673 0.71894115 -0.91997015 -0.13045068 0.50433236 -0.1255845 -1.0853865 0.31053442 0.35653648 0.15415856 0.3432144
317 0.564666 0.08941406 -0.15613483 -0.5949088 -0.48576817 0.33307898 -0.333941 -0.644592 -0.63146895 -0.045673117 -0.6877241 -0.6794465 0.083479546 -0.34545323 0.7598271 0.32176986 -0.26313254 -0.8402739 0.23138663 0.1841625 0.15223032 -0.3511616 0.29784423 -0.1518594 0.30709663 1.2874761 -0.50248814 -0.028308835 -0.1317053 0.01546866 -0.030113136 0.7873612
225 0.59725124 -0.39923775 -0.54769635 0.042105313 0.30015537 -0.77163976 0.18201551 -0.24126509 0.08498056 -0.4264328 -0.6802834 0.13377877 0.2754301 0.41905254 0.4734005 0.321115 0.09769026 -0.5861588 -0.19817516 -0.5193849 -0.26969558 0.38747472 0.118174054 -0.43171337 0.26638585 -0.13927409 0.02889523 -0.57126594 -0.24804768 -0.3428166 0.42442545 -0.20897333
82 0.5019802 -0.7401582 0.50636744 0.16104351 -0.17740257 0.43339914 -0.1337082 0.4626456 -1.2016399 -0.2661351 -0.27844593 0.13337761 0.19759166 0.18874107 0.07984872 1.309018 0.59330183 -0.13696437 -0.60811013 -0.5587703 -0.03103651 0.79854596 0.31774276 0.027160496 -0.8320361 -0.040254653 -0.012761928 0.049368076 -0.91720444 0.1293023 0.41131592 0.25561744
495 0.24001354 -1.6429783 -0.9763498 -0.22321172 -0.55665696 -1.0424643 0.2603726 0.20086356 -0.09524305 0.5997331 1.1582026 -0.19683136 -0.04223785 0.397452 0.6581067 0.29347727 0.08112052 -0.7770791 -0.0036065234 0.79334414 0.44466603 0.04436132 0.60110635 -0.34526345 0.11471653 0.6981924 -0.011654894 -0.3074657 0.414143 0.7887831 -0.88843435 -0.01510732
97 1.217703 -0.19595326 0.4124818 -0.4881002 -0.55502856 0.110205695 0.3791552 -0.04012391 0.5244879 -0.36366975 -0.6464401 0.08726691 0.6265492 -0.113975875 0.46742243 0.69765514 -0.1819476 -0.50435305 0.07105654 0.19614002 0.20897369 -0.63708466 0.56831235 0.81201875 -0.33998045 0.21305765 0.9473655 0.11572646 -0.44055018 -0.118281655 0.1791811 0.4807785
423 0.265675 -1.0341556 -1.0138894 -0.637548 0.055084128 -0.36546585 0.11264593 -0.35199672 0.35655034 -0.35427395 1.4471658 -0.28441542 0.59157044 -0.1664905 0.75765276 -0.13992798 -0.301509 -0.009781084 0.008529075 0.5409786 -0.38219047 0.024579082 0.71476823 -0.28310058 0.54624486 0.5503613 0.5567354 -0.1027985 0.20624156 0.6663023 -0.49998844 0.31810558
474 0.038561538 -1.0048953 -0.2926816 -0.2260969 0.90630335 -0.6886152 0.12985489 0.19017687 -0.17805333 -0.37564805 -0.09138164 0.34248972 -0.016079944 -0.15131167 0.23823489 0.3077381 -0.25898647 0.7975209 0.11184908 0.92030555 0.2871706 0.4455189 -1.1481262 -0.1127205 -0.03678991 1.3174781 1.0845217 -0.12752098 0.45041737 -0.07563208 -0.4453392 0.34693602
466 0.10456088 -0.69609916 -0.41471308 -0.38510233 -0.027354296 0.714717 -0.22195736 0.15704575 0.76717186 -0.85042727 0.5920002 0.03297437 0.42142197 -0.004446795 0.5898089 0.7270678 0.008493999 0.19119994 -0.9370069 0.434268 -0.19864064 0.3764226 0.015343857 -0.5001143 0.49529228 -0.0807375 0.04757648 0.48841083 0.46247277 0.32392108 -0.16319205 0.1759818
204 0.7736391 -0.05914948 0.56098795 -0.22529249 -0.30090645 0.024634732 0.5027745 0.06610634 0.30733833 0.11060989 -0.24873792 -0.10902977 0.679279 0.23660973 0.18553008 0.7018525 -0.10317484 -0.46233815 0.036761496 0.6204336 -0.20516804 -0.45192423 -0.07388371 0.78538734 -0.81463957 0.077619754 0.83190155 0.18756908 -0.27261588 -0.08872906 0.2715372 0.68480664
371 0.06482238 -0.66125816 0.0027103955 -0.98619 -0.88464415 0.17676643 -0.15189041 0.24083108 0.11087033 -0.22268336 -0.33063987 -0.40902534 -0.3296504 -1.0269109 0.93512136 0.5538312 -0.50149894 -0.056602694 0.3284736 0.42052376 0.2413974 0.6178154 -0.18515706 -0.68979067 0.13956495 0.45366037 0.121228255 -0.37773633 0.048587054 -0.21395963 -0.1225166 -0.43510213
348 0.14430435 -0.57512134 -0.08488301 0.5773268 -0.17903502 -0.3843151 -0.09006426 -0.5253625 -0.53652024 -0.27385852 0.603679 -0.08903806 0.37435958 0.6778001 0.14393735 0.700099 -1.0575035 -0.8102699 0.19552684 0.12429603 0.42979112 0.47881433 -0.27512816 0.5741226 -0.14682636 0.4901846 -0.31689048 -0.33941445 0.34335423 1.3300327 0.9705509 0.8843488
389 0.06356283 -1.0322664 -0.343389 0.11200042 -0.1845607 -0.5527123 -0.81501234 -0.27294636 0.17115667 -0.33550262 0.7460122 -0.08869092 0.14354838 -0.11041577 0.5322271 -0.046996947 0.35682318 -0.32248327 -0.066084 0.8245433 -0.36262608 -0.34995887 -0.23931403 0.15803136 -0.53748435 0.26081848 -0.65951186 0.43296233 0.67717737 -0.16701663 0.04235887 0.31837747
33 0.70458424 -0.5086639 -0.26757374 -0.25673166 0.15041928 -0.28085774 0.39468247 0.35882583 -1.2188234 0.007827405 -0.39981952 -0.39635304 0.49492225 0.3566799 0.13029972 0.9920023 -0.17561686 -0.3945694 -0.47505426 -0.026921326 -0.34905112 0.3394686 0.33903345 0.5246792 -0.47869518 -0.1800362 0.23928733 -0.3647986 -0.3350744 -0.4175549 -0.1868957 0.73419726
311 -0.042746555 0.020671813 0.3616137 0.43818074 0.8347748 0.8924969 -0.15183228 -0.027179318 -0.19810203 -0.29444444 -0.23323768 0.0053166104 0.013359037 0.41367885 1.4789643 -0.24628161 0.68483996 0.046323 -0.5087334 -0.011578234 -0.23953067 0.72739995 0.9067488 -0.08552108 -0.13822845 1.0035636 -0.26290944 0.5967339 -0.7087797 0.12233494 0.6200004 0.88586587
169 0.5605622 -0.59725404 -0.32787526 -0.040072486 0.19881797 -0.164228 -0.7681491 -0.10218005 0.13177295 -0.0081407055 0.21915814 -0.0023985952 -0.48770788 -0.6456358 1.0559798 0.47736597 -0.09101005 0.54544175 0.08177969 -0.055288572 -0.32428953 0.31547543 -0.25712633 -0.86733556 -0.33106107 -0.019366154 0.5211077 0.026784537 -0.012078835 0.79585814 -0.10140021 0.011615312
30 0.52601725 -0.09830171 -0.29241022 -0.77511376 -0.41481018 -0.09047287 -0.39902598 -0.59899896 -1.0609609 0.33463404 -0.50244385 -0.7738982 0.2653421 -0.035012484 0.83720994 -0.13170864 -0.122994885 -0.8815402 0.19834477 0.096283324 -0.14979807 -0.1792825 0.08763549 -0.53002083 -0.15873332 1.2754807 -0.9177599 -0.44174218 -0.21791251 0.3382831 0.27624416 0.75159246
217 0.3354637 -0.13041066 -0.57120717 0.5980968 -0.23083514 -0.7118699 -0.48313364 0.51315266 0.6238111 -0.60435694 -0.70705324 -0.26500914 0.22174355 1.0457954 0.41010004 0.28034598 0.028901244 -0.97644323 -0.6486016 -0.3059891 -0.3930877 -0.037057463 -0.52166957 0.075515054 0.69079703 -0.053547952 0.9374045 -0.45547244 -0.60193795 -0.055682566 -0.6116074 0.439016
418 0.633284 -0.8522653 0.059271194 0.34777737 1.0313398 0.17499799 0.6909573 -0.35195446 0.77860004 -0.62018627 0.11420882 -0.64014053 0.45332277 0.5611607 -0.2393232 0.19637683 -0.050828256 -0.012171004 0.053199906 1.0434974 -0.043079834 0.9181856 0.0075719208 -0.58354324 -0.07095654 0.549644 -0.58966136 0.25641638 -0.6400169 0.35082343 0.3150552 0.37562686
309 0.85835177 -1.2452381 -0.7960004 0.34600472 -0.66100216 -0.48852867 0.56637484 0.5917806 -0.403726 -0.27528304 0.06936426 -0.31009862 -0.15739486 -0.30378696 0.46761042 -0.37434345 -0.095448114 -0.9022582 -0.36922768 0.21151248 -0.026198454 -0.19984664 0.32381898 0.26852638 0.32605395 0.85260624 1.5647296 0.033730384 -0.033584546 0.28301135 -1.6139371 0.49075377
301 0.46663663 0.09413772 -0.10308026 -0.5287077 -0.57614374 -0.338195 0.023604773 0.23814243 0.13158984 -0.2657943 -0.454952 -0.37454748 0.37515643 0.9404859 0.5163439 0.83585584 -0.25712472 -0.8901608 0.1602526 -0.1361174 -0.00485825 -0.653359 0.41002777 0.5317372 0.1484099 0.30956432 0.9551152 0.1275534 -0.37504876 0.13661014 -0.12924252 0.36906493
411 -0.04338906 -0.34729326 0.3283293 -0.05589148 -0.27871454 0.23283464 0.4379523 -0.80190736 0.0021692524 -1.0589584 0.15973258 0.4402172 0.6051594 -0.12859246 0.5768011 1.1900268 0.61698973 -0.83841157 -0.8296169 0.16107629 0.022743607 0.59883195 -1.266651 0.2098997 0.9600279 0.22136647 0.09479932 0.12821294 0.39768466 0.28366998 -0.17644951 1.130893
31 0.49619073 -0.258354 -0.47180355 0.34939694 0.086609095 -0.4581442 -0.7414926 -0.45441648 0.77011806 -0.24469097 -0.33338165 -0.23386386 0.5993481 0.33464363 0.8847542 0.33811146 0.15394808 -0.4592559 -0.58936995 -0.15886353 -0.37239102 0.2671195 -0.75214666 -0.33638477 0.3716359 -0.56459785 0.3758532 -0.5031459 -0.30460766 0.047438618 -0.22237445 -0.4967014
493 0.7159718 -0.68913704 -0.5777932 -0.47514647 -0.1639664 -0.28380966 -0.2453759 0.047223162 -0.28593177 0.39021766 -0.29467434 0.14311239 0.3724979 0.3593263 0.4519878 0.2653903 1.0061095 0.8455918 -0.18500997 0.8049796 -0.10977418 -0.30222028 0.09937882 0.029289564 -0.12396043 -0.64521426 -0.01581702 -0.011644494 0.43296492 0.65856427 -0.04424086 0.59605175
359 1.1261954 -0.35149115 -0.525166 -0.47557962 -0.12811957 -0.011826189 -0.1301992 -0.5624159 -0.19658612 0.16255881 -0.67581075 0.12663734 -0.22572075 0.06294611 1.3253188 -0.42645428 0.829579 0.16829583 -0.5009294 0.80199116 0.26868084 -0.018270599 -0.3116832 -0.05472964 0.14920428 -0.3533587 0.57555526 -0.016653642 0.5704019 0.1145146 -0.17339404 -0.24676849
444 -0.35639626 -0.8729155 -0.29907268 -0.42612925 -0.20033747 -0.1041729 -0.83580554 0.18607512 -0.2980548 -0.7516013 0.17751043 -0.022043591 0.2338697 0.51670474 0.4191282 0.2410898 0.11907307 -0.42421567 -0.24190222 0.395679 -0.32699263 -0.18975727 -0.4685701 -0.05624055 -0.17787535 0.4768671 -0.78292626 0.985824 0.054165017 -0.5872518 -0.14890717 -0.11619503
437 0.3833691 -1.1615568 -0.38884035 0.33169517 0.7980885 0.58262086 0.11731784 0.09984769 0.62112397 -1.3463393 0.13398363 0.03951425 -0.05958057 0.7613934 -0.05882961 -0.23567958 -0.4456205 -0.06868209 0.0590266 0.49886003 -0.20052952 0.53804696 0.3887989 -0.79328233 -0.29105514 0.557649 0.46871215 0.43015644 -0.58799034 -0.28980112 -0.05825334 1.1482371
374 0.5154042 -0.46249992 -0.493268 -0.5064641 0.44736296 0.71471256 0.33377898 -0.008500793 0.38819402 0.5507661 -0.32593516 1.1398162 0.0516689 0.060478956 1.4824232 0.6968658 0.93863606 0.29687062 -0.097575076 0.8006158 0.39950433 -0.49289832 -0.075187355 0.5803564 -0.43499798 -0.6946176 -0.45649722 0.22237024 -0.32466504 0.35131794 -0.17760354 0.005078223
278 0.5245411 -0.41457626 -0.042630754 -0.7006911 0.3998077 -0.60662735 -0.7086003 -0.02133531 -0.37035033 -0.52503437 -0.46095133 0.42086872 -0.48265082 0.09136274 0.89163804 0.57641286 -0.014822221 0.22509012 0.21008322 -0.038791567 -0.41004282 -0.14460684 -0.14398979 -0.47624794 -0.37068442 -0.5406063 0.69465595 -0.119138435 -0.041553397 0.7935931 -0.6100426 0.22163059
337 0.7911465 -0.37751636 0.851559 0.10530574 0.4588161 -0.31064248 -0.01130146 0.07891376 0.55820274 0.26016137 -0.9774065 0.3942243 -0.03427588 0.27644467 0.7785387 0.7310629 1.2678525 -0.41940913 0.3218228 -0.024048422 0.7040457 0.58387476 0.5889256 0.65007263 0.06851255 0.930497 0.4317197 0.5698587 -0.8327066 -0.035687346 0.43124583 0.08058963
465 0.4275521 -0.58981675 -0.3745119 0.6136346 -0.27013263 -0.34233236 0.19472755 0.33030483 -0.2699465 -0.77919036 -0.54197633 -0.3614417 0.77857447 -0.23467234 0.5347317 0.4405939 -0.014984811 0.34743294 0.37098393 0.27928793 0.3809314 0.49730426 -0.057955667 0.1308011 0.07914798 0.15634009 -0.39670405 -0.17783633 -0.1480368 -0.16428833 0.18200828 -0.45699245
13 0.65014845 -0.09503853 -0.044933487 -0.4914239 -0.37272966 -0.122323185 0.35876626 -0.262546 0.68782455 -0.20691134 -0.30357513 -0.15827112 0.93314415 -0.115492366 0.5497036 0.75496906 0.012054637 -0.30009505 -0.026233284 0.12917686 0.05788625 -0.75390935 0.8019553 0.55356425 -0.2819096 0.46784967 0.82941073 0.27254224 -0.20243374 0.058212906 0.529508 0.26439577
94 0.6119211 -1.3459437 0.52761465 0.29062444 1.2039977 -0.1882142 -0.6198625 -0.4370031 0.84260356 -0.07006385 -0.7696147 -0.0030177492 -0.8862484 0.08861493 0.8900574 0.29016358 1.5459123 -0.17526394 -0.15032661 -0.55279964 0.5069954 1.0549359 0.3110732 0.59944034 0.1135001 1.1573008 -0.109112754 0.23270665 -0.43416092 -0.17170966 0.4998403 0.12593101
181 0.5258265 0.01429382 -0.25055805 -0.31566584 -0.34181964 0.15669249 -0.35259178 -0.59814376 -1.0375152 -0.03471828 -0.7326164 -0.83425015 -0.16408306 -0.19225249 1.032874 0.11642116 -0.10654692 -0.9955344 0.19785959 0.23944308 -0.0077705653 -0.290946 0.19023332 -0.56603163 0.40366998 0.8117016 -0.58037204 -0.18867542 -0.08687513 -0.33118927 -0.18002899 0.56459624
383 -0.3944247 -0.51999825 -0.6374067 -0.0074154553 0.80895627 0.02404675 0.7027261 0.32006845 0.50768566 0.5990608 0.6391625 0.5120045 0.7049293 -0.30274874 1.5883923 0.35318393 -0.3050858 -0.09405313 0.090403505 0.50064844 0.34974056 0.14170064 -0.10719986 0.62041914 0.70998114 -0.18369654 -0.8541001 -0.634148 -0.009713593 0.5206415 -0.105607346 1.5249515
456 -0.15632835 -0.99356616 -0.00927091 0.39223713 0.742004 0.7600795 0.658961 0.20162833 0.5912565 -0.3971675 0.39265338 -0.16601196 0.1542596 0.29039156 0.3648872 -0.30559164 -0.054214966 0.10512863 0.26217914 0.78687435 -0.2716725 0.6418493 -0.17163463 -0.7236199 -0.81424123 0.06326768 0.08452482 0.2526501 -0.46331796 -0.0709166 0.27942815 1.3923805
65 0.31270114 -0.4695907 0.2303105 -0.0922135 0.69364905 -0.27115303 -0.60532993 0.4977174 -0.33597505 0.19908443 0.04148543 -0.04834976 0.09775947 -0.54979223 0.71892774 0.5883098 -0.16763024 0.23783267 -0.05049894 0.035742037 -1.1403972 0.0015454892 -0.8664382 -0.7250114 0.11679604 0.019677226 0.44736466 0.2586621 0.11773731 0.6123576 -0.35708803 0.90878415
261 0.42444888 -0.09834538 0.11079541 0.23137933 0.021342754 0.02212312 -0.54707825 0.17808823 0.29196867 0.036782436 0.38227245 0.23633808 0.005752421 0.22188841 0.42647523 0.8636978 -0.19230087 -0.3976237 0.4615058 0.022801578 -0.93312454 0.44937062 0.56677234 0.32239377 0.11752969 0.685153 0.5504371 0.30576342 -0.30732423 0.32477048 0.2999312 0.40186408
287 -0.32069328 -1.771336 0.98506856 0.5929439 -0.6180649 0.4225126 -0.61670697 0.5805215 0.23495233 -0.3087991 -0.7911353 -0.405707 -0.32236016 0.14237098 0.570336 0.3192332 0.14845651 0.0829544 -0.11211192 0.289831 -0.5648624 0.02244802 0.7484294 -0.5445749 -0.03430019 0.45988145 -0.013905426 -0.66535336 0.11901339 0.07686976 0.15715781 0.63272685
443 0.40704283 -0.34991866 -0.11658275 0.43743113 0.14196686 -0.0036647294 -0.22963394 -0.0053630974 0.6234891 0.038785476 0.2686017 -0.500337 1.283938 0.52855784 0.807697 0.20593984 0.2602794 -0.38863832 -0.7040703 -0.007908291 -0.102836736 -0.28145918 -0.39438045 0.36019075 -0.3615841 -0.48905852 0.54486597 -0.5316011 -0.89594 -0.22742303 0.38827386 0.023503805
440 0.1037985 -0.58274585 -0.73470104 -0.7766859 0.583333 0.4409696 0.018021554 -0.33006582 0.51374286 -0.33979324 1.0435187 -0.044312492 0.7054743 0.22807367 0.9646361 0.025781663 -0.021428546 0.91906786 -0.3237317 0.9572596 0.034089554 -0.21042204 0.2080596 -0.13802703 0.7250704 0.13829248 0.32041457 0.03675801 -0.26334223 0.69847536 0.20909718 0.9467
141 0.56021875 -0.39810845 -0.54882324 -0.24809386 0.44077677 -0.7838479 0.3671211 0.15824164 -0.48707563 -0.7101986 -0.8625095 -0.041467033 0.051530987 -0.038613465 0.45212588 0.45833743 -0.017991325 -0.2976372 -0.62260145 -0.370515 -0.56723326 0.50409955 0.63110054 -0.10766114 -0.499325 -0.14359075 0.41523844 -0.29143018 0.18924937 -0.74417806 0.06434032 0.6327541
410 -0.4869737 -1.3159591 -0.8614631 -0.23808368 0.7670774 -0.034037217 -0.058577202 1.0860683 0.024115913 -0.50705457 -0.869817 0.26042774 -0.3418171 0.30776983 1.1970158 0.4247554 0.03980764 -0.82460207 0.15900761 -0.76589775 -0.4201035 -0.40316036 -0.40103477 -0.18704423 0.29378012 0.27466843 -0.0057557877 0.84005487 -0.43223435 -0.29368377 0.19597521 0.25476408
21 0.6456149 -0.3503519 0.30458537 -0.2890383 -0.35470983 0.2547135 -0.46661144 -0.7006574 -0.79943705 0.21957502 -0.3283241 -0.3935058 -0.47237283 -0.28285286 0.8063973 0.11578963 -0.031200463 -0.61206365 0.3972607 -0.048830774 -0.42454678 0.47211277 -0.020586042 -0.74188876 -0.20400698 0.6534608 -0.3730757 0.057438593 0.060596935 0.088453084 0.04893118 0.66223854
7 0.31212583 -0.53542775 0.28317365 0.20158586 0.56233263 -0.09525891 -0.23703687 0.32104227 -0.30883977 0.60791665 0.29038906 -0.35841393 -0.07188028 -0.5747706 0.62124395 0.03620328 -0.014262838 0.30042103 0.377661 -0.049435917 -0.6879201 0.6116395 -0.45198792 -0.4867558 -0.18711087 0.46080092 0.20460193 0.07365675 -0.5322062 0.3718867 0.9973635 0.40827146
409 -0.6506375 -1.0073164 -0.5792224 -0.09485126 0.8447764 -0.2805331 1.031324 1.0787574 0.12587707 0.091267236 -0.3835115 0.3903129 0.09038794 0.35829556 1.5501763 0.32154086 0.2630177 -0.7038732 0.08302083 -0.3052356 -0.08670317 -0.37099823 -0.5198209 0.11908843 0.46320587 -0.21321969 -0.54216015 0.62699336 -0.3529659 0.15335692 -0.005904338 0.98935723
185 0.5364501 -0.4199744 -0.35200506 -0.18955699 0.080239564 -0.20005971 -0.11471341 0.7356755 0.31763262 0.5177057 -0.04152765 0.2814693 -0.13838778 0.26377591 1.0195986 0.43287626 0.33099347 -0.6169814 0.15014508 -0.1268564 -1.2551498 -0.70869696 -1.1401165 -0.33544537 0.19913143 0.42089874 0.13831493 0.22225603 -0.8744456 -0.0925895 0.16419978 0.13625646
142 -0.5315233 -0.28313717 -0.74216825 0.09746996 -0.33144557 -0.44328803 -0.6943416 0.4526043 0.15464711 -1.3407669 -0.15402733 -0.08495845 0.7325711 -0.5843508 -0.35304165 0.47342566 0.5651603 0.18441582 0.3409533 0.84894305 0.2790164 -0.33552825 0.5844086 0.36553645 0.60251564 0.18339586 0.4292733 0.38459042 -0.47689548 0.6918173 0.50297433 0.32714704
133 -0.5371797 -0.7722027 -0.37768745 -0.9310356 0.31071132 0.13063703 -1.0061496 -0.24275765 0.15160328 -0.7442321 -0.3768052 -0.6726069 -0.22869869 -0.677248 0.6271537 0.2587312 0.1264528 0.23178235 -0.5316988 0.7527883 0.2835677 -0.06670155 0.637353 -0.34941995 -0.4354568 -0.30309987 0.7132086 0.25244206 -0.09029206 1.1894661 -0.0043081115 -0.04820791
102 0.99082273 0.094121784 0.28905207 0.20128672 -0.5074378 0.2235498 0.4166811 0.29318988 0.304104 -0.21614067 -0.62574846 -0.10456853 0.5174103 -0.47019148 0.5649155 0.33976963 0.27990744 -0.22263372 -0.17908771 1.0229623 -0.11315979 -0.4239004 1.0585631 0.045494925 0.46218163 0.871887 1.200029 0.8000971 -0.10662362 0.025914686 -0.031081116 0.012852985
91 0.35431057 0.5077219 -0.7694331 0.2992981 -0.24823897 0.20710999 -1.1625051 -0.028331127 -0.4704787 -0.9347061 -0.6802549 0.017627375 -0.33074945 0.0015537698 0.6005436 0.25616303 0.50855803 -0.39590186 0.8582369 -0.52377796 -0.9636295 -0.2529633 0.3617162 0.16987069 0.45480874 1.2858609 0.03384335 -1.0114865 -0.5549072 0.3904422 0.088535465 0.20154186
288 0.41611 -0.98083246 -0.21634375 0.53766465 0.490811 -0.16192786 0.47193792 0.5050314 -0.26478568 -0.78155595 -0.37818497 0.14446355 -0.1662079 0.44104075 0.7091097 0.08155991 -0.14255463 -0.25201988 0.34567156 -0.22229058 0.18953294 -0.24899897 -0.5671367 -0.52300304 0.97799504 -0.07658748 0.049998667 0.30335596 -0.37370342 -0.025445009 0.6605169 -0.043173466
328 0.4808622 -1.2027073 0.30880255 0.2610944 0.94755226 -0.84248954 0.36055803 0.2896501 0.6953645 0.4013576 -0.24131666 0.0013645458 -0.15048233 0.7808213 0.5036127 -0.33626878 1.3679739 -0.98241115 -0.3987271 -0.33032852 0.16346489 0.3848502 -0.3075254 0.6779714 -0.17211325 0.8398512 0.23637891 0.021337295 -0.79170793 0.3849466 0.9137609 0.19278216
124 0.3755387 -0.21993591 -0.73612535 0.7044336 -0.02044489 -0.4380728 -0.8635676 -0.3254272 0.7747014 -0.732061 -0.69427353 0.05531348 0.35590145 0.63543725 0.5899614 0.5891936 0.52163726 -0.72808295 -0.42003605 -0.35712832 -0.39230615 0.04247274 -0.45294595 -0.2697517 0.29548058 0.14381917 0.50754 -0.070615426 -0.7125575 -0.8327404 -0.19793388 -0.14334536
346 0.7792572 -0.26653823 -0.6010391 0.4905198 -0.019314708 -0.39580438 -0.6501177 0.06497319 0.72788614 -0.73074704 -0.155916 0.39529276 0.4963681 0.95603764 0.8583369 0.017653469 0.124411955 -0.43855122 -0.47828206 -0.1259764 -0.20063159 0.19684826 -0.17680195 -0.29045635 0.27469748 0.27050567 0.49541983 -0.13093571 -0.44580948 -0.8375889 -0.15322584 -0.32485646
